 8.71284e-18
-1.69269e-17
 1.98252e-17
-3.01385e-17
 6.24253e-18
-4.60438e-17
-1.94374e-17
-3.78411e-17
-9.33265e-18
-2.29892e-17
 -3.3662e-17
 9.04967e-18
 3.90852e-17
  -4.534e-17
 4.13833e-17
 9.97118e-18
-8.50166e-19
  2.2276e-17
  -4.003e-17
 3.68573e-17
 3.82263e-17
-2.44429e-17
-2.01601e-17
 3.91816e-17
 -4.8123e-17
 3.02126e-17
 4.04715e-17
 2.86187e-17
 2.75136e-17
-1.87785e-17
-4.52817e-17
-1.20572e-17
 1.24769e-17
 2.27258e-17
 5.98659e-18
-2.95641e-17
 2.48643e-17
 3.47316e-17
-1.92229e-17
 -3.2752e-17
-3.65412e-17
-4.70257e-18
   2.448e-17
-4.57397e-17
-1.86018e-18
 1.75797e-17
 1.24139e-17
  4.5472e-17
-8.42793e-18
 2.05662e-17
 3.40456e-17
-1.84853e-17
 4.43056e-17
-3.43981e-17
-2.75872e-17
 4.43649e-17
 4.39968e-17
-3.53993e-17
    2.47e-17
 2.32268e-17
-5.99546e-18
 2.76006e-17
-3.71141e-17
-4.18021e-17
 2.04277e-18
 1.70549e-17
-2.31839e-17
-2.13766e-17
 3.50282e-18
  5.7755e-18
-5.94624e-18
 1.51439e-17
-4.72107e-17
-2.97498e-17
 1.75866e-17
-8.88528e-19
 3.60122e-17
-1.82832e-17
-3.70015e-18
-2.06994e-17
-4.60006e-17
-1.79381e-17
 8.99768e-18
 4.64873e-17
-4.15387e-18
 2.95928e-17
 4.25687e-17
-8.44064e-18
 4.23758e-17
  1.8985e-17
-3.34975e-17
-1.19033e-17
-1.69797e-18
-2.24292e-17
-5.52309e-18
-4.79388e-17
  4.2808e-17
 1.94753e-17
-2.11331e-17
-1.97278e-18
-2.30328e-17
  2.1103e-17
-3.51125e-17
-2.20611e-17
 3.95355e-17
 3.06565e-17
 2.52327e-17
 2.72641e-17
-3.59103e-17
-2.67511e-17
-4.17189e-17
-3.37286e-17
 3.49312e-18
 1.54611e-17
-3.55248e-17
 4.75216e-17
-3.22975e-18
-4.12398e-17
-9.20266e-18
-9.13758e-18
 2.59276e-17
  5.4822e-18
 2.71415e-17
 -2.4054e-17
 3.12353e-17
-2.66652e-17
-2.38105e-17
 2.57597e-17
 4.09924e-17
 3.23878e-18
-2.44967e-17
 -3.0324e-17
-2.39418e-17
-1.14268e-17
-4.20279e-18
-3.26899e-17
-2.90539e-17
-2.72537e-17
 4.27565e-17
-1.67819e-17
-5.82249e-18
 -4.7246e-17
-2.32808e-18
  4.5853e-17
 1.63974e-17
 1.03294e-17
 4.50909e-17
-3.51159e-17
  1.7272e-17
-1.23953e-17
 3.92884e-18
-5.08409e-18
 4.12692e-17
-1.72133e-17
 1.90442e-17
 2.42209e-17
 4.30381e-18
 4.34161e-17
 1.69705e-18
-2.98738e-18
-1.62875e-18
 2.53827e-17
  1.4871e-17
 2.26118e-17
-3.43277e-17
-3.76154e-17
 3.81042e-17
-1.51992e-17
-1.66868e-17
 3.25772e-17
 1.62013e-17
  2.5673e-17
 3.35135e-17
-3.44104e-17
 2.32424e-17
 1.62734e-18
 2.41013e-17
 2.00497e-17
 1.46938e-17
-6.91035e-18
-4.06292e-17
 -2.9661e-17
 3.61879e-17
-4.76436e-17
 1.30803e-18
 6.94853e-18
 2.47596e-17
-4.26718e-17
   2.081e-18
-2.18269e-17
 2.52318e-18
-4.78314e-17
-4.47278e-17
-3.08895e-17
 2.29628e-17
-3.08731e-17
-2.03225e-17
 1.27834e-17
 2.11001e-18
  1.1173e-17
-2.92304e-18
-2.99724e-17
-1.14376e-17
-1.76931e-17
-1.62004e-17
-3.64788e-17
 3.21166e-17
-4.03827e-17
 3.17533e-17
 -1.4733e-18
 8.89247e-19
 3.93064e-17
  1.7048e-17
-1.12065e-17
 3.98451e-17
-2.99276e-17
 4.39244e-17
 1.63211e-17
 -2.4417e-17
-2.27821e-18
 4.26766e-17
 2.62885e-17
-1.92723e-18
 4.61311e-17
 4.35814e-17
-2.72481e-17
-3.30256e-17
-2.50247e-17
 3.37177e-17
 1.72667e-17
 3.43306e-17
 -1.7489e-17
 3.54767e-17
-2.53906e-17
 1.30002e-17
-2.90074e-17
-1.36871e-17
-3.16684e-18
-2.12078e-17
-3.02174e-17
 4.35422e-17
 2.78638e-17
-3.91946e-17
 1.23066e-17
-3.16262e-17
-4.76331e-17
 3.05614e-17
-3.59855e-17
 1.68703e-17
-4.21392e-17
 9.91868e-18
 1.12633e-17
 3.23317e-17
-4.02922e-17
 9.11076e-18
 2.76294e-17
-1.93579e-17
 2.42675e-17
-4.56789e-17
-3.39239e-17
-6.74941e-18
  3.6834e-17
-3.23052e-18
-1.95563e-17
-3.68402e-17
-3.85139e-17
-3.81326e-19
-2.34491e-18
 6.50158e-18
 2.65933e-17
   1.562e-17
 1.76016e-18
 6.17347e-18
 2.46077e-17
-3.42168e-17
 2.27296e-17
 2.51569e-17
 4.45269e-17
 3.49264e-17
-6.25635e-18
-4.58959e-17
-3.43849e-18
-4.32767e-17
 3.46181e-17
 4.45168e-18
 1.40164e-17
 1.39639e-17
 3.32761e-17
-9.99971e-18
 1.64673e-17
 4.75346e-17
 3.14332e-17
 5.01775e-18
-3.97956e-18
-3.64067e-17
 1.63599e-17
 5.68886e-18
 1.13943e-17
-3.42686e-17
-3.60932e-17
-1.02961e-17
 2.95337e-17
 1.38493e-17
 4.40598e-17
 5.85785e-18
 2.78148e-17
 1.85057e-17
-1.72688e-17
 2.40581e-17
 5.14853e-18
 2.46572e-17
 2.63445e-17
-4.65736e-17
 2.95628e-17
  1.2679e-17
 6.06045e-18
-4.70438e-18
-2.16407e-17
-8.94706e-18
 3.34782e-17
 4.30089e-17
-9.69609e-18
 1.66279e-17
-2.56919e-19
 3.45067e-17
 2.84035e-17
-3.21806e-17
-8.08807e-18
-8.48582e-18
-1.82669e-17
 4.00109e-18
 2.94005e-17
-3.70168e-17
-3.04332e-17
 2.51766e-17
 1.70234e-17
  4.5564e-17
-4.60131e-18
 4.79369e-17
 2.13385e-17
-4.77364e-17
 2.43105e-17
-6.00633e-19
-4.61276e-17
 5.58966e-18
-3.62053e-17
 8.11516e-18
-4.73983e-17
-9.66367e-18
 4.73504e-17
 3.42623e-17
-1.49383e-17
-1.06293e-17
  2.6065e-18
 3.29871e-17
-2.44062e-17
-1.72736e-17
-4.74772e-17
 1.56881e-17
 2.24229e-17
-1.75617e-17
-2.85944e-17
 3.53974e-18
-6.39619e-18
-1.08453e-17
-1.95673e-17
-3.76564e-17
-1.35649e-17
 2.40138e-17
-3.80031e-17
-4.05101e-17
 2.44597e-17
 3.44897e-17
 7.07161e-18
 2.65144e-17
-8.20427e-18
 1.90487e-17
 -1.3654e-17
-7.42026e-18
-3.88986e-17
-1.45872e-17
-2.14416e-17
-5.65463e-18
 2.29659e-17
 2.93472e-17
-2.09512e-17
  4.6742e-17
  -3.621e-17
 -2.0246e-17
 1.41465e-17
 3.43952e-17
 1.03746e-17
 3.37344e-17
-1.03486e-17
-4.43052e-17
-2.53945e-17
 1.82664e-17
-3.37793e-17
 9.22287e-18
-6.00342e-18
   -2.36e-17
 1.68951e-17
-2.98273e-17
 -3.7394e-17
-2.43169e-17
 4.48694e-17
  2.5841e-18
 4.29141e-17
-1.70682e-17
 4.33462e-17
-4.42681e-17
 1.65269e-17
 -2.6379e-17
 -1.7404e-18
-8.79081e-18
-4.53154e-17
 2.54908e-17
-1.03324e-17
-3.33431e-17
-4.30388e-17
-4.44695e-17
-4.72315e-17
 1.55181e-17
 3.74472e-17
-9.39781e-18
 1.93952e-17
-3.62309e-17
 -3.9415e-17
 3.37983e-17
 2.11743e-17
 2.76391e-18
-3.80854e-17
-1.02142e-17
 2.11189e-17
 -2.7297e-17
 1.36512e-17
 1.77047e-17
 2.34695e-17
 8.28171e-18
-4.76471e-17
  1.8532e-17
 1.21959e-17
 1.70622e-17
 4.03353e-17
-3.78281e-17
-4.00122e-17
 4.32022e-17
  3.5845e-17
-2.16229e-18
-3.84245e-17
 4.09885e-17
 1.55053e-18
-3.74737e-17
   8.223e-18
-9.28587e-18
 1.31086e-18
-2.06654e-17
 2.66554e-18
 1.00782e-17
-3.51507e-17
-2.44438e-17
-3.54415e-17
-2.50537e-17
 1.35243e-17
 3.38597e-17
-4.16835e-18
-2.11081e-17
 3.28088e-18
-2.89825e-17
  3.5356e-17
 3.81613e-18
 3.77319e-17
-7.31702e-19
-2.74053e-17
 2.97836e-17
 9.62256e-18
-1.92352e-17
 2.47022e-17
-2.81603e-18
 2.67849e-17
   3.446e-17
-1.01111e-17
-1.99482e-17
 4.51687e-17
 4.62942e-17
 1.89482e-17
-1.80407e-18
-2.26548e-17
-2.66698e-17
-4.00095e-17
-9.62312e-18
 -2.9313e-18
-2.72687e-17
 1.35055e-17
-3.76906e-17
-4.16925e-17
-3.89464e-17
-1.06163e-17
 9.77068e-18
-1.97466e-17
 -2.3544e-17
-3.46968e-17
-3.02984e-17
 2.39067e-17
-1.39198e-17
 4.76675e-17
-1.47544e-17
 1.50274e-17
 2.40861e-17
 3.06119e-17
-6.47137e-18
 1.02625e-17
-2.77828e-17
 2.17627e-17
 7.14758e-18
-2.97722e-17
-7.57263e-18
-4.29401e-17
-4.24464e-18
 1.39399e-17
-3.47673e-17
 3.43146e-17
 -3.7275e-17
-1.38536e-17
-4.63526e-19
-2.67833e-17
-7.36378e-18
 8.77236e-18
 1.07827e-17
-4.58767e-17
 3.72081e-17
 3.54211e-17
-3.23912e-17
-4.13739e-17
 1.10441e-17
 1.87142e-18
  -4.199e-17
 4.44721e-17
-3.13848e-17
 3.02785e-17
 2.68004e-17
 1.03262e-17
-7.74262e-18
 4.71999e-17
-1.61947e-17
 4.75873e-17
-3.08559e-17
  2.4415e-17
-4.36364e-17
 1.30818e-17
-9.92874e-18
-3.02213e-17
-8.87273e-19
 9.78557e-19
 4.10742e-18
 4.68315e-17
 2.23776e-17
  4.4926e-17
 7.32029e-18
-1.51233e-17
 4.72316e-17
-3.75524e-18
-2.79859e-17
-3.34432e-17
 3.05321e-18
 3.12406e-17
 1.66106e-17
 9.24559e-18
 2.74291e-17
 3.34081e-17
-8.75953e-18
 5.94581e-18
-4.54931e-18
 3.16802e-17
 4.86209e-18
 2.74383e-17
 3.09839e-17
 2.21885e-17
 3.56972e-18
 3.55298e-17
-1.30134e-17
 4.18233e-17
-4.29751e-17
 3.42817e-17
-5.48173e-18
 9.31461e-18
 3.28296e-17
-3.13877e-17
 5.95698e-18
-8.13369e-18
 1.67128e-18
 4.90498e-18
 3.62934e-17
 2.18678e-17
 1.96442e-17
-8.93699e-18
 4.82475e-18
-1.20289e-17
 -4.7975e-17
-1.60298e-17
-2.69043e-17
 -8.5522e-18
 3.80983e-17
 1.67287e-17
-2.51556e-17
-5.32317e-18
-4.11661e-18
-4.24553e-17
-3.14183e-17
 4.76355e-17
 4.12568e-17
  3.7507e-18
 4.11752e-17
  4.6464e-17
-1.02512e-17
-1.25902e-17
 7.49499e-18
-2.57052e-17
 4.20441e-18
-3.48316e-17
 1.43435e-17
-4.24079e-17
 1.82557e-17
 2.35327e-18
 2.76422e-17
-1.03838e-17
 4.15986e-17
-1.58167e-17
 2.57697e-17
  4.1806e-17
 1.63359e-17
 4.70477e-17
-1.50299e-17
 6.15059e-18
 1.54927e-17
 7.99686e-18
-4.74562e-17
-3.69075e-17
 1.37238e-17
-3.06921e-17
-3.75556e-17
 6.69703e-18
 2.12409e-17
-4.46641e-17
 4.87741e-18
-3.72939e-17
-9.07193e-18
-3.59112e-17
-1.48168e-17
 4.33148e-17
-2.25605e-17
  4.7709e-17
-4.73767e-17
 4.38775e-17
  1.7787e-18
 2.84478e-17
-1.47899e-17
-4.90629e-18
-3.56525e-17
-3.73038e-17
-1.13839e-17
 2.88657e-17
-3.85398e-17
 2.17685e-17
-1.32673e-17
 2.51353e-17
-1.85182e-17
-1.25412e-17
 3.64101e-17
  4.3388e-17
 4.94903e-18
 4.70368e-17
 1.80138e-18
-2.20937e-17
-4.59109e-17
-4.16048e-17
-1.12053e-17
-6.80044e-18
-2.93337e-17
 2.21603e-17
-1.17692e-17
-3.71189e-18
 2.15857e-17
-1.09636e-17
-8.11801e-18
-2.49192e-17
-3.07994e-17
 2.52744e-17
 1.83569e-17
-1.82695e-17
 3.61529e-17
-4.13107e-17
-3.76874e-17
 4.57955e-17
 2.86402e-17
-2.77242e-18
 2.26472e-17
-3.81617e-17
 3.28688e-17
 1.07737e-17
-4.30573e-17
-1.04658e-17
 9.52693e-18
  6.9264e-18
 1.56228e-17
 1.17984e-17
 1.35039e-17
-4.38661e-17
-4.32856e-17
 3.23525e-17
 2.64766e-17
-6.87254e-18
 -1.9643e-17
-2.21336e-19
 3.03462e-17
 2.04214e-17
 2.30418e-17
 4.77291e-17
-2.58782e-18
-6.88495e-18
 -1.8824e-17
-1.47185e-17
-1.33118e-20
-8.32913e-18
-1.72067e-17
-1.96568e-17
 3.70808e-17
-4.28431e-17
-9.63609e-18
 2.16659e-17
 1.61129e-17
-4.51107e-18
-3.70835e-17
-2.26438e-17
-4.58683e-17
 2.67217e-17
  3.7337e-17
  1.5818e-17
 3.10379e-17
 4.22337e-17
-1.13085e-19
 9.23087e-18
-1.29225e-17
 2.84263e-17
-3.92741e-17
-3.08599e-17
 5.64065e-19
 3.19501e-17
-3.14144e-17
 4.61586e-17
-2.32185e-17
-2.05607e-18
-1.68436e-17
 2.49505e-17
 3.77971e-17
 1.41321e-17
-4.29898e-17
 2.65943e-17
 1.94713e-17
-4.44358e-18
-2.33534e-20
-1.26994e-17
 3.92277e-17
 1.10755e-17
 1.28392e-17
 4.15418e-17
-1.04865e-17
 1.89255e-18
 9.07612e-18
-2.77321e-17
-4.15741e-18
-3.93206e-17
 2.96811e-17
 3.11024e-17
 3.72881e-17
 3.85893e-17
-4.80411e-17
-1.04315e-17
 2.22558e-17
-3.12731e-17
-1.25565e-17
 4.72196e-17
 1.48531e-17
 1.87823e-17
 2.38866e-17
 4.36664e-18
-1.53692e-17
 2.90791e-17
-1.73226e-17
-4.41815e-17
-2.36481e-17
 3.08363e-17
-8.69852e-18
 -3.2704e-17
-6.37179e-18
-4.41429e-17
-3.94459e-17
 3.13241e-17
 5.93195e-18
 1.78126e-17
-4.46917e-17
-4.65091e-17
 2.66743e-17
 3.31717e-17
 3.27757e-17
 1.56788e-17
 2.34774e-17
 3.29169e-17
-4.30363e-17
-2.55038e-18
-4.66398e-17
-7.41048e-18
-3.61435e-18
 1.63956e-17
-3.69118e-17
-2.80114e-17
-2.75213e-17
 -4.0987e-18
-4.72159e-17
 3.33836e-18
-9.78611e-20
-2.26817e-17
-1.41089e-17
  3.9386e-17
-7.20337e-18
 2.77016e-17
 4.34253e-17
 1.53308e-18
 1.07421e-17
 1.07368e-18
-2.89379e-17
 1.42328e-17
 2.74695e-18
 4.59187e-17
-8.79128e-19
 -1.2761e-17
 1.33139e-17
-2.56853e-17
-2.81276e-17
 1.84599e-17
 1.99467e-17
-2.65851e-17
-3.72341e-17
-3.19513e-17
 3.79929e-17
-2.59636e-17
-1.17804e-17
-3.78121e-17
   1.812e-17
-1.08139e-17
 1.37086e-17
-3.02615e-17
 1.46867e-17
  4.7782e-17
-3.91591e-17
-4.08003e-17
 2.72001e-17
-4.40174e-17
 8.91516e-18
-1.03415e-17
 5.23863e-18
 2.81596e-17
-4.43923e-17
 -4.0298e-17
 2.57947e-17
  2.9109e-18
-4.87667e-18
-9.17504e-18
 2.54079e-17
  1.5178e-17
-3.89987e-17
-2.92901e-18
 3.67753e-17
-2.80505e-17
  1.3302e-17
 2.64845e-17
-5.83181e-18
-4.67619e-17
 3.68548e-17
-3.59954e-17
-9.39354e-18
 2.27977e-18
-1.80745e-17
-4.29904e-17
  1.7782e-18
-9.05134e-18
-3.56083e-17
-1.93054e-17
-4.88639e-18
 2.14892e-17
 1.85355e-17
-4.79314e-17
 1.36509e-18
 2.23256e-17
-4.00471e-17
-2.11239e-17
-2.30472e-17
  3.2586e-18
 1.78834e-17
-4.59228e-17
 -2.9847e-17
 2.70671e-17
-6.69507e-19
-4.13553e-17
 4.71989e-17
-3.56511e-17
 3.33115e-17
-6.91653e-18
-3.42307e-17
 2.18827e-17
 5.27039e-18
 4.55809e-18
-2.41212e-17
 3.53782e-17
    9.75e-18
 2.58394e-17
-2.19568e-17
  2.2324e-17
-4.17496e-17
 2.13392e-17
-4.47047e-18
 2.49682e-17
 2.15901e-17
  4.5077e-17
-9.89817e-19
 2.97254e-17
-2.43305e-17
 2.41454e-17
-1.52996e-17
 4.17353e-17
 2.64049e-17
 3.03574e-18
 2.05187e-17
-2.25482e-17
 9.86274e-18
  1.9434e-17
 -1.0017e-17
-5.10936e-18
-3.57661e-17
 3.93462e-18
-3.15103e-17
 1.76866e-17
-3.97909e-17
-7.44914e-18
 4.78116e-18
 1.81414e-17
-2.98934e-17
 3.10067e-17
-7.81819e-18
-2.34607e-17
 4.06228e-18
 3.58937e-17
 -4.6776e-17
-2.26312e-17
  3.2687e-17
 4.16479e-19
-4.11894e-17
-3.99271e-17
-2.37218e-17
-8.30671e-18
-4.64754e-17
-4.56005e-17
 4.29114e-17
 2.22256e-17
-1.99664e-17
 4.49049e-18
-6.62396e-18
 1.81989e-17
 4.75635e-17
 5.79225e-18
-2.61501e-17
-3.22305e-17
-2.48048e-17
-1.77587e-17
 8.50274e-18
 2.81587e-17
-4.79008e-17
 2.67917e-17
 1.08818e-17
-7.53668e-18
-4.49526e-17
-3.33395e-17
-1.99266e-17
-4.35463e-17
-7.78837e-18
-3.55232e-17
 5.05251e-18
-7.95458e-19
 -2.7268e-17
 2.95131e-17
 3.90802e-17
-2.55611e-17
 3.20949e-17
 3.37079e-17
 4.48469e-17
-3.61551e-17
-1.00852e-17
-1.00607e-17
 3.02261e-17
-1.08054e-17
 4.39139e-17
-4.42076e-17
 5.14653e-18
-2.91745e-17
-1.37839e-17
-3.46343e-17
 4.71666e-17
-1.35024e-17
 4.03397e-17
 9.76483e-18
 2.71433e-17
 4.35694e-17
 2.46077e-17
 -4.1067e-17
 4.82054e-17
-3.14643e-17
-2.84078e-17
 4.97434e-18
 1.59226e-17
-7.49348e-18
-1.37962e-17
 6.71913e-18
 1.51278e-17
-2.99849e-17
-7.85657e-18
 1.16911e-17
-1.79577e-17
 3.02406e-17
-4.66532e-17
-3.60152e-17
-2.88484e-17
 4.54431e-17
-3.20405e-17
 2.44805e-17
 -3.2015e-17
 2.35796e-18
 3.80285e-17
 -3.3132e-17
 3.70379e-17
 3.00845e-17
 2.48151e-17
 1.58975e-17
 2.53703e-17
  1.1392e-18
 2.30129e-17
 2.52922e-17
 1.78572e-17
 4.27874e-17
-1.80171e-17
-1.45038e-17
 1.79743e-06
-4.13705e-08
-1.15092e-06
 2.90316e-07
  4.1538e-07
 1.93727e-07
-3.16265e-07
 2.48292e-07
-1.20199e-06
  1.0819e-07
 1.62491e-06
 1.22735e-06
-1.72409e-06
-1.89686e-07
-8.79266e-07
 1.30899e-07
 7.99857e-07
-4.23544e-08
 3.17928e-07
  4.5191e-07
 1.35212e-06
 2.98021e-07
 9.43152e-07
 1.08982e-06
 2.05673e-07
-1.38723e-06
-2.77611e-07
-1.92853e-07
-1.67536e-07
-1.54167e-06
 4.91666e-09
 4.18413e-07
-9.54702e-07
 1.89968e-07
 2.36558e-07
-6.89492e-07
 2.46653e-07
 1.08236e-07
-1.28096e-07
 7.94829e-08
 4.72634e-07
-1.40312e-07
-6.78048e-07
-1.05186e-07
 6.67969e-07
 3.89474e-07
-2.62524e-07
 6.10805e-07
 2.46408e-07
 8.25282e-08
 9.06581e-07
-3.17766e-07
-6.01343e-07
 1.25657e-06
 4.80771e-08
-1.64176e-07
-2.41719e-07
 5.49287e-08
-3.41117e-07
-1.35546e-06
-5.67732e-09
  1.1288e-07
  3.0069e-07
-2.16792e-07
-2.19799e-07
-6.51332e-08
-1.37166e-06
-4.55169e-07
-1.64876e-08
 1.92206e-07
-1.27485e-08
-1.59362e-08
-6.04403e-07
 1.75077e-07
 7.29766e-07
-2.63712e-07
-1.29583e-08
-8.34879e-07
 2.87384e-08
-3.60159e-07
 2.93145e-07
 3.87177e-07
 2.76935e-07
 1.74196e-06
 -3.4982e-08
 2.88872e-07
 5.44671e-09
-2.51649e-07
-3.43992e-07
-7.41883e-07
-1.27047e-06
-1.97262e-07
 1.64042e-07
-1.33113e-07
 3.30458e-07
 3.38585e-07
-1.37924e-07
 2.96818e-07
 1.83157e-06
 2.55987e-07
 1.21227e-06
 -1.2136e-08
  2.4848e-07
 6.29687e-08
  2.8236e-07
-6.38749e-09
-2.53524e-07
-1.14098e-06
-1.12194e-08
-9.73632e-07
 2.95648e-07
-7.64653e-08
-9.34251e-07
-6.82777e-08
 3.52336e-07
-2.36874e-07
 5.79236e-07
 2.57776e-07
 2.20013e-07
 1.64704e-07
 4.49545e-08
 4.50285e-08
-1.30368e-06
 1.67544e-07
-6.10958e-08
-1.80204e-07
  1.2651e-06
 3.16295e-07
-1.45521e-06
-4.04882e-08
 1.32686e-07
-7.70537e-08
 -2.4695e-07
 6.45223e-07
  1.3224e-06
 -4.5869e-08
 2.81911e-07
 1.04555e-06
 1.24532e-06
-4.56054e-08
-7.85557e-08
 1.08002e-07
 7.59304e-08
 3.66276e-08
 2.38627e-07
-9.75842e-07
  3.9088e-07
-8.92265e-08
 1.24483e-06
 1.04822e-06
-1.87933e-05
-1.27688e-05
-2.66025e-05
-2.85429e-05
  1.3671e-05
-3.28952e-05
 3.36132e-05
-3.75903e-05
-2.56122e-05
-1.14396e-05
-1.56186e-05
 3.01891e-05
 1.90663e-05
-1.65133e-05
-1.28159e-05
-1.32546e-05
 2.21046e-05
 1.13098e-05
-2.87292e-05
-2.44054e-05
 2.40317e-05
 1.48442e-05
 3.14635e-05
 3.39739e-05
-3.96701e-05
-4.05251e-05
 2.85758e-05
-1.62098e-05
-1.65865e-05
  1.8524e-05
-9.94661e-06
-2.21911e-05
-3.57711e-05
-2.13917e-05
-3.29621e-05
-1.08073e-05
-3.52831e-05
-3.22094e-05
 3.35896e-05
-3.66778e-05
 2.20165e-05
 6.70142e-06
 2.49487e-05
 3.81985e-06
 1.08843e-05
 3.40771e-05
 2.86851e-05
 1.90434e-05
-3.77755e-05
-4.52654e-06
 1.23351e-05
  3.1516e-05
-1.11919e-05
 2.83447e-05
-3.65883e-05
-1.57354e-05
 3.43377e-05
-3.53238e-05
 1.13539e-05
-2.22238e-05
-1.03798e-05
-3.94874e-05
 2.02151e-05
-1.79237e-05
 3.12938e-05
-5.81459e-06
-2.48956e-05
-1.31834e-05
  3.4833e-05
-2.60841e-05
 8.47404e-06
-8.43073e-06
-2.06057e-05
-1.47589e-05
 2.11257e-05
 2.59479e-05
 4.35428e-06
-2.38094e-05
 -3.6729e-05
 3.30852e-05
 3.25506e-05
-1.19098e-05
-1.23712e-05
-1.58918e-05
  1.2817e-05
-2.94311e-05
-3.47923e-05
 3.79633e-05
 3.35005e-05
 1.97957e-05
-2.75076e-05
 2.83539e-05
 1.55281e-05
-7.98442e-06
-2.64669e-05
-3.04918e-05
 3.37743e-05
-3.55339e-05
-1.81223e-05
-3.72016e-05
  3.1386e-05
 3.51615e-05
-3.01144e-05
 2.52565e-06
-1.54945e-05
 1.29318e-05
  3.1197e-05
 2.16843e-05
 7.93153e-06
 2.36832e-05
-3.27202e-05
 3.76865e-05
 2.23405e-05
 1.37822e-05
 1.36749e-05
 3.75312e-05
 8.20242e-06
-3.70177e-05
-3.96367e-05
-3.24833e-05
-3.06992e-05
-1.06106e-05
-3.40034e-05
 3.31633e-05
-9.47943e-06
   3.516e-05
 3.08521e-05
-3.45645e-05
-3.79637e-05
   3.229e-05
-3.45823e-05
 4.40499e-05
 3.04535e-05
 1.01637e-05
  2.3519e-05
 3.52677e-05
-3.17305e-05
 2.85927e-05
 3.78216e-05
 1.18203e-05
 3.76463e-05
-3.45678e-05
-9.78036e-06
 -3.7883e-05
 1.69998e-05
-2.47395e-05
-3.31077e-05
-6.82104e-06
  3.9468e-05
 2.28992e-05
 3.21822e-05
-6.70706e-06
-2.55171e-05
 1.21881e-05
 1.15935e-05
 2.94352e-06
-7.78093e-06
 9.81953e-06
-2.57809e-05
 4.86517e-08
 2.87429e-05
 2.00193e-05
-3.16834e-05
-1.17617e-05
-1.88539e-05
 6.29373e-07
 1.67154e-05
 1.15859e-06
 8.28438e-06
 9.81396e-06
 2.47603e-05
 1.52091e-05
 1.57152e-05
 1.92585e-05
 3.21262e-06
-2.37803e-05
 -9.2058e-06
-7.27399e-06
-1.11183e-05
-2.76776e-05
-1.42641e-06
 8.78165e-06
-1.41575e-05
-8.41416e-07
 5.79988e-06
-1.62121e-05
 8.00922e-06
 9.91607e-06
-9.30242e-06
 1.32973e-06
 1.47211e-05
-1.51708e-06
-1.46325e-05
-9.66111e-06
 1.63636e-05
 5.57402e-06
-5.13608e-06
 1.85248e-05
 9.79968e-06
-8.71633e-07
 1.85131e-05
-7.77389e-06
-1.55788e-05
 2.00723e-05
 5.66279e-06
-1.17988e-05
-8.65214e-06
 1.09427e-06
-1.11043e-05
-2.43537e-05
-2.62774e-06
 3.82369e-06
 9.96607e-06
-1.13903e-05
-1.30313e-05
-1.75536e-06
-2.56225e-05
-1.28144e-05
-5.75522e-06
 4.20103e-07
 2.67874e-06
-2.75331e-06
-1.33424e-05
 2.18076e-06
 1.77724e-05
-9.14693e-06
 1.78551e-06
-1.62287e-05
 2.34022e-06
 -8.0935e-06
-2.20607e-06
 4.73805e-06
 3.12367e-06
 3.00472e-05
 2.99992e-07
 1.00789e-05
 2.66439e-06
-4.16763e-06
-1.20098e-05
-1.38836e-05
-2.10362e-05
-3.93664e-06
 1.01976e-05
-9.56814e-06
 8.23299e-06
 1.04405e-05
-2.47093e-06
  7.5658e-06
 3.24563e-05
 9.72418e-06
  2.3691e-05
-3.19185e-06
 1.17437e-05
 2.10826e-06
   3.886e-06
 2.55603e-07
-6.02891e-06
 -1.5368e-05
  1.4422e-06
-2.16494e-05
 1.59574e-05
-2.40281e-06
-1.36129e-05
 4.91177e-08
 1.20128e-05
-1.02315e-05
 1.40027e-05
 9.68607e-06
  3.2294e-06
  6.6258e-06
 8.59457e-06
 -1.2505e-06
-2.12941e-05
-4.47162e-06
-4.42925e-06
-8.04005e-06
 2.45928e-05
 7.62417e-06
 -2.9301e-05
-2.78519e-06
 5.64592e-06
 -7.4565e-07
-5.80934e-06
 8.85563e-06
 2.53346e-05
-4.19203e-06
 3.29096e-06
 1.95869e-05
 2.27759e-05
 2.05499e-06
-6.28108e-06
 8.60697e-07
-2.08297e-06
  4.3365e-06
 1.19568e-05
-2.37853e-05
 8.48922e-06
-3.51702e-06
  1.8795e-05
 1.41595e-05
 4.54799e-05
-8.34964e-06
 -3.4568e-05
 1.63317e-05
 1.54853e-05
 4.51973e-06
-1.11774e-05
  1.3418e-05
-3.50074e-05
 2.65956e-07
 4.03788e-05
 2.72335e-05
-4.46932e-05
-1.49284e-05
-2.54138e-05
   1.068e-06
 2.26971e-05
 1.18426e-06
 1.13889e-05
 1.35114e-05
 3.39623e-05
 1.94634e-05
 2.13831e-05
 2.58638e-05
 4.82582e-06
-3.23912e-05
-1.26753e-05
-9.56487e-06
-1.39697e-05
-3.89954e-05
 -1.7352e-06
 1.20744e-05
 -1.9353e-05
-5.30328e-07
 8.37854e-06
-2.19012e-05
 1.10736e-05
 1.31679e-05
-1.22024e-05
 2.09305e-06
 1.94197e-05
-2.22166e-06
-2.02904e-05
-1.22468e-05
 2.23103e-05
 7.25152e-06
-7.62984e-06
 2.44435e-05
 1.33926e-05
-7.00118e-07
  2.4972e-05
-1.11597e-05
-2.12604e-05
 2.76524e-05
 7.46146e-06
-1.49192e-05
-1.19226e-05
 1.72896e-06
-1.51162e-05
 -3.3378e-05
-3.26461e-06
 5.37979e-06
   1.283e-05
-1.45123e-05
-1.71832e-05
-2.40574e-06
-3.50832e-05
-1.71967e-05
-7.53848e-06
  1.3381e-06
 3.15225e-06
-3.33919e-06
-1.79288e-05
 3.13456e-06
 2.39585e-05
-1.24902e-05
 1.97364e-06
-2.20074e-05
 3.47969e-06
-1.16824e-05
-2.46575e-06
 6.89039e-06
 4.58719e-06
 4.24457e-05
 2.32753e-07
 1.35171e-05
 3.49418e-06
-6.17217e-06
-1.62889e-05
-1.93342e-05
-2.88335e-05
-5.74818e-06
 1.28543e-05
-1.22661e-05
 1.13098e-05
 1.43562e-05
-3.87264e-06
   1.083e-05
 4.59225e-05
 1.33083e-05
 3.18303e-05
-4.60209e-06
 1.57944e-05
 2.70884e-06
 5.48669e-06
 2.50183e-07
-8.76884e-06
-2.26636e-05
 1.55701e-06
 -3.0087e-05
  2.1091e-05
-3.52755e-06
-1.97421e-05
-1.73616e-07
 1.58695e-05
-1.39972e-05
 1.87388e-05
 1.32605e-05
 4.87105e-06
 9.22793e-06
 1.11333e-05
-1.49098e-06
-2.91833e-05
 -5.5574e-06
-5.50232e-06
-1.11548e-05
 3.31097e-05
 1.09125e-05
-3.98964e-05
-3.73251e-06
 7.82002e-06
-1.43413e-06
-8.56621e-06
 1.24281e-05
 3.45651e-05
-5.96969e-06
   4.965e-06
 2.68221e-05
 3.07732e-05
 2.27311e-06
-8.37427e-06
 1.66882e-06
 -2.3024e-06
 5.79034e-06
 1.52151e-05
-3.18797e-05
  1.2203e-05
-4.59201e-06
   2.553e-05
 1.95652e-05
 5.04721e-05
-4.96015e-06
 -3.5649e-05
 1.42596e-05
 1.48412e-05
 5.65813e-06
-1.26914e-05
 1.39744e-05
 -3.6214e-05
 1.71852e-06
 4.47101e-05
 2.74279e-05
-4.96354e-05
-1.04104e-05
-2.62785e-05
  2.5966e-06
 2.33027e-05
-2.87074e-07
 1.11943e-05
 1.49118e-05
 3.57374e-05
  1.4529e-05
 2.23592e-05
 2.57413e-05
 6.13217e-06
-3.28677e-05
-1.37733e-05
-7.86582e-06
-9.38633e-06
-4.36904e-05
-1.06451e-06
 1.29226e-05
-1.95043e-05
 3.06989e-06
 9.75516e-06
-2.26701e-05
 1.18194e-05
 1.07998e-05
-1.11848e-05
 2.96984e-06
 1.70315e-05
-3.54932e-06
-2.17481e-05
-9.08011e-06
 2.32235e-05
 6.48923e-06
-9.92069e-06
 2.32413e-05
 1.39601e-05
 9.46427e-07
 2.59058e-05
-1.23603e-05
-2.21579e-05
 2.88216e-05
 6.99876e-06
-1.03251e-05
-1.26923e-05
 2.40542e-06
-1.59356e-05
-3.48739e-05
-2.14928e-06
 6.52802e-06
 1.04004e-05
-1.04769e-05
-1.53609e-05
 -2.3834e-06
-3.67003e-05
-1.69728e-05
-6.69581e-06
 4.16181e-06
 1.56565e-06
-2.12854e-06
-1.63011e-05
 4.42342e-06
 2.37085e-05
-1.29275e-05
 4.19902e-07
-2.16589e-05
 4.80137e-06
 -1.3506e-05
 1.02404e-07
 8.98212e-06
 6.29014e-06
 4.73876e-05
-1.14648e-06
 1.34042e-05
 3.28822e-06
-7.57596e-06
-1.61099e-05
-2.19994e-05
-2.95876e-05
-6.80705e-06
 8.91436e-06
-8.76866e-06
 1.22192e-05
 1.39599e-05
-5.10868e-06
 1.22755e-05
 5.09901e-05
  1.3934e-05
 3.15097e-05
-5.78708e-06
 1.38546e-05
 2.36525e-06
 6.97508e-06
-8.50649e-07
-1.04435e-05
-2.93165e-05
 1.83973e-07
 -3.3097e-05
 1.77433e-05
-4.45613e-06
-2.63014e-05
-1.76034e-06
 1.43036e-05
-1.46605e-05
 1.87625e-05
 1.38896e-05
  6.2359e-06
 1.02842e-05
   8.373e-06
-7.43454e-08
-2.95644e-05
-3.23053e-06
-3.86719e-06
-1.22739e-05
  3.3339e-05
 1.23355e-05
-4.07052e-05
-3.79181e-06
 8.36128e-06
-2.51607e-06
-1.06877e-05
 1.44809e-05
 3.59329e-05
-6.81637e-06
 6.99213e-06
 2.78038e-05
  3.0301e-05
 2.38449e-07
-8.66686e-06
 2.71388e-06
 -4.9803e-07
 6.16689e-06
 1.07974e-05
-3.23067e-05
 1.39332e-05
  -3.612e-06
 2.57661e-05
 2.30036e-05
 2.30526e-05
-3.00814e-08
-1.59307e-05
 2.61513e-06
 4.61723e-06
 1.91949e-06
-3.97661e-06
 3.32639e-06
-1.65058e-05
  1.7275e-06
 2.07095e-05
 1.43185e-05
-2.23166e-05
-1.62831e-06
-1.11393e-05
  2.0494e-06
 9.52134e-06
-6.33362e-07
 3.74563e-06
 6.47586e-06
  1.7474e-05
 2.75311e-06
  1.1647e-05
 1.30624e-05
 2.67699e-06
-1.58559e-05
-3.83462e-06
-1.58024e-06
 -1.6073e-06
-1.94869e-05
 1.28578e-07
  5.3897e-06
 -1.0715e-05
 3.40159e-06
 2.70861e-06
-8.68649e-06
 3.13868e-06
  5.6457e-07
-2.34848e-06
 1.07659e-06
 4.69408e-06
-2.53662e-06
-9.50944e-06
  -1.352e-06
 8.60126e-06
 4.62849e-06
-3.44423e-06
 8.47836e-06
 3.31249e-06
 9.88536e-07
 1.12478e-05
-3.64336e-06
-8.06869e-06
 1.48011e-05
 1.09795e-06
 -1.3936e-06
-3.27307e-06
  6.9687e-07
-4.80752e-06
-1.62745e-05
 1.81289e-07
 2.10099e-06
 3.33793e-06
-2.05397e-06
-3.37258e-06
-7.02468e-07
-1.80501e-05
-5.50014e-06
-7.23892e-07
  2.2774e-06
-3.89653e-07
 -2.4939e-07
-6.59994e-06
 2.72831e-06
 9.36821e-06
-3.44112e-06
 -2.8661e-07
 -9.9621e-06
 5.04305e-07
-4.58591e-06
 3.82846e-06
 4.72597e-06
 3.43987e-06
 2.18428e-05
-1.42676e-06
 4.55364e-06
 1.12948e-07
-3.44218e-06
-5.13402e-06
-1.05692e-05
-1.53116e-05
-2.51911e-06
 1.38016e-06
-1.10676e-06
 4.77924e-06
 3.44508e-06
-1.51671e-06
 3.56179e-06
 2.35548e-05
 3.41698e-06
 1.51256e-05
-4.68646e-07
 2.20205e-06
 6.68685e-07
 3.85154e-06
-1.08921e-06
-3.17474e-06
-1.50975e-05
-1.86261e-07
-1.46396e-05
 2.83272e-06
-1.30172e-06
-1.45644e-05
-1.60661e-06
 3.65386e-06
-3.44932e-06
 6.93293e-06
 3.42888e-06
 2.84335e-06
 2.26213e-06
 8.56436e-08
  1.0347e-06
-1.47685e-05
 2.18728e-06
-7.80596e-07
 -2.9407e-06
 1.62953e-05
 3.81926e-06
-1.75955e-05
-9.00413e-07
 1.60786e-06
-1.11535e-06
-3.10012e-06
 8.05188e-06
 1.74303e-05
-6.87071e-07
 4.01378e-06
 1.24624e-05
  1.3871e-05
-7.11052e-07
-1.81615e-06
 7.82075e-07
 7.74272e-07
  8.5334e-07
  2.0325e-06
-1.40201e-05
 4.72618e-06
-6.07924e-07
 1.37324e-05
 1.35582e-05
 2.34593e-06
-1.58252e-07
 1.01078e-06
 9.98378e-07
-1.41972e-06
 1.32387e-06
-1.69353e-06
-1.44502e-06
 2.74648e-07
 1.26048e-06
  1.7586e-06
 6.86094e-07
-2.36766e-06
 1.49828e-06
 1.59059e-06
 1.43921e-06
-1.70722e-06
 -1.9758e-06
 9.17072e-07
 1.01292e-06
 8.49133e-07
-1.51026e-06
 -1.9891e-06
-1.43583e-06
   8.466e-07
 8.43885e-07
 1.49129e-06
 1.47956e-06
 1.58208e-06
-2.45259e-06
 1.15039e-06
 1.08764e-06
-1.28003e-07
 1.10408e-06
 1.07368e-06
 1.89089e-06
 -5.4525e-07
 1.13389e-06
 1.31567e-06
 5.48942e-07
 -1.2071e-06
  -1.519e-06
-1.24456e-06
 1.71511e-06
-2.00854e-06
-1.16767e-06
-1.13786e-06
-2.02984e-06
-1.45092e-06
 3.85444e-06
-1.63238e-06
-1.75795e-06
 1.89265e-06
 1.30202e-06
   4.717e-07
 2.00804e-06
 9.78574e-07
 3.64469e-07
 2.18678e-06
-9.60347e-07
 1.91357e-06
 3.41937e-07
-2.40978e-06
 1.77445e-06
 6.82361e-07
-6.28837e-07
-9.92556e-07
 1.46895e-06
-7.80358e-07
 1.39711e-06
-2.44964e-06
 2.47989e-06
-1.05359e-06
 1.45125e-06
-1.71484e-06
 1.21876e-06
-4.01253e-06
-8.29394e-07
 6.32169e-07
-1.65637e-06
-1.02918e-06
 2.28474e-06
  2.0996e-06
 2.33292e-06
-1.62987e-06
-1.81574e-06
-1.92501e-06
-9.61843e-07
-1.06891e-06
-1.19995e-06
-1.24981e-06
-1.12639e-06
-2.50643e-06
-6.01428e-07
  1.3046e-06
 1.24936e-06
-1.26748e-06
 1.46522e-06
  2.3062e-06
-1.39013e-06
-1.48177e-06
 7.64432e-07
 1.47766e-06
-1.21741e-06
 1.33422e-06
-1.09708e-06
-1.27747e-06
 -2.1773e-06
-2.83137e-06
-1.02902e-06
  2.7946e-07
-1.41324e-07
 -1.5779e-07
-1.58171e-06
-1.42602e-06
 1.46602e-06
-1.90528e-06
-1.37559e-06
 8.91619e-07
-1.65044e-06
 4.43494e-07
   1.258e-06
 -1.2788e-06
-9.16256e-07
 2.63722e-06
 1.50581e-06
-1.87753e-06
 1.45199e-06
 7.78646e-07
 1.13381e-06
-1.32022e-06
-6.69895e-07
-1.20516e-06
 7.90169e-07
 6.36514e-07
-1.02967e-06
  6.8396e-07
-1.25357e-06
-9.07325e-07
-2.03977e-06
 1.77182e-06
 1.27453e-06
 2.13194e-06
-2.01528e-06
-1.67305e-06
 1.67702e-06
 1.57517e-06
 1.26848e-06
-5.75751e-07
-1.96306e-06
 1.26266e-06
 1.25989e-06
 7.06461e-06
-6.46441e-06
-4.36814e-06
 6.62691e-06
 2.28116e-06
-4.11843e-06
 6.92912e-06
-3.75934e-06
 9.79617e-07
 6.07457e-06
-6.17456e-07
 1.03331e-06
 5.09373e-06
-4.83455e-06
-6.19298e-06
 1.28006e-06
 1.61112e-06
-7.98212e-06
-2.09987e-06
-5.14517e-06
 2.94353e-06
 6.00247e-06
   4.567e-06
-9.36747e-06
 5.99054e-06
-2.49767e-06
 2.32228e-06
-6.29144e-07
-1.18162e-06
 -7.4955e-06
-8.77247e-06
-3.51302e-06
-4.47094e-06
 5.60417e-06
-2.34699e-06
-7.61321e-06
 9.60661e-06
 3.46188e-06
-3.03056e-06
 5.02615e-06
 2.29163e-06
 4.98338e-06
-7.80873e-06
 6.51656e-06
 3.98246e-06
-1.06763e-05
 -4.1732e-06
 1.55196e-06
-4.09612e-06
-6.20114e-08
  8.5991e-06
 5.15534e-06
 -1.1199e-05
 1.68521e-06
 2.48589e-06
 3.23796e-06
  8.0813e-06
 3.07685e-06
-1.88889e-06
 -9.3198e-06
-2.48861e-07
 5.20579e-07
 1.09489e-05
-1.69346e-06
 3.37683e-06
 5.84575e-06
 1.08857e-05
-1.24557e-06
-1.99055e-07
-4.83644e-07
-1.99251e-06
-6.31059e-06
-7.52127e-06
 2.50675e-06
-4.06257e-07
-2.34427e-06
-6.24818e-06
 1.93013e-06
 1.05761e-05
 6.58532e-07
-4.11464e-07
 2.50826e-06
 5.99946e-06
-5.33476e-06
 1.47028e-07
-4.59883e-06
 8.58584e-06
 5.75796e-06
-4.47461e-06
-2.77467e-06
-1.94167e-06
 5.13093e-06
-5.17575e-06
-5.25019e-06
-5.67813e-06
-2.33741e-06
 1.63092e-06
 -3.8658e-06
 3.05926e-06
 9.04079e-06
-4.81459e-06
 1.23231e-06
-6.12064e-06
 6.55758e-06
 4.52105e-06
-1.88397e-06
-1.20371e-07
 7.93163e-06
-5.85568e-06
-1.69643e-06
 3.16389e-06
 5.48942e-06
-6.41111e-06
 5.16784e-06
 -5.2024e-06
-3.73209e-06
 4.88583e-06
-8.12597e-06
-8.73145e-06
-2.79137e-06
-7.32151e-06
 1.19649e-05
-2.75675e-07
 7.69007e-06
 3.63596e-06
-1.81017e-06
 1.66309e-06
-5.55657e-07
-1.72852e-06
 -4.1706e-06
  4.6039e-06
 3.98401e-06
-3.82495e-06
 7.07218e-06
 3.89669e-06
-2.35934e-06
 7.28364e-06
 2.16196e-07
 8.91643e-06
  7.6382e-06
 2.15845e-06
-6.82145e-06
-4.09411e-07
 8.85334e-06
-1.31909e-06
-4.75296e-06
 1.21029e-05
 3.68201e-06
 1.56451e-06
 2.05541e-07
 1.41091e-06
-1.57629e-06
-1.04449e-06
 2.24963e-06
 3.44895e-07
-9.12032e-07
 1.33984e-06
-1.17172e-06
  1.3346e-06
 2.46597e-06
-1.34348e-06
 3.46463e-08
 9.68364e-07
-1.49054e-06
-1.45247e-06
 3.99635e-07
 8.01305e-07
-2.17141e-06
 1.58429e-07
-1.19987e-06
  1.3544e-06
 2.37775e-06
  1.5859e-06
-3.59791e-06
 1.50783e-06
-9.65068e-07
 4.52712e-07
 -1.2013e-06
 -3.8879e-07
-2.07535e-06
-3.10902e-06
-1.07162e-06
-1.13926e-06
 1.23861e-06
-4.02852e-07
-2.02485e-06
  2.6893e-06
 1.16572e-06
-5.45766e-07
 1.51953e-06
 1.80837e-07
 1.29778e-06
-1.94078e-06
 2.13237e-06
  9.7256e-07
-2.80138e-06
 -9.2981e-07
 5.28017e-07
-6.71596e-07
-3.66333e-07
  2.2052e-06
 2.19575e-06
-3.27523e-06
 2.38614e-07
 4.27782e-07
  1.0858e-06
 2.15556e-06
 1.54114e-07
-6.35885e-07
-2.72048e-06
  1.6532e-07
-1.03136e-07
 2.98581e-06
-5.84538e-07
  1.8448e-07
 1.45429e-06
 3.15971e-06
-2.93692e-07
-4.37052e-08
-1.98171e-07
-9.96088e-07
 -1.9081e-06
-1.84609e-06
 4.39789e-07
-1.39367e-07
-1.23917e-06
-1.79625e-06
 2.24378e-07
 3.22004e-06
 3.71798e-07
-1.61008e-08
   1.859e-06
 1.87345e-06
-1.35167e-06
 1.40522e-07
-1.62704e-06
 2.22678e-06
 1.30579e-06
-2.02673e-06
-1.06492e-06
-3.54324e-07
 1.30247e-06
 -1.3115e-06
 -1.2319e-06
-1.93643e-06
 -3.8953e-07
 1.69737e-06
-8.32205e-07
 1.60245e-06
  2.6669e-06
-1.05347e-06
 4.46529e-07
-1.80429e-06
 2.06206e-06
  1.1224e-06
-1.21311e-06
-4.41345e-08
 1.71664e-06
-1.26484e-06
-6.50143e-07
 4.59187e-07
 1.70835e-06
-1.68625e-06
 1.22421e-06
-1.18919e-06
-7.91483e-07
 1.68508e-06
-2.28829e-06
-2.42087e-06
  -9.016e-07
-2.91841e-06
 3.58165e-06
-1.79187e-07
 2.08692e-06
 1.86624e-06
-2.15513e-07
-3.44709e-07
-2.89789e-07
-3.31687e-07
-1.37525e-06
 1.14632e-06
   1.543e-06
-3.52665e-07
 1.98552e-06
 1.37414e-06
-1.55301e-07
 2.90942e-06
 8.14388e-08
  2.5719e-06
  2.4947e-06
  6.5843e-07
-1.98493e-06
 1.53486e-07
 2.03025e-06
-2.76413e-08
-1.60428e-06
 4.29647e-06
 1.56989e-06
 6.57755e-06
 -1.1828e-06
-5.15591e-06
 3.08788e-06
 2.20447e-06
 4.55778e-07
-2.29733e-06
 2.49417e-06
-5.30852e-06
 3.38339e-07
 5.79338e-06
 2.72544e-06
-6.52175e-06
 -1.7354e-06
-3.99712e-06
 5.28343e-07
 3.28753e-06
-1.11427e-07
  1.5644e-06
 2.52691e-06
 4.83426e-06
 2.77044e-06
 2.23195e-06
 2.35624e-06
 5.17182e-07
-3.03247e-06
-2.59244e-06
-8.41414e-07
-1.75817e-06
 -5.6874e-06
-1.07805e-08
 2.16532e-06
-1.35211e-06
  4.4948e-07
 1.85531e-06
-3.40789e-06
 2.08933e-06
  2.6741e-06
-2.60703e-06
 1.83928e-07
 2.55167e-06
-7.21169e-07
 -3.2544e-06
-1.90824e-06
 3.52037e-06
-7.82316e-09
 -1.8939e-06
 3.96799e-06
 2.49507e-06
 1.13452e-07
 3.82636e-06
-1.97731e-06
-3.48817e-06
 2.90123e-06
 2.23822e-06
 -1.7896e-06
-2.20675e-06
 1.46214e-07
-2.80306e-06
-4.87629e-06
-9.94221e-08
 1.89218e-06
 1.41032e-06
-1.56337e-06
 -3.4242e-06
-1.71669e-07
-5.26405e-06
-2.62746e-06
 -2.3122e-06
 6.52289e-07
 1.22697e-07
-2.27483e-07
-1.96384e-06
 9.03979e-07
 3.52357e-06
-2.17717e-06
-3.62555e-08
 -2.6947e-06
 1.42637e-06
-2.32921e-06
-1.38825e-06
 8.92413e-07
 6.77866e-07
 5.92977e-06
 -5.1985e-07
  2.2578e-06
 5.27884e-07
-6.92753e-07
-3.34006e-06
-3.31176e-06
-3.20911e-06
-8.93736e-07
 1.60825e-06
-2.15752e-06
  2.1898e-06
 2.78391e-06
-4.41239e-07
 2.14752e-06
 6.64771e-06
 2.47764e-06
 3.43281e-06
-1.67635e-06
 2.98849e-06
 2.45885e-07
 1.14177e-06
-4.86381e-07
-2.04541e-06
-3.40706e-06
-2.69764e-08
-5.03112e-06
  3.7286e-06
-5.41001e-07
-3.29588e-06
-5.08946e-07
 2.35981e-06
-2.67381e-06
  2.9386e-06
 2.46017e-06
 4.87402e-07
 2.12817e-06
 2.50345e-06
 7.07824e-08
-2.97772e-06
-1.92043e-06
-5.08126e-07
-2.46324e-06
 3.86119e-06
 2.15542e-06
-5.08148e-06
-6.16275e-07
 1.33879e-06
-5.51497e-08
-2.06375e-06
 1.36288e-06
 5.14145e-06
-1.88659e-06
 5.61317e-07
 3.52701e-06
 2.99719e-06
 6.08517e-08
-1.98651e-06
-3.60295e-08
-2.76098e-07
 1.42081e-06
 1.64309e-06
-4.96359e-06
 2.31013e-06
-2.74285e-07
  1.9061e-06
 2.08158e-06
 2.32656e-17
 -1.1988e-17
-4.52328e-17
-4.04107e-17
 1.04719e-17
 2.97255e-17
 4.72509e-17
 -8.2429e-18
-3.31936e-17
 1.19216e-17
 4.25189e-17
-2.65591e-18
-3.05623e-17
 9.26409e-18
 2.85856e-17
  5.5398e-18
 5.82137e-19
 -1.2579e-17
 3.05749e-17
-2.56502e-17
  2.0809e-17
-1.86185e-17
-1.76968e-17
 3.16891e-17
-4.19148e-17
 1.69842e-17
 4.29522e-17
-1.52911e-17
-2.07703e-17
-2.78004e-17
-2.45637e-17
-4.57883e-17
 8.39395e-18
-2.16142e-17
-3.80168e-17
-2.94177e-17
-4.01723e-17
-3.90495e-17
 1.05217e-17
-2.51835e-17
 2.10544e-17
 4.75696e-18
 2.03429e-17
 3.86744e-17
-3.42626e-17
 6.44911e-19
-4.06939e-18
 1.45019e-17
 3.62483e-17
-2.17781e-17
  3.7034e-17
 8.77372e-18
 7.78574e-18
-2.89464e-17
-7.82084e-18
 1.40532e-17
 3.62201e-17
-1.31522e-17
 4.69445e-17
-3.28338e-17
 7.22978e-18
-2.59028e-17
-3.04398e-17
-3.26599e-17
 6.65343e-19
-2.02743e-17
-1.38953e-17
 8.67539e-18
-1.11414e-17
 4.48087e-17
 3.16742e-17
-3.83706e-17
 1.28209e-18
 3.73348e-18
-4.79798e-17
 1.52019e-17
-4.39052e-17
-3.86685e-18
-1.85798e-17
 4.05254e-17
 2.25374e-17
-2.98295e-17
 1.01552e-18
-1.79605e-17
-1.05935e-17
  4.1377e-17
 4.42751e-17
-2.26571e-17
-2.00588e-17
  4.2936e-17
-7.30855e-18
 3.53533e-17
-3.12505e-17
 1.04339e-17
-4.55902e-17
 1.75972e-17
  3.8342e-17
-1.13031e-17
 -2.2011e-17
 -2.1083e-17
 -1.4778e-17
-3.86204e-17
-1.12713e-17
 3.46864e-17
 1.32954e-17
-1.10687e-17
  1.6047e-18
 1.75725e-17
 3.32468e-17
 3.12072e-17
 9.81429e-18
  7.5005e-18
-4.69059e-17
-3.74538e-17
 3.77223e-17
-9.31707e-18
-4.43604e-17
 3.37138e-17
 1.62082e-17
-1.62369e-17
 2.83661e-17
 -3.9384e-17
-2.91671e-17
  4.5298e-17
 1.92323e-17
 -2.6575e-17
 1.46116e-17
 9.29075e-18
 1.03042e-17
 4.07829e-17
 3.63901e-17
 4.37086e-17
-4.61211e-17
-2.31648e-17
 3.01114e-17
 1.53566e-17
 1.39488e-17
-1.65675e-17
-1.53545e-17
-1.08804e-18
-3.36439e-17
 4.26421e-17
-4.18712e-17
-3.23674e-17
-4.30953e-17
 4.40335e-17
 6.49783e-18
-3.92734e-17
 2.94637e-17
-2.55776e-17
 5.39137e-06
 -2.7475e-06
-4.45976e-06
 5.12985e-06
 3.32661e-06
 6.51356e-07
-2.52997e-06
 3.32254e-06
-4.44251e-06
-1.03499e-06
 4.48316e-06
 2.58543e-06
-5.48213e-06
-4.09189e-06
-3.91971e-06
-8.20079e-07
 3.21137e-06
 6.99503e-07
 2.04067e-06
  1.8489e-06
 3.50343e-06
 5.43932e-06
 1.40311e-06
 2.47225e-06
 3.29972e-07
-3.61165e-06
-3.13857e-06
-2.42674e-06
-4.17987e-06
-4.81739e-06
-5.55633e-07
 1.59647e-06
-1.86954e-06
-1.64432e-06
 2.21486e-06
-3.67277e-06
 2.66781e-06
 4.11619e-06
-3.29085e-06
 3.51275e-08
 4.41618e-06
 2.22323e-07
-2.82002e-06
-3.59046e-06
 3.45862e-06
 6.67149e-08
-1.46657e-06
 4.37889e-06
 3.31183e-06
-4.61546e-07
 3.62727e-06
-2.46527e-06
-3.40953e-06
 2.50953e-06
 2.32872e-06
-4.10794e-06
-2.95135e-06
  5.6829e-08
-3.10413e-06
-4.58853e-06
-1.08806e-06
 1.16334e-06
 2.29606e-06
-3.67833e-06
-4.43351e-06
-5.09298e-07
-3.87392e-06
-3.59498e-06
 -2.6888e-06
-4.35802e-07
 9.58876e-07
-8.91021e-07
-2.97855e-06
-1.35494e-07
 3.49726e-06
-3.06186e-06
 5.07211e-07
-2.69472e-06
 1.07989e-06
-2.38268e-06
-2.80998e-06
 4.44446e-07
   1.805e-07
 4.79792e-06
 6.21392e-07
 2.34062e-06
 1.03007e-06
-5.40668e-07
-3.55248e-06
-1.99163e-06
-2.85201e-06
-9.12757e-07
 3.23538e-06
-3.75226e-06
  1.8135e-06
 4.02944e-06
-6.44366e-07
 2.39392e-06
 5.32492e-06
 3.26621e-06
 3.56196e-06
-1.53758e-06
 4.57657e-06
 4.04538e-07
 5.25175e-08
 5.55908e-07
-2.25096e-06
-1.38955e-06
 5.16129e-07
-3.78293e-06
 6.18797e-06
-5.50612e-07
-1.54013e-07
  7.8781e-07
 3.95574e-06
-3.50779e-06
 3.46992e-06
 3.24475e-06
 2.84415e-07
 2.14785e-06
 4.19871e-06
-1.36735e-06
-3.30373e-06
-3.14897e-06
-1.27611e-06
-2.49046e-06
 3.33413e-06
 2.36322e-06
-5.55294e-06
-9.43816e-07
 1.80194e-06
 6.15309e-08
-2.00106e-06
 4.26329e-07
 3.82022e-06
-2.05165e-06
 -1.9433e-07
 3.01127e-06
 3.92378e-06
 1.12382e-06
-2.13963e-06
 1.30347e-07
-1.26815e-06
 1.44767e-06
 3.86902e-06
-4.46728e-06
 2.33571e-06
-1.55278e-06
 2.30168e-06
 5.64339e-07
 4.39503e-07
  2.9718e-09
 1.36671e-07
 2.70121e-07
-1.34002e-07
  2.8405e-07
 -3.9093e-07
-1.03727e-07
 1.77023e-08
 4.79593e-08
 2.54115e-07
 2.38259e-07
-4.29319e-07
 1.68963e-07
 2.26499e-07
 8.40964e-08
-3.55852e-07
-1.10006e-07
 1.90071e-07
 1.58566e-07
 1.42625e-07
-1.03369e-07
-4.01124e-07
-8.89972e-08
 2.24905e-07
 4.28259e-08
 1.44143e-07
  2.0736e-07
 7.94558e-08
-4.38543e-07
 7.64212e-08
  7.2893e-08
-1.23969e-07
 1.59212e-07
 2.86346e-07
  3.0033e-07
 4.12016e-08
 1.26287e-07
 6.51228e-08
 1.53771e-07
-1.09456e-07
-1.75719e-07
-3.40316e-07
  1.1794e-07
-4.18124e-07
-7.79967e-08
 -1.6751e-07
-2.91584e-07
-1.05662e-07
 5.97619e-07
-2.27051e-07
-3.41778e-07
 4.09477e-07
 2.75786e-07
    1.11e-07
 2.57923e-07
 2.78756e-08
 1.15929e-07
 3.73542e-07
-1.60488e-07
 2.29523e-07
 1.15861e-07
-4.12441e-07
 2.03337e-07
 2.25657e-08
-1.90264e-07
-1.81633e-07
 1.58289e-07
-1.65614e-07
 1.23146e-07
-3.10452e-07
 2.99008e-07
-2.30306e-07
 1.63134e-07
-3.50912e-07
 6.66811e-08
-5.76495e-07
-1.04095e-07
 3.32937e-08
-3.81927e-07
-7.57167e-08
 2.36808e-07
 1.95954e-07
 4.27618e-07
 -1.8614e-07
 -1.4675e-07
-1.77349e-07
-2.53792e-07
-3.03052e-07
-1.98217e-07
-3.25655e-07
-2.67127e-07
-4.15192e-07
-7.00198e-08
 3.29216e-07
 3.07053e-07
-2.50156e-07
 3.23665e-07
 4.28137e-07
-9.13985e-08
-9.49836e-08
 1.96386e-07
 2.29397e-07
-1.84127e-07
 1.08648e-07
-8.78769e-08
-3.08965e-07
-4.33672e-07
-3.09718e-07
-2.21365e-07
 1.38601e-07
-9.88908e-08
-4.46678e-08
-1.09314e-07
-1.36021e-07
 1.21517e-07
-2.43739e-07
-8.85753e-08
 2.41631e-07
-3.22086e-07
 1.32462e-07
 4.97738e-08
-3.05631e-07
-8.45744e-08
 4.02441e-07
 2.83214e-07
-2.17562e-07
 3.45146e-07
 4.81586e-08
  1.4747e-08
-1.75252e-07
-1.96774e-07
-1.84781e-07
 1.38096e-07
 1.26864e-07
-8.70543e-08
 2.17219e-07
-3.09448e-07
-4.17258e-08
-1.21531e-07
  1.5204e-07
 2.47859e-07
 1.59085e-07
-2.83894e-07
-1.88826e-07
 2.28422e-07
 3.42648e-07
 5.82434e-08
 2.27929e-08
-2.40056e-07
 1.76548e-17
-3.95492e-17
 1.86079e-17
 3.42567e-17
-2.61765e-17
 1.91995e-17
-4.73843e-17
 1.14888e-17
-3.48606e-19
 4.68321e-17
 4.59749e-17
 1.47776e-19
-7.89813e-18
 8.20524e-18
-1.68281e-17
 7.35071e-18
-2.10422e-17
 -2.4238e-17
 3.85633e-17
-3.90617e-17
-2.61209e-17
-2.99801e-18
-1.14633e-17
 3.19125e-17
 1.60668e-17
-4.01625e-17
 -1.3361e-17
 8.28564e-18
-2.37733e-17
  2.9292e-17
-2.90304e-17
 4.20638e-17
 3.79252e-17
 3.77598e-17
 2.80369e-17
 -3.6535e-17
 8.67573e-18
 2.88349e-17
 2.31361e-17
-3.99565e-17
 2.73834e-17
 2.08275e-17
 8.37363e-18
-2.87983e-17
-1.92509e-17
 3.97279e-17
 2.67347e-17
 7.88923e-18
-3.27938e-17
 1.70145e-17
 1.70099e-17
-1.07324e-17
-3.42672e-17
 -4.2737e-17
-2.71035e-17
 2.99819e-17
-3.47172e-17
  7.7178e-18
 -1.0016e-17
-1.03081e-17
-1.12738e-17
 9.13592e-18
-1.65279e-17
-2.16322e-17
-1.38785e-18
-3.67746e-17
-9.98485e-18
-4.09957e-17
 4.02427e-17
-3.51323e-17
-3.27699e-17
 1.93425e-17
 3.38775e-17
 2.37861e-17
 3.87265e-17
 -3.3657e-17
 1.52303e-17
 1.71777e-17
 2.24145e-17
 3.06189e-17
-1.40915e-17
-8.85919e-18
-2.83971e-17
-1.76304e-19
-3.41386e-18
-7.31828e-18
 -1.8478e-17
 1.00513e-17
-4.78841e-17
 1.96883e-17
 4.79255e-17
-1.09755e-17
-1.94593e-17
 -1.6886e-17
 1.55746e-17
 2.73351e-17
-5.47822e-18
-4.26939e-17
 3.45218e-17
-1.35192e-17
-2.96439e-17
-4.65317e-17
-4.24603e-17
  -4.405e-17
 2.54367e-17
 4.44486e-17
-2.95247e-17
-7.61656e-18
 1.33427e-17
 4.10721e-17
-2.52813e-17
 4.74335e-17
-1.60707e-17
-5.49604e-18
-1.02637e-18
 2.86978e-17
  3.5368e-17
  2.8678e-17
-9.53447e-18
 3.56663e-17
 8.27389e-20
-9.89255e-18
-2.35929e-17
 2.88057e-17
 2.14038e-17
 4.01641e-17
 7.85726e-18
 -3.2358e-17
 4.56525e-17
-5.90459e-18
 2.30517e-18
-3.22749e-17
-4.25398e-18
 8.02724e-18
-2.81426e-17
-2.71009e-17
 4.19225e-18
-9.48498e-18
 1.34649e-17
-3.07487e-17
-1.66964e-17
 3.63659e-17
-3.15987e-17
 1.54152e-17
-1.74137e-17
 1.55572e-17
-4.17055e-18
-3.03293e-17
-4.04838e-18
 3.44773e-17
 1.05937e-06
 1.01093e-08
 4.59828e-07
 6.79124e-07
-4.76713e-07
 6.62945e-07
-9.07806e-07
-4.41729e-07
 1.29796e-07
 2.44079e-07
  7.0109e-07
 4.55696e-07
-1.04169e-06
 5.92317e-07
 6.11321e-07
 3.28166e-07
-8.55318e-07
-5.57967e-07
 4.08743e-07
 3.84761e-07
 3.29168e-07
-4.60123e-07
 -1.1011e-06
-4.43889e-07
 4.44787e-07
 2.25851e-07
 4.64381e-07
 6.28369e-07
 4.46069e-07
-1.07533e-06
 3.93248e-07
 2.44393e-07
  -2.457e-07
 4.04047e-07
 6.92667e-07
 7.83648e-07
-4.07707e-08
 3.91349e-07
 4.15434e-07
 2.81315e-07
-3.94536e-07
-5.10464e-07
-6.82589e-07
 5.49765e-07
-1.04053e-06
-3.62519e-07
-5.16007e-07
-8.93723e-07
-4.47215e-07
 1.64685e-06
-6.17377e-07
 -8.3042e-07
 1.02327e-06
 6.10741e-07
 2.13825e-07
 8.29015e-07
 2.27297e-07
 1.94867e-07
 9.75936e-07
-4.63503e-07
  7.8355e-07
 2.28571e-07
-1.16186e-06
 7.02195e-07
 2.25726e-07
-3.53435e-07
-4.20681e-07
 5.25563e-07
-3.67856e-07
 4.82829e-07
-1.05566e-06
 9.99741e-07
-5.01867e-07
 4.68158e-07
-9.37609e-07
 3.28455e-07
-1.60617e-06
-2.67972e-07
 1.36362e-07
-8.86806e-07
-2.79762e-07
 8.18255e-07
 7.04701e-07
 1.04346e-06
-5.40359e-07
-6.43941e-07
 -6.9247e-07
 -5.0797e-07
-5.99706e-07
-4.83337e-07
-6.83804e-07
-5.82162e-07
-1.17262e-06
-1.87875e-07
 6.83457e-07
 7.82519e-07
-5.91117e-07
 7.53626e-07
 1.04252e-06
-4.08323e-07
-4.76271e-07
 4.32714e-07
 6.44277e-07
-5.54527e-07
 3.52774e-07
-2.84788e-07
-7.71733e-07
-1.02772e-06
-9.72698e-07
-4.44608e-07
 2.63766e-07
-1.25994e-07
-4.47678e-08
-3.95371e-07
-4.62026e-07
 4.82876e-07
-6.89296e-07
-4.00446e-07
 4.78686e-07
 -7.9987e-07
 3.18992e-07
 2.49436e-07
-7.03327e-07
 -2.6548e-07
 1.20212e-06
 7.60597e-07
-7.46957e-07
 7.92859e-07
 2.36221e-07
 2.81974e-07
-5.60126e-07
-4.17088e-07
-5.50141e-07
 3.09545e-07
 2.67353e-07
-3.01785e-07
 4.05438e-07
-7.65356e-07
-2.34785e-07
-5.90186e-07
 6.42268e-07
 6.20142e-07
 6.75282e-07
-9.04351e-07
-6.56497e-07
 7.32091e-07
 8.10587e-07
 3.07947e-07
-6.23518e-08
-7.38427e-07
 1.02626e-06
 9.79338e-09
 4.45458e-07
 6.57901e-07
-4.61816e-07
 6.42228e-07
-8.79437e-07
-4.27925e-07
  1.2574e-07
 2.36451e-07
 6.79181e-07
 4.41455e-07
-1.00914e-06
 5.73807e-07
 5.92218e-07
 3.17911e-07
-8.28589e-07
 -5.4053e-07
 3.95969e-07
 3.72737e-07
 3.18881e-07
-4.45744e-07
-1.06669e-06
-4.30017e-07
 4.30888e-07
 2.18793e-07
 4.49869e-07
 6.08733e-07
 4.32129e-07
-1.04172e-06
 3.80959e-07
 2.36756e-07
-2.38022e-07
  3.9142e-07
 6.71021e-07
 7.59159e-07
-3.94966e-08
 3.79119e-07
 4.02451e-07
 2.72524e-07
-3.82207e-07
-4.94512e-07
-6.61258e-07
 5.32584e-07
-1.00801e-06
 -3.5119e-07
-4.99881e-07
-8.65795e-07
-4.33239e-07
 1.59539e-06
-5.98084e-07
-8.04469e-07
 9.91291e-07
 5.91655e-07
 2.07143e-07
 8.03108e-07
 2.20194e-07
 1.88778e-07
 9.45438e-07
-4.49018e-07
 7.59064e-07
 2.21428e-07
-1.12555e-06
 6.80252e-07
 2.18672e-07
 -3.4239e-07
-4.07535e-07
 5.09139e-07
 -3.5636e-07
 4.67741e-07
-1.02267e-06
 9.68499e-07
-4.86183e-07
 4.53528e-07
-9.08309e-07
 3.18191e-07
-1.55598e-06
-2.59598e-07
 1.32101e-07
-8.59094e-07
 -2.7102e-07
 7.92685e-07
 6.82679e-07
 1.01086e-06
-5.23472e-07
-6.23818e-07
 -6.7083e-07
-4.92096e-07
-5.80965e-07
-4.68233e-07
-6.62435e-07
 -5.6397e-07
-1.13598e-06
-1.82004e-07
 6.62099e-07
 7.58065e-07
-5.72645e-07
 7.30075e-07
 1.00994e-06
-3.95562e-07
-4.61388e-07
 4.19192e-07
 6.24143e-07
-5.37198e-07
  3.4175e-07
-2.75888e-07
-7.47616e-07
-9.95601e-07
-9.42302e-07
-4.30714e-07
 2.55524e-07
-1.22057e-07
-4.33688e-08
-3.83016e-07
-4.47588e-07
 4.67786e-07
-6.67755e-07
-3.87932e-07
 4.63727e-07
-7.74874e-07
 3.09023e-07
 2.41641e-07
-6.81348e-07
-2.57184e-07
 1.16455e-06
 7.36829e-07
-7.23615e-07
 7.68083e-07
 2.28839e-07
 2.73162e-07
-5.42622e-07
-4.04054e-07
 -5.3295e-07
 2.99871e-07
 2.58998e-07
-2.92354e-07
 3.92769e-07
-7.41438e-07
-2.27448e-07
-5.71742e-07
 6.22197e-07
 6.00762e-07
 6.54179e-07
 -8.7609e-07
-6.35982e-07
 7.09213e-07
 7.85257e-07
 2.98324e-07
-6.04033e-08
-7.15351e-07
-2.39687e-17
   4.412e-17
 2.39497e-17
 4.10902e-17
 3.65669e-17
  1.5508e-17
-3.03326e-17
 3.96272e-18
 8.27913e-18
-3.46956e-17
-9.74677e-18
 2.34902e-17
-4.32152e-17
 2.62456e-17
-3.37441e-17
-1.70059e-18
  3.8217e-17
  4.1108e-17
 2.57174e-17
-3.13961e-17
 3.43156e-17
-1.20873e-17
-2.68971e-17
 5.34124e-18
-1.63013e-17
-1.63349e-17
 2.63025e-17
 2.93154e-17
-2.80329e-17
  -1.333e-17
-2.67267e-17
-3.81929e-18
-1.74936e-17
 4.54054e-17
-1.10127e-17
-2.92103e-17
 1.26297e-17
   6.837e-18
 2.29348e-17
-2.73748e-17
 2.03237e-17
-3.50956e-17
 4.42978e-17
 2.52909e-17
 3.93323e-17
-3.77299e-17
-2.46933e-17
 2.92657e-17
-4.49055e-17
-4.72596e-17
 4.60519e-17
 3.75924e-17
-1.11645e-17
-2.91288e-17
-5.34994e-18
 2.07165e-17
 2.71864e-18
 -2.7331e-17
 1.74827e-18
 2.28681e-17
 7.52129e-18
 2.32039e-17
-2.92348e-17
   3.821e-17
 2.03257e-17
 7.93481e-18
-3.92839e-17
-1.53282e-17
-3.35118e-17
 3.18332e-17
 5.47938e-18
 3.49943e-17
   4.492e-17
 1.49353e-18
 1.20015e-17
 3.59687e-17
  1.1946e-17
 3.54906e-17
 1.69508e-17
 1.52228e-17
 3.64133e-17
 1.47191e-17
 4.53166e-18
-2.30348e-17
 3.37727e-17
 4.73641e-17
 4.58641e-17
-1.17923e-17
-2.82506e-17
-6.71278e-19
-3.72078e-17
  2.7453e-17
 -2.5751e-17
-1.82603e-17
 1.73795e-17
 4.27571e-17
 3.78568e-17
 2.62779e-17
-2.08548e-17
-4.39386e-17
 9.82758e-18
  3.2807e-17
  3.9238e-17
 6.46393e-18
-1.39831e-17
 2.95596e-18
  -5.851e-18
 4.61452e-17
-9.83708e-18
-3.71838e-17
 1.30844e-17
-2.17073e-17
 2.57176e-17
-3.06675e-17
 3.44021e-18
 1.12067e-17
-3.15871e-17
 1.02066e-18
 4.75967e-17
-1.16554e-17
-4.79342e-17
-3.78947e-17
-3.24859e-17
-2.55029e-17
 -7.9727e-18
 3.30759e-17
-3.10294e-17
-1.83995e-17
 1.10702e-17
-3.70183e-18
-1.41557e-17
-2.73858e-17
-1.91785e-17
-2.32013e-17
 2.72605e-17
 1.50207e-17
  2.7937e-17
-2.68742e-17
 1.28823e-17
-3.01837e-17
-1.58756e-17
-2.23169e-17
-3.70871e-18
-3.84416e-17
-4.80208e-18
 4.79138e-17
 2.09474e-17
 1.17932e-17
 6.50884e-19
 2.02605e-17
-4.81458e-17
  8.9899e-19
 3.05481e-17
-3.24494e-17
 2.35785e-17
-2.57082e-17
-4.76571e-17
 4.07314e-17
 4.07468e-18
 1.15954e-17
 -1.1254e-17
 3.81013e-17
 3.23919e-17
 1.77498e-17
-3.33836e-17
 1.13688e-17
 -1.5513e-17
 4.27357e-17
 3.26769e-17
 4.55516e-17
-3.57316e-17
-3.14823e-17
-2.50489e-17
 8.74203e-18
-2.17416e-17
 1.83314e-17
 8.37226e-18
 4.73881e-17
-1.81591e-17
-3.92605e-17
  1.9365e-17
-1.81225e-17
 9.82086e-18
 1.62955e-18
 -2.3896e-18
-1.48843e-17
 2.41037e-17
 -1.8644e-18
-2.24365e-17
-2.01052e-17
-3.85526e-17
 1.44918e-17
-3.02875e-17
 4.20216e-17
 -1.6042e-17
-1.54888e-17
  5.1068e-18
 1.66273e-17
-2.10367e-17
-1.04999e-17
 1.38953e-17
-8.58599e-18
 6.20015e-18
 3.70288e-17
-4.81276e-17
 3.26409e-17
 7.07655e-18
 8.42703e-18
 3.17454e-17
 3.70998e-17
 1.73489e-17
 2.82683e-18
-2.93063e-17
-2.11139e-17
-4.38272e-17
 1.64864e-17
 1.21842e-17
 2.84588e-17
-3.36616e-17
 3.79301e-17
  -3.993e-17
-2.40319e-17
 4.13826e-18
-2.20352e-17
-3.02938e-17
 3.62786e-17
 1.06583e-17
 2.29953e-17
 4.62235e-18
 3.78039e-17
-3.57882e-17
-2.97659e-17
-1.90657e-17
 1.85943e-17
-4.10208e-17
-1.90109e-17
 2.95158e-18
 1.42381e-17
 3.75984e-17
-1.35866e-17
 3.05434e-18
  6.6637e-18
 3.74225e-17
 2.19304e-17
 3.37322e-17
 4.17777e-17
-9.86684e-18
-2.36723e-18
 2.19529e-17
  4.6539e-18
-1.27208e-17
 3.02052e-17
 2.88044e-17
 3.95998e-17
-4.01137e-17
 4.66929e-17
 2.75948e-17
 1.87269e-17
 2.14046e-17
-1.60664e-17
 8.24722e-18
 3.37987e-17
 2.34998e-18
 3.73638e-17
 4.10941e-18
 9.51156e-18
-2.99307e-17
-4.12226e-17
-2.45339e-17
-4.06159e-17
-6.62691e-18
 2.67028e-17
 1.42301e-17
 -1.7488e-17
 3.49512e-19
-3.21313e-19
-2.39939e-17
  3.8665e-17
 4.54938e-17
 4.61413e-17
-4.96471e-18
-1.55106e-17
 2.80628e-17
 -2.4444e-17
-2.41944e-17
 3.61315e-17
-2.60347e-17
-4.48832e-17
 6.57484e-18
 4.35522e-17
-1.27673e-17
-3.34615e-17
 2.90673e-17
 3.77651e-17
-4.43813e-17
-1.51069e-17
  -1.007e-18
-2.61297e-17
-8.14716e-18
 2.26414e-17
-1.85633e-17
 3.34083e-17
 1.06058e-18
 4.38492e-17
-3.23633e-17
-4.68735e-17
-4.75573e-18
-8.17489e-18
 3.99738e-17
-7.54555e-18
-1.03172e-17
-1.32745e-17
 2.51262e-17
 -3.0538e-17
 1.04639e-17
-4.73518e-17
-4.26901e-17
 3.26115e-17
-4.40527e-17
 1.20671e-17
 2.78801e-17
-8.63761e-18
 2.67879e-17
 8.66385e-18
-1.91562e-17
 3.05889e-17
 4.17393e-17
 2.80192e-17
-4.38244e-17
-1.46915e-17
 2.37698e-18
-1.42053e-17
-2.95668e-17
-4.48461e-17
-1.86398e-17
-1.37478e-17
-4.35372e-17
 2.47868e-17
 2.62597e-17
 4.46189e-17
-3.10423e-17
-3.23412e-17
-1.69392e-17
 4.22662e-17
-1.46969e-17
 4.17071e-17
 4.30967e-17
-9.20462e-18
  2.6035e-17
 4.72264e-17
-4.54212e-17
 5.63151e-18
-9.69487e-18
  2.9549e-17
-3.39883e-17
 1.93313e-17
 1.18543e-17
-4.05326e-17
-9.33157e-19
 1.62122e-17
-7.04169e-18
-4.68398e-17
-4.62767e-17
 1.15738e-17
-4.35035e-17
-1.67342e-17
 4.60084e-17
-3.88584e-17
-4.02309e-17
 2.39844e-17
-4.25231e-17
-2.30909e-17
 3.98256e-17
-1.12799e-17
-2.91083e-17
-2.31549e-17
-1.78565e-17
-3.42952e-17
 1.58228e-17
-4.01051e-17
-3.53525e-17
  1.8584e-17
 1.37088e-17
 3.13499e-18
-1.50578e-19
 2.79028e-17
-2.58173e-17
-3.65799e-17
 3.55526e-17
 2.14318e-17
 2.78147e-17
-1.97727e-17
 2.27744e-17
 2.97203e-17
 3.99835e-17
 2.74532e-17
-3.52975e-17
 3.77083e-17
 3.67772e-17
-2.73461e-17
 1.34091e-17
 4.24364e-17
-2.25464e-18
 4.95106e-18
-1.71271e-17
 1.68194e-17
 2.99785e-17
 1.31987e-17
 3.07065e-17
-2.48226e-18
  2.1276e-17
 4.35364e-17
-3.21819e-17
-1.32989e-17
-1.61226e-18
 1.58499e-17
-3.36797e-17
 2.07527e-17
 2.74523e-17
-4.64106e-17
-6.09902e-18
  6.9834e-18
 -1.8001e-17
-3.16082e-17
-1.15799e-17
-2.63011e-17
 4.40273e-17
 1.30489e-18
-3.68765e-17
 3.25209e-17
 2.21411e-17
  2.4715e-17
 2.66737e-17
-2.83971e-17
-1.86176e-17
-3.87371e-17
 3.66046e-17
-3.69227e-17
  2.2644e-17
 1.90275e-17
 8.77739e-18
-4.36361e-18
 1.42803e-17
 2.47779e-17
 3.05198e-17
-3.56156e-17
-7.65587e-18
 4.50225e-17
 3.33195e-17
-2.84871e-17
 4.67942e-17
-2.10632e-17
 2.66786e-17
-1.94904e-17
-4.48906e-18
 -3.3185e-17
 2.39085e-18
-8.74535e-18
 1.63023e-17
 1.36967e-17
-2.45081e-17
 -9.8402e-18
-9.87191e-18
 -4.6118e-17
 9.94503e-18
 1.96928e-17
-3.66728e-17
-1.73397e-18
 3.09525e-17
 3.41536e-17
-3.09901e-17
-8.55373e-18
-1.84936e-17
 3.14725e-17
-3.20595e-17
-3.62574e-17
 4.40392e-17
 8.46698e-18
-3.95185e-17
 2.90751e-17
 2.81622e-17
-4.10079e-17
-4.02717e-17
 6.55715e-18
-1.23159e-17
 3.42159e-18
 2.15545e-17
 3.82573e-17
 4.28586e-17
-1.04268e-17
 3.67042e-18
-2.99331e-17
 2.79153e-17
 4.19808e-17
-2.78688e-17
-1.04233e-17
 1.33901e-17
-1.63593e-17
 3.60251e-17
-3.94104e-18
-3.04893e-17
-4.32486e-17
 3.56876e-17
-8.00578e-19
 3.64063e-17
-4.46555e-17
 1.11244e-17
 3.21619e-17
 1.19938e-17
 1.97882e-17
 1.29534e-17
-8.12766e-18
 2.69627e-17
  2.0864e-17
 4.66118e-17
-3.36368e-17
 -2.3998e-17
 1.98827e-17
-4.36631e-17
 -2.9423e-17
-3.88277e-17
 8.18965e-18
-1.11738e-17
 3.72699e-17
 1.88689e-18
 9.13971e-18
-2.14369e-17
-3.30066e-17
 4.09628e-17
-3.36954e-17
 1.12347e-17
-3.78101e-17
-2.87617e-17
-1.36139e-18
 9.57165e-18
 -4.0639e-17
 2.16541e-18
-2.75876e-17
 3.97052e-17
-3.41244e-17
  4.0383e-17
 4.37499e-18
 5.93024e-18
 1.90621e-17
-2.30446e-17
 4.25845e-18
 3.36076e-17
 1.13978e-18
-2.41424e-17
 3.81268e-17
 1.98991e-17
-1.47878e-17
-1.96712e-18
-3.95583e-17
-2.58015e-17
 4.81021e-17
 1.77637e-17
 9.43936e-19
-3.31881e-17
 1.04429e-17
 1.54308e-17
 2.62288e-17
 2.08152e-17
 3.48515e-17
-2.34162e-17
-1.78968e-17
 4.23948e-17
 2.69316e-17
 2.69794e-18
 3.38164e-17
 4.09895e-17
 -5.2027e-18
-1.00922e-17
-1.36387e-18
-3.44242e-17
 1.50455e-17
 -4.5389e-17
 4.73657e-17
-3.20983e-17
-2.13491e-17
 3.72089e-17
 3.59831e-17
 1.20454e-17
-1.30418e-17
 4.46072e-17
 3.44263e-17
-1.32233e-17
 1.40873e-17
-1.29134e-17
  1.7709e-18
-2.37534e-17
-4.57662e-17
-2.02839e-17
 4.52441e-17
 3.72676e-17
 4.48231e-18
-2.09363e-17
 3.13788e-17
-1.68697e-17
  2.9944e-17
 1.69116e-17
-2.41638e-17
-2.35423e-17
-4.14643e-17
 2.26546e-17
-9.78424e-18
 2.17636e-17
 2.54479e-17
-1.07021e-17
 3.78476e-17
-4.41848e-17
-2.17768e-17
 2.55472e-17
  1.6043e-17
 1.33637e-17
 2.18707e-17
 2.18564e-18
-4.81432e-17
-1.23256e-17
 3.74546e-17
 1.81006e-18
 1.21034e-17
 3.98708e-17
 2.97085e-17
 9.06386e-18
 2.88548e-17
-1.40928e-17
 3.63099e-17
   1.195e-17
 1.72199e-17
 1.79703e-17
 -1.9422e-17
 4.12384e-17
 4.26103e-17
-1.27039e-17
 1.56094e-17
-1.54576e-17
 -3.9224e-17
 -7.2263e-18
 2.20226e-17
  4.6806e-17
-3.22877e-18
-4.80378e-17
 2.40696e-17
-3.54694e-17
 1.35082e-17
-2.34334e-18
 1.48986e-17
 1.35474e-17
 3.35134e-17
 4.06953e-18
-3.29261e-17
-2.66685e-18
-4.34332e-18
 4.49647e-17
-4.18866e-17
-2.37721e-17
-1.74117e-17
 4.26056e-17
 3.63602e-17
 4.79905e-17
 1.22923e-17
-3.13454e-17
 4.09453e-17
 6.61892e-18
 4.13294e-18
 8.27104e-18
 3.93437e-17
 1.30913e-17
-4.72389e-17
 1.30826e-17
 1.16137e-17
 -2.2853e-18
 1.32271e-17
-1.26003e-17
 1.04276e-17
-2.15482e-17
 3.32387e-17
-2.29574e-17
 4.01815e-17
 1.84684e-17
 2.92944e-17
-4.10282e-17
 -3.2482e-17
-2.33325e-17
-4.43471e-17
-2.61863e-17
 1.07768e-18
-1.35765e-17
-3.18643e-17
-1.08457e-17
-1.38695e-17
 2.86104e-17
 5.99115e-18
-2.12079e-17
-1.30543e-17
-3.81595e-17
 3.52455e-17
-2.19943e-17
 2.31141e-17
  3.6189e-17
 3.92707e-17
-1.35557e-17
-1.43799e-17
 4.21423e-18
 2.20263e-17
   4.423e-17
 3.08483e-17
 6.98131e-18
 -2.7011e-17
 2.27462e-17
-2.28339e-17
-4.60002e-17
 2.99003e-17
-7.13353e-18
-2.11504e-17
 3.37355e-17
 1.48625e-17
 2.81096e-17
-2.81245e-17
 3.11806e-17
-3.10197e-17
 6.18825e-18
 1.15074e-17
 2.31538e-17
 3.31627e-17
 4.66354e-17
 3.31766e-17
 2.01246e-17
-2.36425e-17
 8.00711e-18
 8.02999e-18
-3.26555e-17
 4.26337e-17
 4.18324e-17
 1.97411e-17
 1.63764e-17
 3.77788e-17
 2.30584e-18
-2.49259e-17
-3.75159e-17
-2.32315e-17
 4.22532e-19
-3.53338e-17
-4.16148e-17
 4.14713e-17
-8.30183e-18
  4.0303e-17
 8.05026e-18
-2.84758e-17
-3.61051e-17
-9.05272e-18
-1.13132e-17
 1.82655e-17
 -4.5829e-17
-3.64431e-17
 3.14458e-18
-4.74772e-17
 4.49158e-17
-2.50144e-17
-2.29374e-17
 4.63935e-18
 3.11979e-17
-7.41051e-18
-1.01055e-18
 2.47467e-17
 -3.5953e-17
-3.29178e-17
 1.42419e-17
 1.45352e-17
-9.66142e-18
 2.49083e-17
  3.9486e-17
 3.89435e-17
 3.77569e-17
 4.60535e-17
 3.21312e-17
-1.88285e-17
 3.80729e-17
-8.10217e-18
 8.77976e-19
-4.63158e-17
 3.10274e-17
 3.77471e-17
  2.0132e-17
 3.33808e-17
-4.69796e-17
-2.50071e-17
  3.4086e-17
 4.61186e-17
-1.83916e-18
 -3.7135e-17
 2.47434e-18
-1.89249e-17
 3.63678e-18
-4.68198e-17
-4.24618e-17
 1.58661e-17
-3.15553e-17
 1.99624e-17
-1.78823e-17
 6.96563e-18
-3.41286e-18
  -2.668e-17
-2.37453e-18
-1.39396e-17
-2.89101e-17
 -1.8527e-17
 1.54142e-17
-3.91208e-17
 2.15532e-17
-3.19914e-17
-3.72543e-17
 4.29705e-18
-4.25279e-17
 3.10599e-17
-1.06057e-17
-4.13252e-17
-4.22307e-17
-2.48034e-17
-4.34902e-17
 4.11243e-18
-1.37561e-17
  7.1665e-18
 3.33699e-17
  3.8063e-17
 8.52901e-18
 3.90905e-17
 5.64552e-18
 2.51561e-17
 1.07693e-17
 3.59455e-17
-1.61619e-17
-4.09272e-17
-3.90181e-17
 2.96459e-17
-6.68443e-18
-1.97458e-17
-3.71647e-17
-3.95538e-17
-1.06843e-17
 3.25708e-17
-2.33629e-17
  2.4366e-19
-1.14157e-17
-1.77085e-17
  -1.698e-17
 2.61609e-17
-1.08513e-17
-1.10284e-17
-4.69261e-17
-6.15915e-18
 4.12664e-17
-1.24999e-17
-4.72763e-17
 2.63527e-17
-2.27205e-17
 9.43508e-18
 1.71595e-17
 3.11074e-17
-1.36925e-17
-2.03548e-17
 1.87693e-17
 1.83279e-17
-1.30996e-17
 2.79335e-17
-3.09816e-19
 2.83983e-17
-4.00959e-17
 1.07078e-17
 3.70268e-17
-2.59791e-18
-5.00495e-18
-3.46197e-17
 4.58281e-17
 3.17617e-17
-4.14587e-18
-1.94355e-17
 9.63894e-18
 3.31852e-17
 1.77184e-17
 1.08951e-17
-2.12576e-17
 1.07011e-17
 4.65776e-17
-2.03515e-17
-1.12298e-17
-2.44265e-17
 3.72659e-17
-4.23539e-17
-4.16028e-17
-2.47102e-17
-1.45263e-17
 2.53488e-17
    4.18e-17
 2.05564e-17
 4.99875e-18
-6.79339e-18
 6.70999e-19
 1.30852e-17
-4.43692e-17
-1.05858e-17
-3.77963e-17
-1.19179e-18
 2.97678e-18
-4.02519e-17
-1.77137e-17
 4.70132e-17
 -1.1505e-17
 4.01075e-17
 3.19148e-17
-4.20703e-17
 2.71908e-18
-3.76264e-17
 1.68132e-17
 1.01305e-18
-9.79564e-18
-4.27002e-17
 2.47689e-17
-2.08134e-17
-3.68717e-17
 3.13484e-17
 2.65874e-18
-3.21572e-18
 8.41362e-18
-3.82484e-18
 -3.0943e-17
-3.48712e-17
 3.75641e-17
 1.79104e-17
 2.63963e-17
 4.13773e-17
-4.09591e-17
 3.67823e-17
-8.09813e-18
    1.02e-17
 4.47127e-17
 2.23705e-17
 8.92966e-18
-1.50759e-17
 1.41944e-17
-7.43917e-18
-8.96384e-18
-3.13701e-17
 3.11673e-18
-4.04342e-17
 1.78253e-17
 4.15034e-17
-3.49521e-17
-5.68948e-18
-2.75936e-17
-2.36415e-17
-2.26247e-17
 2.32475e-17
 2.13252e-17
 3.39713e-17
-2.88609e-17
 3.85645e-17
 4.72824e-17
-3.95804e-17
 8.19126e-18
  2.5395e-17
-4.64868e-17
 1.54145e-17
 1.38937e-17
-6.40256e-18
-2.26691e-17
 1.03228e-17
-3.23157e-17
 3.44429e-17
 4.34293e-17
 3.00611e-17
-2.12799e-17
-1.38182e-17
 4.68733e-17
 3.00192e-17
-6.07007e-18
  1.6415e-17
  2.3239e-17
  7.1602e-18
-3.75581e-17
 4.38278e-17
 3.17011e-17
-1.20005e-17
 1.87917e-17
 4.74263e-18
-2.63128e-17
 3.81131e-17
-4.97647e-18
 -2.7314e-17
  4.6715e-17
-4.50688e-17
 4.62633e-17
-4.80554e-17
  1.8528e-17
 1.18734e-17
 -6.2756e-18
 4.40413e-17
-2.60873e-17
 9.59105e-18
 3.02006e-17
-3.09417e-17
 -8.6315e-18
-3.93629e-17
 3.42246e-18
-1.00418e-17
 3.88387e-17
 4.55347e-17
-4.19105e-17
 1.37941e-17
 4.41132e-18
-3.12863e-17
 9.33826e-18
-1.21712e-17
  4.8956e-18
-2.01537e-17
 4.07538e-17
 2.67651e-17
-3.03242e-17
-1.25063e-17
 4.76334e-17
-3.18928e-17
-9.39281e-18
 4.56132e-17
-3.17658e-17
-3.91484e-17
   9.203e-18
 1.01409e-17
-4.33907e-17
  3.1298e-17
-2.85516e-17
 3.49922e-17
-4.79273e-17
 1.09992e-17
 4.38116e-17
  3.6775e-18
-4.73262e-17
 3.43667e-17
  9.2862e-19
-4.10544e-17
 -1.2286e-19
-4.29437e-17
-2.41583e-17
-3.90682e-17
-6.93255e-18
 2.89196e-17
-1.10395e-17
-1.44624e-17
 7.40116e-18
 6.81865e-18
 2.12136e-17
 6.75099e-18
 2.31082e-17
-3.64628e-17
 4.08055e-18
 3.95248e-17
-2.74289e-17
-3.50001e-17
 1.38208e-18
-2.26373e-17
 4.44803e-17
 2.10128e-17
-3.59287e-17
 4.47353e-17
-1.62716e-17
-4.04006e-17
 1.29197e-19
-1.54155e-17
 4.21484e-17
-4.72258e-17
-8.28753e-18
-6.25809e-18
-4.19871e-17
 1.57365e-17
 2.85603e-18
-7.37348e-19
-3.62746e-18
 3.99988e-17
 3.29826e-17
-4.45099e-17
-1.46612e-18
 5.91257e-18
 1.04234e-17
-2.66415e-17
 1.76321e-17
-3.37796e-17
-3.54004e-17
 3.83856e-17
-2.05974e-17
  1.4164e-17
-3.25353e-17
-2.44007e-17
-1.31068e-17
-2.02816e-17
 -2.7949e-17
 1.88039e-17
-1.24999e-17
 2.03625e-17
-4.48952e-17
-1.86352e-17
 2.13191e-17
-5.00036e-18
 2.32891e-17
 2.75143e-17
-3.75475e-17
-2.21385e-17
-2.15067e-17
 7.00742e-18
-3.04233e-17
-3.68077e-17
 1.06798e-17
 1.62929e-17
 1.72872e-17
-2.71803e-17
 3.78338e-17
-1.33643e-17
-1.27777e-17
-4.58502e-17
-2.32624e-17
 1.48073e-17
 1.64962e-17
-7.61537e-18
 3.85889e-17
-4.48942e-17
 2.02853e-17
-3.76437e-17
 2.20921e-17
-4.04982e-17
 3.09012e-17
 2.53792e-17
-1.09511e-17
 3.93663e-18
-2.79047e-17
-3.59456e-17
-1.68327e-17
-1.72699e-17
-9.90175e-18
 9.84293e-18
 3.79199e-17
 7.85731e-18
 2.12175e-17
 3.16115e-19
-2.41334e-17
-9.77888e-18
 2.13181e-17
-3.45832e-17
 2.50391e-17
-3.97432e-17
-3.22511e-17
-4.65069e-17
 2.32465e-17
 3.24274e-17
-5.93992e-18
 1.35518e-17
 3.57155e-17
-3.39382e-17
 2.40905e-17
   9.524e-18
-2.62541e-17
 6.70806e-18
-1.33804e-17
 1.09772e-17
-3.76389e-17
  6.8972e-18
 2.32139e-17
 -6.2893e-18
 3.78097e-17
-3.49714e-17
  -4.473e-17
 2.74459e-17
 2.10682e-17
 2.46699e-17
-2.05216e-17
 4.51172e-17
-3.33926e-17
-4.74871e-17
-3.77496e-17
 3.98289e-17
-3.90479e-17
-2.18183e-17
 4.15043e-17
  3.2381e-17
-3.76745e-17
-1.27192e-17
-2.35082e-18
 4.62234e-17
 1.52492e-18
-2.65439e-17
 7.46375e-18
 2.34532e-17
 2.83465e-17
 4.22657e-17
-1.38533e-17
 3.88899e-17
 8.79296e-19
-3.89229e-17
 -1.5683e-17
-9.59465e-18
 -2.5712e-17
-1.22307e-17
-3.04323e-17
 4.35385e-17
-3.58444e-17
-2.77154e-18
 4.03721e-17
-2.10546e-17
-2.07627e-18
-4.56611e-17
-2.95094e-17
 7.05819e-18
-1.92971e-17
-3.62887e-17
-8.84447e-18
-8.78927e-18
-8.25546e-19
  3.6987e-17
-1.08495e-17
-4.75842e-17
-3.78405e-17
 4.47966e-17
 2.40513e-17
 3.86883e-17
 3.87787e-17
-3.80856e-17
 2.92946e-17
-8.62565e-18
-2.88262e-17
-3.46721e-17
  2.9962e-17
-6.35586e-18
 1.27958e-18
 4.77121e-17
-1.11009e-17
 1.36175e-17
 -3.3431e-18
-1.90124e-17
 4.07453e-17
  4.2763e-17
-1.64912e-17
-3.70477e-17
 1.53755e-18
 1.23941e-17
-2.51541e-17
 4.08754e-17
-4.46788e-17
 2.22027e-17
 2.95788e-17
-7.34597e-18
 2.28008e-17
 3.99207e-17
 -1.0833e-17
 -1.4315e-18
 3.03254e-17
-2.03379e-17
 8.66525e-18
 1.13363e-17
 1.92187e-17
 2.80214e-17
 2.48466e-17
 8.97177e-19
-2.66181e-17
-2.21575e-17
 3.25624e-19
 1.04633e-17
 3.96424e-17
 4.51649e-17
 3.96333e-17
 3.21041e-17
 3.96442e-17
-2.51415e-17
 4.32387e-17
-7.10184e-18
 3.54349e-17
 -3.0199e-17
  -1.451e-17
 3.89385e-17
 4.01861e-17
-3.32148e-17
-1.66911e-17
 1.47033e-17
-4.15777e-17
 2.06582e-17
-3.50118e-17
   3.693e-17
-4.79633e-17
 2.18358e-17
-1.73232e-20
 1.94377e-17
 1.57355e-18
-2.34544e-17
-2.79487e-17
 2.31378e-17
 2.57049e-18
 2.05593e-17
-1.46825e-17
-6.07071e-18
 1.74405e-17
-2.33328e-17
-2.22503e-17
 8.80114e-18
-2.92002e-19
-2.72952e-17
-4.65843e-17
-1.31407e-17
-9.31189e-18
 -1.2912e-17
-2.24859e-17
-1.74094e-17
 2.05554e-18
 9.00536e-18
 4.54762e-17
 8.66015e-18
  -1.862e-17
-3.78192e-17
-2.69349e-18
 -1.8401e-17
 3.21989e-17
 4.54715e-17
-4.72469e-17
-1.45112e-17
-2.62665e-17
-2.70133e-17
 -3.9657e-17
 2.44864e-17
 4.17283e-17
-6.15713e-18
-2.98679e-17
 1.08853e-17
 1.86924e-17
-3.93588e-18
-2.85972e-17
-2.98832e-17
 1.69512e-17
-2.69992e-17
 5.15841e-18
-4.06443e-17
 8.27114e-18
 3.08549e-17
-9.87136e-18
-3.79569e-17
-8.42336e-18
-1.26788e-17
 1.88856e-17
 2.11389e-17
-2.31569e-18
-3.20915e-17
-4.55457e-17
-1.84004e-17
-3.49036e-17
-4.46103e-17
-2.28834e-07
-1.19253e-07
-3.56127e-07
-9.00566e-08
-2.10262e-07
-2.26502e-07
 1.71793e-07
-6.15912e-08
 -3.4892e-07
 2.10988e-07
 -5.3532e-07
 5.12681e-07
 2.22284e-07
-4.50154e-07
 6.36873e-07
 2.72154e-07
 -5.7979e-07
 7.32299e-07
 4.78728e-07
 5.35176e-07
 1.95403e-07
 4.14817e-07
 2.20797e-07
 6.57996e-07
 4.58672e-07
 1.89897e-07
 2.84751e-07
 3.02383e-07
-8.49797e-07
  2.2048e-07
 -4.8584e-07
 3.37337e-07
 9.14572e-08
 3.23948e-07
-1.91042e-07
 6.72554e-07
-4.74507e-08
-1.91712e-07
 -1.0507e-06
 5.44335e-07
-1.33825e-07
-3.86678e-07
-8.90862e-07
-1.00773e-06
-6.51378e-07
 7.08254e-07
 6.15237e-07
 5.13791e-07
-5.85375e-08
-1.94075e-07
-6.54396e-07
 2.55992e-07
 5.78561e-07
 3.57381e-07
 6.00311e-07
-4.68626e-07
 9.76828e-08
 4.89397e-07
 4.91704e-07
 4.53662e-07
-8.73192e-08
 4.35021e-07
 2.91071e-07
-5.40083e-07
-9.17318e-07
-3.95081e-07
 -2.0338e-07
 2.52595e-07
-5.87327e-07
-8.14585e-07
  5.1719e-07
 -3.8954e-07
-4.17331e-07
 4.63404e-07
 6.95733e-08
 1.26689e-07
 1.77269e-07
-1.29864e-07
-2.84376e-07
 1.83018e-07
  3.8364e-08
-7.16875e-07
 -5.8365e-07
-2.49158e-07
-4.48455e-07
 9.63488e-07
 5.25985e-07
-5.33271e-07
-9.82001e-07
-4.39031e-07
-5.14386e-07
-1.40809e-07
 2.91239e-07
 -1.2164e-07
 9.43843e-07
-1.70053e-07
 2.05462e-07
-1.62959e-07
-2.73112e-07
 -7.0193e-08
 7.07582e-07
 4.68097e-07
-2.51589e-07
  2.1143e-08
 3.72103e-07
-4.64475e-07
 2.81401e-07
 2.81263e-07
 3.42088e-07
-8.20113e-07
-1.91067e-08
-5.26962e-07
-3.11264e-07
-3.02897e-07
-1.21449e-07
  4.7554e-08
-5.41489e-07
-7.37928e-08
 4.83872e-07
-4.88619e-07
 2.65267e-07
 2.15699e-07
 4.49055e-08
 -2.6257e-07
-2.21608e-07
 2.35027e-07
 3.89667e-07
-1.58907e-07
 1.08591e-07
-7.37615e-07
-9.79683e-08
-3.42839e-07
 5.71789e-07
 1.45873e-07
 2.77552e-07
 4.25661e-07
 5.96495e-07
-4.38769e-07
-1.07421e-07
 8.08102e-07
-8.56605e-07
-3.10718e-07
-7.68181e-07
 4.79113e-07
 4.84285e-07
-4.66447e-07
-2.36785e-07
 2.09819e-07
 -1.1082e-07
 2.36618e-08
-2.93682e-18
 2.14104e-17
-3.72129e-17
-8.89819e-18
-9.16054e-18
 4.62948e-17
 -9.0995e-18
-3.84917e-17
 3.74553e-17
-2.22323e-17
-4.15384e-17
 -3.2667e-17
  1.0557e-18
 -5.0271e-18
  1.4603e-17
 -3.7279e-17
-2.35484e-17
 2.94665e-17
 4.58139e-17
 1.13962e-17
-2.08989e-17
-7.08523e-18
 7.07406e-18
-1.01819e-17
-3.36632e-17
 4.71539e-17
 4.31157e-17
-3.15767e-18
-3.17874e-17
 3.04502e-17
-3.94435e-17
 1.34582e-17
 3.57702e-18
 -2.8474e-17
-4.37236e-17
 4.25988e-17
-3.04628e-17
-4.64081e-18
-4.41765e-17
-4.12911e-17
 2.13092e-17
-3.75326e-17
-2.57758e-17
-2.59187e-17
 5.62269e-18
 3.70096e-17
-1.50154e-17
 3.02566e-17
 1.81925e-17
-1.74851e-17
-6.63087e-18
  4.5476e-17
  2.3612e-17
-4.78404e-17
-1.29895e-17
 3.81311e-17
 4.74959e-17
-1.81575e-17
-1.33102e-17
-3.25751e-17
-3.59909e-17
-4.57131e-18
 2.90654e-17
 1.57685e-17
  1.5137e-17
 3.35241e-17
 1.00837e-17
 3.28566e-17
-1.94004e-17
 1.40896e-17
 3.97478e-17
-4.63747e-17
 2.47393e-17
-3.43116e-17
-2.41111e-17
-1.79216e-17
-4.55856e-17
  9.0559e-18
-3.59486e-17
 2.07892e-17
 3.97531e-17
 5.60286e-18
 1.79816e-17
 1.50815e-17
 5.94478e-18
-4.32915e-17
 4.92899e-18
 5.15702e-18
-1.32666e-17
 3.98011e-17
 2.07642e-17
-1.07517e-18
-1.30538e-17
 1.54601e-18
-3.35903e-17
-4.62004e-17
-1.32135e-17
 2.46757e-17
 3.48385e-17
 1.55684e-17
-9.51832e-18
 2.63027e-17
  1.7376e-17
-3.30626e-17
 4.01734e-17
 4.14473e-17
-2.80184e-18
 4.27701e-17
 2.21959e-18
 9.43189e-18
 1.52757e-17
-6.31089e-18
-3.32489e-17
-1.50263e-17
 -3.9513e-17
 2.08783e-17
-1.01355e-17
 1.35983e-17
-2.22483e-17
 2.47803e-17
 5.11587e-18
 4.66982e-17
-2.45785e-17
 4.02444e-17
-3.93564e-20
 -9.9865e-18
 4.22264e-17
 3.49294e-17
-3.35944e-17
 2.87813e-17
 2.21428e-18
 5.06964e-18
 6.80039e-18
-2.86933e-17
 2.01894e-17
-1.30984e-18
-3.55296e-17
-3.08961e-17
-6.82338e-18
 1.48723e-17
 2.67182e-17
-3.98313e-17
-3.97222e-17
 4.16516e-17
-6.67522e-18
-3.10528e-17
 1.42463e-17
 3.13717e-17
 3.07278e-17
 4.01803e-17
-1.29469e-06
-1.66405e-07
-1.51514e-06
-1.17497e-06
-1.17887e-06
 -1.6041e-06
 1.49963e-06
-9.19143e-07
-1.45074e-06
 1.39304e-06
-1.16154e-06
 8.24005e-07
 1.26676e-06
-3.31696e-07
 1.21351e-06
 1.54239e-06
-9.62362e-07
 1.20444e-06
 3.43138e-07
 2.07663e-06
 9.44528e-07
  3.4747e-07
 1.18727e-06
  1.4404e-06
 2.30609e-07
 8.82757e-07
 1.01919e-06
 1.81908e-06
-1.16825e-06
 1.31644e-06
-2.37463e-07
 1.10184e-06
 5.97841e-07
 1.92785e-06
-1.37809e-06
 1.46341e-06
-9.89643e-07
-1.26862e-06
-2.07704e-06
 4.31773e-07
-1.18841e-06
-2.09429e-06
-1.57138e-06
-1.67873e-06
-1.38434e-06
 1.75254e-06
 1.51809e-06
   1.794e-06
-9.07375e-07
-8.74631e-07
-1.25454e-06
 1.87372e-06
 1.22131e-06
 4.21585e-07
 1.73049e-06
-4.46146e-07
 1.07325e-06
  3.2885e-07
 1.05996e-06
 8.72596e-07
 5.66696e-07
 1.46099e-06
 8.82035e-07
-5.11157e-07
 -1.6998e-06
 4.78409e-08
 -9.3848e-07
 1.13729e-06
 -1.4977e-06
-1.64871e-06
  5.9002e-07
-6.96369e-07
-2.21629e-07
  2.3006e-06
 6.49236e-07
 1.09256e-06
 7.57752e-07
-3.62759e-07
-5.98856e-07
 1.48463e-06
 6.58294e-08
-9.06684e-07
-5.15858e-07
-1.36528e-06
-2.36805e-06
 2.19081e-06
 5.99081e-07
-3.99693e-07
-1.61222e-06
-1.86455e-06
-7.87552e-07
 4.21227e-07
 6.59074e-07
-1.21802e-07
 1.91085e-06
-1.36081e-06
 1.55431e-06
  -1.471e-06
-1.32984e-06
  -9.506e-07
 1.58776e-06
 1.05034e-06
-1.57112e-06
 4.73321e-08
 1.92144e-06
-2.43719e-06
 1.47812e-06
 1.26814e-06
 1.12601e-06
-2.12932e-06
 -1.0741e-06
 -3.7899e-07
-1.75828e-06
-1.60531e-06
-1.01039e-06
 8.37244e-07
-1.31972e-06
-9.63429e-07
 2.59686e-07
-1.18317e-06
 2.58842e-07
 1.40679e-06
 6.49146e-07
-5.09929e-07
-5.63312e-07
 7.12352e-07
  1.5077e-06
-1.43681e-06
 6.97301e-07
-1.20058e-06
-1.00754e-06
 6.28337e-08
 1.99082e-06
  3.3257e-07
 1.19425e-06
 1.13968e-06
 1.05352e-06
-7.86285e-07
-7.68505e-07
 1.33019e-06
-1.73999e-06
-1.84734e-06
-1.50986e-06
 8.86581e-07
  3.9978e-07
-1.90321e-06
-1.56881e-06
 1.37552e-06
-6.37331e-07
 7.17732e-07
 1.16087e-05
-7.74425e-06
-9.34865e-05
-1.59213e-05
-2.14688e-05
-5.22865e-05
 3.04584e-05
-9.95023e-06
 -9.3235e-05
 4.41345e-05
  8.6872e-06
 6.50634e-05
 -1.0632e-05
-2.07015e-05
 1.01475e-05
 5.22882e-05
-1.27355e-05
 5.18145e-05
 2.17663e-05
 9.89858e-05
 7.43668e-05
 3.47685e-05
 5.58759e-05
 8.22929e-05
 1.50307e-05
-4.36078e-06
 1.23727e-05
 6.32971e-05
-6.14915e-05
-2.92502e-06
-8.70133e-06
 4.87458e-05
-4.59683e-06
 7.83009e-05
-2.69983e-05
 2.62331e-05
-1.27111e-05
-3.75396e-05
-9.76195e-05
 1.66667e-05
-2.14957e-05
-8.41483e-05
-8.95581e-05
-7.80829e-05
-3.14947e-05
 7.21182e-05
 3.74417e-05
 9.30409e-05
-9.64459e-06
-2.77613e-05
-1.15804e-05
 5.18438e-05
 2.71285e-05
 4.56563e-05
 8.25141e-05
-2.39275e-05
 1.57406e-05
 1.16088e-05
 2.09358e-05
 -1.1229e-05
 1.99489e-05
 7.35471e-05
 3.66143e-05
-2.68194e-05
-8.54627e-05
-1.10793e-06
-7.78253e-05
 1.81855e-05
-7.50482e-05
-5.58134e-05
 1.95663e-05
-2.73126e-05
-2.42506e-05
 9.20138e-05
 4.36908e-05
 1.65401e-05
 2.67331e-05
-3.12178e-05
 -1.8017e-05
 2.91334e-05
 3.98039e-06
-2.08664e-05
-1.10028e-05
 5.27952e-06
-9.12983e-05
 9.91385e-05
  2.7852e-05
 -2.3163e-05
-8.77686e-05
-9.86797e-05
-6.59742e-05
 4.75817e-06
 2.83045e-05
-1.23913e-05
 9.26029e-05
-2.25979e-05
 5.27717e-05
-3.29656e-05
  1.1227e-05
-1.05734e-05
 9.39571e-05
 3.50698e-05
-4.09779e-05
 2.33166e-06
 7.63266e-05
-9.07652e-05
 2.97273e-05
 7.58843e-06
 4.85874e-05
-0.000116394
-1.20583e-05
-1.77815e-05
 -9.4663e-05
-5.46275e-05
-1.59384e-05
 7.55467e-06
-2.06083e-05
-1.10187e-05
 1.65424e-05
-3.49252e-05
  2.7024e-05
 4.21673e-05
-1.29286e-05
-2.28928e-05
-2.10996e-05
 1.60138e-05
 9.02873e-05
-2.91809e-05
-1.98036e-05
-5.65334e-05
 -3.0274e-05
-3.25307e-07
 5.58192e-05
 2.59361e-05
 8.59635e-05
 3.57753e-05
 4.90988e-05
-7.90775e-06
 7.09729e-06
 5.66683e-05
-7.92759e-05
-6.69147e-05
-6.32779e-05
 3.84012e-05
 2.34319e-05
-0.000105896
 -3.3685e-05
 3.90685e-05
 8.66474e-06
 5.42735e-05
 0.000177992
 -3.8245e-05
-0.000207139
 4.75791e-05
 2.83073e-05
 -4.3055e-05
-1.23053e-05
 2.23052e-05
-0.000211597
 5.49102e-05
 0.000173815
 0.000137681
-0.000172806
  -3.808e-05
-0.000112723
 6.37802e-05
 9.31977e-05
 6.42465e-06
 3.02644e-05
 0.000142028
 0.000198451
 6.90842e-05
 0.000123516
 0.000132939
-6.65971e-06
 -0.00011569
-4.17722e-05
  3.4265e-05
-5.95305e-05
-0.000146971
  3.1639e-05
  8.9483e-05
-7.18639e-05
 7.51132e-05
 5.44248e-06
-8.16768e-05
 1.53103e-05
 1.71914e-05
-7.98907e-05
-1.91068e-05
  3.9409e-05
-0.000100528
-0.000118871
-6.25723e-05
 7.03391e-05
 5.88847e-05
-2.69507e-05
 0.000163314
 2.22373e-05
-1.15248e-05
 0.000110481
 6.43624e-06
-6.79134e-05
 0.000127566
 9.72015e-05
-4.06469e-05
-1.59494e-05
-2.32643e-05
-5.03318e-05
-0.000159746
 3.86525e-05
 7.99863e-05
 6.83737e-05
-3.54947e-05
-0.000103431
 2.99988e-05
-0.000209072
 -4.3409e-05
-9.49085e-05
-4.26245e-06
-1.78844e-05
-7.62978e-06
-6.22849e-05
 0.000104005
 0.000127755
-1.88603e-05
 1.58126e-05
 -0.00011173
 1.20496e-05
-1.57698e-05
-1.79968e-05
 5.97014e-05
 5.74412e-05
 0.000162378
-9.34005e-05
 8.00354e-05
-4.07549e-06
 -4.5004e-06
-0.000100195
-0.000167922
-0.000147637
 3.30829e-06
 5.94847e-05
-5.84485e-05
 8.84974e-05
 3.85437e-05
 4.79768e-05
 4.17828e-06
 0.000182053
 2.25867e-05
  0.00016385
-1.99904e-06
 3.00932e-05
 7.34446e-06
 0.000100609
-8.93454e-05
-1.41691e-05
-8.62974e-05
 3.21108e-05
-0.000188013
 5.60341e-05
   1.336e-05
-0.000153964
-6.15812e-05
 3.04256e-05
-2.56343e-05
 7.11788e-05
 2.22445e-05
-6.26233e-06
 1.52687e-05
 6.10844e-05
 4.55661e-05
-0.000115879
-4.60416e-05
-2.16771e-05
-2.68089e-05
 0.000190525
 9.49326e-06
-0.000150922
-2.04073e-05
-1.94995e-05
  2.9728e-05
-6.89632e-06
 6.56992e-05
 0.000210519
-1.05096e-05
 2.50075e-05
  0.00010005
 0.000108744
 1.07812e-05
-5.22961e-05
-6.55562e-05
-2.21859e-05
 2.44506e-05
 3.84129e-05
-0.000204782
 1.59064e-05
 3.02995e-05
 9.62714e-05
 0.000126023
 0.000438913
-7.92723e-05
-0.000350599
 0.000187259
 0.000135437
 3.31495e-05
-0.000134122
 0.000140051
-0.000362601
 1.21463e-05
 0.000355204
 0.000299774
-0.000429324
-0.000141358
-0.000224966
 2.84171e-05
 0.000169876
 5.43175e-05
  0.00013015
   0.0001983
 0.000347517
 0.000204046
 0.000181556
 0.000264294
 7.00141e-05
-0.000286457
-0.000132437
-3.89026e-05
-0.000167682
-0.000378904
-2.37333e-05
  0.00013231
-0.000187357
 4.96714e-05
 0.000106074
-0.000176609
 0.000127714
 0.000107062
-0.000184695
 3.95195e-05
 0.000169704
 -7.7882e-05
-0.000274773
-0.000160509
 0.000153175
 9.30338e-05
-7.43227e-05
 0.000261726
 0.000139588
 8.45342e-06
 0.000220446
-0.000107713
-0.000147694
 0.000289098
 0.000144325
-0.000137569
-0.000130535
 3.07562e-05
 -0.00011532
-0.000312666
 -1.1733e-05
 0.000120493
 0.000107303
-0.000136535
-0.000223565
-3.70653e-05
-0.000369318
-0.000151851
-0.000147579
-1.28607e-05
 2.52404e-05
-3.55286e-05
-0.000191125
 8.89189e-05
  0.00021352
-0.000131349
 4.66017e-06
-0.000210614
 3.01793e-05
-0.000138369
-3.03304e-05
 4.70749e-05
 3.18386e-05
 0.000407293
-6.04568e-05
 0.000179083
 5.42255e-05
-8.96857e-05
-0.000240749
-0.000252286
-0.000323862
-7.55613e-05
 0.000108363
-0.000124324
 0.000192136
 0.000167866
-2.39676e-05
 0.000120072
 0.000440014
 0.000140801
 0.000325323
-1.96661e-05
 0.000142221
 1.73031e-05
  9.1392e-05
-5.19521e-05
-0.000110689
-0.000245573
 3.88509e-05
-0.000362064
 0.000221912
-5.56874e-05
-0.000239722
-2.57315e-05
 0.000143274
-0.000143703
 0.000163034
 0.000140419
 7.24235e-05
 5.45945e-05
 0.000148421
-5.82323e-06
-0.000292686
-7.82352e-05
-3.85945e-05
-8.67733e-05
 0.000325669
 0.000127842
-0.000364006
-8.97523e-05
 5.30122e-05
-2.97348e-05
-7.57364e-05
  0.00013125
 0.000364655
-4.58283e-05
 9.21571e-05
 0.000196065
 0.000277207
 6.40893e-05
-0.000133952
-7.99339e-06
-6.67519e-05
 7.03282e-05
 0.000141922
 -0.00033397
 0.000134561
-3.45412e-05
 0.000237167
  0.00019506
 0.000616127
-8.65919e-05
-0.000394961
 0.000251095
 0.000164503
 9.29764e-05
  -0.0002138
 0.000180884
-0.000413697
 2.22069e-05
 0.000508583
 0.000331953
-0.000604702
-0.000139369
-0.000277463
 3.92733e-05
 0.000222472
 2.84774e-06
 0.000171871
 0.000218313
 0.000416187
 0.000207466
 0.000194671
  0.00027199
  9.9271e-05
-0.000348603
 -0.00017305
-6.66871e-05
-0.000142738
-0.000540863
 -7.6243e-06
 0.000173482
-0.000214636
 4.41055e-05
 0.000166935
-0.000228414
 0.000171114
  0.00018102
 -0.00017021
 5.69413e-05
 0.000206557
-6.99284e-05
-0.000313729
-0.000136756
 0.000217529
 5.49088e-05
-0.000144618
 0.000267065
 0.000180314
 6.43094e-05
  0.00027218
-0.000197519
-0.000209413
  0.00034818
 0.000145216
-0.000131354
-0.000173218
 4.69846e-05
-0.000158254
-0.000403228
-4.48158e-07
 0.000122774
 9.27179e-05
-0.000129629
-0.000234425
-4.60028e-05
-0.000436747
-0.000186125
-0.000152689
 4.60119e-05
-8.53392e-06
 1.03653e-06
 -0.00022718
  8.3744e-05
 0.000245893
-0.000168825
-4.85131e-05
 -0.00026013
 7.78254e-05
-0.000219318
 -5.6714e-05
 0.000100493
 7.37303e-05
 0.000576515
 -4.7299e-05
  0.00016604
 3.91853e-05
-0.000120303
-0.000266666
-0.000293031
-0.000369347
-0.000114811
 9.36594e-05
-0.000148901
 0.000208284
 0.000240483
-8.29005e-05
 0.000198466
 0.000618791
  0.00018217
 0.000342374
-6.93878e-05
 0.000229676
 1.13116e-05
 0.000100972
-3.44545e-05
-0.000177972
-0.000366384
-1.58803e-05
-0.000426995
 0.000286713
-7.26737e-05
-0.000287862
-3.51198e-05
 0.000170512
-0.000186137
  0.00019839
 0.000181876
 0.000101501
 0.000107303
 0.000173948
 9.85547e-08
-0.000360689
 -0.00010282
-8.70596e-06
-0.000137716
 0.000348937
 0.000202978
 -0.00044739
-6.70615e-05
 9.18138e-05
-5.39535e-05
-0.000160426
 0.000165877
  0.00042425
-0.000111107
 0.000103916
 0.000263355
 0.000331744
 1.20308e-05
 -0.00011889
 4.85744e-05
-1.39295e-05
 6.69766e-05
 0.000137881
-0.000356954
   0.0002188
 -3.7155e-05
 0.000275078
 0.000202183
 0.000674266
-0.000127773
 -0.00048898
 0.000283107
 0.000219804
 6.97725e-05
-0.000214362
 0.000228334
 -0.00050371
 2.77931e-05
 0.000561616
 0.000352542
-0.000660078
-0.000203493
-0.000367382
 4.53267e-05
  0.00029896
 8.01686e-06
 0.000179914
 0.000247546
 0.000485096
 0.000282083
 0.000253523
 0.000313362
 7.78631e-05
-0.000395289
-0.000220981
-0.000107562
-0.000195453
 -0.00058298
-1.65132e-05
 0.000203031
-0.000213101
 2.92682e-05
 0.000159943
-0.000314625
 0.000196301
 0.000223147
 -0.00022198
 3.79183e-05
 0.000266452
-7.16156e-05
-0.000328536
-0.000189888
 0.000310179
 5.68217e-05
-0.000154263
 0.000362122
 0.000227986
 1.35853e-05
 0.000358105
-0.000201109
-0.000299565
 0.000370688
 0.000181146
-0.000201689
-0.000207292
 3.13838e-05
-0.000236635
 -0.00047607
 -2.7841e-05
 0.000133705
 0.000157679
 -0.00019079
 -0.00030309
-3.49968e-05
-0.000513276
-0.000250773
-0.000186854
 3.73232e-05
 2.75857e-05
-3.45696e-05
-0.000248924
  8.7992e-05
 0.000322507
-0.000207971
  2.2681e-07
-0.000304546
 0.000103331
-0.000219518
-9.20094e-05
  9.6506e-05
 7.07946e-05
 0.000624563
-4.43949e-05
 0.000211587
 5.71165e-05
-9.78349e-05
-0.000296191
-0.000326824
-0.000391006
-0.000101473
 0.000164804
-0.000201011
 0.000210806
 0.000255207
 -6.3449e-05
 0.000204123
 0.000680224
 0.000227681
 0.000407816
-0.000110604
 0.000270764
 3.53473e-05
   0.0001129
-3.97362e-05
-0.000172649
-0.000366956
 5.85185e-06
-0.000485464
 0.000347385
-6.50099e-05
-0.000317215
-3.91172e-05
  0.00022884
-0.000238891
 0.000273695
 0.000226705
 7.73325e-05
 0.000164258
  0.00021323
 1.17532e-06
-0.000383241
-0.000145778
-6.21714e-05
-0.000198201
 0.000427535
 0.000204887
-0.000530041
-6.77186e-05
 0.000127135
-2.37673e-05
-0.000172954
 0.000172836
 0.000501806
-0.000142827
 7.96303e-05
 0.000325094
 0.000381715
  2.3126e-05
-0.000162182
 1.74488e-05
-3.44149e-05
 0.000114602
 0.000200358
-0.000460657
 0.000223267
-4.58523e-05
  0.00029354
  0.00023944
 0.000464548
 -6.8324e-05
-0.000332091
 0.000171339
 0.000148704
 5.09004e-05
-0.000143281
 0.000148825
 -0.00034281
 1.55248e-05
 0.000382006
 0.000237644
-0.000452462
-0.000119183
-0.000258426
 2.58619e-05
 0.000205777
 1.94631e-06
 0.000110374
 0.000154293
 0.000334521
 0.000167545
 0.000177381
 0.000207602
 5.09352e-05
-0.000274966
-0.000145399
-7.49524e-05
-0.000107362
-0.000395874
-1.39769e-05
 0.000127625
-0.000147362
 2.28949e-05
 0.000104612
-0.000219525
 0.000128299
  0.00013248
-0.000128509
 2.30564e-05
 0.000170778
-3.98868e-05
 -0.00020931
-0.000103808
 0.000218157
 3.59831e-05
-0.000105539
 0.000233439
 0.000148617
 9.86502e-06
 0.000252931
 -0.00013483
-0.000209958
 0.000254406
 0.000105178
-0.000117584
-0.000135943
 1.90426e-05
-0.000161353
-0.000329718
-2.30468e-05
 7.96641e-05
 9.69978e-05
-0.000112096
-0.000179687
-2.52354e-05
-0.000355453
-0.000169693
-0.000106624
 3.57897e-05
 1.92295e-05
  -2.343e-05
-0.000160125
 4.97306e-05
 0.000214702
-0.000137062
-5.55113e-07
-0.000204642
 6.91088e-05
-0.000148097
-3.80521e-05
 6.03703e-05
  4.3265e-05
 0.000429435
-2.08662e-05
 0.000128664
 3.40642e-05
 -6.2719e-05
-0.000179977
-0.000213723
 -0.00026515
-6.83176e-05
 9.52771e-05
 -0.00011625
 0.000126208
 0.000158738
-4.63993e-05
  0.00013628
 0.000470568
 0.000148555
 0.000271086
-7.56409e-05
 0.000165145
 2.61415e-05
 6.78783e-05
-1.78352e-05
-0.000114297
 -0.00026365
 -5.0294e-08
-0.000319875
 0.000211306
-4.13544e-05
-0.000223331
-2.08676e-05
 0.000147814
-0.000155923
 0.000188292
 0.000147997
 5.05859e-05
 0.000112105
 0.000116626
-1.68822e-06
-0.000264688
-7.29772e-05
-4.09822e-05
-0.000134646
 0.000292687
 0.000136905
-0.000363079
-3.77466e-05
 8.69832e-05
-1.39653e-05
 -0.00011769
 0.000122751
 0.000345363
-9.25741e-05
 5.33741e-05
 0.000227675
 0.000260921
 9.44932e-06
-9.66169e-05
 1.62426e-05
 -1.5965e-05
 7.18083e-05
 0.000117942
-0.000309623
 0.000151318
-3.49647e-05
 0.000205138
 0.000174356
 0.000157791
 3.39236e-06
-0.000111509
 3.03285e-05
 6.88736e-05
 2.70096e-05
-5.79769e-05
 6.20044e-05
-0.000114775
-4.56642e-06
 0.000123359
 7.97184e-05
-0.000151588
-2.09722e-05
-0.000101997
 -2.0474e-06
 7.01977e-05
 1.05988e-05
 2.23024e-05
 3.78459e-05
 0.000112807
  3.8824e-05
 5.74841e-05
  7.1282e-05
 1.99166e-05
-0.000101387
-5.35409e-05
-3.46644e-05
-1.54825e-05
-0.000131714
-1.94544e-05
 2.72323e-05
-4.65851e-05
 1.60319e-05
 3.90619e-05
-8.81437e-05
 5.46398e-05
 2.00473e-05
-3.17219e-05
  9.1908e-06
  5.8956e-05
-3.27673e-06
-5.83454e-05
-1.55141e-05
 8.78343e-05
 1.26055e-05
-3.79766e-05
 7.28197e-05
 6.20243e-05
  4.3639e-06
 0.000101795
 -5.0009e-05
-8.42198e-05
  8.6692e-05
 2.22317e-05
-2.00162e-05
-5.76255e-05
 8.19656e-06
-6.14528e-05
-0.000105991
-2.37733e-05
 2.05651e-05
 1.86146e-05
-2.15836e-05
-3.61916e-05
-2.14241e-05
-0.000120512
-7.47089e-05
-1.75143e-05
 2.05422e-05
  1.8093e-05
-1.84963e-05
 -4.3405e-05
 5.15847e-06
 6.59394e-05
-5.89481e-05
 1.22763e-07
 -5.8291e-05
 2.75798e-05
-6.12686e-05
 2.06855e-05
  1.2648e-05
 5.94018e-06
 0.000145861
 4.53415e-06
 3.98158e-05
 1.75953e-05
-1.94062e-05
-4.28743e-05
-6.24176e-05
-8.87592e-05
 -3.0461e-05
  1.0153e-05
-1.17815e-05
   3.026e-05
 3.60995e-05
-2.42689e-05
  5.6468e-05
  0.00016033
  6.2065e-05
 9.21474e-05
 -2.7751e-05
 3.22247e-05
 1.96772e-05
 1.08662e-05
 6.34653e-06
-4.18183e-05
-0.000116081
 2.87304e-06
-9.70701e-05
 4.75811e-05
-1.83783e-05
-9.11309e-05
 5.46381e-06
 5.53328e-05
-6.34417e-05
 7.65798e-05
 6.19445e-05
 1.94382e-05
 4.15329e-05
 1.99963e-06
-1.02565e-05
-9.27927e-05
 9.04568e-06
 -1.9447e-05
-5.37128e-05
 9.93902e-05
 5.75491e-05
-0.000133112
-1.57903e-05
 4.12986e-05
 9.22749e-08
-4.17861e-05
 5.16018e-05
 0.000116986
-2.76049e-05
 2.50029e-05
  7.8016e-05
 9.42681e-05
 9.79407e-06
-3.36746e-05
 1.12706e-05
-1.09626e-05
  2.9362e-05
 2.25481e-05
-0.000105035
 6.27595e-05
-2.87096e-05
 7.72761e-05
 7.67151e-05
 3.77176e-05
 3.94876e-06
-4.77198e-05
 4.98067e-06
 7.66005e-06
-1.13313e-06
-1.33205e-05
 1.97761e-05
-4.89692e-05
   1.061e-05
 1.57776e-05
  4.1991e-05
-3.54388e-05
-1.48537e-05
-6.31411e-06
 1.47174e-05
-8.46346e-06
 3.29716e-05
 2.45256e-05
 4.46092e-05
 4.20691e-05
 2.31406e-05
 2.07133e-05
 4.54921e-05
 2.69633e-05
-1.74015e-05
 -9.3906e-06
 1.51099e-05
-3.11026e-05
-2.90716e-05
-1.89261e-05
 2.19112e-05
-7.64075e-06
 3.27738e-05
 8.25093e-06
 2.72114e-06
 1.76402e-05
-9.56665e-06
-5.66854e-05
 2.57963e-05
 3.63054e-06
-2.64278e-05
-5.85043e-05
-4.07582e-05
-4.53041e-06
 3.00162e-05
 7.48127e-06
 4.20725e-05
 1.99149e-05
-5.62227e-06
 6.09083e-06
-2.56911e-06
 2.85049e-06
  3.6612e-05
 4.15865e-05
-1.50821e-05
-1.65354e-05
 2.27017e-05
 5.37309e-07
-1.31922e-05
-4.58625e-06
 3.77472e-05
 9.77003e-06
-1.81803e-05
  -4.795e-05
-1.71091e-05
-4.55372e-05
-8.00954e-06
-3.73759e-05
-2.09317e-05
 1.97497e-05
-1.77069e-05
-2.25713e-05
 3.23827e-05
 1.73037e-05
-1.46772e-05
 6.43874e-06
-1.78214e-05
 1.82099e-06
-1.42576e-05
 1.04163e-05
-2.05428e-05
-1.69404e-05
 3.23415e-05
-2.96195e-05
 5.90337e-05
 2.81669e-05
-2.98501e-05
-5.55889e-05
-4.76262e-05
-4.50561e-05
 -1.6758e-05
 5.91209e-06
-1.35946e-06
 5.44258e-05
 4.98799e-06
 1.85642e-06
  1.2516e-05
 3.69081e-05
 1.94898e-05
 5.47641e-05
 7.45656e-06
-7.92266e-06
 5.41563e-06
 2.59936e-05
-2.85653e-05
-5.90134e-06
-2.96425e-05
 1.84264e-05
 -7.1293e-05
  1.1749e-05
 -2.7781e-05
-5.39913e-05
-1.54786e-05
 6.55356e-06
-2.06495e-05
 2.71375e-07
 1.92927e-05
  2.7951e-05
 -5.1298e-06
 1.09201e-05
 9.23655e-06
-2.28781e-05
-5.11302e-06
-1.06837e-05
  -8.823e-06
 4.58917e-05
  1.3896e-05
-3.01399e-05
-4.03026e-05
 8.04901e-06
-1.65919e-05
 9.12792e-06
 2.11061e-05
 4.76628e-05
 6.76827e-06
 4.00349e-05
-3.36852e-06
 1.87136e-05
  3.4774e-05
-5.04403e-05
-1.03585e-05
-3.53167e-05
 3.02087e-05
  1.6678e-05
 -5.2105e-05
 1.20824e-05
 3.77011e-06
 1.54822e-05
 2.83417e-05
-2.99109e-05
-4.09389e-06
-3.26316e-05
 -1.5181e-05
-3.73814e-05
-2.96803e-05
 2.36709e-05
-1.37429e-05
-3.28305e-05
 2.92394e-05
-4.73535e-05
  4.2887e-05
 2.97113e-05
-2.36072e-05
 6.25754e-05
  3.6131e-05
-6.36282e-05
 6.47867e-05
 3.67227e-05
 7.12326e-05
 2.02469e-05
 2.66146e-05
 1.64282e-05
 5.72819e-05
 3.85871e-05
 2.81754e-05
 2.81871e-05
  5.7648e-05
 -6.4068e-05
 2.97313e-05
-2.68602e-05
 3.08461e-05
 9.82761e-06
 5.78399e-05
-2.10683e-05
 7.28209e-05
-1.18354e-05
-3.48231e-05
-9.67543e-05
 4.40913e-05
-3.30683e-05
-5.89392e-05
-8.58084e-05
-8.09716e-05
-7.54483e-05
  6.6927e-05
 5.24248e-05
  4.5592e-05
-1.34787e-05
-1.59527e-05
-6.28553e-05
   3.919e-05
 6.87995e-05
 2.52211e-05
 7.14572e-05
-2.47809e-05
 1.68141e-05
 3.81431e-05
 5.21284e-05
 4.18379e-05
 7.91163e-06
 6.14497e-05
 1.78182e-05
-3.04289e-05
-7.72875e-05
-2.10654e-05
-2.08523e-05
 4.11837e-05
-6.65596e-05
-6.85739e-05
  3.0361e-05
-2.66137e-05
 -2.4512e-05
 6.90051e-05
 5.54103e-07
 2.04184e-05
 1.45182e-05
-7.59006e-06
-2.30722e-05
 2.40969e-05
 5.23866e-06
-5.13174e-05
-3.87097e-05
-3.24272e-05
 -7.0288e-05
 9.61448e-05
 4.16475e-05
-4.63835e-05
-8.84058e-05
-6.09095e-05
-4.20716e-05
-8.78901e-06
 1.53155e-05
-3.44608e-06
 9.62191e-05
-2.11736e-05
 2.93147e-05
-2.43069e-05
-3.32448e-05
-1.43372e-05
 6.10454e-05
 4.65773e-05
-4.09224e-05
-9.60135e-07
 5.14042e-05
-6.93705e-05
 2.77698e-05
 2.81621e-05
 3.88023e-05
 -8.6186e-05
-1.23232e-05
-4.04101e-05
-5.00826e-05
-4.00316e-05
-2.83724e-05
  1.3082e-05
-5.86099e-05
-1.46349e-05
 4.10993e-05
-5.12319e-05
 2.13893e-05
 3.04596e-05
 1.04074e-05
-1.96027e-05
-1.21831e-05
 2.91078e-05
 3.85347e-05
 -2.2088e-05
 2.61732e-05
-7.07093e-05
-2.19072e-05
-2.80307e-05
 6.05822e-05
 1.24685e-05
 2.83588e-05
 4.13294e-05
 6.43481e-05
-5.09544e-05
-2.09604e-05
 7.01097e-05
-7.84009e-05
-3.83999e-05
-7.02921e-05
  3.6961e-05
 2.65403e-05
-4.47503e-05
-2.94183e-05
 3.15208e-05
-1.40392e-05
 9.94459e-06
-2.02912e-05
 -2.8745e-06
 -1.7678e-05
-1.21653e-05
-2.74984e-05
-1.92668e-05
 1.76378e-05
-1.48336e-05
-1.84104e-05
 2.14164e-05
-2.91652e-05
 2.56603e-05
 2.02305e-05
 -1.1194e-05
 4.18662e-05
 2.54492e-05
-4.08589e-05
 3.57897e-05
 2.11808e-05
 4.27934e-05
 1.25943e-05
 1.16518e-05
 1.00508e-05
   3.292e-05
 2.22425e-05
 1.92323e-05
 2.29636e-05
 3.82558e-05
-3.42056e-05
 1.98034e-05
-1.36948e-05
 1.94722e-05
  6.6171e-06
 3.72513e-05
-1.65957e-05
 4.83795e-05
-1.25029e-05
-2.22048e-05
-5.30304e-05
 2.57483e-05
-2.44915e-05
-3.84502e-05
-4.99559e-05
-4.42051e-05
-4.95182e-05
 4.05457e-05
 3.31707e-05
 2.39428e-05
-1.46591e-05
-6.11255e-06
-4.20711e-05
 2.61499e-05
   4.529e-05
 1.59138e-05
 4.05436e-05
-1.14378e-05
 1.62403e-05
 2.19473e-05
 3.60849e-05
 2.53312e-05
 8.52372e-06
 3.46459e-05
 9.04313e-06
 -1.5141e-05
-4.18945e-05
-1.17041e-05
-1.26216e-05
 2.98489e-05
-3.76229e-05
-4.06908e-05
 1.48788e-05
 -1.3155e-05
-1.46545e-05
 4.42285e-05
-1.83206e-06
 1.84457e-05
  5.2107e-06
-5.80226e-06
-1.50178e-05
 1.78531e-05
 2.89055e-06
-2.79806e-05
-2.01934e-05
-2.12876e-05
-4.55388e-05
 5.36443e-05
 2.06319e-05
-2.70718e-05
-5.01475e-05
-3.69988e-05
-2.53863e-05
-3.84212e-06
 6.61217e-06
-2.34065e-06
 5.70642e-05
 -1.5942e-05
 1.90403e-05
-1.79245e-05
-2.22113e-05
-1.51784e-05
 3.44448e-05
 3.08364e-05
-2.57535e-05
-1.94675e-06
 3.36613e-05
-4.46662e-05
  2.0301e-05
 1.81104e-05
 2.03376e-05
-5.01233e-05
-1.18911e-05
-2.23846e-05
-3.00843e-05
 -2.7669e-05
-2.21754e-05
 1.44815e-05
-3.99395e-05
-1.53448e-05
 2.38324e-05
-3.50294e-05
 1.09772e-05
 2.24582e-05
 6.68746e-06
-1.12122e-05
-4.77774e-06
 2.20286e-05
 2.18024e-05
-1.67514e-05
 1.98501e-05
-3.87866e-05
-1.76588e-05
-1.57664e-05
 3.89164e-05
 8.51873e-06
 1.69509e-05
 2.58665e-05
 3.82162e-05
-3.25444e-05
-1.52881e-05
 3.86755e-05
-4.21526e-05
-2.39823e-05
-3.86165e-05
 1.81332e-05
 1.29193e-05
-2.41742e-05
-2.08504e-05
 2.30632e-05
-9.80744e-06
 4.24949e-06
 2.70541e-05
-2.69716e-07
-7.07087e-06
 1.41244e-05
 -1.0965e-05
 7.63496e-06
-1.83531e-05
-5.26927e-06
-1.35215e-05
 8.17523e-06
 1.37394e-05
 2.58956e-05
-2.63224e-05
 3.89538e-06
 1.62629e-05
 1.15722e-05
-2.47018e-05
 7.87844e-06
 1.67733e-05
 2.62463e-05
 1.90703e-05
 2.49317e-06
-1.44893e-05
 1.16315e-05
 1.83565e-05
 1.90457e-06
  8.3585e-06
 2.22823e-05
-1.06851e-05
 -2.5537e-05
 1.47778e-07
 1.15374e-05
-8.82583e-06
 2.15552e-05
 1.32294e-05
 2.27716e-05
 1.57525e-06
-2.11573e-07
-1.85387e-05
 1.48892e-05
 -9.3994e-06
-2.25806e-05
-3.87001e-05
-1.20055e-05
-3.05805e-05
 1.06207e-05
-1.88297e-06
 2.36853e-07
-5.31691e-06
 2.67124e-05
 -1.6486e-05
-1.14042e-05
 2.92202e-05
 2.32968e-05
 2.23657e-05
 8.15793e-06
 2.46333e-06
 1.15343e-05
 2.39857e-05
-8.92167e-06
 1.49654e-05
 2.13053e-05
-1.69996e-05
  4.2539e-06
-1.70384e-05
 -1.2365e-05
-2.22872e-05
 1.21028e-05
-2.45112e-05
-6.01817e-06
-1.14909e-05
 9.98526e-06
-1.76531e-05
 2.35303e-05
-1.34804e-05
  4.6662e-06
 -2.5553e-05
-9.80739e-06
-3.02702e-06
-1.79924e-05
-1.83665e-06
 4.63308e-06
 4.40326e-06
 2.51339e-05
-2.45331e-05
 1.42309e-05
-7.57667e-07
-2.18143e-05
-3.67442e-05
-2.81825e-05
-3.06583e-05
-1.58979e-05
-1.78947e-05
-4.76935e-06
 3.82663e-05
 1.54071e-05
-5.69112e-06
 1.36933e-05
 2.63557e-05
 -4.7682e-06
 1.30856e-05
  1.8451e-05
 5.91442e-06
-1.02339e-05
 1.73036e-05
-1.91966e-05
-1.42601e-05
-2.34835e-05
-5.83589e-06
-3.50836e-05
 6.42721e-06
-1.25245e-05
-1.91241e-05
-1.36021e-05
-9.45881e-06
 5.78224e-06
 -1.7903e-05
-4.70519e-06
 1.96981e-05
-2.44547e-05
 1.38517e-05
 8.09538e-06
-1.92347e-05
 -8.3222e-06
  1.8516e-05
 1.83537e-05
 3.22886e-06
 1.56258e-05
 2.52756e-07
-1.43105e-05
-1.34048e-05
-1.47629e-05
-8.31137e-07
  1.1546e-05
 2.04949e-05
 3.22716e-06
 2.44351e-05
-2.14401e-05
-1.06838e-06
 8.30186e-06
 -1.0348e-05
 3.34664e-06
-7.06276e-06
 -6.0121e-06
-4.51408e-06
-5.18152e-06
 1.46693e-05
 8.47035e-06
 3.45638e-06
-3.55961e-06
 6.65224e-06
-5.23354e-07
-6.98222e-06
 1.85268e-06
-1.23944e-06
-1.01988e-06
-2.15614e-06
-1.09339e-07
-7.87748e-06
 3.21616e-06
 3.66316e-06
 7.78417e-06
-6.47363e-06
-1.61323e-06
 1.93593e-06
 4.11192e-06
-3.06417e-06
 4.19416e-06
 4.48183e-06
 8.63086e-06
 7.48594e-06
 3.18968e-06
 1.55226e-06
 6.44751e-06
   4.272e-06
  -7.044e-07
 9.74478e-07
 4.93589e-06
 -5.7051e-06
-5.79082e-06
-1.75297e-06
 5.16968e-06
 -1.5143e-06
 6.18038e-06
 1.43127e-06
 3.33973e-06
 6.26177e-07
-7.49033e-07
-9.05302e-06
 3.97577e-06
 -1.0879e-06
-6.42453e-06
-1.09543e-05
-6.93919e-06
-4.18099e-06
 4.91856e-06
 1.30241e-06
 5.78684e-06
-1.00005e-07
 2.00493e-06
-2.06125e-06
-3.15063e-07
 3.76436e-06
 6.90036e-06
  7.5773e-06
-1.23456e-06
  5.8112e-08
 3.21647e-06
 3.36162e-06
-2.70528e-06
 2.13323e-06
 6.89582e-06
-5.11387e-08
-1.98113e-06
-8.34874e-06
-2.94665e-06
-8.24375e-06
  1.1696e-06
-7.53645e-06
-3.65716e-06
 7.28401e-07
-7.07385e-07
-4.78343e-06
 7.04522e-06
 1.56997e-06
 4.10808e-07
-1.96105e-06
-3.62314e-06
-8.86556e-07
-2.18888e-06
-2.98323e-07
-1.56215e-06
-1.02505e-06
  5.9039e-06
-6.83907e-06
 8.05039e-06
 2.29901e-06
-5.15471e-06
-1.09962e-05
-9.10593e-06
 -8.7181e-06
-2.58666e-06
-4.87162e-07
-1.71033e-06
 1.05792e-05
 1.81229e-06
 1.19209e-06
 1.47084e-06
  6.4912e-06
-7.20244e-08
 7.47428e-06
 3.39308e-06
-2.10016e-07
-1.05704e-06
 5.99984e-06
-6.30847e-06
-1.33756e-06
-4.49924e-06
 1.38487e-06
-1.21806e-05
   1.275e-06
-3.83692e-06
-8.22624e-06
-4.46272e-06
-8.15045e-07
   1.875e-08
-2.57953e-06
-8.83126e-08
  4.5508e-06
 -3.9351e-06
 3.62038e-06
 2.92374e-06
-4.14504e-06
-3.12625e-06
 1.00981e-06
 1.98705e-06
 5.41141e-06
 1.81156e-06
-2.76801e-06
-5.53639e-06
-2.08695e-06
-2.76316e-06
 1.50385e-06
 3.58302e-06
 8.29855e-06
 1.61973e-06
 6.30987e-06
-2.07088e-06
 1.00423e-06
 4.62379e-06
-7.07612e-06
-2.44709e-06
-4.74213e-06
 2.60376e-06
 1.68933e-06
-7.19435e-06
 1.49476e-06
 2.76495e-06
 1.20753e-06
 2.64232e-06
 5.85755e-05
 -2.8571e-05
-8.05234e-05
 4.35522e-06
 2.45588e-05
-2.02255e-05
 6.05586e-06
-4.33861e-06
-8.17404e-05
 3.96411e-06
 3.97378e-05
 7.51798e-05
-5.68935e-05
-4.25403e-05
-3.73007e-05
 6.20868e-06
 3.10095e-05
 2.55117e-05
  1.2462e-05
 2.94073e-05
 7.58775e-05
  5.0842e-05
 5.35091e-05
 7.44568e-05
-3.83698e-06
-6.10709e-05
 9.34198e-06
-7.58325e-06
  -5.205e-05
-4.82555e-05
-1.84319e-05
  1.8706e-05
-4.24177e-05
 5.42069e-06
-1.47852e-05
-2.59182e-05
-5.18451e-06
 -1.2171e-06
-3.01449e-05
-5.37707e-06
 3.56739e-05
-1.88952e-05
-4.55461e-05
-4.16789e-05
 2.25872e-05
 4.88236e-05
 2.11065e-05
  6.6334e-05
-4.36673e-06
-5.28111e-06
 3.56119e-05
 9.44715e-06
-2.38243e-05
 7.10675e-05
 1.65835e-05
-4.20036e-05
 4.93225e-06
-6.64489e-06
-6.16306e-07
-5.83608e-05
-9.82389e-06
 6.14299e-06
 3.83544e-05
-4.32547e-05
-3.65343e-05
-1.66517e-05
-8.14496e-05
 -2.7378e-05
 -1.7955e-05
-3.35156e-05
 1.86667e-05
-1.97378e-05
-5.15333e-05
 1.61276e-05
 5.13874e-05
 1.80404e-07
  6.2541e-06
-5.57547e-05
 -1.8514e-05
 5.32508e-06
 6.02293e-06
-1.04698e-05
-9.93843e-06
 5.40454e-05
-1.37389e-05
 2.97146e-05
-1.74911e-06
-7.32472e-07
-3.76093e-05
-3.95806e-05
-7.85206e-05
 1.60197e-06
 3.61533e-05
-3.32518e-05
 3.18201e-05
-2.04656e-06
   2.066e-05
 -8.2712e-06
 5.90371e-05
-4.45499e-06
 8.53909e-05
 2.64813e-05
 1.42365e-06
 8.67214e-06
 1.52206e-05
-1.30333e-05
 1.45142e-05
-2.00542e-05
  1.4959e-05
-6.19723e-05
  1.5328e-05
 2.83515e-06
-3.64706e-05
-6.22662e-06
 2.54946e-05
 2.85401e-06
 2.25904e-05
-4.51222e-06
 -3.4366e-06
-2.16297e-05
 8.78512e-06
 1.67733e-06
-6.51232e-05
-5.36534e-06
-1.99346e-05
 8.94413e-06
 8.04814e-05
-7.16126e-06
-7.67722e-05
-8.03541e-06
-1.27216e-05
 1.71908e-05
 2.35251e-05
 3.32028e-05
 7.99927e-05
   1.879e-05
 6.37692e-06
 4.09152e-05
 6.02825e-05
 2.86765e-05
-1.65623e-05
-2.96202e-05
-2.90042e-05
 8.35978e-07
 4.26552e-05
 -8.0268e-05
-6.41105e-06
-2.59493e-06
 5.38477e-05
 4.44445e-05
 -3.0554e-05
-2.80053e-05
-6.08399e-05
-4.36316e-05
 2.68153e-05
-4.95267e-05
 4.60557e-05
-3.30362e-05
-5.76072e-05
-1.10285e-05
-4.12925e-05
 5.92267e-05
 3.05051e-05
-4.85949e-05
-6.93024e-06
-1.07189e-05
 1.29657e-05
 5.88514e-05
-1.59471e-05
-2.64661e-06
 4.42514e-05
 5.35675e-05
 5.15602e-05
 7.27804e-05
-2.72074e-05
-3.84416e-05
 4.73674e-05
-1.35991e-05
-6.58316e-05
 3.07476e-05
-4.45545e-05
-1.44938e-05
-3.13396e-05
-4.99487e-06
-5.38332e-05
-2.01194e-06
-3.40939e-05
-4.35457e-05
-1.53663e-05
-2.19731e-05
 3.37798e-05
-1.09899e-05
-8.05853e-06
-4.51814e-05
  1.0212e-06
 7.75642e-05
 6.77847e-05
 6.17641e-05
-3.29265e-05
-2.20095e-05
 5.42589e-06
 4.96953e-05
-4.95758e-06
 4.90092e-05
-8.65892e-06
-4.87379e-05
  3.3742e-05
-2.16557e-05
 2.85565e-05
-1.03023e-05
-3.16262e-05
-1.96569e-05
 4.52867e-05
-5.26488e-05
-9.28668e-06
-3.20134e-05
 -4.6283e-05
-2.50205e-05
 9.19048e-06
-7.21624e-05
 4.66117e-05
-4.45686e-05
  -4.452e-05
 1.43939e-06
 4.22155e-05
 2.36829e-05
 2.13088e-05
-3.64208e-05
-4.90427e-05
 4.58154e-05
 3.25931e-05
-4.70279e-05
-4.18602e-05
-2.92946e-05
-3.41643e-06
 1.68604e-05
-6.24252e-06
 2.44615e-05
-4.84894e-06
 4.69205e-07
 -5.5716e-05
 2.18765e-05
 4.18402e-05
-2.41858e-05
 7.62841e-06
-5.06645e-05
 4.89936e-05
-4.56184e-05
-3.19932e-05
-3.37138e-05
 7.38262e-05
 6.14564e-05
 -4.7874e-05
 1.94842e-05
 -4.9809e-06
-4.16141e-06
 5.71608e-05
 3.54544e-05
 3.51049e-05
-9.39647e-06
-2.89633e-05
 1.82112e-05
 1.34721e-06
 1.09095e-05
 2.54769e-05
 3.20381e-05
 3.72469e-06
 -3.3782e-05
-2.71504e-05
-5.89557e-05
-2.60565e-05
-1.08074e-05
-4.00964e-05
 2.21503e-05
-3.79041e-05
 4.03053e-05
 6.27715e-05
-4.46606e-05
  -4.984e-05
-3.84265e-06
-3.27761e-05
 4.67471e-05
 7.31447e-05
 2.29328e-05
 4.88763e-05
 5.81453e-05
-9.91169e-06
 2.26984e-05
 4.15456e-05
 6.16075e-05
-7.20916e-06
-6.02197e-05
-5.98836e-05
 -9.8818e-06
 4.97957e-05
-6.58526e-05
-4.74788e-05
-1.29818e-05
 4.00028e-05
 3.35262e-05
-2.02401e-05
-5.03409e-06
-2.50447e-05
-1.79477e-05
-2.00805e-05
 -2.6821e-05
 2.11449e-05
  -1.123e-05
-2.38816e-05
 2.77442e-05
-1.59951e-05
 9.02864e-06
 1.95196e-05
-4.95697e-06
 2.12844e-05
 3.00708e-05
-1.72503e-05
 1.76894e-05
 7.42603e-06
  3.7281e-05
 1.57184e-05
 6.01913e-06
 1.74146e-05
 1.82939e-05
 5.67041e-06
  2.0764e-05
 1.31969e-05
 3.11831e-05
 -1.8092e-05
 2.00763e-05
-2.75491e-06
 2.35721e-05
 1.84243e-05
 3.52021e-05
-2.07585e-05
  2.4346e-05
-1.27694e-05
-1.53311e-05
-3.65774e-05
 9.27846e-06
-2.09798e-05
 -3.7908e-05
-2.62394e-05
-2.75211e-05
-2.25594e-05
 2.31016e-05
 2.06208e-05
  3.0442e-05
-1.10163e-05
-1.33054e-05
-2.20483e-05
 2.80332e-05
 1.93304e-05
 3.36936e-06
 3.45397e-05
-7.32735e-06
 1.40324e-05
 7.54521e-06
 1.48077e-05
 1.62895e-05
 1.07998e-05
 2.80399e-05
 1.48167e-05
 -7.1518e-06
-3.26045e-05
 1.52713e-06
-1.54475e-05
 1.88281e-05
-3.12563e-05
 -2.3235e-05
 9.02947e-06
-1.21306e-05
-1.49562e-06
 4.12703e-05
  1.2659e-05
 1.50548e-05
 1.12795e-05
 -5.9756e-06
-1.84155e-06
 2.10184e-05
 -7.5404e-06
-1.00639e-05
-3.72172e-06
-2.17153e-05
-4.23997e-05
  3.6292e-05
 1.23862e-05
 -8.2328e-06
-2.90632e-05
-3.33939e-05
-9.16635e-06
  5.5203e-06
 1.25576e-05
-5.45275e-06
 3.19448e-05
 -2.0694e-05
 2.54239e-05
-2.05448e-05
-2.08343e-05
-1.17247e-05
 2.13475e-05
  1.1028e-05
-2.16702e-05
 3.40864e-06
 3.60114e-05
-4.40174e-05
 2.17704e-05
  1.9906e-05
 1.74659e-05
-3.57128e-05
-1.37239e-05
-8.75759e-06
-3.20245e-05
-3.08594e-05
-1.80045e-05
 9.81991e-06
-2.17136e-05
-1.19616e-05
 6.02414e-06
-1.40679e-05
 8.04197e-06
 2.75387e-05
 1.56945e-05
-1.73495e-05
-1.09997e-05
 4.53247e-06
 2.18653e-05
-2.01349e-05
 1.51475e-05
-2.15575e-05
-1.32332e-05
 1.15359e-06
 2.85236e-05
 5.36765e-06
 1.95692e-05
 1.16336e-05
 1.82933e-05
-1.34048e-05
-1.82029e-05
 1.95592e-05
-3.25973e-05
-3.09388e-05
-2.36508e-05
 2.02606e-05
 5.56184e-06
-3.06012e-05
-2.22816e-05
 2.46388e-05
 -1.7865e-05
 8.87909e-06
-2.08854e-06
-3.01429e-07
-2.17621e-06
-1.05651e-06
-1.59506e-06
-2.62863e-06
 1.75326e-06
-8.98932e-07
-2.06761e-06
 2.04253e-06
-2.17722e-06
 1.01842e-06
 1.98472e-06
-6.98224e-07
 2.06062e-06
 2.28377e-06
-1.73372e-06
 2.07187e-06
   8.133e-07
 3.22902e-06
 1.17637e-06
  1.0757e-06
 1.07067e-06
 1.82351e-06
 5.80899e-07
 2.03869e-06
 1.08753e-06
 2.90796e-06
-2.29723e-06
 2.00461e-06
-5.32472e-07
 1.93286e-06
 1.43772e-06
 2.82987e-06
-1.40291e-06
 2.30269e-06
 -1.0387e-06
-1.48256e-06
-4.01614e-06
 9.48443e-07
-1.63102e-06
-3.08854e-06
-2.69708e-06
-3.18891e-06
-2.24379e-06
  2.3161e-06
 2.01774e-06
 2.88566e-06
-8.81632e-07
-1.27153e-06
-2.18231e-06
  2.5665e-06
 1.93783e-06
 4.44806e-07
 3.22821e-06
-8.76869e-07
  1.1517e-06
 7.81538e-07
 1.44184e-06
 1.56401e-06
 8.81173e-07
 2.91645e-06
 1.06157e-06
-9.35697e-07
-3.48784e-06
-1.91234e-07
-1.25593e-06
 1.51521e-06
-2.98004e-06
 -2.5686e-06
 1.02091e-06
-1.07216e-06
-4.37508e-07
 3.39976e-06
 9.83931e-07
 1.24114e-06
 1.02425e-06
-3.09934e-07
-6.44476e-07
 1.76012e-06
-5.14494e-07
-1.75412e-06
-1.10196e-06
-2.26076e-06
-3.50034e-06
 3.81155e-06
 1.32871e-06
-8.58332e-07
-3.15439e-06
-2.77518e-06
-1.05825e-06
 4.22103e-07
 9.39632e-07
-4.27137e-07
 3.25937e-06
-1.39298e-06
 2.47809e-06
-1.74792e-06
-2.20722e-06
-9.49217e-07
   2.087e-06
 1.25193e-06
 -2.1014e-06
-8.64037e-08
 2.85841e-06
-3.68093e-06
 1.59562e-06
 1.95567e-06
   1.843e-06
-3.34535e-06
-9.65994e-07
-9.51822e-07
-2.55079e-06
-2.43649e-06
-1.19483e-06
 7.51455e-07
 -1.9996e-06
-9.71878e-07
 6.21746e-07
-1.52334e-06
 1.20861e-06
 2.01357e-06
 1.32159e-06
-1.54684e-06
-6.93762e-07
  7.6152e-07
 1.67667e-06
-1.69512e-06
 1.24376e-06
-2.33401e-06
-1.32868e-06
-1.33538e-07
 2.57657e-06
   3.009e-07
 1.57719e-06
 1.45879e-06
 1.76102e-06
-1.73909e-06
-1.69853e-06
 2.31927e-06
-3.51306e-06
-3.00354e-06
-2.66415e-06
 1.90573e-06
 7.41958e-07
-2.76943e-06
-1.98487e-06
 2.16954e-06
-1.74141e-06
 6.00823e-07
  6.9356e-18
 8.88833e-18
 2.99878e-17
 3.83658e-17
 4.62691e-17
-2.50375e-17
-4.16403e-17
 9.21077e-19
 4.09142e-18
 2.62694e-17
 8.33193e-18
 3.15815e-17
-2.21107e-17
 4.76141e-17
 1.87126e-17
-2.12805e-17
-1.79942e-17
-2.99985e-17
 2.71605e-17
 3.53348e-17
 1.64764e-17
 7.34882e-18
 4.61059e-18
-2.12749e-17
-1.68409e-17
 4.70499e-17
 3.58185e-17
  4.0745e-17
 5.23287e-19
 -2.5474e-17
 8.93778e-19
-4.08247e-17
 3.15967e-17
 -1.7402e-17
 4.57235e-17
 2.95822e-17
 5.74278e-18
-4.42005e-17
-1.77803e-17
-3.84494e-17
 3.02513e-17
 3.87339e-17
