   0.0110611
  0.00908829
 -0.00599957
  -0.0148396
    0.023905
   0.0252944
 -0.00258193
 -0.00131508
   0.0193506
  0.00775368
   0.0180194
   0.0171569
 -0.00871407
  -0.0148591
   0.0152838
 0.000952221
  -0.0178748
   0.0252918
 -0.00420498
  -0.0199931
 -0.00670597
 -0.00114347
  -0.0185405
-0.000793123
  0.00103656
  -0.0168997
  -0.0222505
     0.02094
  -0.0100446
  -0.0159953
  -0.0113636
   -0.026377
   0.0205802
    0.010124
  -0.0137294
   0.0170916
  0.00802492
   0.0111758
   -0.011617
 -1.7999e-05
 -0.00846404
  -0.0209911
  -0.0102546
    0.010309
 -0.00836301
  -0.0223643
  -0.0161322
  0.00124938
   -0.024466
  0.00714993
  0.00874344
 -0.00368485
   -0.021387
   0.0176901
   0.0230092
  0.00713667
  -0.0266031
  -0.0266348
 0.000683119
 -0.00916056
   -0.015143
   0.0168067
 -0.00805042
  -0.0219563
 -0.00046277
   0.0057073
   0.0226225
  -0.0198314
  -0.0105104
   -0.016388
   0.0076378
   0.0085127
 -0.00989187
   0.0248704
 -0.00857177
  0.00923227
  -0.0248875
  0.00278315
  -0.0169119
  -0.0218663
  -0.0174604
   0.0193187
  0.00193597
  -0.0113603
  0.00961529
 -0.00244836
   0.0232635
   0.0104993
 -0.00159604
 -0.00344689
  -0.0260548
   0.0107482
  -0.0140337
 -0.00661803
    0.016279
   0.0129907
   0.0265764
    0.011508
   0.0206465
  -0.0113275
   0.0226072
 0.000890786
   0.0246723
  -0.0146782
 -0.00163235
  -0.0112929
   0.0220412
  0.00096734
   0.0189774
  -0.0222642
  0.00658815
  -0.0258766
   0.0245417
  -0.0188694
 -0.00974974
   0.0067635
   0.0061694
  -0.0138797
  -0.0101307
  -0.0228202
   0.0101605
 -0.00869831
   0.0154152
    0.023614
   0.0121708
  0.00430067
  0.00921119
   0.0113537
  -0.0115849
  0.00246418
  -0.0273673
  -0.0163712
  -0.0240386
   0.0247922
 -0.00356226
  0.00181625
  -0.0138942
 -0.00891456
  -0.0246099
  -0.0223104
 -0.00369156
  0.00946539
  -0.0206998
 -0.00654335
   0.0180832
 -0.00296236
  -0.0271734
 -0.00314096
   0.0106451
  -0.0098169
  0.00152605
 -0.00658794
  0.00897194
  -0.0104523
  -0.0103674
 -0.00625075
   0.0213355
   0.0263309
  -0.0222905
  -0.0176428
  0.00140156
  -0.0221707
 -0.00652688
  0.00485016
   -0.024772
    0.017398
  -0.0207271
   -0.011179
  -0.0189101
  -0.0178499
 -0.00600225
  0.00488554
   0.0191027
 0.000785122
   0.0258294
  0.00979233
   0.0253099
   0.0261432
  -0.0207421
  0.00856146
  -0.0110673
  0.00827107
    -0.02542
   0.0253918
   0.0253059
 -0.00830028
 -0.00825242
   0.0192479
  -0.0093629
  -0.0030558
  -0.0257884
   0.0195258
  0.00226069
 -0.00482816
 -0.00301754
  0.00497588
  -0.0148237
  0.00374253
    0.021284
 -0.00624655
   0.0133798
  -0.0121118
   0.0261262
  0.00508901
   0.0161605
    0.024562
  -0.0125122
   0.0140769
   0.0233116
 -0.00576716
 -0.00475515
  -0.0151491
  -0.0248896
 -0.00268798
  -0.0171508
  -0.0269772
   0.0164989
  0.00208394
   0.0197579
  -0.0202575
   0.0265153
   0.0214566
   0.0267554
  0.00138248
  -0.0107651
  -0.0036556
  -0.0210352
  0.00189844
  -0.0273066
  -0.0271447
   0.0231391
   0.0135604
  -0.0117693
   0.0218717
 -0.00874411
  -0.0230023
   0.0190402
  0.00623087
   0.0185618
   0.0149583
  -0.0269298
  -0.0135869
   0.0272963
  -0.0243322
   0.0112123
   -0.017248
  -0.0238223
 0.000317648
   0.0123231
   0.0234228
  0.00754728
   0.0114449
   0.0174859
  0.00690922
  -0.0145661
  -0.0206727
  -0.0241399
 -0.00811413
  0.00871289
  -0.0239593
 -0.00777165
  0.00445843
   0.0170882
  0.00794621
 -0.00106339
  -0.0190494
   0.0124311
 -0.00941673
   0.0146686
   0.0035993
  -0.0218519
    0.015226
   0.0174996
  -0.0219491
   0.0183809
  0.00131831
    -0.01171
   0.0220458
  -0.0257576
  -0.0267804
    0.018075
  0.00927689
   0.0121517
  0.00816736
  -0.0112074
   0.0250727
   0.0149818
 -0.00786015
  -0.0104349
 -0.00369881
 -0.00433232
  0.00928059
  -0.0266339
  -0.0146376
  -0.0101667
-0.000210117
 -0.00619985
  -0.0251292
   0.0178603
  -0.0189247
   0.0059573
   0.0234955
   0.0237884
 -0.00393666
  -0.0258471
   0.0147758
   0.0248688
  -0.0100699
  0.00942804
   0.0265984
 -0.00936314
 0.000109542
  0.00848179
   -0.024605
  -0.0191166
   0.0247615
  -0.0269257
   0.0233524
  -0.0104921
  -0.0098735
 -0.00773995
   0.0126627
   0.0268942
 -0.00688668
   0.0255123
   -0.010666
   0.0203904
  -0.0080811
 -0.00830798
   0.0108572
 0.000481316
   0.0251365
  0.00695916
 -0.00312379
  -0.0061937
  0.00859919
  -0.0157415
 -0.00871841
   0.0260164
   0.0211737
  -0.0095135
  -0.0107402
 -0.00611029
   0.0264554
 -0.00785804
  0.00226026
   0.0238235
 -0.00729662
 -0.00178089
  -0.0140622
    0.010317
   0.0179663
   0.0260877
  0.00981776
  -0.0163139
   0.0242065
   0.0266389
   -0.023317
  -0.0112682
 -0.00906255
   0.0150273
   0.0167003
  -0.0113196
 -0.00540707
   -0.013817
  0.00997386
  -0.0242014
 -0.00207136
  -0.0261381
  -0.0255785
 -0.00829119
  -0.0081644
 -0.00883156
   0.0130857
 -0.00910247
   0.0107976
  -0.0120476
  -0.0126725
  -0.0238926
   0.0136587
 0.000752483
   0.0139116
  0.00423148
-0.000553323
 -0.00366414
   0.0154048
 -0.00374038
 -0.00441871
   0.0195749
   0.0124786
   0.0140059
  0.00720865
  0.00178542
  -0.0247072
  -0.0255919
   0.0154556
   0.0127538
  -0.0223062
  -0.0140093
   0.0141029
  -0.0203975
  0.00518668
   -0.021455
  -0.0017419
 -0.00912116
 -0.00307033
  -0.0183379
  0.00631841
   0.0117443
  -0.0147433
 -0.00741642
  -0.0148967
   0.0266555
   0.0243022
   0.0120371
 -0.00440216
   0.0123135
  -0.0190968
   0.0186663
  0.00449483
    0.020869
  0.00527867
    -0.01569
 -0.00473909
  0.00805862
  -0.0137948
   -0.016677
 -0.00658109
 -0.00861382
 -0.00319915
  -0.0198717
 -0.00152416
   -0.025406
  -0.0138396
   0.0242211
 -0.00703999
   0.0105773
  -0.0215103
   0.0267656
 -0.00507193
 -0.00876639
 -0.00804435
  0.00751851
 -0.00950441
  -0.0111356
 -0.00783788
   0.0135806
  -0.0262157
 0.000552504
  0.00485337
   0.0057663
 -0.00597201
  -0.0172615
   0.0175634
   0.0167761
   0.0182843
  -0.0236249
  -0.0272945
  -0.0156903
 -0.00475157
 -0.00300648
 -0.00807485
   0.0212114
-0.000925305
  0.00557274
    0.018039
   0.0195219
  -0.0112435
   0.0240159
   0.0188939
   0.0111717
   -0.012144
  -0.0165439
 -0.00870329
  0.00583873
 -0.00019243
    0.010946
 -0.00797419
  0.00107903
   -0.015895
   0.0243663
  -0.0205482
  0.00562013
  -0.0202887
   0.0245024
 -0.00499733
   0.0254828
   -0.026516
 -0.00480465
   -0.017601
 -0.00378043
    0.019676
  0.00181129
 -0.00996251
 -0.00864279
  -0.0200095
   -0.019317
  -0.0165144
 -0.00376583
  -0.0226946
   -0.025014
  -0.0199876
 -0.00735149
  -0.0140708
 -0.00120376
   0.0259744
   0.0132239
  -0.0176513
 -0.00939331
  -0.0130906
 -0.00605915
  -0.0124205
 -0.00615159
   0.0270481
 -0.00522199
  -0.0090427
 -0.00534271
 -0.00713269
 -0.00807156
   0.0173398
  0.00275345
   0.0156352
  0.00962232
  -0.0228288
  -0.0217208
   -0.026414
  -0.0153511
  -0.0135507
  -0.0154413
  0.00837023
 -0.00875819
  -0.0129681
   0.0158698
   0.0113775
 0.000448217
  -0.0127275
  0.00995836
  -0.0137214
 -0.00289165
  -0.0268285
 0.000675219
   0.0185364
  -0.0117618
   0.0220108
    0.018191
   0.0105034
  -0.0144254
  -0.0145452
  -0.0240228
  0.00499018
   -0.024599
  0.00621778
 -0.00676816
   0.0125105
   0.0108762
 -0.00100185
   0.0135837
   0.0230122
   0.0129346
   0.0256296
  0.00398896
  -0.0232171
  -0.0147321
  -0.0075348
   0.0156475
   0.0132033
  0.00722484
 -0.00178762
   0.0269691
  -0.0230603
 -0.00112893
 0.000250797
   0.0229632
   0.0145964
 -0.00513192
   0.0137607
  -0.0022937
  0.00792981
   0.0267026
  0.00117063
  -0.0144735
  -0.0252899
  -0.0200051
  0.00624548
   0.0147078
   0.0183582
  -0.0221499
 0.000897956
   0.0139769
   0.0182719
-0.000865974
 -0.00942761
   0.0225419
   0.0118891
   0.0105248
    0.010796
 -0.00230108
 -0.00964391
  -0.0183852
  -0.0027255
 -0.00521707
  0.00797306
   0.0250125
 -0.00964739
 -0.00482402
 -0.00751298
  -0.0232802
   0.0203694
  -0.0269767
  -0.0239712
 -0.00585344
   -0.013963
  -0.0217739
  0.00162861
   0.0197696
    0.020421
 -0.00740668
   0.0251069
 -0.00607455
  -0.0208232
   0.0159852
   0.0205466
 -0.00276369
   0.0111336
  0.00504224
  -0.0196324
 -0.00546391
  -0.0246523
  -0.0017892
  0.00363808
 0.000109309
   0.0204809
  -0.0157824
 -0.00227175
    -0.01656
  0.00688076
   0.0177024
  -0.0123531
-0.000143313
   0.0182129
 -0.00883714
   0.0214904
  -0.0231437
 -0.00312391
  -0.0042745
   0.0241131
  -0.0100964
    0.015806
   0.0218264
   0.0113162
   0.0224699
   0.0104181
  0.00446932
 -0.00768731
 -0.00584173
  -0.0178819
 0.000167401
   0.0161815
  -0.0150471
   0.0258654
 -0.00757392
   0.0125493
   0.0189527
  0.00413086
  -0.0171159
  -0.0250008
  -0.0163819
   -0.026807
 -0.00986677
   0.0109619
    0.018893
  0.00878325
  0.00505884
   0.0232365
  -0.0217342
  -0.0266092
   0.0199561
 -0.00434343
    0.016684
    0.014389
  -0.0204207
   0.0117603
 -0.00258639
   0.0115357
  -0.0233205
    0.019059
   0.0211409
  0.00433408
  0.00784704
  -0.0212997
  0.00280592
  -0.0271204
   0.0187368
 -0.00563487
  0.00449763
  -0.0257727
 -0.00314853
   0.0156029
  -0.0250925
   0.0144719
-0.000827078
   0.0212899
 -0.00414196
  -0.0231627
   0.0171304
  0.00161637
  -0.0222835
  0.00969361
   0.0247597
   0.0218838
 -0.00330874
  -0.0230555
  0.00625203
     0.02159
   0.0159679
   0.0104185
   0.0132529
  0.00971326
   -0.012644
 -0.00629068
   0.0158985
   0.0176531
 -0.00592668
  0.00724667
  -0.0153728
   0.0260575
  0.00895872
  0.00896166
   0.0142692
   0.0113561
 -0.00395721
  -0.0139495
  0.00524788
   0.0193878
 -0.00962778
 -0.00501411
 -0.00638735
  -0.0044296
  -0.0227116
 -0.00902399
 -0.00993141
  0.00145972
 -0.00459542
    0.023806
  -0.0043435
  -0.0160207
  0.00683046
  -0.0184807
    0.021184
   0.0216749
  0.00271219
  0.00968872
   0.0119382
    0.024273
  -0.0104599
   0.0240491
   0.0229423
   0.0259905
  0.00561605
  0.00981638
  0.00994902
  -0.0257315
   0.0233526
  -0.0121938
   0.0211427
  -0.0136668
   0.0102775
    -0.01264
  0.00939129
   0.0150503
  0.00582521
   0.0269411
  -0.0108843
  -0.0261642
   0.0233516
   0.0122633
  -0.0146957
  0.00278953
   0.0212679
  -0.0209045
 -0.00292267
 -0.00341207
   0.0162726
  -0.0183806
 -0.00653285
  -0.0215811
  -0.0217241
  -0.0109792
   -0.022984
   0.0113808
   0.0263256
   0.0144512
   0.0131314
   0.0222851
  -0.0251369
  0.00688622
  -0.0187768
   0.0126266
   0.0217323
   0.0181017
 0.000285305
 0.000143338
   0.0175664
   0.0169064
  0.00147461
    0.013661
  0.00176523
   0.0142027
  -0.0109177
 -0.00436915
    0.020786
   0.0135936
   0.0197109
  0.00974676
   0.0226717
  -0.0141307
   0.0156084
  -0.0264787
  0.00221713
   0.0200483
   0.0123981
  0.00125453
  0.00717819
 -0.00187632
 -0.00389785
  0.00948871
  -0.0223156
  0.00477582
 -0.00521302
   0.0269045
 -0.00450708
   0.0226719
-0.000400033
   -0.014181
   0.0119583
  -0.0262091
   0.0267909
  -0.0135435
   0.0155301
  -0.0115794
  0.00942718
  0.00912664
  -0.0253656
  0.00185862
 -0.00863247
   0.0249235
   0.0149852
  -0.0204117
   0.0258894
 -0.00999214
   0.0272946
   0.0108245
   0.0187585
  0.00704927
  -0.0183901
  -0.0125887
  -0.0107411
  -0.0131946
    0.019749
   0.0114532
  -0.0137371
  -0.0122799
  0.00677265
   0.0134208
  0.00113052
   -0.008719
    0.014701
 0.000588864
  0.00516155
  0.00270468
    0.016384
  -0.0126161
   -0.015668
   0.0185692
    0.016622
  0.00316776
   0.0161434
  0.00437031
   0.0100919
   0.0145572
   0.0217418
   0.0100081
  -0.0018763
   0.0129735
  -0.0103392
  0.00726299
  -0.0269767
  0.00639287
   0.0216847
   0.0202248
 -0.00955086
  -0.0195162
  -0.0194033
     0.02451
   0.0213226
  0.00921642
   -0.011474
  0.00876501
  -0.0178168
   0.0210465
   -0.015892
   0.0263571
  -0.0189775
 -0.00409132
   0.0175803
   0.0252676
   0.0265731
  0.00630849
  0.00220702
  0.00931584
 -0.00643655
 -0.00341725
 -0.00801563
   0.0191123
  -0.0177441
  0.00913376
 -0.00104017
  -0.0172444
  -0.0119745
 -0.00678138
  -0.0244925
  0.00603283
  0.00116253
  -0.0162865
  0.00325847
 -0.00481837
    0.020303
   0.0191352
  -0.0234561
  -0.0247243
   0.0129732
  -0.0118365
  -0.0258731
   0.0214615
   0.0115194
   0.0192097
   0.0193907
   0.0105791
 -0.00182388
 -0.00585987
 -0.00732147
   0.0190661
   0.0181316
   0.0120916
   0.0107953
  -0.0269881
 -0.00618276
  -0.0175757
  -0.0166631
  0.00935821
   0.0030804
   -0.013685
  -0.0119187
  -0.0231851
 -0.00251289
   0.0187387
-0.000360496
 -0.00951011
   0.0104757
   0.0036479
 -0.00684555
   -0.003891
    0.019268
 -0.00515369
 -0.00982019
  0.00343831
  -0.0133861
  -0.0178517
  -0.0133772
   0.0122251
  0.00381859
   0.0066565
  0.00388343
 -0.00544258
 -0.00868561
  -0.0126238
 -0.00490396
   0.0126221
 -0.00272996
  0.00593153
 -0.00526382
   -0.027037
   0.0197831
   0.0102454
  -0.0227221
  -0.0101291
  0.00162353
  0.00451875
  0.00785046
  -0.0152692
  -0.0192079
  -0.0264116
  0.00822321
  -0.0273242
 -0.00409617
   0.0260162
  0.00355551
  0.00998732
   -0.019271
     0.01766
 -0.00517649
   0.0120692
 -0.00316148
   0.0261684
  -0.0207891
   0.0158539
  -0.0138801
  0.00184642
  0.00113964
   0.0107092
  -0.0195633
   0.0232993
   0.0111618
   -0.027262
  0.00614495
   0.0159697
 -0.00993592
  -0.0197107
  -0.0070404
   0.0254607
 -0.00760404
  0.00133526
   0.0264871
  -0.0266032
   0.0015601
 -0.00504688
   0.0267411
   -0.022415
  -0.0223851
  -0.0198587
    0.022801
-3.68632e-05
   0.0195473
    -0.00778
 -0.00131769
   0.0262668
  -0.0192465
   0.0121299
 0.000787214
  0.00929512
 -0.00431386
  0.00849807
  0.00509466
  -0.0206248
  0.00873672
  -0.0161302
   0.0228125
   0.0263723
 -0.00824133
  -0.0115838
   0.0243681
   0.0116218
   0.0173536
   0.0234163
   0.0124616
 -0.00859784
 -0.00881755
   0.0119363
 -0.00353532
 -0.00374545
   0.0194333
 -0.00804737
   0.0236623
   0.0116923
   0.0116588
 -0.00498552
   0.0104993
   0.0198583
  -0.0202544
  -0.0161756
  0.00181745
  0.00273891
   0.0197886
  -0.0204815
  0.00954735
  0.00125189
 -0.00906933
   0.0049718
 0.000208961
   0.0101919
    0.021075
 -0.00280814
 -0.00551851
   0.0109546
  -0.0067637
  -0.0204569
  -0.0249914
   0.0120584
   0.0189686
 -0.00100155
  -0.0190561
   0.0109778
   0.0182927
  -0.0227712
 -0.00474696
   0.0027269
-0.000333638
  -0.0216644
 -0.00486051
  0.00689199
  -0.0103958
   0.0244335
  -0.0177945
  -0.0180005
  -0.0234152
   0.0194086
   0.0106703
 -0.00493728
 -0.00294048
  -0.0166679
  -0.0221236
 -0.00932144
  0.00798758
-0.000216438
  -0.0257721
  -0.0261122
  0.00681566
  -0.0233589
    0.013323
 -0.00157657
  0.00303835
   0.0217952
  -0.0180019
 -0.00594014
   0.0265411
  0.00469923
   0.0241125
 -0.00128167
   0.0105484
 -0.00812342
  -0.0217583
  -0.0272069
  -0.0111677
  -0.0120769
  -0.0177552
 -0.00708113
  -0.0200187
   0.0203056
   0.0155042
   0.0044821
  -0.0236053
   0.0207469
   0.0225856
   0.0118221
 -0.00685664
   0.0243122
    0.013188
  -0.0273807
  -0.0263698
-0.000863584
 -0.00152509
  0.00415133
 -0.00639081
  0.00794254
    0.025661
 -0.00730884
  -0.0146419
   0.0224609
   0.0188818
   0.0233778
  -0.0131308
   0.0246774
   0.0236281
  0.00325086
  -0.0148043
  -0.0214783
   0.0236165
 -0.00736382
   0.0263088
   0.0116912
   0.0246397
  -0.0248036
  0.00502927
   0.0198292
    0.014475
   0.0257296
   0.0167841
  0.00027509
   0.0258213
   0.0179132
   0.0270149
 -0.00309003
 -0.00530511
 -0.00681837
  -0.0225225
 -0.00703946
   0.0133894
 -0.00959089
  -0.0119744
  0.00490672
   -0.013594
   0.0023661
  0.00209027
  -0.0173404
   -0.021791
   0.0148701
  -0.0113752
  -0.0255818
  -0.0199038
   -0.012461
   0.0135621
   -0.022664
 -0.00981124
 -0.00879793
    0.024666
  -0.0226053
  -0.0105031
   0.0140864
  0.00519031
  -0.0121721
  0.00460791
  0.00476899
   0.0122253
   0.0267567
   0.0254294
   0.0172173
 -0.00767386
   0.0113776
  -0.0198486
  0.00785995
  -0.0111664
 -0.00592333
  -0.0171713
   0.0184966
  0.00423702
  -0.0115091
   0.0058836
   0.0202887
 -0.00957874
   0.0134726
   -0.019555
  -0.0233779
   0.0182324
 -0.00186922
 -0.00472187
   0.0155195
  0.00302899
   0.0122079
  0.00223408
   -0.019204
   -0.027258
  -0.0206165
   0.0130117
   0.0124237
  -0.0212519
   0.0110645
  0.00223139
 -0.00140473
 -0.00490555
  0.00988777
  -0.0209725
   0.0114081
  -0.0233767
  -0.0106731
  0.00247822
  0.00830127
  0.00537798
    -0.01898
  0.00118944
   0.0232783
   0.0219256
  0.00916716
   0.0273638
   0.0128079
  -0.0201081
    -0.00472
 0.000905857
   0.0103886
  -0.0199214
  -0.0242762
   0.0186863
  -0.0197624
  -0.0174222
  0.00429713
   0.0201218
  -0.0111458
  -0.0120062
 -0.00502654
   0.0149249
    0.010572
  -0.0224633
    0.021443
  -0.0053949
  -0.0183923
  -0.0165972
   0.0245737
   0.0174232
    0.016324
  -0.0218053
 -0.00876375
   0.0122112
  -0.0272839
  -0.0270628
   0.0121925
   0.0130032
  -0.0196114
  -0.0199524
  -0.0134865
   0.0182396
  -0.0123874
  -0.0103115
  0.00951817
 -0.00464559
-0.000241345
  -0.0135422
  -0.0118834
    0.016064
  0.00195444
   0.0105944
  0.00356943
  -0.0148758
   0.0156065
 -0.00239504
  0.00720427
    0.024697
  0.00850992
  0.00440127
   0.0147023
 -0.00258572
   0.0100768
  -0.0214752
  -0.0177769
   0.0102976
  -0.0210299
    0.021895
 -0.00409889
  -0.0132007
  -0.0254649
  0.00988978
  -0.0223669
  -0.0103729
   0.0270642
   0.0146383
   0.0124644
-0.000571713
  -0.0263023
  -0.0268145
  -0.0119014
  0.00313952
   0.0112693
   0.0191574
   0.0157498
-0.000524178
  -0.0106298
 -0.00443894
 -0.00321958
   0.0253681
  -0.0274328
  -0.0159109
 -0.00461307
   0.0101312
 -0.00989779
  0.00510104
 -0.00696807
 -0.00344592
-0.000397598
   0.0164192
   0.0108416
  0.00162484
 -0.00108812
   0.0159589
   0.0187404
 -0.00141446
  0.00320201
   0.0038049
   0.0255023
  0.00439108
  0.00447804
  -0.0137871
  -0.0198621
  -0.0116457
  -0.0220282
   0.0233751
   0.0153184
 -0.00516635
 -0.00845806
  -0.0152969
 -0.00719442
 -0.00839652
 -0.00372288
   0.0156847
  -0.0256587
   0.0138674
 -0.00660798
 -0.00513769
  -0.0169727
   0.0204876
  -0.0161108
   0.0213529
 -0.00527995
   0.0102846
  0.00991447
  -0.0139391
  -0.0185212
  -0.0142717
   0.0173556
  -0.0204113
   0.0176067
 -0.00556225
 -0.00671621
   0.0251898
   0.0102421
 -0.00130413
    0.021216
 -0.00175192
   0.0211223
  -0.0146392
   0.0103467
  -0.0134835
  0.00441505
  -0.0207748
  -0.0252135
  0.00626215
   0.0206538
 -0.00434934
   -0.026191
  -0.0237048
  -0.0113272
  -0.0148832
   0.0251053
   0.0109753
   0.0228869
  0.00762997
   0.0244912
  -0.0230466
   0.0208431
   0.0145065
   -0.015923
   0.0111585
  -0.0184972
  0.00483074
  0.00896479
   0.0192909
  -0.0237846
  0.00263275
 -0.00983342
   0.0247952
   0.0155486
  -0.0268573
  -0.0161346
 -0.00742136
  -0.0200858
  -0.0138848
   0.0263958
  -0.0268932
  0.00925191
  -0.0272454
  -0.0231258
   0.0255253
  -0.0146705
  -0.0254642
  0.00896732
    -0.01919
  0.00970823
  0.00606337
  -0.0146805
  0.00312006
 -0.00685832
 -0.00312477
  -0.0132449
  0.00219591
  -0.0257245
   0.0232046
 -0.00596745
  -0.0219989
 -0.00154078
   0.0116473
  -0.0246685
   -0.013348
   0.0121691
  -0.0134211
  0.00673046
   0.0194969
  0.00017143
  0.00568481
   0.0200562
  -0.0179774
  0.00601885
   0.0243467
  -0.0199518
   0.0187744
   0.0263817
   0.0165496
   0.0270843
  0.00870172
 -0.00476124
  -0.0149493
  -0.0155996
   0.0159017
  0.00940359
 -0.00132652
 -0.00940733
   0.0111441
 -0.00556329
   0.0121026
   0.0166639
   0.0204279
 -0.00366282
   0.0193519
  -0.0202883
  -0.0189137
  -0.0213745
   0.0139184
  -0.0268066
  0.00632822
 -0.00769456
    0.020741
   0.0158032
   0.0257499
   0.0177206
   0.0233591
   0.0171414
    0.016757
   0.0125395
   0.0168657
 -0.00191796
  -0.0195995
  -0.0255093
  0.00996399
   0.0237762
   0.0113921
  -0.0187409
  -0.0129746
 -0.00484311
  0.00320212
   0.0266604
  -0.0156077
 -0.00374554
 -0.00435942
  -0.0236055
  0.00343097
   0.0042181
   -0.017477
  -0.0100198
   0.0048492
   0.0163455
  0.00976651
  -0.0017866
  0.00476388
  0.00810452
  -0.0114499
 0.000742079
 -0.00215802
  -0.0220671
  -0.0141328
   -0.012686
  0.00348437
 -0.00624762
  -0.0106686
  -0.0139542
 -0.00988379
   -0.026714
 -0.00520911
  0.00464513
 -0.00407222
   0.0254999
  0.00390534
  0.00779945
 -0.00564226
   0.0269912
   0.0116995
   0.0252678
   0.0038139
   0.0216922
  -0.0121386
   -0.018724
   0.0106305
   0.0250917
  0.00698861
  -0.0120347
  0.00577083
   0.0230242
   0.0161707
  -0.0237832
  -0.0264526
   -0.025363
 -0.00898259
  0.00454747
 -0.00414626
  0.00780304
   0.0180667
   0.0134607
  0.00859167
   -0.014533
 -0.00928507
  -0.0228678
  -0.0164131
   0.0221026
   0.0124302
  0.00543046
   0.0217105
  -0.0033001
  0.00329295
  -0.0018832
 -0.00900502
   0.0186555
  0.00689176
  -0.0257748
   0.0163116
  -0.0135051
  -0.0103193
 -0.00527173
  -0.0178814
  -0.0215535
 -0.00157324
  -0.0168151
  -0.0194235
   0.0169398
   0.0152053
  0.00391228
 -0.00263272
  0.00588196
  -0.0100043
   -0.021452
   0.0188497
  0.00818896
  -0.0168369
  -0.0249643
  0.00289627
   0.0230924
  0.00792883
 -0.00276791
 -0.00759608
   -0.016139
   0.0228532
   0.0108963
  -0.0249129
  0.00233293
   0.0126125
   0.0189192
   0.0163217
  -0.0250961
  -0.0137657
   0.0259128
   -0.019156
   0.0121498
  -0.0182764
  -0.0111238
  0.00170244
   0.0244096
   0.0203144
   0.0265182
  0.00288316
  -0.0171005
  -0.0223199
 -0.00565904
   0.0185805
  -0.0116563
 -0.00312314
 -0.00591376
  -0.0159715
  -0.0225775
   0.0188227
  0.00390935
   -0.011239
   0.0142663
  -0.0125551
 -0.00864431
  -0.0107965
  -0.0273323
  -0.0171336
  -0.0218449
  -0.0249473
 -0.00339818
  -0.0233295
  -0.0166081
  -0.0186474
  -0.0141193
-0.000246826
   0.0105413
  -0.0170883
 -0.00735931
   0.0096672
   0.0132864
  0.00302476
   0.0148569
  -0.0197562
  -0.0057977
  -0.0241906
  0.00461879
   0.0158112
  -0.0126767
  0.00952923
  0.00723339
   0.0187245
    0.025777
 -0.00589244
  -0.0211999
  -0.0102594
   0.0108082
  -0.0210439
 9.53187e-05
   0.0164243
  -0.0184951
    0.024182
   0.0206024
 -0.00763276
  -0.0218615
   -0.020906
   0.0196062
   0.0161571
  -0.0105247
  -0.0151436
 -0.00156679
  -0.0246263
   0.0153748
  -0.0141206
  -0.0168884
  -0.0178001
  -0.0108449
   0.0152116
   0.0254913
  0.00395418
 -0.00265433
  0.00532614
 -0.00470591
 -0.00426578
   0.0269144
   0.0015695
   0.0129608
   0.0103234
  0.00800722
  -0.0143369
-0.000643012
   0.0169923
  -0.0175541
 -0.00744602
  -0.0180382
  -0.0119309
-0.000875888
  -0.0258307
  -0.0231673
   0.0160865
  -0.0134871
  0.00275308
   0.0189474
  -0.0255059
   0.0161197
  -0.0253345
  -0.0158188
  -0.0221188
   0.0173643
   -0.017721
  0.00932259
  -0.0126835
   0.0150923
  -0.0227768
   0.0105378
   0.0146132
  0.00627983
  -0.0038949
 -0.00245691
  -0.0131065
  0.00925539
   0.0243872
  -0.0235077
   0.0191884
  -0.0104523
  -0.0140587
   -0.020136
    0.016159
  -0.0124022
  -0.0158161
  0.00485201
  0.00159779
   0.0144241
 -0.00359409
  0.00357908
  0.00315028
 -0.00144142
   0.0152474
  0.00851868
  -0.0114706
   0.0250135
 -0.00955224
    0.003333
   0.0127123
 -0.00484192
  -0.0135227
-6.80439e-05
  -0.0259556
   0.0100696
   0.0249622
  -0.0115749
 -0.00806854
   0.0219559
 -0.00759541
  -0.0162736
  -0.0158899
  0.00583304
 -0.00892244
  -0.0271244
    0.020918
  0.00274861
  0.00521473
 -0.00487775
  -0.0102208
  -0.0257729
   0.0261885
   0.0204167
 0.000328072
   0.0140616
  0.00153609
   0.0162951
   0.0116453
   0.0194686
  -0.0077521
 -0.00300186
  -0.0127552
  0.00619469
   0.0244495
  -0.0112223
  -0.0111529
   0.0219904
  0.00471546
  0.00825864
   0.0165142
   0.0245688
    0.019475
  -0.0267416
  0.00297746
  -0.0167882
  -0.0264217
 -0.00345185
   0.0134596
  0.00629912
   0.0191228
  -0.0242121
  0.00800692
   0.0179562
   0.0237212
   -0.019078
  0.00460623
 -0.00218771
   0.0247063
  -0.0111448
  -0.0100475
  -0.0105038
   0.0133621
   0.0046532
   0.0232451
    0.010302
   0.0208951
  -0.0153253
   0.0049096
 -0.00181645
   0.0204469
 -0.00594621
 -0.00459952
   0.0125263
  -0.0052214
    0.025886
    0.023234
 -0.00415681
 -0.00495053
  0.00926417
  -0.0251916
  -0.0131682
   0.0125286
   0.0102855
   -0.022633
  0.00889042
   0.0186894
  0.00947563
  -0.0206775
   0.0160131
   0.0258048
 -0.00324347
  -0.0218563
   0.0117445
  -0.0259366
  -0.0260793
 -0.00533562
   0.0224653
  -0.0139226
   0.0271196
 -0.00673043
  -0.0208948
 -0.00621824
   0.0162013
   0.0192149
   0.0160593
   0.0146984
   0.0150546
  -0.0155423
  -0.0176653
 -0.00309209
  -0.0131892
 -0.00333357
   -0.017938
   0.0246158
  0.00151352
   0.0184264
   0.0159125
  -0.0164172
   0.0252533
  0.00451896
  -0.0180385
 -0.00536726
   0.0101459
   0.0211937
 -0.00386251
   0.0115529
   -0.011519
 -0.00879373
   0.0251318
  -0.0118344
   0.0119834
  -0.0231156
  0.00939297
 0.000772527
   0.0235687
   -0.001991
   -0.011922
   0.0112031
  0.00999883
  -0.0020702
  -0.0192952
   0.0242797
   0.0220805
 -0.00975401
   0.0214835
 -0.00379452
  -0.0187346
   0.0100069
  0.00726238
  -0.0208938
  -0.0128636
    0.016722
  0.00119883
   0.0247603
    0.010521
   0.0248238
  0.00891706
   0.0264884
  -0.0113652
  0.00665509
  -0.0127404
  -0.0267752
   0.0110277
   0.0241405
  0.00148348
  0.00719958
 -0.00524263
   0.0170489
 -0.00899179
  -0.0226361
  -0.0124165
-0.000798428
  -0.0257517
  -0.0177297
   0.0169344
   0.0232207
  0.00596174
    0.025684
  0.00583478
  -0.0141714
  -0.0226031
   0.0204579
  -0.0248454
  0.00608254
   0.0178256
   0.0131637
  0.00351231
-0.000654507
   0.0122599
   0.0196351
  -0.0213926
    0.027009
    0.020347
   0.0171229
   0.0237532
 -0.00556287
 -0.00307029
  -0.0088806
  -0.0159081
   0.0154227
 -0.00403098
-0.000832735
  -0.0127695
 -0.00229263
  0.00892541
  -0.0232286
 -0.00646432
   -0.012507
  -0.0249386
   0.0268595
 0.000810204
  -0.0200552
   0.0199253
  0.00345037
   0.0135112
   0.0103544
  -0.0107772
  -0.0103669
  -0.0176922
  -0.0259102
  -0.0181257
  -0.0115979
  -0.0262967
  -0.0251728
  -0.0218687
   0.0249464
  -0.0032492
   0.0025469
  -0.0113278
  0.00833075
  -0.0094223
   0.0121291
  -0.0198974
  0.00529582
  -0.0175576
   0.0165145
  0.00955353
  0.00346493
  -0.0233854
    0.012102
  0.00292954
  0.00491164
   0.0195336
 -0.00454028
  -0.0190293
  0.00565421
  -0.0215798
 -0.00231907
   0.0227746
  -0.0117852
-0.000743145
  -0.0227443
  0.00410455
 0.000447598
  -0.0204299
  0.00972303
 -0.00199952
  0.00380804
  -0.0151236
   0.0141598
  -0.0152547
  0.00294128
 -0.00110457
 -0.00766494
  -0.0191564
  0.00882503
   -0.018544
   0.0178843
  -0.0151035
  -0.0144422
  0.00259273
   0.0153132
   0.0179566
  -0.0052672
  -0.0166206
   0.0264145
  -0.0270065
  -0.0107133
 -0.00329808
   0.0232553
  0.00498867
   0.0234459
  -0.0268825
  -0.0183003
 -0.00349998
  -0.0198253
   0.0189099
   0.0219877
   0.0114699
  -0.0236072
  0.00875398
   0.0237024
  0.00682123
  -0.0197441
  -0.0113561
    0.015152
   0.0165681
 -0.00241291
  0.00564273
   -0.025929
   0.0106321
  -0.0191581
   0.0168713
  0.00119521
   0.0030619
  -0.0271428
 0.000216205
  0.00354256
   -0.010369
   0.0244053
-0.000595677
   0.0221069
   0.0204577
 8.97314e-06
   -0.023587
  -0.0104358
  0.00767086
   0.0228101
  -0.0158416
 -0.00825273
     0.02669
   0.0203995
  -0.0119439
   0.0061157
  -0.0267374
  0.00418886
 -0.00612318
   0.0173197
  -0.0256181
   0.0270041
   0.0188769
   0.0124977
  -0.0195438
  0.00835307
  -0.0136937
   0.0110025
  0.00869581
   0.0140054
  -0.0128482
   0.0258171
   0.0110179
   0.0140436
   0.0205293
  0.00408119
   -0.013343
   0.0244327
   0.0211344
   0.0218168
   0.0198492
  -0.0221011
  -0.0138284
   0.0191453
   0.0257831
  0.00171809
 -0.00213407
    0.026533
  -0.0214909
   0.0192289
    0.016456
  -0.0196228
   0.0188391
  0.00793917
    0.020364
   0.0267837
  -0.0111024
  -0.0207289
   0.0103944
   0.0250805
   0.0207633
   0.0250347
   0.0235019
  0.00438894
   0.0116824
   0.0166378
  -0.0189231
   0.0258295
   0.0136748
  -0.0251871
   0.0202536
  0.00612805
  -0.0198003
  -0.0209685
 -0.00212404
  -0.0214123
  0.00823745
    0.023231
  -0.0222737
   0.0142284
    0.015068
   0.0216717
   0.0220932
  0.00651745
  0.00221761
   0.0150643
  0.00590337
   0.0186026
   0.0218238
  -0.0110921
    0.016289
   0.0151906
  -0.0134531
   0.0124046
 -0.00781524
    0.025721
  0.00164935
 0.000749256
   0.0241579
  -0.0120695
  0.00304843
   0.0170218
   0.0215473
   0.0107335
   0.0235422
 -0.00797307
    0.016804
  0.00438122
  -0.0121328
   0.0220221
 -0.00878167
  -0.0244576
   0.0163002
  -0.0140832
   0.0095437
 -0.00887868
  -0.0264114
  -0.0119406
  -0.0176683
   0.0228996
  0.00445355
   0.0261069
   0.0106974
   0.0184853
   0.0111186
   -0.024512
   0.0168182
  -0.0146289
  0.00372096
    0.013578
 0.000789663
  -0.0206216
  0.00320461
 -0.00505685
   0.0175973
-0.000650115
   0.0144584
  0.00701499
  -0.0236608
  -0.0250658
  0.00164429
 -0.00495606
  -0.0220364
 -0.00944901
  0.00844675
   0.0149983
    0.009158
  0.00952269
    -0.02434
   0.0189759
  0.00502569
   0.0075998
   0.0176889
  -0.0116706
 -0.00130653
  0.00141522
 -0.00869656
  -0.0118873
   0.0142752
   0.0225114
  -0.0257031
  -0.0123273
  -0.0255058
  0.00498987
   0.0101006
   0.0195788
  -0.0230535
 -0.00283154
-0.000801893
  -0.0192318
-0.000409447
  -0.0265535
  0.00330005
  0.00504108
  -0.0085191
  -0.0156483
 -0.00735339
  -0.0267527
   0.0213607
 -0.00421138
   0.0197118
 -0.00100498
  -0.0240046
    0.010011
   0.0148118
  0.00217664
  -0.0159715
  -0.0212781
   0.0177777
   0.0257944
  -0.0261607
   0.0195589
  -0.0139286
  -0.0241723
   -0.002846
   0.0236636
    0.022894
  0.00158809
 -0.00656064
 -0.00530155
  0.00984257
   0.0205208
 -0.00436638
  -0.0142527
 -0.00182991
   0.0145989
 -0.00241807
   0.0182991
   0.0153361
 -0.00844632
  -0.0133036
   0.0076551
   0.0180358
 -0.00982222
 -0.00973065
  0.00545313
   0.0198419
  0.00178913
    0.011661
   0.0102244
 0.000189619
   0.0129889
  0.00239138
   0.0137492
   0.0163011
   0.0270335
    0.010018
   0.0118009
  0.00122621
  -0.0239365
  -0.0208936
  -0.0163252
   0.0240691
  0.00222652
 -0.00309141
 -0.00515674
  -0.0105649
   0.0219817
  -0.0142513
  -0.0226221
  -0.0138574
-6.81027e-05
    0.012519
  -0.0232147
    0.017598
  -0.0246044
   0.0097256
   0.0100465
  0.00467193
  -0.0060069
 -0.00712262
   -0.022532
  -0.0204115
   0.0227559
   0.0187044
   0.0233768
   0.0223959
  0.00132896
  0.00778413
 -0.00377144
  0.00487964
   0.0143777
  0.00739047
  0.00155524
  -0.0107893
  -0.0230944
   0.0238857
  0.00613298
   0.0263744
  -0.0177591
   0.0109981
  -0.0148765
  0.00965992
  -0.0038764
   -0.010604
-0.000135556
-0.000993601
   0.0266088
  -0.0174826
  -0.0237152
 -0.00679163
  0.00288193
    -0.01876
 0.000284064
 -0.00175567
  -0.0274491
 -0.00373267
 -0.00675332
  0.00136704
  -0.0233421
   0.0169624
  -0.0211468
   0.0185228
 -0.00304064
  0.00789556
    -0.01966
  0.00135207
   0.0043877
   0.0139601
 0.000332995
   0.0141157
  -0.0024353
   0.0129437
 -0.00361787
   0.0211755
  -0.0250538
   0.0237337
 -0.00721166
  -0.0258385
  -0.0211424
 -0.00343969
 -0.00514301
  0.00922669
  0.00528748
   0.0226282
  -0.0199225
  0.00532557
 -0.00849798
 0.000811356
  -0.0207009
 -0.00435288
 -0.00961975
  -0.0143606
  -0.0132236
   0.0148268
   0.0210221
 -0.00539643
  -0.0112147
 -0.00198368
  -0.0188298
   0.0166055
  -0.0152615
  0.00622204
  0.00215565
  0.00860782
 3.97841e-06
  0.00458901
  0.00494804
   0.0202795
  0.00623763
   0.0112928
  -0.0105537
  -0.0262989
 -0.00687401
   0.0222209
   0.0238165
 0.000690659
 0.000152969
   -0.012075
  -0.0258915
  0.00693922
   0.0110593
  -0.0080241
   0.0200658
   0.0253228
  -0.0205908
   0.0136944
 -0.00746711
 -0.00431836
  -0.0156828
  0.00119023
  -0.0151064
 -0.00345708
  -0.0199812
   0.0145364
  -0.0222428
   0.0075099
 -0.00826809
   0.0101924
 0.000395855
   0.0254567
 -0.00590828
   0.0173293
    0.026645
   0.0147049
   0.0121567
   0.0230679
   -0.011998
  -0.0150839
  -0.0164006
  -0.0104023
   0.0193425
   0.0221458
  0.00906073
   0.0120148
   0.0200751
    0.015957
 -0.00168428
  -0.0147855
  -0.0157548
   0.0101201
   0.0138919
 -0.00337408
  -0.0207305
   0.0213978
  -0.0162312
  -0.0154861
  0.00151417
  0.00298788
   0.0221935
  -0.0254835
  0.00105106
  -0.0111083
    0.019333
 0.000302501
   -0.023797
  0.00409612
  -0.0040231
 -0.00830781
   0.0164994
  0.00706343
  0.00877702
  0.00844843
   0.0018157
 -0.00955577
 -0.00693028
  -0.0055027
  -0.0209922
   0.0188726
  0.00719893
 -0.00925992
  0.00159919
 -0.00630271
   0.0148532
  0.00835586
  -0.0122984
   0.0261091
   0.0203569
   0.0167029
  0.00170351
   0.0151569
   0.0187066
  -0.0246389
   -0.023345
    0.010646
  0.00315071
  -0.0196548
  -0.0126514
   0.0266148
-0.000475418
  -0.0235455
  0.00628468
  -0.0190919
   0.0123901
  -0.0192931
 -0.00116053
  -0.0219337
  0.00269132
  0.00533439
   0.0244261
  -0.0175033
   0.0235616
 -0.00136826
  0.00368119
   0.0110213
  -0.0204059
   0.0188699
  0.00973689
  -0.0274425
  0.00817928
  -0.0159531
   0.0152015
-0.000507673
  -0.0131049
   0.0193437
  -0.0172552
    0.017533
   0.0271761
 -0.00241942
   0.0167542
-0.000692821
  0.00152225
 -0.00435462
  0.00770242
  -0.0134812
  0.00383941
  -0.0208516
 -0.00792769
  -0.0208628
   0.0119699
  -0.0108951
  -0.0108789
  0.00813803
   0.0152238
   0.0202895
 -0.00823422
    0.022305
   0.0117658
  -0.0258908
   0.0223496
 -0.00744838
  -0.0143568
   0.0101576
   0.0195311
  2.5444e-05
  0.00210786
  -0.0251176
 -0.00983511
  0.00189045
-4.98659e-05
  -0.0204744
  -0.0261959
  -0.0259211
  0.00265813
   0.0089937
  -0.0119151
   -0.020896
   0.0156292
  0.00764434
  -0.0142716
 0.000205641
   0.0242364
  0.00233667
  -0.0190498
   0.0120666
 -0.00476739
 0.000203098
  0.00697809
  -0.0203951
  0.00179941
  0.00193422
-0.000356279
   0.0149298
  -0.0153016
 -0.00821869
  -0.0124383
   0.0142934
 -0.00584913
  0.00521375
  -0.0112097
   0.0215882
   0.0122265
 -0.00991841
   0.0231542
  -0.0125089
   0.0265624
  -0.0161545
  -0.0059177
   0.0147982
    0.018977
  0.00729785
  -0.0123897
   0.0158199
   -0.017759
 -0.00395239
 0.000492972
  0.00496077
   0.0237379
  -0.0199224
   0.0120529
 -0.00185624
  0.00949893
  -0.0156969
    -0.01432
   0.0216845
  0.00357155
 0.000728868
  0.00858431
   0.0252096
  -0.0214509
   0.0248618
   0.0194042
   0.0182628
  -0.0124501
   0.0151649
  -0.0216396
  -0.0132812
   0.0264976
-7.01863e-05
  -0.0258766
   0.0180811
  -0.0201658
  -0.0107791
  0.00650749
  -0.0104377
   0.0127556
   -0.020393
   0.0220102
  0.00909999
  -0.0128283
  0.00666959
  -0.0201498
   0.0241578
   0.0184598
 -0.00698259
   0.0184487
 -0.00536214
   0.0212334
-0.000360512
 -0.00754608
   0.0272697
 -0.00289224
  -0.0155354
   0.0181389
   0.0121448
   0.0271167
   0.0239865
   0.0263507
   0.0262208
 -0.00347725
  -0.0269194
   0.0169084
  0.00384406
  -0.0102113
 -0.00397764
   0.0208935
  -0.0248492
  0.00311647
   0.0155103
   0.0117379
   0.0177753
 -0.00521367
   0.0190753
   0.0145395
  -0.0141473
  -0.0153008
  0.00559471
  0.00797767
  -0.0214608
  -0.0221593
  -0.0269619
  -0.0215847
   0.0024356
  -0.0150101
   0.0240414
  -0.0128131
   -0.015287
   0.0206344
   -0.013856
  -0.0164597
  -0.0102364
  -0.0132882
  -0.0269448
   0.0210948
  0.00398766
 -0.00343532
   0.0145948
  0.00662561
   0.0271683
  0.00271158
 -0.00902996
   0.0175501
   0.0249851
  -0.0173481
  0.00469611
  -0.0165558
 -0.00516175
  -0.0171027
    0.018909
  0.00086456
  -0.0117748
   0.0194343
  0.00676705
   0.0181479
  -0.0229694
  0.00341496
  -0.0220588
  -0.0107692
 -0.00334419
 -0.00842755
 0.000258287
   0.0139066
  0.00577145
  0.00080061
  0.00760788
  -0.0176344
   0.0248525
  -0.0051908
   0.0164784
   0.0246273
   0.0250079
  -0.0199451
   0.0147838
   0.0225995
  -0.0098061
 -0.00791357
  -0.0213498
   0.0125193
   0.0024709
   0.0250464
  -0.0140096
   0.0181832
   0.0170871
   0.0202446
  0.00893761
   0.0216049
 -0.00373399
    0.014366
  -0.0165577
    0.020409
   -0.021455
   0.0111877
  0.00692203
   0.0118036
  -0.0154052
  -0.0128636
   0.0216563
  -0.0179463
  0.00943276
   0.0107412
  -0.0207125
  0.00704718
   0.0182832
   0.0215585
  0.00225316
  -0.0189164
  -0.0137486
  0.00839051
     0.02109
   0.0162095
  0.00604338
  -0.0203131
  0.00699915
 -0.00426299
  -0.0274621
  -0.0114568
  -0.0100516
 -0.00370891
  -0.0244843
 0.000877849
  -0.0106934
  -0.0184521
   -0.015328
   0.0237157
   0.0208386
 -0.00324601
  -0.0165414
   0.0151014
  0.00629489
   0.0203785
 -0.00155099
   0.0130695
 3.22149e-05
  -0.0106613
  0.00723448
  -0.0251081
 -0.00209058
    0.020973
   0.0107695
 -0.00839405
  0.00978897
  -0.0105806
 -0.00122002
  -0.0106054
   0.0126436
 -0.00119493
  0.00542501
  -0.0248015
   0.0225833
  0.00842791
  0.00356349
  -0.0155036
   0.0174629
   0.0157227
  -0.0191814
    0.010908
  -0.0149168
 -0.00823562
 -0.00138416
   0.0188652
  -0.0152506
    0.024552
  0.00454122
   0.0122688
  -0.0135028
  -0.0156178
   0.0146478
   0.0118937
  -0.0220383
 -0.00197617
  -0.0238938
   0.0152378
   0.0149304
  0.00237332
  -0.0227611
 0.000180423
  -0.0262151
   0.0101511
  0.00286606
   0.0238554
 -0.00881452
   -0.020964
  -0.0190418
  -0.0187451
   0.0222459
   -0.010736
     0.01965
  -0.0200645
  0.00851551
 -0.00912763
   0.0262879
   0.0207521
  -0.0119691
  0.00343559
  0.00562736
  0.00201519
   0.0153049
 -0.00711835
  -0.0134846
   0.0207538
   0.0183926
 -0.00989123
  0.00859809
   0.0059295
   0.0199693
   0.0133242
  -0.0212836
   0.0212413
 -0.00391827
  0.00906963
   0.0177031
   0.0147544
   0.0155928
   0.0261485
   0.0234964
   0.0104452
   -0.011981
   0.0157529
   0.0178679
   0.0240216
  -0.0207682
   0.0167622
   0.0173802
 -0.00525018
  -0.0071957
 -0.00438597
   0.0242522
  -0.0192843
   0.0159828
  -0.0166259
   -0.025924
  0.00698196
 0.000970021
   0.0101612
   -0.014482
 -0.00645424
 -0.00390812
 -0.00827848
  -0.0126065
   0.0196608
  -0.0266024
  -0.0222968
  0.00702163
   0.0164776
  -0.0235418
  0.00312454
-0.000470713
 -0.00803573
 -0.00851602
 -0.00999637
  -0.0114076
 -0.00179706
  -0.0206277
   -0.021421
   0.0204399
-0.000336195
  0.00168023
   0.0172986
  0.00786668
 -0.00973045
  -0.0267208
  0.00942981
   0.0247387
  0.00173634
 -0.00780247
  -0.0171369
   0.0227693
   0.0157766
   0.0020718
  -0.0172307
  0.00804383
  0.00295659
  -0.0120404
  -0.0123281
  -0.0079593
 -0.00809509
   0.0182836
   0.0190571
   0.0113563
  -0.0176259
  -0.0183327
  -0.0274448
  0.00806421
  -0.0114732
  -0.0213786
  0.00111061
   0.0156777
  0.00778878
 -0.00898432
 -0.00384911
   0.0255455
 -0.00821801
  -0.0218128
   0.0228907
   0.0210055
 -0.00212812
  -0.0216397
   0.0163812
  -0.0137451
  0.00791921
   0.0266377
   0.0217859
  -0.0165177
  -0.0127962
  -0.0179356
  0.00301015
  0.00659584
  -0.0270455
 -0.00532622
 -0.00944134
  -0.0171842
   0.0038282
 -0.00939898
   0.0183671
   0.0198421
 -0.00329043
 -0.00791577
  0.00812635
  -0.0228952
   0.0105871
  -0.0231163
  -0.0247432
  -0.0250245
  -0.0174419
   0.0256346
   0.0234682
  0.00791713
  -0.0233986
   0.0124559
   0.0216592
   0.0120077
   0.0117001
   0.0160516
   0.0229772
    0.026391
   0.0256032
 -0.00140618
  0.00559332
   0.0260448
   0.0207548
   0.0236391
  -0.0185329
 -0.00281055
  -0.0131534
   0.0273214
  -0.0103619
   0.0110434
 -0.00798793
   0.0252516
   0.0156354
  -0.0247944
  -0.0252582
   0.0183793
  -0.0223317
   -0.015213
   0.0166204
   -0.026257
   0.0201913
    0.020709
   0.0136861
    0.014457
  0.00532319
 -0.00200738
  0.00311516
  0.00090686
  -0.0030099
   0.0013248
   0.0269878
  -0.0248101
-2.38921e-05
   0.0203491
   0.0263162
  0.00893033
 -0.00985498
  -0.0142307
  0.00885818
  0.00727024
   0.0242999
  -0.0265233
  0.00512831
   0.0125417
  -0.0238305
  0.00735726
  0.00352753
   -0.018675
   0.0196315
 -0.00724554
  -0.0174449
   0.0124293
  -0.0139301
   0.0237283
-0.000507221
   0.0188803
 -0.00567255
  -0.0247856
 -0.00760639
   0.0188047
  0.00402638
 -0.00801207
   0.0214818
   -0.023391
  -0.0150565
   0.0204045
   0.0130265
  0.00257568
  -0.0212197
 -0.00550887
  -0.0175476
  -0.0243134
 -0.00454498
   0.0150679
   0.0157155
-0.000888316
 -0.00496838
 -0.00815047
  0.00792382
  -0.0127304
   0.0120911
   0.0179661
    0.027186
   0.0256482
   0.0143009
-0.000714754
    0.017135
  -0.0187651
  0.00198683
  -0.0178649
  -0.0273539
  -0.0213803
  0.00161015
    0.021615
  -0.0172842
   0.0140408
    0.014626
   0.0232295
   -0.010777
   0.0208934
 -0.00967291
-0.000837458
   0.0240672
   0.0132693
  -0.0131631
   0.0123892
  -0.0150126
  0.00935568
  -0.0231548
   0.0203984
   0.0241124
   0.0164235
    0.010971
   0.0239049
   0.0146782
 -0.00212159
  -0.0042034
  0.00441969
  0.00660044
   0.0252706
   0.0140419
  0.00673366
  -0.0235032
  -0.0117415
 0.000955155
  -0.0133002
  -0.0250942
  -0.0118124
  -0.0174643
 -0.00838402
  -0.0183125
 0.000349953
   0.0182657
  -0.0216388
  -0.0137743
  -0.0222909
   0.0182376
  -0.0012997
   0.0145519
     0.02257
  -0.0082948
   0.0112708
   0.0116001
  -0.0247173
  0.00778214
 -0.00111522
  0.00064825
  -0.0238148
   -0.024089
  -0.0201448
  -0.0259377
     0.01744
    0.014076
  -0.0219538
  -0.0216949
  -0.0123624
 -0.00776686
  -0.0193019
   0.0033124
    0.002256
-0.000198794
   0.0124871
  -0.0247876
 -0.00932663
   0.0183355
  -0.0110747
  -0.0041304
  0.00917961
   0.0151128
   -0.016972
  0.00435612
  -0.0205756
   0.0217859
  -0.0114373
  -0.0178057
  0.00217457
   0.0149346
   0.0103297
  0.00585002
   0.0183343
   0.0176702
   0.0073985
  0.00837758
  0.00435685
   0.0129275
   0.0141708
   0.0194807
  -0.0222267
   0.0223554
 -0.00460253
  0.00751335
 -0.00523691
  -0.0195077
   0.0102125
   0.0129232
   0.0263168
   0.0266247
  -0.0185992
  0.00810192
   0.0143472
 -0.00808331
  -0.0149357
   0.0212569
   -0.013692
  0.00111385
  -0.0239433
   0.0159699
  -0.0113439
   0.0138744
 -0.00557776
  -0.0204081
   0.0041515
    -0.02557
   0.0154588
  -0.0188881
   0.0148444
  0.00223702
  -0.0268012
      0.0201
 -0.00280222
 -0.00391451
 0.000218497
   0.0194543
  0.00406331
  -0.0169621
  0.00497912
  0.00298694
  -0.0177307
    0.013873
  -0.0163118
   0.0241018
  -0.0216067
 -0.00375718
   0.0179623
 -0.00781223
   0.0248389
   0.0215073
  -0.0192322
  -0.0138995
  0.00798316
  0.00267578
 -0.00681364
  -0.0152602
  0.00459488
  -0.0187548
  -0.0066587
 -0.00796047
   0.0109705
 -0.00596845
  -0.0152511
  -0.0192209
   0.0175989
   0.0124538
  -0.0271637
 -0.00573677
   0.0229787
  0.00530871
   0.0247375
  -0.0221473
 -0.00821233
  -0.0189636
  -0.0254368
 -0.00233437
  0.00476562
    0.020009
   0.0173441
  0.00221062
   0.0141215
   0.0255972
   0.0157976
 -0.00528242
 0.000883192
   -0.018409
  0.00694722
  -0.0219164
 -0.00967554
   -0.027106
 -0.00238888
  -0.0260974
 -0.00559044
   0.0098466
  -0.0178305
  -0.0153845
 -0.00509235
  -0.0175049
  0.00637121
  -0.0095063
   0.0152915
  0.00371699
 -0.00416411
  -0.0203146
   0.0122405
 -0.00211541
  0.00484154
  -0.0103887
 -0.00949823
 -0.00520575
   0.0193102
  -0.0227691
 -0.00699903
  0.00771697
-0.000567831
   0.0213726
   0.0167927
  -0.0210169
   0.0269423
  -0.0202773
  -0.0206358
 -0.00284003
  -0.0188875
  0.00126089
  -0.0203869
 -0.00923081
   0.0133635
  0.00200786
 0.000751462
 -0.00765879
   0.0199887
  -0.0113506
   0.0235454
  -0.0115689
   -0.004178
  0.00839234
   0.0138028
    -0.02673
   0.0254908
  -0.0230889
 -0.00444857
   0.0174075
  -0.0183709
   0.0160396
 -0.00226906
  0.00854846
   0.0100187
  -0.0128699
   0.0150187
  0.00956739
 -0.00565998
   0.0218701
  -0.0206661
   0.0029397
 -0.00426257
  -0.0135659
    0.021196
  -0.0182926
   0.0159291
 -0.00544601
   0.0015358
   0.0085243
   0.0106906
 -0.00231235
   0.0244426
  -0.0208809
  -0.0213135
   0.0108519
  -0.0201237
  -0.0232162
   0.0152502
  0.00291484
   0.0216784
   0.0243665
 -0.00843911
 -0.00798416
  0.00552141
   -0.025814
  0.00663311
 -0.00685337
   0.0112406
  -0.0264204
  -0.0123768
   0.0180616
  0.00400647
   0.0108478
  -0.0228978
   -0.002191
   0.0200424
   0.0205184
   0.0198501
 -0.00581447
  0.00165335
  0.00314508
     0.01936
 -0.00130318
  0.00975707
   0.0255298
  -0.0178433
   0.0171181
  -0.0250744
   0.0248929
 -0.00736273
   0.0240912
    0.021864
   0.0116848
  -0.0112864
-6.30182e-06
   0.0133636
    0.022832
   0.0206274
  -0.0027932
   0.0238991
  -0.0191411
  -0.0121244
 0.000511678
   0.0191907
 -0.00753438
   0.0258082
   0.0118415
  -0.0144084
   0.0182654
  -0.0213683
    0.014722
 -0.00598165
   0.0254824
  -0.0139713
  -0.0236242
   0.0236215
 -0.00432852
   0.0209816
   0.0260306
 -0.00682677
  -0.0137731
   0.0227246
  -0.0123518
   0.0254027
  -0.0159578
   0.0151247
   0.0113686
  -0.0205176
  0.00836705
  -0.0188231
  -0.0240097
   0.0167073
 -0.00345896
  0.00398253
  0.00850597
   0.0164907
  0.00240125
 -0.00703903
  -0.0253171
 -0.00673322
 -0.00092184
   0.0169011
    0.014771
 -0.00283171
  -0.0244688
   0.0186382
 -0.00661417
  -0.0013059
   0.0122278
 -0.00797182
    0.019357
   0.0259364
  -0.0126416
  -0.0203915
   0.0239432
 -0.00111235
   0.0222264
  0.00791488
  0.00585443
  0.00319739
   0.0165859
  0.00932946
  -0.0074869
   -0.014267
  -0.0140819
  -0.0263713
  -0.0251721
   0.0158033
 -0.00592718
  -0.0230003
  -0.0183198
   0.0206405
   0.0213886
   0.0239442
 -0.00958823
   0.0244121
   0.0151829
   0.0112873
 -0.00417702
 0.000266867
  -0.0242564
  -0.0122794
  -0.0015382
 -0.00904754
 -0.00535372
 -0.00485954
   0.0172269
  -0.0103065
  -0.0243428
 -0.00442018
   0.0203757
   0.0196066
   -0.022498
  -0.0145192
  -0.0220467
 -0.00887296
  -0.0135183
  -0.0196508
  -0.0206976
  0.00815131
  -0.0151586
  -0.0113794
  0.00142161
  -0.0213146
  -0.0148805
   0.0192446
  -0.0241596
  -0.0269799
  0.00323589
-0.000933677
 0.000204086
  0.00649163
   0.0144261
   0.0263808
   0.0247308
  -0.0183413
 -0.00588337
   0.0145335
 -0.00117295
 -0.00281524
  -0.0172724
  -0.0083929
  -0.0103845
  -0.0121389
  0.00448051
 -0.00510621
  0.00641803
   0.0185116
  0.00305051
   0.0129374
-0.000541675
   0.0151237
  -0.0258044
  -0.0268804
   0.0214596
  -0.0132348
   0.0200089
   0.0250784
  -0.0130699
 -0.00437247
 -0.00339535
   0.0151593
  -0.0253472
  -0.0162493
   0.0138068
   0.0270581
 -0.00762794
  -0.0193263
   0.0143387
    0.018799
   0.0054569
   0.0242973
  -0.0170835
   0.0225026
  -0.0153432
   0.0148835
 -0.00969781
   0.0184632
  0.00605294
   0.0207547
  0.00435906
  -0.0220233
  0.00849625
    0.006007
  -0.0214439
   0.0028413
   0.0201688
   0.0259371
 0.000376998
  -0.0202503
 -0.00575886
   0.0246545
   0.0223923
 -0.00322396
  -0.0192398
   0.0090343
 -0.00382177
 0.000796307
   0.0174524
  -0.0163635
 -0.00863287
 -0.00477084
  -0.0199253
   0.0030751
 -0.00926842
 -0.00737282
 -0.00943106
  0.00779396
  -0.0158528
   0.0239048
  0.00147569
   0.0153733
  -0.0255839
   -0.017308
 -0.00641103
  -0.0196334
   0.0123652
  -0.0132132
  -0.0216255
  -0.0138497
 -0.00631709
  0.00110594
  -0.0160276
  -0.0115925
   0.0245696
 -0.00862287
   0.0253644
 -0.00601435
   0.0202544
   0.0157075
  0.00381365
  -0.0159024
  -0.0167777
   0.0116521
   0.0150573
 0.000612686
  -0.0227592
  -0.0223274
  -0.0176967
  -0.0123829
  -0.0263616
   0.0107683
  -0.0243336
  -0.0241938
   0.0206978
  -0.0027396
  -0.0156395
  0.00596926
   0.0111733
  -0.0100041
   0.0205341
  -0.0227886
   0.0182786
  -0.0238714
 -0.00555678
   0.0162339
  -0.0049538
 -0.00775202
  -0.0182038
  -0.0115034
  -0.0197135
   0.0139706
  6.8617e-05
 -0.00856922
 -0.00220566
  -0.0123681
   0.0191153
   0.0021814
 -0.00694244
  -0.0269912
   0.0171179
 -0.00589025
   0.0108546
   0.0211744
 -0.00212894
  0.00420104
 -0.00909519
  0.00961151
  -0.0158962
  -0.0253905
  -0.0272413
  -0.0233233
  -0.0206072
   0.0184798
  -0.0194293
  0.00232318
  0.00730013
  0.00344394
   0.0221583
   0.0164866
   0.0183449
  -0.0248607
  0.00293034
 -0.00768693
 -0.00658219
   -0.026569
  0.00675401
  -0.0148398
  0.00318043
   0.0279107
  -0.0153999
 -0.00743641
 -0.00577918
   0.0253628
  -0.0139021
   0.0200931
  0.00266698
  0.00276194
  0.00278451
   0.0136255
  0.00492242
  0.00211614
   0.0178243
   0.0121088
 -0.00729243
   0.0251773
  -0.0143755
  -0.0266394
 0.000178698
  -0.0184671
   0.0167497
 -0.00697294
  -0.0151291
 -0.00796118
   0.0110454
  0.00422951
 -0.00648051
 -0.00876404
   0.0177323
   0.0246304
 -0.00997794
  -0.0253611
  -0.0108049
   0.0121144
  -0.0264798
  0.00120948
  0.00549486
  0.00271916
  -0.0213022
  -0.0213591
  -0.0119661
   0.0104659
  0.00845637
  -0.0215391
 -0.00497989
  -0.0254238
  -0.0223529
   0.0084568
  -0.0253984
  0.00491685
   0.0187683
    0.018632
   0.0249368
  -0.0250435
  -0.0148374
  0.00973468
  0.00651484
  0.00577303
  -0.0276511
 -0.00203561
  0.00246869
  -0.0089258
 6.79256e-05
   0.0199818
  -0.0250152
 0.000711992
  -0.0067274
  0.00724469
  -0.0233196
 -0.00234236
   0.0131498
 -0.00786646
  -0.0199068
  -0.0044011
 -0.00133203
  0.00263011
 -0.00249867
  0.00391323
  -0.0141158
-0.000299424
  -0.0179739
  -0.0233139
 -0.00919843
  -0.0205301
  -0.0206682
   0.0051613
   0.0168982
   0.0140779
  -0.0161421
   0.0163719
  -0.0170056
   0.0141441
  -0.0201289
    0.012389
  0.00585246
  -0.0177946
  -0.0148515
    0.026658
    0.016751
  -0.0105051
 -0.00402435
  0.00227932
  0.00885615
  0.00640349
   0.0247809
  -0.0190475
  -0.0175445
  -0.0074453
   0.0127595
 -0.00479864
   0.0195417
   0.0212551
-0.000719664
  -0.0164606
  -0.0269111
  0.00520869
   0.0145376
   0.0182784
 -0.00942976
   0.0270037
  0.00679697
    0.003112
   0.0145131
   0.0137113
  -0.0141812
 -0.00884951
   0.0239239
-0.000936766
 -0.00884305
   0.0138081
   0.0142917
   0.0142055
  -0.0119747
 -0.00398011
   -0.005717
  -0.0163602
  0.00519859
  0.00323799
   0.0061826
  -0.0119916
   0.0248071
 -0.00240465
   -0.017888
    -0.00334
  0.00853859
  -0.0163614
  -0.0239873
 -0.00401883
  -0.0265464
 -0.00622186
 -0.00298719
  0.00752473
   0.0237158
  -0.0172003
 -0.00412337
  -0.0165269
  0.00115927
 -0.00804082
  0.00871056
   0.0212245
  -0.0221643
 -0.00320321
  0.00787049
 -0.00572754
   0.0195649
  -0.0257321
  0.00505822
 -0.00338802
  0.00573866
  -0.0183209
   0.0118791
  0.00312718
  0.00617815
   0.0229721
  -0.0268911
  -0.0127232
  -0.0208606
  -0.0232324
   0.0132228
  -0.0198246
 -0.00147224
  -0.0177707
   0.0151598
 -0.00521428
 -0.00718861
   -0.014512
  0.00590595
   0.0223707
  0.00523843
  -0.0131787
   0.0142272
   0.0109717
   0.0109713
 -0.00335142
  -0.0230622
  0.00288216
 -0.00202692
  0.00942564
   0.0271044
  -0.0234226
   0.0173759
   0.0109993
  0.00669839
-0.000485879
  0.00606313
  0.00819316
   0.0152612
  0.00992532
   0.0129802
 0.000225855
    0.017399
    -0.01713
  0.00991636
  0.00577996
  0.00462582
  -0.0257639
    0.016657
  -0.0158788
   0.0222755
 -0.00386372
 -0.00224216
   0.0116879
  -0.0194038
  -0.0191399
  -0.0215729
  -0.0173496
   0.0119017
  0.00480479
   0.0205638
   0.0120994
   0.0066377
  0.00995579
 -0.00498552
  -0.0137761
  -0.0166132
   0.0263413
   0.0229413
   0.0248829
   0.0119075
  0.00532384
 -0.00346945
 0.000869512
   0.0160127
  -0.0210502
  -0.0210009
 -0.00549768
  -0.0176822
   0.0237602
  0.00516352
  -0.0230081
 -0.00591457
  -0.0249267
   0.0155255
 0.000317789
  -0.0137528
   0.0230948
   0.0103097
   0.0251996
 -0.00121475
  0.00498111
  0.00938885
  -0.0203684
  -0.0123934
  -0.0219531
 -0.00754219
  -0.0019542
  -0.0235047
  -0.0129881
 -0.00349549
   0.0133211
   0.0195821
   0.0204606
  -0.0139278
   0.0101866
  -0.0271657
 -0.00755565
  -0.0229004
  -0.0170569
 -0.00818516
  0.00978147
  -0.0117536
   0.0126463
   0.0122395
  -0.0236898
  -0.0140817
  -0.0265309
   0.0272049
   0.0247023
   0.0266135
 -0.00183489
 9.27435e-05
  0.00883651
   0.0049385
   0.0174087
   0.0132675
   0.0246268
  -0.0125354
   0.0170021
  -0.0157966
    0.011526
  0.00198324
  -0.0241031
  0.00439824
   0.0187744
   0.0126412
  0.00572326
  -0.0148763
   0.0143735
    0.016586
  0.00353066
 -0.00370857
  -0.0238122
  -0.0112817
  -0.0178799
  -0.0202994
 0.000992241
   -0.019083
  -0.0197497
 -0.00358551
  -0.0185307
  0.00533778
   0.0263764
   0.0186327
  -0.0175823
   0.0137517
  0.00224997
  -0.0197813
  -0.0253981
 -0.00720213
 -0.00776525
    0.011614
   0.0217371
 -0.00492249
  -0.0112098
   0.0143413
  -0.0216084
   0.0229741
    0.025825
   0.0229823
  0.00919146
 0.000942322
 -0.00914218
   0.0132266
   0.0169853
 0.000284543
   0.0215178
 -0.00798541
  0.00924676
   -0.026478
   0.0157909
   0.0195881
  0.00582434
   0.0142241
  0.00913548
   0.0184604
  0.00197771
  -0.0161151
   0.0258113
  0.00258125
  0.00548476
 -0.00976042
   -0.011837
-9.11249e-05
   0.0137595
  0.00369361
  -0.0135531
   0.0191923
 -0.00161367
  -0.0142339
   0.0124113
  -0.0199946
   0.0140862
  -0.0247076
   0.0225467
  0.00441222
  0.00284852
   0.0164892
   0.0241954
  -0.0126229
   0.0174959
   0.0133546
  -0.0209669
 -0.00405723
 0.000159113
   0.0159016
  -0.0108207
  -0.0249696
   -0.026698
  -0.0119782
  0.00474929
  0.00435595
  0.00591129
   0.0201082
  -0.0210696
 -0.00869198
 -0.00386575
 -0.00776562
  -0.0171097
   0.0216414
  0.00509126
   0.0224631
  -0.0258901
 -0.00795482
   0.0273167
   0.0230462
   0.0246409
  0.00402361
   0.0100492
   0.0214962
   0.0182687
-0.000499513
  0.00682809
   0.0246157
   0.0239398
  -0.0203786
   0.0123295
  -0.0158028
    -0.01755
   0.0119931
 0.000251479
   0.0145832
 -0.00979927
  -0.0208412
  0.00698803
 -0.00535774
   -0.003351
  -0.0240829
   0.0145643
  0.00741008
    0.025255
  -0.0086687
  0.00225208
   0.0264556
   0.0109764
  0.00277561
   0.0212344
  0.00876327
  -0.0212006
   0.0050405
  0.00150084
   0.0240773
  -0.0232133
  -0.0189236
   0.0212081
  -0.0268181
  -0.0112643
  0.00686992
  -0.0147966
 -0.00175351
 -0.00868868
   0.0136311
  -0.0147451
  0.00878345
   0.0194687
   0.0210325
  -0.0233157
  -0.0113216
   0.0242175
   0.0180772
   0.0241697
   0.0218913
    -0.01735
-0.000832663
   0.0214233
   0.0207469
  -0.0256613
   0.0150064
  0.00158748
  -0.0189797
 -0.00838842
  -0.0244366
  -0.0223075
 -0.00445479
  -0.0149677
   0.0267599
 -0.00383522
  0.00106887
  0.00633408
   0.0101281
   0.0268347
   0.0255576
 -0.00385569
  -0.0153695
  0.00695858
  -0.0117103
  -0.0206174
   0.0113585
  0.00495163
  -0.0235836
  0.00182833
 0.000788762
   0.0257819
   0.0118304
  -0.0263889
   0.0194381
  0.00507699
  -0.0249554
  0.00689307
   -0.020857
  -0.0164912
   0.0258701
  -0.0178548
  -0.0113096
 -0.00488374
 -0.00612728
  -0.0115618
   0.0193333
   0.0217281
   0.0221974
  0.00181713
   0.0206905
   0.0201328
   0.0254347
  -0.0215858
-0.000242184
  -0.0139066
  -0.0154412
  -0.0161035
   0.0179499
  -0.0112771
   0.0132158
 -0.00809838
  -0.0127147
 -0.00246381
 -0.00799008
  -0.0213307
  -0.0247374
 -0.00539154
   0.0132441
  -0.0181719
  0.00505103
   0.0115928
 -0.00858729
   0.0213801
  -0.0204597
   0.0124112
  -0.0173602
   0.0260985
  0.00701292
  -0.0231439
 0.000416086
 0.000169703
   0.0247344
  -0.0017305
  0.00606896
 -0.00287681
   0.0121995
   0.0181905
  0.00852063
  0.00242194
  -0.0202451
  -0.0057769
   0.0217764
 -0.00588262
   0.0196096
  -0.0135503
 0.000256267
   0.0224114
  0.00833959
  -0.0137707
  -0.0232867
   -0.013499
   0.0252772
 -0.00409633
  -0.0199324
  -0.0225935
  -0.0195365
 -0.00997396
   -0.023538
    0.014693
 -0.00555518
  0.00412203
  -0.0127029
 -0.00798513
  -0.0250975
    0.020789
   0.0168575
   0.0146688
   0.0120297
 -0.00199171
   -0.010024
     0.01937
   0.0195113
  -0.0156628
  -0.0140595
   0.0123725
 -0.00156008
   0.0139276
  0.00743265
  -0.0207728
   0.0274346
   0.0118005
 -0.00680319
   0.0258653
  -0.0199124
 0.000738298
  -0.0242824
  -0.0118823
   0.0182613
  -0.0204849
  -0.0245936
  -0.0145843
   0.0109422
 -0.00932314
  0.00432291
    0.013796
  -0.0157231
 -0.00599473
 0.000952582
    0.023819
   0.0190044
   0.0184581
   0.0157657
   0.0114456
  -0.0245398
  -0.0255175
 -0.00365319
  0.00149161
   0.0157162
  -0.0233723
  0.00846216
   0.0156666
   0.0158562
  -0.0259251
   0.0137335
   0.0232575
  0.00224554
   0.0167779
  -0.0160503
 -0.00713961
   0.0234666
  -0.0131317
    0.005948
   0.0072759
  0.00488841
  -0.0171405
 -0.00633559
   0.0166503
  0.00394338
   0.0221225
   0.0132108
 -0.00440693
   0.0135645
  0.00137591
  -0.0202973
   0.0160981
  0.00342098
  0.00345642
 -0.00940732
 -0.00881156
  0.00746604
   0.0263985
  -0.0204191
 -0.00418283
  -0.0272248
   0.0203954
 -0.00828525
  0.00279104
  0.00992555
   0.0028444
    0.023011
   0.0064832
   0.0170329
  0.00172086
   -0.014203
 -0.00530941
   0.0113961
  0.00704296
   -0.015736
   -0.011684
  0.00200892
   0.0245499
    0.011308
   -0.012174
 -0.00195183
   0.0184785
  -0.0229072
  -0.0258861
 -0.00569268
 -0.00479969
 -0.00698811
  -0.0253197
 -0.00608178
 4.51711e-05
 -0.00235908
 -0.00547562
  -0.0068111
    0.016856
   0.0246824
  -0.0244438
 -0.00730275
   0.0206312
  0.00956573
  -0.0174786
 -0.00514691
    0.022968
  0.00468054
  -0.0208933
  0.00273453
    0.016265
 -0.00518357
  -0.0225712
   0.0132258
   -0.020979
 -0.00731365
  -0.0156186
   0.0249196
 -0.00229923
   -0.013972
 -0.00794949
    0.020184
  0.00656037
 -0.00585643
   -0.013045
  -0.0207757
   0.0196347
  0.00912599
 -4.3272e-05
  0.00906211
  0.00674155
   0.0033038
  -0.0259254
 3.34114e-06
  -0.0147522
  -0.0160331
   0.0222702
  -0.0192308
   0.0160505
  -0.0260462
   0.0108196
  0.00464684
 -0.00367045
   0.0158617
 -0.00935339
  0.00260325
  -0.0187272
  0.00248576
 0.000144994
  0.00612456
    0.016098
   0.0197742
 -0.00109746
 -0.00446248
  -0.0134932
   0.0133101
   0.0019247
  -0.0213273
 -0.00497612
  -0.0251352
   0.0148428
   -0.025678
  0.00551185
    0.016501
  0.00167943
   0.0180455
  -0.0272437
 -0.00334711
   0.0265672
   0.0163123
 -0.00223733
   0.0099211
 -0.00607925
   0.0214648
 -0.00152559
   0.0116995
 -0.00317651
  0.00673478
  -0.0130887
   0.0246119
  -0.0142021
  -0.0242108
   0.0166894
   0.0121402
 -0.00149297
  -0.0245269
 -0.00194809
  -0.0265412
   -0.018432
   0.0203291
  -0.0242022
    0.024137
   0.0222851
  0.00868402
   0.0132313
 -0.00360244
-0.000477203
   0.0135002
   0.0204619
 -0.00143785
  0.00234389
 -0.00885596
  -0.0187303
   0.0237995
  -0.0146145
  0.00716677
  0.00825595
  0.00955139
  -0.0133248
   0.0227363
  0.00673891
-8.71558e-05
   0.0260431
 -0.00401388
  -0.0152179
 -0.00275113
-0.000749828
   0.0102628
 -0.00155914
  0.00839763
  0.00340698
  0.00164421
  0.00510511
 -0.00175975
  -0.0169458
 -0.00913077
   0.0223127
   0.0102102
  -0.0229692
   0.0153822
  -0.0183816
  0.00705455
  -0.0209928
 -0.00956083
  0.00335082
 -0.00827166
   0.0250354
  -0.0158419
  -0.0260711
  -0.0156194
  -0.0205893
  0.00801617
   0.0117613
  -0.0218757
  -0.0233282
   0.0239571
  0.00283978
  0.00340365
  0.00683614
  -0.0262042
  -0.0156122
  -0.0171482
  0.00292096
   0.0171061
  0.00853816
     0.01348
  -0.0195559
  0.00347892
 -0.00373392
  -0.0149081
 -0.00869671
  0.00538529
   0.0195623
 -0.00219355
   0.0232535
  -0.0045569
   0.0169246
   0.0209186
  0.00716996
   0.0183198
  -0.0221805
    0.014034
-0.000882927
   0.0169696
   0.0197052
  0.00310547
   0.0136046
 -0.00503515
  -0.0208368
 -0.00685576
 -0.00368622
 -0.00888296
  0.00336366
   0.0267252
  -0.0192684
  -0.0156477
   0.0127865
  -0.0111089
   0.0153133
  -0.0183564
  0.00147166
  -0.0206804
   0.0145825
  -0.0064312
   0.0045963
   0.0103855
   0.0166279
  -0.0058717
   0.0039025
 -0.00366175
   -0.015006
   0.0092767
  -0.0168985
   0.0116375
 -0.00103219
  -0.0246393
  -0.0125956
  -0.0148695
 -0.00213263
 -0.00592703
  0.00570617
   0.0216754
   0.0126781
  -0.0183515
   0.0210608
   0.0209397
  -0.0063483
  0.00646744
  -0.0175388
   -0.018384
   0.0156529
     0.01138
  -0.0116026
  0.00280842
  -0.0223691
   0.0204562
  -0.0141554
   0.0217895
  -0.0127874
   0.0172181
 -0.00914816
 -0.00020376
-0.000956739
  0.00145641
  -0.0160181
   0.0254095
  0.00426248
  -0.0011526
  -0.0168452
  -0.0252514
   0.0203802
   0.0162963
   0.0239072
  0.00569211
   0.0254506
   0.0175509
  -0.0007719
 -0.00828751
 -0.00337308
  0.00915587
  0.00080171
  -0.0151084
 -0.00687325
   0.0167312
   0.0151813
 -0.00175213
  0.00976082
   -0.026365
  -0.0073566
   0.0244992
   0.0182947
   0.0109865
 -0.00312393
  -0.0100452
  -0.0149803
  0.00834226
  -0.0120535
   0.0167798
  -0.0201713
  -0.0014322
   0.0189892
  -0.0271948
  -0.0124683
   0.0154813
   0.0060002
    -0.01446
  0.00566239
  -0.0222206
  0.00475683
  -0.0250736
   0.0144365
   -0.021805
  -0.0127305
  -0.0198297
   0.0223917
  -0.0249796
  0.00589782
  0.00481447
  -0.0238576
   0.0260305
  0.00191667
   0.0219575
  0.00963123
    0.026266
  -0.0154875
   0.0221208
  0.00725159
-6.26576e-05
   0.0115003
   0.0145478
   0.0259899
  0.00312138
   0.0148741
  -0.0138652
 -0.00875666
 -0.00654008
-0.000820962
   0.0243783
 -0.00126144
  -0.0233131
   0.0268697
  -0.0145178
   -0.017677
  -0.0133701
 -0.00638766
   -0.022672
  -0.0108639
     0.02702
  0.00952959
 -0.00712531
   0.0255481
  -0.0159473
  -0.0125916
  0.00778387
  -0.0169854
 -0.00077335
  0.00240634
   0.0174296
   0.0267721
  -0.0135862
  0.00497635
   0.0253319
    0.017234
 -0.00749562
  -0.0160204
   -0.019006
   0.0131886
   0.0108032
  -0.0219032
  -0.0152945
   0.0150555
  -0.0227366
 -0.00225495
    0.024624
  -0.0084728
    0.018805
  -0.0256572
  0.00835923
   0.0182337
   0.0115504
   -0.026356
   0.0162826
   0.0230749
  -0.0114316
 -0.00326143
  -0.0215228
   0.0153463
   0.0268269
   0.0236107
   0.0147956
   -0.014396
  0.00136356
   0.0126439
  -0.0245327
   0.0211466
   0.0244819
   -0.015946
  0.00702074
  0.00779866
  -0.0105274
   0.0191618
 -0.00460546
 -0.00547928
  -0.0103637
 -0.00724337
   0.0133295
  -0.0189119
   -0.005614
 -0.00592054
   0.0268714
  -0.0215609
 -0.00487389
    0.015779
  -0.0260438
   0.0113363
   -0.014889
  -0.0199773
-0.000804243
  -0.0155092
  -0.0235371
  -0.0133502
 -0.00213676
  0.00518756
   0.0266871
 0.000840395
 -0.00105555
   0.0241271
   0.0125585
  -0.0213984
  0.00454924
  -0.0255367
   0.0251398
  -0.0275091
 -0.00359962
  -0.0123285
 -0.00729767
  -0.0175671
 -0.00400605
   0.0144864
  0.00407675
 -0.00447384
   0.0202834
   0.0267087
  -0.0160145
    0.022322
   0.0103603
 -0.00337491
  -0.0248879
  -0.0178118
  0.00867321
  -0.0210859
 -0.00393042
  -0.0206412
   0.0116781
 -0.00426403
  0.00752925
  -0.0170026
 -0.00806092
 -0.00731544
  -0.0109327
   0.0244385
 -0.00516485
  -0.0132083
   0.0242636
   0.0186841
  0.00177491
  -0.0107659
  -0.0263212
   0.0253284
   -0.023537
  0.00532179
 -0.00671999
   0.0244863
  0.00424554
  0.00505174
   0.0190203
  -0.0127682
  -0.0254832
   0.0214403
 -0.00351256
   0.0109395
  -0.0269888
   0.0203284
   0.0177833
   0.0122768
  -0.0117399
 -0.00216139
   0.0228489
   0.0080593
   0.0183345
    -0.01589
  0.00507779
  -0.0142643
 -0.00137225
  0.00186753
  -0.0227613
  -0.0270479
   0.0187501
  -0.0217063
   0.0257521
   0.0223018
    0.011075
 -0.00804312
   0.0196771
  -0.0120368
   0.0242466
   0.0114748
  0.00231713
   0.0259842
  0.00551255
    0.026723
  0.00942215
  0.00614186
   0.0194374
-0.000273549
 -0.00909209
  -0.0194627
   0.0248447
  -0.0137248
   0.0159195
   0.0159352
 -0.00174891
 -0.00650389
  -0.0259737
   0.0243921
   0.0226759
   -0.021003
    0.025219
   0.0139328
  -0.0152117
   0.0233283
  0.00913226
   0.0231568
  -0.0122225
  0.00147557
  -0.0160713
  -0.0151002
  -0.0147516
   0.0135796
  -0.0165061
   0.0186444
   0.0129549
   0.0204579
 -0.00254924
   0.0051697
 -0.00736257
   0.0160398
   0.0131621
 -0.00958151
  -0.0249618
  0.00184485
  -0.0211139
 0.000784248
   0.0229175
  -0.0194109
  -0.0020411
   0.0183798
  -0.0130676
 -0.00434701
  0.00481589
-0.000817514
 -0.00823189
  -0.0135598
 -0.00497254
   0.0070749
   0.0151844
  0.00625359
   0.0192927
  -0.0268183
 -0.00741663
  -0.0246816
   0.0191329
  -0.0218463
   0.0233746
  -0.0107597
   0.0107033
  -0.0113425
  -0.0221211
 -0.00350766
  0.00649186
  -0.0195915
   0.0258557
   0.0127772
  0.00879826
    0.021441
   0.0208341
  -0.0207242
   0.0123541
  -0.0196094
  0.00256589
  -0.0103288
   0.0070869
    0.021721
  0.00363919
  -0.0253921
  0.00142155
 -0.00863099
  0.00842661
   -0.006537
 -0.00806936
  -0.0265061
 -0.00374052
  -0.0161562
   -0.020904
  -0.0077393
 0.000477337
   0.0173707
  0.00822939
   0.0059323
  -0.0134838
  -0.0125848
    0.013913
  -0.0151274
  -0.0271856
 -0.00475425
  -0.0211538
   0.0211117
  0.00215273
   0.0186383
  -0.0259254
  -0.0227245
  -0.0189511
  0.00863106
   0.0265096
   0.0121676
   0.0107107
 0.000592622
  -0.0239393
 -0.00832746
   0.0214658
  -0.0044646
 -0.00726257
 -0.00960089
  0.00687938
 -0.00057601
   0.0100745
  -0.0199474
  -0.0106949
 -0.00904761
   0.0134813
   0.0032989
  0.00585013
 2.37741e-06
   0.0156983
  0.00614026
   0.0227882
   0.0221003
-0.000125075
  -0.0024359
   0.0134015
  0.00146347
  0.00234297
   0.0218904
  -0.0173284
   0.0014951
  0.00659685
   0.0208984
  -0.0252652
    0.010167
  -0.0147931
   0.0237447
   -0.021655
  0.00540866
  -0.0132508
   0.0126817
  -0.0226332
   0.0243097
   0.0201905
 -0.00581112
   -0.012102
  0.00627423
    0.024965
   0.0212347
  -0.0211117
   0.0132726
-2.43733e-05
  -0.0257139
  0.00797845
   0.0273393
-0.000667513
 -0.00601217
   0.0014102
  -0.0257218
  -0.0115092
   0.0115714
  0.00325945
   0.0225691
  0.00507297
   0.0054819
  0.00535148
   0.0177608
  0.00183474
   0.0111781
  -0.0042227
   0.0160652
 -0.00353448
 0.000626654
   0.0129853
  -0.0107309
   0.0222972
  -0.0265175
   0.0230301
   0.0198789
   0.0222019
  -0.0254731
  0.00575245
 -0.00521145
  -0.0237101
  -0.0136581
 -0.00526247
  0.00311461
  0.00782144
   0.0236291
  0.00488086
   0.0237949
  0.00780169
  -0.0192544
   0.0189802
  -0.0145216
    0.013713
 -0.00306402
  -0.0241474
  -0.0118463
  -0.0192792
-0.000883718
  -0.0231757
   0.0046766
   0.0272269
   0.0172939
   0.0214285
   0.0221321
   0.0182682
   0.0170695
   0.0146193
   0.0130815
   0.0190808
 -0.00701691
  -0.0195281
   0.0228603
  0.00681282
  0.00269538
 -0.00141809
  -0.0127593
 -0.00106731
  -0.0239314
  -0.0163541
  -0.0206548
  -0.0156975
  -0.0247672
 -0.00768605
   0.0255045
-0.000343707
  -0.0043486
  -0.0137365
  0.00786642
   0.0222515
 -0.00942332
  -0.0148478
   0.0220856
  -0.0195215
  -0.0208086
   0.0168275
    0.026232
   0.0237488
  0.00405193
   0.0119165
   0.0154355
   0.0245205
   0.0198771
   0.0109038
  0.00393978
 -0.00482099
  -0.0179078
   0.0186677
   0.0215989
   -0.014352
  -0.0250799
  -0.0264495
 -0.00256236
    -0.02236
  -0.0066484
 -0.00445135
  0.00478347
   0.0164902
  0.00929933
  -0.0147436
   0.0113482
   0.0273632
 -0.00210428
  0.00604028
  -0.0195519
  0.00457429
 -0.00452571
  -0.0207133
 0.000929624
   0.0270134
   0.0186903
  -0.0110284
   0.0241403
   0.0111739
   0.0273625
 0.000686603
  -0.0210406
  -0.0179388
 -0.00803923
  -0.0268352
 -0.00480367
 -0.00563196
  -0.0257976
   0.0201211
-0.000504778
 -0.00495883
  -0.0117237
  -0.0231148
  -0.0158622
   0.0250628
  -0.0103713
   0.0229731
   0.0250324
   0.0150116
   0.0016199
   -0.021913
 -0.00780761
   0.0245813
  -0.0151392
   0.0206092
   0.0242012
  -0.0238424
  -0.0178127
    0.020948
   0.0148187
  -0.0178437
 -0.00575889
   0.0212653
 -0.00829534
    0.013689
   0.0219172
   0.0143881
  -0.0193364
   0.0236068
  0.00711576
  0.00764594
 -0.00874554
   0.0228792
   0.0120183
  0.00287943
   0.0205484
  -0.0257465
 -0.00154095
   0.0181873
   0.0167523
  -0.0273146
   0.0237615
  -0.0184489
   0.0247539
  -0.0187712
  -0.0252332
   0.0215616
  -0.0151264
  -0.0155588
   0.0151161
   0.0271795
 -0.00591532
  -0.0180363
   0.0210513
   0.0132765
   0.0231399
    0.015575
 0.000271134
    -0.02359
   0.0117883
  -0.0200066
   0.0115431
  -0.0243507
  -0.0245209
 -0.00383217
  0.00601584
   0.0235147
 -0.00209152
  -0.0229186
   0.0143085
  -0.0127328
   -0.022746
   0.0106765
 -0.00369449
  -0.0253856
   0.0193925
 -0.00144055
   0.0236632
  -0.0231274
   0.0104878
   0.0113858
  -0.0233414
   -0.022821
   0.0208366
    0.025197
   0.0179426
    0.016583
   0.0133785
 -0.00917974
   0.0204802
 -0.00222667
  -0.0016992
  0.00462971
 0.000909745
  0.00126702
   -0.026596
  -0.0204679
 -0.00261183
 -0.00120033
  -0.0158994
  -0.0156969
   0.0135541
  -0.0111583
   0.0224668
  -0.0175339
 -0.00905672
   0.0144657
  0.00851266
  -0.0127871
   0.0188255
 -0.00839303
   0.0260859
   0.0229712
 -0.00372689
    0.019529
   0.0207747
  -0.0131778
  0.00871854
  0.00675973
  0.00512965
  0.00180519
  -0.0228605
  -0.0239631
  -0.0209586
  0.00553644
  0.00479112
  -0.0200674
   0.0125557
  -0.0252142
   0.0062194
   0.0241434
  -0.0134239
 -0.00762006
  -0.0144083
  -0.0183507
  0.00233315
  0.00402211
   0.0236022
  -0.0165477
   0.0187222
   0.0150341
  0.00254642
   0.0174146
   0.0106118
   0.0263067
  0.00955006
  0.00399301
  -0.0142646
 -0.00912492
  -0.0166408
   0.0183522
   0.0201674
  -0.0120141
   0.0218763
    0.026696
   0.0210095
-0.000726075
   -0.020765
  0.00617169
  0.00154686
   0.0129416
  0.00292162
   0.0156101
   -0.022072
   0.0160004
   0.0247466
  0.00774834
 -0.00737096
   0.0209552
   0.0186878
  -0.0160423
  0.00859587
 -0.00615929
  -0.0260212
 -0.00818582
 -0.00724612
    0.011016
   0.0232944
  0.00597644
  -0.0255024
  -0.0207399
 -0.00306485
   0.0221522
 -0.00526685
 -0.00858205
   0.0214546
  -0.0116508
    0.018179
  -0.0267039
    0.022008
 -0.00766762
   0.0137249
 -0.00246388
  -0.0194511
   0.0191401
  -0.0138569
   -0.022098
-0.000505074
  0.00625925
   0.0263444
 -0.00921079
   0.0177041
  0.00754676
   0.0121171
   0.0191701
   0.0268481
  -0.0225226
  0.00279256
   0.0227489
    0.010941
  0.00477728
  -0.0253845
  -0.0195173
-0.000464078
 -0.00316419
-0.000612216
 -0.00640297
   0.0126721
  -0.0098267
 -0.00561967
  0.00728663
  0.00999283
  -0.0192883
  -0.0225708
   0.0180289
    0.027339
 -0.00894055
   0.0234181
 -0.00055961
   0.0248059
    0.022369
   0.0177168
   0.0151165
  0.00252222
  0.00244032
  0.00689305
  0.00197681
  0.00740492
  -0.0177079
 -0.00266776
 -0.00904754
   0.0145565
-0.000565109
 -0.00107771
  -0.0133011
   0.0237579
   0.0257972
  0.00778312
  0.00903647
   -0.011423
  -0.0252301
  -0.0110704
    0.026057
  -0.0170312
 -0.00615402
   0.0166924
  -0.0170857
   0.0123926
    0.012717
  0.00984184
  0.00980493
  0.00769249
 0.000165082
  -0.0024721
  -0.0171788
  -0.0247881
  -0.0229726
   0.0122852
    0.010104
  -0.0131933
  -0.0177761
  -0.0263371
  -0.0260303
  0.00914594
 7.23693e-05
  -0.0118442
  0.00551028
 -0.00152391
   0.0234261
  -0.0128468
   0.0145403
   0.0256832
  0.00356999
   0.0132038
  -0.0187415
   0.0249031
   0.0025027
 -0.00834006
  0.00990221
  -0.0121738
  -0.0258917
 -0.00768637
   0.0230059
   0.0017605
   0.0173287
  -0.0215665
  0.00445955
   0.0218433
   0.0182059
    -0.01283
  -0.0187436
  -0.0269637
  -0.0116799
  -0.0172867
  0.00966935
   0.0158796
 -0.00164374
  -0.0122139
  -0.0130378
 -0.00561118
  0.00242652
  -0.0258911
 -0.00732151
   -0.021397
   0.0147999
  0.00142414
  -0.0238874
  -0.0100909
   0.0205712
    0.013502
  0.00522242
   0.0221666
  -0.0215779
 0.000834767
 -0.00346637
   0.0232379
  0.00675547
  -0.0264003
   0.0176877
 -0.00243217
  -0.0117432
   0.0264313
 -0.00190876
  0.00406407
  -0.0182489
  -0.0196329
 -0.00744983
  0.00759451
 -0.00435965
  0.00699951
  -0.0254102
    0.025554
  0.00859562
 -0.00524453
  -0.0232365
 -0.00399802
   0.0236668
  -0.0196367
   0.0133982
   0.0168445
   0.0213524
 -0.00877289
   0.0116176
   0.0272617
    0.019549
  -0.0192423
   0.0231061
 -0.00108901
  -0.0181554
   0.0134003
    0.023966
 -0.00241146
    0.012438
 -0.00533631
  -0.0257409
   0.0216763
  0.00251792
 -0.00570357
  0.00187729
   0.0256454
  -0.0260976
  0.00395427
    0.023806
   0.0099852
   0.0261969
   -0.026824
  -0.0214063
   0.0224701
  -0.0189736
    0.019479
   0.0119211
  -0.0250147
  -0.0166874
 -0.00385479
  -0.0251466
  -0.0245319
   0.0043901
   0.0254466
  0.00186627
   0.0137218
   0.0114534
 -0.00156127
  -0.0160832
 -0.00350208
   0.0205896
  -0.0143369
  -0.0092193
 -0.00428601
  0.00744668
   0.0201452
 -0.00603409
  0.00883627
 -0.00329409
 -0.00962165
 -0.00857204
  -0.0044907
 -0.00895854
 -0.00249122
 -0.00941407
-0.000444993
  -0.0104057
  -0.0248865
  0.00202744
 0.000394058
  -0.0012541
  0.00436802
  0.00334934
  -0.0242575
  0.00242115
  -0.0221779
   0.0169515
   -0.013519
  0.00374799
  -0.0265252
   0.0104661
 -0.00305594
   -0.013375
  -0.0261467
   0.0201452
   0.0215589
   0.0214856
  -0.0132824
  0.00300163
 -0.00920201
  0.00458312
   0.0219167
   0.0137944
   0.0231117
 -0.00796798
  -0.0230131
 -0.00472677
  0.00911346
  -0.0204124
   0.0247878
   -0.017886
  0.00582061
  0.00176234
   0.0129505
  0.00905026
    -0.02321
   0.0182598
  -0.0013918
 -0.00924183
 -0.00538575
-0.000429856
  -0.0261692
   0.0190455
   0.0136823
  -0.0248288
   0.0117972
   0.0078477
    0.024144
   0.0260019
  -0.0165442
  -0.0124516
  0.00319153
  -0.0220209
  -0.0260506
 -0.00109025
 -0.00250177
  -0.0215766
   0.0216701
  -0.0207818
  -0.0145019
   0.0190645
  -0.0111807
   0.0188059
  -0.0065667
  -0.0256237
 0.000462613
 -0.00228956
   0.0201233
    0.026558
   0.0159558
   -0.012656
  -0.0012654
   0.0172737
   -0.021004
  -0.0149766
    0.019932
   0.0182803
   0.0203583
   0.0166825
   0.0168887
  -0.0235794
  -0.0231626
 -0.00731331
  -0.0181132
  -0.0217261
   0.0190836
   0.0068722
  -0.0158155
   0.0133602
   0.0135775
 -0.00283029
  0.00503118
  -0.0249966
  -0.0114179
   0.0259516
  -0.0231331
   0.0165318
 -0.00373143
   0.0244773
   0.0156963
  -0.0151692
  -0.0155722
  -0.0129626
   -0.025289
 -0.00908911
 -0.00045202
   0.0221302
  -0.0182024
 -0.00748724
   0.0114192
   0.0261735
 -0.00357948
   0.0157437
 -0.00853336
  0.00579449
   0.0215048
  -0.0168433
  -0.0147268
  -0.0217043
   0.0240041
   0.0263379
   0.0029526
  0.00164178
  -0.0260523
   0.0190218
 0.000199906
  -0.0216982
  0.00816016
   0.0239556
  -0.0246145
 -0.00353706
  -0.0186071
  -0.0126995
   0.0109875
  -0.0164089
  0.00569853
   -0.016858
  -0.0216722
   0.0149833
  0.00314188
   0.0172341
   0.0137633
   0.0270496
  0.00558427
  -0.0221636
  0.00545054
-0.000304456
  -0.0115197
   0.0182109
  0.00547843
  -0.0149091
   0.0171553
  -0.0189625
   0.0142198
   0.0185901
  -0.0273342
  -0.0129738
   0.0243791
  0.00831315
  -0.0164117
   0.0272518
  -0.0226174
 -0.00753156
  -0.0128413
   0.0158572
  0.00354669
   0.0203444
   0.0264863
  0.00936161
  0.00793424
  0.00223471
-0.000797822
   -0.005696
  0.00189075
  -0.0226071
-0.000372429
  -0.0200522
  0.00457564
    0.015595
   0.0256458
  -0.0173394
  -0.0267076
   0.0154076
 -0.00881476
   0.0149994
  0.00660419
 -0.00866177
  -0.0253679
  0.00358975
   0.0271385
  -0.0142924
  0.00344801
  -0.0228724
  0.00566317
   0.0180939
    0.020472
  -0.0181837
   0.0110448
   0.0195648
   0.0186651
 -0.00841446
 -0.00559397
 -0.00952622
   0.0133767
   0.0237839
 -0.00464612
  -0.0143892
  -0.0236618
   -0.027464
  -0.0261877
  -0.0254095
  -0.0173163
  -0.0254082
   0.0174852
  0.00135432
   0.0170811
 -0.00330254
   0.0201793
   0.0191966
  -0.0271097
   0.0199258
  -0.0224859
  0.00382506
   0.0245402
   0.0106613
 -0.00547202
   0.0176194
   0.0199663
  -0.0218225
   0.0097915
   0.0112386
 -0.00274909
  -0.0231952
   -0.025684
  -0.0167684
  -0.0268071
 -0.00284269
 -0.00366723
  -0.0229782
 -0.00281795
  -0.0023657
  -0.0209028
  0.00735501
-0.000290476
   0.0240697
  -0.0186834
  -0.0106042
 -0.00662733
  -0.0258988
   -0.018799
 -0.00624735
   0.0215173
  -0.0138025
   0.0250644
   0.0186664
   0.0243499
 -0.00779909
  0.00889306
   0.0169174
 -0.00213373
 -0.00871198
 0.000763918
   0.0226039
  -0.0044199
  0.00256898
  -0.0215526
 -0.00374011
   0.0272145
  0.00226378
 0.000766206
 -0.00299701
   0.0273847
  0.00734984
  -0.0230405
-0.000299663
  0.00402728
  -0.0142355
   0.0165855
   0.0248876
  -0.0126474
   0.0252754
 -0.00875469
  -0.0185243
  -0.0159211
   -0.011084
  -0.0272523
  -0.0189674
  0.00860289
  0.00912652
   0.0254416
  -0.0209246
  -0.0269787
 -0.00118897
  -0.0257122
 -0.00391318
  -0.0260136
  -0.0197806
   0.0198325
  -0.0261929
  0.00997037
 -0.00679281
 -0.00170662
  0.00996652
  -0.0268343
  0.00274235
  -0.0177275
  0.00467966
   0.0159908
    0.026345
  0.00217106
  -0.0240492
   0.0242263
   0.0209026
  -0.0150842
  -0.0190923
  -0.0175677
  -0.0148443
  -0.0105685
     0.01852
   0.0217677
  -0.0125262
   0.0250836
   0.0222651
   0.0137805
   0.0268513
 -0.00902329
   0.0152455
   -0.020327
  -0.0165931
   0.0165407
   0.0171387
   0.0041032
  -0.0125567
-0.000296325
  0.00474983
   0.0176681
  0.00947272
  -0.0179528
  0.00627553
  0.00842572
    0.011706
  0.00971328
  0.00525949
  0.00521071
   0.0221259
   0.0136509
   0.0151241
  -0.0201242
  -0.0243154
  0.00624553
  -0.0257518
 -0.00935692
   0.0039297
   0.0240029
    -0.02296
  0.00338228
  -0.0124273
    0.019776
   0.0105409
 -0.00153337
  0.00892404
 0.000280961
  -0.0248196
   0.0238485
  -0.0274056
   0.0074224
   0.0141294
  0.00954886
   0.0169419
 -0.00699171
 -0.00942351
  0.00125768
  -0.0246734
   0.0233106
  -0.0209347
    0.024944
   0.0095732
   0.0216784
  -0.0225916
   0.0127492
 0.000534529
  -0.0208556
  -0.0239914
  -0.0229279
  -0.0242412
  -0.0194789
  0.00794314
 -0.00917866
  -0.0270866
 -0.00890542
   0.0167661
  0.00931652
   0.0188832
   0.0194332
  0.00578433
   0.0189661
-0.000538016
 -0.00747721
  0.00112068
  -0.0109927
   0.0130282
   0.0191879
   0.0177506
   0.0158469
   0.0151021
   0.0242926
   0.0133843
 -0.00271578
   0.0185898
   0.0182867
  -0.0173584
 -0.00827067
   0.0249164
  -0.0138678
 -0.00369755
  -0.0267142
 -0.00584422
  -0.0231404
 -0.00839416
 -0.00541862
 -0.00460069
  -0.0190384
  -0.0235185
  -0.0130684
  -0.0269807
  0.00977424
  -0.0215371
-7.54909e-05
  -0.0251082
  0.00706493
   0.0164356
   0.0154166
 -0.00114031
   0.0068034
  0.00384587
  -0.0134077
   0.0037448
  -0.0101573
   0.0113652
 -0.00507142
  -0.0192876
   0.0214902
   0.0141171
  -0.0217385
  -0.0197394
  -0.0170023
  -0.0209925
  0.00186931
  -0.0126362
 -0.00194995
   0.0239059
   0.0102087
  0.00653355
  -0.0269962
   0.0246274
  0.00696822
   0.0102121
  -0.0243181
  -0.0204168
   0.0125807
   0.0102662
   0.0234657
 0.000597762
  -0.0182814
  0.00290038
  -0.0229834
 -0.00419083
  -0.0207977
 -0.00566131
  -0.0202342
  0.00160652
  0.00252594
  -0.0261429
  -0.0116243
  0.00824083
  -0.0183947
 -0.00112963
   0.0147392
   0.0108859
     0.01374
  -0.0146124
  0.00741174
 -0.00342812
   0.0194376
  0.00796444
 -0.00623091
-0.000924592
 -0.00922819
 -0.00300992
  0.00610923
  -0.0240925
  -0.0201796
   0.0022863
   0.0039919
  -0.0109209
  -0.0222013
  0.00851887
   0.0124081
  -0.0155053
  -0.0245514
   0.0196598
   0.0136553
   0.0054067
   0.0210094
  -0.0254047
   -0.013761
  -0.0247837
 0.000999196
  -0.0263638
   0.0136335
  -0.0126568
  -0.0134991
   -0.006325
   0.0113557
  -0.0214278
  -0.0256644
   -0.022191
  0.00507818
 -0.00757356
  0.00223713
  -0.0162311
 -0.00402714
  0.00952398
   0.0136484
  -0.0274307
   0.0261311
   0.0188959
  0.00845741
   0.0110705
  -0.0240173
   0.0114449
  0.00348044
   0.0171614
  -0.0105338
 -0.00307291
   0.0192289
  0.00327566
-0.000333606
 -0.00711465
  0.00433527
  -0.0141364
  0.00767066
   0.0182857
  0.00703217
 -0.00830944
   0.0242645
  0.00865902
 -0.00311369
  0.00216894
  -0.0263069
    0.026555
   0.0134254
  -0.0028978
  0.00877178
-0.000334181
 -0.00286363
  0.00750509
 -0.00894563
  -0.0217142
 -0.00873685
 -0.00546374
   0.0171721
   0.0220863
  -0.0156908
  -0.0205916
 -0.00830072
  -0.0237811
   0.0100082
   0.0188027
 -0.00358512
  -0.0129896
  -0.0227197
  -0.0232389
   -0.021954
   0.0116317
 -0.00409795
  -0.0250544
 -0.00692988
   0.0201704
  0.00460814
 -0.00573703
   0.0194626
 -0.00950177
   0.0190279
 0.000938191
   0.0176595
  -0.0111292
  -0.0190198
  -0.0186231
  -0.0053321
-0.000317055
  0.00328988
   -0.015365
 -0.00558792
   0.0151553
 -0.00854734
   0.0136425
      0.0188
  -0.0258715
  0.00501437
  -0.0121589
  -0.0113377
  0.00968745
 -0.00793362
 -0.00589733
 -0.00598433
   0.0154733
 -0.00337086
   0.0146392
  0.00831899
  -0.0262813
  -0.0183986
 0.000363713
 -0.00827804
    -0.02637
  -0.0257199
   -0.018413
   -0.010361
  -0.0179831
 -0.00896719
   0.0118134
  0.00959222
   0.0218984
   0.0238506
  -0.0232408
  0.00906778
  -0.0119944
   0.0176514
 0.000701276
  -0.0104129
 -0.00508082
   0.0161739
  0.00550626
  -0.0224922
  -0.0194439
   0.0275778
 -0.00126251
   0.0238165
 -0.00322229
  -0.0142554
  0.00454121
  -0.0023091
 -0.00485949
  -0.0220549
   0.0170256
 -0.00387986
  -0.0212832
   0.0262019
   0.0134391
  -0.0112392
  -0.0101887
 -0.00228552
   0.0258173
  -0.0159475
 -0.00570534
  -0.0252571
    0.020867
  0.00930961
   0.0201669
 -0.00569539
   0.0262507
  -0.0122816
  -0.0167795
    0.004519
 -0.00702685
 -0.00913131
  0.00491309
   0.0189631
  -0.0124662
  -0.0263333
  -0.0221514
   0.0196682
-0.000945023
 0.000902311
   0.0245302
  -0.0114505
   0.0242062
  -0.0232322
  -0.0125147
   0.0103997
 -0.00766833
  0.00495751
  -0.0202382
 -0.00914741
    0.016749
  0.00157142
 -0.00677329
  0.00983618
  -0.0168989
  -0.0138013
  -0.0232267
  -0.0179723
  0.00145877
  -0.0124698
   0.0142748
   0.0217297
  0.00641307
 -0.00849358
   0.0131938
   0.0213316
  -0.0075897
   0.0190615
   0.0136442
   0.0188109
 -0.00732659
   0.0110368
    -0.01992
  -0.0104019
   0.0150233
 -0.00433045
   0.0269912
  -0.0197741
  -0.0270876
  -0.0202428
-0.000776153
    0.018279
  0.00768449
   0.0190618
-0.000835018
   0.0197474
  -0.0217253
  0.00492706
  -0.0255063
  0.00622921
   0.0205824
   0.0156935
   0.0011844
 -0.00198517
  -0.0202549
  -0.0131931
 -0.00836765
 0.000470889
  -0.0219814
  -0.0212033
 -0.00961261
 -0.00120516
   0.0165496
-0.000390743
   0.0164476
  0.00338108
   0.0211165
   0.0150566
   0.0114313
   0.0227526
   0.0230299
  -0.0167779
   0.0108122
  0.00270249
  -0.0238879
  -0.0168856
 -0.00445022
  -0.0196433
    0.015549
 -0.00289396
   0.0163649
  0.00654896
   -0.015144
  -0.0117789
  -0.0223144
 -0.00706822
  0.00260318
 -0.00224263
   0.0209811
  0.00848834
  0.00371043
  -0.0155344
  -0.0185173
 -0.00814624
    0.011244
   0.0232694
    0.025228
  0.00683105
   0.0114607
   0.0103887
-0.000478736
   0.0079556
   0.0206293
  -0.0151367
  -0.0170918
   0.0245837
 -0.00502225
  0.00646342
  -0.0235333
  -0.0160969
  -0.0230925
   0.0186342
   0.0181991
   -0.011023
  -0.0207398
   0.0249722
   0.0106363
   0.0088398
 -0.00445768
  0.00440447
 -0.00765081
   0.0261358
   0.0174469
-0.000232568
 -0.00873495
  0.00102021
 -0.00377789
 -0.00932525
  -0.0206076
  -0.0198809
  -0.0265522
  0.00757192
   0.0139872
   0.0221188
   0.0196057
   0.0266057
   0.0175155
   -0.012126
  0.00508295
    0.021935
  0.00023322
    0.011431
  0.00979253
  -0.0103696
   0.0254059
   0.0214423
  -0.0122476
   0.0105187
  0.00371444
  0.00627238
  -0.0107525
   0.0216612
  0.00621975
   -0.024572
 -0.00632301
   0.0245476
  0.00211602
   0.0166568
  -0.0150592
   0.0118212
   0.0210261
  -0.0114348
  -0.0105183
   0.0133601
  -0.0150108
  -0.0199086
  0.00813373
  -0.0284891
 -0.00306713
  -0.0115512
   0.0235058
   0.0260302
   0.0214684
  0.00453376
  -0.0117463
   0.0207885
 0.000911564
 -0.00206354
  0.00527981
  -0.0246735
  -0.0157461
   0.0149279
   0.0217588
   0.0146149
   0.0189648
  -0.0110899
   0.0116449
 -0.00347954
  -0.0187007
  -0.0298348
  -0.0216415
  -0.0248398
 -0.00947392
 -0.00640573
   0.0141616
 -0.00136238
  0.00765286
-0.000619418
 -0.00234326
   -0.022306
   0.0106105
  -0.0025906
  -0.0255626
  0.00884423
  -0.0264377
 -0.00792017
 0.000324193
  0.00167844
   0.0157772
  -0.0224503
  0.00662855
   0.0216589
   0.0198694
   0.0006968
  0.00731464
   0.0159123
   0.0195971
 -0.00884473
  -0.0150768
  -0.0257661
 -0.00442805
 -0.00963636
  -0.0213278
   0.0109447
   0.0125646
   0.0199286
  -0.0166168
 -0.00215361
 -0.00857195
  0.00990787
   0.0031779
  -0.0248902
  -0.0256579
  0.00677077
   0.0108659
  -0.0186315
   0.0228203
  -0.0159585
  0.00941814
   0.0116651
  -0.0109181
 -0.00984462
   0.0015407
  -0.0199723
   0.0159253
 -0.00866423
   0.0217092
   0.0112011
   0.0122674
  -0.0285247
   0.0149394
  -0.0226075
  -0.0102861
   0.0159795
   0.0152559
  -0.0239672
  0.00687411
   0.0235619
 -0.00452518
   -0.025472
 0.000826799
  -0.0248035
  -0.0257515
   0.0112564
   0.0115075
   0.0100018
   0.0122113
 0.000868695
   0.0238348
 -0.00290522
  -0.0120271
  -0.0125723
  0.00632343
   0.0156109
 -0.00632313
 -0.00306055
  -0.0174188
  -0.0194745
  -0.0168369
   0.0190333
 -0.00995482
   0.0153981
   0.0197148
  0.00299753
  0.00554833
  0.00860829
  0.00577584
  -0.0114123
  0.00996518
  -0.0248564
  -0.0126697
  -0.0175997
  -0.0160597
  -0.0131356
   0.0186885
   0.0169361
  -0.0215226
  0.00941424
 -0.00946502
  -0.0251899
  -0.0270648
   0.0103517
  -0.0129872
   0.0128054
 -0.00238517
   0.0115385
  -0.0212109
  0.00681384
    0.016898
  -0.0126509
  0.00143707
  -0.0287148
  -0.0249632
 -0.00690517
-0.000704152
   0.0138609
  -0.0228564
  -0.0224148
   0.0298491
   0.0151353
    -0.01046
  -0.0104838
   0.0282262
 -0.00243194
  0.00479771
    0.019135
   -0.011282
   0.0181714
  0.00102715
  0.00860816
   0.0210281
  0.00101056
  -0.0160084
  -0.0172888
  -0.0147903
    0.018007
   0.0169584
 -0.00859145
 -0.00504666
  0.00723895
  0.00633937
   0.0251255
 0.000738886
  0.00689236
  -0.0107959
  -0.0139483
 -0.00921358
 -0.00221553
 -0.00533458
  -0.0166274
  -0.0115194
  0.00782378
 0.000306922
  -0.0166996
  -0.0222573
  -0.0196954
  -0.0268592
  -0.0101381
   0.0180413
   0.0057406
   0.0191387
   0.0174377
  -0.0236653
  -0.0137977
   0.0300834
  -0.0138588
    0.021055
   0.0115644
  0.00790546
 -0.00786092
 -0.00533233
  -0.0112698
  -0.0196926
      0.0215
    0.020997
 -0.00109213
  -0.0157767
  -0.0244247
   0.0279262
  0.00163708
-0.000855658
  -0.0237203
  -0.0230612
   0.0220018
  -0.0110025
   -0.016969
  -0.0262228
 -0.00602379
  0.00685945
   0.0213224
    0.023479
 -0.00315838
   0.0181784
  -0.0301077
  0.00807255
   0.0137923
 -0.00489675
  0.00849882
 -0.00192303
  -0.0251634
   0.0210142
   0.0252818
  -0.0116189
  -0.0190716
   0.0189756
  -0.0138354
  0.00289178
   -0.025561
  -0.0133787
 0.000158537
  0.00712532
  0.00305206
  0.00340498
   0.0111423
 -0.00525807
   0.0268713
  -0.0301541
 -0.00405782
 -0.00697989
  0.00468799
    0.001432
  -0.0110123
  -0.0218158
  -0.0114352
  -0.0130394
   0.0135253
  -0.0234284
   0.0189395
 -0.00523733
  0.00469217
   0.0222012
  -0.0129262
 -0.00604484
  -0.0151399
 -0.00621123
 -0.00429368
 -0.00657576
    0.023712
 -0.00558169
  0.00760123
 -0.00318425
   0.0306917
   -0.022314
   0.0251805
   0.0129083
   0.0154166
   0.0212922
   0.0150352
  -0.0116416
  -0.0243197
 -0.00469438
   0.0129875
 -0.00860544
 -0.00550732
   0.0288756
  0.00935722
  -0.0212038
  -0.0266896
 -0.00830926
  0.00527664
  -0.0026774
 -0.00696103
   0.0165755
   0.0304147
  0.00904774
  -0.0195558
  -0.0135732
   0.0199986
  -0.0200124
   0.0125777
  0.00427701
  0.00573215
  0.00522751
  0.00717093
  0.00131458
  -0.0078536
 0.000770651
  -0.0141377
  -0.0159124
   0.0110601
  0.00256188
 -0.00774905
 -0.00866103
   0.0162128
   0.0166945
 -0.00730204
 -0.00267427
   0.0275649
   0.0008101
   0.0185072
  0.00159823
  -0.0313704
 -0.00857119
  -0.0119042
   0.0237881
   0.0196588
   0.0089452
  -0.0106722
   0.0119866
   0.0152453
   0.0219022
 -0.00494999
  -0.0090151
   0.0072904
  -0.0254913
   0.0248752
   0.0223245
 0.000989648
  -0.0198461
    0.030125
  -0.0110155
 -0.00121669
  -0.0054621
  0.00682104
  -0.0153032
 -0.00806411
  -0.0248478
  0.00856342
 -0.00762166
  0.00409056
   0.0127847
   0.0211019
  0.00442024
   0.0287862
  -0.0181719
 0.000694889
     0.02214
   0.0291291
   0.0183624
   0.0107652
   0.0184308
   0.0111303
   0.0237777
  -0.0164642
  -0.0104684
  -0.0182653
  -0.0245324
  -0.0166174
  0.00671074
  -0.0169639
  -0.0146021
   0.0225651
  0.00586142
   0.0056566
  0.00185648
  -0.0237878
   0.0210522
  0.00928417
   0.0180712
  -0.0260091
  -0.0122012
 8.92476e-05
   0.0204709
   0.0147428
 0.000842986
  -0.0205762
  -0.0130531
 -0.00881094
  -0.0269695
  -0.0188856
    0.022121
   0.0239945
   0.0177946
   0.0279031
  -0.0165694
  -0.0222614
   0.0252219
  -0.0221409
 -0.00922821
  0.00742699
 -0.00853263
  0.00488262
 -0.00503703
  -0.0323284
  -0.0186781
   0.0251236
  -0.0235014
   0.0222392
   0.0105154
   0.0176286
  -0.0207196
   0.0141529
  -0.0138616
    0.023571
  0.00316615
   0.0139158
  -0.0248212
   0.0215976
  -0.0161825
  -0.0226623
  -0.0284512
  -0.0224108
  -0.0206035
   0.0152073
  -0.0241534
  -0.0158862
  -0.0243199
   -0.020983
  -0.0111904
 -0.00740797
  0.00848272
   0.0133587
   0.0230719
  -0.0187589
  0.00856194
  -0.0191207
  -0.0240969
   0.0109338
  -0.0262761
   0.0106242
  0.00461994
  -0.0287091
 -0.00313853
   0.0180156
   0.0200976
  -0.0203383
   0.0072677
   0.0218849
   0.0281989
   0.0194985
  -0.0176258
    0.027156
   0.0272159
  -0.0125974
   0.0147915
  -0.0243461
-0.000382024
   0.0264921
  -0.0167804
   0.0197744
 -0.00678685
   0.0177204
 -0.00209665
  -0.0101724
   0.0255075
  -0.0129188
 -0.00597126
   0.0277431
   0.0232693
 -0.00503858
  0.00969288
-0.000974882
 -0.00796883
  -0.0216469
 -0.00991426
 -0.00640814
  -0.0186885
   0.0278525
  -0.0072282
  -0.0267407
   0.0205571
 0.000271019
   0.0257863
    0.017436
   0.0144584
   0.0168781
   0.0206024
  -0.0163089
  0.00988482
  -0.0219499
   -0.028977
  -0.0217923
   0.0224861
  0.00226589
 -0.00274067
   0.0188986
  0.00873354
   0.0133906
   0.0206138
  0.00568032
  -0.0175839
  0.00363274
  -0.0271765
 0.000766832
  0.00819144
 -0.00921585
   0.0247591
   0.0125816
    -0.00654
  -0.0125835
   0.0197006
  -0.0202986
   0.0125321
   0.0158602
   0.0255296
-0.000510087
  0.00493881
   0.0211031
   0.0142901
  -0.0113862
   0.0244698
   0.0121714
 -0.00247871
   0.0183618
  -0.0142925
   0.0185228
    0.016275
   0.0251173
  0.00416577
  0.00859974
 6.21377e-05
   0.0173098
  -0.0161612
  0.00332829
 -0.00926144
   0.0218361
   0.0198705
  -0.0129046
  0.00592802
  -0.0161998
  0.00396069
 -0.00729896
 -0.00942967
  -0.0109802
  -0.0201851
 -0.00703781
     0.01762
   0.0117893
  -0.0138763
    0.004933
   -0.020767
  -0.0168547
 -0.00860048
  0.00302556
  -0.0257159
  0.00467729
 -0.00534518
   0.0231722
  0.00302254
   0.0285804
  0.00526009
  -0.0252938
   0.0138327
   0.0169366
  0.00501577
  -0.0180124
  0.00902257
 -0.00321169
 -0.00504377
  -0.0127254
  0.00693185
   0.0254209
  0.00707093
   0.0248539
  -0.0123437
   0.0188726
  -0.0124839
  -0.0203999
  0.00600817
 -0.00348206
   0.0120671
   0.0114622
  0.00569699
   -0.025331
  -0.0133254
  0.00961926
   0.0071643
  0.00726956
  0.00222067
  -0.0165307
  0.00584121
  -0.0190549
  -0.0143293
 -0.00500099
   0.0261309
   0.0172832
-0.000111582
  0.00519203
  -0.0128846
   0.0226095
   0.0205121
   0.0218873
   0.0186188
-0.000368928
   0.0188068
  -0.0208606
 -0.00758666
  -0.0229845
  -0.0128409
   0.0247875
  0.00369436
   0.0237081
  0.00775266
    -0.01894
   0.0263707
   0.0217406
   0.0180943
  0.00703096
  0.00330168
 -0.00668867
   0.0169914
  -0.0186922
  0.00318296
  -0.0253028
  0.00313269
 0.000313468
   0.0220974
   -0.023114
  -0.0221309
  -0.0184537
   0.0256584
   0.0274171
  -0.0244953
     0.01828
-0.000495915
   0.0229351
   0.0239907
   0.0189668
   0.0266929
  -0.0170971
   0.0173269
 0.000629182
  -0.0209302
 -0.00251233
  0.00852975
  -0.0202144
 -0.00756364
-0.000996097
   0.0143292
   0.0234581
   0.0224847
  0.00388562
  -0.0219588
 -0.00210898
  0.00615423
  0.00869707
   0.0258037
  0.00320396
   0.0134022
  -0.0225876
   0.0125573
   0.0112215
   -0.024674
   0.0159253
  0.00197395
  0.00452322
   0.0103451
 -0.00170752
 -0.00447841
  0.00965566
  0.00790244
  -0.0149011
  -0.0172825
   0.0148258
  0.00986758
   0.0209754
   0.0200976
  -0.0241014
 -0.00646566
  0.00603776
   0.0263514
  -0.0118864
   -0.018338
  -0.0233782
   0.0130826
    0.016109
   0.0133256
   0.0117037
 -0.00925138
-0.000330377
   0.0153955
   -0.023903
  -0.0159861
   0.0190251
   0.0195364
   0.0125927
 -0.00573415
  0.00178887
  -0.0163202
   0.0170213
  -0.0159309
   0.0190377
  -0.0268269
 -0.00575179
  0.00680745
   0.0112377
  -0.0124231
-0.000951293
   0.0146767
  0.00854703
  -0.0221653
   0.0132973
   0.0240373
  -0.0134524
   0.0182721
  0.00981346
  -0.0247998
  0.00357394
 -0.00555234
  -0.0065442
  -0.0236324
  -0.0185868
 -0.00237071
  -0.0128912
  -0.0271583
  -0.0110743
  -0.0273907
  -0.0057357
   0.0183802
  -0.0153731
  -0.0166173
  -0.0250807
  -0.0242263
  -0.0143346
 -0.00396243
    0.010593
   0.0230401
   0.0113927
  -0.0194489
   0.0106581
 -0.00683648
  -0.0139889
 -0.00307465
  -0.0111746
-0.000382933
  -0.0125476
   0.0255574
  0.00233089
   0.0197358
  -0.0075096
   0.0233639
   0.0233921
  0.00213692
 -0.00632526
  -0.0166354
   0.0024324
  0.00990353
  -0.0154083
    0.024117
  0.00102156
 -0.00382139
  -0.0199756
  0.00316013
 0.000391723
 -0.00663383
   0.0280086
  -0.0171935
   -0.010486
   0.0117086
 -0.00864925
   0.0281834
  -0.0215145
  0.00411334
 -0.00251493
 -0.00715609
  -0.0209426
   0.0102514
 -0.00737178
  0.00822495
  0.00554552
   0.0124294
  0.00376739
 0.000570612
  -0.0136493
    0.024861
   0.0117362
   0.0166435
  0.00954798
   0.0235138
   0.0138154
  -0.0183951
 -0.00647633
   0.0223531
   0.0124137
   0.0207657
  -0.0131843
   0.0122922
  -0.0240898
  0.00411831
 -0.00302555
 -0.00512368
  0.00309232
-0.000999123
   0.0267637
   -0.024698
   0.0206989
  -0.0236071
   0.0134119
  -0.0140867
   0.0120515
  -0.0103276
   0.0256912
  -0.0109734
   0.0164083
  -0.0124698
  -0.0129777
  0.00049384
  -0.0258882
   0.0230709
 -0.00318089
   0.0190445
  -0.0256199
   0.0181639
   0.0119087
   0.0152543
  0.00909437
  -0.0289374
 -0.00177574
   0.0139021
  0.00560563
    0.020931
  -0.0213437
  -0.0189603
 -0.00342937
  -0.0231958
  -0.0157393
  -0.0132679
  -0.0176433
   0.0207248
  0.00156292
   0.0234937
  -0.0148342
  0.00177993
  -0.0178218
  -0.0260004
   0.0145954
 -0.00557103
  0.00168481
   0.0201348
  -0.0105039
   0.0249215
   0.0110684
 -0.00562548
   0.0160387
 -0.00479732
  -0.0181337
 -0.00319355
 -0.00410046
   0.0066357
  -0.0178107
  -0.0273805
 0.000482068
 -0.00947382
  -0.0172809
   0.0248826
 -0.00269903
 -0.00698857
  -0.0141689
  0.00536369
  -0.0124115
   0.0162211
  0.00281012
  -0.0008228
 -0.00975363
    0.010131
  0.00365553
  -0.0237385
  -0.0193675
   -0.022892
   0.0282708
 -0.00154412
    -0.02541
    0.011135
    0.018353
   0.0173058
  -0.0199185
  -0.0273703
 -0.00929653
  0.00406726
  0.00759132
 -0.00138364
  0.00631742
  -0.0173994
   0.0159468
   0.0162911
  -0.0224077
  -0.0159223
  -0.0179276
 -0.00895048
   0.0183155
 -0.00211557
  -0.0223474
  -0.0119245
   0.0248905
 -0.00120228
   -0.027476
 -0.00176085
  0.00299541
  -0.0194711
  0.00300182
  0.00163825
  0.00641655
  0.00587407
  -0.0169511
  0.00114801
 -0.00282927
 -0.00979182
 -0.00200053
   0.0133807
   0.0221649
  -0.0170106
   -0.018726
  0.00190592
 -0.00988711
   0.0259806
  -0.0127339
 -0.00474621
  -0.0194445
-0.000952441
   0.0184151
   0.0233681
   0.0208557
    0.023279
  -0.0104454
   0.0167189
 -0.00506109
  -0.0142603
 -0.00986167
   0.0195493
  -0.0037636
    0.022526
 -0.00340929
  -0.0221683
 -0.00277891
  0.00715865
  0.00374569
   0.0193666
   0.0243029
  -0.0206093
  0.00440219
    0.017732
  -0.0113726
   0.0173544
 -0.00784574
   0.0063818
   0.0154596
  0.00604924
  -0.0230992
   0.0216328
   -0.024123
   0.0206033
   0.0187394
   0.0267859
   0.0184375
  -0.0187125
   0.0197471
  -0.0164329
 -0.00286134
  -0.0201681
  -0.0225847
   0.0227695
  -0.0237578
-0.000153895
   0.0276554
 -0.00114181
  -0.0168241
  0.00245436
 -0.00519861
  -0.0206768
   0.0146807
  -0.0268012
   0.0242812
  -0.0254092
   0.0157896
  -0.0114565
  0.00970964
  0.00255481
    0.025801
   0.0149055
 -0.00170154
   0.0278848
   0.0114223
 -0.00849553
   0.0266094
  0.00179936
 -0.00212113
   0.0165089
   0.0126066
   0.0222225
   0.0252316
   0.0186877
    0.014734
   0.0231848
 -0.00852111
   0.0182902
 -0.00335393
 -0.00072177
 -0.00649397
   0.0192152
   0.0059067
  -0.0220968
   0.0192468
  0.00383983
  -0.0221531
   0.0123646
    0.020074
   0.0149866
   -0.016595
   0.0172744
  0.00260254
   0.0145589
   0.0129694
   -0.013102
  -0.0242641
   0.0139713
   0.0127075
 0.000410663
-0.000153848
-0.000110761
 0.000124265
 -0.00438769
  -0.0129218
  -0.0132929
 -0.00240488
  0.00424211
  -0.0213179
   0.0166827
  -0.0212896
 -0.00735136
   0.0107388
   0.0148198
   0.0011333
  0.00565623
   -0.013115
  0.00639592
  -0.0126503
  -0.0242343
 -0.00672499
  0.00430936
   0.0200376
    0.021904
 -0.00932498
   0.0100039
  -0.0175605
 -0.00707847
 -0.00395207
   0.0206843
   0.0243996
   0.0222408
 -0.00841975
 -0.00489836
 -0.00910779
  0.00975144
   0.0120149
   0.0164303
 -0.00951257
   0.0157664
  0.00799492
  -0.0057108
  -0.0167915
 -0.00626438
  -0.0170348
  0.00959991
   0.0265931
 -0.00583625
 -0.00629883
  -0.0154942
  0.00244142
   0.0136023
   0.0224253
  -0.0036616
  0.00814121
  -0.0162117
  -0.0226248
   0.0172569
  0.00648596
-6.13938e-05
   0.0149078
  0.00446118
 -0.00365284
  -0.0222587
  -0.0238691
   0.0172307
   0.0134828
   0.0151411
  0.00299771
  -0.0260752
   0.0032662
  -0.0156517
 -0.00294411
   0.0148164
   0.0017207
 0.000278182
  -0.0022271
   0.0042397
   0.0245775
   0.0154763
   0.0171498
-0.000218858
  0.00113053
  0.00887215
   0.0231009
  -0.0168832
   0.0176979
   -0.021634
   0.0279111
 -0.00339752
 0.000689397
   0.0146471
  -0.0264665
  -0.0238572
   0.0131814
  -0.0222511
   0.0172696
  0.00158899
    0.016162
 -0.00774991
-0.000961191
 -0.00554158
   0.0088903
   0.0208522
  -0.0235553
  -0.0179754
  0.00127039
-6.15966e-05
   0.0155314
  -0.0080171
 -0.00932374
 -0.00302634
   0.0213906
   0.0219472
  -0.0178281
   0.0205018
  -0.0277857
   0.0269316
   0.0223742
  -0.0316435
 -0.00418807
  0.00245045
   0.0089698
 -0.00506699
  0.00493054
 0.000458929
  0.00108149
 -0.00620694
   0.0288958
  -0.0122514
   0.0173022
-0.000844203
  0.00740371
  -0.0033258
 -0.00701455
    0.015659
  0.00952462
   0.0220382
 -0.00701113
 -0.00511767
  -0.0108007
  0.00776866
   0.0222262
  -0.0145453
  0.00351686
   -0.024963
  -0.0219781
 4.29368e-05
   -0.020734
  -0.0280464
  0.00202492
  0.00173315
  0.00799601
  -0.0148046
   0.0244103
   -0.015646
   0.0111374
 -0.00308408
  0.00841205
   0.0117598
   0.0172679
 6.11052e-05
  -0.0150617
 -0.00396774
   0.0278463
  0.00880665
  -0.0176193
  0.00960532
-3.86936e-06
-0.000495515
  -0.0224596
   0.0168896
  -0.0185319
   0.0278149
  -0.0284842
  0.00503327
  -0.0235832
   -0.018993
  -0.0193995
  -0.0211834
  -0.0177856
  0.00957189
  0.00812405
   0.0139489
   0.0229413
  0.00695562
   0.0229782
   0.0112953
  -0.0221755
  0.00333274
 -0.00890724
   0.0205725
  -0.0236753
   0.0102282
   -0.016311
  -0.0223953
  -0.0121887
 -0.00417236
    0.010326
   0.0152345
   0.0197509
   0.0185538
  0.00984892
  -0.0298295
   0.0132225
  0.00787322
   0.0099017
   0.0158102
   0.0174338
    0.012821
   0.0256103
   0.0188302
 -0.00207157
  0.00818761
  0.00964432
 -0.00335973
  -0.0169185
  0.00508728
  -0.0230202
  -0.0150827
  -0.0194564
  0.00136501
   -0.023825
  -0.0178402
  -0.0175745
 -0.00688228
  -0.0130528
 -0.00249919
   0.0158614
   0.0232213
  -0.0120793
  0.00622076
   0.0112391
     0.02283
  0.00529784
