-4.92807e-06
-5.02508e-06
 5.18277e-06
-3.33094e-06
-4.72463e-06
-5.24997e-06
-9.47995e-07
-2.89846e-06
-6.88042e-07
-3.08114e-06
 4.20221e-07
-3.75522e-06
-1.52334e-08
  4.7067e-06
 1.25542e-06
 7.50934e-07
 1.85221e-06
 -1.3392e-06
 3.70921e-06
-5.87118e-07
 2.31552e-06
 -4.5224e-06
 3.56701e-07
-5.23926e-06
 4.71509e-06
-1.78263e-06
-5.83488e-06
 -1.3552e-06
 1.98759e-06
 1.81408e-06
-2.40409e-06
  3.1698e-06
 2.89929e-06
-3.34058e-06
 5.94914e-06
 4.28495e-06
-2.48027e-06
-1.11812e-06
-4.73278e-06
 2.94197e-06
 1.91102e-06
 1.79773e-06
 5.29703e-06
-4.22347e-06
 3.85164e-07
 4.33185e-07
 2.63774e-06
-3.88189e-06
 5.20427e-06
 2.27693e-07
 1.64128e-06
 1.40053e-06
 1.81558e-06
-4.12129e-06
 2.27155e-06
 4.11411e-07
 2.06367e-07
 2.54696e-06
 5.16649e-06
-3.92531e-06
-1.75823e-06
-3.35686e-06
 5.35477e-06
 -4.9782e-06
 -5.8716e-07
 5.18465e-06
 5.41703e-06
 3.04285e-06
-2.05274e-06
-5.43501e-06
-1.34437e-07
 5.96857e-06
   2.473e-06
-9.56669e-07
-4.37417e-06
 -3.2611e-06
  5.5868e-06
 4.37386e-06
 -1.0327e-06
 4.67181e-06
-1.51771e-06
-5.51069e-06
-4.69269e-08
-5.82139e-06
-3.52169e-06
-3.89464e-06
 7.00304e-07
 2.79496e-06
  4.7626e-06
-2.52469e-07
 4.97994e-06
-3.11489e-06
 2.50095e-06
 4.21544e-06
 -1.9828e-06
-4.20547e-06
 3.28082e-06
-2.68504e-06
 4.94767e-06
-4.89118e-06
-2.00977e-06
-1.30603e-06
-5.04187e-06
-5.65603e-06
 3.84758e-06
-3.30575e-06
-2.80684e-06
 3.31512e-06
-5.05116e-06
 2.27074e-06
 1.86766e-06
 -4.5858e-07
 2.87034e-06
-4.29853e-06
-1.69687e-07
 5.45893e-06
-2.08288e-06
-5.58865e-06
 2.13463e-06
-3.43955e-06
 2.69167e-07
 9.95306e-07
-4.44149e-07
-3.34914e-06
-9.08517e-07
 3.68333e-06
-1.44433e-06
-3.74696e-06
-5.12097e-06
-2.61593e-06
-2.52785e-06
-1.02046e-06
 2.18833e-06
-1.45944e-06
-5.66202e-07
 -8.3357e-08
  1.3451e-06
 2.73724e-06
 -2.8875e-06
 2.40422e-06
-1.11129e-06
 5.09044e-06
-4.17362e-06
-4.36022e-06
-5.32735e-06
 1.76698e-06
-5.02055e-06
-1.29995e-06
 2.28861e-06
 3.22437e-06
 1.37079e-06
-3.56148e-06
-1.89959e-06
-5.19263e-06
-8.00343e-07
 3.30218e-06
 4.60099e-06
 3.86561e-06
 5.66551e-06
  5.5903e-06
-4.86958e-06
-2.98161e-06
-1.54942e-06
 3.42903e-06
 1.66924e-06
 3.99466e-06
-2.77359e-06
-3.10493e-06
 6.12636e-07
 4.49191e-07
 5.40958e-06
 5.61163e-06
-5.79631e-07
-4.88331e-06
-4.86785e-06
 2.03301e-07
 2.99395e-06
-3.77811e-06
 5.01363e-06
  -8.367e-07
 5.55654e-06
 2.65156e-07
  1.7121e-06
-2.46231e-06
 1.18281e-06
-5.20751e-06
 -5.2794e-06
 -3.3546e-07
 4.76839e-06
-5.73316e-06
-8.64423e-07
  6.0091e-06
-2.60449e-06
 3.69644e-06
 3.31886e-06
 5.17503e-06
 1.57184e-06
-5.57399e-06
-4.04916e-06
-3.93479e-06
 9.85484e-07
-4.75885e-06
-4.44242e-06
-5.71341e-06
-3.53188e-06
-3.19999e-06
 6.00174e-07
 5.57236e-06
-8.67815e-07
-5.05456e-07
-1.38361e-06
-1.43054e-06
 5.86999e-06
-5.79077e-06
 2.21743e-06
 9.33535e-07
  -4.888e-06
 3.04832e-06
-5.52119e-06
 5.99068e-06
 3.42544e-06
-2.75329e-07
 5.88051e-06
-5.29831e-06
-2.69815e-06
 3.08011e-06
 5.98701e-06
 4.98397e-06
  3.6164e-06
-4.18142e-06
-5.07008e-06
-1.51738e-06
-2.82999e-06
-3.40222e-06
-1.12051e-06
-2.51581e-07
-4.91922e-07
 5.58995e-06
-7.98488e-07
 4.75055e-06
-1.03477e-06
 3.92819e-06
-2.79926e-06
-1.28405e-06
  4.2477e-06
 5.52846e-06
 5.75977e-06
 5.46999e-06
 2.45751e-06
-5.88068e-06
 5.34141e-06
-2.36309e-07
 -4.5728e-08
 5.10265e-06
 5.75667e-07
  3.3664e-06
  2.0635e-06
 4.43413e-07
 2.23111e-06
-4.39367e-07
 2.37228e-06
 3.27131e-06
 4.15354e-06
 5.65258e-06
 5.97938e-06
-3.08623e-06
-7.18268e-07
-6.31809e-07
-3.61554e-06
 4.59353e-06
-2.00053e-06
 1.45997e-06
 2.40245e-06
  1.3105e-06
-5.94334e-06
 5.30889e-07
 7.19697e-07
 5.92672e-06
-1.18385e-07
-2.94206e-06
-6.07323e-06
-8.96244e-07
 2.93192e-06
-8.67383e-09
-1.91286e-06
-2.61168e-06
-2.76153e-06
-5.96863e-06
 3.94202e-06
 5.57986e-06
-2.97708e-07
 1.95036e-07
 2.73191e-06
-2.26343e-06
-2.71652e-07
 2.59203e-06
 7.60621e-07
 5.12037e-06
-4.15905e-06
 3.25536e-06
 3.59463e-06
 -4.9291e-08
-1.40393e-06
-1.22185e-07
-4.85806e-06
-1.23698e-06
-5.71056e-06
 1.97193e-06
-1.42953e-06
 2.81339e-07
 5.14016e-06
-1.39247e-06
 5.49538e-06
 1.95281e-06
 4.70914e-06
-2.53674e-06
 5.45142e-06
-4.17166e-06
-2.39508e-06
 3.27418e-06
-4.71106e-06
 3.41749e-06
-2.65005e-06
 4.13113e-06
 -4.9652e-06
 3.18858e-06
 6.03892e-07
  1.9057e-06
 2.18968e-06
 2.55513e-06
  -9.582e-07
-3.34957e-07
-3.61343e-06
 3.74816e-06
 5.65314e-06
 -2.3612e-06
-3.60809e-06
 6.05287e-06
 5.72101e-06
 1.07267e-06
 2.14941e-07
  4.7419e-06
 5.79048e-06
-4.08943e-07
  5.7545e-07
 4.38036e-06
  3.1646e-06
-9.23953e-08
-5.91057e-06
-5.34975e-06
-2.93748e-06
-4.51135e-06
 4.17803e-06
 5.22747e-07
 5.73007e-06
 5.32311e-06
-2.40794e-06
 2.14696e-07
 1.10955e-06
 5.89203e-06
-3.34944e-06
-5.96792e-06
-5.62196e-07
-8.52584e-07
 3.89053e-06
-1.02832e-06
  2.8965e-06
-5.83682e-06
-1.09472e-06
 2.49825e-06
 1.34613e-06
 5.23051e-06
 1.12089e-06
 1.01735e-06
 -1.2977e-06
-4.42293e-06
-7.21558e-07
-4.25236e-06
 1.59496e-06
-5.21843e-07
-3.49183e-06
 4.76776e-06
 1.07709e-06
-5.43306e-06
-8.28755e-07
 6.87898e-07
 6.00034e-06
 2.87359e-06
-5.21667e-06
 9.90619e-07
 2.64635e-06
-2.45583e-06
 1.13299e-06
-4.03511e-06
 2.80187e-06
-1.09575e-06
 1.04686e-06
-4.20889e-07
-8.22289e-07
 6.06243e-06
 -4.0419e-06
-5.59542e-06
 5.17367e-06
 3.18927e-06
 1.53221e-06
-2.24329e-06
 4.87663e-06
-5.30861e-06
-3.85371e-07
 3.52326e-07
 2.79832e-07
 2.23309e-06
-9.99176e-07
-4.76234e-06
 2.91031e-06
 4.28235e-06
 2.03584e-06
 2.79138e-06
 1.03668e-06
 2.92946e-06
-2.33727e-06
-2.43623e-06
-5.64563e-06
 4.90601e-06
-3.61057e-07
 3.26652e-06
-2.30901e-06
-5.43346e-06
-3.27363e-06
 2.97899e-06
 -5.4903e-06
-1.20525e-06
 3.49385e-06
 5.79365e-06
-4.13524e-06
 -1.0932e-06
 -2.5689e-06
-5.37788e-06
-2.91525e-07
 3.15601e-06
 1.08473e-06
 6.09859e-06
-7.30169e-07
-6.03371e-06
-4.78301e-06
-3.93913e-06
 4.35893e-06
 3.36312e-06
 4.96254e-06
 -7.2366e-07
  1.7331e-07
-3.49399e-06
 2.95039e-06
  6.3796e-07
-4.70725e-06
-3.52993e-06
-2.21478e-06
-9.05973e-07
-2.85311e-06
 6.21874e-07
-4.04625e-06
-2.23313e-06
 5.52691e-06
 5.55789e-06
-2.55874e-06
 -4.7276e-06
-1.65458e-06
  9.8264e-07
 -3.9952e-06
 4.16418e-06
-1.98062e-06
 3.19982e-06
 4.14351e-06
  3.3995e-06
 3.27639e-06
 5.47078e-06
 5.57066e-06
 1.51605e-06
 2.71463e-06
 4.41393e-06
-5.32688e-06
-3.23132e-06
-5.19932e-06
  3.7338e-06
 3.51692e-06
-3.79629e-06
 -5.9154e-06
-4.81712e-06
 1.40802e-06
-2.65822e-06
 1.91504e-06
 3.47206e-06
 1.21894e-06
 1.32268e-06
 2.91068e-06
 4.77048e-06
 2.70537e-06
-4.86316e-06
-3.66146e-07
 4.82046e-06
  5.4113e-06
 3.76352e-06
 1.90101e-06
 3.43555e-06
 1.04376e-06
-9.41871e-07
 2.78706e-06
 4.95152e-07
-5.54509e-06
-6.17567e-07
-1.21018e-06
-4.76168e-06
  2.2614e-06
-2.99219e-07
  5.0824e-06
-3.40944e-07
 2.01478e-06
 5.27729e-06
  9.5222e-07
-2.69647e-06
-3.50019e-06
-3.25201e-06
-5.34367e-06
 3.82903e-06
 4.18096e-06
 3.67729e-06
 2.48024e-06
 7.67062e-07
 4.92441e-06
-4.00517e-06
-5.31748e-07
 4.21645e-06
 5.86864e-06
-4.75001e-06
 1.53273e-06
 7.93131e-07
 4.18407e-07
-1.79947e-06
-4.83098e-06
 9.83604e-07
 3.69325e-06
 6.91224e-08
 2.33221e-06
-1.64621e-07
 5.88019e-06
 1.29535e-06
 5.60472e-06
  1.7757e-06
 4.53376e-07
 4.37674e-07
 5.18952e-06
 3.06347e-06
 3.29595e-06
 5.95613e-06
 7.73231e-07
 1.35765e-06
 3.51415e-06
-2.86579e-06
-3.99456e-06
  2.3193e-06
-7.60676e-07
 1.58398e-06
 4.16479e-07
 -1.0113e-06
 2.94426e-06
-4.17006e-06
 5.89211e-06
 -2.7566e-06
 1.40757e-07
-5.05813e-06
 4.33729e-06
-2.28526e-06
 1.12127e-06
 5.50229e-07
  3.6604e-06
 8.82197e-07
-4.27369e-06
 3.14586e-06
-3.46137e-06
 2.28997e-06
-2.53573e-06
-4.39112e-06
-7.65825e-07
-5.35905e-06
-4.55426e-06
 6.11769e-06
 2.10888e-06
 5.07018e-06
-2.86737e-06
 4.22461e-06
 1.27021e-06
 2.48224e-06
-3.10678e-07
-4.43257e-06
-4.64833e-06
-3.48569e-06
-2.49235e-06
-4.87548e-06
-1.32005e-07
  3.7587e-06
-3.82332e-06
-1.91398e-06
-4.64583e-06
 3.40823e-06
 4.74653e-06
 5.12486e-06
-1.82883e-06
-5.64642e-06
 2.15145e-06
 8.20081e-07
 2.75383e-06
   5.726e-06
 2.53925e-06
-4.13126e-06
-5.75231e-06
 4.09528e-06
-4.13283e-06
 2.46685e-06
 3.04619e-06
-8.89913e-07
 5.72198e-07
-1.80286e-06
-4.52694e-06
-5.85775e-06
-1.25153e-07
-3.06498e-06
-3.23315e-06
 3.49279e-06
-1.83017e-06
 2.74513e-06
 1.13222e-06
 4.56793e-07
-5.28812e-06
 2.59667e-06
-2.25424e-06
  5.5687e-06
 1.60226e-06
 2.02721e-06
 6.03256e-06
-2.36555e-06
-3.27197e-06
 2.66713e-06
-2.75882e-06
 5.37756e-06
 4.64616e-06
-2.40084e-06
 3.35357e-06
-5.60594e-06
-6.05325e-06
   2.805e-07
-3.85568e-07
 6.29231e-07
 4.58792e-06
 1.19778e-06
 8.81771e-07
 -1.6565e-06
 4.24309e-06
 3.75891e-06
-4.28297e-06
-3.70634e-06
 3.84775e-07
 2.95953e-06
 2.86074e-06
 1.20694e-06
-5.63065e-07
-5.51277e-06
 6.56378e-07
-5.08007e-06
 2.62473e-06
 5.69673e-07
-1.33533e-06
 5.46304e-06
-2.88246e-06
 2.01614e-06
 4.72134e-06
-4.35557e-06
 5.72558e-06
 1.95565e-06
-3.85123e-06
 5.78261e-06
-3.88312e-06
 1.87349e-06
 2.92579e-07
-5.41446e-06
-3.04799e-06
-4.94492e-06
-9.60672e-07
-4.92417e-06
 4.92428e-06
 8.66638e-07
-2.52023e-06
-8.10213e-07
 -2.2931e-06
-5.77876e-06
-5.72253e-06
 3.25412e-06
-5.18124e-06
 1.04413e-06
 4.28434e-06
 3.55377e-06
-4.50546e-06
-3.17026e-06
 2.89755e-06
-1.27764e-06
 4.95617e-06
 1.49963e-06
  4.7707e-07
 4.56248e-06
-2.66399e-06
 2.73613e-06
 4.22583e-06
-4.36823e-07
-1.50965e-06
-1.60085e-06
 2.59002e-07
 1.55264e-06
-4.35486e-07
 5.40862e-06
 2.73876e-06
-1.63047e-06
 1.55988e-07
-5.90074e-06
  3.6696e-06
 3.97317e-06
-5.56921e-06
 4.05735e-06
 1.10803e-06
-4.64016e-06
-1.01779e-06
-7.26896e-07
 5.02389e-06
 5.87035e-07
 2.21313e-06
 1.80218e-06
 5.41968e-06
 1.05003e-06
-2.81746e-06
-2.22518e-07
-5.06747e-07
 6.28838e-07
-3.60566e-06
-2.40018e-06
-5.92725e-06
 9.94979e-07
 2.10925e-06
 4.42037e-07
-3.57165e-06
 -4.4455e-06
-2.68613e-07
 5.27739e-06
 3.43094e-08
 5.99766e-06
 5.48694e-06
-2.41536e-06
 3.85157e-06
 6.02802e-06
-4.47727e-06
-1.15967e-06
-4.73141e-06
 6.15225e-07
 4.22372e-06
-5.82678e-06
  -4.917e-06
 3.17591e-07
 2.08568e-06
-5.61659e-06
-4.75164e-06
 5.37851e-06
 2.71175e-07
 8.51898e-07
-1.11915e-07
  2.7758e-06
   4.562e-06
 7.11201e-08
-2.34848e-06
 5.51986e-07
-5.60611e-06
 1.90156e-07
 2.21677e-06
 2.35564e-07
-6.51715e-07
-3.86819e-06
 1.13959e-07
-1.28404e-06
 -1.7326e-07
-2.15374e-06
-1.37529e-06
 1.45975e-06
 2.79688e-06
 3.58708e-09
-4.04429e-06
 9.01339e-07
 2.87089e-07
-2.85101e-06
-4.90034e-06
-3.74649e-06
-2.35731e-06
-3.54169e-06
-4.48725e-06
 4.02414e-06
 3.42049e-06
 1.51112e-06
 6.80683e-07
 1.86323e-06
-4.53702e-06
 4.44248e-06
-3.70405e-06
-4.03284e-06
-1.48662e-06
   4.623e-06
   2.313e-06
 3.97195e-06
-5.36445e-06
 -3.6923e-06
-3.43136e-06
 5.72575e-07
 2.64246e-07
 1.30364e-06
-4.08694e-06
-3.05814e-06
-4.81204e-06
-2.02094e-06
 3.95349e-06
 1.58534e-06
 1.23834e-06
 5.16343e-06
 3.94913e-06
 4.99131e-06
-4.49752e-06
 5.57217e-06
 2.89619e-06
 5.03326e-06
 9.64027e-07
 -2.5424e-06
 7.77219e-07
 2.53729e-06
-4.21918e-06
 3.18345e-06
 4.61473e-06
 4.04484e-07
 1.68719e-06
  8.0847e-07
-1.74284e-06
 2.43302e-06
 3.22645e-06
 9.36091e-07
-3.11367e-06
-2.62857e-06
-3.87953e-06
-1.09032e-06
 4.23581e-07
-2.58128e-06
 2.99903e-06
 -1.7422e-06
 5.11434e-06
 -1.8819e-06
-2.69803e-06
  2.9442e-06
-3.00986e-06
-1.08527e-06
 2.39711e-06
 5.99661e-06
-2.17128e-06
-2.75813e-06
-2.66505e-06
 4.71623e-06
 5.88944e-06
-7.73938e-07
 1.78042e-06
 4.38491e-06
 5.74083e-06
-2.65166e-06
-9.25886e-07
-2.12127e-06
 5.89165e-06
 -3.8187e-06
 4.92511e-06
-3.34128e-06
 -3.3698e-07
-5.07369e-06
 1.67868e-06
-6.03266e-06
-1.54469e-06
-1.44156e-06
-1.66458e-06
-2.54962e-06
 2.78683e-06
 1.74768e-06
-5.72468e-06
 5.88725e-06
-5.45685e-06
 2.78271e-06
  5.7646e-06
-1.51784e-06
-6.09469e-06
-3.01971e-06
-2.92088e-06
 5.90504e-06
 2.31664e-06
 4.96982e-06
 4.17068e-06
  1.9382e-06
-3.80111e-06
-2.87447e-06
 5.92722e-06
-4.02872e-06
-5.82881e-07
 4.73306e-06
-1.25972e-06
 5.19042e-06
 5.76965e-06
 -5.7003e-06
 5.26804e-06
 -1.8943e-06
-1.03157e-06
 -2.5158e-06
 1.66637e-06
-4.36401e-06
 5.34216e-06
 2.05197e-06
-4.59602e-06
  5.9956e-06
-1.28458e-06
-4.95069e-06
-1.64151e-06
-1.26899e-06
-1.86011e-06
 1.54789e-06
-1.48321e-06
-5.66274e-06
 3.98444e-07
-3.43179e-06
 2.38575e-06
 2.70762e-06
-1.95976e-07
  2.1937e-06
 4.78918e-06
 5.33143e-06
 8.07499e-07
 -2.5898e-06
 4.40259e-06
 4.57888e-07
-2.17982e-06
 3.55136e-06
 4.67387e-06
 2.89889e-06
 -5.0837e-06
 2.20972e-07
 4.64516e-06
 -5.8608e-06
-3.84632e-06
-6.07013e-06
-5.98447e-06
 9.79377e-07
-4.91053e-06
 -1.5157e-06
 5.82067e-06
-6.60355e-07
-6.08707e-06
 -1.7818e-06
-2.12809e-07
 4.21655e-07
 8.96688e-07
-3.94632e-06
-2.98999e-06
-5.41855e-06
 4.35766e-06
-4.32007e-06
 6.02316e-06
-9.54101e-07
-7.99588e-07
 4.30648e-06
 5.61407e-06
 3.13088e-06
 1.73858e-06
 4.16868e-06
-8.95011e-08
 2.76516e-06
-1.72962e-06
 -1.5636e-06
 3.01465e-06
 5.34345e-07
-1.52345e-06
 3.14046e-06
-4.60554e-06
 -3.2369e-07
 -4.4945e-06
-4.90413e-06
 5.12624e-06
-4.47129e-06
-5.75652e-07
-1.20583e-06
 2.06065e-06
-5.79823e-06
 9.58127e-07
 5.18095e-06
 -5.1065e-06
-8.03473e-07
-5.25839e-06
 -5.2026e-06
 4.35271e-06
 5.23114e-08
 5.21416e-06
 3.84752e-06
-2.93608e-06
 8.33473e-07
 1.89693e-06
 3.08471e-06
-2.52063e-06
-5.95195e-06
-4.59816e-06
-5.62524e-06
 6.92679e-07
-1.13261e-08
 3.62551e-06
 2.19742e-06
 5.77527e-06
 5.24129e-06
 3.40357e-06
 4.78224e-06
-5.34926e-06
-3.29135e-06
-2.54286e-06
 2.82168e-06
-2.97929e-06
 4.52556e-06
 1.88336e-06
 -1.9755e-06
-2.39718e-06
 2.73526e-06
-1.06782e-06
-4.16374e-06
-3.33169e-06
-1.97293e-06
 5.79407e-06
-1.57488e-07
 4.97083e-06
 1.57173e-06
-3.19205e-06
-3.66906e-06
 1.73006e-06
-1.67993e-06
-3.18402e-06
-3.69652e-06
 4.41903e-06
-5.67778e-06
 4.61118e-06
 4.07503e-06
  5.6738e-06
 1.89549e-06
 2.73801e-06
-5.79473e-06
 4.71443e-06
-5.92411e-06
 3.13723e-06
-4.38413e-06
 4.71173e-06
-1.09867e-06
-2.49345e-07
-3.80471e-06
-4.48268e-06
 4.79312e-06
-1.85816e-06
-1.70409e-06
-3.29907e-06
-2.18336e-06
 4.24871e-06
-4.44751e-06
 5.49865e-06
 -5.0626e-06
-2.00628e-06
 1.10945e-06
-6.32247e-07
 9.19981e-07
 3.52321e-06
-2.33248e-06
 1.35249e-06
 2.01513e-06
-4.37671e-06
 9.07022e-07
-2.20865e-06
 4.47159e-06
 1.22258e-06
-3.61349e-06
 4.65776e-06
-1.75945e-06
-1.88733e-06
 3.25023e-06
 3.25216e-06
 3.97361e-06
  5.5558e-06
 4.87977e-06
 2.64746e-06
-2.42163e-06
-2.94358e-06
 5.45868e-06
 1.50529e-06
-4.81414e-06
 -5.1081e-06
  8.8468e-07
-3.76646e-06
 -1.0041e-06
-4.12514e-06
 1.71158e-06
 6.02617e-06
 5.50836e-06
 5.48938e-06
 1.25939e-06
 1.40422e-06
-5.00659e-06
-3.95285e-06
 5.30586e-06
 5.57528e-06
 3.38001e-06
-4.42689e-06
 4.11378e-06
 -4.4987e-06
-2.03932e-07
 1.24474e-06
 4.86374e-06
-2.34959e-06
 6.81281e-07
 3.62425e-06
-5.82139e-06
 4.36994e-06
 -5.4386e-06
 5.74757e-06
-2.44031e-07
-4.14245e-06
-5.47979e-06
-5.47862e-06
-1.79862e-06
-3.73602e-07
-3.49347e-06
 6.02324e-06
  -4.667e-07
-4.10437e-06
 5.39336e-06
-5.32657e-06
 3.41014e-06
 -5.7325e-06
-3.16914e-06
 2.59673e-06
 5.95306e-06
-5.90839e-06
 4.28013e-06
 3.94757e-06
-4.29681e-06
-2.04307e-06
 -9.2695e-07
-5.55233e-06
 1.71763e-06
 5.86462e-06
  4.1822e-06
 2.00653e-06
 4.11529e-06
 4.85389e-06
 1.63484e-06
-2.24801e-06
-5.40783e-06
 2.26533e-06
-1.61634e-06
-1.09616e-06
-4.22753e-06
 1.00048e-06
-1.19219e-06
 1.41605e-06
 3.00639e-06
-1.91809e-06
 2.19976e-06
 2.97266e-07
-1.54031e-06
 5.14091e-06
-3.22527e-06
-1.70651e-06
  5.3428e-06
 -5.0644e-06
 -3.8782e-06
-5.07328e-06
-9.97187e-07
 1.30513e-06
-4.51532e-06
-5.39882e-06
 1.05048e-06
 5.77717e-06
 2.71799e-06
-9.53492e-07
 4.51179e-06
-1.76643e-06
 2.90879e-06
 5.21425e-06
-5.62037e-06
-4.82682e-06
-2.00118e-06
-3.73761e-06
 2.28395e-06
 2.91692e-06
 3.78872e-06
 -8.2892e-07
-5.12044e-06
-1.30779e-07
 5.57863e-06
-5.50464e-07
-1.10914e-06
 -3.7659e-06
 3.85331e-06
 -1.8856e-06
-2.72002e-06
 6.08539e-06
-8.48594e-07
 2.39308e-06
 1.27126e-06
 7.46369e-07
 3.10454e-06
-3.79752e-06
 4.04271e-07
-2.96731e-07
 1.35927e-06
 -1.2032e-06
 4.04712e-06
-1.85121e-06
-2.10822e-06
 4.53704e-06
-5.67736e-07
 2.00089e-06
-5.31984e-06
-4.40305e-06
-1.20146e-06
 4.57917e-06
 8.78315e-07
-2.11614e-07
-1.67087e-06
 3.37681e-07
 5.34821e-06
 3.33027e-06
 2.68207e-06
 3.08225e-06
 -4.6746e-06
 6.07233e-06
 3.04838e-06
 5.87095e-07
 2.34615e-06
-1.79962e-06
 -4.7858e-06
-6.68575e-07
 5.13145e-07
 1.72875e-06
 5.14498e-06
-4.24685e-06
-5.59371e-06
 3.07283e-06
 1.22329e-08
-1.59164e-06
 1.49061e-06
 5.55478e-06
-5.71002e-06
 2.28106e-06
-4.96753e-06
-8.01192e-07
 7.40959e-07
 2.02107e-06
 5.09748e-06
 5.18037e-06
-3.76052e-06
 4.32642e-06
 2.39138e-06
 5.03183e-06
 1.28941e-06
 3.82707e-06
  4.9849e-06
-1.78147e-06
 -1.7051e-06
 1.21178e-06
 2.52919e-06
-3.80622e-07
-5.57606e-06
-3.07693e-06
-4.77113e-06
 5.67921e-06
-1.21349e-06
-4.25456e-06
 2.63278e-06
 4.90903e-06
 2.64078e-07
-1.99588e-06
 4.34454e-06
 6.64343e-07
-5.83409e-06
 5.48729e-06
 5.97344e-06
 1.01715e-06
  1.3891e-06
 4.95165e-06
 7.82584e-08
 3.73886e-06
  3.1588e-06
-3.64963e-06
 2.65143e-06
-1.67105e-06
-5.94183e-06
 1.51707e-06
 2.65776e-06
-1.53665e-06
-3.39041e-06
-9.32317e-07
 4.19301e-06
-2.85618e-06
 2.10104e-06
 5.53217e-06
-3.29624e-06
-5.23172e-06
-4.84166e-06
 5.44682e-06
 5.78759e-06
  1.5327e-06
-2.66832e-06
 4.01287e-06
-3.92222e-06
-2.39213e-06
 3.38089e-06
-4.06805e-06
 4.73531e-06
-1.34928e-06
-5.23566e-06
 -1.3057e-06
-3.72968e-06
 4.03343e-06
 1.15496e-06
 5.03204e-06
-3.75689e-06
 1.32341e-06
 4.29842e-07
 5.01115e-06
 5.89705e-06
 3.14972e-06
-2.04043e-06
  3.9708e-06
-5.82573e-06
-6.05866e-06
  3.3837e-06
-3.01169e-06
 -5.1801e-06
 4.65232e-06
-3.68413e-06
-5.51177e-06
 6.57602e-08
-2.42172e-07
 4.61138e-06
 2.25383e-06
 3.47598e-06
 1.87301e-06
 4.29606e-06
 2.09203e-06
-5.59553e-06
 5.17068e-06
-5.33293e-06
-3.21493e-06
 3.08484e-06
 1.93231e-06
-4.30215e-06
 5.43824e-06
-2.86354e-06
 2.23797e-06
 4.33012e-06
-3.08576e-06
-7.31578e-07
-3.82957e-06
-5.23423e-06
-4.47026e-07
-3.77795e-06
 4.25976e-06
 2.65157e-06
-2.84776e-06
 2.79282e-06
 5.07772e-06
-2.24925e-06
-3.26069e-06
-1.28371e-06
-3.75713e-06
 5.10342e-06
-3.92699e-06
 4.22616e-06
 3.28022e-06
 4.27532e-06
 4.74091e-06
 2.33164e-06
 5.05267e-06
-4.59328e-06
-7.02785e-07
 8.65714e-07
-2.78515e-06
-1.38381e-06
 4.11246e-06
 5.56311e-06
-3.17296e-06
-5.09257e-06
-1.28774e-06
-8.92243e-07
-4.21651e-06
 4.37552e-06
 1.44009e-06
-6.07602e-06
 9.07828e-07
 4.70262e-06
 2.82708e-06
-1.33714e-07
-3.66589e-06
 5.67668e-06
 4.69286e-06
-1.31274e-06
 4.66083e-06
 -5.3534e-06
-3.20584e-06
 1.82179e-06
  5.0322e-06
 -4.5842e-06
-1.96584e-06
 3.96561e-06
-3.06719e-06
 3.44166e-06
-1.28795e-06
 2.57939e-07
-4.06142e-06
-3.29475e-06
 -2.9822e-07
-1.12409e-06
-2.27704e-06
 4.52433e-06
 4.09395e-06
-3.83262e-07
 2.78058e-06
-5.85219e-07
-3.48993e-07
-2.43085e-06
-2.00186e-06
-3.64118e-06
 3.54572e-06
 4.42534e-07
-4.08376e-06
 2.11931e-06
 5.24008e-06
-5.54219e-06
 2.87619e-06
-4.08502e-06
 2.38988e-06
 1.78913e-06
-2.55894e-06
-5.69523e-06
-3.64533e-07
 4.84155e-07
 3.85672e-06
 4.45781e-06
-5.37717e-06
 5.90558e-06
-4.95621e-06
 4.34894e-07
-1.33777e-06
-1.12297e-06
-1.16004e-06
-3.36309e-06
 4.60406e-06
-4.49873e-06
 2.16198e-06
 -1.8642e-06
-8.19294e-07
-5.95915e-06
 6.04908e-07
-3.39284e-06
  5.9367e-07
 2.63143e-06
 4.83675e-06
-2.85513e-07
 3.19952e-06
 1.59368e-06
 1.73975e-06
-5.29859e-07
-2.73646e-06
  5.2911e-06
  -1.148e-07
 3.00929e-06
-3.44013e-07
-2.37735e-06
 1.34783e-06
 3.89102e-07
-2.59103e-06
  2.5019e-06
-5.29527e-06
 2.18148e-06
-4.74033e-06
-3.45029e-07
 4.92868e-06
 5.97401e-06
 1.26653e-06
 9.71393e-07
-2.00945e-06
-5.67203e-06
 1.12253e-06
 4.70574e-06
-2.95458e-06
-4.40307e-06
 1.21791e-06
 -4.2371e-06
 1.42171e-06
-1.70183e-06
 3.46687e-06
-2.95781e-06
 3.87859e-06
-5.38886e-06
-3.78598e-06
-2.35547e-06
 3.73072e-06
 1.98029e-06
 1.37746e-06
-1.04071e-06
-3.74987e-06
 4.89672e-06
-4.65807e-06
-2.93485e-06
 9.58935e-07
-3.28811e-06
  2.8304e-06
 -2.3165e-07
-3.43337e-06
-2.02233e-06
-5.37952e-06
 6.67465e-07
-1.58407e-06
 1.85329e-06
 -7.4606e-07
 1.57163e-06
 3.56051e-06
-5.64742e-06
 3.44482e-06
-1.13705e-06
-1.23897e-06
 7.92418e-07
 2.01543e-06
-3.47964e-06
 1.51385e-06
 4.33974e-06
 2.75167e-07
-8.74698e-07
 2.00766e-07
-4.46663e-06
 4.19488e-06
 2.56118e-06
-5.68918e-06
 5.64709e-06
 5.73661e-06
 1.38004e-06
-3.76029e-06
 2.44775e-06
-4.97088e-06
-1.08337e-06
-5.69385e-06
-4.24011e-06
 5.69438e-06
-1.16764e-06
 3.72346e-06
-1.17095e-06
-5.71528e-06
 1.16471e-06
-7.08083e-07
 3.83982e-06
 -6.0916e-06
 4.16323e-06
-1.48702e-06
 2.03412e-06
-5.43568e-06
-6.09244e-06
 2.54587e-07
 9.49776e-07
-8.56854e-07
-5.66391e-06
 2.59343e-06
-2.78124e-06
 3.00755e-06
 3.01453e-06
-3.25342e-06
  2.6249e-06
-1.72469e-06
-9.03425e-07
-1.04661e-06
-5.85286e-07
 4.12349e-06
-6.30177e-07
 1.28489e-06
  3.6986e-06
 4.31247e-06
-1.11091e-06
-3.59161e-06
 4.70748e-06
-6.06547e-06
 1.81059e-06
 2.42804e-06
-6.04678e-06
-1.45443e-07
-5.17825e-06
 2.09762e-06
 5.29165e-07
 -5.1604e-06
-3.76706e-06
-4.64032e-06
 9.30275e-08
-3.32069e-06
 4.06339e-06
 3.42207e-06
 5.79715e-06
 9.58653e-07
-5.95061e-06
 2.30279e-06
 5.34424e-06
-7.43755e-07
 -4.8631e-06
-1.36031e-06
-2.73953e-06
 6.17013e-07
 6.03486e-06
 -5.1602e-06
-1.18978e-06
-1.19532e-06
-2.64153e-06
-2.60157e-06
 -1.1505e-06
 5.27935e-06
 5.93676e-06
  -1.087e-06
-9.85361e-07
-5.36075e-06
-5.10865e-06
 5.65409e-06
-4.41087e-06
-2.76542e-06
 -5.1055e-06
 1.79244e-06
 2.41747e-08
 5.06817e-06
-9.04757e-07
-2.97941e-07
-9.24413e-08
-7.45087e-07
-4.11442e-06
-8.67464e-07
 4.62144e-06
-2.86723e-06
 3.88251e-06
-4.23736e-06
 3.86007e-06
 3.79811e-06
-3.28727e-06
-3.44898e-06
-3.51647e-06
  1.8149e-07
  5.9738e-08
 1.44331e-06
-6.58428e-07
-1.22769e-07
-5.76295e-06
  4.4665e-06
 6.26761e-07
-4.76131e-06
 4.00132e-06
 2.32617e-06
-1.41645e-06
  5.0061e-06
-2.00065e-06
 4.71801e-06
 3.95501e-06
 3.20487e-06
-1.69919e-06
 -2.2567e-06
-3.65948e-06
 2.96669e-07
 2.98612e-06
 -5.1573e-06
 3.53972e-06
 7.49372e-07
-3.28437e-06
 1.28052e-06
-1.57178e-06
-4.61353e-07
 3.94183e-06
 1.02203e-06
 5.83042e-06
 -2.1177e-06
-3.65392e-06
-9.47272e-07
 3.86982e-06
-3.30659e-06
-2.60004e-06
-1.62269e-06
-1.95761e-06
-4.71799e-06
-5.41578e-06
 2.73622e-06
-5.83115e-06
-1.30615e-06
 1.33497e-06
 4.23414e-06
-4.22054e-06
 5.74606e-06
-4.14182e-06
-1.76973e-06
-7.65365e-08
 4.95459e-06
-8.16747e-07
-2.65608e-06
-4.15305e-07
 2.00917e-06
 4.73473e-06
  4.1232e-06
-4.57145e-06
 2.55729e-06
-9.74037e-07
-4.86029e-06
-5.67967e-06
 1.48233e-06
 3.02719e-07
 4.30043e-06
 4.28602e-06
 3.81296e-06
-3.44152e-06
-3.79086e-06
 5.20526e-06
-2.74701e-06
 5.05565e-06
 5.48439e-06
 2.05712e-06
 2.71354e-07
 3.59927e-06
 3.94687e-06
-1.01852e-07
 5.56774e-06
-3.94213e-06
  5.9319e-06
 4.40306e-06
 1.35141e-06
-2.84345e-06
-2.13151e-06
-2.75869e-06
-4.22798e-06
-4.12758e-06
-1.21985e-06
  4.4396e-06
 1.00867e-06
  3.0138e-08
 4.87021e-06
-3.62827e-06
-5.78641e-06
 3.05138e-06
 -6.0564e-06
 4.46772e-06
 5.51308e-06
-3.31731e-06
 2.15515e-06
-3.41706e-06
-3.85089e-06
 3.05986e-06
 5.07577e-06
 2.44917e-06
-1.30641e-07
 2.81987e-06
-5.15344e-06
-8.62139e-07
  4.0122e-06
 -2.8947e-06
-2.51865e-06
 2.37481e-07
-8.28303e-07
 2.38232e-06
  3.4112e-06
  1.1325e-06
 4.33378e-06
 -3.2086e-06
-6.28397e-07
-9.36565e-07
 2.61992e-06
-2.10708e-06
 1.18182e-06
 2.86896e-06
-4.54979e-06
 2.27731e-06
 8.02725e-07
-6.69257e-06
 4.49199e-06
-1.75831e-06
-2.44622e-06
-6.85158e-06
-6.15141e-06
-2.21961e-06
 3.49518e-06
-1.12844e-07
 4.48958e-06
 3.81976e-06
 -5.8476e-06
  4.7049e-06
-5.31144e-06
-1.39134e-06
-1.76725e-06
  6.5988e-08
 5.57155e-06
-4.77367e-06
 -5.0817e-06
  3.5744e-06
-1.85016e-06
-3.65219e-07
-3.64488e-06
-5.69387e-06
 3.67686e-06
 3.17103e-06
 3.15763e-06
 4.78363e-06
-1.34754e-06
-2.00274e-06
 5.08314e-06
-2.92444e-06
 2.21698e-06
-3.38625e-06
 -1.7776e-06
 2.29918e-06
-5.69706e-07
-5.34624e-06
-3.13182e-06
-1.14551e-06
 4.82226e-06
-3.33624e-06
 -2.4457e-06
 6.13587e-06
-4.29416e-07
 2.36818e-06
 -9.2955e-07
 3.35761e-07
 3.05947e-06
 1.18363e-07
-3.17301e-06
-3.71857e-06
 4.23127e-06
-1.00121e-06
-4.98299e-06
 3.43945e-06
 -3.6179e-06
 5.30089e-06
 2.02519e-06
 1.53448e-06
-3.17436e-06
 1.16498e-06
  5.0632e-06
 5.75836e-06
 4.35485e-06
-3.08304e-06
 2.02521e-06
-2.36022e-06
-2.91631e-06
 4.69804e-06
 1.18705e-06
-3.53203e-06
-4.19274e-06
  5.5716e-06
-3.39354e-06
 1.42843e-06
 3.72234e-07
 2.15547e-06
-4.63427e-06
-2.82873e-06
-3.40138e-06
-1.24245e-07
-2.09223e-06
-5.63624e-06
 4.92612e-06
-2.19445e-07
 4.85875e-06
 -4.7795e-06
-6.60673e-07
 3.62841e-07
 3.07082e-06
 2.07317e-06
 -4.1993e-06
-4.57156e-08
 1.71115e-06
-6.00649e-06
 3.08441e-06
-2.53198e-06
-2.51943e-06
-4.95313e-06
-4.17432e-06
-4.63645e-06
-2.19355e-06
-3.38995e-06
 5.14219e-06
 1.56483e-08
 4.43885e-06
-3.96613e-07
-3.85061e-06
-5.93426e-06
 2.78772e-06
-2.29479e-06
-1.20624e-06
-4.30346e-06
-1.07905e-06
-2.04681e-06
 8.23269e-07
-3.74025e-06
-5.27112e-07
-3.42917e-06
 4.67833e-06
-5.45322e-06
 4.65995e-06
-4.96401e-06
 3.08076e-06
 3.34575e-07
-4.89528e-06
 3.09036e-07
 3.19092e-06
 -9.9167e-07
 2.99953e-06
 5.30721e-06
-1.41784e-06
 5.60273e-06
-3.79949e-06
-9.49724e-07
 -1.6705e-07
-5.69253e-06
 4.74594e-06
 1.51978e-06
-5.50699e-06
 8.00111e-07
 4.67037e-06
  3.4295e-07
 3.37725e-06
-2.18687e-06
 4.70988e-06
  -2.315e-07
 2.05127e-06
 -2.3432e-06
 6.12312e-07
 1.12224e-06
-1.67621e-07
-1.87173e-06
 2.64847e-07
-4.18794e-06
 6.42154e-06
 1.55009e-06
 1.78276e-06
 3.76103e-06
-4.27792e-06
-2.21759e-06
 3.38576e-06
-8.35451e-08
-2.21895e-06
 5.79739e-06
 5.62206e-06
 3.13799e-06
-5.37489e-06
 4.83288e-06
-3.04937e-06
 -4.8078e-06
-6.39295e-07
-2.00781e-06
 1.70972e-06
-4.11536e-06
 6.80716e-07
 -1.4575e-06
 2.20702e-06
-3.64455e-06
 3.10628e-06
-3.85261e-06
 2.41707e-06
-3.15108e-06
 5.00786e-07
-3.77346e-06
-2.33843e-06
 1.23189e-07
 4.81973e-06
 -5.9115e-06
-2.91196e-06
 5.12904e-06
-1.17544e-06
-5.33418e-06
-1.36112e-06
 2.41004e-06
-6.95825e-06
-1.90314e-06
-1.66238e-06
-5.61603e-06
-3.82561e-06
 2.35575e-06
-2.68192e-06
 2.35897e-06
 4.79676e-06
 3.05636e-06
 4.76882e-06
-9.16105e-07
 -3.0363e-06
-2.15052e-06
 1.70387e-06
-5.73386e-06
 6.20776e-07
-2.05935e-06
-3.55279e-06
 -6.0889e-06
 2.15393e-06
 8.48535e-06
-1.58164e-05
-9.09816e-06
 8.16787e-06
 2.31208e-05
  4.4145e-06
 1.31875e-05
 7.85962e-06
-1.69039e-06
 1.51649e-05
 2.27829e-05
-2.24772e-05
 2.19036e-05
 1.21095e-05
-7.92869e-06
 2.08252e-05
-6.36636e-06
 1.02772e-05
-3.77891e-06
 3.70861e-07
 1.07743e-06
-1.25222e-05
 1.42574e-05
-1.36082e-06
-7.17536e-06
-1.70633e-05
-8.67632e-06
 1.43715e-05
 5.50931e-06
 9.16332e-06
 9.69263e-06
 1.06359e-05
-2.04344e-06
-8.39676e-06
  9.0541e-06
 2.34747e-06
 3.44611e-06
 -1.8451e-05
-4.88945e-06
-1.43952e-05
 2.81096e-06
 1.17334e-05
-1.16746e-05
 1.18356e-05
-1.95235e-05
-1.37173e-05
 1.77981e-05
 -1.1267e-05
-1.79556e-05
 2.43485e-06
-1.41958e-05
-6.87059e-07
-2.27311e-05
 1.86805e-05
 5.94843e-06
 1.62186e-05
 1.64692e-05
 5.63834e-06
-7.36046e-06
-5.35842e-06
 3.10114e-06
-2.08469e-08
-3.59543e-06
  1.4659e-05
  1.0058e-05
-1.85285e-05
-1.27146e-05
-1.90839e-06
-1.41627e-05
-1.61549e-05
 -6.2156e-06
-1.54537e-05
-1.63269e-05
-1.57513e-05
 6.92861e-06
-4.07612e-06
-8.83018e-06
 8.33937e-06
 1.67903e-05
   1.268e-05
-1.81099e-05
 7.14945e-06
 2.62935e-06
-5.20498e-06
 9.23885e-06
-1.15437e-05
-1.15219e-05
-1.67669e-05
  1.2677e-05
-9.22766e-06
-1.28759e-05
 1.16474e-05
-1.24901e-05
-1.64086e-06
-2.13532e-05
-1.21085e-05
 3.59763e-06
 4.36147e-06
-1.62493e-05
 7.20291e-06
-1.63416e-05
-1.90346e-05
-1.67071e-05
 6.27938e-06
-6.25752e-06
-1.22474e-05
 9.96524e-07
-1.98257e-05
 2.45905e-05
-1.23036e-05
-3.26175e-06
-9.21464e-06
 1.96486e-06
-1.00318e-05
-2.52809e-06
 1.41158e-05
 3.92334e-06
-1.52316e-05
-1.00696e-05
-3.75883e-06
-1.30246e-05
-3.19575e-06
-1.40528e-05
 1.50158e-05
-8.12933e-06
-1.49394e-06
-1.18135e-05
 3.82538e-06
 2.03523e-06
 1.59324e-05
 5.99244e-06
-1.37558e-05
-1.06538e-05
 1.76421e-05
-1.19311e-05
-5.06871e-07
-1.40018e-05
-9.49028e-06
-7.06287e-06
 2.79492e-06
-9.80362e-06
  -3.748e-06
 6.09122e-06
 1.58143e-05
 7.16546e-06
-4.09117e-06
 7.65995e-06
 9.70093e-07
  6.1448e-06
 1.18512e-05
-1.30403e-05
-4.15113e-06
  1.0536e-05
-1.73706e-05
-1.34891e-05
 6.96227e-06
 1.27064e-05
-4.72583e-07
 -7.4243e-06
 5.04448e-06
-2.54938e-06
-5.63413e-06
 2.26733e-05
  9.5722e-06
 1.56435e-06
-2.94161e-06
 5.50601e-06
-6.69103e-06
 -1.8214e-05
-7.70277e-07
 6.46768e-06
-1.78972e-06
-3.55884e-06
 1.13701e-05
 1.02908e-05
 7.64177e-07
-5.50255e-06
-9.53273e-06
-1.58752e-05
 3.44437e-06
 7.46224e-06
 1.24178e-05
 1.57701e-05
 1.01767e-05
 1.97141e-05
-9.46883e-06
-1.58826e-05
 8.17278e-06
-2.30731e-05
 1.34109e-05
 -1.4891e-05
 -5.6463e-06
-1.76455e-05
 1.49556e-05
 -2.2677e-05
 8.51214e-06
 1.94413e-05
-1.33641e-05
 8.39374e-06
 1.44923e-06
 4.81813e-06
-3.76866e-06
 1.63571e-05
-3.17254e-06
  6.6067e-06
 2.23997e-05
 1.76572e-05
-1.09644e-05
-3.23074e-06
 8.30873e-06
-2.17315e-05
 2.32152e-05
-4.48933e-06
 1.31272e-05
   1.291e-05
 4.93053e-06
 1.04164e-05
  -1.078e-05
-7.53661e-06
 6.06867e-06
 9.11331e-06
-1.07695e-05
-1.83671e-05
 1.33611e-06
-9.55133e-06
-1.50661e-05
 2.35993e-05
 1.09802e-05
-1.29417e-05
-5.24177e-06
 7.13521e-06
 2.04142e-05
 1.30428e-05
 1.18535e-06
 -6.5509e-06
-8.31776e-06
 8.48379e-06
-4.44639e-06
 1.26727e-05
 1.22006e-05
-3.31673e-06
 3.92784e-06
-1.75178e-05
-1.42113e-05
-1.11642e-05
  1.6889e-05
  1.1442e-06
 1.29077e-05
 1.16071e-05
-1.86914e-05
 1.54834e-05
-9.64885e-06
 -7.8868e-07
 -3.1829e-05
-2.24441e-05
  3.2053e-05
 3.29013e-05
   1.359e-05
 2.38665e-05
-1.30196e-05
-8.03508e-06
-3.14401e-05
-2.82151e-05
-3.43078e-05
 3.30252e-05
-1.08279e-05
-3.03907e-07
 1.20262e-05
  6.8937e-06
-2.41919e-06
 1.90299e-05
  1.6311e-05
 1.56701e-05
 1.70458e-05
 1.79185e-05
 8.70157e-06
-1.09816e-05
-1.22407e-05
 8.44822e-06
 4.07904e-06
 2.18292e-05
  1.0401e-06
-4.10966e-05
-1.13139e-05
 2.34512e-05
-7.84735e-07
-5.28399e-05
-1.28394e-05
 5.27205e-05
 2.05246e-05
-2.72524e-05
-2.98368e-05
-3.31518e-05
 1.76697e-05
 5.19969e-06
 1.11086e-05
 2.65676e-05
-8.29703e-06
 2.04288e-05
-1.16371e-06
-9.28068e-06
 2.31166e-05
 1.48509e-05
 5.26898e-06
-3.28364e-06
  1.3463e-05
-2.63811e-05
-9.12087e-07
 2.69966e-06
-1.68932e-05
-4.87564e-06
 -6.6379e-06
-1.17384e-06
-1.16791e-05
-1.17958e-05
  2.6033e-05
 5.09018e-06
 5.39018e-06
 1.46532e-06
 7.42239e-06
-1.00982e-06
 1.97301e-06
 1.37268e-05
-2.76176e-05
-3.73257e-06
 1.96281e-05
 1.05361e-05
-3.21698e-05
 3.56094e-05
-4.72606e-06
 5.32357e-06
-7.99741e-06
 1.47061e-05
-1.29986e-05
 2.59678e-05
 -4.9884e-05
-3.02331e-05
-3.01642e-05
-4.10541e-06
-4.43805e-06
 7.25045e-06
-1.12143e-05
 4.85636e-06
-2.86039e-05
-3.65934e-06
 1.38037e-05
 3.03578e-05
 5.59605e-06
 9.36041e-06
 2.15331e-05
 1.29723e-05
-1.96537e-06
 2.92273e-05
-2.56115e-05
 -2.9841e-06
  2.8417e-05
  1.7271e-05
 1.50559e-05
-4.81378e-06
 1.14467e-05
-7.29386e-06
 -8.8555e-06
-4.03442e-06
  2.0637e-05
 6.26995e-06
-2.43655e-05
-2.19076e-05
 1.19054e-05
-1.81271e-05
 2.82422e-06
 2.46868e-06
-7.81917e-06
-4.84268e-06
 1.32607e-05
-3.26231e-05
-1.44774e-05
-4.37798e-05
-1.23835e-05
-1.92276e-05
-2.67726e-05
 6.54243e-06
-1.58414e-05
 4.81923e-06
 1.26265e-06
 3.67575e-05
 2.13226e-05
 -1.9671e-05
-6.70836e-06
-1.51033e-05
 3.54178e-06
 4.61233e-06
 1.60689e-05
-7.23984e-07
  -7.962e-06
 -2.3028e-06
-1.99024e-05
 7.27518e-06
-1.55752e-05
-4.92856e-06
-4.45874e-05
-3.21074e-05
 2.96345e-05
 3.99471e-05
 7.89219e-06
-1.91604e-05
-2.62832e-06
  1.8718e-05
 2.49511e-06
-1.66863e-05
 1.66047e-05
-8.30088e-06
-4.46681e-05
-1.53319e-05
 4.79482e-05
-2.01128e-05
-2.72796e-05
 2.49579e-06
-5.53608e-06
 1.32859e-06
  9.1985e-06
-1.77537e-05
 5.95702e-06
 3.83424e-06
-7.23596e-06
-2.03888e-05
-9.76527e-06
  8.9331e-06
 2.51904e-05
 1.16651e-05
 2.12198e-05
 3.62709e-05
 7.86444e-06
 1.14688e-06
 1.20712e-05
 3.19136e-05
 1.78135e-05
-2.91361e-05
-8.02668e-06
 2.63883e-06
 2.77851e-05
  6.0101e-06
-3.59854e-05
 1.08127e-05
 4.40446e-05
-8.06491e-07
 4.42858e-06
 -7.9391e-06
 2.65408e-05
-1.03989e-06
 1.38423e-05
 9.81861e-06
 2.11847e-05
 2.00843e-05
-3.07082e-05
 9.66051e-06
 2.10004e-06
 3.59978e-05
 1.24216e-05
-1.84071e-05
-7.42079e-06
-3.10171e-05
 4.33437e-05
-2.38467e-06
-1.29224e-05
 3.38756e-05
-1.24007e-05
 2.56933e-05
 1.10261e-05
  -1.589e-05
-1.47894e-05
-2.45678e-06
 2.60234e-05
   6.522e-08
-2.30302e-05
 1.45869e-05
 1.19924e-05
-6.00552e-07
-8.93998e-06
 1.91151e-05
-4.20223e-05
-1.15432e-06
 8.72941e-08
-2.36161e-05
 1.18257e-05
 3.11495e-06
 3.36536e-05
 2.27422e-05
 7.10473e-06
-2.27692e-05
 3.90333e-05
-2.20649e-05
-9.57487e-07
-2.59888e-05
-2.50961e-05
 1.28876e-05
 2.74556e-05
-1.16925e-05
 3.67937e-06
-1.59739e-05
-2.31445e-05
 1.85025e-05
-7.88132e-06
-4.97862e-06
-4.37497e-05
-1.82781e-05
 3.84443e-05
 4.05385e-05
 8.11905e-06
 2.81415e-05
-2.16318e-05
 3.91097e-07
-5.23995e-05
-3.09493e-05
-3.36426e-05
 4.86426e-05
-2.36836e-05
 1.01878e-06
 2.48323e-05
 1.46923e-05
-7.75939e-06
  2.1223e-05
 2.64838e-05
 1.67546e-05
 1.60816e-05
 1.62632e-05
 1.31606e-05
 -1.8411e-05
-6.46216e-06
 1.09303e-05
 1.20885e-05
 2.73088e-05
 9.77089e-07
-4.86637e-05
-1.87425e-05
 2.95557e-05
 5.65002e-06
-7.70534e-05
 -1.8363e-05
 6.87621e-05
 2.07713e-05
-4.31748e-05
-3.30249e-05
-4.96372e-05
 9.48881e-06
 1.76073e-05
 1.09002e-05
 2.86102e-05
-1.41337e-05
 1.98507e-05
 7.35297e-06
-7.92652e-06
 3.37228e-05
 2.02747e-05
-7.25303e-06
 5.09582e-06
 2.38772e-05
-3.20709e-05
 1.95643e-06
 5.08429e-06
-2.13373e-05
-1.11707e-05
-8.14465e-06
  3.7319e-08
-1.49299e-05
 -2.1022e-05
 3.40878e-05
-2.28678e-07
 1.25682e-05
 2.65385e-06
 2.50178e-06
 9.32906e-06
 1.13583e-05
 1.87883e-05
-2.93895e-05
 3.31969e-06
 3.85348e-05
 1.46612e-05
-4.60666e-05
 4.09863e-05
-1.37064e-05
  1.8531e-05
 1.22287e-06
  2.8517e-05
-2.12826e-05
 4.92963e-05
-6.26502e-05
-3.50423e-05
 -4.0059e-05
-9.37973e-06
 -1.3929e-05
-3.25764e-06
-9.68739e-06
 1.38996e-05
-3.38785e-05
 2.13468e-06
 6.80338e-06
 2.83196e-05
-4.74904e-06
 2.05995e-05
 3.28476e-05
   1.122e-05
 3.16386e-07
 3.64941e-05
-4.21789e-05
-7.84397e-06
 3.27581e-05
 1.55659e-05
 1.88375e-05
-1.40433e-05
 1.32557e-05
-1.55338e-06
-9.91717e-06
  2.4515e-06
 3.22705e-05
 1.20783e-05
-2.78743e-05
-2.57088e-05
 2.04208e-05
-3.19108e-05
 6.68421e-06
 1.38568e-06
-1.68208e-05
-1.37939e-05
 2.10709e-05
-4.77887e-05
-1.63859e-05
-5.49596e-05
-1.79966e-05
-2.03209e-05
-4.00896e-05
-2.87601e-06
-2.34001e-05
 8.20128e-06
 2.05677e-06
 4.70635e-05
 2.34761e-05
-1.79311e-05
-9.01813e-06
-2.57869e-05
  2.7873e-06
 3.04851e-06
 1.88567e-05
 1.72877e-06
-2.01399e-05
-2.43247e-06
-2.49125e-05
 8.90181e-06
-2.75115e-05
 1.63807e-06
-5.55118e-05
-3.77349e-05
 4.20111e-05
 5.30205e-05
 1.51601e-05
-3.56333e-05
-6.53927e-06
 3.00407e-05
 1.55928e-05
-1.26582e-05
 2.93094e-05
-1.62741e-05
-4.68663e-05
 -2.7074e-05
 6.04713e-05
-2.88438e-05
-3.61025e-05
 9.36903e-06
-3.51125e-06
 4.42618e-06
 2.54807e-05
-2.02891e-05
  5.0838e-06
 1.64577e-05
-6.23049e-06
-2.66779e-05
-4.43217e-06
 4.48612e-06
 2.06863e-05
  2.3443e-06
 2.72756e-05
 4.04713e-05
 2.09855e-05
 6.25166e-06
  7.1899e-06
 5.57382e-05
 2.41228e-05
-3.69136e-05
-8.41859e-06
 3.04168e-07
 3.61225e-05
 5.69919e-06
-4.22286e-05
 1.12609e-05
 6.42661e-05
-2.99281e-06
-2.85789e-07
-1.89676e-05
 2.54399e-05
-2.52587e-06
 2.73167e-05
 1.70727e-05
 2.91151e-05
 3.68019e-05
-4.15534e-05
 1.60218e-05
-1.41552e-06
 5.77242e-05
 1.58745e-05
-2.65389e-05
-7.11807e-07
-4.38108e-05
 6.03842e-05
  3.0338e-06
-2.72815e-05
 5.25094e-05
-1.16024e-05
 3.64775e-05
 1.04015e-05
-1.68199e-05
-2.33832e-05
 5.05783e-06
 3.59017e-05
 -5.3195e-07
-2.69655e-05
 1.09674e-05
 1.75253e-05
-2.61279e-06
-1.50683e-05
 3.07417e-05
-6.25577e-05
-9.04296e-06
 4.64079e-06
 -2.0488e-05
 1.50444e-05
 8.17433e-06
 5.05556e-05
 3.03251e-05
 5.33573e-06
-1.84885e-05
 4.94271e-05
-2.12454e-05
-3.54607e-06
 -3.5594e-05
-3.13837e-05
 1.82892e-05
  2.9369e-05
-1.38149e-05
 6.17524e-06
-1.96624e-05
-1.62399e-05
 1.16218e-05
 7.03307e-07
-5.33757e-06
-3.54211e-05
 -1.8249e-05
 2.27392e-05
 2.06532e-05
 8.23815e-06
 1.36466e-05
-1.68211e-05
-8.69179e-06
-2.75774e-05
-1.66479e-05
-3.26144e-05
 3.81021e-05
-1.30156e-05
 4.59654e-06
 4.60246e-06
  8.4443e-06
-2.10628e-06
 1.16897e-05
 1.00995e-05
 8.79372e-06
 7.64821e-06
 1.21781e-05
 7.72118e-06
-7.90947e-06
-1.18573e-05
 5.94228e-06
 1.12647e-05
 2.02141e-05
-3.83472e-06
-3.57311e-05
-1.39463e-05
 1.00626e-05
 9.21337e-06
 -5.2945e-05
 -6.6947e-06
  4.7771e-05
 1.52594e-05
-2.34384e-05
-2.10114e-05
-2.88279e-05
 1.18118e-05
 6.19141e-06
  9.1543e-06
 1.90879e-05
 5.25257e-07
 1.89969e-05
 1.88316e-06
-6.85862e-06
 3.00311e-05
 1.82098e-05
-8.75785e-07
-7.29284e-06
  8.7693e-06
-1.28373e-05
-2.70994e-06
 3.08603e-06
-1.54709e-05
-9.89212e-06
-6.87667e-06
 3.04886e-06
-1.26121e-05
-1.51336e-05
 2.33459e-05
-5.49534e-07
 8.42759e-06
 6.00933e-06
  2.9696e-06
  8.4133e-06
 4.22509e-06
 8.86154e-06
-1.32135e-05
-4.71436e-06
 2.42136e-05
 3.04007e-06
-3.34224e-05
 2.60803e-05
-1.24155e-06
 9.32599e-06
-8.52119e-06
 1.87636e-05
-1.50637e-05
 3.42932e-05
-4.72642e-05
  -1.968e-05
-2.00105e-05
-5.91481e-06
-1.13093e-05
-1.82522e-06
-5.71998e-06
 1.06318e-05
-1.30031e-05
-7.22556e-06
 3.87465e-06
 1.82452e-05
  1.3524e-06
 1.83322e-05
 2.10244e-05
 1.38368e-05
 3.93131e-06
 2.79043e-05
-3.50134e-05
-5.96377e-07
 3.34424e-05
 1.72863e-05
  2.1845e-05
-6.40124e-06
 1.94665e-05
 7.68978e-06
-5.52487e-06
 2.23052e-06
 2.92448e-05
 9.87905e-06
-2.24734e-05
-1.98911e-05
 1.84011e-05
-1.96361e-05
 -1.5126e-07
-1.22036e-06
-9.90868e-06
-3.36086e-06
 1.40624e-05
-3.15276e-05
-3.29092e-06
-3.03927e-05
-1.87885e-05
-1.07032e-05
 -2.5862e-05
-5.50551e-07
-1.33626e-05
 5.49753e-06
 6.54999e-06
 3.98058e-05
 1.97149e-05
-3.81215e-06
 -6.3523e-06
-9.43025e-06
 5.56946e-07
 2.68909e-06
 1.15301e-05
 1.43678e-08
-1.53866e-05
-1.38011e-06
-1.53973e-05
  1.0469e-05
-6.85562e-06
  1.5073e-06
-4.00065e-05
 -3.4079e-05
 2.47154e-05
 3.43976e-05
 2.13499e-05
-2.65289e-05
-6.27672e-06
 2.13158e-05
  4.6261e-06
 -1.6764e-05
 1.19167e-05
-2.05456e-06
-3.13872e-05
-2.25787e-05
 3.52914e-05
 -1.7034e-05
-2.22944e-05
 2.86103e-06
-3.47974e-06
-2.19046e-07
 1.89963e-05
-5.96105e-06
 8.60437e-07
 7.62925e-06
-9.66196e-06
-2.02673e-05
-4.95344e-06
 7.50405e-06
 1.66585e-05
 7.66605e-06
 1.22026e-05
 2.66977e-05
 1.46668e-05
 4.22664e-06
 3.30243e-06
 3.43035e-05
  1.8029e-05
-2.12876e-05
-2.84641e-06
 8.91521e-06
 2.92345e-05
 4.18614e-06
-2.16736e-05
 8.87157e-06
  3.4891e-05
 2.29382e-06
-6.60971e-06
-7.06623e-06
 1.32777e-05
-2.18508e-06
 1.01362e-05
 1.90133e-05
 1.71123e-05
 2.66552e-05
-2.48451e-05
 4.85593e-06
-4.90912e-06
 3.06043e-05
 1.24483e-05
-1.21676e-05
-2.16943e-06
-2.52114e-05
  3.0358e-05
 3.21273e-06
-1.38165e-05
 2.65257e-05
-7.82128e-06
 2.54769e-05
   1.282e-05
-6.50213e-06
-1.37805e-05
 2.76868e-06
 2.82616e-05
-5.30691e-06
 -1.0779e-05
 7.11563e-06
 2.20152e-05
 4.16954e-06
-1.64651e-05
  2.5949e-05
-4.50223e-05
-6.84527e-06
 3.72581e-06
 -1.6673e-05
 1.95233e-06
 3.11287e-06
 3.28578e-05
 2.30212e-05
   4.085e-07
-2.20515e-05
 3.31675e-05
-1.48282e-05
 3.59206e-06
-2.00065e-05
-1.74449e-05
 9.38215e-06
 2.45056e-05
-1.15741e-05
 8.15663e-06
-1.30464e-05
-4.64963e-06
 2.01388e-06
 1.13625e-06
-4.84839e-07
-1.37347e-05
 -2.1412e-06
  6.0306e-06
 4.36929e-06
-9.71891e-07
 6.15784e-06
-3.37024e-06
 4.09855e-06
-1.55783e-05
-6.49742e-06
-1.01731e-05
  1.3365e-05
-1.69527e-06
 2.72355e-06
  6.2553e-06
 4.36724e-06
-6.58919e-06
-1.82998e-06
 1.11465e-05
 9.73937e-06
 1.51429e-06
 2.53478e-06
 8.33315e-06
-6.28484e-06
 6.88997e-06
 6.84844e-06
 3.76638e-06
 7.60254e-06
-1.47335e-06
-1.86792e-05
-5.87702e-06
 7.81003e-06
 3.08399e-06
-2.18511e-05
-9.13086e-06
 1.21068e-05
 1.22719e-05
-5.93946e-06
-4.13469e-06
-5.55004e-06
 8.01832e-06
 5.03342e-06
 8.23347e-07
 1.00352e-05
-4.71478e-06
  2.9708e-06
 3.25625e-06
-8.44977e-06
 5.60395e-06
 6.60188e-06
-4.42554e-06
  3.7809e-06
  7.3588e-07
-7.16732e-06
 4.22231e-06
-4.90448e-06
-6.97558e-06
-2.80514e-06
 1.01513e-06
-6.54327e-07
-5.53121e-06
 1.86887e-07
 3.77052e-07
 -7.0857e-06
 7.32824e-06
-9.17779e-07
-1.35996e-06
 4.79934e-06
-4.20342e-06
-1.17498e-06
-3.80215e-06
 2.59642e-06
 1.20933e-05
-2.17433e-06
-1.30985e-05
 1.98445e-05
-5.71447e-06
 -2.2045e-06
-4.48723e-06
 5.60736e-06
-1.20582e-05
 1.12506e-05
-1.57257e-05
-8.89958e-06
-8.58512e-06
 1.54085e-06
-4.63448e-06
 2.70047e-06
 4.92217e-06
 6.07962e-06
-6.95436e-06
-4.18214e-06
 7.28705e-06
 3.23546e-06
-2.64395e-07
 5.55319e-06
 1.11437e-05
 4.31821e-06
-1.24302e-06
 7.95733e-06
-1.92469e-05
-4.27647e-06
 1.31277e-05
 7.88597e-06
   1.186e-06
-8.58953e-06
 5.17479e-06
 6.11653e-06
-5.79464e-06
 5.69965e-06
 1.11219e-05
 4.77163e-06
-9.88665e-06
-1.38962e-05
 1.92325e-06
-1.29561e-05
 4.58872e-06
 3.40476e-06
 4.91433e-07
-1.75356e-06
 6.33045e-06
 -5.0804e-06
-6.30802e-06
-1.75657e-05
 -5.7584e-06
-2.37623e-06
-5.46227e-06
-4.37251e-06
-6.21474e-06
 5.20963e-08
 7.87526e-06
 1.52959e-05
 4.67478e-06
 1.60585e-06
-7.11602e-06
-5.38844e-06
 1.85425e-06
 5.73506e-06
 7.53134e-06
 6.08142e-06
 3.56301e-06
-1.54324e-06
-9.47613e-06
 3.52809e-06
 1.01096e-06
 1.91475e-06
-1.50527e-05
 -1.8761e-05
 1.63159e-06
 1.02938e-05
-2.83371e-06
-6.89372e-06
-3.14311e-06
 3.37245e-06
 -2.1564e-06
-2.83053e-06
 5.92006e-06
-8.19183e-06
 -9.0476e-06
-2.63818e-06
 1.61959e-05
-5.09867e-06
-5.69545e-06
-2.10664e-06
-6.33921e-06
 -1.8538e-06
  3.1777e-06
-2.91502e-07
-2.30659e-06
-9.67909e-07
 2.72603e-07
 -1.2339e-05
-2.63189e-06
 8.00344e-06
 8.51463e-06
 -5.2034e-06
 8.44349e-06
 8.79246e-06
 5.54492e-06
-1.06754e-06
 2.16779e-06
 1.37934e-05
  3.0252e-06
-6.86633e-06
  1.5457e-07
-4.44433e-06
 4.52516e-06
 2.88646e-06
-1.18724e-05
 4.99635e-06
  9.9074e-06
-7.50919e-07
-2.75838e-06
 3.28674e-06
 1.11675e-05
-2.71822e-06
 9.00397e-07
 1.45567e-06
 3.99109e-07
 1.05834e-05
-1.15789e-05
 5.89372e-06
 3.92542e-06
 1.78596e-05
 8.14839e-06
-2.61865e-06
-6.36281e-06
-9.83967e-06
 1.48775e-05
 1.53974e-06
 3.75786e-06
 3.49159e-06
-4.71129e-06
 1.31552e-05
 3.91628e-06
-2.04091e-06
-1.00518e-05
 7.74337e-06
 6.52291e-06
-6.87737e-06
-1.96324e-06
 1.13699e-06
 9.40599e-06
 4.55979e-06
-4.84585e-06
 1.09466e-05
 -1.9099e-05
 8.27436e-07
 4.21847e-06
-5.31469e-06
-2.34297e-06
-3.43705e-06
 1.39546e-05
 4.71053e-06
 2.80447e-06
-1.01036e-05
  1.5186e-05
-1.39547e-05
 2.98177e-06
-1.03161e-05
-2.81941e-06
 5.16933e-06
 5.54237e-06
-2.10038e-06
 4.07044e-06
 4.12913e-06
-1.42119e-06
 1.97021e-08
 3.14772e-06
  6.0681e-06
 3.24499e-06
-1.70453e-06
-5.95934e-06
 1.17744e-06
-6.87506e-06
 1.07849e-06
-7.95514e-07
 4.07124e-07
 -2.7438e-06
-4.62073e-06
 1.74618e-06
 1.12596e-06
-3.59592e-06
-4.82526e-06
 1.01918e-07
-1.85757e-06
-8.71819e-07
-6.77972e-06
 4.96068e-07
-6.84434e-06
-5.32919e-06
  7.1201e-06
 1.14466e-06
 2.55426e-06
 3.28863e-06
-6.70257e-06
-1.98063e-06
-6.01385e-06
 5.37106e-06
-6.39604e-06
 7.52746e-06
 1.80549e-08
-3.58394e-06
-4.74825e-06
-2.35176e-06
-6.98401e-08
 2.12273e-06
  6.6402e-06
 1.61666e-06
 4.06452e-06
-5.78349e-06
  2.7789e-06
-6.57978e-06
-2.89312e-06
 5.38675e-06
 1.81923e-06
 3.86687e-06
-4.40957e-06
-7.65029e-07
-2.92946e-06
-7.70651e-06
 4.99736e-06
-7.43155e-06
 3.10008e-06
-4.39861e-06
 2.50418e-06
 5.19738e-06
 6.20895e-06
 3.14711e-06
 -3.1641e-06
 4.80932e-06
 2.22463e-06
-2.57339e-06
-4.61825e-06
 3.53066e-06
 2.77086e-06
 3.06321e-06
 1.41489e-06
 1.04486e-06
  2.3676e-06
 6.94529e-06
 4.53328e-07
-2.06305e-06
-4.65857e-06
 -6.8853e-06
-6.73605e-06
-2.30618e-07
 5.13441e-06
 -7.3462e-06
-3.75463e-06
-7.21998e-06
-6.69934e-06
-5.04254e-06
-3.49113e-06
 2.16431e-06
 1.45896e-06
 5.68245e-06
-2.11603e-06
-2.03438e-06
 1.34276e-06
-7.03744e-06
-1.66103e-06
-1.45654e-06
-2.72122e-06
-1.04798e-06
 7.08447e-06
 2.66261e-06
-1.10337e-06
-2.96443e-06
-2.44374e-07
 3.57408e-06
-6.03961e-06
-4.30182e-06
-2.84503e-06
 -4.9217e-06
-2.96555e-06
-5.50667e-06
 5.36679e-06
-3.48466e-06
-8.93135e-07
-3.82979e-06
-4.54178e-06
-3.85378e-06
-6.45343e-06
-4.76554e-06
-5.28418e-06
  2.4364e-06
-3.97879e-06
 -7.8405e-07
-7.59285e-06
 3.58665e-06
 1.15716e-06
-2.43127e-06
 4.84317e-06
 2.19365e-06
 4.01633e-06
 4.39232e-06
 1.38852e-07
-3.06598e-06
-3.13771e-06
-5.71478e-06
-1.35663e-06
-4.73712e-06
-9.89323e-07
-1.63407e-06
 4.01448e-07
 6.17694e-07
 3.80492e-07
-2.08723e-07
 3.29356e-06
 3.63207e-06
-2.90726e-06
-6.60702e-06
-2.13294e-06
 1.77607e-06
-3.31854e-06
-5.03468e-06
-4.90068e-06
-2.57417e-06
 4.17882e-07
-4.75638e-06
-4.02437e-06
-1.17881e-06
  9.4233e-07
-3.74289e-06
-4.09049e-06
-1.84343e-06
-6.26026e-06
 3.53579e-06
 3.72977e-06
-2.33999e-06
 4.15106e-06
-4.91143e-06
 6.12488e-07
-2.42209e-07
 3.08987e-07
-3.62397e-06
 2.76729e-06
-4.84678e-06
-1.67869e-06
 1.16815e-06
-7.11745e-06
 3.63976e-06
 4.58035e-06
-4.14361e-06
-2.42907e-06
 -5.0996e-06
-1.31114e-06
-2.92741e-06
-1.15558e-07
  -2.445e-06
 1.79181e-07
 3.55692e-06
-6.23179e-07
-5.94052e-06
 2.68875e-06
-2.56328e-06
 2.00785e-07
 5.55324e-06
-4.08675e-06
-1.78603e-06
-5.43993e-06
-6.48316e-06
-3.04882e-06
 1.88466e-06
 -4.5101e-06
 5.47576e-06
-1.19858e-06
-6.48093e-06
  -4.205e-06
 6.89095e-06
  4.7274e-06
 -5.6566e-06
 1.37031e-06
 1.47998e-06
 2.28416e-07
 6.82091e-06
  3.1301e-06
 2.97942e-06
-1.22554e-06
-4.14295e-06
 5.37364e-06
 5.30876e-06
 6.03721e-06
-4.22549e-07
 5.12313e-06
 1.63017e-06
   4.291e-06
-6.71683e-07
 1.31116e-06
 5.00973e-06
 3.79251e-06
 2.48458e-06
  5.7336e-06
-2.92915e-06
-1.31307e-06
-2.40865e-06
-6.05764e-06
 4.48803e-06
-1.46576e-06
 -6.3391e-06
 8.04909e-06
-3.87292e-06
-1.03946e-06
 1.71941e-06
 1.48363e-06
 2.04424e-08
 1.21452e-06
-3.10368e-06
 3.32366e-07
 5.00891e-06
-1.75884e-07
-1.40428e-06
 1.78622e-06
-6.27874e-07
  3.6561e-06
-9.93354e-07
-6.87798e-06
 -3.1351e-06
-3.69919e-06
 2.45262e-06
 1.12612e-05
-1.06297e-05
-4.12049e-07
 6.97196e-06
 -9.2961e-06
 6.96803e-06
 2.11095e-06
-8.74391e-06
 1.54199e-05
 -4.6429e-06
 7.28509e-06
 1.07401e-05
-2.77357e-06
-4.69361e-06
  1.6072e-05
-4.77074e-07
-7.80966e-06
-8.17553e-06
 3.65468e-06
-1.44542e-05
-1.87454e-06
-2.64421e-06
  5.0345e-06
 1.26768e-05
 2.00889e-06
 1.16607e-05
 -4.8961e-06
 3.15637e-06
-2.36003e-06
 9.21584e-06
 3.76042e-06
 5.92749e-06
 5.46373e-06
-6.22118e-06
-2.16329e-07
 1.19814e-05
 2.79146e-06
-2.18669e-06
 1.48584e-05
 2.29506e-07
 9.41322e-06
 8.74861e-06
 1.16429e-05
-1.00168e-07
 -1.2039e-06
 9.89138e-07
-1.24617e-05
-1.41981e-05
-1.14128e-05
 9.95056e-07
 6.91508e-06
 1.98683e-06
 2.15752e-05
 -3.7483e-06
 9.70464e-06
 1.26088e-05
  6.9353e-06
 3.46975e-06
-3.27295e-06
-1.02176e-05
  1.0434e-05
-8.39822e-06
 2.44725e-06
 3.07207e-06
-1.91756e-05
 1.15447e-07
 5.11725e-07
 2.54213e-06
 3.89233e-06
   1.404e-06
 5.04528e-07
 8.34505e-07
-1.24695e-05
 1.96964e-06
 1.70483e-05
-6.71729e-06
  -8.859e-06
 6.40139e-06
-1.44641e-05
-7.79035e-06
 1.11338e-06
 2.95724e-06
 1.68532e-05
 2.64896e-06
  7.9769e-06
 2.29453e-05
-1.12152e-06
-5.85948e-06
 2.32777e-06
 3.92674e-06
-7.74356e-06
-7.40427e-06
 5.33304e-06
-1.68344e-06
-1.02055e-05
-1.14062e-05
-1.15108e-05
-1.11941e-05
-4.70844e-06
 1.39783e-06
-1.76945e-06
 8.86706e-06
-4.63908e-06
 -1.2671e-05
-3.32486e-06
-1.15868e-05
-3.87004e-06
-4.62608e-06
-5.53578e-06
 5.27829e-07
 5.52407e-06
 1.32854e-05
-5.63895e-06
-1.42014e-05
-5.58083e-06
 -1.3937e-06
  5.0168e-06
 3.23969e-06
-5.13681e-06
  7.0823e-06
 4.34151e-06
 -2.2819e-06
-6.85305e-07
  7.2685e-06
 1.22177e-05
 4.53354e-06
 -1.7531e-06
-1.70937e-05
 2.30961e-06
 7.04527e-06
 -4.6008e-06
 1.05692e-06
 4.83888e-06
 2.26287e-06
 9.57078e-06
 -5.9383e-07
-1.15308e-05
-7.12168e-06
-3.16609e-06
 1.17167e-05
 8.34248e-06
-1.81794e-06
  1.5949e-07
 6.36757e-06
-1.01673e-05
 3.19472e-06
-1.47518e-05
-1.60358e-05
 3.53949e-06
-7.33349e-06
-1.48766e-06
 4.86568e-08
 1.09491e-06
  3.6095e-07
 8.99505e-06
 7.40667e-06
-7.01679e-06
  1.0113e-05
 1.09488e-05
 -2.7487e-06
 5.66985e-06
-2.05852e-06
 1.03511e-05
  3.1381e-06
-2.65773e-07
-7.10089e-06
 4.97271e-06
 1.55689e-06
-4.39766e-07
-1.30826e-05
 1.00793e-05
-5.51309e-06
 2.57538e-06
-1.26222e-05
-1.33794e-05
-1.23434e-05
 9.91368e-06
-2.24817e-06
 1.33592e-05
-1.33034e-05
 1.98099e-06
-4.36501e-06
-2.37059e-06
-5.96575e-06
-4.97538e-06
-1.12693e-05
-1.71064e-05
  5.5272e-06
-9.35828e-06
-2.44815e-06
 4.78425e-06
 9.34439e-07
 8.83407e-06
-3.43471e-06
 1.12867e-05
-2.85598e-07
-3.30984e-06
-1.53945e-05
 7.64871e-07
 1.69458e-06
-8.49374e-06
 9.57546e-06
 4.61791e-06
-1.21989e-05
 1.77589e-06
-9.02954e-07
-7.16648e-06
-7.88837e-07
 -4.3557e-07
 2.30755e-05
-8.50185e-07
  9.1785e-06
  4.1266e-06
 9.91673e-07
 2.99105e-07
 7.11953e-06
 6.12151e-06
-1.53543e-05
 -1.5648e-05
 2.93035e-06
-1.19025e-06
-1.09271e-05
  1.3732e-06
 1.00527e-06
 1.43376e-06
-1.87625e-06
 5.20258e-06
 -1.3324e-07
 1.06119e-05
 1.09067e-05
-2.02335e-06
-6.78519e-07
 1.14638e-05
 4.90848e-06
 7.25197e-06
-1.31315e-05
  1.5672e-06
 -3.5233e-07
-9.02933e-06
-1.58096e-06
-3.15419e-06
-3.96403e-06
 6.53799e-06
 6.73806e-06
 1.60605e-05
 1.05051e-06
 4.80425e-06
-3.42476e-06
 4.51133e-06
 -5.8251e-06
 3.33611e-06
  7.1739e-07
-2.93231e-06
-4.75622e-09
 3.38025e-06
-2.36244e-06
 4.11926e-07
-9.04793e-06
 1.36971e-06
 -3.3181e-06
 2.78976e-06
 7.23991e-06
-7.46683e-07
-2.18067e-06
 1.01788e-05
 1.19304e-06
-4.96164e-06
 4.13186e-06
 5.01292e-06
 -2.5869e-06
 1.54851e-07
-4.70768e-06
 -3.1825e-06
 4.74508e-06
 3.50903e-06
-1.28076e-06
-2.55521e-06
 2.52986e-06
-1.07657e-06
-1.05007e-06
 5.26175e-06
 -5.2338e-06
 4.58811e-06
-5.90993e-06
-5.54709e-07
 9.68118e-06
 2.39133e-07
 5.07168e-06
 7.83348e-06
 1.67686e-06
  3.3007e-07
 2.36648e-06
 5.52637e-06
 1.32005e-06
 2.64154e-06
  2.5511e-06
-5.35249e-06
-8.33643e-06
-2.60947e-06
-1.75299e-06
 3.47519e-06
-2.39128e-06
 4.30105e-06
 3.52407e-06
  5.1978e-06
 1.95046e-07
 5.89563e-06
-2.55018e-06
 5.15952e-06
-3.34806e-06
 3.66657e-06
-1.81357e-07
-2.01498e-06
 1.78619e-06
 3.08451e-07
 3.92544e-06
-1.59867e-06
-9.04175e-07
 3.64681e-06
-1.94223e-06
 -4.4471e-06
-4.07656e-06
  1.5379e-06
 8.01135e-07
 6.53952e-06
-2.33237e-06
-3.32121e-06
-2.85356e-06
-6.47198e-07
 1.15796e-06
-1.50123e-06
-3.15115e-06
 9.59268e-06
  3.8623e-06
-2.64136e-07
 9.74716e-06
-4.36082e-06
-5.01241e-06
  8.2905e-06
-5.23097e-06
-9.57359e-07
-2.08593e-06
 6.05698e-06
 6.11795e-06
 2.09166e-06
-9.29041e-07
-1.01848e-06
-8.45713e-06
 3.71442e-06
-1.86609e-08
 3.68993e-07
 7.43648e-06
-1.55435e-06
-5.16165e-06
-3.60252e-07
 -7.3065e-06
  5.0788e-06
-5.90537e-06
-2.68193e-06
 2.53352e-06
  5.8335e-06
 4.26594e-06
 4.31758e-06
 4.34806e-07
-2.09743e-06
-4.41054e-06
 4.75067e-06
 8.83876e-07
-4.53525e-06
 4.72149e-06
 2.85809e-06
 1.83898e-06
 -6.6823e-06
 8.99067e-08
 5.03386e-06
 7.97186e-06
 -4.5118e-06
-6.12804e-06
-4.83939e-06
-1.66881e-06
 3.39524e-06
 2.75551e-08
-2.74589e-06
 3.16249e-10
 8.22516e-06
 4.77516e-06
-1.92408e-07
 1.87737e-06
   3.946e-06
 9.88874e-06
 1.82975e-07
 -2.2052e-07
 3.24402e-06
-2.40397e-06
-2.03694e-06
-4.83449e-06
-5.19512e-06
-8.20533e-06
 4.96706e-06
-4.63894e-07
 1.71969e-06
-2.66279e-06
 6.70813e-07
 5.29862e-06
 6.12446e-06
-3.95707e-06
 1.82337e-06
 6.21619e-06
 3.84821e-06
 6.42226e-06
 5.56079e-06
-4.30217e-06
 1.12368e-06
 5.39082e-06
 4.25361e-06
 -2.8282e-06
 2.55936e-06
-5.95838e-08
 -5.0629e-06
-2.28132e-06
  6.0594e-07
-5.35719e-06
-4.38873e-06
-6.74856e-06
-3.40122e-06
-3.56094e-06
-3.49996e-07
 4.21977e-06
 8.26637e-06
-9.02516e-06
 3.25557e-06
-2.19339e-06
-4.52509e-06
-8.10728e-06
-5.52723e-06
-6.86563e-06
-9.82952e-06
 5.39802e-06
  1.4908e-06
 5.50567e-07
 4.09508e-06
 4.45454e-06
 7.67342e-06
 -4.5903e-06
 7.94526e-06
 1.80917e-06
 2.40317e-06
-2.80764e-06
-2.49713e-06
 2.23062e-06
-7.10775e-06
 5.58011e-06
-3.19042e-06
-5.17871e-06
 3.83818e-06
 2.78753e-06
-4.13327e-07
-4.04049e-06
-1.54696e-07
 5.32625e-06
-4.93414e-06
 3.73272e-07
 7.15491e-06
-2.78549e-09
-4.43301e-06
-1.11346e-06
 1.54051e-06
-5.33431e-06
-7.82146e-06
 2.59624e-08
 3.51214e-06
-7.58601e-06
-3.89309e-06
 4.68798e-06
 4.28773e-07
-5.62194e-06
 3.45319e-06
 6.83597e-06
 4.42941e-06
 6.50094e-06
 7.01163e-07
 5.70838e-06
 1.62963e-06
 1.68662e-06
-3.05192e-06
-6.28925e-06
-4.48765e-06
  5.4579e-06
-6.52213e-06
 2.46101e-06
-7.76071e-07
-5.21493e-06
-5.25492e-06
-7.56904e-07
 3.70268e-06
-4.38468e-06
  1.4523e-06
-5.82866e-06
  1.4297e-06
-2.76301e-06
-5.38103e-06
 3.89431e-06
 4.73954e-06
 1.99232e-06
 1.57277e-06
 3.64934e-06
  1.6945e-06
  1.6832e-06
 6.08481e-07
-4.62765e-06
  5.9293e-06
-2.30152e-06
 -3.8391e-06
 7.15469e-06
-4.10265e-06
-3.86855e-06
-2.24938e-06
 1.66694e-06
-2.90873e-06
-1.10489e-06
 1.44422e-07
 1.95727e-06
-2.26199e-06
-3.81028e-06
 4.31482e-06
 5.57131e-06
 4.73545e-06
-2.01643e-06
 5.91992e-07
-4.05802e-06
 7.32131e-06
-1.76361e-06
-2.28612e-06
 2.82321e-07
 1.12787e-05
-3.11571e-06
-3.74134e-06
-2.07815e-06
 5.95523e-07
 1.29817e-06
-4.95058e-06
 1.80425e-06
-4.23827e-06
-3.62837e-06
 3.22876e-06
-3.87376e-06
-5.78577e-07
 5.92906e-06
 5.11145e-06
-2.76107e-07
 3.17998e-06
 6.66722e-06
-9.87965e-06
-3.73007e-06
-1.21561e-06
 1.08386e-06
-5.06268e-06
-6.24971e-06
-3.88379e-06
-6.06314e-06
-4.82529e-06
-2.42736e-07
-2.80714e-07
-2.67823e-06
  4.8794e-06
-4.13436e-07
-7.38475e-07
-2.28914e-06
-3.94225e-06
-3.33917e-06
 3.05165e-06
-1.95049e-06
 6.90078e-06
-1.10586e-06
-3.55961e-07
 1.84662e-07
-3.60344e-06
  2.2089e-06
 -1.1754e-06
 1.28823e-06
 1.83084e-06
 6.90528e-07
-2.17609e-06
-4.73753e-06
-5.68663e-06
-8.05292e-06
-3.71243e-06
-3.07868e-06
-3.24048e-06
-5.11075e-06
 1.96196e-07
 1.93038e-06
  1.5856e-06
 4.84508e-06
 6.53357e-06
 5.04275e-07
 1.04938e-07
-2.26071e-06
 4.76756e-06
-6.20476e-06
 6.71459e-07
 4.41104e-07
 1.84773e-06
  4.5276e-06
-5.89989e-06
 5.77946e-06
-4.96321e-06
-6.72431e-06
-1.10846e-06
 2.33702e-07
  4.0857e-06
-1.50216e-06
-6.28773e-06
 2.08363e-06
-7.01762e-06
-8.47726e-07
-4.03532e-07
-4.75009e-06
  2.6705e-06
 1.81586e-06
-3.65784e-06
-4.67133e-06
-8.53831e-06
-7.71929e-06
-6.52813e-06
 6.66164e-07
-3.03529e-06
-1.45171e-06
-2.97827e-06
 1.10884e-06
 8.73656e-06
  5.0559e-06
 3.24812e-06
-4.05697e-06
-6.20052e-06
 6.07304e-06
 6.24677e-06
 4.29893e-08
-5.08971e-06
-5.38717e-06
 6.80747e-07
 2.17659e-06
-5.35575e-06
  5.9316e-07
-2.15479e-06
-1.01619e-05
-6.57784e-06
 7.92421e-06
 1.20763e-06
 8.17971e-06
-4.09705e-06
 4.78355e-06
-3.15701e-06
 1.00413e-06
-8.86065e-06
-1.33466e-06
-1.17459e-06
 -8.3349e-06
-2.03314e-06
 5.86069e-06
  2.6873e-06
-3.26187e-06
-1.77068e-06
 4.84319e-06
 2.19407e-06
 2.63467e-06
 3.18672e-06
 1.89125e-07
 5.90198e-06
 5.37396e-06
 5.84564e-07
-6.45388e-07
 4.35062e-06
 7.06794e-06
-9.90721e-07
-2.14666e-06
 7.53376e-06
-1.34944e-07
 1.90017e-06
 -1.7528e-06
 9.50098e-07
-1.13382e-06
-6.00588e-06
-1.54314e-06
 4.86951e-06
-1.29699e-07
 4.34053e-06
-6.67648e-06
 1.73858e-06
 3.08934e-06
  3.7975e-06
-1.66553e-06
-1.02985e-07
-1.88097e-06
-3.77963e-06
 1.12142e-06
 3.10269e-06
-3.84401e-08
 7.61918e-06
 -2.8393e-06
-3.30956e-06
 7.86143e-07
-2.23601e-06
 8.63873e-06
-2.16241e-06
-4.59016e-06
 4.18714e-06
 3.09659e-06
 1.77843e-06
  3.4046e-07
 5.66006e-06
 2.48843e-06
-3.00764e-06
 5.55418e-06
-4.34285e-06
 9.17179e-07
 5.41878e-06
 8.04242e-06
-4.59721e-06
-4.15653e-06
-2.14805e-06
 6.89187e-06
 3.50086e-06
 2.66908e-06
 7.23055e-06
-1.09629e-05
-4.59281e-06
 3.49927e-07
-7.06423e-06
-4.13277e-06
-3.30408e-06
 2.52805e-06
 6.31507e-06
-3.38035e-06
 -6.6819e-06
 3.70975e-06
-2.10841e-06
-3.17083e-06
 2.03979e-06
-7.14861e-06
-3.07237e-06
 2.69392e-06
 3.60844e-06
-5.13332e-06
-5.99211e-06
-3.50381e-06
 4.75684e-06
 -3.0125e-06
-5.21887e-06
 4.76152e-06
 1.97875e-06
-3.51084e-06
 2.50655e-06
-6.54492e-07
-5.00671e-06
 1.61543e-06
 5.13817e-08
-1.84901e-06
-3.34779e-06
 2.75038e-06
 1.50447e-08
-1.40784e-06
-5.28505e-06
-1.74948e-06
 8.74419e-07
-2.09614e-06
 2.92584e-06
-5.97601e-06
 9.55677e-07
  5.4991e-07
-5.16358e-06
 1.83933e-06
 6.11387e-06
-5.69759e-06
 3.15445e-06
-2.83694e-06
-3.09112e-06
 1.79202e-06
 2.60842e-07
-2.19971e-06
 4.34277e-07
-3.87967e-06
 3.99736e-07
-3.17844e-06
 1.57612e-06
 1.50331e-06
 4.54727e-06
-4.49176e-06
 5.76458e-06
-4.91978e-06
 4.36891e-06
-3.39641e-07
 -2.1733e-07
 5.19414e-06
 4.02116e-06
-5.46218e-06
-3.02126e-06
 8.27736e-07
 -5.3279e-06
  4.0447e-06
-4.74162e-06
-4.38119e-06
-2.35232e-07
-4.74701e-06
 -3.9685e-06
-3.20005e-06
-1.47367e-06
-9.49334e-07
 4.70225e-06
 4.89746e-06
 2.96124e-06
-9.82735e-07
-5.10148e-06
-2.75829e-06
 1.94911e-06
 2.58493e-06
 4.85531e-06
 3.77121e-07
 4.20345e-06
 4.50062e-06
 1.56763e-06
  2.4531e-06
-1.95828e-06
-4.76897e-06
 1.52797e-06
-4.05639e-06
-4.12086e-06
   4.617e-06
 2.88163e-06
-3.33847e-06
 2.54243e-06
  4.2503e-06
-1.60937e-06
-3.81206e-06
 5.61357e-06
 5.32412e-07
-9.01831e-07
-1.97936e-06
 5.69336e-06
-2.31884e-06
-3.20117e-06
 2.53534e-06
 2.80871e-06
-2.19237e-06
 5.88734e-06
-1.36144e-06
-5.72671e-06
 4.62338e-06
 5.12596e-06
 4.58703e-06
 3.00474e-06
 5.74324e-07
 9.20864e-07
-5.07281e-06
 1.91564e-06
-3.67043e-06
-3.01891e-06
 3.90507e-06
-5.17269e-06
 5.97301e-06
-5.55267e-06
 3.48002e-06
 4.10404e-06
-1.05175e-06
 5.77824e-06
 3.59835e-06
 5.59094e-06
-1.24285e-06
-4.50028e-06
 5.16504e-06
 2.54859e-06
-1.59117e-06
 1.58112e-06
-7.61967e-07
 2.32674e-06
 1.34919e-06
 3.98687e-06
 2.71032e-06
-1.46692e-07
 2.99357e-06
 1.17809e-06
-3.26122e-06
-2.55137e-06
-4.02031e-06
-2.22374e-06
 5.47456e-06
-1.58045e-06
 8.67627e-07
 3.26036e-06
-6.42863e-07
 7.21368e-07
 3.81798e-06
 -3.2821e-06
-1.29386e-06
-3.35304e-06
-3.62313e-06
-3.81477e-06
-3.88136e-06
 1.24431e-06
-2.20477e-06
-4.83559e-06
-2.32637e-06
 2.31434e-06
 2.85582e-06
 3.02195e-06
-1.47818e-06
-1.91426e-06
 8.89561e-07
-4.88712e-06
 4.04934e-06
-2.23614e-06
 2.40125e-06
-5.33115e-06
 1.32278e-06
 4.49123e-06
-1.44461e-06
 6.78068e-07
-3.20849e-06
  5.5333e-06
-2.18084e-06
 2.25893e-06
 1.35406e-07
-4.48212e-06
 5.08711e-06
 4.95183e-06
-1.72488e-06
-4.65528e-06
-4.98221e-06
 5.04043e-07
 2.69931e-06
-1.07669e-06
 1.77874e-06
-5.74632e-06
-4.88162e-06
-1.48471e-06
 3.38592e-06
-2.49513e-07
 2.71132e-06
-1.84379e-06
 9.73649e-07
  6.4139e-07
 2.03036e-06
-2.74436e-06
 1.42053e-06
-2.76612e-06
 -4.3724e-06
  6.0862e-06
 4.02223e-06
-1.47061e-06
 5.50024e-06
-4.27787e-06
-5.33095e-06
 -4.8362e-07
-2.64971e-06
 5.86645e-06
-1.65105e-06
 1.73569e-06
 -4.9081e-06
-5.22971e-07
-3.87953e-06
  3.9015e-06
 4.51062e-06
  4.0095e-06
 4.26547e-06
 5.73929e-06
-3.59447e-06
 1.53212e-06
-6.29488e-07
 5.22713e-06
 5.79862e-06
 -5.7751e-06
-2.50746e-07
 1.70972e-06
-2.40918e-06
-4.94949e-06
 5.05388e-06
-6.71303e-07
-4.98255e-06
 2.95685e-06
 3.96837e-06
-5.60158e-06
 4.78926e-06
 4.74771e-06
 2.50897e-08
-3.97972e-06
 4.49489e-06
 4.48432e-06
 3.86626e-06
 5.69708e-06
-2.15791e-06
 6.09702e-06
 3.47932e-06
-3.76656e-06
 3.98725e-06
 1.62552e-06
-8.87134e-06
-3.92607e-07
-3.86944e-06
 3.55853e-06
 3.29887e-06
-1.70741e-05
 2.02941e-05
 9.05171e-06
  1.5594e-05
 2.35173e-05
-8.02899e-06
-1.02813e-06
-8.00465e-06
-1.42089e-05
 -2.9688e-06
 2.19694e-06
-3.49904e-06
-7.47716e-08
  5.3037e-06
-1.03352e-05
 -2.9384e-06
 1.76276e-05
-5.62383e-06
 2.28059e-06
 1.43967e-05
-7.58733e-08
 5.88232e-06
-1.63883e-06
-1.22655e-05
-1.36778e-06
-3.30408e-06
 6.30745e-06
-1.35622e-06
-4.98895e-06
-6.30088e-06
 5.02893e-06
 5.52259e-06
-7.23397e-06
  2.6585e-06
  1.0394e-05
 2.51527e-06
-1.80543e-05
-6.83833e-06
-1.25727e-05
 5.40003e-06
-5.48367e-06
 8.73753e-07
-1.38617e-06
-3.14541e-06
  5.6518e-06
 4.96027e-06
-1.68935e-06
 9.36639e-06
 1.06053e-05
-2.75911e-06
 3.99558e-07
-8.38179e-06
-9.90175e-06
-2.65701e-06
 1.08355e-06
-1.84187e-05
-3.58251e-06
-5.56661e-06
-5.80637e-07
-6.48125e-06
-3.05562e-06
 1.47221e-05
 1.16821e-05
 6.88478e-06
 2.27414e-06
 2.67424e-06
  9.5258e-08
-7.76593e-07
 2.36374e-06
 7.80627e-07
 1.16679e-06
 2.35937e-06
-5.06399e-06
-9.30522e-06
-2.74571e-06
 5.29086e-06
 7.43476e-06
 5.00412e-06
 1.10526e-05
-5.99714e-06
 2.83514e-07
-2.12309e-06
-2.06008e-05
 4.78819e-06
-1.43935e-05
-5.85177e-06
 6.83282e-06
 -9.1249e-06
 1.22527e-05
-2.06041e-05
 8.78343e-06
-7.17337e-07
 1.52232e-05
 4.63696e-06
 6.55949e-06
 1.44158e-05
 5.69876e-06
  3.7034e-06
 1.99904e-05
-3.09715e-07
 1.15737e-06
 4.83667e-06
 7.99234e-06
 1.55812e-05
-1.64762e-06
  6.4365e-06
-7.86945e-06
-3.45324e-06
 1.93206e-06
 6.45572e-06
-3.22712e-06
 4.99623e-07
  5.3735e-07
 9.03207e-06
 6.27438e-07
 1.46649e-06
 -2.6645e-06
-3.72863e-06
-1.67207e-06
-7.34414e-06
-5.64308e-06
-4.09983e-06
-1.68994e-06
-6.63115e-06
-1.18407e-06
 2.12427e-06
 3.36982e-06
-6.87782e-07
 8.66746e-06
-1.10943e-05
-5.69587e-07
 1.83391e-05
-1.23265e-05
  1.4402e-05
-1.61723e-05
 8.02424e-06
 1.36386e-05
 9.30568e-06
 1.94395e-06
-3.23825e-06
   6.566e-06
-4.90841e-06
-2.50382e-06
-2.28063e-05
 1.00897e-05
-5.70726e-06
 1.30847e-05
 1.74064e-05
-3.95322e-06
 1.46731e-05
 9.63341e-07
-9.60129e-06
    2.39e-06
-1.97692e-06
-3.95982e-06
   2.077e-05
-7.53616e-06
-1.42024e-05
-1.49471e-05
 8.62659e-06
-5.68786e-06
 1.80632e-06
 7.27649e-06
-1.68336e-06
-8.86339e-07
-2.67248e-06
-7.49785e-06
-1.33505e-06
-2.40865e-06
  3.3229e-06
-4.26495e-06
 4.17907e-06
  6.6487e-06
 8.48955e-06
 1.31548e-05
 8.36365e-06
-6.37226e-06
-5.78207e-07
-1.00868e-05
-1.74217e-06
  3.1059e-06
 9.85965e-07
-6.61501e-06
 7.06828e-06
 1.12094e-05
 2.01061e-06
 9.86569e-06
-1.36901e-05
 7.17818e-06
 5.24055e-06
 5.78558e-06
-4.77052e-06
-1.45959e-05
 2.68011e-06
 4.11483e-06
 7.34063e-06
 3.08563e-06
 1.22907e-05
 7.81237e-06
-1.19447e-05
 1.13476e-06
 4.48955e-06
 1.06436e-05
 6.76243e-06
-9.37273e-06
-3.53062e-06
-3.28272e-06
 1.44124e-05
-6.85974e-06
-1.54438e-05
 8.71233e-06
-9.47866e-06
 1.15672e-05
 8.78804e-06
-1.61402e-06
 8.73775e-07
-6.10195e-06
-1.01058e-06
  1.4211e-05
-1.75561e-05
 7.46035e-06
 6.57482e-06
-2.78624e-06
-3.50001e-06
-1.75841e-06
-5.68637e-06
-8.18655e-06
-5.77275e-06
-1.40538e-05
 1.09483e-05
-3.17959e-06
 3.91949e-07
 5.47426e-06
 4.15119e-06
 -1.1349e-05
 8.51953e-06
 6.49543e-06
 -7.2393e-07
-1.63994e-06
 -7.2628e-06
 9.03362e-06
 1.11353e-05
-8.53499e-06
  -6.085e-06
-1.35815e-05
 2.19159e-06
-4.71002e-06
-4.07768e-06
 6.86772e-06
 3.69539e-06
-2.02586e-06
-3.98947e-07
-7.59904e-07
 6.31445e-07
-3.86025e-06
 3.87169e-06
-2.81401e-06
-3.54329e-06
-5.95031e-06
-1.33158e-06
-3.57226e-06
-2.99877e-06
-4.40735e-06
 6.00017e-06
-1.32741e-06
-3.35779e-06
 1.43089e-06
 6.45353e-06
-2.30189e-07
-3.19729e-06
 4.19781e-06
-3.92175e-06
-1.94915e-06
-4.10999e-06
 1.51773e-06
 3.17863e-06
 4.53883e-06
 4.81277e-06
 4.47574e-06
 5.28114e-06
  1.9603e-06
-3.74296e-06
-1.74135e-06
-3.87593e-06
  4.0684e-06
 3.24048e-07
-4.46391e-06
-7.25303e-06
 2.55357e-06
-5.31386e-06
 6.07047e-07
 2.14437e-06
-1.68816e-06
 1.85015e-06
 3.43045e-06
 3.99204e-06
 3.24664e-06
-3.30405e-06
 4.80972e-06
-4.07998e-06
 1.84972e-06
 1.66245e-07
-5.49589e-07
  3.6925e-06
 2.47031e-06
-3.72176e-06
 2.41554e-06
 1.03706e-06
 4.03752e-06
 3.83386e-07
-1.00155e-06
  3.0221e-06
 3.16102e-06
 4.09036e-06
 5.61273e-06
 1.77164e-06
-1.18646e-06
 6.37694e-06
 3.05386e-06
 4.83348e-06
 -5.2447e-06
-3.21486e-06
 1.11415e-06
-5.37605e-07
 2.48661e-06
-3.76775e-06
-1.37052e-06
-3.02944e-07
 1.41557e-06
-5.21488e-06
 2.34035e-06
-3.04488e-06
   3.855e-06
-3.44358e-06
-3.15956e-06
 5.38968e-07
-2.31058e-06
 3.49661e-06
-4.92251e-06
-3.16133e-06
-5.79012e-07
 3.54735e-07
  6.7911e-06
-3.55403e-06
-2.05563e-06
  4.0146e-06
 5.00325e-06
-4.44211e-07
 5.40673e-06
 2.27934e-08
-2.75435e-06
-5.57796e-06
 3.59238e-06
 4.81759e-06
 5.95197e-07
-4.61812e-07
-2.73287e-06
 5.75602e-06
 6.82549e-06
 5.43656e-06
 -4.5984e-06
  2.1587e-06
-5.23463e-06
  3.9077e-06
 5.70008e-06
-2.08103e-06
-1.18174e-06
-2.83031e-06
-5.00471e-06
-7.39555e-07
 1.73625e-06
 8.62125e-07
 4.28173e-06
 3.24345e-07
  4.0468e-06
-4.88241e-06
-8.27859e-07
 2.34058e-06
 1.47654e-06
-1.70672e-06
-8.58679e-07
 4.25902e-06
-5.46439e-07
-5.09185e-06
 3.71845e-06
 -6.1155e-06
 3.40338e-07
-4.72194e-06
-5.83729e-06
  3.1548e-08
 4.57897e-06
 -4.4933e-06
-1.99428e-06
-5.49677e-06
-5.93217e-06
 -3.7655e-06
-2.46164e-06
-1.67054e-06
-4.31285e-07
-2.65394e-07
 3.85449e-06
-2.96025e-06
-5.16675e-06
 3.43919e-06
  4.3266e-06
  4.6195e-06
 3.66834e-06
-2.28799e-06
 1.92701e-06
 2.48033e-07
 2.64497e-06
 6.20208e-06
-1.35409e-06
-2.70158e-06
-5.01518e-06
-3.06585e-06
-4.96188e-06
  1.6034e-06
-2.98894e-06
-4.47902e-06
-4.23639e-06
-4.11862e-06
-7.51218e-07
 4.39382e-07
-4.18688e-06
-1.06258e-06
 3.57782e-06
-1.43639e-06
 4.17564e-06
-9.04942e-07
 4.94763e-06
 2.11185e-06
 4.95787e-07
 5.44859e-06
-1.80083e-06
-3.26041e-06
  4.8317e-06
-3.28056e-06
 1.90385e-06
 7.38881e-07
 2.12738e-06
 -2.6821e-06
-5.99986e-07
-5.74371e-06
-5.58149e-07
 1.84898e-06
-4.61874e-06
 1.53546e-06
-2.04284e-06
 1.22415e-07
 4.93366e-06
-2.32112e-07
 7.72174e-07
-2.41304e-06
-5.31396e-06
 3.25607e-06
 2.94978e-06
 4.04341e-06
-4.01865e-06
 6.32133e-07
-3.60119e-06
-4.75254e-06
-2.72831e-06
 4.12792e-06
-5.25982e-06
 6.80081e-07
-5.07182e-06
 5.74679e-06
 4.37743e-06
 1.95511e-06
 5.06203e-07
 2.99579e-08
  5.5973e-06
-5.17773e-06
 1.39531e-06
 5.11082e-09
 1.66528e-06
 2.43307e-06
-4.33206e-06
 5.04777e-06
-2.13451e-06
-5.05558e-06
 8.75692e-07
  4.4178e-06
-2.21543e-06
-2.95301e-07
 7.22588e-07
 6.67353e-06
-1.17478e-06
 2.27309e-06
 1.66586e-06
 4.52888e-07
 2.84707e-06
 3.87892e-06
-2.42317e-06
 5.01094e-06
-9.58388e-07
-6.23672e-07
 4.99233e-06
 -2.6318e-06
-4.51569e-06
-5.47486e-07
 3.91982e-06
-4.55127e-06
 5.18722e-07
-1.36375e-06
 1.17714e-06
 -3.0419e-06
-3.87938e-06
 2.85218e-06
-3.15063e-06
-7.66459e-07
 3.11461e-06
 2.93687e-06
-2.82366e-06
-5.60993e-06
-2.68172e-06
  3.7826e-06
-5.70845e-06
  2.0711e-06
 1.87534e-07
 1.04613e-06
-2.72099e-06
-2.14968e-06
-1.50258e-06
 1.81446e-06
-3.25801e-06
 3.64931e-06
-4.92847e-06
-4.38495e-06
-5.10175e-06
-3.33388e-06
 1.17785e-06
 4.92835e-06
-1.77487e-06
-4.42269e-06
-2.55466e-06
 5.51256e-06
-1.35431e-06
 -3.2376e-07
 2.24547e-06
 1.60535e-06
 5.02007e-06
-7.59192e-07
-1.57704e-06
-3.92286e-06
-2.58837e-07
 1.85152e-06
 5.97002e-06
 1.42996e-07
-2.19664e-06
 3.82908e-08
-4.93014e-06
 1.19265e-06
 3.99889e-06
-3.22438e-07
-3.11216e-06
-5.37838e-06
-2.79239e-06
-1.93035e-06
-3.65305e-06
-1.78385e-06
 8.46055e-07
 3.63509e-06
-2.97477e-06
 5.18147e-06
 5.32268e-06
 5.80858e-07
 4.57476e-06
-2.15089e-06
-5.86217e-06
 7.00961e-07
 5.56474e-06
 5.26818e-06
 6.05205e-06
-2.13157e-06
-4.77394e-06
-3.26048e-07
 5.83024e-06
-4.92319e-06
 5.92723e-06
-2.48567e-06
 1.22539e-06
-5.12217e-06
 4.81726e-06
-8.94985e-07
 6.65676e-07
-4.41416e-06
-1.63082e-07
 3.98357e-06
-2.34218e-07
 2.29416e-06
-3.91955e-06
-5.50743e-06
 -1.9002e-07
 -7.8403e-07
 5.78433e-06
-9.86604e-07
 5.90711e-06
 4.23982e-06
 2.97279e-06
-6.07432e-06
-1.17848e-06
 2.41826e-06
 5.30415e-06
-1.24569e-06
-5.83257e-06
-5.58906e-06
 4.53854e-06
 6.10796e-06
-4.40196e-06
 4.34651e-06
-2.49697e-06
 2.93371e-06
 5.33462e-06
-3.79897e-06
-4.08054e-06
-1.18965e-07
-2.10285e-06
 1.86666e-06
-2.25466e-06
 3.77322e-06
-1.95845e-06
-6.39225e-08
 4.37608e-06
 3.96182e-06
 5.26233e-06
 4.04114e-06
-3.14405e-06
 5.05018e-06
 2.16169e-06
 5.93902e-06
 5.08614e-06
-5.13606e-06
 2.23802e-06
 4.27103e-06
-2.71468e-07
 2.51574e-06
 4.79225e-06
-1.85219e-06
 2.50443e-06
-5.72898e-06
-3.62495e-06
 6.11774e-06
 3.31502e-06
-4.40959e-06
 -3.8005e-06
 5.34476e-06
 1.58173e-06
 2.06942e-07
 1.09216e-06
 5.43736e-06
 -2.1391e-06
 5.24399e-06
-7.45829e-07
-3.88229e-06
 3.08655e-06
-1.60276e-06
-5.96042e-06
 6.05278e-06
-2.67185e-06
 2.31155e-06
 5.87254e-06
-3.70497e-06
 3.28578e-06
  1.9913e-06
-5.55321e-06
-3.10495e-06
-1.61223e-06
 5.34933e-06
 1.15314e-06
-5.22706e-06
 5.73064e-06
 3.63848e-06
-5.22859e-06
 2.92639e-06
 5.33918e-06
 -2.9188e-06
 2.15188e-06
 8.01648e-07
 3.39843e-06
-2.87523e-06
 1.19741e-07
-4.85994e-06
 -3.7505e-06
  5.4842e-06
-2.63195e-06
 5.44633e-06
-2.23783e-06
-2.48208e-06
 5.37985e-06
 1.20061e-06
 5.93976e-06
 5.13312e-06
 3.60592e-06
 3.10627e-06
 1.00515e-06
   4.163e-06
  6.1116e-06
  5.5032e-06
 3.39306e-06
 1.14548e-06
-5.84313e-06
 3.00443e-06
 -1.3353e-06
-4.96143e-06
-1.88445e-07
-2.11539e-06
-1.76994e-06
-4.15583e-06
 4.79654e-06
-4.49077e-06
-9.20775e-07
-1.20298e-06
-3.24043e-06
 1.43901e-06
-1.83805e-06
 2.37909e-07
 7.66075e-07
 2.03441e-06
 3.86611e-06
  2.6658e-08
-2.88425e-06
  3.6866e-06
-9.59486e-07
 -5.3976e-06
 6.73605e-07
 -6.0736e-06
 4.87569e-06
 6.65943e-07
 5.53989e-06
 2.14949e-06
-4.30784e-06
 5.80705e-06
-9.65342e-07
 4.67137e-07
-5.27364e-06
  4.9565e-06
 4.46203e-06
-9.33296e-07
 -5.3186e-06
 3.13931e-06
 6.86215e-07
-1.29088e-07
-4.18294e-06
 3.07287e-06
-5.23144e-06
 1.99106e-07
-1.20612e-06
 1.39201e-06
-3.72017e-06
-5.07955e-06
-4.89458e-06
-1.16128e-06
 5.77553e-06
 1.07508e-06
 6.80458e-07
 9.60065e-08
 6.76328e-07
-1.95982e-06
-4.62223e-06
 1.29564e-08
-5.15179e-06
-3.75704e-06
 6.17239e-07
 4.93547e-07
  2.3053e-06
 1.60181e-06
-1.64028e-06
 2.96435e-07
-5.38299e-06
-5.22983e-07
-1.01832e-06
  1.2555e-06
 4.72987e-06
-1.77233e-07
-1.89388e-06
-4.72731e-06
-6.69351e-06
 3.07195e-06
 2.17067e-06
-4.51095e-06
 3.87278e-06
 4.19873e-06
 1.53996e-06
 3.30379e-06
  5.1634e-07
-5.77571e-06
 -3.0448e-06
-5.67078e-06
 6.02216e-07
-3.83368e-06
  6.0367e-07
 1.65758e-06
-3.84661e-07
-4.08637e-06
-5.12929e-06
-5.44698e-06
 3.79831e-06
-1.37866e-06
 2.76429e-06
 2.39142e-06
 5.35991e-06
-6.33663e-06
-2.29629e-06
 5.14144e-06
  1.3103e-06
 2.12187e-06
 3.80267e-06
  5.1057e-07
-1.83286e-06
 2.20366e-06
 2.20843e-06
-3.76289e-06
 7.93348e-07
-1.75841e-06
 6.18959e-06
 -5.6802e-06
 2.57459e-07
-4.82995e-06
-5.41303e-06
 6.45574e-06
-2.26035e-06
 1.76817e-06
 2.38485e-07
 1.95656e-06
 4.65247e-06
 1.08678e-06
 4.33973e-06
 6.84839e-07
-5.87104e-06
 8.48651e-07
  -1.002e-06
 5.97644e-06
 2.38212e-06
  3.0639e-06
  3.7844e-06
-3.80556e-06
-1.29646e-06
  2.6363e-06
 3.80161e-06
  3.2276e-06
-7.46026e-07
-2.07807e-07
  5.2106e-06
 4.54463e-06
 4.90277e-06
   2.861e-06
 5.86822e-06
-2.26075e-06
 3.08845e-06
-5.28779e-06
-1.40392e-06
-5.12749e-06
 3.13991e-06
 4.53968e-06
 4.64203e-06
 1.91392e-06
 1.05499e-06
 3.18289e-06
-2.99834e-06
  5.0153e-07
-3.38847e-06
  8.9284e-07
 9.83648e-07
 5.45515e-06
-1.62333e-06
-1.32164e-06
 -4.8311e-06
 2.80879e-06
-3.63851e-06
 5.22737e-06
-1.24055e-06
 3.98176e-07
-4.51994e-07
-2.88574e-06
-4.92659e-07
-1.97311e-06
-5.56627e-06
-8.31372e-07
 3.76736e-06
 3.05121e-06
  7.1551e-07
-4.93627e-06
 5.01996e-06
-2.51021e-06
-6.44259e-06
 3.69705e-06
 5.80035e-06
-1.49167e-07
-9.54049e-07
-3.18951e-06
-4.35671e-06
 3.06839e-06
 4.51611e-06
 1.66351e-06
  1.5624e-06
-3.79569e-06
-5.85648e-06
 3.51382e-06
 5.36305e-06
-1.83765e-06
 3.01365e-06
-1.18854e-06
 5.24221e-06
-3.86549e-06
 1.55607e-06
-1.12172e-06
  1.2557e-06
 2.76563e-06
 4.54903e-06
-1.71685e-06
 1.85748e-07
 1.44804e-07
-5.00038e-07
-3.88702e-07
 2.17074e-06
-7.00579e-07
 -4.0023e-06
 2.21263e-06
 5.44074e-06
 1.59994e-06
 6.62963e-06
-4.87036e-06
-2.01387e-06
  4.7596e-06
 3.46439e-06
 4.91569e-06
-4.48898e-06
 5.57465e-06
 2.82426e-06
-4.97104e-06
-3.78721e-06
-5.49628e-07
-1.01236e-06
-6.21609e-06
 2.36458e-06
 -4.6686e-06
-4.09524e-07
-2.47557e-06
 3.36957e-06
-2.56228e-06
 8.22917e-07
-2.69606e-06
  2.5968e-06
  -4.782e-06
 1.31617e-06
-8.01949e-07
 1.16242e-06
 4.71087e-06
-3.36994e-06
 3.86021e-07
-8.27189e-07
-3.26187e-06
 2.47054e-06
 3.76501e-06
-4.39285e-06
-6.02908e-07
 2.93386e-06
-3.08298e-06
-1.69423e-06
-1.40762e-07
-1.66593e-06
 1.34067e-06
 5.42721e-06
 3.00678e-06
 1.46239e-06
 1.60417e-06
 4.87571e-06
-5.61633e-06
 5.45572e-06
 2.04696e-06
-1.81495e-06
 9.96554e-07
 5.97219e-06
-4.53439e-06
 1.52001e-06
  1.2343e-06
 1.03184e-06
-4.12556e-06
 9.32018e-07
 3.90118e-06
 4.10417e-06
 5.83641e-06
 6.03387e-06
-1.21951e-06
 2.99801e-06
-4.83827e-06
 5.39737e-06
-6.74006e-07
-1.50502e-06
-2.99046e-06
 4.54534e-06
 2.38652e-06
  3.9072e-06
 4.29211e-06
-8.39056e-07
-1.46253e-07
 1.74786e-06
-2.24698e-06
  6.8359e-07
 -3.7927e-07
-6.22936e-06
 4.54359e-06
-4.39629e-06
-5.83139e-06
 6.82706e-06
 3.62213e-06
 1.81353e-06
 2.01695e-07
 7.12576e-06
-4.22817e-06
-1.82909e-06
 3.54797e-06
-3.78686e-06
-1.67853e-06
-3.65525e-06
 5.24299e-06
-1.66263e-06
-4.91584e-06
-1.44044e-06
 2.68241e-06
 3.92617e-07
-2.52336e-06
-2.06501e-06
-2.31046e-06
-4.45028e-06
 5.04056e-06
 3.07608e-06
  3.4676e-06
-3.91111e-06
-2.56066e-06
-3.25365e-06
-3.24322e-06
-3.06887e-06
-1.75788e-06
-1.64508e-06
-4.17928e-06
-4.57018e-06
 5.55781e-06
 4.29055e-06
-5.76946e-06
-4.64314e-06
-3.56395e-06
 4.95032e-06
-1.53311e-06
-2.57065e-07
-6.03354e-06
-2.24219e-06
 3.49369e-06
-3.09093e-06
 3.60162e-07
 1.17213e-06
    1.51e-06
 4.11763e-06
 6.35174e-06
-5.25941e-06
 5.97308e-06
 2.63635e-06
 3.71722e-06
 2.44237e-06
-5.11786e-06
-4.86726e-06
 5.60556e-06
-1.75652e-06
-1.23251e-06
-1.75001e-06
 1.86527e-06
 2.32725e-06
 -2.0074e-06
 1.13686e-06
 3.82758e-10
-1.38274e-06
 3.05664e-06
 8.46008e-07
-4.01325e-06
-3.76223e-06
-5.65888e-06
-2.27038e-06
-1.48935e-06
 4.46832e-06
 6.17125e-07
-5.27123e-06
-1.13317e-07
-2.28732e-06
 5.20073e-06
-1.05711e-06
-2.77208e-06
 4.70293e-06
-3.40806e-06
-4.21863e-06
 1.26495e-06
-1.89901e-06
-3.07111e-06
 3.98237e-07
 8.92184e-07
 2.54166e-06
 2.41421e-06
-2.49623e-06
-2.51139e-06
 5.49711e-06
 5.11544e-06
 4.10337e-06
-1.84634e-06
  2.5849e-06
-1.56238e-06
 1.90017e-06
 5.16624e-06
 3.88441e-07
 6.05045e-06
-1.93653e-06
-2.03043e-06
-7.11783e-07
-2.27655e-06
 4.57195e-06
 3.45141e-06
-2.67275e-06
-2.57577e-06
-5.79006e-06
-4.45887e-06
 1.25612e-06
-3.75641e-06
 1.79486e-06
  4.1813e-06
-8.97622e-08
-4.63967e-06
-3.83352e-07
-3.96247e-06
  4.4445e-06
 3.14578e-06
 1.46827e-06
 3.25925e-06
  2.8437e-06
-1.69117e-06
 -3.7512e-06
-9.29337e-07
  2.9277e-06
 4.40875e-06
-1.60496e-06
-3.64773e-06
  2.6788e-06
 2.69255e-06
 1.79826e-06
-2.89226e-06
-5.02273e-06
 -7.8922e-07
 5.85387e-06
-2.13661e-06
 2.66868e-06
-5.40423e-06
-2.53008e-07
-6.95774e-07
-2.67086e-06
-3.79444e-06
-2.08019e-06
  3.0514e-06
-2.78876e-06
 3.88698e-06
 6.15248e-06
-3.81878e-06
 1.29309e-06
  9.0024e-07
 6.02367e-06
-1.01419e-06
 5.36081e-06
-3.33834e-06
 2.64182e-06
 2.29689e-06
 6.02654e-06
-4.73287e-06
 4.93402e-06
 3.01815e-06
 5.51942e-06
 7.72733e-07
 5.69082e-06
 -5.8811e-06
-5.59233e-06
 4.70552e-06
-1.26187e-06
 4.98507e-06
-6.32002e-06
 4.86099e-06
-3.19101e-06
-3.14049e-06
-5.98569e-06
-6.64248e-07
-5.55986e-06
-1.78556e-06
-2.10409e-06
-5.50397e-06
-3.05622e-07
 4.73497e-06
 4.45819e-07
 -5.2919e-07
-3.46024e-06
 6.70048e-07
 5.86817e-07
 -6.4051e-06
-2.63432e-06
  1.7406e-06
-3.73087e-06
-3.91438e-06
-2.34741e-06
-4.72044e-06
 3.78683e-06
-2.29556e-06
-4.26972e-06
 3.89929e-06
-3.34852e-06
 2.76998e-07
 2.23547e-06
-3.34476e-06
-7.12156e-07
 5.84433e-06
 -3.6788e-07
-9.99482e-07
-7.18763e-07
 1.16322e-07
 3.73914e-06
 2.75469e-06
 9.32689e-07
-2.76233e-06
 1.61585e-06
-3.92973e-06
  3.3138e-06
 5.04381e-06
 2.07092e-06
-2.15548e-06
 4.99884e-06
 4.87968e-06
 6.76696e-06
-4.72634e-06
-3.47471e-06
-2.06659e-06
-4.02985e-06
 4.79979e-06
 1.27912e-06
-2.53805e-06
 3.65465e-06
 3.56948e-06
 4.14562e-06
-7.85523e-07
-6.62128e-06
-3.22134e-06
-1.59646e-06
-2.85509e-10
 2.17603e-06
 4.27657e-06
-5.59776e-06
-1.25972e-07
 1.08199e-06
 1.54796e-06
 3.49114e-06
-3.21707e-06
 3.80655e-06
 4.45218e-07
-4.66665e-06
 3.53688e-07
 5.09962e-06
-5.96619e-06
-1.04303e-07
  4.9984e-06
-5.13074e-06
   1.897e-06
-3.34603e-06
-3.29134e-06
 1.19224e-06
 3.82855e-06
-2.46447e-08
-1.46423e-06
 1.32157e-06
-2.55596e-06
 4.41801e-06
 1.43453e-06
 3.35441e-08
-2.75396e-06
-4.68502e-06
-3.90969e-06
-4.59666e-06
-4.17249e-06
 2.07462e-06
 2.59561e-06
 3.48576e-06
-5.53504e-07
 5.48883e-06
 1.17305e-06
   6.002e-06
-5.29709e-06
-4.59253e-06
 4.98236e-06
-5.15299e-06
 1.41345e-06
 3.86149e-06
-4.17345e-06
-2.80881e-06
-5.60381e-06
 -1.3545e-06
 4.49371e-06
 4.33503e-06
 4.73114e-06
-3.08978e-06
-4.62666e-07
-3.94409e-06
-4.79104e-06
 -5.1474e-06
 2.19974e-06
-1.43471e-06
-3.72213e-06
 4.40033e-06
 7.89168e-08
-1.78433e-06
 3.55683e-07
-3.44473e-06
-4.41784e-06
 5.91246e-06
-4.07517e-06
  2.8655e-06
  5.7952e-06
-3.26198e-06
 4.38326e-06
 4.65829e-06
-2.30468e-06
-3.22553e-07
 2.40051e-06
-3.67846e-07
 2.97892e-06
 2.90699e-06
 4.38794e-06
 1.35337e-06
 1.12275e-06
 2.99981e-06
 4.37387e-06
-5.45918e-06
 5.16601e-06
 5.69312e-06
 -4.4963e-06
 1.24648e-06
-1.86086e-06
-2.10814e-06
-4.72454e-07
 4.32834e-06
 2.21781e-06
 5.99351e-06
-5.23566e-06
 3.91026e-06
 5.78671e-06
-3.20055e-06
 6.56497e-07
 5.46264e-06
-3.52236e-07
-1.07951e-06
 4.00167e-06
 3.45336e-06
 4.70822e-06
 2.82914e-07
-3.03375e-06
 1.56788e-06
-2.92936e-06
-4.76507e-06
-3.19802e-06
 4.30367e-06
 4.34502e-06
-4.94341e-06
 4.95477e-06
 3.39176e-06
-5.36956e-06
-5.66079e-06
-1.48102e-06
-1.12014e-06
-1.65865e-06
 4.15681e-06
-2.91106e-06
 -5.5601e-06
 4.03106e-06
-2.03643e-06
 4.46045e-06
  3.6985e-06
 8.73305e-07
-1.00232e-06
 3.04188e-06
 -5.5982e-06
 4.02846e-06
 9.24283e-07
 3.96545e-06
 2.61741e-06
-4.91207e-06
-5.18756e-06
-1.93397e-06
-1.73115e-06
-3.84235e-06
 9.78295e-07
-3.54675e-06
-5.61659e-06
 2.14517e-06
-4.71124e-06
 3.88545e-06
 2.88589e-06
-4.26175e-06
-3.71483e-06
-4.35351e-06
 1.89891e-07
-5.67729e-06
-1.15429e-06
 7.40079e-07
 4.46405e-06
 2.91956e-06
-9.18736e-07
 2.04329e-06
 -2.3264e-06
 4.18923e-06
-1.03409e-06
-1.81431e-06
 2.09842e-06
 6.00047e-06
-3.96812e-06
-1.40343e-06
-5.03086e-06
 -3.0454e-06
 2.77288e-06
-6.51723e-07
-7.77459e-07
-2.36809e-06
 1.91182e-06
-2.83766e-07
 5.88737e-06
 3.31086e-06
-2.51758e-06
 2.65399e-06
  5.1594e-06
-1.22124e-07
 4.41076e-06
-7.69976e-07
 3.10871e-07
-2.86279e-06
 6.08039e-06
-1.34434e-06
-6.06249e-06
-9.57613e-07
-5.42032e-06
-2.27861e-06
-2.88765e-06
-3.44126e-07
 2.01737e-06
 5.32106e-06
-4.62917e-07
 4.15953e-06
-2.20163e-06
 6.16508e-07
-5.00513e-06
-5.54801e-06
 6.07507e-06
 3.27698e-07
-1.80581e-06
 1.86762e-06
-6.07533e-06
-2.03771e-06
-9.40783e-07
-2.48263e-06
-5.50299e-06
-1.90065e-06
 3.50554e-06
 5.01806e-06
 3.43966e-06
-2.30286e-06
-3.96399e-06
 3.40078e-06
 2.46308e-06
 -3.9162e-06
 -3.6761e-06
 3.15305e-06
-8.45216e-08
-4.53457e-07
-3.31034e-06
-4.18642e-06
-1.25166e-06
 2.33703e-06
  6.0834e-06
   2.657e-06
-3.16573e-06
-5.04099e-06
 3.21927e-06
-3.20992e-06
 1.39699e-06
-4.70581e-06
 4.76798e-06
 1.43194e-06
-6.33235e-07
-2.29206e-06
  5.0596e-06
-2.59359e-08
 1.91757e-06
 2.44587e-06
-1.12714e-06
-7.62035e-07
-5.97625e-06
 1.01915e-06
-3.48052e-06
 2.59712e-06
 3.21324e-06
-1.04633e-06
-3.69096e-07
-2.99055e-06
  4.6105e-06
 2.43085e-06
-1.06668e-06
-2.76042e-06
-1.35138e-06
-1.10255e-06
 6.00686e-06
 1.59317e-06
-3.32544e-08
 3.10686e-06
 4.49354e-06
-4.75553e-06
 4.51134e-06
 3.14226e-06
  2.7867e-06
-2.24116e-06
-5.26907e-06
 1.72703e-06
 3.84319e-06
 2.75878e-06
-1.94636e-06
-3.40322e-06
-4.12252e-06
-1.81233e-06
 3.72622e-06
-1.49275e-06
-5.33448e-06
 8.20195e-07
  3.5712e-06
 4.06706e-07
 3.93993e-06
 2.06244e-06
-3.28171e-06
-3.24601e-06
  5.4123e-06
 1.47719e-06
 1.76172e-06
 5.29989e-06
 -3.0489e-06
 -4.3908e-06
 2.28748e-06
-4.67463e-06
-3.03604e-06
 6.79556e-07
 4.57791e-06
 5.86094e-06
 4.54868e-06
 5.41912e-06
 1.46871e-06
  2.2726e-06
 2.05864e-06
 5.63263e-06
 4.97967e-06
 4.04641e-06
-2.29897e-06
 2.58662e-06
-3.56561e-06
-1.52317e-06
-2.71245e-06
 6.11588e-06
 4.99382e-06
-4.89178e-06
 2.05905e-06
-4.40715e-06
-2.02751e-06
 1.35208e-06
 3.18033e-06
  5.8445e-06
 5.32707e-07
-5.98784e-06
-4.66556e-06
-3.29907e-06
-4.55218e-06
-1.59132e-06
 3.49077e-06
-6.09353e-06
-1.84964e-06
 1.92018e-06
 5.43588e-06
 5.72935e-06
-1.92649e-06
 1.37525e-06
 5.24271e-06
-3.06608e-06
-6.97605e-07
-3.17553e-06
 5.63082e-06
 1.84707e-06
 1.41158e-06
-3.20089e-06
 1.84368e-06
  2.8614e-07
-1.98239e-06
-2.21654e-06
 1.98927e-06
 2.10039e-06
 5.24583e-06
-9.49667e-07
 1.82562e-06
-3.40725e-07
 -8.2722e-07
 3.27034e-06
 2.47049e-06
 7.30887e-07
-4.44024e-06
-1.58011e-07
 7.47642e-07
-1.79601e-07
 -4.3571e-06
 6.42561e-08
 -5.6952e-07
-1.73295e-07
-4.67975e-06
-1.44608e-06
 2.87091e-06
 7.32926e-07
 1.48868e-06
 2.38247e-06
-3.53927e-06
  -3.219e-06
 5.29186e-06
 4.41469e-06
 3.17742e-06
-2.80979e-06
-3.92111e-06
 -9.5257e-07
 5.40088e-06
-4.79454e-06
 4.20805e-06
 1.10724e-06
 9.75021e-07
-2.73844e-06
-1.74168e-06
-2.67376e-06
 4.10273e-06
-7.16417e-08
 3.27852e-06
-1.26889e-06
 5.85904e-06
 5.03171e-06
 4.90565e-06
-8.29743e-07
-1.26085e-06
-5.89337e-06
 3.83446e-06
-4.50921e-06
 9.49843e-07
-7.96124e-07
 3.98354e-06
 3.52086e-06
 2.09516e-06
 3.15613e-06
 1.81629e-06
-8.46684e-07
-5.77292e-06
 4.00546e-06
 4.31103e-06
 5.73825e-06
 5.32121e-06
 2.39981e-06
  7.2622e-07
 1.76966e-07
 5.77166e-06
 5.09482e-06
 3.61349e-06
 3.75513e-06
-1.09609e-06
 7.72744e-07
-3.63302e-06
-1.35631e-06
-3.14815e-07
-4.84664e-06
 3.92423e-06
 4.53462e-06
-4.62972e-06
 1.63943e-06
-6.09386e-06
 2.43041e-06
-5.27596e-06
 3.99996e-06
-1.68002e-07
 2.92949e-06
 1.03682e-06
-4.47098e-06
-4.03646e-06
 1.37419e-06
 5.64477e-06
 -5.8447e-06
 9.93167e-07
 4.84671e-06
  2.6654e-06
-4.39988e-06
-1.09559e-06
  2.3178e-06
-5.42432e-06
-3.60136e-06
 -4.6339e-08
-4.10125e-07
 3.28167e-06
 2.43092e-06
 4.34385e-06
-3.15241e-06
 3.69457e-06
 2.14882e-06
-4.73706e-06
 5.17513e-06
-2.33102e-06
-4.72064e-06
 1.48627e-06
-1.49669e-06
  5.3896e-06
  -4.801e-06
-4.68647e-06
 3.07159e-07
-3.16169e-06
-2.61265e-06
-4.43792e-06
-3.63619e-06
-2.34706e-06
 2.66553e-06
-4.90874e-06
-5.80093e-06
 4.37594e-06
 1.05952e-07
 2.62715e-06
  5.0619e-06
 2.61488e-06
-3.53845e-06
-1.46749e-06
-2.22721e-07
 5.00275e-06
 -3.2429e-06
 2.73515e-06
 2.57806e-06
  5.0162e-06
 4.10837e-06
 1.63392e-06
-3.43409e-06
 5.49802e-06
-2.99907e-06
 1.17951e-06
 4.76835e-06
-1.68978e-06
 2.60332e-06
-1.04375e-06
 1.25881e-06
 6.10095e-06
  6.2861e-07
 3.73291e-06
-2.36537e-06
-2.82512e-06
 4.93445e-06
-2.05602e-06
-4.56845e-06
-1.07887e-06
-5.54813e-06
-5.62581e-06
-4.58325e-06
 -2.9763e-06
-9.83019e-07
 1.30431e-06
-4.09281e-06
 1.88436e-06
 -2.0798e-06
 4.59554e-06
 7.81294e-07
 -4.0907e-06
 1.10194e-07
 3.45749e-06
-4.71194e-06
 3.22141e-06
-1.48226e-06
-6.06286e-06
-4.58764e-06
-4.99821e-06
-9.96326e-07
 2.78146e-06
-5.01652e-06
 5.74257e-06
 3.95105e-07
-1.27161e-06
-3.20182e-06
-7.89712e-07
 2.78266e-06
-1.65998e-06
 4.24171e-06
 3.34481e-06
-1.17551e-06
 5.76874e-06
-5.75075e-06
 3.95175e-06
 9.53783e-07
-3.73327e-06
-2.83151e-07
 4.98426e-06
  -5.257e-06
-5.62112e-06
 -5.2257e-06
 9.63482e-07
 3.94666e-06
-3.82736e-06
-1.93437e-06
-3.65487e-06
-3.77993e-06
-4.11724e-07
 -2.5428e-06
 1.33403e-06
-3.74953e-06
-1.44903e-06
 9.57336e-07
 2.75586e-06
 3.38964e-06
  3.8658e-06
-4.15311e-06
 5.30338e-08
-3.91345e-06
-6.03067e-06
-2.72142e-06
 1.02132e-06
 5.84835e-06
-2.36188e-06
-1.14619e-06
  6.8287e-07
 1.51364e-08
 4.68094e-06
-4.52131e-07
 8.68424e-07
 5.17011e-06
 4.32457e-07
-4.28736e-06
  2.9975e-06
 2.71539e-06
-1.11447e-07
 5.45291e-06
 5.04574e-06
 5.58711e-06
-3.20916e-06
 2.60511e-07
-4.28168e-06
 1.45209e-06
-4.90142e-06
 4.58447e-06
-1.27753e-06
 5.07467e-06
-5.68791e-06
 4.88579e-06
-4.95805e-06
-5.60829e-06
 -3.9549e-06
 2.17356e-06
 -5.8792e-06
-2.06491e-07
-5.09189e-06
 9.13952e-07
 5.91893e-06
 5.69933e-06
-5.65744e-06
 6.68089e-07
 4.75017e-06
 8.85297e-07
 2.49102e-06
  1.6284e-06
-2.51858e-06
 -3.7397e-06
 9.62046e-07
 -3.5921e-06
-4.27185e-06
 3.86317e-06
 2.77869e-06
-2.44324e-06
-8.03999e-07
 3.98756e-06
-3.97803e-06
 4.02875e-06
 2.94296e-06
-3.55565e-06
 2.79528e-06
  4.0952e-06
-3.05366e-06
 4.95067e-06
 1.49494e-07
-2.82258e-06
-1.37509e-06
 1.16788e-06
 4.20166e-06
-1.57543e-06
 7.47952e-07
  4.6545e-06
 5.20295e-06
 -6.2114e-07
 -5.7947e-07
  1.5747e-06
  -5.112e-06
 3.01223e-06
 3.94529e-06
 1.96033e-06
 5.53041e-06
 5.78372e-06
-2.95762e-07
 2.18984e-06
-2.77878e-06
 5.01052e-06
 5.81339e-08
-6.46533e-07
 2.92001e-06
-3.11817e-06
  1.9081e-06
-4.03977e-07
-5.14224e-06
 4.96472e-06
-1.57258e-06
 1.11754e-06
-3.97712e-06
 3.16262e-06
-3.83384e-06
-5.89473e-06
-4.53207e-06
  3.0244e-06
 4.87005e-06
-5.44839e-06
-3.71601e-06
-1.82868e-06
 2.23659e-06
-2.71773e-06
-4.93572e-06
 6.26142e-08
 5.35289e-06
-5.52457e-06
-2.72929e-07
-1.06214e-06
 2.77556e-06
 3.05857e-06
-2.17088e-06
-3.28557e-06
-3.70723e-06
-5.37013e-06
-2.93458e-07
 4.31115e-06
 3.36175e-07
 6.74588e-07
 3.15661e-06
 4.87388e-06
-4.32714e-06
 5.28977e-06
 1.91724e-06
-2.05069e-06
 5.50533e-06
 3.49545e-06
-5.14556e-06
 4.25611e-06
 4.15734e-06
-2.75129e-06
-3.69183e-06
 2.74672e-07
 6.41273e-07
-2.51726e-06
-5.78198e-06
-1.25104e-07
-1.93155e-06
 5.53767e-08
 4.92304e-06
-5.27525e-06
-3.00532e-06
 -3.3671e-06
-2.45054e-06
-6.02259e-07
-2.62695e-06
 3.36629e-06
-2.41037e-06
 3.81951e-06
-2.07839e-06
-5.37302e-06
 2.57413e-06
-2.95241e-07
 6.02703e-06
 -1.6279e-06
 3.76435e-06
  5.4131e-06
-4.25172e-06
 4.72907e-06
 3.54994e-06
 6.01591e-06
-4.14148e-06
  5.9684e-06
 1.71314e-07
 2.61008e-06
-2.66813e-06
  4.9962e-07
-3.63429e-06
 1.51061e-06
-5.56427e-06
-4.83051e-06
 2.34564e-06
 -2.4593e-06
-2.08733e-06
 6.00538e-06
 3.04872e-06
   1.396e-06
 3.25241e-06
-5.48091e-06
-9.03757e-07
-4.94525e-06
-4.74365e-06
 -4.4489e-06
 8.69797e-07
-4.83588e-06
 3.34848e-08
-1.48512e-06
-5.54205e-06
 1.89205e-06
-2.87531e-06
 4.11818e-06
 1.78869e-06
-9.06502e-07
 3.96731e-06
-4.15926e-06
-4.41569e-06
-4.82009e-06
 2.45064e-06
-1.93969e-06
  2.8008e-06
 2.99666e-06
-6.59921e-07
-9.72826e-07
-5.58191e-06
 3.36303e-06
-1.08671e-06
  3.5771e-06
-1.36023e-06
-3.95356e-06
 4.20648e-06
  3.8463e-06
-2.78853e-06
 5.57312e-06
 5.50769e-06
 4.19156e-06
-5.38203e-06
-5.78095e-07
-3.41283e-06
-4.81379e-06
-4.80531e-06
-1.77852e-07
 5.41467e-06
 3.09366e-06
 5.02593e-06
 3.26271e-06
 5.04469e-06
-5.50902e-06
 4.55291e-06
 1.37607e-06
-1.33843e-06
 1.23444e-06
-1.74654e-06
 4.11193e-06
-5.85765e-06
-1.21816e-06
  1.3557e-06
-8.34068e-07
-3.76032e-06
 6.10575e-06
 1.32265e-06
 -5.6731e-06
 3.83278e-06
 4.64441e-06
  6.0103e-06
 3.22121e-06
  2.7167e-06
  -5.491e-06
-3.47615e-06
 5.41416e-06
-4.19451e-06
-2.17118e-06
-8.82959e-07
 -4.8991e-06
-5.19678e-06
-1.97629e-06
  4.4739e-06
 5.95819e-06
-1.37503e-06
 2.90754e-06
   1.215e-06
 3.39682e-06
-1.97728e-06
 5.57875e-06
 1.38949e-06
-1.72464e-06
-1.75868e-06
-3.37408e-06
 3.55157e-06
 5.91291e-07
-3.38759e-06
-1.24504e-06
 1.02847e-06
-5.67407e-06
-2.71989e-06
 9.19505e-07
 3.65742e-06
 6.10709e-06
 1.53879e-06
  -5.938e-06
 5.40199e-06
 3.45457e-06
 -1.9989e-06
-1.60024e-06
 4.66575e-06
-1.08539e-06
 2.53375e-06
 3.02038e-06
-1.24646e-06
-4.96054e-06
-1.91344e-07
 6.07882e-06
 4.54656e-06
 3.94166e-06
  5.5383e-06
-1.83214e-07
-3.90225e-06
-2.33964e-06
 2.55299e-06
 5.75961e-06
 4.36193e-06
 5.27569e-06
-1.60469e-06
 -7.2886e-07
  5.7119e-06
  1.7857e-06
-5.92862e-06
 3.25005e-06
 1.77353e-06
 1.72046e-06
 3.42234e-06
 1.05625e-06
-9.44238e-07
-4.69582e-06
  5.5663e-06
-2.39775e-06
  3.2907e-07
 1.98079e-06
-5.49664e-06
 5.19289e-06
 3.13053e-06
 4.22305e-07
 5.15244e-06
 1.55783e-06
 -1.7553e-06
 4.57147e-06
-4.74465e-06
 4.52737e-07
-3.88743e-06
 3.91863e-06
 9.30825e-08
-5.64477e-06
 3.07505e-06
 4.59868e-06
-2.63343e-07
 2.66768e-06
 2.65111e-07
 -8.1678e-08
-2.01527e-07
-4.08062e-06
-4.48049e-06
-2.89845e-06
 3.08591e-06
 6.85561e-07
-1.48399e-06
 2.53295e-06
 4.39809e-06
 4.95536e-06
-1.60553e-06
 5.01174e-06
 4.02899e-06
-4.59426e-06
-6.85216e-07
 3.06217e-06
 3.07385e-06
 3.66977e-06
 1.51437e-06
 4.43949e-06
-1.99676e-06
 3.73722e-06
 2.23885e-06
 4.20661e-06
 4.20274e-06
-8.05369e-07
 2.68602e-06
-2.17987e-06
-4.25695e-06
-3.16814e-06
 3.84874e-06
 1.65181e-06
-1.13848e-06
 5.47854e-06
 4.86364e-06
-4.17183e-06
 4.48358e-08
-2.73962e-06
 4.47141e-06
-1.67634e-06
-3.90352e-06
-3.25339e-06
-2.78386e-06
-5.99379e-06
-1.73736e-06
 2.64121e-06
 3.17866e-06
-4.78278e-06
 1.91716e-07
-1.42623e-06
 5.76699e-06
 4.30524e-06
-3.80827e-06
 1.88658e-06
 2.39258e-06
 -5.7248e-06
-5.03806e-06
-1.04066e-06
-1.79438e-06
-3.18472e-06
 1.90148e-06
 -4.0649e-06
 4.57737e-06
-5.35626e-06
-4.70563e-06
 3.32175e-06
 -3.4178e-06
 1.44949e-06
-5.53714e-06
-5.06566e-06
 5.88344e-06
-3.33037e-06
-2.20876e-06
-3.01968e-06
-3.21388e-06
 2.16416e-06
 5.73182e-06
 6.07506e-06
 3.49167e-06
-1.95732e-07
-1.47043e-06
  3.1394e-06
-2.00976e-06
 8.31576e-07
-1.09329e-06
-5.73644e-06
 1.21706e-06
-2.10666e-08
-6.66819e-07
 5.53297e-06
  2.9045e-06
 -4.8846e-06
 -4.6512e-06
  1.3626e-06
-4.13057e-06
-3.24654e-06
-1.43492e-06
-1.43809e-06
 4.31324e-06
 -8.6177e-07
-3.93459e-07
 4.07741e-06
 1.91815e-06
 3.50807e-06
-5.06153e-06
 4.81456e-06
 -4.4704e-07
-5.44898e-06
 4.77036e-06
-3.07464e-06
 4.65574e-07
-2.81934e-06
-6.05451e-06
  4.5661e-06
 4.12252e-06
-1.03752e-06
 4.93995e-06
-7.79686e-07
  5.0517e-06
-1.84614e-06
-1.36598e-06
 1.83693e-06
-6.20452e-07
 9.31043e-08
-2.91973e-06
 1.35926e-06
 2.95685e-06
 1.75563e-06
 6.03146e-06
 1.15082e-06
 -5.2254e-06
-4.81263e-07
-8.91034e-07
 2.80303e-06
-3.09246e-06
 1.57719e-07
 1.49832e-06
 2.57078e-06
 8.19025e-07
 1.49409e-07
 5.60643e-06
-4.83467e-06
 3.44035e-06
 5.66221e-06
 5.84172e-06
  1.4436e-06
-1.49458e-06
  4.6624e-06
-5.45535e-06
-2.56214e-06
  -3.303e-06
-7.11048e-07
 5.38508e-06
 2.18683e-06
 5.49234e-06
-3.65392e-06
-2.57317e-06
 2.32992e-06
 4.21199e-06
-2.66097e-06
-2.63852e-06
 5.09688e-06
 2.96805e-06
 2.58073e-06
 1.78064e-06
 5.98587e-06
-3.38082e-06
-2.84031e-06
 2.43739e-06
 3.54849e-06
 3.41939e-06
 1.92455e-06
 4.82411e-06
 7.40472e-07
 1.46749e-06
 4.54656e-06
-3.93519e-06
  6.0832e-06
  3.0897e-06
-3.28026e-06
-2.59821e-06
 5.89699e-06
 2.11898e-06
-3.33239e-06
 1.96456e-06
 1.49205e-06
-8.76032e-07
 5.50167e-06
-2.29729e-06
 -2.7833e-06
-3.27857e-06
 1.17447e-06
-3.80569e-06
 5.79977e-06
-2.36407e-06
 4.08523e-06
 5.66637e-06
   3.654e-07
-4.87434e-06
 1.98449e-06
-2.20538e-06
 4.65534e-06
-2.21022e-06
-3.50053e-06
-7.23457e-07
 5.36755e-06
-5.07323e-06
 1.45163e-06
 5.33149e-06
 4.12675e-06
 4.28166e-06
-3.38598e-06
 3.90447e-06
 2.81372e-07
-6.08092e-07
-2.50233e-07
-4.34584e-06
 4.62616e-06
-8.67825e-07
-5.32843e-07
-4.27641e-06
 1.96389e-06
-5.47764e-06
-1.97181e-06
 1.64439e-06
-1.73142e-06
-4.00584e-06
  1.1915e-06
 4.74427e-06
-2.76989e-06
-2.94327e-06
-3.58037e-06
-4.23382e-06
 9.56788e-07
-9.70621e-07
   1.153e-06
 2.05077e-07
 6.64292e-08
-3.51463e-06
-5.82701e-07
-1.92608e-06
-5.35223e-06
  2.1416e-06
-4.14088e-06
 1.03942e-06
-4.58576e-06
 1.71918e-06
 2.80387e-06
-6.07886e-06
-5.26791e-06
-3.84824e-06
-4.24498e-06
 2.80626e-06
-3.21559e-06
 -1.0651e-07
-1.66861e-06
 1.16328e-06
 1.99793e-06
 5.63318e-06
 -2.1172e-07
 5.33832e-06
-3.42936e-06
 2.31819e-06
-5.01477e-06
 3.63771e-06
-4.77169e-06
 2.24852e-06
-2.27648e-06
 1.40502e-06
 4.84418e-06
 3.25111e-06
 5.58922e-06
 5.60223e-06
-7.26556e-07
-4.67092e-06
 5.22389e-07
 7.97974e-07
 3.15854e-06
-2.79301e-06
 8.29398e-07
 4.00091e-06
-5.30963e-07
  2.6947e-06
  6.8791e-07
 2.36373e-06
-3.53107e-06
 5.12959e-06
-2.59226e-06
 4.57714e-06
  4.6435e-06
 3.30631e-06
  3.7962e-06
-4.90513e-06
-4.94764e-07
 4.89172e-06
 4.84287e-06
 8.43827e-07
 1.02097e-06
-3.55287e-06
-3.87042e-06
-2.54113e-07
 5.80852e-06
-4.40046e-06
-7.71148e-07
 -1.0373e-06
 -2.9611e-06
 5.86153e-06
 5.87096e-06
-5.92182e-06
-3.05075e-06
 5.81094e-07
 4.18937e-06
 2.52858e-06
-2.84347e-06
-1.24198e-06
-1.22696e-06
 -2.6426e-07
-2.23166e-06
 2.29107e-06
-1.80638e-06
-3.70742e-06
-5.21884e-07
-4.12945e-06
-2.50226e-06
 5.09364e-06
  -5.357e-06
-3.77866e-06
-1.81801e-07
 1.77426e-06
-1.22124e-06
 2.05807e-06
-4.59912e-06
-1.53198e-06
 3.76789e-06
  7.4002e-07
   3.541e-06
-5.31248e-06
 4.82281e-07
  3.2927e-06
-5.12401e-06
 3.54182e-06
-2.24547e-06
 5.17565e-06
-4.88696e-08
 1.02134e-06
 -2.1856e-06
 4.83446e-06
-5.36218e-06
 1.69303e-06
 1.00626e-06
-1.05828e-06
 4.09589e-06
-5.63489e-06
 9.22557e-07
-4.52564e-06
 5.56904e-06
 1.67585e-06
-2.19401e-06
-7.32031e-07
-2.66916e-06
 2.69503e-06
-4.79323e-06
-1.15799e-06
-4.95621e-06
 5.08494e-06
 5.69232e-06
 4.69507e-06
 5.88275e-06
  5.5331e-08
 1.86851e-06
-5.36053e-06
-2.52211e-06
 5.73332e-06
  5.9254e-06
  3.5393e-06
 6.35396e-07
-2.37946e-06
 2.25449e-06
  1.3835e-06
 5.42385e-06
-2.85851e-06
-5.79405e-06
 3.40047e-06
-2.38311e-06
 1.23879e-06
 4.98512e-06
-2.93334e-06
-3.20463e-06
-3.32816e-06
 2.44492e-06
   2.365e-07
 5.47716e-06
 3.76197e-06
 5.18879e-06
-5.59832e-06
 2.72765e-06
 4.76184e-06
 5.20704e-06
 2.49113e-06
-1.30209e-06
 9.56286e-07
 3.24089e-06
 2.28608e-06
  5.7034e-07
 3.04703e-06
-2.93884e-07
-4.91353e-06
 -5.4517e-06
-4.15866e-06
 2.58025e-06
 6.08243e-06
-9.06879e-07
 2.89649e-06
 3.36364e-06
  2.8203e-06
-1.98398e-06
 2.22949e-06
 5.99724e-06
 9.21676e-07
 5.01162e-06
 2.32289e-06
-4.96109e-06
 4.36952e-06
-3.44013e-08
-5.89156e-06
 4.88149e-06
-3.42602e-06
 4.98057e-06
 3.96927e-06
  5.1754e-06
-2.44079e-06
-1.19371e-06
 2.29702e-06
 5.95558e-06
 5.48691e-06
-7.75213e-07
-4.57569e-07
-5.54588e-06
-1.16629e-07
 1.49406e-06
 3.14466e-06
 -1.5346e-07
-5.53208e-06
-7.81186e-08
-2.90909e-06
  3.3985e-06
 4.04818e-06
 5.43069e-06
 3.27647e-06
-1.14941e-06
 4.32305e-06
-5.19897e-07
-2.09711e-10
 2.57331e-06
 5.55599e-06
 2.18515e-07
 1.33553e-06
 -3.9893e-06
 -9.2018e-07
-8.14466e-07
-4.93316e-06
 2.74932e-06
 4.10211e-06
 3.47414e-06
 2.58563e-06
 3.46976e-06
-3.42033e-06
 -3.9912e-06
 4.03416e-06
 2.57332e-06
 3.61314e-06
 1.05955e-06
 -3.6994e-06
 4.19134e-06
-5.13783e-06
-4.98205e-07
 1.47058e-06
 5.02064e-06
-1.18678e-06
-1.37222e-06
-2.24803e-06
-2.98299e-06
 4.21817e-06
 3.86204e-06
  5.7006e-06
 3.65489e-06
-2.03871e-06
 9.16868e-07
 5.77588e-06
  3.1514e-06
-6.01686e-06
-5.27655e-06
 -2.1855e-07
 4.19553e-06
 4.30788e-06
-3.75218e-06
 1.54602e-06
-5.23172e-06
 -1.6331e-06
-5.39085e-07
 3.45189e-06
-4.13922e-06
 -5.5988e-06
 5.86277e-06
-6.06714e-06
-4.62635e-06
-7.54704e-07
 1.51372e-06
-5.72498e-06
 4.16881e-06
-5.97776e-06
-1.86272e-06
-4.93345e-06
  4.3507e-06
-4.11995e-06
-5.35211e-06
 1.88633e-06
-4.83719e-08
 1.67504e-06
 1.54294e-06
-3.01624e-06
 1.76846e-06
 2.37668e-06
 2.87549e-06
-1.55275e-07
 5.65293e-07
  5.2336e-06
-4.72852e-06
 1.44386e-06
-2.51877e-06
  8.4268e-07
-1.22352e-06
-5.47698e-07
 1.35417e-06
-1.48002e-06
-5.04553e-07
  2.8381e-06
 3.87556e-06
 -5.1101e-06
 3.22341e-06
  1.9251e-06
-4.97757e-06
-4.75857e-06
 3.10193e-06
 5.48341e-06
-2.76824e-06
  3.8601e-06
 1.25048e-06
 3.29368e-06
-5.84122e-07
-3.32585e-06
-5.84183e-06
-4.93493e-06
 5.16112e-06
 3.14395e-06
 1.02008e-06
-3.92856e-07
 2.25828e-06
 2.40185e-06
-5.06826e-06
  5.8498e-06
-2.87474e-06
-1.81503e-07
-8.17165e-07
 4.58972e-06
 4.44876e-06
 4.78857e-06
 1.30855e-06
 2.20505e-06
 5.78876e-06
 -1.5873e-06
-1.98911e-06
-5.30808e-06
-2.35585e-07
-5.00644e-06
-5.94393e-06
 3.10646e-06
 4.96395e-06
 1.41683e-06
 2.80871e-07
-1.73944e-06
 4.20127e-06
 5.49325e-07
-5.64083e-07
 3.24312e-06
-2.42599e-06
-5.66327e-06
  -3.269e-06
 5.94257e-06
 2.84887e-06
-2.22698e-06
  5.6731e-06
 6.08442e-06
  3.7018e-06
-1.26333e-06
 4.55487e-06
 2.03129e-06
-2.59402e-06
-2.55843e-07
-1.88292e-06
-2.92453e-06
 4.26715e-06
 2.23825e-06
-2.12233e-06
 -2.0877e-06
  3.3421e-06
-1.95598e-06
-5.10051e-06
 2.18678e-06
 5.57114e-06
 1.29065e-06
-5.67193e-06
 3.65314e-06
-4.27929e-06
-1.25728e-07
 7.76987e-07
   -5.95e-07
 3.21291e-07
 3.61827e-06
-7.71695e-07
-2.94911e-06
-4.72798e-06
-1.21786e-06
-2.98395e-06
  5.0841e-06
  3.6291e-06
-4.54835e-06
 9.96127e-07
-5.08419e-06
 1.30609e-06
 5.22349e-06
-1.89843e-06
-5.46027e-07
 1.34248e-06
 2.08952e-06
 3.47655e-06
-1.43469e-06
-5.98572e-06
 4.48633e-06
-5.36718e-06
  5.6957e-06
-3.42285e-07
-4.92882e-06
 3.22957e-06
 1.48871e-06
 1.05574e-06
-2.11271e-06
-5.22556e-06
-4.74224e-06
 -4.6137e-06
 1.13033e-07
-1.58106e-06
 -3.2314e-06
 5.00546e-06
 1.54527e-06
-4.26657e-06
  2.5153e-06
 3.10721e-06
 2.83985e-06
  3.5414e-06
-1.70597e-06
 1.94407e-06
 -4.4763e-06
 3.85829e-06
-2.83271e-06
 3.72351e-06
 1.21558e-06
 1.84289e-06
 3.84808e-06
-4.17351e-07
   2.586e-06
 3.42451e-06
 5.35065e-06
 3.76746e-06
 5.34819e-07
 7.20091e-07
-1.29607e-06
  4.5324e-06
 1.60482e-06
 7.19771e-08
 6.02898e-06
-4.40141e-06
  4.6012e-06
-3.32169e-06
-5.51522e-06
 2.72116e-08
-1.47797e-06
 3.11037e-06
-2.98485e-06
-4.75739e-06
 5.32505e-07
 1.41947e-06
 3.29697e-06
 2.16649e-06
-8.41497e-07
  -5.655e-06
-2.29263e-07
-5.74518e-06
 2.29817e-06
-2.50045e-06
-5.22464e-08
 -1.2351e-06
-5.19521e-06
-8.20863e-07
 -3.5869e-06
  1.4499e-06
 6.00951e-06
 1.22731e-06
-1.36969e-07
 1.49507e-06
-4.81998e-06
-2.27254e-07
 3.20394e-06
 5.89151e-06
 2.56134e-06
 3.79901e-06
-2.00542e-07
-5.03589e-06
 7.90109e-07
  2.9249e-06
-3.68299e-06
-4.79665e-06
-1.77489e-06
 5.72427e-06
 3.48013e-06
 3.49389e-06
   -6.05e-06
 -2.8684e-06
   3.859e-06
 2.35845e-06
  7.4143e-07
-2.31251e-06
-4.99591e-06
 1.65651e-06
 2.97691e-06
-2.47253e-06
-3.01286e-06
 2.86716e-06
 4.86507e-06
 2.96046e-06
-1.75704e-06
-6.07418e-06
-3.38606e-06
-4.67237e-06
 5.92762e-06
 5.28557e-06
 5.23692e-06
-3.92186e-07
-5.86959e-06
-9.22355e-08
-3.58655e-06
-3.44229e-06
  1.2214e-06
 7.48839e-07
-3.83729e-06
-1.41774e-06
-1.87653e-06
-3.77701e-06
 1.82414e-06
 -4.1368e-06
 4.69173e-06
-3.55369e-06
-3.39025e-07
  5.8061e-06
  4.2131e-06
-3.48138e-06
 -2.7857e-06
-4.91902e-06
 5.49606e-06
 -4.0399e-06
 4.15172e-06
-2.38024e-06
-4.00379e-06
-5.35361e-06
-9.42329e-07
-4.19543e-06
 6.04224e-06
-1.82467e-06
 1.52267e-06
-5.94661e-06
 4.19338e-06
  4.0464e-06
-3.27861e-06
-7.04491e-07
-1.32403e-06
-1.00562e-06
 3.98805e-06
 2.90973e-06
 1.32766e-06
 -3.0707e-07
 4.88321e-06
-9.98774e-08
 2.24952e-06
-1.57508e-06
-4.13041e-07
 3.43357e-07
 1.05383e-06
 2.91155e-06
 1.53462e-06
 4.30625e-07
 4.98194e-06
-4.32928e-07
 4.16067e-06
-5.14111e-06
 3.23749e-07
-2.90093e-06
-3.22626e-06
 2.46728e-07
 1.38468e-06
 4.40669e-06
 4.10406e-07
-5.41208e-07
 2.33383e-06
 3.24208e-06
 4.86459e-06
-5.10947e-06
-3.88281e-06
 2.73337e-06
 3.91054e-06
 3.55514e-06
-3.69296e-06
 2.67449e-06
  -2.664e-06
 4.66684e-06
-5.01985e-06
 3.03324e-06
-1.10906e-06
 2.14426e-06
-1.74479e-07
-5.69371e-06
-3.54438e-06
-1.31181e-06
-1.63541e-08
-5.50298e-06
-3.42636e-07
-5.81187e-06
-2.29362e-06
 2.54139e-06
 5.45143e-07
 5.20134e-06
 8.28814e-07
-5.16372e-06
-1.45913e-06
-2.95663e-06
 4.18865e-06
-2.71381e-06
-1.95581e-06
-5.81342e-06
 -6.0997e-06
-4.16453e-06
   3.852e-06
-3.68238e-06
 4.62024e-06
-4.93127e-06
 -5.1348e-06
 5.71068e-06
 4.21225e-06
-1.33582e-07
 1.73567e-06
-2.08149e-06
 2.82992e-07
 4.30158e-06
 2.71699e-06
-5.85263e-06
 4.90889e-06
-3.74492e-06
-5.55421e-06
  -3.504e-06
 4.90676e-06
 1.10122e-06
-4.42193e-06
-3.83693e-07
 2.04778e-06
 2.29229e-07
 2.76997e-06
 1.17165e-07
  3.6257e-06
-5.30511e-06
 4.14026e-07
 3.63628e-06
-3.35936e-06
-1.85324e-06
 6.06419e-06
-4.85838e-06
-6.74229e-07
-5.18988e-06
-5.26696e-06
-2.58124e-06
 7.86825e-07
   2.579e-06
 1.44755e-06
-5.04945e-06
 7.61311e-07
-1.95473e-06
-4.79179e-06
-4.49068e-07
 4.10641e-07
-4.23572e-06
 2.15721e-06
-8.01867e-07
 2.97578e-06
 3.84557e-06
 4.92472e-06
 -1.0957e-06
-2.04446e-06
 1.57542e-06
 5.13175e-06
-4.53802e-06
  2.3806e-06
-5.73489e-07
 5.20854e-06
 5.13153e-06
 3.68355e-06
 5.15347e-06
-5.84611e-06
-3.10994e-06
 6.07388e-06
-5.00279e-06
 4.19103e-07
 7.41436e-07
 3.68649e-06
-4.25261e-06
 1.80227e-06
-1.67146e-06
-9.70566e-08
 3.12077e-06
 3.98976e-06
-5.80568e-06
 4.99533e-06
 2.77039e-08
-4.97263e-07
 1.85185e-06
-2.24599e-06
 -1.6918e-06
-5.36312e-06
 1.81983e-06
 5.99391e-06
 5.87892e-06
 3.39209e-06
 2.25524e-06
-8.13834e-07
 2.48137e-06
 1.26751e-06
-3.24954e-06
 1.51558e-06
 1.53168e-06
-2.49199e-07
 1.47019e-06
 2.63918e-06
-5.94936e-06
-3.90764e-06
 2.06407e-07
-4.09169e-06
 4.00492e-06
 4.64523e-06
 1.92154e-06
 1.00642e-06
 2.51572e-06
 2.22614e-06
-1.17514e-07
-3.57584e-06
-4.39038e-06
-4.38493e-06
 2.88456e-07
  2.8097e-08
-3.63776e-06
-4.01097e-06
-9.72616e-08
-3.87811e-06
 5.49141e-06
-3.96128e-06
 1.41835e-06
 1.85351e-06
 3.41651e-06
 4.27909e-06
-2.75017e-06
-1.17107e-06
-2.08938e-06
  4.8303e-06
-4.65116e-06
-1.92845e-06
-5.19661e-06
 1.66553e-06
 9.01422e-08
  4.9186e-06
 1.91498e-07
-4.10758e-06
-1.94251e-07
-3.41205e-06
 4.22885e-06
 5.79852e-06
-8.77603e-07
 5.94875e-06
-4.70567e-06
 5.52114e-06
-1.42423e-07
-2.23315e-06
 -4.6091e-06
  5.8706e-06
-9.70135e-10
-5.23696e-06
-4.20995e-06
-4.70189e-06
 2.72684e-06
 5.31685e-06
 5.68748e-06
 6.08695e-06
-1.97349e-06
-2.52116e-06
 4.79799e-06
-5.14368e-07
 1.66067e-06
 5.71167e-06
 -4.9681e-06
-4.36845e-06
   4.511e-06
 1.33368e-06
-2.36575e-06
-1.80252e-06
 4.03192e-06
-4.25617e-06
-2.12326e-06
-2.96495e-06
-4.42669e-06
-7.18654e-07
-3.56307e-06
 1.54117e-06
