 0.000880476
  0.00144035
  0.00375723
 -0.00318763
 -0.00115177
  0.00188961
  -0.0043767
 -0.00211567
 -0.00405892
 -0.00415626
 -0.00356378
   0.0036142
 -0.00246353
  0.00415189
 -0.00238422
 0.000410444
 -0.00192819
  0.00292188
  0.00356223
-0.000579952
 -0.00129184
  0.00122098
 0.000183527
  0.00403571
  0.00472501
  0.00118024
  0.00299788
 -0.00363437
  0.00198047
  0.00477586
-0.000974017
 -0.00214295
  0.00121232
 -0.00222069
-0.000334474
 -0.00494335
  0.00466503
 0.000284926
 -0.00206292
 -0.00439779
  0.00112477
-0.000630586
  0.00421251
  0.00365734
  -0.0014826
 -0.00317561
 -0.00093611
  0.00158532
  0.00474237
 -0.00237777
 -0.00399853
 -0.00155337
  0.00383931
   0.0011811
 -0.00252155
  0.00356043
 -0.00264255
 -0.00452757
  0.00492216
  0.00433402
  -0.0047556
 -0.00105575
 -0.00281282
  0.00145283
  0.00171967
  0.00184881
  0.00150559
   0.0013808
 -0.00287016
  0.00443877
  0.00197911
  0.00325072
 -0.00119571
  0.00118773
  0.00190416
   0.0023178
  0.00300822
 -0.00403584
 -0.00110077
   0.0027467
 -0.00141751
-0.000103198
 -0.00381056
 -0.00258209
 -0.00392599
 -0.00133601
 -0.00402556
 -0.00157243
-0.000867469
 -0.00410729
  -0.0022423
-0.000626962
-0.000166937
-5.90215e-05
 -0.00417803
 -0.00345116
 -0.00321411
  0.00232366
  0.00292574
 -0.00108817
  0.00175854
-9.90383e-05
 -0.00284135
 -0.00444107
  -0.0039152
  0.00405892
  0.00287284
  0.00408912
 -0.00498082
 -0.00323183
  0.00183193
 -0.00140223
  0.00166108
  0.00301747
  0.00101179
  0.00273119
 -0.00332243
  0.00198233
 -0.00384514
 0.000806204
  0.00287114
 -0.00109133
 -0.00482465
 -0.00229969
  0.00384575
 -0.00400658
-0.000754749
 -0.00437226
  0.00331318
  -0.0028329
-0.000464318
 6.78242e-05
  0.00206417
  0.00169044
 0.000622863
  0.00314506
 0.000745464
 -0.00150819
  0.00223029
 0.000760748
 0.000256084
-0.000941673
  0.00435463
 -0.00308673
  -0.0029281
 0.000362515
  0.00464056
 -0.00125442
 -0.00265905
 -0.00420847
  0.00454788
 -0.00479181
  -0.0003037
  0.00471933
 -0.00209539
 -0.00146185
 -0.00429114
  0.00214596
   -0.000838
  0.00401814
  0.00430916
  0.00369379
-0.000917926
  0.00136943
  0.00038033
  0.00470104
-0.000489397
  -0.0038781
 -0.00181105
   -0.003263
  0.00187875
  0.00344114
 0.000791433
  0.00122948
 -0.00464949
  0.00285944
  -0.0034119
  0.00498718
 -0.00339888
 -0.00107485
 -0.00422519
 -0.00385489
-0.000870552
 0.000467217
 -0.00413945
  0.00203016
  0.00400147
 -0.00343449
-0.000827777
 -0.00184042
 -0.00442024
 -0.00152251
 -0.00315053
-0.000342062
  0.00484303
   0.0022259
-0.000644916
-0.000650262
   0.0033439
  0.00254014
  0.00108284
 0.000218758
 0.000977389
 -0.00312962
 -0.00355566
  0.00132401
  0.00472593
 -0.00197146
  0.00130729
 -0.00367685
   0.0019498
  0.00207821
 -0.00253563
 -0.00392465
 -0.00245847
 -0.00167898
  0.00310161
 -0.00346089
-0.000117366
 -0.00273006
-0.000305212
 0.000458499
 0.000743537
  0.00154036
 -0.00488746
 0.000582672
 -0.00123763
-0.000536271
  0.00492851
 -0.00289763
 -0.00300002
  0.00100746
  0.00231724
  0.00297347
  0.00287395
  0.00375768
-0.000706422
  0.00259598
 -0.00321767
 -0.00440303
  0.00391524
  0.00372824
  0.00267128
 -0.00362429
  0.00479969
 -0.00479109
-0.000307168
  0.00289741
 -0.00325588
  0.00457157
 -0.00483655
  0.00143501
 2.61741e-05
 0.000903096
 -0.00202852
  0.00013482
 -0.00351813
  0.00172995
  0.00459465
 -0.00359351
  0.00382843
 -0.00340927
  0.00241006
  0.00114177
  0.00456031
 0.000280114
-0.000104445
 -0.00115001
  -0.0021278
  0.00167399
-0.000556935
 -0.00321646
  0.00039833
 -0.00288955
 -0.00184464
 0.000194125
 -0.00268454
  0.00284429
 -0.00191236
 -0.00094431
  0.00241197
  -0.0017528
 -0.00451319
 -0.00256575
   0.0041464
 -0.00154561
  0.00256517
 -0.00437563
 -0.00481956
  0.00215593
 -0.00297303
  0.00400497
  0.00374277
  0.00443313
 0.000142845
  0.00329918
-0.000290647
  -0.0049655
 -0.00285473
  0.00257766
   0.0017046
  0.00158444
   0.0043573
 -0.00290097
  0.00369099
 -0.00249124
  0.00228926
 -0.00399744
 -0.00465084
 -0.00462699
 5.43583e-05
  0.00275723
 -0.00138369
 0.000537271
 -0.00481241
 -0.00224119
  0.00398776
  0.00274886
 -0.00162071
  0.00416431
-9.91065e-05
 0.000402362
  0.00316539
 -0.00136024
-0.000168398
 -0.00169566
 -0.00306495
  0.00453706
 -0.00166505
-0.000923578
  0.00211082
 -0.00496435
 -0.00434303
  0.00146423
 -0.00286921
  0.00434407
   0.0039691
  0.00441615
 -0.00465727
  0.00431436
  0.00478526
 0.000393197
   0.0020677
 -0.00160232
 -0.00407343
  0.00225139
  0.00115259
  0.00491044
-3.64119e-06
  0.00452798
  0.00407086
  0.00489336
-7.35527e-05
  0.00223235
 -0.00147077
  0.00475415
 -0.00446721
 0.000460376
  0.00428732
 -0.00113616
   0.0045329
  0.00139424
 -0.00110441
 -0.00481403
 -0.00214542
  0.00102248
  0.00452614
 -0.00318022
 0.000434743
  0.00486498
 -0.00386975
 0.000216111
 0.000254284
  0.00319406
  0.00360989
  0.00117696
 0.000441554
-0.000241417
   0.0010835
 -0.00456598
-0.000717332
 0.000150465
 -0.00467652
  0.00420522
 -0.00262108
 -0.00115119
  0.00395548
 -0.00209219
  0.00430529
   0.0032389
  0.00176776
   0.0038343
-0.000370755
 -0.00434055
  0.00401637
  0.00247993
  0.00167804
  0.00353862
  0.00429581
 -0.00289111
  0.00339971
 -0.00457784
   0.0023211
  -0.0013499
  0.00361232
 0.000927099
  0.00482316
-0.000950021
 -0.00431821
 0.000902772
  -0.0005199
-3.94402e-05
 -0.00395066
-0.000200317
-0.000838116
 -0.00157564
   0.0036446
 -0.00188653
  0.00132828
  0.00294599
 -0.00365153
 -0.00190786
  0.00177639
 0.000973819
  -0.0012523
 0.000788865
 -0.00155015
 -0.00457816
-0.000676407
 -0.00225824
 -0.00247316
 -0.00228059
 -0.00183997
  0.00484404
  0.00136561
 -0.00323155
 0.000767248
  0.00118488
 0.000814533
  0.00144514
 -0.00291625
 -0.00470926
  -0.0035982
  -0.0018708
 8.65253e-05
 0.000559792
  0.00154967
 -0.00127277
  0.00366936
 -0.00212595
 -0.00333068
 -0.00498606
 0.000962293
  0.00344181
  0.00098386
  0.00470609
-0.000773221
  0.00442981
 -0.00487596
  0.00354648
 -0.00283232
 -0.00235302
 -0.00373801
 0.000323807
 -0.00251287
   0.0026237
  0.00208836
  0.00325048
 -0.00119531
   -0.002101
-0.000308277
 0.000884544
 -0.00181416
  0.00108963
  0.00400985
  0.00326847
 -0.00335447
 0.000555622
  -0.0030082
   -0.004689
  0.00342578
 -0.00134278
 -0.00467896
-0.000615826
 -0.00290487
    0.001301
-0.000913629
  0.00131802
 0.000726917
-0.000793486
-0.000139402
   0.0028907
   0.0018496
  0.00111869
 -0.00178939
  0.00433283
  -0.0012615
 -0.00470493
  0.00257941
  0.00253929
 -0.00180982
 -0.00273276
 -0.00158006
  0.00137212
  0.00335298
 -0.00257411
-0.000363303
  0.00499461
  0.00297762
   0.0016246
 -0.00469829
   0.0013995
 -0.00472207
 -0.00438115
 -0.00422023
 -0.00263083
  0.00191595
-0.000137751
  0.00368329
 -0.00236103
  0.00406487
 -0.00146001
 -0.00447422
 0.000910569
  0.00465478
 -0.00126751
 0.000239502
 -0.00161062
-0.000976329
 -0.00218498
 -0.00407523
  0.00220995
  7.8363e-05
-0.000659186
 -0.00142182
 -0.00157256
  0.00176281
  0.00321098
 -0.00158184
-0.000263473
-0.000168313
 -0.00128403
 -0.00386787
 0.000105717
 -0.00066908
 -0.00309199
  0.00247099
 -0.00375702
  0.00176636
  0.00115038
 -0.00112194
 0.000827331
  0.00468647
-0.000600061
   -0.003266
  0.00433736
  0.00312854
  0.00196961
 -0.00227715
 -0.00285169
  0.00478073
 -0.00135627
  0.00435437
  -0.0001448
  0.00298064
 -0.00207135
  0.00327875
-0.000260443
 -0.00386426
 -0.00330699
  0.00447219
  0.00096353
 0.000405079
 -0.00439958
 -0.00393465
   0.0047321
 -0.00249547
  0.00353244
 -0.00402881
  0.00426699
-0.000321075
-0.000154653
  9.0429e-05
-0.000638499
  0.00424139
  0.00182054
 -0.00130504
  0.00236603
 -0.00121375
  0.00141392
  0.00451045
 -0.00143691
 -0.00494625
  0.00386092
  0.00341439
   0.0030305
 -0.00321432
  0.00168924
 -0.00223384
 -0.00208248
  0.00337836
 -0.00276555
  0.00387715
 -0.00122046
 -0.00216903
  0.00493861
 -0.00149225
 0.000331609
  0.00346716
-0.000524961
-0.000405293
 -0.00185781
  0.00431649
  0.00468124
  0.00249979
  0.00355399
  0.00149788
 -0.00380914
  0.00091612
 -0.00471976
  0.00260088
  0.00042267
 -0.00116057
  0.00265073
-0.000720307
 -0.00275007
 0.000677336
  0.00106147
  0.00393528
   0.0034396
   0.0039751
  0.00230974
 -0.00432985
  0.00284835
 -0.00391462
 -0.00150277
  0.00278307
-0.000410765
  0.00382494
  0.00124633
  0.00406038
 -0.00158424
  0.00438462
  0.00337297
  -0.0019069
  0.00188051
  0.00192306
  0.00458709
  0.00306748
 -0.00216471
  0.00486343
 0.000664466
  0.00325406
 -0.00130104
 -0.00168869
 -0.00247014
 0.000944993
  0.00398475
  0.00358744
-0.000123626
  0.00242045
  0.00255864
 -0.00281778
   0.0030867
 0.000403097
  -0.0017363
 -0.00341996
 -0.00181773
  0.00284904
 -0.00459891
   0.0044247
  0.00190552
 -0.00118705
  0.00380542
 0.000274601
  0.00190215
 0.000682043
 -0.00280623
  0.00148534
 -0.00125437
  2.5161e-05
  0.00134487
   0.0044062
 -0.00172467
 -0.00496006
 -0.00228639
 0.000801292
 0.000981037
 -0.00330554
-0.000615166
 -0.00414649
  0.00411101
 -0.00306042
 -0.00196817
  0.00219382
  0.00233878
  0.00129164
  0.00376996
 -0.00448285
-0.000863216
  0.00416715
  0.00493796
 -0.00396159
 -0.00202379
  0.00373949
  0.00130912
  0.00487446
-0.000582367
  0.00349899
  0.00135591
  0.00315936
 -0.00147974
 -0.00230311
  0.00256167
  0.00179169
 -0.00226707
 -0.00472862
 -0.00241092
  0.00371007
 -0.00303806
  0.00197002
  0.00455969
 -0.00393095
   0.0039057
 -0.00241237
  0.00325897
  0.00124059
  0.00387537
  0.00202504
  0.00175384
 -0.00199174
   0.0011883
   0.0016879
-0.000957223
  0.00416061
 0.000423493
   -0.004652
  0.00403118
  0.00483723
  0.00384309
 0.000383189
   0.0029927
 -0.00264055
  0.00307618
 0.000550471
  0.00414724
 -0.00419479
 0.000817953
 -0.00326757
  0.00451139
    0.002776
  0.00369856
  0.00406718
  0.00384115
  0.00260037
 -0.00334909
  0.00209623
 -0.00116294
 -0.00447761
-0.000882626
   -0.004413
 -0.00147325
 -0.00469822
  0.00227101
  0.00256563
  0.00445849
 -0.00230939
  0.00290974
  0.00348577
 -0.00247606
  0.00174893
 -0.00113494
 -0.00448725
  0.00410449
 -0.00306266
  0.00105932
  0.00324784
 -0.00226134
 -0.00312662
  0.00497638
 -0.00275385
  0.00464548
  0.00367104
 -0.00369056
  0.00348274
  0.00126751
 -0.00204355
 0.000575073
 -0.00489932
 -0.00152505
  0.00468855
 -0.00431622
   0.0019978
  0.00498643
   0.0029509
-0.000440456
  0.00444102
 -0.00436239
 -0.00253461
   0.0029229
 -0.00184235
  0.00421042
 -0.00321594
 -0.00133349
  0.00331102
 -0.00128249
  0.00472193
  0.00155497
  0.00145228
 -0.00340858
  0.00152745
  0.00369454
   -0.003767
 0.000194597
  0.00500008
  0.00471185
 -0.00354178
 -0.00204736
 0.000283023
   -0.003445
  0.00142369
-3.23214e-05
 -0.00276512
  -0.0015824
-4.97859e-05
 -0.00481812
  0.00297324
-0.000612657
  -0.0041844
 -0.00456527
 -0.00269366
 -0.00103065
  0.00464126
-0.000913487
  0.00263197
  0.00294839
  0.00280013
     0.00235
-0.000500542
-0.000751486
  0.00393752
 -0.00397699
 -0.00206085
 -0.00483337
  0.00121371
 -0.00206466
  0.00487458
  0.00266803
 0.000884076
 0.000153709
  0.00421913
 -0.00269613
 -0.00488251
 -0.00354988
 0.000717568
 6.38109e-05
 -0.00337189
 -0.00131308
  0.00444726
 -0.00256019
-0.000882246
 -0.00325029
  0.00140527
 -0.00124488
 0.000832325
-0.000966661
 -0.00330039
 -0.00137144
 -0.00362055
  0.00119518
  0.00287318
 -0.00468693
  0.00221429
 -0.00419156
 -0.00452419
 -0.00157589
 -0.00126012
  -0.0046535
 -0.00391175
  0.00462006
 0.000496311
 -0.00469651
 -0.00307997
 0.000609908
 -0.00325028
   0.0026337
 -0.00433018
 -0.00162607
 -0.00368328
 -0.00488681
 0.000809844
 0.000430579
   -0.003141
 -0.00278878
   0.0041818
  0.00268743
  0.00124066
 -0.00412248
 -0.00368791
  0.00261621
   0.0020688
  0.00418137
  0.00292539
-0.000720801
  0.00498591
  0.00339731
  0.00269941
 -0.00127811
  0.00373991
  0.00378377
 -0.00166195
-0.000767676
  0.00408336
 0.000254186
  0.00483834
 -0.00417082
 -0.00211601
 -0.00449574
-0.000800784
-0.000803185
 -0.00438645
 -0.00499484
   0.0046235
 -0.00253134
 -0.00278751
  0.00380141
 -0.00484781
  0.00344925
  0.00467503
 -0.00353962
  0.00106157
  0.00173994
 -0.00436214
 -0.00101693
 -0.00398476
 -0.00438013
 -0.00262352
  0.00371076
-0.000662129
 -0.00388751
  0.00249063
  0.00267203
 0.000340919
   0.0015701
 -0.00207768
  0.00017536
  0.00239538
 0.000802414
 0.000675729
  -0.0034093
  0.00499533
  0.00128539
 -0.00340803
  0.00461494
  0.00375015
 -0.00119944
  0.00341245
  0.00389844
 -0.00275408
  0.00308358
 -0.00464507
   0.0033036
-0.000180374
 -0.00401111
 -0.00271723
 0.000830972
 -0.00339513
-0.000344653
-0.000462164
  0.00093884
 0.000763941
 -0.00297543
 -0.00139303
 -0.00389904
  0.00359078
   0.0015254
  0.00127243
 0.000982265
 -0.00267609
 -0.00305574
  0.00256907
 -0.00268465
  0.00322575
  0.00415715
 -0.00307361
  0.00197201
 -0.00204618
 -0.00466506
 0.000866551
 0.000195847
  0.00341463
  0.00121758
 -0.00150445
 -0.00176964
  0.00220257
 0.000774417
  0.00405744
  0.00380354
 -0.00457413
 -0.00140862
-0.000261514
  0.00118591
 0.000612055
  0.00334156
  0.00228298
-0.000801064
-0.000136935
 -0.00144848
  -0.0048227
  0.00218308
 0.000491883
  0.00274248
  0.00449454
 -0.00128626
  0.00189574
 -0.00358297
 -0.00431815
  0.00484566
 -0.00325192
  0.00154451
  3.7614e-05
 -0.00484118
  -0.0022418
  0.00352927
 -0.00161472
  0.00495687
-0.000700213
 -0.00256118
  0.00375652
-0.000278241
   0.0010263
 -0.00150889
 -0.00409622
 -0.00336554
 -0.00317122
  0.00318287
 0.000829503
  0.00168795
 -0.00326951
  0.00100291
 -0.00113287
  0.00221847
  -0.0012585
 -0.00164222
 -0.00407168
 -0.00436666
-0.000229084
 -0.00339372
 -0.00452489
   0.0015151
  0.00314689
 0.000508828
  0.00167002
 -0.00409881
-0.000965802
 -0.00494859
 -0.00414583
  0.00333009
 -0.00251367
  0.00460679
 -0.00195205
  0.00350874
   -0.001906
 -0.00105217
 -0.00486069
-8.11149e-05
  -0.0028732
 0.000964914
 -0.00339707
 -0.00114661
 -0.00303607
 0.000466172
 -0.00393203
 0.000701534
  0.00382005
  -0.0030076
  0.00133098
 -0.00141293
 -0.00140522
   0.0018022
 -0.00490172
 -0.00326222
 -0.00269287
   0.0017644
 -0.00236492
  0.00133743
  0.00181191
 -0.00151465
-0.000336377
  0.00429435
 -0.00191175
  0.00270768
  0.00279919
  0.00117836
 -0.00334838
   0.0029346
 -0.00390665
 -0.00122547
 -0.00110438
 -0.00230761
  0.00262403
 0.000855657
  0.00315466
   0.0036881
  -0.0034467
  0.00197082
 -0.00432339
  0.00288038
   -0.004446
-0.000732507
-0.000321319
 -0.00435162
  0.00100138
  0.00198191
  0.00240889
  0.00363256
 -0.00168455
-0.000783094
 -0.00288598
  0.00297517
 -0.00149264
 0.000198372
 0.000678957
 -0.00369734
 -0.00362717
  0.00232668
  0.00423337
 -0.00253771
 -0.00390269
 -0.00187491
 0.000150776
  0.00371744
  0.00397686
 -0.00169846
  0.00240165
 -0.00447374
 -0.00473153
  0.00307436
  0.00340274
 -0.00418143
 -0.00266205
 -0.00192247
 -0.00353695
  0.00333544
 -0.00494446
  0.00386804
   0.0019641
  -0.0016329
 -0.00191895
  0.00407422
 -0.00366163
  0.00158452
-0.000731299
  0.00201343
  0.00288328
 0.000637639
-0.000663782
  0.00211275
  0.00309603
 0.000429633
 -0.00476605
 -0.00175709
-0.000856824
  0.00420691
  0.00154056
 -0.00345907
  0.00472927
  0.00180513
  0.00461139
  0.00312812
   0.0026198
 -0.00305455
 -0.00379825
  0.00407895
 -0.00472301
  -0.0037466
   0.0029431
  0.00223719
-0.000383398
 -0.00397974
  0.00130752
 0.000951079
  0.00260088
 -0.00442767
 -0.00203938
 0.000480269
  0.00120607
  0.00229294
 -0.00241087
-0.000701795
 -0.00228132
 -0.00218082
  0.00253722
  0.00185796
  -0.0029778
 -0.00092612
  0.00339499
 -0.00325242
 -0.00412489
  0.00300248
   0.0048718
  0.00349102
  0.00494403
 -0.00393034
  0.00256607
 -0.00478287
 -0.00268083
 0.000505281
  0.00245042
  0.00193187
  0.00152165
 -0.00124595
 -0.00212094
-0.000881368
-0.000677516
  0.00083578
  0.00459501
 -0.00447534
 -0.00187517
 -0.00281976
 -0.00018103
 0.000839609
  -4.475e-06
 -0.00264771
 -0.00230633
  0.00201055
  0.00140789
 -0.00393188
  0.00377904
  0.00227771
  0.00406741
  0.00361414
 0.000762844
   0.0040093
  0.00467761
 -0.00167424
  0.00422213
 -0.00299963
  0.00384544
  0.00167964
  0.00392661
 0.000345522
 -0.00456283
 -0.00320411
  0.00446995
-0.000256357
  0.00263056
  0.00405525
 0.000256497
 -0.00425465
 -0.00377065
 -0.00492193
  0.00160824
  0.00122132
 -0.00257622
  0.00428299
 -0.00175833
  0.00383758
 -0.00464031
 -0.00301194
  0.00113703
  0.00443384
 -0.00436177
  -0.0030945
  0.00350167
 -0.00469669
 0.000263462
  0.00269972
 -0.00270064
-0.000877187
-0.000627572
 -0.00377432
    0.004442
-0.000200433
 -0.00193258
  0.00391468
  0.00454254
 -0.00432089
  0.00299567
-0.000196898
 -0.00355819
  0.00422448
-0.000101163
  0.00302126
 0.000455974
  0.00233458
  0.00232864
  0.00371198
  0.00119784
  0.00267115
 -0.00429389
 -0.00266711
  0.00212705
 -0.00369434
-0.000698373
 0.000583859
  -0.0033902
  0.00449042
 -0.00171733
 -0.00103272
   -0.001414
  0.00266041
 0.000159785
 -0.00194514
 -0.00253411
  0.00322101
 -0.00302869
 -0.00297066
  0.00387828
  0.00496172
   0.0018398
 -0.00466301
  0.00419871
 -0.00324249
  0.00335585
-0.000345772
   0.0040925
 0.000667607
 -0.00163424
 0.000279675
 -0.00164058
  -0.0009402
  0.00261401
 -0.00450664
 0.000376951
 -0.00312961
  0.00106985
  0.00199499
 -0.00364919
  0.00436125
 -0.00407025
 -3.9563e-05
  0.00202951
  0.00110402
  0.00300208
   0.0044863
-0.000684451
  0.00498469
 -0.00348909
 -0.00181298
  0.00498716
   0.0033743
 -0.00147316
  0.00414237
 -0.00488094
 -0.00312195
 -0.00117315
   0.0041984
   0.0025776
  0.00219488
-0.000520994
 -0.00407183
  -0.0037296
 -0.00289104
 -0.00358646
  0.00164814
 -0.00103567
  0.00251272
 -0.00133747
 0.000316347
  0.00187543
-0.000405206
 -0.00472517
 -0.00109144
 -0.00428631
  0.00327932
 -0.00161651
 2.74678e-05
  0.00327734
-7.68424e-05
  0.00323766
  0.00323731
 -0.00172305
 -0.00325643
  0.00240491
 -0.00158322
 -0.00136443
 -0.00375203
 -0.00239161
  -0.0038075
  0.00344519
  0.00208553
 -0.00285733
   0.0047172
   0.0041851
  -0.0014453
  0.00137081
 -0.00183253
 -0.00396425
 -0.00496226
  0.00347839
  0.00290425
 -0.00034835
  0.00379936
 -0.00318399
 0.000351436
  0.00204207
 0.000180182
  -0.0046228
 0.000309061
 -0.00700466
   0.0165176
  0.00015728
  -0.0116379
 -0.00441057
  0.00162663
  0.00298586
-0.000539524
 -0.00117956
   0.0105042
  0.00138184
 -0.00370757
 0.000247161
 0.000163352
  -0.0159921
-0.000603254
   0.0117336
-0.000112663
  0.00701995
 -0.00451377
  0.00123225
  0.00230138
  0.00467428
 -0.00284926
  0.00320506
  -0.0109651
 0.000558409
 -0.00299647
   0.0022985
  0.00253536
  0.00234316
  0.00025119
   0.0115065
 -0.00393848
 -0.00481021
-0.000150605
 -0.00162514
   0.0020103
 -0.00361055
 0.000364477
 0.000336342
-0.000592467
-0.000728339
 -0.00227788
 -0.00473988
 0.000564966
   0.0114107
  0.00029321
 -0.00277268
  0.00240277
  0.00187403
  -0.0042256
 -0.00140842
 -0.00135454
  0.00191594
 -0.00655467
  0.00159502
   0.0033943
   0.0331853
 0.000574131
 -0.00187365
 -0.00346698
 -0.00489265
 -0.00582061
-0.000173905
 -0.00511221
  0.00154987
  0.00126616
  0.00354639
  0.00311279
 -0.00279762
 0.000200799
-0.000951299
  0.00307096
  0.00250573
  0.00298249
-0.000844965
 0.000498837
  0.00247272
  0.00242845
 -0.00906312
  0.00240444
  0.00212749
  0.00376155
 -0.00419439
  0.00355775
  0.00239711
-9.44619e-05
  0.00149436
 -0.00236902
 -0.00676801
 -0.00387851
  0.00123002
 -0.00350021
 -0.00120802
  0.00381247
 -0.00171567
 -0.00422573
  0.00113159
 -0.00357316
 -0.00467532
 -0.00779376
 0.000705362
-0.000174696
  0.00289016
 -0.00291064
 -0.00615986
  -0.0032661
  0.00143069
  0.00876582
 -0.00235082
 -0.00498875
 8.19355e-05
 -0.00291837
 -0.00440909
-3.93244e-05
 -0.00588547
  0.00258911
   0.0034872
  0.00221367
 -0.00189911
 -0.00267082
 -0.00165885
  0.00164177
-0.000605878
  0.00330072
  0.00163284
 0.000727462
 -0.00491699
  0.00292539
  0.00735568
 -0.00398411
  -0.0374035
 -0.00347907
 0.000352711
 -0.00221731
  0.00575541
 0.000541862
   -0.012137
  -0.0157347
  0.00716243
  0.00407127
 -0.00518463
-0.000543151
 -0.00122135
  -0.0150436
  0.00376951
  0.00364916
 -0.00219696
  0.00379357
  -0.0338505
 -0.00130909
  -0.0056769
 -0.00580184
 -0.00372334
-0.000200845
   0.0125267
 -0.00520885
 -0.00282464
  0.00578553
-0.000588519
   0.0226312
 -0.00441712
 -0.00286579
  0.00609403
  0.00132104
-0.000581574
 0.000816766
-0.000105591
 -0.00364458
   0.0326775
 -0.00499456
 -0.00130898
 -0.00220318
-0.000327836
 -0.00318198
  0.00281747
  0.00374947
 -0.00238698
  -0.0035242
  0.00230172
  0.00473501
  0.00267628
  0.00367559
 -0.00461504
 -0.00381783
-0.000575558
  0.00396917
 -0.00186624
  0.00211079
  0.00329476
  0.00385248
  0.00205796
  0.00461156
  -0.0044214
  0.00367581
  0.00261749
 0.000421616
-0.000314818
 -0.00312814
  0.00282856
 -0.00125123
-0.000736671
   0.0048171
  0.00209976
  0.00160293
 -0.00322963
  -0.0002939
 0.000581552
 -0.00173909
  0.00206635
 -0.00203938
 -0.00127644
  -0.0002718
 -0.00266484
 -0.00107587
  0.00174178
  0.00168744
  -0.0022737
  0.00555561
 -0.00131156
  -0.0040845
  0.00360275
 -0.00449497
 -0.00334332
  0.00423983
  0.00405791
  0.00368095
 0.000121532
 -0.00117538
 -0.00378183
 -0.00208703
  0.00289109
-0.000362292
 -0.00215895
 0.000210711
 -0.00323762
 0.000675912
 -0.00430577
  0.00194769
  0.00318642
  0.00268327
 -0.00467794
  -0.0038505
 -0.00228655
  -0.0028587
 3.89154e-05
  0.00382072
  0.00376672
  0.00337959
  0.00326911
 -0.00249619
  0.00414526
  0.00255916
 -0.00192197
 -0.00465567
  0.00172677
 -0.00247921
  0.00359175
 -0.00328451
  0.00148394
  0.00508133
-0.000150841
-0.000307563
-0.000250425
  0.00262787
  0.00487754
  0.00111436
 -0.00257777
  -0.0046806
 -0.00154752
 -0.00465894
  0.00296786
 -0.00117881
 -0.00331422
 -0.00435605
   0.0005342
 0.000906893
  0.00426173
-0.000330467
 8.05351e-05
  0.00311333
  0.00227172
-0.000530468
 0.000311317
 -0.00493279
-0.000362169
 -0.00274039
 -0.00252416
 -0.00192099
-0.000228874
  0.00436851
 -0.00181373
  0.00383642
 -0.00119863
  0.00275475
  0.00189674
 -0.00168042
-0.000544087
  0.00433689
 -0.00139087
  0.00270825
  0.00498453
 -0.00317579
 -0.00374218
 -0.00336021
  -0.0028581
  0.00261935
  0.00388172
 -0.00358747
 -0.00266504
 -0.00107668
  0.00442153
  0.00623662
    0.003639
-0.000309694
  0.00436196
 -0.00178115
  0.00210649
 -0.00265996
  0.00312005
 -0.00361902
 -0.00367963
  0.00442921
 -0.00445328
 0.000523889
  0.00243232
  0.00273708
  0.00363423
 -0.00359864
  0.00205654
  -0.0028787
  0.00450291
  0.00201565
 -0.00128051
 -0.00424374
  0.00363305
  0.00120948
  0.00268543
-6.11873e-05
  0.00248937
  0.00478753
 -0.00306377
  0.00208318
  0.00446933
  -0.0048184
 -0.00325589
  0.00323944
 -0.00157594
  0.00400877
 -0.00441415
  0.00449116
 -0.00464335
 -0.00231045
  0.00372524
 -0.00375884
  0.00169403
  0.00127105
  0.00394127
 0.000177939
  0.00256088
  0.00110779
  0.00270963
   0.0024917
 -0.00169058
 -0.00334652
  0.00249029
 -0.00254643
   0.0024958
  0.00084631
 -0.00491442
-6.16297e-05
 0.000541514
 -0.00312477
 -0.00378039
-0.000513474
  -0.0025051
 -0.00109137
 -0.00199814
 0.000876978
 -0.00220965
 -0.00131007
 0.000113131
 -0.00159773
 0.000318116
-0.000195892
-0.000258445
  -0.0022252
 -0.00393999
-0.000534639
  0.00265341
  0.00453295
 -0.00458597
 0.000208145
  0.00263945
 -0.00138454
  0.00178105
-0.000571383
 0.000821263
 0.000604142
 -0.00465233
 0.000806399
  0.00478137
  0.00136772
  0.00281504
 -0.00325308
 -0.00419216
 -0.00438528
-2.95388e-05
 -0.00109998
  0.00172852
  0.00327546
  0.00384081
 -0.00229464
 -0.00365719
 -0.00172273
  0.00244814
  0.00150795
 0.000161758
  0.00383363
 -0.00461047
  -0.0021887
  0.00268987
   -0.004252
  0.00370473
-0.000740988
  -0.0005675
 0.000281997
  0.00439968
 -0.00465456
 -0.00470403
  0.00467462
  0.00158731
  0.00464538
 0.000907317
-0.000506527
 -0.00332408
  0.00195135
 0.000475755
  0.00167559
 -0.00419156
  -0.0028182
-0.000357493
  0.00360735
-0.000370887
  0.00135331
 -0.00339142
 -0.00294245
 -0.00205555
  0.00198398
 -0.00425165
 -0.00198796
 -0.00614685
  0.00335131
-0.000961972
  0.00341203
 -0.00176215
  0.00359683
 -0.00102492
 -0.00270909
  0.00367239
-0.000908431
  -0.0028061
 0.000145251
 -0.00141708
   0.0040522
  0.00509077
 0.000260403
 8.38972e-05
 0.000273923
 -0.00322903
  0.00134161
  0.00210351
  0.00201695
-1.62011e-05
 -0.00327567
 -0.00183772
  0.00191629
-0.000937753
 0.000831688
 -0.00112228
-0.000417468
  0.00463748
-0.000801181
 -0.00206753
 -0.00146301
  -0.0023924
  0.00107835
-0.000725813
  0.00185976
  0.00332653
 -0.00433166
 -0.00413259
 -0.00421513
  0.00132064
  0.00140034
   0.0041168
  0.00102402
  0.00466175
-0.000430178
  -0.0032398
 -0.00329213
 -0.00377298
  0.00363023
  0.00323274
  0.00120904
 -0.00477203
 -0.00319217
 -0.00188535
-0.000959889
  0.00264836
  0.00197988
  0.00401674
  0.00154642
 -0.00682207
 -0.00319298
 -0.00500031
-0.000670897
  0.00311252
  -0.0027762
 -0.00423043
  0.00139295
 -0.00250786
 -0.00331705
  0.00250485
  0.00379165
  0.00105557
  0.00163747
-0.000111996
 0.000430698
 -0.00355095
  0.00116949
  0.00216555
  -0.0024103
-0.000495007
 0.000724329
  0.00395507
  1.9586e-05
  0.00251608
 -0.00273612
  0.00435633
-0.000129458
  0.00459576
  0.00301819
 -0.00327763
 -0.00392684
  0.00482285
  -0.0032562
 0.000353343
  0.00253579
 -0.00139415
  0.00155539
-0.000961551
  0.00139128
  0.00324285
 -0.00349713
  0.00023542
-0.000668126
  0.00322899
 -0.00501287
 -0.00477691
  0.00472385
   0.0013167
  0.00255834
 -0.00227648
 -0.00438751
 -0.00136546
 -0.00343169
 0.000610943
 -0.00391028
 -0.00126411
-4.55705e-05
 0.000942417
 -0.00174112
 -0.00147221
  0.00270946
-0.000695543
 -0.00192779
  0.00463788
  0.00479358
 -0.00419608
 -0.00171836
  0.00146751
-0.000200728
  0.00474898
 -0.00017131
  0.00146149
 0.000219926
  0.00439705
-0.000383476
 0.000131981
  0.00461842
-0.000477408
 -0.00397392
  0.00239112
  0.00200957
 -0.00329891
 -0.00428251
   0.0035561
  0.00260892
 -0.00327055
 -0.00265968
 -0.00254726
  0.00289028
  0.00064617
  0.00087167
 0.000594501
  -0.0048278
  0.00373961
 0.000156925
 -0.00499516
  0.00468451
  0.00357098
  0.00163702
-0.000529598
  0.00323753
 -0.00354297
  -0.0040813
 -0.00157952
 -0.00423032
 0.000652747
  0.00338397
 -0.00459732
 -0.00474187
  0.00453336
  0.00262115
   0.0024156
 -0.00383341
  0.00337691
 0.000820269
  0.00375778
 -0.00465647
  0.00323948
 -0.00365609
  0.00313981
 -0.00117826
  0.00210776
  -0.0012151
 -0.00112258
  0.00070246
  0.00443257
-0.000853402
 0.000479769
  0.00245758
 -0.00435104
  -0.0050874
  0.00108764
 -0.00300934
 -0.00393505
  0.00449607
 -0.00220802
  0.00163636
  0.00303954
 -0.00164705
  0.00187077
  0.00259999
 -0.00401907
-0.000635862
  0.00403993
  0.00437652
   0.0048984
  0.00282373
  0.00471872
  0.00373893
  0.00431387
  0.00286397
 -0.00290005
   0.0013746
 -0.00300579
   0.0012878
 -0.00275675
 -0.00410085
 -0.00475405
  0.00267492
  0.00366187
 -0.00385984
  0.00271796
-0.000108897
 -0.00196276
   0.0035947
-0.000564976
 0.000810655
 0.000425911
 -0.00252183
  0.00406473
 -0.00274945
 -0.00487992
 -0.00478187
  0.00122821
  0.00374166
  0.00453685
  0.00128543
   0.0021968
  0.00440641
-0.000534009
  0.00137615
  0.00221734
  0.00160371
 -0.00222993
  0.00449563
 -0.00206033
-2.89582e-05
 -0.00490259
 -0.00172693
 -0.00246514
  0.00386681
-0.000825015
 -0.00474237
 -0.00125827
  0.00211186
  0.00408275
  0.00323404
 -0.00192977
-0.000466562
 -0.00412885
 -0.00274367
   0.0016704
 -0.00389064
 -0.00268981
 -0.00194272
 -0.00463058
 -0.00312046
  0.00436118
  0.00252743
 -0.00386783
 -0.00110073
-0.000885155
  0.00346114
 -0.00434852
  0.00190153
  0.00255162
 -0.00136974
 -0.00307908
  0.00266691
  0.00178571
-0.000338668
  0.00155014
 -0.00396897
  3.3617e-05
 -0.00458639
   0.0030711
-0.000719949
  0.00369091
 -0.00389559
  0.00372932
  0.00446595
 -0.00166043
 0.000366215
  -0.0044887
 0.000853253
  0.00344106
 -0.00414938
  0.00266839
  0.00290803
  0.00348592
   0.0038601
 -0.00319489
 -0.00237421
  0.00221738
 -0.00250854
   0.0045881
-0.000143441
  0.00119659
 -0.00339337
 -0.00256211
 -0.00200927
  0.00124643
  0.00407091
 -0.00118442
  -0.0036917
  0.00442309
 -0.00311119
 0.000481973
  0.00308502
 -0.00192872
-0.000816543
  0.00256442
  0.00142146
  0.00466202
  0.00308667
 -0.00268808
  0.00307545
  0.00404759
  0.00482464
 0.000926804
  0.00251549
  0.00375836
  0.00279849
 -0.00477378
 0.000925777
 -0.00475021
  0.00479549
 -0.00429229
  0.00146189
 -0.00367258
 -0.00178811
  0.00434181
  0.00256348
 -0.00269055
 -0.00179968
  0.00389658
 -0.00317139
 0.000134046
-0.000697518
  0.00478437
  0.00318678
   0.0035914
  0.00237883
-0.000323788
  0.00316571
 0.000415718
  0.00189577
  0.00127207
-0.000624704
  0.00162335
 -0.00259397
 -0.00297382
 0.000417033
  -0.0050517
 -0.00284176
 -0.00368374
 -0.00460658
 -0.00313545
  -0.0028499
  0.00183528
 -0.00180523
 0.000295376
   0.0012586
 -0.00417649
  0.00256467
  0.00447715
  0.00464109
  0.00441834
 -0.00034433
 -0.00106315
  0.00408917
 -0.00216401
 -0.00249478
  0.00142093
  0.00258312
 -0.00431587
 -0.00316473
-0.000550684
  0.00209225
  0.00142573
 -0.00375425
  0.00429105
  0.00327647
  0.00151193
  0.00437906
 -0.00445088
  0.00287644
  0.00483465
 -0.00264844
  0.00488633
  0.00167768
 0.000522871
 0.000295173
 -0.00207801
  0.00128242
 -0.00218329
 -0.00259046
 0.000980834
 -0.00302572
  0.00200368
  0.00487504
 -0.00394527
   -0.005013
 -0.00263259
  0.00250368
  0.00250114
 -0.00193394
  0.00426806
 -0.00309163
 -0.00446128
 0.000633719
 -0.00198635
  0.00443035
 -0.00109514
  0.00452815
  0.00374419
-0.000689718
  0.00237962
   0.0036696
  0.00163931
  0.00236699
 0.000349506
 -0.00279746
 -0.00244776
  0.00327109
  0.00352284
 0.000326979
  -0.0042557
-0.000571852
  0.00235822
  0.00285791
-0.000725616
  0.00343333
  0.00285377
  0.00162424
 0.000888783
 0.000392028
  0.00470444
 0.000223634
  0.00230895
  0.00480679
  -0.0041427
 -0.00467851
  0.00423543
-0.000246622
  0.00484803
  0.00307594
  0.00397517
  0.00222255
  0.00182478
 0.000708364
-0.000455358
 -0.00290381
  0.00290694
   0.0020965
  -0.0046151
  0.00143135
 -0.00258477
  -0.0038777
 -0.00410405
  0.00471238
  0.00406104
 0.000131901
  0.00320152
  0.00178028
 -0.00323856
  -0.0009053
 -0.00277306
 -0.00354328
  0.00431723
  0.00453888
 -0.00373421
 -0.00484257
  0.00486276
 -0.00450543
-7.17283e-05
   0.0047048
  0.00357421
 -0.00100943
  0.00200849
 0.000312789
  0.00469589
 -0.00353552
  0.00240528
  0.00275593
  0.00355622
    0.002789
-0.000969075
 -0.00402132
  0.00391041
-0.000110747
 -0.00425027
  0.00288935
 -0.00498718
  0.00394675
-0.000276394
  -0.0032209
  -0.0019547
  0.00195185
 -0.00176954
 -0.00263993
  0.00148681
-0.000509666
 -0.00247045
  0.00134289
-1.17359e-05
  0.00245612
  0.00104442
 -0.00143899
 -0.00355149
 -0.00203392
  0.00386813
 -0.00385862
-0.000567036
  0.00127591
  0.00374862
 -0.00200857
-0.000933947
 -0.00221893
 -0.00103722
 -0.00205453
  0.00266663
  -0.0002871
 -0.00414444
  0.00267762
 -0.00131143
 0.000583748
  0.00445355
  0.00177176
 -0.00246779
 -0.00232056
  0.00405727
  0.00401226
  0.00217458
 -0.00341329
 0.000350736
 -0.00284092
  0.00404261
 -0.00360798
 0.000713993
 -0.00459685
-0.000639006
-0.000417426
 -0.00336767
  0.00379323
  -0.0041368
 -0.00460641
  -0.0032176
-7.06484e-05
 -0.00181313
    0.000742
  0.00289167
 -0.00417343
 -0.00454703
  0.00375023
  0.00355136
-0.000886983
-0.000668894
  0.00295024
 -0.00418815
  0.00188989
 -0.00436701
  0.00487169
 0.000873912
  0.00276095
  -0.0035454
 -0.00377844
  0.00496035
 -0.00450393
 -0.00238561
 0.000673578
 -0.00401877
  0.00193636
 -0.00474671
 -0.00243391
 0.000768045
 -0.00388572
 -0.00200597
  0.00257429
  0.00103556
  0.00114958
 -0.00171057
 -0.00106935
  0.00197148
 -0.00127076
 -0.00244609
 0.000632568
  0.00341967
  0.00152186
 0.000443916
  0.00386924
-0.000858087
 -0.00057831
  0.00365094
  0.00482683
 -0.00283583
  0.00532467
 -0.00414834
  -0.0033149
 -0.00464813
 -0.00149849
   0.0027442
 -0.00368509
 -0.00423247
  0.00263118
-0.000983844
  0.00132936
  0.00389495
  0.00221919
-0.000611848
 0.000144314
 -0.00181848
  0.00158181
  0.00416379
 -0.00474207
 -0.00422809
 -0.00365589
  0.00162935
  0.00367821
  0.00349154
  0.00400117
  0.00338153
 -0.00385484
 -0.00150945
 0.000930858
 -0.00305728
-0.000168128
 0.000783987
 -0.00197851
  0.00013664
  0.00134008
  0.00177352
-0.000100598
   0.0028455
  0.00128896
 -0.00286289
 -0.00285939
  -0.0016785
 -0.00434019
  0.00420108
  0.00215535
 0.000639047
 -0.00271515
-0.000330154
 -0.00051072
 -0.00263437
 4.04371e-05
 -0.00121064
  0.00292576
-0.000450268
-0.000728704
  0.00206256
 -0.00368849
  0.00195493
 -0.00469123
  0.00235084
  0.00397275
  0.00043568
 -0.00178026
 -0.00323437
 -0.00261527
  0.00460044
  0.00330928
  0.00113772
  0.00248353
 0.000311469
  0.00333323
  0.00441815
    0.004112
  0.00411654
  0.00351427
  0.00100015
-0.000419272
 -0.00429473
 -0.00445645
  0.00440606
  -0.0018741
  0.00127254
-4.46954e-05
 -0.00376156
  0.00479085
  0.00453186
  0.00341705
 -0.00378128
  0.00128472
  0.00317398
   0.0042162
  0.00143446
-0.000801512
 -0.00309311
  0.00162631
  0.00103342
  -0.0034537
-0.000140056
 -0.00244744
  0.00437732
 -0.00466515
 -0.00428326
  0.00409605
  0.00450979
  0.00153789
  0.00220202
 0.000393199
-0.000525882
  0.00300889
  0.00157434
  -0.0016264
 -0.00343444
 -0.00321204
  0.00346409
 -0.00204831
 -0.00322692
  0.00274197
  -0.0038262
 -0.00186003
-0.000891597
 -0.00497212
 -0.00330573
  0.00379795
-0.000837913
 -0.00194014
 0.000618969
 -0.00466096
 0.000367596
  -0.0046365
 -0.00182725
-0.000222298
 -0.00429984
 -0.00128959
 -0.00168483
  -0.0051716
 -0.00159991
 -0.00424509
 0.000635336
   0.0031275
  0.00330232
 -0.00329891
 -0.00428485
 -0.00477002
-0.000924028
  0.00424494
  -0.0017266
 0.000462903
  0.00209145
-0.000431608
  0.00375638
 -0.00364993
-0.000615912
 -0.00381713
  0.00527389
  0.00362416
-0.000380676
 0.000324664
   0.0041603
 -0.00670377
  0.00104884
  -0.0030697
 0.000256265
  0.00164235
  0.00185065
  0.00351865
  0.00199496
  0.00375728
  0.00426566
  -0.0016743
    0.001065
  0.00350229
-0.000402379
    0.001857
  0.00379697
  0.00341327
  0.00120724
 -0.00318124
 -0.00106236
 -0.00181895
  0.00119917
 -0.00205589
-0.000757134
 -0.00420797
  -0.0013764
-0.000825487
  0.00448248
  0.00334514
  0.00461574
  0.00382208
  0.00362157
 0.000367599
  -0.0045736
  -0.0013244
  -0.0028924
  0.00104351
 -0.00292958
  0.00435977
-0.000367094
 -0.00345709
   -0.003333
 -0.00403697
  0.00454817
  0.00130434
  0.00245965
  0.00365677
-0.000556663
 -0.00149241
 -0.00444993
  0.00292047
  0.00174455
  0.00183014
 -0.00346223
 -0.00394914
  0.00220969
 3.72558e-05
 0.000312977
   0.0019127
 -0.00174745
-0.000127403
 0.000534142
 -0.00316691
 -0.00479611
  0.00127784
 0.000417918
 -0.00274827
 -0.00281806
   0.0018114
 -0.00376162
  0.00209264
  0.00399362
 -0.00205203
  0.00251842
  0.00404441
  0.00417761
 1.60129e-05
  0.00273064
 -0.00127967
  0.00354484
  0.00319673
 -0.00276344
 0.000300959
-5.22235e-05
 -0.00160823
   0.0013597
 -0.00259839
  0.00344386
   -0.003395
  0.00445972
 -0.00326717
  0.00144231
-9.71524e-05
  -0.0014927
   0.0016112
  -0.0038651
   0.0040148
  0.00387792
 -0.00143934
  0.00141208
 -0.00482432
 -0.00470436
 0.000489472
 -0.00183984
  0.00285224
-0.000533084
 -0.00285618
 -0.00192732
 -0.00241112
   0.0010593
 -0.00355639
   -0.004751
  0.00310861
  0.00175615
 0.000170112
 -0.00337221
 -0.00176791
  0.00261086
  0.00500804
-8.07426e-05
  0.00209054
 -0.00433855
 -0.00376565
  -0.0030512
  0.00023932
  0.00287537
 -0.00170686
-0.000884043
  0.00189476
  0.00149011
  -0.0044429
    0.002119
  0.00184592
  0.00096145
 -0.00478585
-0.000234697
  -0.0045475
 -0.00241173
  0.00261058
  -0.0025499
  0.00362434
  0.00384861
 -0.00223596
  0.00177981
 0.000873228
  0.00289328
  0.00349588
  0.00410721
 0.000500878
  0.00347094
 -0.00115132
 -0.00264435
 -0.00486475
 0.000161229
-0.000455395
 0.000481236
 -0.00210943
  0.00266781
  0.00433513
  0.00489554
-0.000653641
  0.00491866
  0.00204272
 -0.00393403
 0.000907368
  0.00230529
 0.000859159
  0.00140258
  0.00481363
 -0.00130796
  0.00390072
   0.0034557
 -0.00231615
 -0.00353092
 0.000299141
  0.00297322
   0.0044797
 -0.00134055
  0.00281143
-5.66148e-05
 -0.00250539
 -0.00334358
   0.0025759
 -0.00293193
  0.00186365
  -0.0029297
  0.00236903
  0.00498871
  0.00469433
   0.0016745
  0.00491536
-0.000848715
  0.00162438
  0.00187442
 0.000226265
 -0.00241971
-0.000895404
 -0.00392328
  0.00384588
 -0.00105459
  -0.0003071
  0.00261346
 -0.00252129
  0.00239638
  0.00411785
  0.00283848
 0.000934959
  0.00350896
  -0.0036481
 -0.00124597
 -0.00153698
 -0.00155009
 0.000412935
 -0.00386268
 0.000530285
 -0.00270089
 -0.00185307
 -0.00213519
 -0.00275659
 -0.00204736
  0.00455221
 -0.00286571
  0.00208733
  0.00115969
  0.00402074
 -0.00272413
   0.0036884
    -0.00187
 -0.00156641
  0.00255146
  0.00207221
  0.00316452
 0.000154649
  0.00450647
 0.000526501
-0.000740135
  0.00224667
 -0.00345306
 -0.00224465
  0.00367764
 0.000379986
  0.00121939
 -0.00290704
 -0.00423974
   0.0022363
  0.00266671
 -0.00200049
 -0.00461608
 -0.00449678
 0.000247521
 -0.00162203
 -0.00491963
  0.00242072
 -0.00450779
  0.00121363
  0.00140043
 -0.00220759
-9.67859e-05
  0.00451961
  0.00119599
 -0.00255958
  0.00166348
-0.000652894
  0.00260483
  0.00111566
  0.00486172
 -0.00312944
 -0.00164672
 -0.00358812
-0.000387441
 -0.00298305
  0.00168608
 -0.00417422
-0.000774059
  0.00251248
  0.00306297
 -0.00321022
 -0.00456943
  0.00344941
 -0.00269544
 0.000684573
 -0.00323729
 -0.00264573
 -0.00184972
 -0.00272057
  0.00357503
  0.00444009
 4.16009e-05
 -0.00151743
  0.00395993
 -0.00373693
 0.000948155
 0.000552355
 0.000574073
 -0.00152879
 -0.00332459
 0.000444531
   0.0003898
 3.37199e-06
  0.00170675
  0.00499372
  0.00203522
 -0.00143777
 -0.00416699
  -0.0038247
 -0.00400111
  0.00390821
 -0.00204347
 -0.00357066
  0.00236193
 0.000378561
  0.00211003
  0.00417922
   0.0026829
 -0.00484252
 -0.00354273
  0.00110705
  0.00461538
  0.00150915
  0.00471015
   0.0035688
   0.0027617
 0.000618874
-0.000889821
 -0.00150651
  0.00413034
 0.000163315
  0.00378258
-0.000466688
 -0.00422405
 0.000635997
 -0.00043285
  0.00280283
  0.00418234
 0.000363468
  0.00396784
 -0.00477955
-0.000727894
 -0.00306381
   -0.003379
 -0.00330493
  0.00219796
  0.00370511
 -0.00417436
-0.000207809
  0.00391268
 -0.00275059
 -0.00397601
  0.00348404
  0.00376445
  -0.0044277
  0.00205958
  0.00151613
  0.00129608
 -0.00383213
  0.00483807
  0.00048865
  0.00194913
  0.00362914
 -0.00497155
  0.00272993
-0.000746737
-0.000432523
 0.000536712
 -0.00155914
  0.00493574
-0.000489659
 -0.00137102
-0.000799583
  0.00144597
 0.000252504
 0.000815034
 -0.00135314
 -0.00101667
  0.00160731
   0.0034721
 -0.00212992
  0.00386031
  0.00449858
 -0.00364233
  0.00262092
 -0.00478759
  0.00341045
 -0.00086358
  0.00154549
  0.00458199
 -0.00101325
 -0.00296976
  0.00152723
 -0.00238801
  -0.0029452
-0.000746733
  0.00186136
  0.00161838
  0.00478608
 -0.00470168
  0.00155022
-0.000707472
 -0.00107659
 -0.00425326
 -0.00426539
  0.00417202
  0.00155788
-0.000622425
 -0.00184855
  -0.0018387
 -0.00215422
  0.00101763
 -0.00298229
 -0.00265953
   0.0023714
  0.00463473
 -0.00245101
 0.000777957
 -0.00123274
  0.00409058
 0.000356055
  0.00275011
 -0.00388307
 -0.00312061
  -0.0046418
 -0.00183217
  0.00112876
  0.00221567
  0.00478232
  0.00091095
   0.0025101
  0.00132864
 -0.00480042
 -0.00357039
  0.00207149
 -0.00406971
 -0.00440227
 -0.00137452
 0.000303972
 -0.00125472
  0.00178288
  0.00314586
  0.00475902
  0.00379669
 -0.00451757
  0.00212653
  0.00342753
 -0.00197248
 -0.00209941
 -0.00280911
 -0.00288579
  0.00325275
   0.0049371
 -0.00177276
 -0.00487176
 -0.00470859
  0.00139118
  0.00125311
  0.00250318
   0.0011696
 -0.00283983
 9.38134e-06
 -0.00250565
 -0.00264415
  0.00143509
  0.00456195
 -0.00171775
  0.00202893
 -0.00181647
  0.00358233
 -0.00422968
  0.00496252
  0.00172429
 -0.00447456
  0.00375531
  0.00220282
  0.00264807
  0.00217894
 -0.00477355
 -0.00445524
  0.00436593
 -0.00266324
  0.00379361
  0.00429914
 0.000560102
  0.00391796
  0.00458665
 -0.00305262
 0.000167174
  0.00208593
  0.00311308
  0.00232344
 -0.00290858
 -0.00439646
   0.0046754
  0.00352262
 -0.00483841
 -0.00204624
 0.000547654
 -0.00165878
 -0.00346781
  0.00131408
 -0.00170016
  0.00325258
  0.00183562
 -0.00294874
 0.000451509
-0.000520204
  0.00422631
 0.000674062
 2.06614e-05
  0.00358835
  0.00300693
 -0.00118962
  0.00288359
 -0.00143687
 -0.00227556
  0.00246634
 0.000506618
  0.00288772
 -0.00045162
 -0.00138419
 0.000207266
   0.0016359
-0.000784552
-0.000121229
 0.000154628
-0.000626862
  0.00282863
 -0.00430161
  0.00271046
  0.00435692
  0.00200857
 -0.00399359
  0.00260561
 -0.00111602
 -0.00203152
 -0.00203573
  0.00372092
 -0.00351745
  0.00360767
 -0.00173807
  -0.0042245
  0.00166315
  0.00207982
  0.00362645
 -0.00476477
  0.00488607
  0.00127103
  0.00161731
   0.0027541
 -0.00447813
  0.00447445
 -0.00178067
  0.00240021
 -0.00138176
  0.00280321
  -0.0025133
  0.00291699
 0.000536534
 -0.00179158
 0.000684591
 0.000101755
 -0.00481887
  0.00164904
  -0.0023678
-0.000894961
  0.00424099
 0.000652511
 -0.00264563
 -0.00297147
-0.000673435
  0.00101897
 -0.00222288
 -0.00387012
 -0.00212611
 -0.00332097
 -0.00356999
 -0.00232634
  0.00316069
  0.00216989
   -0.004715
  0.00340987
   0.0015486
 -0.00103219
 0.000869627
  -0.0049352
 -0.00376972
  0.00351308
  0.00291798
  0.00189825
 -0.00334628
 -0.00120514
 -0.00335354
 -0.00345853
 -0.00447626
-0.000480714
  0.00151668
 -0.00467754
 -0.00495954
  0.00339608
 -0.00269261
-0.000511943
 -0.00101878
  0.00013645
 0.000526751
  0.00182012
  0.00166771
  0.00191401
  0.00460272
-0.000567348
-0.000917433
  0.00499537
  -0.0018846
  -0.0043674
 -0.00152023
  0.00376632
 -0.00414889
 -0.00047683
   0.0023786
  0.00390938
 -0.00351016
  0.00411335
 -0.00219191
 -0.00175688
 -0.00411556
 -0.00170487
  0.00262903
  0.00200994
 -0.00148341
  0.00278954
 0.000201036
 0.000792926
 -0.00272768
  0.00421854
 -0.00406244
  0.00259481
 0.000901897
  0.00252038
-0.000346187
 0.000713048
 -0.00287028
  0.00375273
 0.000777953
  8.2052e-05
  0.00427022
  0.00416429
-0.000910687
 -0.00507707
  -0.0014247
 -0.00220194
  0.00406898
 0.000118689
 -0.00476599
 -0.00323569
  0.00328497
 -0.00336716
-0.000110498
  0.00109057
  0.00354949
  0.00339552
 -0.00120766
 -0.00113598
-0.000727783
 0.000570568
 -0.00192099
 8.83722e-05
 -0.00035973
  0.00428722
 -0.00239318
  0.00344954
-6.69753e-05
-0.000317255
  0.00310644
 -0.00383407
  0.00473092
  0.00135537
  0.00493316
 -0.00109284
  0.00159507
 -0.00102849
 0.000451172
 0.000488253
  0.00362448
  0.00110577
  0.00300854
  0.00197392
  0.00282156
 -0.00280806
 -0.00245946
  0.00135363
 -0.00446724
  0.00176436
 -0.00482141
-0.000305527
 -0.00228533
 -0.00186022
   0.0050338
  0.00129133
 -0.00335018
 -0.00258914
-0.000294317
  0.00262706
  0.00204773
  -0.0031301
  0.00321156
  0.00184946
  0.00298576
  0.00321837
 -0.00451825
-0.000419152
 -0.00327789
  0.00127508
 -0.00496308
 -0.00468384
 -0.00257948
   0.0022134
  0.00223714
  -0.0048002
   0.0043565
 -0.00483868
  0.00154906
  0.00494147
  0.00185235
   0.0017343
 -0.00030338
  0.00450268
 -0.00494959
-0.000530439
 0.000859905
 -0.00234492
  0.00182642
 -0.00443806
  -0.0047214
  -0.0011516
 -0.00268453
  0.00364649
 -0.00431066
 -0.00456287
  0.00185456
 -0.00353542
 1.63684e-05
  0.00357442
   0.0027383
 4.74351e-05
  0.00389068
 -0.00484275
 -0.00272238
  0.00112532
 -0.00462357
 -0.00338434
  0.00128917
  0.00190503
 -0.00344606
 -0.00186068
 -0.00136349
  0.00124796
 -0.00236305
 -0.00131728
 -0.00427464
  0.00349464
  0.00133516
  0.00254189
  0.00405722
  0.00161171
 -0.00360944
 -0.00363026
 0.000257873
 -0.00292687
 -0.00319481
 -0.00288881
  -0.0014614
  0.00182324
 -0.00431314
 -0.00372833
 -0.00313339
  0.00457435
 -0.00357105
-0.000877752
 0.000728877
 -0.00321775
 0.000735278
 -0.00301846
  0.00368449
  0.00230729
 0.000115481
 -0.00268096
 -0.00146498
  0.00275358
 0.000999864
-0.000748071
  0.00124573
 -0.00266494
 -0.00321147
 0.000299562
  0.00394481
 -0.00182113
   0.0016681
-0.000797443
 0.000248624
  0.00347087
  0.00131103
   0.0037819
 0.000288589
  0.00199347
 -0.00494649
  0.00215116
  0.00156538
 -0.00351917
  -0.0037278
 -0.00273783
  -0.0017411
  0.00200478
-0.000760294
 -0.00305768
-0.000706865
   0.0043558
-0.000740361
  0.00282727
  0.00210512
 -0.00474458
 -0.00292443
 -0.00165038
 -0.00241253
 -0.00113908
  0.00367041
 -0.00346724
  0.00203656
 0.000314471
 0.000730582
 -0.00271799
  -0.0012165
 -0.00296268
  -0.0039344
  0.00407004
  0.00402825
   -0.003885
  0.00122042
 0.000593045
 -0.00240838
   0.0024899
  0.00285029
 0.000853975
 -0.00050426
 -0.00291279
  0.00279266
  0.00378655
 -0.00355988
 -0.00294394
  0.00161314
  0.00354284
 -0.00269871
  0.00368595
 -0.00310909
-0.000110113
 -0.00245198
  -0.0044631
  0.00141676
  0.00457738
 0.000849049
 -0.00285159
  -0.0031416
  0.00463183
-0.000818928
 -0.00208148
  0.00369939
 -0.00179361
 -0.00096597
-8.25387e-05
   0.0037951
  0.00162281
  -0.0025946
  0.00164487
 -0.00253145
  0.00189615
  0.00372904
 -0.00474281
 0.000685404
  -0.0048136
 -0.00269506
   -0.002706
  0.00370784
-0.000399122
 -0.00402341
  -0.0044044
  0.00448879
 -0.00148073
 -0.00386493
 0.000903033
 -0.00190578
  0.00198285
  0.00304519
-5.01063e-05
  0.00161211
 -0.00277661
  0.00286704
  0.00030964
 0.000428596
 -0.00310325
 -0.00477479
-0.000777006
  0.00351636
 -0.00237036
 -0.00413588
 -0.00401635
  0.00452788
  0.00459016
 -0.00376115
  0.00021126
  0.00475415
 -0.00146108
  0.00250412
  0.00345985
  0.00313843
  0.00347857
  0.00405526
  0.00262332
 -0.00300606
 -0.00481356
 -0.00147754
 8.42576e-05
  0.00216539
 -0.00343625
 -0.00496974
 -0.00122639
 -0.00121675
  0.00289341
  0.00407935
  0.00420795
  0.00478626
  0.00430066
 -0.00157295
  0.00329873
  -0.0030736
-0.000712727
  0.00427848
 -0.00354961
 -0.00112646
 -0.00448657
  0.00165776
  -0.0013762
-0.000951544
-0.000842024
 -0.00292025
 -0.00281701
 -0.00236735
 -0.00386889
  0.00480241
 -0.00037731
 -0.00368635
 -0.00167902
  0.00470305
  0.00347515
 -0.00011917
  0.00472941
 -0.00275514
  0.00366018
  0.00261892
 -0.00367969
  0.00286424
  0.00240129
 -0.00438292
 -0.00371261
 0.000696119
 -0.00246041
 0.000570768
-2.92964e-05
 -0.00101392
  0.00444041
  0.00048024
 -0.00436006
 -0.00193969
   0.0045248
-0.000205978
  0.00013617
 -0.00329611
  0.00242277
  0.00126339
 -0.00349759
 -0.00295843
  0.00257315
-0.000180511
 -0.00325927
   0.0010444
  0.00469642
 -0.00353376
  0.00328536
  0.00335271
  0.00408127
  0.00460178
  0.00121305
  0.00147866
 -0.00478504
  0.00249655
 -0.00282911
 -0.00224935
 -0.00193658
   0.0021377
  0.00173284
 -0.00250006
 -0.00238596
  0.00236889
 0.000556356
 -0.00286506
 -0.00284099
 -0.00431137
 -0.00116506
  0.00457789
  0.00194812
 0.000333455
 -0.00338444
-0.000482628
 -0.00485095
  -0.0016476
 -0.00444213
  0.00484158
-0.000185256
  0.00383934
  0.00319039
 -0.00110788
  0.00343722
 -0.00060045
 -0.00463311
  0.00364828
  -0.0031078
 -0.00246612
 -0.00360496
-4.82721e-05
  0.00466768
  0.00312398
  0.00244777
 -0.00272218
 0.000488969
 -0.00199977
-0.000591129
  0.00264409
 -0.00131504
  0.00323992
  0.00221808
 -0.00437081
 -0.00143053
  0.00382975
 0.000142668
 -0.00128537
 -0.00282175
 0.000696646
 -0.00144769
   0.0019891
-0.000467911
  -0.0032612
 -0.00412268
 -0.00203459
  0.00113446
 -0.00375969
  -0.0033902
  0.00302277
 -0.00122971
 -0.00199906
  -0.0020294
 -0.00156593
 -0.00387891
 -0.00459124
 0.000702588
  0.00161442
 -0.00159082
 -0.00490418
-0.000760067
  0.00208793
  0.00334501
 -0.00354469
  0.00271161
 -0.00308959
 -0.00471512
 -0.00214139
 0.000620925
  -0.0025417
  0.00354347
  0.00417788
  0.00444139
 -0.00192492
 -0.00409383
  -0.0046845
  0.00103458
  0.00203343
 -0.00345046
  0.00263973
 5.47244e-05
 0.000329992
 -0.00436237
  0.00302071
  0.00375145
 -0.00324197
  0.00342978
-0.000546419
   0.0033568
 -0.00315975
 -0.00043849
 -0.00235486
  0.00392545
 -0.00196506
-0.000941217
  0.00164744
-0.000177435
-0.000661662
  0.00450503
 -0.00455948
  0.00180347
  0.00303445
  0.00460919
  0.00130358
 -0.00389173
 -0.00448184
  0.00155519
  0.00215024
  0.00253824
   0.0031092
-0.000215113
 -0.00239717
 -0.00157821
 0.000421371
 -0.00437491
 -0.00281896
  0.00218723
  0.00406362
  0.00162302
 0.000540222
 -0.00410139
 -0.00381131
   0.0031316
  0.00496323
  -0.0009081
 -0.00281282
  0.00145818
   0.0039103
  0.00164467
 0.000949504
  0.00434983
 -0.00167783
 -0.00100808
  0.00395826
   0.0045674
 9.60888e-05
  0.00447695
  0.00111021
 -0.00275942
  0.00201887
-0.000776269
  0.00202708
  0.00462776
  0.00263794
 -0.00255313
 -0.00475083
  0.00480726
  0.00462378
   0.0043029
  0.00143392
 0.000156025
 -0.00480126
   0.0026228
 -0.00171183
  -0.0049762
 -0.00329508
 0.000474127
  0.00147241
 -0.00438195
 -0.00299605
 -0.00257235
  0.00496806
 0.000329357
  0.00140997
   0.0039194
-0.000110653
 -0.00349165
  0.00339011
 -0.00400664
 -0.00118959
 0.000416745
 0.000211117
 -0.00420665
  3.3275e-05
 -0.00215509
 -0.00177719
 0.000273419
 -0.00233796
 -0.00215425
-0.000426283
  0.00408718
  0.00300473
-0.000225698
  0.00170026
 -0.00371459
-0.000212365
  0.00342244
  0.00176927
 -0.00374448
  0.00403625
  0.00377138
  -0.0013214
  0.00401145
 -0.00089233
 -0.00491241
  0.00291054
  0.00398974
 -0.00340565
  0.00131029
  0.00501359
 0.000344957
 -0.00328789
  0.00018398
  0.00111998
  0.00176075
  0.00303067
  0.00434547
  -0.0029824
 -0.00432198
 -0.00281176
  0.00158688
  0.00477345
 -0.00480948
 -0.00364628
  0.00147031
 -0.00352003
  0.00113386
 -0.00012785
  0.00324109
  0.00239412
 -0.00110093
  0.00202318
 -0.00378631
 -0.00210086
 -0.00388177
 -0.00384388
 -0.00420111
 -0.00489982
 -0.00225547
  0.00210183
 -0.00492982
  0.00309553
  0.00381894
 0.000255478
-0.000795446
 0.000543544
 -0.00172018
 -0.00144045
  0.00255798
 -0.00104195
 0.000747056
-0.000850818
 -0.00126979
 0.000936751
 0.000503511
 -0.00481268
   0.0024263
 -0.00336255
 6.36697e-05
 0.000669768
  0.00402744
  0.00395971
 -0.00231143
 -0.00490852
 -0.00315367
 -0.00119022
 -0.00374032
 -0.00235541
  -0.0010923
-0.000997666
  0.00474563
 -0.00102194
  -0.0029027
  0.00354928
  0.00423466
  0.00131346
-0.000860403
 -0.00248828
   0.0049973
 -0.00334291
   0.0014797
 0.000625294
 0.000800998
 -0.00479121
 -0.00344095
 -0.00368899
 -0.00461762
   0.0039763
 -0.00199478
 0.000444709
-0.000351336
 -0.00302935
-0.000588542
  0.00232418
 -0.00293366
  0.00125274
  -0.0038566
 -0.00169096
  0.00389609
 5.24812e-05
  0.00231881
  0.00364918
  0.00403889
  0.00440475
  0.00219464
  0.00326834
 0.000722127
 -0.00371796
 -0.00408524
 0.000591695
  -0.0020641
  0.00224661
 -0.00378717
  0.00385221
  0.00244201
  -0.0022292
 -0.00495895
  0.00283199
 -0.00325376
 -0.00201037
  -0.0017274
   0.0013953
-5.18414e-05
  0.00267837
 -0.00127708
  0.00201857
 -0.00106744
-0.000127931
 -0.00467985
 -0.00217301
  0.00492086
  0.00262749
 -0.00353395
  0.00395005
  0.00203565
  0.00365285
  0.00221559
 -0.00224216
  0.00493529
  0.00299637
  0.00333994
 -0.00213011
 0.000233592
  0.00455539
 -0.00338928
 -0.00231898
 -0.00267376
 -0.00334521
 -0.00449641
-0.000934341
-0.000362888
  -0.0012217
 -0.00454521
  0.00457915
 -0.00348389
-0.000814887
  0.00159181
 0.000405774
  0.00404618
  0.00190782
  0.00321579
  0.00395818
-0.000455249
  0.00468091
  0.00290559
 -0.00342823
  0.00333649
 0.000122845
-0.000679927
   0.0032644
 -0.00189104
 -0.00232339
  -0.0038564
  0.00333803
 -0.00277223
 -0.00224759
 -0.00398549
-0.000439193
-0.000586206
 -0.00348296
  0.00360667
  0.00404374
 0.000293674
  0.00407067
   0.0036523
  0.00175172
 -0.00175879
 0.000204531
 -0.00286038
 -0.00269786
 -0.00288605
 -0.00464212
 -0.00375585
  0.00164436
 -0.00496422
  0.00414532
    0.003224
  0.00336978
-0.000739179
 -0.00245934
  0.00163797
  0.00236239
 0.000197196
  0.00277356
   0.0007049
  0.00241581
 -0.00446377
  0.00185586
 -0.00303453
-6.23302e-05
  0.00323215
 -0.00443844
 -0.00102627
 -0.00148005
  0.00462493
 -0.00241096
 -0.00471753
  -0.0021369
   0.0027909
 -0.00257761
 0.000143886
  0.00490078
 -0.00222298
  0.00138374
  0.00154672
 -0.00218787
 0.000529644
-0.000238364
 -0.00381882
   0.0047918
   0.0022968
   0.0028203
  0.00215614
 -0.00250527
 0.000602253
 -0.00214372
  0.00490937
  0.00113721
  0.00456927
 -0.00313671
 -0.00392463
  0.00279982
 -0.00257669
 4.74761e-05
 -0.00367399
 -0.00295565
  0.00263263
 -0.00339542
-9.64532e-05
 0.000419625
-0.000976924
 -0.00495646
 0.000316513
   0.0017962
  0.00142339
 -0.00314066
  0.00460443
 -0.00305087
  0.00161708
 -0.00421829
 -0.00326296
 -0.00109002
  0.00359811
  0.00388929
  0.00140081
-0.000803528
 -0.00325832
  0.00130629
 -0.00467021
 -0.00369294
  0.00316569
 -0.00359873
  0.00410298
  -0.0044149
  0.00144485
 -0.00457491
 -0.00237445
-0.000926423
 -0.00297422
   0.0025252
  0.00448931
  0.00104496
  0.00256484
-0.000198076
 -0.00216274
 -0.00101567
  0.00165737
 -0.00256221
 0.000929572
 -0.00172945
 -0.00178439
  0.00266272
  0.00217663
 -0.00319017
  0.00154811
 -0.00142646
   0.0010024
  0.00328589
  0.00487593
   0.0013283
  0.00458906
  0.00303772
  0.00272567
  0.00368814
  0.00361893
-0.000833378
  0.00410934
 -0.00375942
   0.0032363
 -0.00386878
  0.00376189
  0.00272172
  0.00217228
  0.00132284
 -0.00248026
 -0.00499435
 -0.00469672
  0.00417321
 -0.00256046
  0.00122895
 -0.00256014
 0.000651258
 -0.00111222
   0.0046126
  0.00245719
 -0.00456801
 -0.00181776
  -0.0015443
  0.00371399
 -0.00194572
   0.0047801
  0.00329915
 -0.00391189
  0.00250188
   0.0019834
  0.00470314
  -0.0033354
  0.00108884
 -0.00406017
  0.00489701
  0.00221616
  0.00469783
  0.00261483
-0.000615452
  0.00101677
 -0.00486932
-0.000613699
  0.00131615
      0.0043
  0.00182195
 -0.00245879
 -0.00326404
 -0.00253069
  0.00142509
 -0.00365534
  0.00492261
  0.00185319
-0.000476987
 -0.00162559
 0.000563287
   0.0025734
 -0.00184939
 -0.00114146
  0.00365761
 -0.00435141
 -0.00416196
  0.00335686
  -0.0026907
  0.00192298
   0.0042928
 -0.00279759
-0.000864754
  0.00398673
  0.00481335
   0.0035159
-3.96393e-07
  0.00494013
  -0.0021017
 -0.00368814
  0.00423623
  0.00471636
 -0.00115082
  -0.0040317
 -0.00281823
 -0.00472962
 -0.00269093
 -0.00289952
  0.00211967
  0.00182818
 0.000470996
 -0.00232093
-0.000602312
  0.00361771
  0.00153371
  -0.0019486
  0.00426241
  0.00236786
 -0.00359563
 -0.00343219
-0.000713054
 -0.00430673
 -0.00123367
   0.0034183
   0.0046761
 -0.00142422
   0.0019303
-0.000328192
 -0.00148798
  0.00482471
 0.000979775
 -0.00225565
  0.00453717
  0.00482506
 -0.00129125
 -0.00328495
 -0.00490846
  0.00101392
 -0.00118836
  0.00220732
 -0.00216179
  0.00427874
  0.00488249
    0.002232
  0.00289255
  0.00141231
 -0.00472049
  0.00215107
 -0.00122372
 -0.00332001
  0.00371499
  0.00305933
 -0.00263064
 -0.00252258
  0.00147373
 -0.00295844
  0.00104931
 -0.00159987
  0.00170947
  0.00455743
 -0.00177906
 -0.00231465
 -0.00270211
 -0.00224579
 -0.00249348
  0.00100274
-0.000534635
 -0.00240583
 -0.00298723
  0.00327311
  0.00479759
-0.000152914
  0.00254795
  0.00467619
 -0.00292481
 0.000436604
  0.00108461
 -0.00264919
 -0.00241622
  0.00485699
  -0.0009731
 -0.00370513
  0.00291242
  0.00139236
 -0.00123161
-0.000617751
  0.00343003
  0.00481381
  0.00277848
 0.000135607
  0.00436734
 -0.00400447
  0.00281707
 -0.00333867
 -0.00125415
 -0.00468031
  0.00266018
  0.00320732
 -0.00209004
  0.00466906
  0.00147653
 -0.00229634
-0.000487754
-0.000979424
 -0.00262405
  0.00158354
  0.00445328
  0.00345666
  0.00393046
 -0.00296683
  0.00330976
 -0.00204654
 -0.00167586
  0.00121828
  0.00434193
  0.00208864
 -0.00440337
  0.00276806
  0.00189855
  0.00337122
 -0.00210023
    0.001262
  0.00436285
 -0.00428706
  0.00291944
  -0.0018952
 -0.00397126
 0.000575724
 -0.00369178
  -0.0010652
 0.000240884
  0.00278085
  0.00163456
  0.00474923
 -0.00320247
  0.00400662
  0.00132888
 -0.00375308
  0.00245939
 0.000255445
 -0.00172381
 0.000765246
  0.00320501
  0.00159644
 -0.00302037
  0.00254304
 -0.00131882
 -0.00242764
  0.00030721
 -0.00442416
 -0.00406032
  0.00320309
  0.00183394
 -0.00470136
  0.00391214
-0.000250518
 -0.00160046
  0.00493698
 -0.00467869
-0.000296128
 -0.00113212
   0.0005583
 -0.00251917
 -0.00450145
 0.000303639
-0.000725533
  0.00450127
 -0.00337137
 0.000517493
  0.00195676
  0.00188018
  0.00378979
 -0.00228189
 8.12909e-05
 0.000382331
-0.000306159
 -0.00237956
  0.00405961
  0.00226231
  0.00292375
  0.00463155
   0.0031981
  0.00112295
   0.0014616
  0.00349284
 3.11849e-05
 -0.00379282
 -0.00311151
-3.57351e-05
  -0.0034754
  0.00158846
  0.00382825
    0.002079
   0.0040654
   0.0043229
 -0.00262125
 -0.00166403
  0.00382027
-0.000996522
  0.00384957
 0.000773134
 -0.00412024
  0.00263546
  0.00348735
 0.000957153
  -0.0019861
 -0.00182271
   0.0035737
 -0.00293039
 -0.00456429
  0.00149355
 -0.00330273
  0.00362991
  -0.0023874
  0.00315498
  0.00211885
  0.00263989
  0.00435826
  0.00400344
 -0.00239974
 -0.00412103
  0.00058801
 -0.00357538
  0.00295408
-0.000350488
 -0.00425638
 -0.00467107
  0.00298159
  0.00455999
-0.000671488
  0.00182726
 0.000329233
 0.000204374
-0.000541178
 -0.00118732
 -0.00384237
  0.00246882
  0.00198608
  0.00472743
  0.00453454
  0.00241789
  0.00121709
 -0.00377208
   0.0010439
   0.0038258
    0.004379
 -0.00184115
   0.0014618
  0.00373337
  -0.0028416
  0.00405816
  0.00460844
  0.00274251
 -0.00452111
  0.00255862
 -0.00261187
 -0.00378139
  0.00288366
 -0.00463418
 -0.00422529
 -0.00279173
  0.00218918
  0.00110004
  0.00240875
 -0.00335589
  0.00490883
  0.00356249
  0.00410903
  0.00189102
  0.00328602
  0.00363968
-0.000694985
-0.000500783
   0.0048637
 -0.00465498
 -0.00167888
  0.00423881
 -0.00150002
  0.00477902
  0.00296828
 0.000654481
  0.00383329
  0.00257282
  -0.0016069
  0.00430828
  0.00012755
 0.000777332
 -0.00447701
 -0.00199269
  0.00113926
 -0.00370619
 0.000211687
 -0.00167546
  0.00238995
 -0.00238346
 -3.5248e-05
  0.00229489
 -0.00382487
 -0.00093011
-0.000817984
  0.00445726
 -0.00229433
  0.00348313
 -0.00104742
 -0.00243452
  0.00382426
  0.00226981
 -0.00319961
 -0.00267966
  0.00204493
  0.00476478
  0.00297093
 0.000874329
   0.0023337
 -0.00363987
 0.000178714
 -0.00254264
  0.00213357
 0.000697812
 0.000460773
 -0.00173107
  0.00198772
 -0.00433144
  0.00158957
-0.000626218
 -0.00171879
 -0.00344957
 -0.00333522
-0.000547552
 0.000616422
 0.000842898
 -0.00109419
   0.0033182
-0.000677863
   0.0028545
 -0.00412021
  -0.0018575
 0.000120407
 -0.00232372
 0.000458946
 -0.00283856
 -0.00256284
 -0.00157402
  0.00303188
  0.00476697
 -0.00021779
  -0.0017933
 -0.00277957
 -0.00308812
  0.00390061
  0.00267731
  0.00017691
 0.000884441
  0.00334198
 -0.00323741
 -0.00474567
 -0.00338071
 -0.00169088
 -0.00308479
  0.00106785
  0.00392164
  0.00275421
  0.00496976
  0.00223595
 -0.00292755
  0.00282036
  0.00311184
 0.000211057
 -0.00206312
 -0.00421578
 -0.00433389
 9.44244e-05
 -0.00178251
-0.000911811
 -0.00187759
 -0.00201943
   0.0038665
  0.00132521
 0.000197103
 -0.00422551
 0.000221926
 -0.00212948
 0.000947502
 -0.00389753
  -0.0037914
  0.00270619
  -0.0036471
   -0.002176
 -0.00398859
 -0.00173579
  0.00388795
  0.00492916
 -0.00398547
  0.00385382
  0.00216121
 -0.00191691
  0.00167028
 0.000269154
  0.00329025
  0.00460326
  0.00104948
  0.00395246
-0.000306208
  0.00426308
 -0.00196325
   0.0028123
 -0.00276025
 -0.00310064
-0.000866384
  0.00243296
 -0.00233005
  0.00435165
 -0.00470042
  0.00361356
 -0.00454978
 -0.00349572
  0.00131585
 -0.00320077
-0.000675615
  0.00232337
 5.95454e-05
 -0.00179156
  0.00224864
  0.00107018
 -0.00294164
-0.000594048
  0.00414937
  0.00372475
  0.00467121
  0.00243572
  0.00332412
 0.000716798
  0.00138429
 -0.00198599
-2.40181e-05
  0.00441714
 -0.00417758
  0.00221184
 -0.00368739
  -4.786e-05
-0.000359102
 -0.00102134
 -0.00070011
-6.34194e-05
 -0.00241168
-0.000253785
  0.00143697
  0.00390028
  0.00154155
 -0.00424254
  0.00121976
  -0.0034028
   -0.001038
  -0.0015355
  0.00266348
  0.00101646
  0.00286655
  0.00180895
-0.000262684
  0.00253387
 -0.00075922
 -0.00194246
 -0.00175323
 -0.00437883
  0.00106765
  0.00321886
 -0.00496558
  0.00188618
 0.000426798
 -0.00365687
 -0.00316558
  -0.0049362
 0.000317896
  0.00113042
-3.51476e-06
  0.00290232
 -0.00412726
 -0.00357044
  0.00179871
  0.00241039
 -0.00281688
 -0.00198543
  0.00400369
  0.00114122
  0.00147518
  0.00166327
 -0.00284621
-0.000662167
 -0.00153167
  0.00188721
 -0.00313219
  0.00270521
  0.00494085
 0.000110682
  0.00332249
  0.00100461
 -0.00167436
  0.00335301
 -0.00211311
  0.00374855
  0.00469224
-0.000282583
  0.00380845
 6.24321e-06
 -0.00415606
 -0.00119896
 -0.00209533
 -0.00328722
 0.000226703
  0.00469949
  0.00411927
  0.00240593
 -0.00228983
  0.00311906
 -0.00145675
  0.00418145
-0.000221567
 0.000693152
 -0.00148462
  0.00324287
 -0.00242353
 0.000379294
 0.000944187
 -0.00248657
 -0.00451392
 -0.00073722
  0.00351414
 -0.00119217
  -0.0023881
 -0.00360286
 -0.00244752
 -0.00269976
  0.00111066
 -0.00364297
  0.00230259
   0.0019507
  0.00015418
 -0.00479663
  0.00365958
 -0.00462301
  0.00489896
  0.00277495
  0.00277902
 -0.00239477
 0.000890114
 -0.00368162
 -0.00321722
 -0.00433535
  0.00200763
 0.000294269
  0.00390362
  0.00458021
 -0.00433033
-0.000156085
 -0.00291026
 -0.00384815
   0.0041028
 -0.00440001
-4.42154e-05
  -0.0032892
 -0.00300677
  0.00250437
-0.000992853
      0.0031
  0.00385751
 -0.00369416
 4.68031e-05
-0.000992208
 -0.00349469
 -0.00129751
-0.000619117
 -0.00359962
 -0.00352645
   -0.002844
-0.000998286
  0.00235976
 -0.00152951
   0.0007806
  0.00302052
 -0.00452578
 -0.00392903
  0.00192025
 -0.00494946
 -0.00326325
 -0.00323973
 -0.00286362
  -0.0021153
 -0.00414083
 -0.00226752
  0.00283659
 -0.00243392
-0.000278186
 0.000337063
  0.00156933
 -0.00218208
-0.000809325
  0.00287127
  0.00286082
  0.00319457
  0.00437269
 -0.00344058
 -0.00242844
 -0.00423083
 -0.00197093
-0.000276332
-0.000233007
 -0.00461507
  0.00319026
  -0.0044563
  0.00340156
  0.00366059
 -0.00338923
 0.000317913
  0.00370723
 -0.00165638
  0.00207429
 -0.00416029
  0.00122443
  0.00292956
  -0.0014317
-0.000942876
 -0.00450825
  0.00328621
  0.00439029
  0.00205718
 -0.00389977
 -0.00142293
-7.54432e-05
  0.00395716
 -0.00323225
-0.000706647
 -0.00448732
-0.000664591
 5.86324e-05
 -0.00146214
  0.00405518
  0.00482173
 -0.00108111
  0.00224154
 -0.00463847
 -0.00268344
 0.000898234
 -0.00303159
  0.00263058
-0.000398435
 0.000308136
-0.000299034
 0.000437384
 -0.00347133
 -0.00237337
  0.00400178
 0.000581899
 -0.00188552
   0.0022841
-3.17053e-05
 -0.00483223
  0.00338044
  0.00354147
 8.84271e-05
  0.00233371
 -0.00469468
  0.00437788
   0.0028425
-0.000363166
-0.000567378
 -0.00362354
 -0.00131188
-0.000749545
 0.000291454
 -0.00407423
 -0.00039191
  0.00260412
   0.0018201
   0.0015726
 0.000230797
 -0.00358223
 -0.00312316
  0.00492787
  0.00185126
 -0.00159838
 -0.00244939
  0.00084915
  0.00397962
 0.000661193
 -0.00187064
 -0.00105598
 0.000825064
  -0.0034941
 -0.00251841
  -0.0040904
  0.00383571
 -0.00221698
 -0.00471642
  0.00167431
  0.00241596
-0.000287689
  0.00304687
 -0.00389982
  0.00395887
 -0.00166557
 -0.00297795
 -0.00143694
 -0.00406535
  0.00383826
 -0.00486823
  0.00116155
 -0.00474786
 -0.00299528
  0.00108552
  0.00209951
 0.000402442
  0.00363223
 -0.00205524
-0.000621833
-0.000710468
  0.00107022
  0.00331829
  -0.0048893
  0.00257223
 -0.00420401
  -0.0039836
  0.00140404
 -0.00142489
 -0.00370391
 -0.00192554
 -0.00401282
   0.0010045
 -0.00388256
 -0.00291654
-4.05208e-05
-0.000552027
-0.000898381
  0.00351865
  0.00037873
 -0.00206402
  0.00364652
 -0.00346361
 -0.00181577
 -0.00435265
  0.00261802
 -0.00472016
  0.00104589
  0.00124636
 -0.00177929
 -0.00457983
 -0.00446801
  0.00428703
  0.00373456
  -0.0043612
  0.00185536
  0.00452666
  -0.0033487
 -0.00174449
 -0.00190213
  -0.0020565
  0.00132608
-0.000918846
   0.0039441
  0.00243962
  0.00116072
 -0.00110031
  -0.0031163
 -0.00474156
 -0.00258556
  0.00225853
 -0.00180947
 -0.00394293
  0.00379102
  0.00137087
 -0.00329948
  0.00140515
  0.00164681
  0.00274252
 -0.00235239
  0.00486362
  0.00315879
  -0.0018243
  0.00414676
  0.00188945
  -0.0011894
 0.000998231
  0.00141222
 0.000458011
  0.00424985
  0.00450619
  0.00339761
 0.000572031
 -0.00141655
  0.00233782
 -0.00199224
  0.00474028
 -0.00376639
-0.000112442
  0.00499482
 -0.00135584
  -0.0028578
 -0.00181854
-0.000302668
 -0.00407068
  0.00454843
  0.00139396
  0.00233057
  0.00119135
-0.000867418
  0.00497428
  0.00105108
 -0.00271252
 -0.00185391
 0.000193944
  0.00417304
   0.0019528
 -0.00381172
 0.000581355
 -0.00259308
 -0.00456577
 8.36526e-05
 -0.00419937
  0.00100237
  0.00366321
  0.00313456
  0.00400623
  0.00339959
  0.00436427
 -0.00111011
  0.00339052
 -0.00199546
  0.00102819
 -0.00343192
  0.00269797
  0.00195362
 -0.00388738
-0.000911964
-0.000719704
  0.00230008
  0.00321672
-0.000749316
 -0.00165274
  -0.0044997
  0.00239288
  0.00353731
  0.00466944
-0.000658217
  0.00472169
 0.000246902
   0.0017448
 -0.00484797
 -0.00467334
  0.00254154
   0.0011505
  0.00398597
 0.000672198
 0.000152829
  0.00238167
 3.25765e-05
  0.00403882
  0.00076829
  0.00303322
 6.31168e-05
  0.00233248
 0.000727296
 -0.00298716
  0.00344121
  0.00481144
  0.00128924
 0.000737385
  0.00302426
 -0.00446397
  0.00408075
  0.00352067
  0.00292501
  0.00261416
  0.00318622
  -0.0027371
  0.00233195
 -0.00157077
  0.00400381
  0.00248008
 -0.00124801
  0.00154145
 -0.00137332
 -0.00226593
 -0.00279025
  0.00377561
 -0.00488816
  0.00223843
  0.00281054
 0.000876232
 0.000267753
 -0.00213024
 -0.00179518
 -0.00400885
-0.000121294
 -0.00335787
 -0.00420131
 -0.00383595
  0.00237562
  0.00381906
 -0.00330382
  0.00145247
  0.00233584
   0.0046173
-0.000937273
  0.00051816
  -0.0031237
 -0.00360922
  0.00394349
 -0.00412379
  0.00386697
 -0.00230842
  0.00241376
 -0.00251025
 0.000421753
  0.00461962
 -0.00373853
 0.000529695
  0.00185415
  0.00406812
 -0.00359797
 -0.00288199
 -0.00306602
-0.000397048
 -0.00189473
  0.00180879
  0.00124118
 -0.00109993
  0.00296895
  -0.0013871
 -0.00228477
  0.00466123
 -0.00493853
 -0.00495283
  0.00427463
-0.000879696
 0.000561438
 -0.00385296
  0.00050719
-0.000498968
 -0.00298065
 -0.00062974
  0.00218872
  0.00442922
  0.00185612
 -0.00239342
  0.00404494
  0.00311369
  0.00313238
 0.000895196
  0.00217791
  0.00453051
  0.00300931
  0.00410799
-0.000870431
 -0.00388932
 0.000912891
 -0.00463315
  6.8516e-06
 -0.00112206
 -0.00102414
  0.00271819
 -0.00146472
-0.000966563
  0.00276147
 -0.00219398
  0.00314985
 -0.00168099
 -0.00105084
 -0.00134686
  0.00281614
 0.000964615
   0.0030195
 9.67935e-07
 0.000389938
-0.000128276
  0.00260365
-0.000569019
 -0.00201848
 0.000732131
 -0.00467772
 -0.00484447
 0.000258748
   0.0033277
  0.00425963
  0.00438442
  0.00443448
 0.000168626
  0.00474738
-0.000562562
  0.00404267
 -0.00128066
 -0.00284827
 -0.00242595
  0.00274889
   0.0049093
 0.000376174
 0.000894835
 -0.00177559
  0.00432144
  0.00454408
 -0.00396334
 0.000282156
  0.00255969
  0.00103373
  -0.0043318
 -0.00257248
 -0.00136651
 9.52835e-05
 0.000405139
  0.00436172
  0.00041367
 0.000556774
-0.000383426
 -0.00126253
-0.000187492
  -0.0010029
 -0.00183194
  0.00497724
 -0.00125942
   0.0026016
  0.00401601
  0.00245603
  0.00474943
 -0.00341383
 0.000201023
  0.00465484
  0.00195845
 -0.00390804
 -0.00212465
  0.00127599
 -0.00436785
 -0.00109188
 -0.00344575
  0.00318794
  0.00493796
 -0.00278144
 -0.00438844
 -0.00143245
  0.00230994
   0.0010128
 -0.00207463
 -0.00228028
 -0.00343432
  0.00253805
  0.00145329
   0.0013743
 -0.00346875
  0.00461745
  0.00134764
 0.000267943
  0.00221516
 0.000359757
 -0.00227992
  0.00196069
  0.00194203
  0.00291721
  0.00161164
 -0.00110341
  0.00400527
   0.0044831
 -0.00483131
  0.00463352
 -0.00161268
 -0.00328095
  0.00281757
 -0.00167862
 -0.00106629
  0.00342523
  0.00188503
 -0.00376025
-0.000565859
  0.00480651
 -0.00104443
 0.000995928
  0.00234066
 -0.00459503
 -0.00263367
  0.00386802
 -0.00498147
  0.00371007
-0.000867932
  0.00222979
-0.000934069
  0.00184825
-0.000813412
 -0.00399593
-0.000238437
 -0.00420567
-0.000103234
 -0.00123706
 -0.00472647
 6.15595e-05
 -0.00160743
 -0.00134305
  0.00177671
 -0.00379376
  0.00197444
 -0.00429348
  0.00462758
 -0.00114443
 -0.00305762
-0.000942173
 -0.00134182
 0.000894056
 -0.00495014
 -0.00400505
  0.00129513
 -0.00258771
  0.00485907
  0.00130976
 -0.00388154
 -0.00101275
 -0.00146434
 0.000180501
  -0.0041684
  0.00271835
  0.00118068
 0.000589268
  0.00350878
 -0.00392645
  0.00434831
  0.00377842
  0.00113121
 -0.00226301
 -0.00256853
 -0.00209598
 -0.00106066
  0.00440201
 -0.00139335
 -0.00143698
 -0.00174631
 0.000545132
  0.00261695
  0.00190798
 -0.00356471
  0.00266292
  0.00289903
  0.00272653
 -0.00492869
  0.00275421
-0.000967605
 -0.00381412
 -0.00326244
  0.00256415
  0.00136248
 -0.00243474
 0.000278606
 -0.00246073
  0.00315064
 -0.00121651
 -0.00139108
  0.00249505
 -0.00244199
  0.00473623
 -0.00477185
-1.44122e-05
 -0.00236364
-0.000836413
-0.000616293
  0.00123911
  0.00272271
   0.0026335
 -0.00321965
 0.000335769
-0.000462418
 -0.00178825
 -0.00200521
 -0.00256728
 -0.00406562
  -0.0019378
 -0.00481697
 -3.7123e-05
-0.000755812
 -0.00308331
 -0.00247686
 -0.00439722
-0.000521946
  0.00279785
 -0.00186185
 -0.00237521
 -0.00342256
  0.00174317
 -0.00488405
-0.000868444
   0.0014755
  -0.0046598
  0.00411325
  0.00410797
-0.000500108
 -0.00150694
 0.000343184
 -0.00278129
 -0.00387734
  0.00211964
  0.00255058
 0.000656351
 -0.00467251
 -0.00445853
  0.00308517
 -0.00374203
 -0.00140022
   0.0032643
  0.00121695
  0.00284008
 -0.00482291
  0.00373619
  0.00343896
-0.000348749
  0.00153014
 -0.00342679
  0.00227215
  0.00310369
  0.00331248
   0.0023842
 -0.00276865
-0.000215915
  0.00272051
  -0.0036593
 -0.00111184
 -0.00278349
-0.000170136
  0.00422744
-0.000568682
 0.000948633
  0.00134319
   -0.003022
 -0.00339891
  0.00166678
 -0.00248442
  0.00468236
  0.00292086
  0.00111147
  0.00294277
-0.000866085
 -0.00105235
  0.00311596
 -0.00213379
 -0.00261729
 -0.00223668
  0.00439246
 -0.00104798
 -0.00496843
  0.00249225
 -0.00273939
  0.00241188
  0.00471971
   0.0020408
 0.000128493
 -0.00394349
 -0.00407494
   0.0023411
  0.00088248
 -0.00485139
 -0.00323147
 -0.00317278
   0.0014879
 -0.00125737
 -0.00157559
 -0.00184922
  0.00125432
 -0.00189712
 -0.00393226
  -0.0026381
 -0.00395825
 0.000197764
  0.00130565
  0.00415382
  0.00306008
  0.00368447
 -0.00308676
  0.00244865
  -0.0023674
 -0.00305908
-6.29975e-05
-0.000110689
   0.0043489
-0.000347187
 -0.00307379
  -0.0005265
 0.000705428
 -0.00215263
 -0.00318929
 -0.00341599
 -0.00200792
 -0.00142466
 -0.00159267
  0.00447609
  0.00231408
  0.00182785
 -0.00237703
  -0.0014355
  0.00492683
 -0.00131318
 0.000922506
 -0.00403532
  0.00388069
 -0.00277574
 -0.00488539
  0.00193688
 -0.00409516
 -0.00297605
-0.000618375
 -0.00146646
 -0.00103902
  0.00431473
  0.00341896
 -0.00169402
 -0.00103635
 -0.00465873
  0.00277559
  0.00466518
 -0.00181525
   0.0045824
  -0.0037547
  0.00117294
 -0.00184616
-0.000351261
 0.000645128
 -0.00453598
 -0.00352731
  0.00326421
-0.000975369
 -0.00360437
 -0.00305287
  0.00494324
 -0.00264358
 -0.00417607
 -0.00283639
 -0.00253287
  0.00275691
 -0.00193545
-0.000512814
 -0.00286536
   0.0015942
  0.00344427
 -0.00355453
  9.2641e-06
 -0.00325364
 0.000405226
 0.000346642
  0.00451805
  6.6513e-05
   0.0035275
  0.00409656
  0.00130792
-0.000303459
  -0.0027535
 -0.00404724
 -0.00466223
 -0.00229337
 -0.00257844
  0.00359808
  0.00172737
 -0.00118671
 -0.00445868
  0.00166671
  0.00116581
 -0.00363865
  0.00382643
  0.00362904
  0.00411436
 -0.00311292
 -0.00188767
  -0.0037549
  0.00347739
  -0.0034473
 -0.00231332
 -0.00151724
 -0.00170484
  0.00308801
  0.00382551
 -0.00219068
 -0.00184937
  0.00234911
 -0.00309802
  0.00445465
 -0.00295825
-0.000855414
 -0.00459649
 -0.00262437
  0.00184732
 -0.00217883
 -0.00403018
 -0.00142921
  0.00163056
 -0.00349276
 -0.00476639
 -0.00220752
  -0.0021353
  0.00405614
 -0.00358238
 -0.00302484
 -0.00406067
-0.000473946
 -0.00178363
  0.00441282
  0.00107486
 0.000899147
 -0.00210831
  0.00436613
 -0.00101674
  -0.0032867
 -0.00282845
  0.00212999
  0.00405851
-0.000930368
  0.00158074
 -0.00390363
  0.00321032
  0.00198036
  -0.0015319
 5.37474e-05
  0.00479443
-0.000634445
  0.00363457
    0.001424
 0.000975114
   0.0036327
   0.0042291
  0.00380664
  0.00291259
 -0.00441471
 -0.00421884
  0.00384449
 0.000146173
 -0.00102219
  0.00324221
  -0.0037825
  0.00488171
 -0.00387238
 -0.00430321
 -0.00114572
 -0.00215778
 -0.00225702
 -0.00401698
  -0.0031052
  0.00182371
  0.00272492
 -0.00201081
 2.08124e-05
-0.000457664
  0.00145823
 -0.00493121
 -0.00067335
  -0.0041073
  0.00368686
 -0.00425411
  0.00181699
  0.00253872
  0.00495593
  0.00066268
 0.000433692
  -0.0044211
  0.00137056
-0.000736523
 0.000725617
 -0.00464349
 -0.00249128
  0.00190414
 -0.00479356
  -0.0013605
  0.00243838
-0.000913006
  0.00148387
  -0.0047364
 5.68239e-05
  0.00340077
  0.00207412
  -0.0023843
 -0.00363569
 -0.00290114
  0.00208985
  0.00281333
 -0.00284089
 -0.00361469
  0.00368949
 -0.00414959
 -0.00278359
  0.00050825
  0.00337554
 -0.00282043
 -0.00387805
 -0.00119599
 -0.00224151
  0.00250014
  0.00307025
  0.00347697
  0.00286016
 -0.00442332
  0.00041379
  0.00307232
-0.000785568
 -0.00215669
 -0.00288161
 -0.00431088
 -0.00180083
  0.00221941
  0.00406495
 -0.00474125
  0.00482323
 -0.00457636
 -0.00264183
  0.00207825
  0.00323548
-0.000481924
  0.00341119
  0.00192932
 0.000360279
 -0.00433275
 -0.00256325
 -0.00126666
 -0.00217474
 -0.00144408
  0.00260762
 0.000589628
 -0.00394283
 0.000608595
-0.000946009
  0.00389401
  0.00118248
  0.00446242
  0.00193438
 -0.00459827
 -0.00260998
  0.00412612
 -0.00383047
 0.000688535
  0.00132555
 -0.00485296
 0.000845815
  0.00117003
 -0.00442724
  0.00320734
 -0.00188383
  0.00381685
 -0.00230066
 -0.00344379
 0.000742221
  0.00307645
 -0.00279189
  0.00316796
 -0.00327012
 4.03589e-05
 -0.00327345
  0.00435201
 -0.00438621
 -0.00222409
-4.28048e-05
-0.000348834
 -0.00333061
 -0.00385947
-0.000872626
  0.00364075
  -0.0034661
  0.00151204
   0.0027047
 -0.00238516
 -0.00290165
-0.000918888
 -0.00223435
   0.0029408
 -0.00477176
  -0.0016595
  0.00114095
 -0.00166358
 -0.00285627
  0.00386255
-0.000114138
  0.00288482
  0.00192333
  0.00209652
  0.00105708
  0.00374066
 -0.00286447
   0.0027864
  0.00310628
 -0.00225562
 -0.00444746
 -0.00195402
  0.00240443
 -0.00277573
-0.000816555
 -0.00346661
 -0.00414449
 0.000781796
  0.00304253
  0.00360961
  0.00333124
 -0.00486077
 -0.00231794
 -0.00390423
  0.00307883
 -0.00209632
-0.000567792
-0.000780835
  0.00123906
  0.00157563
 -0.00192441
 -0.00387387
-0.000545572
 -0.00499266
  0.00321999
 -0.00449458
  0.00374851
 -0.00465197
  0.00328331
  0.00183761
 -0.00191217
  0.00383566
   0.0048814
 -0.00451013
 -0.00394413
-0.000938309
 -0.00298388
 -0.00309059
  0.00477296
 -0.00494336
 -0.00448725
   0.0031003
 -0.00480803
 -0.00180909
  0.00419218
   0.0032669
   0.0010907
 -0.00137951
 -0.00251783
 -0.00267414
 -0.00480777
 0.000553866
  -0.0015519
-0.000357239
 0.000557314
  -0.0033358
 0.000144284
-0.000698075
 -0.00299167
  -0.0015763
 -0.00386436
 9.22706e-05
 -0.00274453
 -0.00398685
 0.000578247
 -0.00169256
  7.0941e-05
  0.00259047
 0.000212957
-0.000159995
  0.00264321
 0.000721808
 -0.00206359
  0.00283128
  0.00390883
 -0.00287531
  0.00109429
-4.36987e-06
 0.000741289
  0.00357257
   0.0023176
 0.000929622
 -0.00087746
  -0.0042382
 -0.00443151
  0.00467596
 -0.00257789
 0.000708876
 -0.00102601
-0.000573456
  0.00412868
 0.000105729
  0.00451492
 -0.00361975
  0.00111498
 8.92703e-05
  -0.0003162
 -0.00381798
 -0.00232416
  0.00489286
  0.00101813
 -0.00468484
 0.000610773
  0.00395065
  0.00314254
-0.000484297
 -0.00392855
 -0.00076706
  0.00450744
  0.00180884
 -0.00219839
  0.00182114
 -0.00226543
  0.00192026
  0.00257905
 -0.00170084
  0.00159232
  0.00499726
  0.00400414
 -0.00443759
-0.000580092
  0.00312893
 0.000664249
 -0.00106907
  0.00450528
 -0.00322467
  0.00401631
-0.000814812
 -0.00204654
 -0.00331175
-0.000925847
   0.0039677
 -0.00300049
  0.00468103
  0.00291446
 -0.00486184
-0.000807163
  0.00398201
-0.000632795
 -0.00130362
 0.000786957
  0.00216492
 -0.00448638
  0.00351763
-0.000918712
  0.00308878
 -0.00318711
 -0.00433029
  0.00308214
 -0.00418686
 -0.00377177
 -0.00250185
  0.00393817
  0.00188859
  0.00142519
  0.00343956
  0.00366002
 0.000437601
 -0.00237915
 -0.00339041
  0.00212196
  0.00169111
  -0.0044266
  0.00411757
  0.00136824
  0.00348396
  0.00425184
 -0.00444282
  0.00246207
 -0.00138485
-0.000750333
 -0.00175487
 -0.00422382
-0.000240605
 -0.00324114
-0.000146431
 -0.00215572
 -0.00143214
 0.000519388
 -0.00407748
-0.000622892
  0.00174373
 -0.00158322
 -0.00168862
 -0.00137158
  0.00484235
 -0.00325572
 -0.00271519
   0.0002719
-0.000647489
 -0.00111446
 -0.00261902
 -0.00394829
-0.000540534
 -0.00349875
  0.00241287
 -0.00206006
 -0.00424517
  0.00297303
 -0.00460136
-0.000635005
 -0.00278869
 -0.00135472
 0.000137303
  0.00197298
 0.000396563
  0.00498479
  0.00481025
  0.00395227
 0.000498456
 -0.00426819
  -0.0016672
 -0.00275922
-0.000857859
   0.0016388
 0.000868119
 -0.00101997
  0.00338204
  0.00314709
  0.00424427
 -0.00225524
 -0.00296342
 -0.00320853
 -0.00120942
  0.00148144
 -0.00186671
 -0.00379383
  0.00442817
 -0.00112206
  0.00416555
  0.00481976
  0.00323478
  -0.0036238
 -0.00154621
 -0.00151542
  0.00334353
  0.00384506
 -0.00164855
  0.00315445
  0.00272708
  0.00384854
  0.00387602
 -0.00387494
 -0.00393043
 -0.00198765
  0.00276207
  0.00194385
  0.00204051
  0.00114428
 8.32549e-05
  0.00122943
  0.00388026
  0.00211375
  0.00285188
 -0.00234319
 -0.00140601
 -0.00402225
 -0.00114056
 -0.00198515
-0.000155179
 -0.00197916
 -0.00217101
 -0.00191574
-0.000602061
  0.00127765
  0.00144974
 -0.00226843
 0.000117818
  0.00479029
 -0.00412202
 -0.00209145
  0.00363672
  0.00475161
-0.000968374
  0.00470837
  -0.0022388
 -0.00321179
   0.0016442
  0.00473999
  0.00292109
 -0.00327451
 0.000960787
  0.00179414
  0.00383217
 -0.00119236
  0.00444886
 -0.00258625
-0.000236338
 -0.00169843
 0.000428111
  0.00462989
  0.00132274
  0.00325199
  -0.0022883
 -0.00429312
-0.000480286
  0.00415385
 -0.00156306
   0.0046303
  0.00393788
-0.000503024
 -0.00246345
  0.00256549
 -0.00094116
  0.00156003
  0.00226551
  0.00181281
  0.00333568
 -0.00108917
  0.00154728
   0.0012498
 0.000625913
 -0.00249276
 -0.00196172
-0.000553784
  0.00130915
 -0.00251813
  0.00185103
 -0.00391173
 0.000778682
 -0.00271743
 -0.00428912
 -0.00290739
  -0.0043541
 -0.00158239
 -0.00220667
 4.18315e-05
 -0.00243422
  0.00121945
  -0.0003289
 -0.00355503
 -0.00446457
  0.00219764
  0.00405393
-0.000410799
 -0.00126448
  0.00131576
 -0.00360108
  -0.0029174
 -0.00479005
  0.00293907
  0.00332354
 0.000838055
 -0.00456054
 -0.00364404
 -0.00472217
  0.00174194
 -0.00116717
  0.00212878
  0.00256409
  0.00460521
  0.00440819
  0.00353505
 -0.00331859
  0.00492849
  -0.0030588
-0.000520235
-3.20488e-05
 -0.00049641
 -0.00441176
  0.00473758
 0.000442893
 -0.00461339
  0.00195384
 0.000168568
 0.000413349
 -0.00584827
 -0.00424815
 -0.00193344
 -0.00283067
 -0.00394612
-0.000197846
 -0.00396031
  0.00230201
 0.000567715
 -0.00279573
 0.000199898
 -0.00230907
  0.00204364
-0.000237893
 -0.00482908
  0.00139549
 -0.00108401
   0.0033987
  0.00185376
 -0.00171582
 -0.00448122
 -0.00335241
  0.00366964
-5.19578e-05
 -0.00229863
  0.00378527
 -0.00504515
 -0.00123814
 0.000598146
  0.00104569
  0.00426088
  0.00948388
   0.0015155
  0.00197225
  0.00380553
  0.00440938
  -0.0028539
  0.00453065
  0.00123084
  0.00255401
 -0.00358073
 -0.00196911
  0.00478172
   0.0139967
  0.00389037
  0.00499432
 -0.00111416
 -0.00180078
 -0.00149533
 -0.00376289
  0.00200476
  0.00413654
  -0.0035379
  0.00117747
-0.000801251
 0.000638787
  0.00561671
 0.000835976
  0.00418635
 -0.00447073
 -0.00323625
   0.0042108
  0.00105024
  0.00422559
  0.00093227
-0.000133833
   0.0027966
  0.00286846
  0.00166945
 -0.00104872
  0.00045065
  0.00152849
  0.00357463
 0.000280666
  0.00501839
  0.00196236
 0.000436674
  0.00314613
 -0.00501584
 -0.00123422
   0.0049905
  0.00214457
 -0.00203096
 -0.00239406
 -0.00229804
  0.00239644
  0.00308352
   0.0031857
 -0.00209027
  0.00279907
  0.00312605
-0.000510902
  0.00196873
-0.000599073
  -0.0015179
  -0.0058081
  0.00243455
 -0.00374222
 -0.00455224
-0.000670559
 0.000963026
 0.000737223
 -0.00395604
  -0.0011854
 -0.00417659
  0.00055797
 -0.00372335
  0.00114577
  -0.0019535
   0.0119539
 -0.00470034
 -0.00147408
 0.000368306
 -0.00174567
 0.000736473
 -0.00286833
 -0.00476019
-0.000111988
 -0.00480885
 -0.00188131
 -0.00290355
  0.00379393
  0.00431305
  0.00424416
 -0.00651807
 -0.00368135
  0.00111868
 -0.00189064
 -0.00244695
 -0.00350525
   0.0023093
  0.00318978
  0.00570995
-0.000249294
 -0.00303175
  0.00347545
  0.00140276
 -0.00141932
 2.40491e-05
  0.00987531
 0.000167427
-9.07722e-05
 -0.00354332
-0.000959926
   0.0299408
  0.00239065
   0.0015097
  0.00357557
 -0.00313658
  0.00173239
 -0.00360122
-0.000822115
 0.000381499
   0.0063346
 -0.00240485
 0.000563414
-0.000251139
 -0.00171367
  -0.0159958
 -0.00171485
 0.000423283
  0.00453878
 -0.00250755
 -0.00235426
  0.00213948
  -0.0012436
 -0.00321422
 -0.00298925
 -0.00729031
  0.00131793
  0.00626647
 -0.00233548
   0.0258106
 -0.00806046
  0.00425005
  0.00877709
 -0.00442778
 -0.00720567
   0.0080083
 -0.00529425
  -0.0216826
  0.00414765
 -0.00122251
  0.00178284
  0.00305451
 -0.00546938
 0.000365479
  0.00286848
 -0.00502694
  0.00217953
 0.000747565
-0.000627247
  0.00156567
 -0.00191271
-0.000246821
 -0.00260305
   0.0253939
  0.00378881
  0.00126624
 0.000431623
  0.00134204
 0.000526107
  0.00342495
  0.00375823
  0.00231996
 0.000741084
 0.000858571
 5.92507e-05
 -0.00425185
 -0.00131324
  0.00211645
 -0.00357828
 -0.00239531
   0.0170874
  0.00246419
 -0.00361776
 -0.00389492
 -0.00446726
   0.0145661
  0.00276034
    0.004175
 -0.00255437
 -0.00220195
 -0.00129266
 0.000860481
 -0.00381373
 -0.00431599
 -0.00784917
 0.000281141
  0.00118242
  0.00637729
  0.00755625
-0.000917553
  0.00188359
-0.000218826
 -0.00346617
 -0.00129122
 -0.00467937
   0.0030529
 0.000236912
 0.000676731
 -0.00119517
 0.000249321
  0.00387147
-0.000729573
 -0.00231813
  0.00307166
 -0.00296926
 0.000148038
   0.0178364
  0.00829999
-0.000316933
 -0.00510796
 -0.00380547
  -0.0062926
  0.00173366
 -0.00348059
 -0.00385571
  0.00487732
 -0.00445961
  0.00359627
 0.000336476
  0.00174344
 -0.00249304
 0.000857062
 0.000207823
  -0.0011984
  0.00435838
  0.00138029
  0.00184478
 -0.00159197
 -0.00460656
 0.000169832
  0.00333461
  0.00311173
 -0.00433957
 -0.00440129
  0.00115162
 0.000869182
 0.000446882
-0.000894168
 -0.00403942
 -0.00596892
 -0.00547798
  0.00271763
 -0.00376363
 -0.00389701
 -0.00715365
   -0.002234
 -0.00472048
  0.00501998
 -0.00414682
  0.00503602
 -0.00383706
 -0.00161679
-6.35356e-05
  0.00232669
   0.0040308
   0.0131159
 -0.00546728
  0.00404754
   0.0208228
 0.000126942
-0.000323384
  0.00862716
  0.00216084
-0.000512915
  0.00372593
 1.30363e-05
  0.00192277
 -0.00299214
   0.0018848
   0.0142543
 -0.00218096
   0.0110123
 -0.00333526
 -0.00126351
  0.00443312
  0.00270711
   0.0769887
 -0.00509819
  0.00308347
  0.00270759
  0.00574518
  0.00564658
 -0.00429945
 -0.00062435
  0.00156222
  0.00518599
  0.00302451
  -0.0128706
  0.00724779
 -0.00083286
  -0.0119775
 -0.00231693
 -0.00441985
  0.00387844
  0.00386179
  0.00413646
 -0.00740768
-0.000412282
  0.00331787
 -0.00324584
 -0.00292642
 -0.00438007
  0.00380872
 0.000158803
   0.0379984
  0.00253559
 0.000683658
  0.00280547
 -0.00738993
  -0.0110346
  0.00273627
  0.00203693
  -0.0269843
  0.00463741
 -0.00316635
  0.00768442
  0.00302428
 -0.00406275
   0.0037297
  9.8319e-05
-0.000157545
-0.000648069
  0.00860791
 -0.00182526
 -0.00241674
 0.000787776
 -0.00652166
 -0.00666967
   0.0275212
 -0.00479392
 -0.00288005
  0.00119631
  -0.0028493
 -0.00011596
  -0.0025971
  0.00467731
 -0.00345691
  0.00186965
  0.00355308
 -0.00512848
 -0.00124325
  0.00174688
  0.00517015
 -0.00347251
  0.00148085
   0.0246918
 -0.00449994
 -0.00927872
  -0.0108991
  0.00189898
   0.0196942
  0.00342188
  -0.0304751
 -0.00355552
 -0.00214746
  0.00308466
  0.00300751
 0.000142194
  0.00356818
   -0.004905
  0.00621679
 -0.00437658
  0.00556179
   0.0087419
-0.000639112
 -0.00537008
  0.00151606
  0.00200162
  0.00245753
-0.000923984
  0.00804978
  0.00478311
 -0.00167992
  0.00244834
 -0.00503095
 -0.00333409
  -0.0144321
 -0.00434927
 -0.00100195
  -0.0030877
 -0.00458543
   0.0206101
  0.00855391
 0.000400811
  0.00259597
 -0.00311887
 -0.00541061
  0.00152515
   0.0017622
 -0.00331927
  0.00266739
 -0.00176843
 -0.00210113
 -0.00451842
  0.00545969
  0.00334966
 0.000130626
 -0.00668794
 0.000215605
 -0.00195791
 -0.00111199
 0.000245672
 -0.00278494
 0.000125057
 -0.00365203
    -0.00413
  3.1886e-05
  -0.0023134
 -0.00363753
  0.00409893
-0.000585843
 -0.00313597
  0.00060842
-0.000981985
 0.000938731
 -0.00235955
  0.00722947
  0.00490341
 -0.00402239
   -0.028271
 -0.00392787
  0.00332924
 -0.00336238
 -0.00138074
 8.50789e-05
 0.000537788
 -0.00195732
  0.00417349
  0.00144402
  0.00897922
   0.0135482
  0.00237089
 -0.00085884
   0.0219189
  0.00343711
  0.00143653
  0.00973965
  -0.0121446
   0.0037152
  0.00393984
  -0.0019645
-0.000559178
  0.00353005
  0.00341731
  0.00845219
  0.00414867
 -0.00358467
  0.00285895
 0.000806517
 0.000190189
-0.000369429
     0.06656
 -0.00140741
  0.00171419
 -0.00290827
   0.0048901
 4.45304e-05
 0.000495293
  0.00260472
    0.004434
-0.000142351
 -0.00502989
 -0.00239675
   0.0154998
 -0.00214079
  -0.0156427
 0.000876799
  0.00319172
-0.000814637
 -0.00324853
  0.00237082
  0.00230534
 -0.00488596
 -0.00271524
   0.0025956
 -0.00139619
 -0.00587147
  -0.0036296
 -0.00535183
   0.0349974
 -0.00063366
  0.00174662
  0.00797116
  -0.0147522
 -0.00561657
 0.000576137
  -0.0056822
  -0.0225963
 -0.00380804
  0.00229842
 0.000708456
  0.00130247
  0.00103512
  0.00106943
 7.52763e-05
 -0.00366724
  0.00138354
  0.00158939
 -0.00635943
 -0.00423046
  0.00389497
 -0.00303094
  0.00100813
   0.0216416
  0.00431104
  0.00151101
 -0.00397201
  0.00336898
  0.00477858
 -0.00395589
  0.00170814
 0.000280294
  0.00195258
  0.00469972
  0.00160542
 -0.00057236
-0.000451362
  0.00277512
-0.000287635
  0.00188524
   0.0244441
 -0.00479798
 -0.00195147
 -0.00728741
-0.000475616
    0.017649
  0.00347202
 -0.00441276
-0.000504772
  0.00196507
  0.00256857
 -0.00140401
 -0.00247212
 0.000449868
-0.000968469
  0.00197568
 -0.00352881
  0.00280666
 -0.00289065
  -0.0035101
  0.00315601
  0.00167548
  0.00315793
 0.000562525
 0.000975728
  0.00675875
  0.00237376
-0.000555056
-0.000240117
 -0.00349341
  0.00755473
 -0.00498958
 -0.00260898
 -0.00114513
 0.000317406
 -0.00472647
   0.0057513
  0.00245554
 0.000541475
 -0.00330332
 -0.00471286
 -0.00585276
 0.000790721
  -0.0027547
  0.00294298
 -0.00413595
-9.71787e-05
  -0.0040439
-0.000291355
  0.00951702
 -0.00138817
  0.00126541
-0.000511519
  -0.0024666
 -0.00208358
 -0.00336994
 -0.00706514
 -0.00086854
 -0.00178162
-0.000298132
 -0.00346876
 -0.00199241
  0.00135767
-0.000480994
  0.00231914
 -0.00207074
  0.00124326
-0.000896366
 0.000964239
 -0.00402504
 0.000522807
  0.00592129
-0.000461031
 -0.00243571
  -0.0117887
 -0.00213217
 -0.00103809
  0.00363818
-0.000166745
 -0.00201782
  0.00212298
 -0.00529798
 -0.00552674
 -0.00230374
-0.000955179
   0.0149727
 0.000792842
 -0.00125414
  0.00245491
 -0.00564293
 -0.00573588
  0.00779975
 -0.00260905
 0.000957749
-0.000845036
 -0.00377781
 -0.00494875
  0.00269104
  0.00206823
    0.018034
 -0.00546562
   -0.010071
 7.37581e-05
 0.000293186
  0.00145968
   0.0029213
   0.0696561
  -0.0038242
   0.0020551
-0.000277231
 9.00604e-05
  0.00168493
  1.6632e-05
-0.000469014
  0.00365182
  0.00416605
   0.0036806
-0.000428163
  0.00133065
 -0.00230704
 -0.00860063
 -0.00177007
   0.0041685
   0.0033879
-6.68493e-05
 -0.00388522
 -0.00486026
 -0.00382271
 -0.00610116
  0.00233121
 0.000672185
 -0.00436359
  0.00251451
  -0.0021296
     0.02023
-0.000775954
    0.014261
  0.00953959
  -0.0113704
  0.00274814
  0.00460253
-0.000401154
  -0.0114231
  0.00239871
 -0.00211133
  -0.0011597
 -0.00049619
   0.0138548
  -0.0020944
  0.00317738
 -0.00236125
  0.00287355
-0.000302048
 -0.00209803
  0.00177695
  0.00760287
 -0.00186033
 -0.00383735
   0.0138924
-0.000222013
  0.00149333
 -0.00429667
  0.00160794
   0.0133292
 0.000332534
 -0.00353536
 0.000179371
  -0.0020382
-0.000786065
 0.000672102
   0.0047898
 0.000218284
 0.000642212
 0.000299302
 -0.00144335
   0.0187736
  -0.0016011
   0.0129153
  -0.0101978
 -0.00306812
   0.0224579
  0.00135254
   0.0070124
 -0.00326445
 -0.00328462
  0.00152812
 -0.00403971
  0.00277552
-0.000703258
   0.0187307
  0.00361199
  -0.0098463
   0.0017442
  0.00495601
 -0.00386233
 -0.00414724
 -0.00415825
 -0.00488681
-0.000315168
 -0.00256577
 -0.00192246
 -0.00679503
 -0.00335277
  0.00238256
  0.00260411
  0.00367651
 0.000308046
 -0.00221837
  0.00251159
 0.000651839
  -0.0032333
 -0.00511719
  0.00120722
 -0.00460574
 0.000669047
-0.000682932
 -0.00671042
  0.00444524
  -0.0106995
  -0.0028675
  -0.0048685
 -0.00668825
-0.000493493
 -0.00344159
 -0.00884304
-0.000356872
  0.00013168
  0.00152986
  0.00304834
 -0.00364246
 -0.00350398
  0.00393028
    -0.01321
 -0.00612986
 -0.00127821
 -0.00412532
  0.00165302
  0.00398682
  -0.0007347
     0.00177
  0.00739491
 -0.00621067
 -0.00137989
  0.00377123
 -0.00623042
  0.00736735
  0.00368819
  0.00351799
 -0.00664345
  0.00297887
 -0.00499267
  -0.0028298
  0.00289948
 0.000483834
  0.00112401
 -0.00024234
 -0.00269956
 -0.00202064
 -0.00363454
 -0.00813431
  0.00111872
 -0.00126494
  0.00371309
  0.00153884
 -0.00160543
 -0.00419534
   0.0067208
 0.000218626
 -0.00676502
  0.00658341
  -0.0115605
  0.00557304
 -0.00682795
 -0.00171331
   0.0141009
 -0.00692602
 0.000497651
 -0.00175735
  0.00351728
-0.000355782
 -0.00411049
   0.0481678
  0.00167769
 -0.00545642
 0.000366163
 -0.00430305
 -0.00336096
  0.00545856
  0.00357858
  0.00359349
   0.0115591
-2.08867e-05
  0.00486157
  0.00507724
  -0.0017755
   0.0161124
 -0.00382465
  0.00116241
 -0.00312683
  0.00241127
   0.0056388
   0.0244411
 -0.00549083
  0.00102817
 0.000466336
 0.000587794
  0.00353053
 -0.00306191
 -0.00421704
   0.0124251
 -0.00112773
  0.00271422
  0.00639246
 -0.00157012
  0.00233425
-0.000538634
 -0.00500815
 -0.00351815
 -0.00189133
 -0.00423584
  0.00244839
 -0.00183661
  0.00182048
  0.00476694
 -0.00483648
 -0.00422887
  0.00408315
-0.000111345
  0.00293917
 -0.00271775
  0.00238319
 -0.00123216
-9.71526e-05
  0.00390612
 -0.00274235
 -0.00309939
-0.000620426
 -0.00202439
  -0.0043755
  0.00447041
 -0.00360171
 -0.00429081
  0.00140548
 -0.00356437
-0.000825525
  0.00151244
 -0.00151481
  0.00305192
 -0.00345789
  0.00191873
  0.00949183
  0.00255416
 -0.00428513
 -0.00294504
  0.00230183
  0.00111427
-0.000565253
  0.00104048
  0.00259172
-3.77497e-05
  0.00685851
  0.00161291
 -0.00358355
-4.69819e-05
  0.00414017
  0.00188434
  0.00212255
  0.00148351
   0.0100793
 -0.00352144
 -0.00145943
 -0.00416249
 -0.00237714
 -0.00425151
 -0.00580316
  0.00516665
  0.00176997
-0.000919083
  0.00136313
  0.00319704
 -0.00256536
-0.000963693
  0.00106537
 -0.00265697
  -0.0037711
 -0.00108181
  0.00270739
   0.0034683
 -0.00353396
 -0.00311667
 -0.00269229
 -0.00449663
 -0.00416796
-0.000904388
  0.00136781
 -0.00478501
 -0.00583657
 -0.00100434
 -0.00108542
 -0.00345077
 0.000723963
  0.00347184
 -0.00450075
  0.00360617
  0.00473923
 -0.00335148
  0.00644022
  0.00383795
-0.000511711
 0.000238974
-0.000181331
  0.00259085
 -0.00289953
 -0.00372752
 -0.00462128
 -0.00102382
 5.96645e-05
  0.00168593
 -0.00395998
   0.0008008
 -0.00509414
  -0.0148874
   0.0035084
 -0.00327802
 0.000929848
-0.000222204
 -0.00295888
 -0.00478704
  0.00372768
   0.0027299
 -0.00444417
-0.000254606
 0.000782071
 -0.00297347
-0.000448404
  0.00393688
 -0.00125763
 -0.00229349
  0.00606609
 -0.00467651
  0.00343664
  0.00679704
    0.003558
 -0.00435063
  0.00529954
  0.00415933
-9.01647e-05
-0.000113574
  0.00143791
  0.00595386
 -0.00142143
  0.00916469
 -0.00381445
 -0.00409852
  0.00394671
 -0.00442085
   0.0151355
 -0.00348411
 -0.00349111
 0.000490933
  0.00391445
 -0.00191929
 -0.00434317
 3.27264e-05
-0.000153928
-0.000971379
 -0.00393514
  0.00400958
  0.00349452
 -0.00220079
  -0.0091741
   0.0019881
  -0.0035474
  0.00357111
   0.0041952
-0.000136881
  0.00293972
 -0.00190573
  0.00020156
 -0.00085885
 -0.00425803
   0.0032163
-0.000328253
 -0.00270598
 -0.00438689
 -0.00116309
  0.00112648
  0.00454859
  -0.0021878
  0.00102253
-0.000618323
 -0.00306569
  0.00484316
 -0.00197178
  0.00135885
  -0.0022848
   0.0039426
  0.00437693
 -0.00315677
  0.00263852
   -0.003154
 -0.00217314
 0.000949857
-0.000249616
 -0.00123997
 -0.00122202
  0.00120033
 -0.00475623
  0.00243572
 -0.00185831
 0.000263987
  0.00218887
 -0.00482565
  0.00177031
 -0.00502471
 -0.00282587
  0.00207211
-0.000603682
  -0.0156871
  -0.0033467
  0.00486589
 -0.00491369
 -0.00350163
  0.00211531
-7.58305e-05
  0.00515451
 -0.00371565
  0.00179549
  0.00735407
 -0.00014991
  -0.0056931
 -0.00368088
   0.0049199
  0.00163585
-0.000628739
  0.00010723
 -0.00480755
 -0.00422234
 -0.00358462
  0.00506396
 -0.00100748
 0.000670104
   0.0006072
 -0.00037195
 -0.00358957
  0.00211795
-0.000205242
 -0.00518027
 -0.00468597
-0.000901869
  -0.0036028
  -0.0037072
 0.000983136
 -0.00114688
  0.00366424
  0.00491095
 -0.00130266
 -0.00469359
  -0.0011199
 -0.00389122
 0.000399551
 5.33637e-05
-0.000280576
 -0.00143158
 -0.00115595
   0.0039506
 3.65504e-05
 -0.00149787
  0.00388691
 0.000631132
 -0.00177996
 -0.00184489
 -0.00319637
 -0.00222052
  0.00139224
-8.11766e-05
  0.00113377
  -0.0022604
 0.000623603
  0.00229493
   0.0030044
  0.00229748
  0.00857107
  0.00302064
 -0.00292928
  0.00287569
 -0.00397823
-0.000397361
  0.00347503
-0.000538104
  0.00446538
 0.000605885
 -0.00407339
 -0.00394764
 -0.00434503
 0.000767546
   -0.027195
-0.000619337
 -0.00520229
  0.00282906
 -0.00407334
-0.000431667
 -0.00387992
 0.000477401
 -0.00229339
  0.00306295
 -0.00438356
 -0.00438397
 -0.00550938
  0.00115751
  0.00502768
  0.00167785
-0.000674998
  0.00588709
  0.00287711
  0.00130991
   0.0025859
  0.00618211
 -0.00292787
  0.00109752
 -0.00145331
 -0.00274214
 -0.00263554
-0.000166582
-0.000718801
 -0.00410194
 -0.00300252
  -0.0039436
  0.00199619
 -0.00288028
  0.00490672
  0.00709585
   0.0011907
 -0.00468266
  -0.0016802
-0.000778694
  0.00448938
-4.37368e-05
 -0.00395305
  0.00438064
 -0.00297884
 -0.00331442
  0.00245126
  5.8982e-05
 -0.00276733
  0.00262813
 -0.00169492
   0.0036139
 -0.00174663
  0.00199763
-0.000482125
  0.00498938
  0.00181462
  0.00422312
 -0.00073786
  0.00522828
 -0.00433736
  0.00286618
  0.00488225
  0.00531408
   0.0071935
  0.00186671
  0.00348443
  0.00501649
 -0.00453009
 -0.00359912
  0.00373878
  0.00501369
  0.00228291
 -0.00343581
  0.00386299
  0.00431762
-0.000616991
 0.000494314
  0.00272709
 0.000881664
 -0.00511509
  -0.0041744
-0.000134082
 -0.00109088
  0.00275499
  -0.0032596
 -0.00312067
  0.00088422
  0.00463125
  0.00185761
 -0.00131669
 -0.00494503
  -0.0059192
 -0.00189801
  0.00402561
 -0.00153018
   -0.003999
  0.00529212
 -0.00320396
 -0.00212582
 -0.00507362
  0.00414767
 -0.00268334
  0.00264944
 -0.00309233
 -0.00320111
  0.00258666
  0.00169582
  0.00255989
-0.000997661
 -0.00341754
  0.00330608
-0.000181076
  0.00172751
  -0.0021863
 -0.00217706
  0.00287729
 -0.00146709
  0.00314074
  0.00125912
 -0.00486556
 -0.00281976
     0.00396
 -0.00102386
 0.000146088
  0.00173835
  0.00273053
  0.00275704
-0.000786996
  0.00375034
 -0.00436813
-0.000483061
  0.00281586
 -0.00175807
 -0.00277425
  0.00402975
 0.000194376
  0.00431476
 -0.00032322
 -0.00208235
 -0.00323754
 0.000493573
  -0.0041875
  0.00326649
  -0.0013432
 -0.00268891
 -0.00366197
 -0.00365308
  0.00089155
  0.00474409
   0.0049169
   0.0011411
 -0.00242357
 -0.00119746
 -0.00466132
  0.00239944
 -0.00123801
  0.00334527
 0.000498694
  0.00355702
   0.0023525
  0.00138722
 0.000310646
  0.00048378
  0.00470631
-0.000366627
-0.000454905
 1.53275e-05
 -0.00101251
  0.00414488
  0.00325795
  0.00253037
  0.00144335
  0.00464642
  0.00616339
 -0.00770417
 -0.00327654
   0.0024482
 -0.00309333
  0.00256569
  0.00227225
 -0.00448904
-0.000611474
  0.00273769
  0.00242611
-0.000378939
  0.00222048
 -0.00408271
 -0.00188547
 -0.00268808
  0.00391793
 -0.00440277
   0.0063501
 -0.00342123
 0.000925826
   0.0050748
  0.00203618
 -0.00428546
  2.0536e-06
 -0.00463777
 -0.00462626
 -0.00177244
  0.00312776
  0.00288298
 -0.00254353
-0.000608717
   0.0018361
-0.000720854
 -0.00300533
  0.00328967
-0.000904642
  0.00457032
  0.00416749
  0.00126626
  0.00565549
  0.00161282
 -0.00387513
   0.0015093
  0.00295475
 -0.00110591
 -0.00502168
  0.00199967
-3.07015e-05
  0.00497792
  0.00470544
 -0.00359491
  0.00412024
  0.00027001
 -0.00238133
-0.000993486
 0.000918859
 -0.00191072
  0.00413967
-0.000808828
 -0.00448069
 -0.00457508
  0.00279466
  0.00413488
-0.000199939
  0.00219297
 -0.00651876
 -0.00133165
  0.00402604
 0.000914711
 -0.00669928
 -0.00451488
 -0.00281932
-3.20199e-05
  0.00313551
 -0.00477062
  0.00452528
  0.00247484
  0.00369187
  0.00297721
  0.00274897
  0.00211254
 0.000141315
 0.000828536
 -0.00427325
  0.00408186
 -0.00299736
  0.00347104
 -0.00222633
   0.0030525
 -0.00222775
 -0.00179001
  0.00387327
  -0.0134836
 -0.00440745
 -0.00255887
 -0.00205355
 -0.00127935
   0.0203331
 0.000252599
 -0.00222414
 -0.00106232
-0.000512477
 0.000797161
  0.00326781
 -0.00273388
  0.00136761
  0.00151204
  0.00351342
-0.000796177
 -0.00176852
  0.00223273
 -0.00364512
  0.00500917
 -7.4993e-06
 -0.00118911
  0.00442729
 0.000463255
 -0.00265746
 -0.00414751
 -0.00530932
 0.000533668
 7.19369e-05
 0.000185611
  0.00305028
-0.000500038
  0.00160624
 -0.00445572
 -0.00252082
  0.00138625
-0.000949202
-0.000948546
 -0.00531884
  0.00294338
   -0.004472
  0.00377123
 -0.00483067
  0.00196209
   0.0017703
 -0.00422805
 -0.00363386
 -0.00858802
 -0.00144574
 -0.00171799
  0.00459047
 -0.00242765
  0.00164911
  0.00474404
   0.0033272
  0.00486984
 -0.00445872
-0.000673813
 0.000181092
 -0.00110624
 -0.00678001
 -0.00264582
 -0.00426389
 -0.00356582
 -0.00222418
 -0.00176408
  0.00245423
  0.00178999
 -0.00173789
  0.00309344
-4.76225e-05
  0.00330076
  0.00180997
 0.000701537
 0.000332092
-0.000908287
 -0.00238806
  0.00119451
-0.000717013
-0.000877022
  0.00482231
   0.0116657
    0.026751
   0.0015077
 -0.00213295
  0.00235874
 0.000548935
 -0.00244185
    0.002343
 -0.00502357
 0.000255189
 -0.00243976
  -0.0029295
  0.00439498
-0.000672746
-0.000149298
 -0.00539438
 -0.00318277
 -0.00331645
  0.00565573
 -0.00503712
  0.00123283
  0.00337761
  0.00143067
 -0.00348028
 -0.00171876
 -0.00345872
  0.00168579
  0.00451884
 0.000489815
 -0.00536125
  0.00462601
  0.00340343
  0.00255164
 5.94072e-05
   -0.003769
 -0.00286318
 -0.00525307
-0.000320186
 -0.00427101
 -0.00435503
 -0.00219549
 -0.00285528
 -0.00259125
 -0.00241159
  0.00228739
 0.000849684
-0.000293323
  0.00411557
  0.00454894
-0.000651487
   0.0048744
 0.000191242
  -0.0027814
