 3.51606e-88
 3.07441e-89
 4.32982e-88
-3.09514e-88
-9.32261e-89
-4.48292e-88
 4.00575e-88
-3.95431e-88
-1.76731e-89
 3.02323e-88
 6.68524e-89
-4.85891e-88
 3.16638e-89
-2.29087e-88
 4.64596e-88
 1.96486e-88
 4.37626e-88
-1.07493e-88
 3.47819e-88
-1.31344e-88
 6.58402e-89
-4.87779e-88
 1.69883e-88
 3.54778e-88
 2.19939e-88
 3.51454e-88
 1.28703e-88
 4.41111e-88
-2.76179e-88
 -1.9945e-88
-5.87869e-89
-4.30321e-88
 3.36944e-88
-1.31553e-88
-2.34185e-88
 -2.6203e-88
-7.41953e-89
-3.39358e-88
-1.51811e-88
 4.13781e-88
 4.68615e-88
 4.20691e-88
  4.3354e-88
-5.46929e-90
-3.14144e-88
 3.92388e-88
-3.14731e-88
-3.82267e-88
-2.20852e-88
 -4.7266e-88
-7.96077e-90
 3.50638e-88
 -4.5479e-88
-3.43826e-88
 1.99667e-88
 2.70799e-88
 -4.9812e-88
-1.77377e-88
 2.06162e-88
-2.68649e-88
 1.28823e-88
-3.58373e-88
 -1.9332e-88
-3.99813e-89
 1.57241e-89
 7.81441e-89
 2.03638e-88
 4.47178e-88
 2.44436e-88
-4.53921e-88
 3.55212e-88
 2.07303e-88
 4.72419e-88
 2.83004e-88
-3.03914e-88
-3.47473e-88
 1.69644e-88
-1.12996e-88
-2.24091e-88
 4.54442e-88
-8.00068e-89
 2.73598e-88
 2.99331e-88
-2.91469e-89
 4.35422e-88
-6.74923e-90
-2.64096e-88
 4.42952e-88
 3.21523e-88
 4.47716e-88
-3.31445e-88
-5.54019e-89
-4.16405e-88
-1.91156e-89
 4.10266e-88
 1.04969e-88
-4.46719e-88
 1.08157e-88
 4.63994e-89
 3.03366e-88
 1.59885e-88
-1.04137e-88
 4.92098e-90
 1.26556e-88
-3.26881e-88
 2.06656e-88
 2.84732e-88
 3.48413e-88
-4.12088e-88
-4.45106e-88
 2.97107e-88
 1.35547e-89
 3.34142e-88
 9.06903e-89
 4.90057e-88
 2.63816e-88
-4.21807e-88
-2.79787e-88
 2.01019e-88
 4.05366e-88
-3.37819e-88
 3.75224e-88
-1.55784e-88
-2.48574e-88
-1.49639e-88
-2.51265e-88
 3.62044e-88
-9.07092e-89
 3.62541e-88
-9.73043e-89
-2.93091e-88
 1.66778e-89
 3.04209e-88
  2.1748e-88
-3.62514e-88
 4.82977e-88
-8.16122e-89
 4.27868e-88
 3.25643e-88
 1.19493e-89
 4.88411e-88
 1.17002e-88
-4.80244e-88
 3.16805e-88
-2.98056e-88
-4.95935e-88
 7.48724e-89
-2.14214e-88
-2.70072e-88
-2.29856e-88
-3.14595e-88
-1.02241e-88
 -3.6038e-88
 3.52703e-89
 1.54835e-88
-4.36977e-90
 2.89655e-88
 1.11311e-89
 4.10571e-88
 1.46447e-88
 4.19477e-88
-3.88268e-88
-3.42623e-88
 2.17937e-88
 3.34861e-88
-1.99487e-88
 1.95166e-88
-2.52499e-88
-2.77368e-88
  1.5061e-89
   2.651e-88
-2.94704e-88
-3.73686e-88
 2.90505e-88
-4.83647e-88
-1.66092e-88
  3.0022e-88
 9.68747e-89
 1.25344e-88
-4.75599e-88
 3.72668e-88
 3.16398e-88
-7.21903e-89
 -4.9346e-88
-1.54079e-88
-4.23104e-88
 7.82007e-90
-3.70173e-88
 9.36772e-89
-8.73572e-89
 2.81924e-88
 7.40576e-90
 3.00241e-89
 4.44951e-88
-2.80405e-88
-1.40863e-88
-2.60285e-88
 4.20411e-88
 1.12287e-88
-3.20025e-89
-7.02762e-89
-1.28361e-88
 1.78943e-88
 6.16879e-89
-3.43604e-88
 2.00945e-88
 4.01246e-88
 4.62267e-88
-2.07928e-88
 2.08416e-89
 4.92317e-88
-3.41008e-88
-1.68508e-88
-8.56213e-89
-3.28818e-88
 1.83062e-88
-3.07521e-90
 1.84652e-88
 3.18539e-88
-4.15146e-88
-4.08454e-88
 9.47147e-89
 9.79094e-89
  1.2722e-88
 3.39174e-89
 3.23154e-88
 4.92007e-88
 2.79282e-88
 2.37817e-88
 9.85465e-89
-2.58468e-88
-3.38208e-88
 4.75835e-88
 4.26125e-88
  2.2913e-88
-3.73516e-88
 1.21322e-88
 1.24627e-88
-4.16998e-88
 4.19043e-88
-3.60279e-88
-4.30429e-88
-4.27713e-88
-2.31374e-89
-1.04003e-89
-2.50881e-88
-3.45823e-88
 4.92174e-88
  4.3942e-88
 4.78365e-88
 -4.2872e-88
-4.74781e-88
 6.73316e-89
 1.74839e-88
 1.58089e-88
-4.04499e-88
-7.75496e-90
 1.44348e-88
 3.80433e-88
-2.75686e-88
-2.62854e-88
-3.83783e-88
-1.08244e-88
-2.92767e-88
-4.63406e-88
-3.84862e-88
-1.60633e-88
 1.63565e-88
 2.45415e-88
-7.19814e-89
 7.68603e-89
 3.90786e-88
  3.2396e-90
 1.54797e-88
  -1.381e-88
 4.98489e-88
 4.09566e-88
 2.17264e-89
 4.84915e-88
 3.43238e-88
-5.65664e-90
-4.49553e-88
 3.74106e-88
-4.44073e-88
 2.30936e-88
 2.64471e-89
-3.42922e-88
-2.82567e-88
-3.34953e-88
-4.68237e-88
-5.26036e-89
-9.21578e-89
 -3.4637e-88
 3.44802e-88
 1.20725e-88
-3.04127e-88
 4.65589e-88
 4.65741e-88
 3.65088e-88
 2.05256e-88
-1.11988e-88
-6.38001e-89
 9.02938e-89
 3.96901e-88
-4.14751e-88
 4.57844e-88
 3.89642e-88
 5.00465e-88
-2.61779e-89
 3.68809e-88
 3.37955e-88
 4.73815e-88
 4.24906e-88
 2.06313e-88
-4.76006e-88
 1.50094e-88
-2.72988e-88
-3.13279e-88
 3.73177e-88
-1.02291e-88
-2.75866e-88
-1.85175e-88
   3.112e-88
-1.16587e-88
-3.46121e-88
-7.38224e-89
 8.49359e-89
 -3.8628e-88
-1.13829e-88
-5.57245e-89
 3.24626e-88
 2.79833e-88
 3.86125e-88
-9.08281e-89
 1.70986e-88
 4.77024e-88
-1.38732e-88
 5.48804e-89
  4.7174e-88
 3.40739e-88
-8.20583e-89
 3.03947e-88
 3.08806e-88
  -1.629e-88
 4.51252e-90
  3.3845e-88
 4.92844e-88
 2.37175e-88
-4.80577e-88
 3.60273e-88
-3.70865e-88
-2.50793e-88
 -3.3065e-88
 4.45985e-88
  1.3827e-88
-1.71121e-88
-1.33585e-88
-2.82542e-88
-5.17515e-89
 2.58236e-88
 1.67383e-88
-2.32873e-88
 3.23204e-89
 4.77599e-89
 1.81948e-88
-3.02441e-88
 1.90356e-89
-4.62532e-88
 2.58089e-88
-1.49719e-89
 3.83857e-88
-3.29718e-88
-2.16773e-88
 1.86915e-88
 1.30319e-89
 2.93389e-88
 1.96169e-89
 1.27521e-91
  2.4816e-89
   4.469e-89
-1.45348e-88
 1.59601e-88
 2.99547e-88
 2.96515e-89
  9.9838e-89
-6.79315e-89
  3.6418e-88
 4.71902e-88
 1.55176e-88
 -1.9332e-88
  2.2439e-88
-1.83189e-88
 7.94564e-89
-2.49038e-88
  3.7022e-88
-2.44343e-88
-4.58293e-89
-1.16492e-88
-2.01226e-88
-2.93489e-88
 3.74186e-88
-3.23118e-88
-1.17557e-88
-3.48335e-88
 3.69447e-88
 4.01125e-88
 4.50704e-88
-1.16684e-88
-1.04496e-88
-3.02279e-89
 4.33656e-88
 2.55806e-88
-3.76375e-88
 2.27454e-88
-2.20291e-88
 2.29113e-88
-3.46225e-88
-3.61859e-88
 1.95267e-88
   3.146e-88
-4.95292e-89
-8.60909e-89
-3.74337e-88
-4.75821e-88
 1.70521e-88
 5.01533e-88
-2.14515e-88
-3.81056e-88
-1.20707e-88
  8.9909e-89
-1.68895e-88
-2.52269e-88
 2.72441e-88
 2.19198e-88
-9.49548e-89
  1.3614e-88
 1.14574e-88
-1.49999e-88
-4.86292e-88
-4.95669e-88
 3.25423e-88
 4.53013e-88
 2.65786e-88
 4.54698e-88
 1.74719e-88
-4.60252e-88
 1.78062e-88
 3.34144e-88
-3.16461e-88
-1.32419e-88
 1.42996e-88
 1.39659e-88
  2.8714e-88
 2.74309e-88
 1.69488e-88
 -4.8087e-89
 2.70094e-88
 4.60623e-88
 7.65065e-89
-3.56361e-88
  4.4784e-89
 4.13261e-88
-1.02981e-88
-1.88523e-88
 1.26711e-88
 3.07714e-88
 4.53267e-88
-2.64463e-88
-3.48033e-88
 4.72625e-88
-2.54482e-88
  4.8304e-88
  4.1989e-88
-4.94444e-88
 4.31989e-88
 8.88615e-89
-4.49046e-88
 1.04303e-88
-8.27427e-89
-2.59858e-88
 4.77534e-88
-4.45495e-88
 3.85451e-88
 2.58926e-88
 3.34464e-88
 4.91905e-89
-2.94909e-88
 9.88095e-89
  4.0655e-90
 2.87247e-88
 2.48098e-88
-4.56898e-88
  1.9476e-88
-3.60631e-88
-1.39772e-88
-1.84278e-88
 4.52732e-88
-1.92253e-88
 5.69092e-89
-4.01049e-88
-2.25376e-88
 3.08076e-88
-4.23757e-88
-3.11234e-88
 3.19282e-88
-4.97516e-88
 2.83277e-88
 3.75885e-88
 1.12437e-88
-3.05214e-88
-3.89721e-88
 8.42227e-89
-2.45059e-88
 5.01379e-88
-1.62599e-88
-4.16343e-88
 4.48217e-89
  4.8141e-89
 1.88116e-88
-4.56861e-88
 -1.7036e-88
-6.95339e-89
 -4.0811e-88
-4.81348e-88
 7.54843e-89
-4.22317e-89
-1.59976e-88
 2.24683e-89
 2.71165e-88
 4.02583e-88
 1.27069e-88
-4.59959e-88
 2.04911e-88
 2.08961e-88
-2.65543e-88
 1.84453e-89
 2.17094e-88
-4.88014e-88
-1.11417e-88
-1.76217e-88
-2.87578e-88
 4.51122e-90
 4.13655e-88
-2.69873e-89
 1.42406e-91
-2.54692e-88
 6.23195e-89
-4.60784e-88
 2.99099e-88
-2.55312e-88
-4.11995e-88
 -3.7701e-88
 1.80803e-88
-3.14455e-88
-3.52708e-88
 -2.4946e-88
 1.48963e-88
-7.03473e-90
 2.78658e-88
-8.56201e-89
  -1.102e-88
-1.00021e-88
-3.99293e-89
-4.11037e-88
-3.96808e-88
 2.00177e-88
 1.13058e-88
 3.25936e-88
 2.17813e-88
-5.04107e-88
-3.56029e-88
 4.35884e-88
 6.05351e-90
-4.48122e-88
-9.68513e-89
-4.99552e-88
-1.97164e-88
 4.71118e-88
-4.54686e-88
-4.03814e-88
-2.89943e-88
-3.61032e-88
-2.75174e-88
 3.96511e-88
-1.69837e-88
-1.22232e-88
-3.58698e-88
 4.84775e-88
 3.76383e-88
  4.2561e-88
-1.06593e-88
-2.39565e-88
 -1.8016e-88
 3.59127e-88
-1.44952e-88
-7.13186e-89
 5.35564e-89
 4.73755e-88
-2.51131e-88
-2.34379e-88
 4.75298e-88
-1.01511e-88
-3.04243e-88
-2.43969e-89
 -4.3983e-89
 1.04555e-88
-1.82994e-89
 2.64502e-88
  6.9925e-89
 3.26639e-89
 3.66338e-88
 2.85632e-88
 1.77282e-88
-4.14583e-88
 1.76395e-88
-4.98304e-88
 -3.1166e-89
 3.23347e-88
 4.92121e-88
-1.60531e-88
 2.43208e-88
 -1.2022e-88
 1.05553e-88
-4.42699e-88
-2.66841e-88
  4.6625e-88
-8.36837e-90
 2.92365e-88
 4.34257e-88
  2.4615e-88
-4.47762e-88
 4.03807e-88
-3.61108e-88
-2.46355e-88
-1.26338e-88
 1.00558e-88
 3.63849e-88
 3.61012e-88
-1.40687e-88
-7.19736e-89
-1.12072e-88
-2.80097e-88
-2.92089e-88
-4.40538e-88
-1.89031e-88
 3.89955e-88
-4.33192e-88
 2.85453e-88
 2.07554e-88
-4.46819e-88
-3.80826e-88
 -5.4986e-89
  -6.139e-89
 2.30376e-88
 7.96425e-90
 1.77419e-88
 1.90878e-88
 5.05246e-88
-3.59642e-89
 1.19388e-88
 2.45648e-88
 2.19234e-89
 1.74469e-89
 3.90189e-88
 2.81218e-88
 3.96759e-88
-1.50008e-89
 1.39319e-88
 2.52023e-88
 3.49961e-88
-4.38403e-88
-3.65797e-88
-4.35884e-88
-2.24842e-88
-3.00685e-88
-1.19265e-88
-3.40636e-88
-2.28228e-88
 -3.3956e-88
 3.72568e-88
-1.69398e-88
-2.14737e-88
-1.88166e-88
 2.74862e-88
-4.90109e-88
 3.25448e-88
-5.34673e-89
 2.06419e-88
 3.24945e-88
 4.16218e-88
-1.79941e-88
 6.48449e-89
-6.76064e-89
 3.43156e-88
-5.07141e-89
-2.92137e-88
 2.34167e-88
 4.39935e-88
 3.52832e-88
-1.95585e-89
 2.84148e-88
 4.20079e-88
 1.20294e-88
 3.53914e-88
-3.10512e-88
 3.25259e-88
-2.71099e-88
-1.45498e-88
-4.08717e-88
-1.05009e-88
-2.78678e-88
-7.24653e-89
 1.85904e-88
 3.88056e-89
-3.03351e-88
 2.01445e-88
-1.41495e-88
 1.48831e-88
-9.78837e-89
-3.22298e-88
 5.93012e-89
 2.27825e-88
 2.48197e-88
 4.97344e-88
 6.52333e-89
-3.08265e-88
 -3.0054e-88
-2.06348e-88
-3.74078e-88
-4.53457e-88
 2.79743e-88
 4.15719e-88
 4.72272e-88
-1.05711e-88
 2.63886e-88
-3.43988e-88
  -2.862e-88
 4.98437e-88
 1.61642e-89
-1.89268e-88
 -1.1232e-88
 2.43136e-88
 2.43917e-88
-4.32165e-88
-2.23806e-88
 4.46215e-88
  2.7493e-88
 1.40349e-88
  8.9298e-89
-3.28702e-88
 3.23701e-88
-3.57149e-88
 4.04773e-88
 6.61497e-89
-3.65552e-88
-3.57415e-89
 2.63534e-88
-1.60443e-88
  2.6356e-88
 3.95106e-88
 -1.0825e-88
 3.75549e-89
 3.05077e-88
-1.41726e-88
 4.37494e-88
 6.32146e-89
 1.99354e-89
-3.54454e-88
 5.59032e-89
-4.69648e-88
-3.80726e-89
 4.49232e-88
 2.79137e-88
-2.99904e-88
 -4.8868e-88
-4.50417e-88
-3.59437e-88
 2.91899e-88
 1.95581e-88
  2.3551e-88
 4.68847e-88
 1.35336e-89
 3.84011e-88
 3.67873e-88
-4.26065e-88
-4.87289e-88
-1.73617e-88
 3.43119e-88
-1.42083e-88
-4.15805e-88
 2.32477e-88
 2.55317e-88
   1.274e-88
 3.18057e-89
-3.92157e-88
 5.91455e-89
-4.10728e-88
 1.33428e-88
 2.10341e-88
 1.50825e-88
 1.69429e-88
 -3.3348e-88
 9.43097e-89
-5.71818e-89
-1.27734e-88
 1.11279e-88
-1.94927e-90
 1.84781e-89
-1.02569e-88
-3.12116e-88
-2.51759e-88
 -1.3947e-88
 2.07067e-88
-3.73496e-88
-2.77345e-88
 2.86652e-88
-3.55136e-88
 5.46873e-89
 1.24023e-88
 8.43146e-90
 1.44532e-88
-1.49248e-88
-2.41999e-88
-2.33816e-88
 3.88207e-88
-1.28507e-88
 3.30979e-88
 4.83129e-88
-5.00827e-88
 3.55716e-89
 1.28206e-88
 1.74251e-88
 2.07741e-88
-2.83232e-88
-3.88678e-88
-4.25741e-88
 3.33697e-88
 1.15022e-88
 9.83869e-89
-2.74621e-88
 3.08555e-88
 3.52277e-88
 9.15589e-89
 9.87436e-90
 4.84431e-88
 3.19863e-88
-2.09222e-88
-3.76453e-88
-1.31198e-88
 4.20451e-88
 1.37628e-88
-4.92413e-88
-2.34545e-88
 4.01278e-88
 -2.2058e-88
-3.52086e-88
-2.32977e-88
-3.95349e-88
-3.74705e-88
-2.28155e-88
 1.45872e-88
 2.59151e-88
 4.51746e-88
-1.52134e-88
 4.81568e-88
 -4.4268e-88
-7.22255e-89
 3.09517e-88
 1.77992e-88
-4.79587e-88
-4.70852e-88
-1.92011e-89
  3.7834e-88
 1.26357e-88
 4.96323e-88
 3.57023e-88
-5.95279e-89
-2.18647e-88
 4.86219e-88
 3.14924e-88
-3.03944e-88
 1.18099e-88
 3.28161e-88
-3.28394e-89
 1.36292e-89
-3.98167e-88
 1.20724e-88
 2.86302e-88
-2.87867e-88
 2.51669e-88
-4.47601e-88
 3.63655e-88
 5.07152e-90
-5.01603e-88
-2.94227e-88
-1.91081e-89
-4.38633e-88
 1.39197e-88
-2.15339e-88
 2.45008e-88
  1.6526e-88
-1.80541e-88
-2.79941e-88
 3.78523e-89
 4.51466e-88
-2.89366e-88
-1.10873e-88
 -1.1381e-88
-2.36311e-90
-1.30402e-88
-3.04634e-88
 1.99343e-88
 4.93347e-88
-4.82221e-88
-3.39245e-88
 1.22802e-90
-3.74739e-88
 2.87129e-88
-2.18218e-88
-1.56956e-88
 3.30499e-89
-1.60169e-88
-2.99049e-88
-4.67627e-88
-1.56122e-88
-8.76263e-89
  1.8915e-89
-8.91056e-89
-4.54177e-88
 3.09226e-88
-3.49845e-88
 2.16733e-88
-3.77063e-88
-1.24137e-88
-2.51163e-88
-4.31346e-88
 9.21471e-89
 1.43614e-88
 -3.9506e-89
-4.15964e-88
-4.92536e-88
  1.6151e-88
 2.89028e-88
-5.04938e-88
 1.84938e-88
 4.55433e-88
 1.94017e-90
 3.15849e-88
 2.36815e-88
 2.89372e-88
-3.46855e-88
-2.35883e-88
-3.76546e-88
-1.40255e-88
 -1.9786e-88
-2.70183e-89
 2.77769e-88
 3.26704e-88
 3.89526e-88
 3.29241e-88
 1.30182e-88
-4.66068e-88
 4.02258e-89
 2.58768e-88
-8.45545e-89
 2.94712e-88
 3.33072e-88
-4.98155e-88
-6.74221e-89
-2.12182e-88
 -4.0847e-88
-5.43088e-89
 4.54978e-88
 3.86208e-88
-5.35966e-89
 1.34168e-88
 3.35894e-88
 4.53993e-88
-5.57315e-89
 6.69605e-89
 2.37617e-88
 1.03063e-88
 3.36727e-88
 3.66721e-88
 4.68458e-88
-3.66882e-88
-1.66046e-88
 2.40478e-88
 4.65472e-88
-2.82268e-88
 6.39715e-89
 8.99058e-89
-2.42686e-88
-4.01551e-88
-1.57074e-88
 1.78409e-88
 3.98811e-88
 -3.2975e-88
 1.85904e-88
-1.74359e-88
-3.62821e-89
 2.83084e-88
 2.76982e-88
-8.70525e-89
 1.63544e-88
-2.82363e-88
-4.58633e-88
-6.31012e-90
-3.34117e-88
-8.71459e-90
-4.45098e-88
 4.09149e-88
  -4.114e-88
 3.97279e-88
 2.70122e-88
 -4.4869e-88
-4.75351e-88
-4.01672e-88
 2.97438e-88
 4.95771e-88
 -1.7829e-88
-1.44339e-88
 7.99284e-89
 8.46742e-89
-4.02399e-89
 4.28504e-88
-2.42664e-88
-1.47177e-88
-4.06994e-88
 4.48889e-88
 1.84114e-88
 6.23736e-89
 2.26225e-88
 -4.4652e-89
 4.80971e-88
-1.15979e-88
 1.78635e-88
 -4.8341e-88
  3.8336e-88
 3.50167e-88
 1.35252e-89
 4.43912e-88
 2.53568e-88
 1.07775e-88
 3.35443e-88
 1.79421e-89
 1.64734e-88
 3.65741e-88
  1.2192e-88
-4.35758e-89
 3.55764e-88
  4.4928e-88
 3.17735e-88
-7.00559e-89
 2.82061e-89
-2.28253e-88
  -1.473e-88
 2.91191e-88
  1.3022e-88
-4.86442e-89
 2.34332e-88
-1.91414e-88
-4.92019e-88
-4.51911e-89
 2.69584e-88
 4.94602e-88
 3.44479e-88
-5.75292e-89
-4.94556e-88
 2.22091e-88
 -2.1311e-88
 2.46189e-89
 1.60256e-88
 -4.6529e-88
-3.73354e-88
-1.00496e-89
  5.8302e-89
  2.9703e-88
-1.50056e-88
-3.25526e-88
-2.52294e-88
-3.00041e-88
-3.81994e-88
-4.40307e-88
 1.35553e-88
 1.51862e-88
 -1.6291e-88
 4.93903e-88
 -6.2695e-89
  4.7296e-88
-6.04892e-89
-3.34111e-88
-2.24202e-88
-4.68582e-89
 1.26348e-88
-4.60366e-88
-5.80042e-89
-3.49209e-89
-1.22461e-89
-4.69105e-89
-3.18577e-88
 2.80294e-88
 4.83358e-88
 3.47328e-88
 3.20653e-88
-3.95744e-88
 -1.6847e-88
-1.26793e-88
 4.06935e-88
 1.87123e-88
 5.33312e-89
-3.51106e-88
 3.92733e-88
 1.76987e-88
-2.85764e-88
 2.25378e-89
-1.76899e-88
 5.69759e-89
 1.06928e-89
 2.66055e-88
 2.41876e-89
 4.55853e-88
 4.37594e-88
 3.05635e-88
 -9.6753e-89
 5.81941e-89
 3.50918e-88
 3.50892e-88
-4.82475e-88
-1.67076e-88
-2.01766e-88
-2.95403e-88
 -3.9253e-88
-2.24156e-88
-4.53823e-88
 4.33773e-88
 -1.1425e-88
-1.16643e-88
-1.98768e-88
-2.13063e-88
-4.35268e-88
 3.60213e-88
-5.85198e-89
 4.63115e-88
 3.14518e-89
 1.61366e-88
-2.00956e-89
 3.60202e-88
-2.87406e-88
 4.96247e-88
 1.20509e-88
 2.42431e-88
 4.46352e-88
 5.23554e-89
 4.23183e-89
-1.56149e-88
-3.95199e-88
-1.12512e-88
-3.11005e-88
-3.72024e-88
 2.26062e-88
-7.12102e-90
-1.61777e-88
 3.39181e-88
 2.74373e-88
 -1.0995e-88
 2.67206e-88
-3.45626e-88
 2.79057e-88
 -4.3731e-88
-5.30392e-89
 3.49439e-88
 4.28553e-88
 3.94091e-88
 3.06805e-88
-4.57434e-89
 4.97089e-89
-2.19038e-88
-1.91289e-88
 2.67953e-88
 -2.2854e-88
 4.34869e-88
 4.63596e-90
-2.87936e-88
-1.85233e-89
-4.58794e-88
 6.15649e-89
 9.19278e-89
-6.56557e-89
  2.5621e-88
 2.25554e-88
-3.45342e-88
-2.56659e-88
-4.41971e-88
 4.99489e-88
-4.88035e-88
-4.62714e-89
 2.60947e-88
-3.28011e-88
-2.72963e-88
 3.29287e-88
   1.246e-88
-4.29272e-88
 2.52092e-88
 1.29424e-89
 3.83183e-88
-2.99399e-88
-4.43097e-88
-3.41604e-88
 1.49608e-89
 3.30506e-88
-6.44938e-89
-5.59178e-89
-1.70607e-88
  1.5322e-88
 4.31208e-88
-1.23751e-88
-2.90963e-88
 1.73882e-89
 3.16243e-88
 4.70897e-88
-2.62806e-88
 4.76551e-88
-2.91511e-88
-1.99128e-88
 4.70293e-88
-2.73895e-88
 2.60251e-88
 2.25492e-88
-9.62565e-89
 4.92938e-88
 4.90314e-89
-4.77405e-88
-4.42083e-88
-2.04624e-88
 4.11872e-89
  4.4675e-88
  1.6259e-90
  1.0374e-88
-4.00602e-88
-4.89161e-88
-7.15024e-89
 4.05537e-89
-3.94294e-89
 2.63541e-88
-3.11974e-88
-1.13969e-88
-3.65958e-88
-9.72876e-89
 4.09069e-88
 4.55935e-88
-1.32139e-88
-3.59485e-88
 4.26738e-88
 8.19999e-89
-5.29631e-89
 3.91283e-88
 3.13754e-88
 -2.9846e-88
 1.11027e-88
 -2.8825e-88
-3.11271e-88
-3.45689e-88
-2.60006e-88
-2.47704e-88
-4.46641e-89
 2.86831e-88
-3.06702e-88
 4.62611e-88
-1.15177e-88
-2.01654e-88
   4.791e-88
 3.18971e-88
 3.44549e-88
-6.60776e-89
 7.67634e-89
-4.73173e-88
 3.25603e-88
 2.16455e-88
-6.48113e-89
 2.28924e-88
 1.66642e-88
 3.08699e-88
 3.75088e-88
 8.76326e-89
-1.15049e-88
-1.83623e-88
-2.68323e-89
-3.07043e-88
 2.35667e-89
-4.21553e-88
-8.96436e-89
 2.17946e-88
-2.61593e-88
    1.56e-88
 4.75892e-88
 1.99393e-88
-6.29163e-89
-3.36558e-88
 1.56256e-88
 3.27557e-88
-3.25633e-89
 1.29608e-88
 1.40779e-88
-1.93762e-88
-4.42218e-88
-2.88205e-88
-1.61286e-88
 3.89035e-88
   4.339e-88
 2.79552e-88
 1.12211e-88
 9.47938e-89
 8.25034e-89
-1.84485e-89
-3.23322e-88
 4.73104e-88
 3.03578e-88
 1.55496e-88
-3.39687e-88
-1.78603e-88
 2.39592e-88
 7.63193e-89
-4.66405e-88
 4.83649e-88
-2.73428e-88
-4.96262e-88
 1.77294e-88
 1.69305e-88
-3.27171e-88
-1.72198e-88
-8.88619e-90
 1.45916e-88
  4.6306e-88
-3.73855e-88
 4.57803e-88
-4.84906e-88
 -1.5641e-88
-2.09231e-88
 4.09779e-88
-2.28259e-88
-4.35427e-88
 1.62421e-89
 3.72185e-88
 1.52726e-88
 5.03443e-88
-4.56885e-88
 1.20082e-88
 3.01274e-88
 2.04261e-88
 2.86045e-88
-3.83077e-88
-6.18951e-89
-1.43384e-88
-3.43833e-88
-8.39939e-89
 8.88378e-89
-3.34445e-88
-4.12448e-88
-2.47605e-88
-1.55966e-88
 -7.8996e-89
 2.49158e-88
   4.956e-88
-1.21684e-88
 3.80953e-88
 4.47655e-88
 -1.0094e-88
-2.81205e-88
-2.67325e-88
-1.96909e-88
-3.81412e-90
-1.97102e-88
 3.24983e-88
-1.37377e-88
 4.61274e-88
 3.22678e-88
-8.86125e-89
 7.56082e-89
 1.18204e-88
  -3.901e-88
-1.44095e-88
 2.40776e-88
 5.36547e-89
 2.18172e-88
 4.02593e-88
  4.7531e-88
-1.98739e-88
  -4.376e-88
-4.42885e-88
 5.93059e-89
 -8.7916e-89
-1.62317e-89
-1.97284e-88
-9.80644e-89
 3.67734e-88
-3.22079e-88
-1.56158e-88
-2.38954e-88
-9.76341e-89
 8.21672e-89
 6.97865e-89
 8.00209e-09
  5.4392e-09
-1.10979e-88
 2.52709e-08
 1.44484e-09
-2.94049e-88
 1.78113e-88
-8.38988e-89
 3.29805e-88
 1.36997e-08
 2.77656e-88
-3.74458e-81
 -1.5843e-88
-9.92011e-90
   1.372e-08
 1.78484e-09
 1.41715e-44
 1.17262e-09
-1.26101e-88
 -1.4945e-88
  1.4496e-08
  8.6001e-09
 1.67665e-08
-1.56351e-88
-1.79912e-08
 3.42486e-88
-2.35231e-08
-2.78546e-21
 1.10425e-08
 4.65931e-09
 5.60257e-89
 4.69522e-10
-6.09311e-51
 1.79115e-08
-9.57171e-89
-3.62736e-09
-3.49091e-88
-2.50617e-08
 2.21104e-09
 4.86363e-88
 3.75962e-88
-3.11321e-88
-1.24082e-08
-1.99978e-08
 1.84409e-88
-4.96997e-09
   6.221e-50
-2.43483e-89
 2.21105e-09
 3.56216e-09
  3.3185e-88
-6.37289e-89
-1.10887e-08
-1.49833e-89
 1.15926e-08
-1.47702e-89
 1.95419e-09
 1.51604e-89
-2.85222e-89
 6.65076e-89
  2.9037e-88
-4.78236e-88
 2.09714e-88
 8.62119e-50
 4.78119e-88
-3.91751e-88
-6.60724e-10
-4.71672e-09
 2.26451e-08
-1.37761e-88
 1.05086e-08
 -4.3924e-88
 5.65683e-89
 1.82062e-09
-2.21808e-88
-2.64771e-88
  1.6202e-88
 3.12407e-88
  2.1653e-88
 5.22108e-09
 4.84758e-08
 1.15073e-08
 1.77146e-88
 1.11691e-08
-4.78099e-88
-5.74947e-12
 4.65578e-88
 1.25266e-08
 2.30657e-08
-6.86921e-89
 4.21463e-88
-7.08601e-19
-4.12782e-89
 1.24931e-09
 2.49396e-88
 5.80473e-09
 1.68338e-08
 2.71175e-10
 2.16015e-10
 4.35525e-88
 1.06489e-08
 1.69567e-88
 1.26502e-08
 1.13574e-88
 9.59661e-09
-2.25621e-88
-2.25912e-09
 4.68793e-08
-4.18963e-88
 1.28393e-08
 -3.2624e-88
 2.79807e-88
 7.80812e-09
 1.89685e-08
-2.29593e-88
 1.50918e-10
-1.50027e-88
-2.69763e-88
-2.80852e-08
 5.89641e-09
 1.67195e-88
-9.96599e-89
 6.44871e-10
 1.30801e-68
 8.14675e-09
 4.18095e-88
 5.69113e-89
 3.13341e-09
 1.07211e-88
-3.88814e-88
 1.94775e-88
 1.27317e-08
   1.662e-08
 1.90961e-88
 5.34559e-09
-4.00533e-88
 4.70989e-88
-3.79253e-88
-7.45293e-10
-4.53721e-88
 1.91632e-88
 1.16374e-09
 1.81418e-08
-5.48342e-09
-1.05936e-08
-3.81953e-88
 4.62217e-09
 4.92606e-11
 -5.4677e-09
-8.64009e-89
-7.56963e-09
  3.8462e-10
 3.19589e-88
 1.94941e-09
-3.58805e-88
  3.4526e-88
-1.38266e-09
 5.35969e-09
 2.99047e-10
 2.04177e-09
 3.20592e-88
 1.04704e-09
-3.23134e-88
 1.01247e-88
 2.52168e-08
-4.54414e-89
 2.06363e-88
 4.42953e-09
-8.87823e-09
 -3.3017e-09
-3.92854e-09
 -2.3316e-88
-4.53925e-88
 3.54954e-88
-4.39507e-88
 5.33236e-09
 4.78647e-88
 5.00864e-88
-7.61115e-09
-1.73171e-88
-1.27609e-08
-3.60282e-89
 5.07786e-09
-1.36407e-09
 1.51429e-09
 4.72907e-09
-4.37932e-88
 2.39895e-09
-5.51901e-09
 4.69801e-88
-4.73177e-09
-1.63853e-08
 1.49741e-09
-4.30837e-88
 2.21213e-09
 4.55814e-88
 1.15486e-08
 2.22127e-09
 4.05455e-88
-3.95421e-88
-4.93094e-05
-3.94946e-05
-1.22932e-88
-1.89636e-05
 4.97936e-05
-5.67889e-89
-1.78956e-88
  2.2913e-88
 0.000101507
-1.42462e-05
-4.49789e-88
 4.18691e-05
 7.39541e-05
 -9.6284e-89
-7.16026e-05
 3.44629e-05
 4.88715e-05
   -7.51e-06
-2.44533e-88
-4.08969e-88
 4.83307e-05
-2.82322e-06
 -1.4935e-05
 2.80762e-88
-7.31134e-08
 2.24325e-88
-1.47577e-05
 4.01382e-06
 9.05631e-06
-1.06914e-05
-5.14084e-06
-3.98401e-07
-2.47614e-50
-1.65907e-05
-2.00279e-88
-2.86368e-05
 1.87998e-88
-1.58737e-05
-1.76617e-06
-3.79422e-88
 8.11922e-89
 1.14168e-05
-5.04248e-08
 -2.2465e-05
-2.90971e-89
 3.36434e-07
 1.59853e-05
-1.30779e-88
-2.91884e-06
-3.24188e-06
-3.41035e-89
-6.76595e-88
-1.56924e-05
 7.57737e-89
 9.92774e-06
 1.83812e-89
-1.21125e-05
 6.38016e-90
-2.29778e-88
-1.66358e-88
-3.68833e-88
-3.67709e-88
-1.98901e-89
 3.81115e-05
-1.22921e-88
  2.8548e-88
-2.68507e-09
 8.00023e-05
-1.86883e-05
   4.679e-88
-8.63222e-06
 4.92985e-88
 -4.7631e-88
-8.23525e-06
 4.92825e-88
 2.42215e-91
-2.92949e-88
 3.74125e-88
 3.75113e-88
-2.46713e-05
 -3.9824e-05
-2.60265e-05
 -1.0122e-88
 -9.1839e-06
-1.02248e-05
-1.36843e-06
 3.24979e-88
 4.17407e-05
 7.68337e-05
-4.10547e-88
  4.4579e-89
 1.61955e-05
-2.72606e-88
 2.65398e-05
-1.39391e-89
 2.61014e-06
 7.07509e-06
-1.68222e-06
 2.93727e-07
-2.89531e-88
-8.84542e-06
 3.66308e-88
-7.86932e-05
-7.16214e-89
-3.18315e-06
-3.15217e-88
-8.81182e-06
-3.85287e-05
-4.46841e-88
 1.19277e-05
 1.35881e-88
-5.24036e-88
-3.85698e-05
 6.33499e-05
-1.29458e-88
-2.47253e-06
-2.91104e-88
-3.10226e-88
-1.14133e-07
-4.81388e-06
-2.15123e-88
-1.01796e-06
 1.29702e-05
 2.02051e-05
  -4.945e-05
-3.01347e-88
-3.77704e-88
-4.20377e-06
 1.41189e-88
-3.50128e-06
 3.50283e-88
-7.77319e-05
-1.52157e-05
-4.57759e-88
 -7.1106e-06
 1.88545e-88
-2.67327e-88
-1.02969e-88
-2.29166e-05
-2.08518e-88
-3.05082e-88
-4.26205e-06
-1.09093e-05
-2.22837e-08
-3.20139e-05
 2.40454e-88
-2.99053e-05
-3.88656e-06
-2.22198e-08
 1.44123e-88
 4.74429e-07
-8.09631e-06
 8.19684e-06
 2.63324e-06
 2.35389e-88
-2.32281e-88
-1.63828e-06
-1.72804e-06
 1.38811e-07
-1.72908e-05
 1.60633e-88
  1.8324e-05
-2.06949e-88
-1.81508e-88
 8.42796e-05
 2.67209e-88
-4.98711e-88
-3.05275e-06
-3.60796e-08
-3.75287e-06
 2.34662e-05
 2.12464e-05
-1.63088e-89
 1.90739e-88
 6.60081e-05
-3.17802e-05
 -7.7742e-89
-4.21785e-06
 5.45592e-05
  -1.508e-88
-1.30237e-05
 7.47371e-89
 2.93898e-05
-5.84381e-08
-2.02734e-06
  6.3647e-06
-6.28528e-89
-8.69192e-06
 3.95109e-05
-5.92433e-06
  2.8863e-07
-1.93701e-05
 1.24096e-06
 -3.4883e-88
 1.36941e-06
 3.90859e-88
 -1.0552e-05
-1.71466e-05
 4.23402e-88
-4.23226e-88
 2.78757e-06
 1.79255e-06
-5.85162e-89
 8.18711e-06
 6.14733e-07
-3.65838e-88
  1.3105e-88
-1.45413e-88
-3.37465e-07
  4.0515e-06
 2.09406e-88
-3.47426e-06
-2.45214e-07
-2.29674e-88
  7.9367e-06
 2.09862e-06
-6.82655e-07
 3.98095e-07
 -1.9553e-07
 2.31833e-88
 4.50005e-06
 2.78453e-06
 5.83846e-07
 4.83802e-88
-5.72452e-06
 1.84836e-88
-8.64158e-06
-1.19635e-06
  5.1283e-06
  1.8551e-06
-5.90808e-06
 1.45012e-07
-1.32978e-07
 3.94796e-06
-8.66629e-07
-3.07837e-07
-2.35858e-88
-9.19357e-06
 7.21898e-07
-6.91264e-08
 9.02128e-89
-6.98363e-07
-2.51887e-06
-7.88295e-06
-2.05398e-88
-4.30086e-07
 2.20123e-06
 3.72538e-88
 5.93402e-07
 2.34951e-09
 9.86221e-89
-1.48723e-07
-4.85725e-06
-3.60862e-88
 5.77317e-06
 1.23774e-88
 6.83993e-07
  3.2099e-88
-2.75803e-88
 1.54223e-88
 1.01798e-88
 4.18442e-88
 5.17069e-89
 3.35623e-06
-4.62976e-88
 -4.9998e-88
 1.95582e-07
-5.38841e-07
 7.39717e-06
 4.11129e-88
 3.77169e-06
 1.80893e-88
 4.35247e-88
 1.03241e-06
-1.54687e-88
-2.75926e-88
 2.64225e-88
-4.22844e-88
-4.09136e-88
 1.42351e-06
 1.73968e-05
 4.56804e-06
 3.25116e-88
 4.00973e-06
 1.68244e-06
-6.51379e-07
-4.58373e-88
 3.88581e-06
 7.16735e-06
-2.28526e-88
-1.87727e-88
-1.97429e-06
-3.15929e-88
 1.80318e-06
 3.24047e-88
  1.0522e-06
 3.12536e-06
 9.38922e-08
 1.56819e-08
-1.05935e-07
 3.46804e-06
-1.68243e-88
 4.39559e-06
-2.56706e-88
 3.10866e-06
 4.91972e-88
-4.00401e-07
 1.68274e-05
-4.36676e-88
 5.59415e-06
-3.38843e-88
-3.35398e-07
 3.82193e-06
 5.89283e-06
 4.85998e-88
 3.27073e-07
 2.63368e-88
-4.78123e-88
-8.92902e-06
 3.88912e-09
   -2.01e-88
-8.48109e-07
 8.58388e-07
-7.86292e-07
 2.97317e-06
-1.37512e-88
 2.21308e-88
 8.41627e-07
 2.76515e-88
-5.47419e-06
 2.74131e-88
 4.54602e-06
 1.09621e-08
-9.04918e-89
 1.43911e-06
-3.56142e-88
-1.04268e-88
 3.12447e-88
 7.47342e-07
-3.52376e-89
-1.23769e-88
 6.67553e-07
 5.61276e-06
-9.16494e-07
-1.87366e-06
-5.03973e-88
 1.55843e-06
-1.44002e-06
-1.11082e-06
-3.65883e-90
 -6.6201e-07
 6.43356e-07
 4.84912e-07
 1.40911e-07
 3.22655e-88
 9.65956e-90
-6.34233e-07
 1.72662e-06
 5.36711e-08
 1.63089e-06
 2.98878e-88
 1.07589e-06
-2.97191e-91
-1.14743e-88
 7.82233e-06
 3.39132e-88
  3.4765e-89
 1.37791e-06
-1.80461e-06
-1.04881e-06
-1.21055e-07
 1.27123e-06
  1.3211e-88
 -1.5231e-07
-2.15958e-07
 1.41396e-06
-1.15179e-88
 5.52158e-07
-9.19528e-07
-8.61849e-89
-4.63295e-06
-1.47894e-88
 1.68549e-06
-8.38032e-07
 4.04057e-07
 3.38799e-07
 4.79174e-88
 1.39149e-06
-6.66385e-07
 7.80337e-07
-4.12173e-07
-7.67489e-06
 7.00833e-07
-3.30906e-88
 1.37899e-06
 3.90077e-88
 7.61714e-09
 1.66844e-06
  2.8708e-88
  1.5396e-88
 3.96483e-06
 2.58955e-06
 1.75925e-88
  1.1101e-05
 6.99143e-07
-1.67057e-88
 1.98185e-88
 4.22422e-88
-8.11456e-07
 5.48322e-06
-1.69393e-88
-5.20138e-06
 -5.8963e-07
-4.27294e-88
 1.05189e-05
 2.64376e-06
-7.94417e-07
 5.68965e-07
-4.70924e-07
 2.45982e-88
  6.0353e-06
 3.72893e-06
 6.66176e-07
 2.45124e-88
 -7.7566e-06
   4.286e-88
-1.15149e-05
-1.39241e-06
 6.81212e-06
 2.50801e-06
-6.87704e-06
 1.97362e-07
-3.20274e-07
 4.60872e-06
-2.08726e-06
-3.54957e-07
-4.26336e-88
-1.22488e-05
 9.80069e-07
-1.66523e-07
-4.80978e-88
-1.03332e-06
-3.68342e-06
-1.04949e-05
 -8.3169e-89
-5.03532e-07
 2.56256e-06
-4.45807e-88
 7.99119e-07
 2.58653e-88
 3.05825e-88
-3.58496e-07
-6.42983e-06
-5.80849e-89
 7.65046e-06
-2.93831e-88
  9.7281e-07
-1.81301e-88
   1.285e-88
-3.96602e-88
 2.35126e-88
 1.99043e-88
 1.69191e-88
 3.90681e-06
-6.02361e-89
  1.7711e-88
 2.91782e-07
-1.29065e-06
 1.00511e-05
-1.11578e-88
 5.09738e-06
-9.78638e-89
 2.32197e-88
 1.41774e-06
-4.02239e-88
-3.56784e-88
-2.07202e-88
-4.03029e-88
-2.96941e-88
 2.03963e-06
 2.35117e-05
 6.17549e-06
 3.41882e-88
  5.4192e-06
 1.95675e-06
-7.58294e-07
 1.75961e-88
  5.2124e-06
 9.61588e-06
-2.01287e-88
 4.30166e-88
-2.29626e-06
 5.03175e-88
 2.25953e-06
 3.79371e-88
 1.53219e-06
 4.53539e-06
  1.3371e-07
  3.7355e-08
  -2.552e-07
 4.71639e-06
-2.15801e-88
 6.25621e-06
-1.26194e-88
 4.16283e-06
-3.52396e-88
-5.33486e-07
 2.27427e-05
 -2.4991e-88
 7.44657e-06
  -2.667e-88
-8.08481e-07
 5.17281e-06
 7.90345e-06
-1.19205e-88
  4.1983e-07
 1.06208e-88
-4.48992e-88
-1.20933e-05
 1.12804e-31
-1.44629e-88
-9.87249e-07
 1.07576e-06
-1.08075e-06
 4.20453e-06
 4.20056e-88
 2.96099e-88
 1.13441e-06
-3.32525e-88
-6.36672e-06
-6.28777e-89
 6.44812e-06
 4.78032e-47
-1.27554e-89
 1.93867e-06
-4.14816e-88
 1.40498e-88
 2.17522e-88
 1.09385e-06
 3.96373e-88
-5.68446e-89
  9.1671e-07
 7.58794e-06
-2.12931e-06
-2.48986e-06
-3.11898e-88
 2.23061e-06
-1.67637e-06
-1.62459e-06
-1.25514e-88
-7.75015e-07
 9.32819e-07
 6.58319e-07
 3.35637e-07
  4.6443e-88
 3.34859e-88
-8.36022e-07
 2.31233e-06
 7.83646e-08
 2.13871e-06
 1.88303e-90
 1.35136e-06
 2.58046e-88
 3.81335e-89
 1.04911e-05
 4.52896e-88
 1.28967e-88
 1.86765e-06
-2.63928e-06
-1.38766e-06
-2.86422e-07
 1.72945e-06
 2.43547e-88
-3.66918e-07
-5.19276e-07
 2.06079e-06
-4.25458e-88
 6.43098e-07
-1.98885e-06
-1.75543e-88
-5.39832e-06
 1.55894e-88
 2.28604e-06
-9.73636e-07
 5.44794e-07
 8.07775e-07
-3.32162e-88
 1.91451e-06
-1.44134e-06
 9.08854e-07
-4.82535e-07
-1.01195e-05
 9.30823e-07
 4.68555e-88
 1.81032e-06
  -9.928e-89
 4.15748e-88
 2.19129e-06
  8.9292e-89
 7.46252e-89
 6.14421e-06
 4.20744e-06
 1.82352e-88
 1.51334e-05
 3.54435e-07
 4.73304e-88
 1.06703e-88
 1.35164e-88
-3.26038e-07
 7.23386e-06
 4.65713e-88
-1.05017e-05
-2.36585e-07
 3.96289e-88
 1.19505e-05
 2.66918e-06
-9.45091e-07
 8.96908e-07
-2.10821e-06
-7.61595e-89
 7.94589e-06
 4.82655e-06
 9.41126e-06
   3.226e-88
-1.90126e-06
-2.52831e-88
 -1.4427e-05
-1.00411e-06
  8.2974e-06
 3.37638e-06
-1.02231e-05
 2.67758e-07
-1.43005e-06
 1.08113e-05
-9.35233e-06
  -7.303e-07
-3.20862e-88
-1.53221e-05
 1.34047e-06
-6.33606e-07
-4.00274e-88
-3.23346e-07
-1.14684e-06
-1.31216e-05
 1.57494e-89
-2.42503e-06
  5.8686e-07
-2.04452e-88
 1.02227e-06
 2.04447e-06
 2.25035e-88
-1.39757e-06
-7.86427e-06
-2.11402e-88
 9.17581e-06
 3.34122e-88
 1.50622e-06
 1.42622e-88
 2.94474e-88
-4.04687e-88
-5.06092e-89
-1.76297e-88
-4.71582e-88
 8.50829e-07
 4.09346e-89
 -4.2147e-88
 2.74117e-07
-5.51367e-06
 1.37987e-05
 1.20005e-88
 6.70025e-06
  3.4637e-88
-2.60633e-88
 2.12785e-06
-4.55115e-88
 2.60746e-88
-3.64568e-89
 3.69506e-88
-4.49454e-88
 3.35935e-06
 3.08913e-05
 8.31444e-06
 2.04241e-88
 7.12182e-06
 2.10305e-07
-7.11217e-07
-3.33756e-88
 6.88591e-06
 1.26863e-05
 4.66368e-88
 2.12109e-88
-7.65441e-06
-2.15745e-88
 2.05767e-06
-3.65654e-88
 2.96749e-06
 8.68607e-06
 2.07926e-07
 1.61453e-07
-9.73869e-07
 6.50978e-06
-4.23251e-88
 9.71489e-06
 4.59524e-88
 5.37398e-06
 -4.3323e-89
-7.91693e-07
 2.98884e-05
-1.79605e-88
 9.18128e-06
 1.45585e-88
-3.15709e-06
 6.91771e-06
 1.04057e-05
  -2.819e-88
 6.45518e-07
-3.23836e-89
-1.10006e-88
-2.96319e-06
 3.40562e-06
-1.49387e-88
-1.26968e-06
 1.02558e-06
-1.56037e-06
 6.37265e-06
 8.34785e-89
-3.42532e-89
 1.46646e-06
 1.77941e-88
-9.25254e-06
-4.36018e-88
 9.87901e-06
 9.46989e-06
-2.41431e-89
 2.49243e-06
-3.26376e-88
 4.38187e-88
-4.50553e-88
 1.73098e-06
 -2.4713e-88
 3.25815e-88
  1.3784e-06
 1.03774e-05
-9.40536e-06
-3.59354e-06
 -1.4304e-88
  3.5295e-06
-1.05281e-06
-5.05713e-07
-2.96568e-88
-3.70267e-06
 1.66022e-06
 1.41764e-07
 1.45361e-06
 2.43595e-88
 3.21943e-88
-9.67282e-07
 2.99527e-06
 1.53746e-07
 2.25111e-06
-2.79768e-88
 1.33762e-06
 5.27445e-92
-1.80947e-88
 1.38135e-05
 3.46376e-88
-1.67355e-90
 2.58777e-06
-8.21695e-07
-1.69625e-06
-1.26484e-06
 3.72102e-07
 8.43875e-89
-1.40109e-06
-2.07495e-07
 3.53534e-06
 5.22662e-89
 1.85995e-07
-8.36114e-06
-2.01128e-88
-7.82149e-06
  3.8553e-88
 3.18478e-06
-1.62279e-06
 7.05152e-07
 3.50241e-06
-2.68136e-88
 2.87613e-06
-6.05989e-06
  2.6233e-07
-2.31146e-06
-1.17017e-05
 1.13396e-06
 2.85432e-88
 2.02409e-06
 3.19147e-88
 6.65474e-06
 2.32731e-06
 1.17295e-88
 2.17835e-89
 5.43977e-06
 3.73017e-06
-2.62426e-88
  1.3666e-05
 3.54723e-07
-1.74717e-88
-1.07926e-89
-8.41019e-89
-4.73149e-09
 6.45762e-06
 2.20558e-88
-1.02702e-05
-1.98702e-09
-3.83171e-88
 1.02556e-05
 2.37902e-06
-8.70465e-07
 7.95012e-07
-1.99309e-06
 1.17103e-88
  7.2325e-06
 4.35935e-06
 1.01491e-05
 3.32584e-88
-1.46684e-08
-4.19925e-88
-1.29854e-05
-7.88226e-07
 7.33394e-06
 3.03467e-06
-9.51935e-06
 2.40155e-07
-1.35119e-06
 1.11977e-05
-8.83927e-06
-8.74975e-07
 2.54752e-89
-1.37876e-05
 1.21002e-06
-5.77323e-07
 2.39099e-88
 4.37094e-88
-3.11454e-08
 -1.1738e-05
-4.51785e-88
-2.59078e-06
 2.42304e-88
-1.83791e-88
 9.08819e-07
 2.22165e-06
 4.38961e-88
-1.24758e-06
 -7.0046e-06
-3.80549e-88
 8.07392e-06
 2.45871e-88
 1.33337e-06
 -1.4271e-88
-3.24593e-88
 1.88715e-88
 1.20471e-88
-3.67624e-88
 2.80059e-88
 7.13438e-88
-1.67432e-88
-4.42162e-88
 2.01035e-07
-5.09776e-06
 1.24588e-05
 6.34692e-89
 6.01336e-06
 7.52546e-89
-5.14348e-90
  1.9392e-06
-3.50883e-88
 4.87194e-89
-4.48874e-88
-1.93686e-88
 3.70578e-88
 3.02599e-06
 2.77216e-05
  7.4739e-06
 4.52315e-88
 6.39147e-06
 4.28892e-88
-5.85327e-07
 3.90093e-88
 6.27206e-06
 1.15523e-05
-4.40248e-88
 3.22684e-88
-8.10118e-06
-3.02223e-88
 1.90058e-06
-3.12599e-88
 2.77866e-06
 8.12518e-06
 1.84121e-07
 1.55298e-07
-8.86915e-07
 5.88169e-06
-3.27646e-88
  8.6016e-06
 9.81703e-89
 4.85042e-06
-2.79091e-88
-7.64945e-07
  2.6823e-05
 3.28724e-89
 8.14824e-06
 1.69744e-88
-2.81827e-06
 6.15309e-06
 9.47138e-06
 3.90416e-88
 6.24144e-07
-2.25816e-88
 2.74761e-88
 -2.2967e-08
 3.70077e-06
 3.40163e-88
-1.14476e-06
 9.06773e-07
-1.39385e-06
 5.63044e-06
-3.76419e-88
 7.38361e-89
   1.307e-06
 1.69176e-88
-9.32053e-06
-6.22615e-89
 8.73805e-06
 1.02906e-05
 9.53074e-90
 2.21839e-06
 1.96552e-88
 2.36089e-88
 1.17046e-89
 1.46615e-06
-2.36786e-88
 2.33256e-89
 1.25675e-06
 9.41791e-06
-8.82489e-06
-3.44726e-06
 3.99884e-88
  3.1287e-06
 -7.3664e-07
-1.37061e-08
 4.43972e-88
-3.95501e-06
  1.5037e-06
 4.65583e-09
 1.39783e-06
 4.09955e-89
 4.14044e-88
-8.56807e-07
 2.70581e-06
 1.44199e-07
 1.89085e-06
-4.23239e-88
 1.18339e-06
 1.60469e-88
-2.77558e-88
 1.25737e-05
-4.80365e-88
 4.24644e-88
 2.34944e-06
-2.22332e-08
-1.52524e-06
-1.29165e-06
 1.20848e-08
-3.14556e-88
-1.27616e-06
-1.77339e-09
 3.17669e-06
  2.0481e-88
-3.55041e-89
 -8.0347e-06
-1.32198e-88
-7.76172e-06
 2.93135e-88
 2.93414e-06
-1.66054e-06
 6.28584e-07
 3.36845e-06
 4.44508e-88
 2.61665e-06
-5.82333e-06
 1.48901e-84
-2.46914e-06
-1.03604e-05
 1.00224e-06
 1.55705e-88
 1.74547e-06
 3.83262e-88
 7.23149e-06
 1.96044e-06
-8.98279e-89
 -2.8777e-88
-8.21073e-07
-6.32334e-07
-2.27554e-88
 1.25253e-06
-7.97983e-07
 1.71301e-88
 4.39828e-88
 2.21489e-88
-3.69795e-88
 1.95191e-06
-4.16457e-88
 -1.0463e-06
-1.44537e-88
 4.65798e-88
-1.41098e-06
-1.56288e-06
-1.98794e-11
-1.23163e-07
-1.54574e-88
 4.04139e-88
-2.16114e-07
-3.18159e-07
 7.11031e-07
-1.22941e-88
 5.35237e-07
-1.61272e-88
-7.94001e-07
  7.4685e-07
-8.69598e-07
 3.07315e-07
 2.17354e-06
  6.3041e-08
  3.8199e-88
 6.69203e-07
-2.73477e-88
 4.23646e-07
 3.38785e-88
-8.45295e-07
 1.18047e-07
  4.7464e-88
 2.34328e-88
 1.45125e-06
-8.26676e-07
-6.33294e-07
 1.63653e-88
-1.62587e-07
-5.53062e-07
-4.70192e-88
 5.29342e-07
-1.15778e-07
 4.39596e-88
 5.65547e-88
-4.00668e-07
-5.87642e-89
-1.13394e-06
 -4.8988e-88
 -2.0173e-07
 1.79735e-89
 1.93027e-88
 3.80226e-88
-3.17381e-88
 8.24158e-89
 4.48072e-88
-7.87099e-07
   2.499e-88
-3.31153e-88
 7.48721e-07
-9.35463e-07
 1.30245e-06
 7.18418e-89
-1.38986e-07
 -4.3632e-88
-2.30303e-88
 1.14772e-06
-3.46627e-88
    4.39e-88
-3.69573e-88
-1.31159e-89
 4.74457e-88
 2.14277e-07
-6.44571e-07
 7.56995e-07
 1.01448e-88
-1.49721e-07
 2.17075e-06
 1.03935e-06
-3.04656e-88
-1.81086e-07
-3.30974e-07
 3.94021e-88
-5.01863e-88
-6.94432e-07
-2.93112e-89
-1.41524e-06
 1.29854e-88
-2.85159e-88
-1.01084e-17
-2.79115e-08
  2.8065e-74
-4.42931e-89
 6.63777e-07
-1.50491e-88
-1.30645e-06
-7.12741e-89
-3.53631e-07
 1.84059e-88
 -3.1513e-07
-6.22459e-07
-3.34805e-88
-8.02848e-07
-2.40052e-88
 2.21321e-87
 5.55841e-07
-2.84512e-07
  1.6143e-89
 1.68563e-06
 2.26146e-88
 2.17137e-88
 7.67667e-07
-7.20856e-08
  1.0541e-88
 6.64338e-07
-6.71579e-07
-2.30922e-07
-8.21357e-07
-2.07428e-88
-2.09159e-88
 7.93594e-07
 3.85507e-88
 1.03093e-06
-2.67541e-88
-1.29196e-06
-4.49964e-07
 2.63145e-88
  1.2978e-06
 3.58194e-88
-5.85439e-89
 3.35141e-88
-5.43577e-07
 1.12301e-88
 -3.3992e-88
 7.46809e-07
 8.44812e-07
 1.88251e-07
 1.13237e-06
 -4.0736e-89
-4.89004e-07
 2.72416e-06
-3.65292e-07
 1.93558e-88
-2.44573e-07
 1.74358e-06
  1.2516e-07
 2.78412e-73
 3.57713e-88
-4.40263e-88
-2.62346e-08
-1.97496e-07
-3.56943e-20
-5.20942e-07
-2.63023e-88
-7.56269e-07
 -2.7271e-88
 1.86307e-88
-3.77585e-07
 2.00454e-88
 3.87533e-89
 2.38605e-07
-5.94615e-07
 2.85304e-07
-2.80605e-12
 3.96167e-07
  9.9029e-89
 3.40171e-88
-4.11198e-88
-4.41444e-08
-2.06313e-88
 2.19438e-06
-8.17572e-07
-3.00105e-89
-4.20405e-07
 2.21349e-88
 3.03614e-07
-1.19347e-07
 3.89885e-07
-4.02081e-88
-2.67128e-88
  1.5622e-06
-5.92248e-07
 3.08514e-06
-1.53512e-07
-3.23044e-07
-1.20579e-07
 -2.5606e-89
 -3.9882e-07
 5.04228e-88
-3.79642e-07
-5.03945e-07
-2.22421e-88
 1.97809e-88
-8.76309e-06
-5.43011e-06
-1.12363e-88
 2.42295e-06
 7.57512e-06
-1.79119e-89
-1.33497e-88
 -1.9736e-88
-5.15221e-44
 2.40048e-88
 2.78279e-88
 1.78266e-06
-3.74874e-44
-4.81515e-88
-2.10123e-05
-8.96083e-06
 3.31798e-05
-1.21127e-06
 6.32003e-06
 -1.2592e-88
  1.5225e-05
 -2.6096e-89
-1.86643e-06
 4.74872e-88
-1.75363e-06
-4.67454e-88
-5.35192e-06
 9.31973e-06
-6.76773e-06
-3.86826e-06
 1.71942e-05
 6.74812e-79
  4.2281e-06
-2.71713e-06
 2.85256e-05
-2.39063e-05
  1.7681e-88
-5.66221e-06
   1.905e-07
 7.13817e-06
 -1.5109e-86
 7.10076e-06
 1.60717e-06
  5.1674e-06
 3.36208e-89
-2.54219e-06
 8.10209e-06
 1.61325e-88
 1.13548e-06
 1.34007e-88
-4.70343e-88
 1.59384e-05
 7.97559e-06
 4.04038e-88
-8.84253e-06
-4.56412e-88
-2.15757e-06
 3.00927e-89
-3.47037e-88
 1.88645e-88
 2.80924e-88
 4.65796e-88
-4.20683e-88
 7.04084e-06
 -3.5088e-88
 2.30324e-88
-1.17831e-05
 1.86125e-05
 4.26539e-06
-1.39589e-88
 -4.4282e-88
-1.18529e-89
 3.75546e-88
-1.09975e-05
 1.95508e-88
-9.65811e-89
 1.69018e-88
-4.15457e-88
-4.41004e-88
-2.00422e-06
 2.24383e-88
 -9.3433e-06
-4.64033e-88
 3.32038e-88
  5.0399e-88
 1.00954e-72
 3.81275e-88
 1.32495e-05
 2.43981e-05
 -4.7151e-88
 1.23372e-88
-2.70735e-06
 4.99935e-88
-7.18457e-06
-3.95834e-88
-3.56693e-88
-6.70857e-89
-2.90047e-07
 4.80535e-88
 1.12138e-05
 1.95618e-06
-4.70218e-88
-1.37678e-05
 4.74878e-88
 1.52816e-88
-1.47192e-88
-4.64989e-06
-1.83914e-88
-5.69991e-89
 -5.6364e-06
 2.70086e-88
 3.61867e-05
-1.78472e-05
 1.99489e-05
 4.99152e-88
 5.84958e-06
-8.99387e-89
  3.7468e-88
-2.68332e-06
-4.75341e-13
 4.08819e-88
 6.59306e-06
  -3.424e-06
 4.95378e-06
-9.97358e-06
 6.32558e-89
-4.59435e-88
 1.66981e-06
-2.03473e-88
 7.84669e-06
-9.62051e-89
-1.45968e-05
-1.03562e-66
-4.38905e-88
 2.76388e-06
 2.09249e-88
-8.04465e-89
 2.43187e-88
-1.03928e-05
 3.68204e-88
-3.25366e-88
-7.20375e-06
 1.66377e-85
 2.39381e-05
-4.03217e-05
-4.82675e-88
 -4.7083e-06
-4.94409e-88
 6.94174e-07
 2.22833e-88
-3.70645e-06
-2.03519e-05
-1.56385e-06
-4.96905e-88
 1.97984e-88
 1.12201e-88
 8.26934e-07
 2.44198e-88
 3.46744e-88
-5.25872e-06
 2.65199e-88
-4.44232e-06
-2.35712e-88
 3.21632e-88
 2.65588e-05
 1.34927e-88
 2.51332e-89
 9.54864e-45
 1.14682e-06
-3.76712e-06
-2.92543e-07
-4.46063e-06
-1.60055e-88
 1.61145e-05
-3.36435e-44
-2.23017e-06
 1.51741e-88
 2.66941e-89
-7.81506e-06
 4.36474e-89
 8.60218e-06
 7.76648e-90
 7.54374e-07
   -1.01e-06
  8.1795e-07
-4.69139e-88
 1.62456e-88
-1.59237e-05
-5.68222e-06
 5.60321e-88
-2.35618e-06
 1.10335e-05
-9.32192e-07
-2.78871e-88
-3.04399e-06
 -4.4032e-88
 3.61706e-88
-5.12576e-06
 3.02069e-88
-2.71676e-88
-2.47754e-06
-1.50822e-06
 2.86623e-88
 1.39627e-06
 2.38902e-06
-4.54795e-88
 2.18167e-88
 1.75924e-88
-1.68701e-44
 1.70531e-88
-2.86177e-88
 5.50291e-08
-1.22746e-44
 5.80979e-89
-6.03043e-06
-2.93408e-06
 1.05105e-05
-3.39627e-07
 1.94145e-06
-1.30432e-88
 5.18811e-06
 1.42721e-07
-6.11133e-07
 2.71896e-88
-1.06949e-06
-2.34328e-88
 -2.3306e-06
 2.88698e-06
-1.78878e-06
-1.09723e-06
 5.05666e-06
  1.0567e-75
 1.29798e-06
-8.89678e-07
 8.77101e-06
-7.63309e-06
 3.88403e-88
-2.46869e-06
 1.17408e-07
 2.25944e-06
-4.78591e-87
 2.18074e-06
 1.65914e-07
 1.07806e-06
 8.93302e-91
-9.37177e-07
 2.77383e-06
-4.10247e-88
 3.71796e-07
-1.11728e-88
-3.50289e-89
  5.0471e-06
 2.20216e-06
  -1.254e-88
 -2.4006e-06
-4.16515e-88
-6.10295e-07
-2.59383e-88
 4.11835e-88
 2.98323e-88
 3.79813e-88
  4.6276e-88
-1.23576e-88
 2.48976e-06
  2.9456e-88
 2.37218e-88
 -3.7782e-06
 5.60448e-06
 1.96862e-06
 1.85245e-88
 2.86235e-07
  4.8425e-89
 1.28041e-88
-3.46187e-06
-3.53814e-89
-3.76814e-88
 -9.4879e-90
-4.30226e-88
-2.81411e-88
-4.74546e-07
 1.32005e-06
-2.64372e-06
 2.58395e-88
 3.04261e-07
-4.41938e-88
-9.84468e-08
 1.80976e-88
 4.51305e-06
 8.31171e-06
  8.7063e-89
 2.20853e-90
-1.26229e-06
  4.4075e-89
-2.35247e-06
-3.14852e-88
 5.09552e-08
 1.54756e-07
 -8.1737e-08
-4.95645e-88
 3.55053e-06
 9.10825e-07
-3.67969e-88
-3.88856e-06
-4.54895e-89
 1.60084e-07
-6.66212e-89
-1.51084e-06
 1.27718e-06
 8.80206e-90
-1.39881e-06
 -3.8198e-88
 1.14595e-05
  -5.407e-06
 6.79785e-06
 6.42447e-89
 1.91535e-06
-4.61896e-88
-2.60527e-88
-1.64962e-06
-1.55642e-13
 3.32186e-88
 2.06235e-06
-1.12113e-06
  1.5036e-06
-2.85287e-06
 4.30378e-88
 2.09049e-88
 5.46752e-07
-4.34051e-88
 2.05774e-06
 1.81123e-88
-4.14641e-06
-3.39096e-67
 1.49884e-88
 9.04988e-07
-1.31161e-88
-4.22486e-88
 4.41575e-88
-3.15709e-06
 9.19661e-89
 2.43412e-88
-2.26844e-06
 3.46181e-07
 7.21501e-06
-1.30317e-05
-3.77133e-88
-1.31749e-06
-2.18213e-07
 6.83747e-08
-4.57985e-88
-1.37488e-06
-6.48165e-06
-4.80866e-07
 1.12133e-88
 7.05886e-89
-4.65436e-89
 2.22993e-07
 8.82479e-08
 2.57117e-09
-1.53855e-06
 4.98593e-88
-1.45457e-06
 6.42605e-90
  3.4958e-88
 9.04815e-06
 3.64654e-88
-2.87329e-88
 9.20422e-08
 1.17214e-07
-1.27954e-06
-9.57884e-08
  -1.377e-06
-4.09545e-88
 5.10219e-06
 -1.1016e-44
-5.31613e-07
-9.84255e-89
 7.41314e-90
-2.88289e-06
 2.75213e-88
 2.35057e-06
 2.72251e-88
 3.39178e-07
-4.03128e-07
 2.67824e-07
-5.28673e-74
 3.71067e-88
-5.01882e-06
-2.09524e-06
 1.03604e-87
-8.71822e-07
 3.02648e-06
-2.46687e-07
-4.75667e-88
-8.67797e-07
-4.97455e-88
 3.94637e-88
 -1.4933e-06
-3.74984e-88
  1.8937e-88
 2.23879e-06
 1.54159e-06
-2.78233e-88
 3.44522e-06
-5.21904e-07
 4.99921e-88
-4.72099e-88
 1.96371e-89
 5.00489e-89
 4.33245e-88
-2.10898e-88
-3.02099e-06
  1.9985e-88
-2.41357e-88
 4.85549e-06
-4.27364e-88
-2.02113e-06
 3.25619e-07
 -7.3111e-07
 1.18344e-88
 1.15959e-06
 8.15549e-07
 2.08724e-86
 4.84774e-88
-2.83024e-06
-4.24291e-88
-3.30397e-06
-9.40633e-07
 2.44115e-06
 9.67833e-07
 -3.2761e-06
 6.03703e-75
-4.93957e-07
-1.52851e-88
-3.25271e-06
 1.11221e-06
-1.58678e-88
-3.51251e-06
 3.14467e-07
 -4.4479e-07
 4.41773e-88
 -8.2448e-07
-2.05902e-06
-3.50815e-06
-3.57413e-88
 -5.9873e-07
 6.91051e-07
 4.52659e-88
-3.51108e-85
  2.0764e-88
  6.5255e-89
-9.80939e-07
-2.33898e-06
 4.96015e-88
 2.82707e-06
 2.72001e-88
 5.49521e-07
-4.88377e-88
-2.97637e-88
-4.83746e-88
-3.70491e-88
-1.72255e-88
 -6.3472e-89
 1.05345e-06
 1.80544e-88
-8.84944e-89
 4.57047e-07
-2.79938e-06
  3.2685e-06
 2.62643e-88
 1.63563e-06
-1.43941e-88
 1.46587e-88
 7.94769e-07
 4.97481e-88
 2.94824e-88
 6.80191e-89
 2.05791e-88
 2.41735e-88
  1.0383e-06
 7.54314e-06
 2.37483e-06
 1.59934e-88
 1.73864e-06
-2.08491e-88
-5.62553e-07
-1.01283e-88
 9.98398e-07
 1.84549e-06
  1.0673e-88
-1.14962e-88
-2.14748e-06
 4.40125e-88
 3.27216e-88
 4.34815e-88
 2.91173e-07
 8.84322e-07
  7.5624e-08
 1.36688e-88
-6.92756e-07
  1.5446e-06
 4.97271e-89
 3.53985e-06
  2.5101e-91
 9.14766e-07
-4.99299e-88
 6.68002e-08
 7.29817e-06
 2.12142e-88
 2.55279e-06
 1.84359e-88
-2.22421e-06
 2.49583e-06
 1.51956e-06
 2.52192e-88
-3.10235e-85
-4.77218e-88
-3.54839e-88
-4.40574e-06
 2.35689e-88
  2.5754e-88
-5.51116e-07
-1.88741e-79
-6.76758e-07
 2.35894e-06
 1.44334e-90
 -1.9891e-88
  1.2268e-89
 9.81926e-89
-2.92301e-06
 -4.0956e-88
 3.61761e-06
-1.25939e-89
-3.94943e-88
-3.83555e-82
 5.00586e-88
-3.88591e-88
-2.58664e-88
 1.40499e-06
 3.29201e-88
  -2.277e-88
 5.16075e-07
 1.97818e-06
-3.56069e-06
 9.76902e-07
 1.95373e-88
 1.28095e-06
-1.24693e-06
-9.08122e-07
-2.73824e-88
-9.21498e-07
 1.04137e-06
 1.78239e-07
-7.61781e-89
-2.15857e-88
 3.13823e-88
 -2.7299e-07
 5.04274e-07
 1.46924e-08
 1.04759e-06
 2.85617e-89
-2.75166e-61
 4.80846e-88
 -4.8978e-88
 2.01085e-06
 4.32855e-88
-4.94942e-88
 5.25955e-07
-1.47596e-06
-2.63164e-07
-1.07087e-88
 4.77495e-07
 3.35644e-88
-9.95637e-07
-4.49198e-88
 1.13497e-06
-4.74283e-88
-5.04752e-88
-1.85132e-06
 3.77549e-88
-2.66327e-06
 4.01728e-88
 5.26687e-07
-4.13839e-07
-1.67259e-50
-3.02099e-73
  4.4504e-88
 1.11515e-06
-1.34106e-06
 4.10911e-87
-5.73315e-07
-3.35004e-06
 3.34539e-07
 2.49036e-88
 7.36623e-07
 4.90293e-88
 1.76143e-88
  1.0574e-06
 5.40055e-89
 3.50236e-88
 4.86488e-88
 4.52568e-88
-2.09118e-88
 3.16384e-88
-2.17087e-88
-1.52667e-88
 2.39373e-88
 -1.8572e-88
 1.43208e-88
 2.83888e-88
-3.13919e-88
 -3.4049e-88
 1.79868e-88
 1.61506e-88
-2.09273e-88
 5.05319e-88
-8.46731e-89
-2.69981e-88
 -2.5548e-88
  2.6568e-88
-7.94346e-89
 -4.8729e-88
 1.38846e-88
 4.58457e-88
 2.67395e-88
 2.78819e-89
 4.43002e-88
-6.22097e-89
-7.23748e-89
-8.74049e-90
-2.17722e-88
-9.16351e-89
-6.19205e-89
 7.88097e-89
-2.80999e-88
 2.26642e-88
 4.31792e-88
 4.64024e-88
-4.64826e-88
 6.92517e-89
 2.42164e-88
-2.73095e-88
 2.34411e-88
-8.37166e-89
 3.94062e-88
 -4.8061e-88
-8.41454e-89
 -1.9636e-88
-2.44942e-88
 1.66024e-88
-4.36428e-88
 1.81273e-88
 1.84384e-88
 2.08068e-88
 1.33982e-88
 -5.3969e-89
-2.69798e-88
 7.12361e-89
 3.89471e-88
 1.63476e-88
-4.43252e-88
-3.33999e-88
-4.33907e-88
 4.76708e-91
 2.50461e-88
-2.09256e-88
-2.78629e-88
 1.76505e-88
-2.50981e-88
-2.37805e-88
-2.59991e-88
 4.96833e-88
-5.24971e-90
 4.80069e-88
-9.26318e-89
-1.16936e-88
 5.05109e-88
 3.28872e-88
 1.92354e-88
-2.45581e-88
-1.08514e-89
 2.61576e-88
 4.41342e-88
-3.32216e-88
-3.61046e-89
 6.95762e-89
 1.19465e-88
 1.99747e-88
-3.64936e-88
  3.1878e-90
-1.42525e-88
-3.02539e-88
 1.74839e-88
-7.07819e-89
 2.03588e-88
-8.04484e-89
 2.25611e-88
 4.30609e-88
-4.09691e-88
 4.80281e-88
-3.12944e-88
-1.64033e-88
 4.71365e-88
 1.87456e-88
-1.89712e-88
-1.27014e-88
-4.35229e-88
-1.90351e-88
 -3.0389e-88
 2.62775e-88
 6.97177e-89
 1.90908e-88
 1.86027e-89
 5.31186e-90
 3.64342e-88
 4.88148e-88
 -4.3086e-88
 -2.1941e-89
 1.82147e-88
-2.90146e-88
 4.86896e-88
-4.66126e-88
-8.70349e-89
 1.55987e-88
-3.12585e-89
-3.89195e-88
-4.30209e-88
-3.11395e-88
-4.64335e-88
-3.34251e-88
-3.36862e-88
-2.71629e-88
 7.36554e-90
-3.71245e-88
 4.21476e-88
 3.23303e-88
 7.39022e-90
 4.91897e-88
-3.72796e-88
  2.0915e-88
 2.48924e-88
 2.02572e-88
 -1.0569e-88
-2.38221e-88
-2.97865e-88
-2.47096e-88
-2.55821e-88
-2.23075e-88
 2.36613e-88
 4.31975e-88
-7.57129e-90
 2.17762e-88
 4.71498e-88
 4.11043e-88
-1.31999e-88
 -6.5508e-89
  -4.839e-88
-5.65585e-89
 1.28747e-88
-4.42584e-88
  1.1484e-88
 2.97534e-88
-2.08564e-88
-3.83542e-88
 4.31938e-88
-2.92836e-88
 4.45411e-88
-6.64194e-89
-3.06686e-88
-4.33133e-88
-3.63018e-88
 4.47888e-88
 2.75088e-88
 3.69424e-89
-2.96081e-88
 4.82873e-88
 2.95496e-88
-4.62527e-89
 -2.4595e-88
 2.63615e-89
-1.20026e-88
 2.52129e-88
-2.61625e-88
-1.54275e-88
 1.57424e-88
 1.12025e-88
 2.85867e-88
 1.79174e-88
-4.50281e-88
-9.11349e-89
 2.42239e-88
 1.70209e-88
-2.99349e-88
-4.72073e-88
 2.92316e-88
-3.73159e-88
-2.59259e-88
 2.31979e-88
 6.60714e-89
-6.02955e-89
 5.33691e-06
 3.56437e-06
-1.18156e-88
 7.43254e-06
-6.51517e-07
 9.14125e-89
 5.09608e-89
-4.70354e-88
-4.60685e-88
 3.46498e-06
 6.16575e-89
-1.51935e-06
 5.70413e-89
 3.05682e-88
  2.2484e-05
 1.34166e-06
-8.00237e-06
 7.61358e-07
 3.93541e-88
-3.26719e-89
 3.41653e-06
 2.50759e-06
 2.73925e-06
-3.34053e-88
-5.97783e-06
 4.29755e-88
 -8.9904e-06
-6.42984e-06
  1.0402e-05
  2.3082e-06
-5.34229e-06
 1.36121e-07
 7.31142e-89
 4.69614e-06
-4.77179e-88
 4.92568e-06
-1.82885e-88
-9.59261e-06
 6.49026e-07
-1.37824e-88
-1.76647e-87
-2.68455e-06
 -4.6855e-06
-9.46723e-06
-2.90199e-88
 1.97485e-07
-7.78876e-06
  1.2741e-88
 3.46459e-07
-2.09784e-09
-4.11009e-88
-4.20398e-88
-7.32798e-06
-2.73588e-88
 1.30631e-05
-1.68659e-88
 1.31653e-06
 5.52852e-89
-2.64407e-88
 3.12072e-88
-8.03041e-89
 8.51998e-89
-2.38943e-88
-8.55546e-06
-1.89098e-88
-2.10472e-88
 -9.4577e-08
-6.05107e-06
  6.6695e-06
 1.59583e-88
 3.28752e-06
-2.46795e-88
-4.36297e-88
  5.1397e-07
-3.05508e-88
-2.20846e-88
-1.53616e-88
-1.49854e-88
 4.12214e-88
 1.73544e-06
 1.51516e-05
  5.6412e-06
 5.15906e-89
 3.49429e-06
 3.43786e-07
-7.37251e-07
-1.01684e-88
 2.94013e-06
 5.43055e-06
 1.39559e-88
-3.10056e-88
 3.40342e-07
 -2.8099e-88
 1.03099e-06
 2.76033e-88
-3.35072e-06
 -9.3242e-06
 1.78918e-07
-1.13061e-07
 1.20689e-88
 3.11671e-06
-3.40773e-88
  8.4426e-06
-1.95154e-88
 2.79296e-06
-4.31712e-88
 1.17415e-06
 1.46617e-05
-7.59161e-89
 1.00018e-05
 2.66109e-88
 3.23248e-88
 7.48321e-06
 4.47898e-06
 3.90301e-88
-9.15587e-07
-3.85359e-88
-2.17131e-88
-9.28992e-06
-4.30134e-07
 4.28077e-88
-7.64267e-07
 4.82564e-07
-1.73809e-06
 5.83205e-06
-4.73876e-88
 1.82552e-88
 4.73275e-07
 1.13432e-88
-5.06707e-06
-3.72805e-88
 8.75326e-06
-5.80586e-09
-4.99009e-88
 8.40375e-07
 4.64295e-88
-4.25072e-88
 2.48972e-88
 2.65174e-06
 4.66202e-90
-2.60661e-88
 3.23161e-07
 5.14222e-06
 2.41795e-07
 5.11462e-06
-2.93175e-88
 2.97633e-06
-1.72826e-06
-2.06853e-06
 8.07941e-89
 2.94326e-07
 5.26772e-07
  4.4272e-07
-1.00985e-06
 6.46308e-89
 1.50741e-88
-9.72073e-07
 1.55176e-06
-1.76626e-07
 5.77487e-06
-4.12631e-88
 6.56942e-07
 1.84609e-88
-4.01787e-88
 5.92836e-06
 3.43932e-88
-4.43273e-88
 1.27617e-06
-3.36189e-06
-5.80075e-07
 3.16932e-06
 1.19498e-06
 -1.6628e-88
-1.13574e-83
 6.86044e-89
 1.87826e-06
-8.34427e-89
 4.81869e-07
-4.04694e-06
  4.1752e-88
-8.17467e-06
-4.55745e-88
 1.58602e-06
 1.05291e-07
 2.22053e-07
-2.46357e-06
-3.54273e-88
 7.11174e-07
-2.93113e-06
 6.77758e-07
 1.86189e-07
-1.19534e-05
 1.43789e-06
 4.76007e-88
 4.18108e-06
 4.06799e-88
-7.02558e-09
 5.69237e-06
-2.21696e-88
-1.02936e-88
-3.64587e-08
-1.87884e-08
-2.76541e-88
 4.05566e-07
-1.49822e-07
 2.97713e-88
 2.18917e-88
 2.92147e-88
 3.33086e-88
  4.7593e-07
 2.03919e-88
-5.30914e-07
  3.8964e-88
-4.72416e-88
-1.29497e-07
 -3.8001e-07
-5.41185e-07
-4.79849e-09
 8.15531e-89
 -4.3744e-88
-9.63202e-89
-1.39121e-11
-6.57893e-09
-4.97246e-88
 1.84944e-07
 1.34487e-88
-6.63134e-09
 7.57111e-08
-1.03297e-07
 1.37765e-07
 5.47549e-07
 1.60461e-08
 -1.4647e-88
 2.80815e-08
 2.93213e-88
 7.70612e-08
 -4.3156e-88
-7.02657e-09
 3.69384e-08
 4.07176e-88
 -1.5963e-88
 3.63714e-07
-4.71716e-09
-3.15257e-11
-2.53076e-88
-1.22927e-07
-1.53637e-07
-3.25897e-88
 1.21169e-07
-2.01116e-08
-2.57687e-88
 2.94377e-88
-1.47698e-07
 4.45705e-89
-1.59174e-07
   1.449e-88
-9.02749e-09
  2.1218e-88
-2.04798e-88
-2.97696e-88
 4.05534e-88
-1.51782e-88
 4.52246e-88
-2.26221e-07
 1.30342e-88
 2.39712e-88
 2.25336e-07
-6.01859e-07
 4.03083e-07
-2.14223e-90
-3.63778e-08
 8.63659e-89
 2.17198e-88
 3.56334e-07
 3.16277e-88
 4.69772e-88
-2.60235e-88
-3.40836e-88
-3.61873e-88
 1.51168e-07
-1.68364e-07
 3.38218e-07
-8.13673e-89
-3.90835e-08
 3.20956e-07
 3.01896e-07
 3.85599e-89
-3.96129e-88
 4.33496e-88
 3.39412e-88
-1.88176e-88
-3.69162e-07
-3.18119e-88
-3.63735e-07
 -4.1915e-88
 3.17873e-88
 5.03684e-88
-1.19711e-09
 1.44064e-08
-2.61718e-88
 2.03778e-07
 -3.8333e-88
-5.68631e-08
-2.21855e-88
-1.53479e-11
 1.40827e-88
  -9.505e-08
-1.62876e-07
  3.0564e-88
-7.56643e-08
 4.48431e-88
 4.00542e-88
 3.26771e-07
-1.38684e-88
 2.94202e-88
 3.99969e-07
 8.26315e-89
-1.72986e-88
 2.64577e-07
-7.34419e-08
-3.39322e-88
 1.85065e-07
-1.70598e-07
-1.23821e-07
-4.15962e-08
-7.55881e-89
-3.39666e-88
 1.81695e-07
 -6.7508e-90
  2.0875e-07
 1.29681e-88
-6.04142e-08
-7.29067e-08
-4.57698e-89
 2.96795e-07
 3.77874e-88
-4.10691e-88
 8.58089e-89
-1.86297e-07
 4.00599e-88
 4.77404e-88
 2.31732e-07
 2.95676e-07
  2.4934e-88
 2.67539e-07
  8.3847e-89
-1.83308e-08
  7.8866e-07
-2.09815e-09
-2.36146e-88
-1.85406e-07
 5.15401e-07
 8.62699e-11
 1.28967e-07
-7.47008e-89
 2.86809e-88
-1.50308e-88
-8.66239e-12
 4.56952e-42
-7.87271e-08
-2.31924e-88
-1.78117e-07
 4.08437e-88
-4.32646e-88
-2.49377e-88
-2.59321e-88
 4.50712e-88
 8.06651e-08
 -3.4119e-09
  1.1309e-07
-1.72161e-07
 2.57491e-10
-2.36895e-88
-4.69923e-88
 4.73853e-89
 1.10199e-07
 1.19573e-88
 5.79621e-07
-2.33017e-07
 3.03362e-89
 -2.3028e-07
-7.78879e-89
 1.07427e-88
-6.48767e-08
 8.93566e-08
 3.13551e-07
-5.69653e-89
 4.82079e-07
-1.68676e-07
 8.14919e-07
-1.16139e-07
 3.97636e-88
-1.46181e-08
-5.14448e-89
-7.08785e-08
  1.6816e-88
-6.63429e-08
-7.45677e-08
-4.92007e-88
 2.09837e-89
-4.60441e-88
-2.45926e-88
-1.80971e-88
-1.91686e-88
-2.10199e-88
 3.72064e-88
-4.34125e-88
 4.15023e-88
 3.71188e-88
 4.11919e-88
-6.03883e-89
-3.71582e-88
-1.71717e-88
 -4.5871e-88
 2.96042e-88
 1.81325e-88
-4.26082e-88
-2.66672e-88
 -1.2169e-88
 2.03478e-88
 3.54473e-88
 4.29536e-88
 9.53657e-89
-2.39388e-88
-1.27948e-88
 6.00923e-89
 4.34421e-88
-4.39102e-88
-3.02167e-89
 4.48063e-88
 8.75315e-89
 1.49923e-89
 -3.0361e-88
 4.12211e-88
 3.28956e-88
-8.16005e-90
 2.78527e-88
 4.00481e-88
-9.88846e-89
 1.43967e-88
 3.06652e-88
 3.46377e-88
 2.78035e-88
-3.70813e-88
 3.93317e-88
 6.83285e-89
 3.16161e-88
 4.72884e-88
 3.07307e-88
-3.11277e-88
 1.70614e-88
 1.56031e-88
-3.87489e-88
-2.39769e-88
 4.22292e-88
-9.78673e-90
 3.25973e-88
 3.50965e-88
 5.67611e-89
-2.09992e-88
 2.93281e-88
-3.61455e-88
  3.1065e-88
  4.9532e-88
-4.54993e-88
 1.33859e-88
-1.85881e-89
 3.29184e-88
 2.85916e-89
 3.88177e-88
-3.25974e-89
-1.70505e-88
 2.28806e-88
-2.60311e-88
-3.56682e-89
 1.16374e-88
 3.13668e-88
-2.25255e-88
 8.35103e-89
 1.15226e-88
-3.08822e-89
-2.51624e-88
-2.34491e-88
 8.72786e-89
 1.42566e-89
-3.17946e-88
-4.28256e-88
-1.65518e-88
-4.72729e-88
 1.34155e-88
  1.3014e-88
 3.26201e-88
 2.78349e-88
-6.49577e-89
 3.15773e-88
 3.29006e-88
-4.36847e-88
-2.08563e-88
 1.52442e-88
 9.73943e-89
-3.26134e-88
-3.85904e-88
 4.32539e-88
 4.08321e-88
-1.40565e-88
-1.08877e-88
 1.89478e-89
-3.32645e-88
 1.71518e-88
 -4.0329e-88
 2.88231e-88
-3.65113e-88
-1.49264e-88
-4.52008e-88
 2.27816e-88
 3.70642e-88
-2.64305e-88
 3.05209e-88
-3.00624e-88
-2.31384e-88
-6.63841e-89
 3.35165e-88
-4.10931e-88
-2.93783e-88
 -2.3554e-88
 4.10491e-88
-4.70525e-88
-1.66738e-88
 -3.0382e-88
 1.87566e-88
 4.36306e-88
-1.24304e-88
 3.07312e-88
 3.63098e-88
 -2.2173e-88
-3.39001e-88
-2.51527e-88
 3.02867e-88
-1.65996e-88
  4.2564e-88
 4.05227e-88
-3.83514e-88
-4.45221e-88
-2.49786e-88
-3.29872e-88
 2.88245e-88
-3.84892e-88
-8.85273e-89
 8.77059e-89
-1.79867e-88
 1.85738e-88
-4.84426e-88
-3.50449e-88
 2.80456e-88
 -2.7256e-88
-8.03401e-89
   1.852e-88
-2.37435e-88
 2.58572e-88
  3.8703e-88
  4.5578e-88
  1.8913e-88
-2.43022e-88
 2.57344e-88
 4.64795e-89
 4.08972e-89
 4.23993e-88
 3.00602e-88
-1.61984e-88
-2.47752e-88
 2.20494e-88
-2.62505e-88
-1.25616e-88
 2.80922e-88
-6.64123e-90
 5.01618e-89
  6.3419e-89
 1.14117e-88
 4.67284e-88
-3.54623e-88
   4.399e-88
 1.47274e-88
  -3.334e-88
-4.16298e-88
-7.80175e-89
 -1.0031e-88
 9.01182e-90
-3.98566e-88
 1.67905e-88
-2.38164e-88
 4.94114e-88
 1.17937e-88
 4.56615e-88
-2.54656e-88
-1.30467e-88
-2.65327e-90
 2.91891e-88
-2.12222e-88
  -2.078e-88
-3.75841e-88
-1.15347e-06
-8.50122e-07
-1.32697e-88
 2.86732e-06
-1.76469e-06
 3.66312e-88
 -2.9876e-89
-1.48811e-88
-2.53196e-89
 3.22351e-06
 2.21556e-90
-2.92534e-06
-4.26814e-88
 1.74466e-88
-2.18671e-06
-4.02868e-06
-2.16214e-06
-1.70249e-07
 1.07903e-88
 2.41963e-88
-2.31067e-88
-5.85348e-15
 3.27461e-07
  -2.802e-88
 1.41838e-06
 2.29335e-88
-1.87684e-14
  1.1324e-06
-1.39729e-06
 7.84691e-07
  5.2262e-06
 1.11037e-07
-4.78155e-88
 2.36136e-07
-1.73464e-89
 9.86603e-07
  4.9673e-88
-1.99739e-14
 2.63049e-07
-3.43372e-89
-1.15661e-88
  2.6365e-06
-1.39916e-06
-7.19623e-07
-1.56964e-88
-5.74537e-07
-1.24018e-06
-8.29061e-89
  8.9839e-07
 -3.8992e-07
-3.46691e-88
 1.54261e-88
-8.38158e-07
 1.31103e-89
-1.86709e-06
-4.96167e-88
-2.83367e-07
 9.67592e-89
 1.42887e-88
-2.46287e-88
 1.11658e-88
-9.96473e-89
 3.22054e-88
-2.05265e-06
 3.07713e-89
-2.01041e-88
 1.53212e-06
-3.75265e-06
 2.88362e-06
 1.26519e-88
-3.62994e-07
 1.41627e-88
 -2.0491e-88
 2.42757e-06
-4.00945e-88
 1.43776e-88
-2.65705e-88
 -4.3705e-88
-4.44879e-88
 7.76396e-07
-1.68182e-06
 1.92923e-06
-2.31865e-88
-3.90153e-07
 3.70797e-06
 2.43077e-06
 3.17849e-88
 4.75187e-88
 2.44507e-88
-4.50121e-89
-2.76849e-88
-1.88038e-06
  3.6099e-88
-3.65789e-06
 4.95218e-88
-2.23963e-08
-2.41781e-08
-3.90107e-08
 9.61806e-08
 1.01354e-88
  1.4646e-06
 4.00735e-88
-1.83142e-06
-1.34602e-88
-6.46431e-15
-1.58062e-88
-6.33612e-07
-1.62555e-06
-8.94625e-89
-1.25773e-06
 1.16269e-88
-4.54812e-88
 1.66747e-06
 3.90054e-88
 3.59203e-88
 3.03206e-06
-4.73597e-88
 1.71304e-88
 2.05843e-06
-5.44557e-07
-3.79456e-88
 1.57416e-06
-1.73342e-06
-7.04746e-07
-1.16609e-06
-3.89302e-88
-1.32551e-88
 1.35304e-06
 6.02349e-89
  2.5384e-06
-3.00316e-88
 -1.8241e-06
-1.60026e-06
 -5.7433e-89
 2.20507e-06
 4.38204e-88
 2.90154e-88
-5.00733e-88
-1.38015e-06
-3.05056e-88
-4.30887e-88
 1.57841e-06
 2.11708e-06
-1.41312e-88
 2.26959e-06
-4.00764e-88
-6.73445e-07
 6.30096e-06
-6.19148e-07
 -1.3854e-88
-8.63629e-07
 3.64904e-06
 1.29829e-07
 8.58218e-07
  3.8382e-88
 3.36379e-88
-9.47693e-78
-3.63746e-15
-3.91977e-10
-8.91969e-07
  2.6289e-89
-1.94485e-06
 1.66447e-88
 2.02304e-88
-4.23378e-88
 1.62289e-88
   1.345e-88
 5.77301e-07
-1.00741e-06
 7.35085e-07
 -1.5358e-06
 1.00894e-06
-3.96774e-88
-1.86707e-88
-4.05092e-88
 3.16648e-07
-8.18213e-89
 4.57094e-06
  -1.557e-06
-3.11379e-88
-1.05713e-06
-2.67273e-88
 6.30086e-40
-2.95767e-07
  6.6537e-07
 2.08932e-06
-2.55729e-88
 3.29576e-06
 -1.1276e-06
 6.42655e-06
-5.41875e-07
-9.64278e-58
-1.94271e-07
 2.78305e-88
-6.88489e-07
-9.85619e-89
-1.27707e-06
-8.59554e-07
-2.31643e-88
-4.06187e-88
-1.11742e-06
-8.23556e-07
 3.41431e-88
 2.77772e-06
-1.70954e-06
 4.41989e-88
 -2.1758e-88
-4.32759e-88
-8.78472e-89
 3.12278e-06
-2.38488e-88
-2.83392e-06
 2.09811e-89
-1.47582e-88
-2.11838e-06
-3.90278e-06
-2.09457e-06
-1.64928e-07
-3.13507e-88
 4.15447e-89
 9.75197e-89
-5.67056e-15
 3.17228e-07
 4.22095e-88
 1.37406e-06
 2.30618e-88
-1.81819e-14
 1.09701e-06
-1.35363e-06
  7.6017e-07
 5.06288e-06
 1.07567e-07
  4.3331e-88
 2.28756e-07
-3.13389e-88
 9.55772e-07
-1.24678e-88
-1.93497e-14
 2.54829e-07
 2.93124e-88
 2.62935e-88
 2.55411e-06
-1.35544e-06
-6.97135e-07
-2.30905e-88
-5.56583e-07
-1.20142e-06
 9.61408e-89
 8.70315e-07
-3.77735e-07
-3.68063e-88
 -2.8417e-88
-8.11965e-07
-8.01786e-89
-1.80874e-06
  4.6208e-88
-2.74512e-07
-4.43876e-89
-3.97323e-89
 4.58094e-88
-4.58344e-88
-4.42082e-88
-1.04911e-88
 -1.9885e-06
 2.64887e-90
 8.73498e-89
 1.48424e-06
-3.63538e-06
 2.79351e-06
-2.93245e-88
-3.51651e-07
 3.24866e-88
-3.76569e-88
 2.35171e-06
-4.02714e-88
-1.01824e-88
-8.11297e-89
-2.17842e-91
 4.99967e-88
 7.52134e-07
-1.62927e-06
 1.86894e-06
 -2.4134e-88
 -3.7796e-07
 3.59209e-06
 2.35481e-06
 4.35507e-88
 2.01968e-88
  3.5775e-88
-1.09973e-88
 1.54313e-88
-1.82162e-06
-4.64057e-89
-3.54358e-06
 3.79922e-88
-2.16964e-08
-2.34226e-08
-3.77916e-08
  9.3175e-08
 1.98586e-88
 1.41883e-06
  5.0137e-90
-1.77418e-06
 2.72899e-88
 -6.2623e-15
  1.2064e-88
-6.13812e-07
-1.57475e-06
-3.85326e-88
-1.21842e-06
 1.80065e-88
-2.96653e-88
 1.61536e-06
 4.44375e-88
-3.23226e-88
 2.93731e-06
-1.64885e-88
-3.93467e-88
  1.9941e-06
-5.27539e-07
 2.20899e-90
 1.52497e-06
-1.67925e-06
-6.82722e-07
-1.12965e-06
 4.71995e-88
 4.17598e-88
 1.31076e-06
 -1.0234e-88
 2.45907e-06
  7.7858e-89
 -1.7671e-06
-1.55025e-06
-4.10186e-88
 2.13616e-06
-3.07549e-89
 2.16104e-88
 4.85254e-88
-1.33702e-06
 3.36428e-88
-3.60948e-88
 1.52908e-06
 2.05092e-06
 -6.3948e-89
 2.19867e-06
 -2.8355e-88
  -6.524e-07
 6.10405e-06
-5.99799e-07
 3.29428e-88
-8.36641e-07
 3.53501e-06
 1.25772e-07
 8.31398e-07
 2.92196e-88
-2.34542e-88
-9.18077e-78
-3.52379e-15
-3.79728e-10
-8.64095e-07
-5.00872e-89
-1.88407e-06
 2.50216e-88
 2.06695e-88
 3.23469e-88
  5.8746e-89
 -3.3006e-88
  5.5926e-07
 -9.7593e-07
 7.12114e-07
-1.48781e-06
 9.77408e-07
 -4.4298e-88
-9.55861e-89
-3.86742e-88
 3.06753e-07
 1.26514e-88
  4.4281e-06
-1.50835e-06
 4.60796e-88
-1.02409e-06
-4.10707e-88
 6.10395e-40
-2.86524e-07
 6.44578e-07
 2.02403e-06
 1.53687e-89
 3.19277e-06
-1.09236e-06
 6.22572e-06
-5.24941e-07
-9.34144e-58
  -1.882e-07
-3.04634e-88
-6.66974e-07
-2.93807e-88
-1.23716e-06
-8.32693e-07
 2.45901e-88
-2.10146e-88
 3.90105e-88
 -3.9511e-88
 4.78457e-88
 4.52775e-88
 1.49535e-89
-4.14033e-88
 2.34771e-88
-3.64281e-88
-1.05446e-89
 7.68569e-89
-4.09232e-88
 2.16624e-88
 1.71799e-88
 3.87957e-88
 4.66534e-88
-3.99727e-88
 -3.9803e-89
-2.38451e-89
 3.51321e-88
 2.42133e-88
-3.63844e-88
-2.05941e-88
 -3.1767e-89
 3.00447e-89
 -7.3375e-90
 4.06426e-88
 2.41888e-88
-2.55736e-88
 8.81137e-90
-1.79598e-89
 3.97679e-89
-1.06832e-88
 9.25798e-89
 1.24773e-89
-1.59805e-88
-3.98215e-88
 1.04094e-88
-4.30783e-88
-2.56846e-88
-4.12199e-88
 1.51724e-88
-1.60428e-88
 3.10075e-88
-1.82225e-88
-2.78219e-88
 2.70861e-88
-7.63021e-89
 1.87628e-88
-2.58732e-88
 -2.3073e-88
-7.59878e-89
-1.16927e-88
 6.89789e-89
 3.97895e-88
 4.18768e-88
-4.44107e-88
 2.98573e-88
 1.54907e-88
-1.94193e-88
-1.98364e-88
-3.68801e-88
 3.51225e-88
 2.00454e-88
 2.29429e-88
-1.42046e-88
-4.65099e-88
 3.36864e-88
 4.67698e-88
-3.90233e-88
 -4.2573e-88
-4.50249e-88
 2.67141e-88
-8.05081e-89
 3.65476e-88
-4.20832e-88
 1.46922e-88
 1.30589e-88
 8.51547e-90
-1.71198e-88
 3.77506e-88
 2.83436e-88
 2.58464e-88
-2.45169e-88
-1.53333e-88
 1.50611e-88
-3.32149e-88
-9.17904e-89
 -5.6564e-89
 3.28408e-88
 2.19666e-88
 2.50722e-88
 4.65257e-88
 6.51433e-89
 -5.4572e-89
 1.88938e-88
 4.28747e-88
-1.40217e-89
 2.00538e-89
 3.90697e-88
 1.01395e-88
 9.99737e-89
 4.46097e-88
-1.37212e-88
-4.86282e-88
 3.05825e-88
-5.23943e-89
  1.6629e-88
-6.93345e-89
 4.61771e-88
 5.00742e-88
-1.97576e-88
 2.39458e-88
 2.53458e-88
 6.29047e-89
-4.19623e-88
 -1.0168e-88
 2.36405e-88
-5.76381e-90
 3.47406e-88
 5.90654e-89
-2.91845e-88
 9.23801e-89
 1.85744e-89
 2.78948e-88
 -4.6794e-88
-2.98236e-88
 2.01947e-88
 2.36881e-89
 2.27468e-88
 8.68955e-89
-3.80665e-88
-1.78307e-88
  2.7245e-89
-1.22268e-89
-1.58939e-88
-1.72678e-88
 4.41029e-88
-4.98398e-88
 2.63637e-88
 3.97051e-88
-5.03404e-88
-4.39687e-88
 1.30762e-88
 2.55703e-88
 1.28867e-88
 2.16788e-88
-3.51724e-88
-1.40475e-88
-2.94723e-88
 5.01331e-88
  4.2424e-88
-8.09191e-89
 8.79633e-89
-6.29341e-89
-3.07719e-88
 1.25673e-88
  1.4448e-88
 3.99877e-88
-3.56387e-88
-1.33801e-88
-1.89756e-89
-2.31402e-88
 1.93543e-88
-4.97479e-88
 2.62021e-88
-4.71145e-88
-1.64507e-88
 1.97301e-88
-4.63893e-88
-4.06618e-88
 8.86048e-89
-4.61647e-88
-3.40655e-88
-2.86381e-88
 2.99706e-88
 2.93861e-88
 4.36057e-88
 4.53631e-88
-3.52362e-88
-3.64415e-88
 4.49214e-88
 -4.3387e-88
 6.03158e-89
 3.14292e-89
 8.84515e-90
 2.58246e-88
-3.48646e-88
-3.52423e-88
 1.52375e-88
-1.99383e-88
 1.94261e-89
-3.72349e-88
 7.48649e-89
-2.92779e-88
-3.64178e-88
-1.68862e-88
-2.58275e-88
-2.30349e-89
-4.77309e-88
-2.16518e-88
 7.59969e-89
 1.16946e-88
-1.72515e-88
 2.40991e-88
 3.36214e-88
-3.78558e-88
 2.91047e-89
 2.66523e-88
-4.30675e-88
 1.82392e-88
 4.07758e-88
-4.87209e-88
 2.54172e-88
-3.76747e-89
 4.98698e-89
-2.42731e-88
-2.85177e-88
 2.06874e-88
-8.95047e-89
 3.72848e-88
-4.98257e-88
 4.35571e-88
-5.05249e-88
 8.22574e-89
-3.62956e-88
-3.63777e-88
 4.19045e-88
-1.15581e-88
 1.18838e-88
 4.47386e-88
 1.73551e-88
-3.10913e-88
 5.85836e-89
-5.04712e-88
 4.35728e-88
 -1.1095e-88
 -3.7762e-88
-4.09158e-89
-3.50176e-88
-3.02646e-88
-3.64271e-88
-4.48166e-88
-2.84205e-88
  3.9555e-88
 1.98088e-89
 2.71315e-88
 -3.5293e-88
 2.40282e-88
-2.75597e-89
 6.32153e-89
 1.07381e-88
-2.01671e-89
-6.96166e-90
 1.07782e-88
-4.43658e-88
 1.35732e-88
 2.49655e-88
 4.81037e-88
-4.85597e-88
-1.37255e-88
 4.22675e-88
 1.93603e-88
 5.74809e-89
-2.44898e-89
  1.9454e-88
-1.25396e-89
  3.7021e-88
  3.2257e-88
 4.52194e-88
-4.85714e-88
-4.85824e-88
-4.17825e-88
-4.28231e-88
-2.64379e-88
 4.83374e-88
 9.72277e-89
-4.98813e-88
-3.75304e-88
-1.68239e-88
-2.07225e-89
 1.93561e-88
 4.44792e-88
  4.6476e-88
-3.19148e-88
 4.68264e-89
-4.84646e-88
 3.22233e-88
-2.09267e-88
 5.02041e-88
 3.42285e-88
 1.59127e-88
 4.18967e-88
 3.01404e-89
 -2.8914e-88
 -1.1127e-88
-2.81067e-88
  2.0397e-88
-2.46809e-88
-4.64245e-88
 1.50417e-88
-2.26873e-88
-4.44419e-88
 2.38241e-88
-1.49455e-88
-2.03149e-88
 2.15867e-88
 4.53423e-88
-1.96312e-88
 3.46213e-88
-2.20564e-88
 2.88615e-88
 3.40267e-89
-2.81519e-88
 2.47627e-88
 2.20528e-88
 2.70957e-88
 2.68631e-88
 3.70132e-89
-4.44058e-88
 2.64924e-88
 -1.2645e-88
 2.20719e-88
 1.78143e-88
 4.09341e-88
 4.37229e-88
-4.38875e-88
-3.77475e-88
 1.35451e-88
-1.80035e-88
 -3.3607e-88
 -2.1988e-88
 9.87417e-89
 -2.7484e-88
-4.87387e-88
 4.54937e-88
 2.76606e-89
  2.3413e-88
 4.02612e-88
 3.36999e-88
 7.45954e-89
  -3.237e-88
 1.19866e-88
-3.97126e-88
-9.95699e-89
-1.38255e-88
 3.29052e-88
-3.34361e-88
-3.75371e-88
-1.39683e-88
 -2.7277e-88
 3.95202e-88
 2.39517e-88
 4.53599e-88
 6.75976e-89
  1.4311e-88
  3.8508e-88
 1.34372e-88
 2.71285e-88
 1.47829e-89
 4.59987e-88
 4.40864e-88
 3.00552e-88
 5.29809e-89
-3.39724e-88
 3.18815e-88
 2.16971e-90
 1.93586e-88
 4.71972e-89
-1.00967e-88
 2.48366e-89
-3.83955e-88
 8.09829e-89
-3.61045e-88
-2.75432e-88
 4.87063e-88
  6.3496e-90
-4.52128e-88
-3.53047e-88
 1.36628e-88
-8.61611e-89
-1.20167e-88
 2.60823e-89
-3.52392e-88
-1.72316e-88
-4.12068e-88
 2.96367e-88
-2.92984e-88
 2.27954e-88
 6.19039e-89
 2.27448e-88
 1.82193e-88
 -2.9802e-90
 2.22528e-89
-2.70574e-88
 1.62945e-88
 -1.6468e-88
 2.37245e-88
-1.49217e-88
 3.88167e-88
-3.69469e-88
 3.81269e-88
-5.01537e-88
 2.17163e-88
-4.85524e-88
-2.71319e-88
 1.98478e-88
 2.64752e-89
-2.17797e-88
 3.51081e-88
-3.42645e-88
 2.01692e-88
-2.74834e-88
 1.89087e-88
 3.54949e-88
 5.84999e-89
 2.82669e-88
 1.45569e-88
 2.71165e-88
 4.87449e-90
-2.98276e-88
-7.13435e-90
-3.18681e-88
 2.04394e-88
 -4.9063e-88
 -8.3605e-89
-1.38409e-88
 -1.4966e-88
-3.52108e-88
 2.18024e-88
-2.67241e-88
-2.15928e-88
 9.35453e-89
-2.63128e-88
-5.04512e-88
 1.13671e-88
-2.87975e-89
 1.99615e-88
-3.65602e-88
 2.59055e-88
 4.49477e-89
-2.02597e-88
-4.50012e-89
 2.75763e-88
  4.9214e-88
  -1.958e-88
-1.71485e-88
  2.6906e-88
 4.55418e-88
-4.06067e-88
-2.31813e-88
-3.48605e-88
  9.2448e-89
 -4.4844e-89
 3.61438e-88
 1.07468e-88
 3.77201e-88
-2.82719e-88
 4.63458e-88
-4.80655e-88
 4.40955e-88
-3.09532e-88
-1.90933e-88
  2.8752e-89
-6.70103e-89
-1.89796e-88
-3.63325e-88
 4.09842e-88
-4.95929e-88
-2.23277e-88
 1.63149e-88
 5.46684e-89
  7.9775e-89
  -3.876e-88
-1.75316e-88
 6.61666e-89
-7.77502e-89
 1.58849e-88
-1.70521e-88
 -1.2808e-88
 2.58431e-88
 1.03316e-88
 2.89643e-89
-1.54869e-88
-4.47277e-88
-1.15345e-88
 4.58249e-88
 4.35574e-88
 1.07585e-88
 4.15959e-88
 4.60568e-88
 4.27921e-89
-3.99321e-88
-2.36113e-88
-4.34204e-88
 3.93184e-89
 7.97406e-89
-2.91879e-88
-5.65876e-89
 8.94613e-89
-9.50719e-90
-3.99186e-88
-3.61618e-88
 -4.3548e-88
-2.81137e-88
-3.12848e-89
 1.36336e-88
 1.46763e-88
-3.78184e-88
 4.71465e-88
-4.87065e-88
 3.85897e-88
 6.90322e-89
 4.75486e-89
 -2.7472e-88
 1.27405e-88
 4.37853e-88
-3.22219e-88
  5.7231e-89
 3.96902e-89
-4.12008e-88
 1.20511e-89
-4.23266e-88
 -3.0568e-88
 2.81588e-88
 -3.5182e-88
 2.39289e-88
 -1.4442e-88
 -1.3805e-88
-3.23047e-88
 4.50691e-88
 3.58093e-88
-2.16584e-88
-4.16675e-88
 4.28262e-88
 7.92894e-90
 5.76898e-89
 5.88504e-89
-3.51056e-88
 1.85156e-88
 2.45671e-89
-3.32472e-88
 6.53045e-89
-4.12149e-88
 2.20726e-88
 2.96234e-88
 2.20906e-88
 1.52831e-88
 4.79665e-88
-2.27611e-88
-3.13227e-88
-4.38091e-88
  2.9009e-88
-2.30843e-88
-2.38121e-88
 6.59299e-89
-7.70134e-89
 -5.0458e-88
  4.2716e-88
 2.90587e-88
-3.21978e-88
 3.72103e-88
 1.42931e-88
 -3.2912e-89
 4.61078e-88
 6.54457e-89
 4.80667e-88
 1.30196e-89
-3.81452e-88
-3.76138e-88
-3.07573e-88
 1.48765e-88
 -2.0296e-88
 2.63381e-88
 2.42266e-88
-4.87982e-88
 5.38676e-89
-4.25759e-89
 1.70498e-88
 2.77848e-89
 2.35463e-88
 3.62921e-88
 9.53434e-89
 1.98053e-89
 -3.7367e-88
 3.62872e-88
-4.20013e-88
 5.49659e-89
 3.63941e-88
-4.98601e-88
-1.60196e-88
-4.63784e-88
 3.79152e-88
 4.88386e-88
 8.95327e-90
 3.34482e-88
 4.80832e-89
-1.61282e-89
-1.58247e-88
 1.72281e-88
 1.13384e-88
 3.98301e-89
-1.84702e-88
 4.16073e-88
-2.02537e-88
-4.48185e-88
  4.3374e-88
 3.56981e-88
 1.48891e-89
 9.84901e-89
-1.20983e-88
-2.55396e-88
-4.43372e-89
  4.8001e-88
 2.70059e-88
  8.7642e-89
 3.37134e-88
 3.55696e-88
 -3.6314e-88
 1.95328e-88
 3.62745e-88
-1.76861e-89
 2.37193e-88
 2.36149e-88
-3.50485e-89
-2.59602e-88
 6.48828e-89
-4.92713e-88
  2.2992e-88
 4.12286e-88
 1.85217e-88
-1.62444e-88
-5.36321e-89
-5.05233e-88
 -2.5212e-88
 2.49481e-88
-4.47768e-88
-3.24128e-88
 1.00713e-88
 7.27704e-89
 2.80012e-88
  4.8538e-88
 3.23024e-88
-2.70073e-88
 4.59643e-88
 8.73355e-89
 3.23218e-88
 2.91029e-88
-6.27164e-89
 4.65728e-88
-1.93908e-89
-2.05719e-88
-5.77061e-89
-2.87946e-88
-4.75318e-88
 4.12895e-88
-4.18976e-89
  9.5214e-89
 4.25831e-88
-3.17726e-88
  1.7518e-90
   1.053e-88
 2.54796e-89
 4.53769e-88
 1.05717e-88
  2.7901e-88
 1.97502e-88
 1.63598e-88
 4.60532e-88
-2.07532e-88
 -2.6938e-88
 2.34796e-88
  -2.279e-88
-4.52103e-88
 4.70372e-88
-2.74005e-88
 1.40882e-88
 2.87843e-88
-4.88724e-88
-4.27583e-88
 2.47823e-88
-2.46479e-90
-1.27652e-88
-3.15632e-88
 2.15239e-88
-9.73212e-89
-4.08485e-88
-3.32406e-88
 5.03542e-88
-4.88401e-88
-1.44482e-88
-4.53779e-91
 1.22549e-88
 3.86647e-88
-5.24324e-89
-2.77483e-88
 1.59908e-88
-3.60678e-88
 3.91765e-88
 1.14692e-88
-6.25609e-89
-3.83363e-88
 -1.5626e-88
 2.15189e-88
-3.29816e-88
-1.91636e-88
 4.46834e-88
 3.16715e-88
-4.09542e-88
  4.6376e-88
 3.94782e-88
  3.4393e-88
-4.44533e-89
-2.38619e-88
-4.77449e-88
-3.34962e-88
  1.6971e-88
-3.80284e-88
-1.61719e-88
 1.67504e-88
-3.63036e-88
 1.99449e-88
-3.38697e-88
 2.65163e-88
 8.03475e-89
  1.1452e-88
  4.9333e-88
-2.65492e-88
 2.59491e-88
 3.79347e-88
  3.5485e-88
-3.08818e-88
 5.01634e-88
-3.07159e-88
 4.12021e-88
 -3.3393e-88
 6.85449e-90
 3.53106e-88
 4.88434e-88
 1.02962e-88
 3.11118e-88
 3.77468e-88
-5.88551e-89
-2.39084e-88
-3.66898e-88
-3.06545e-89
 -6.8396e-89
 3.08461e-88
 9.47113e-89
 2.75535e-88
-2.97824e-89
 2.37325e-88
-3.07645e-89
  1.3717e-88
-3.25969e-90
-4.56165e-88
-2.54058e-88
-1.56777e-89
-2.16007e-88
-5.00315e-88
-1.42079e-88
-3.66906e-88
-3.03483e-88
-1.46193e-88
-1.68415e-88
-3.97211e-88
 2.55267e-89
 3.44089e-88
 4.61545e-88
 8.21302e-90
-5.86965e-89
 2.66915e-88
-1.20067e-88
 3.88098e-88
-4.77917e-88
 1.86846e-89
-1.48304e-88
-4.06631e-89
-1.78602e-88
 4.52057e-88
-2.70876e-88
 2.97265e-88
 1.83634e-88
 2.04009e-88
-7.13131e-89
-3.25374e-88
 2.53494e-88
 1.80278e-88
 1.64598e-88
-4.68262e-88
 1.85612e-88
-4.83228e-88
-3.29518e-88
 3.87779e-88
-1.23771e-88
 7.71677e-90
 4.96217e-88
 4.07405e-88
-1.53942e-88
 4.52015e-88
  -9.013e-89
 2.93011e-88
 2.13181e-88
 2.95453e-88
 1.75361e-88
 2.40914e-88
-1.91611e-88
-4.78691e-88
-3.05497e-88
 1.35437e-88
 4.79015e-88
-7.07234e-89
-7.30458e-89
 1.56901e-88
-3.72462e-88
 3.61291e-88
 3.37177e-88
 3.86681e-88
 3.58207e-89
-3.97289e-90
 4.24069e-88
-2.84315e-88
 1.84483e-89
-4.11197e-88
-4.02284e-88
 4.00327e-88
 1.02169e-88
-4.11815e-88
 3.01984e-88
 4.53877e-88
-4.65548e-88
-2.93894e-88
  2.4114e-88
 2.53283e-88
 -5.0419e-88
-8.92468e-89
-1.15511e-89
 -1.9015e-88
-6.22883e-89
 1.88602e-88
 4.50936e-88
-8.90212e-89
 -3.8787e-88
-1.27858e-88
-4.37868e-88
-2.54682e-88
-2.72315e-88
 4.04958e-88
 -3.7375e-88
 2.69155e-88
-1.04763e-88
-4.55429e-88
  4.9049e-88
 4.19335e-88
-3.60976e-88
-4.17542e-88
 3.13914e-88
 2.46843e-88
-3.23708e-88
 1.10149e-88
 1.94972e-88
-2.83606e-88
 3.21905e-88
-6.96359e-89
 4.75326e-88
 3.23365e-88
 3.46767e-88
-4.19732e-89
-3.72534e-88
-2.21269e-88
 -3.5912e-88
-4.27346e-88
 1.95359e-88
 -2.4134e-88
-4.95535e-89
 2.63141e-88
 9.62763e-90
 1.83781e-88
 1.62351e-88
 1.41528e-88
-5.28114e-89
 -4.4816e-88
 1.91749e-88
-6.80692e-89
 4.76825e-88
 3.36422e-88
 2.00382e-89
 2.84991e-88
 7.75176e-89
  2.0198e-88
-1.10607e-88
-2.33258e-88
 4.24024e-88
 -2.9445e-88
 2.02755e-88
 3.93602e-88
-4.76834e-88
 4.37744e-89
 -1.5412e-88
-3.43718e-88
 3.28155e-88
-7.58957e-90
-2.65414e-88
 1.77661e-89
  2.5672e-88
 1.90682e-88
-2.24841e-88
  -2.394e-88
-1.31285e-88
 4.43159e-88
 4.07778e-88
 3.21554e-88
 5.00649e-88
 9.37783e-89
-2.52264e-88
 4.71727e-88
-7.55472e-89
 2.73424e-88
  2.5097e-88
-5.03778e-88
-3.03433e-89
-3.65385e-88
-2.31386e-88
-1.12068e-88
-1.54186e-88
 4.77019e-88
-2.24214e-88
 -1.2537e-88
 1.50452e-89
 1.27316e-88
  3.6562e-89
-1.62548e-88
-3.86022e-88
 2.76798e-88
 3.60868e-88
 3.76348e-88
-3.82679e-89
-3.69722e-88
  -3.688e-88
 3.36097e-88
 -4.3231e-88
 -4.6677e-88
 1.51903e-88
-4.37409e-88
 1.32658e-88
 4.05289e-88
 -4.7143e-88
-4.48637e-88
 1.72965e-88
  2.8519e-88
-4.46765e-88
-3.63126e-88
 4.25455e-88
-1.72502e-88
  3.0456e-89
-2.34479e-88
-2.01231e-88
 3.11892e-88
 1.45801e-88
 3.19464e-88
-6.65407e-89
-3.23385e-88
-3.48832e-88
 5.30872e-89
 4.59063e-88
-4.93713e-88
-7.63124e-89
-8.49532e-89
-3.57784e-88
 6.05377e-89
-2.54604e-88
-2.84445e-88
 9.94174e-89
 4.02949e-88
-2.16204e-88
-2.73673e-88
  3.0249e-88
-1.81985e-88
 -2.1666e-88
-3.02928e-89
-4.02543e-88
-1.57776e-88
 1.12231e-88
-4.82836e-88
 1.75372e-88
-3.63061e-88
-2.11665e-88
 4.79791e-88
  4.5448e-88
 4.39786e-88
 2.93506e-88
-1.17809e-88
-3.89347e-88
 4.50324e-88
 4.40928e-88
-4.36032e-88
 4.62261e-88
-1.41132e-88
-1.53356e-89
-4.01272e-88
 4.25055e-88
  2.3571e-88
-1.80067e-88
 1.87246e-89
 1.32911e-88
 1.09379e-88
 2.50702e-88
-7.03476e-89
 4.33044e-88
-4.71706e-88
 4.05009e-88
-4.75247e-88
-1.23833e-88
 1.14921e-89
-4.52433e-88
-4.54208e-88
 1.54081e-88
-1.58448e-88
-4.80166e-88
 1.02813e-88
 -2.2441e-88
  3.1899e-88
 4.90654e-88
-1.08107e-88
 2.63566e-88
 4.25834e-88
-3.84895e-89
 2.20079e-88
-2.21046e-88
 4.51825e-88
 3.24457e-88
-3.01739e-88
 1.81787e-88
-3.61358e-88
 2.22635e-88
-1.91051e-88
  2.5367e-88
-3.24111e-89
 2.44251e-88
 1.80966e-88
 1.53211e-90
 1.43513e-88
 2.11369e-88
 3.83349e-88
-3.50743e-88
 2.64585e-88
 4.34791e-88
 3.08987e-88
-3.99611e-88
 4.60274e-88
-9.39481e-89
-1.18371e-88
 2.73517e-88
-1.09042e-88
 2.79172e-88
 3.13344e-89
-1.88956e-88
-2.65066e-88
-2.54335e-88
 9.56475e-89
-3.18989e-88
-4.35626e-88
 2.99558e-88
 3.68447e-88
-2.91335e-88
 1.64455e-89
-3.28352e-88
 4.67985e-88
 4.89684e-88
 4.21549e-88
 1.43203e-88
-1.45318e-89
 5.93136e-89
-1.51177e-88
-1.36931e-88
  2.1422e-88
 -3.9234e-88
-2.07888e-88
 1.74591e-89
-2.86301e-88
-2.53362e-88
 4.29161e-88
 1.00978e-88
-4.85593e-88
-1.85629e-88
-1.25598e-88
  5.1391e-89
 1.31064e-88
 1.14985e-88
 3.02706e-88
-2.79036e-88
 3.01645e-88
 3.72729e-88
-4.85226e-88
 1.64344e-88
-4.24353e-88
 3.68689e-89
 3.41642e-88
-4.62116e-88
 2.08051e-89
 2.57443e-88
 1.86736e-88
-4.99475e-88
-1.88991e-88
-4.70189e-88
-1.30756e-88
-4.80519e-88
-3.56879e-88
 1.67006e-88
 4.25895e-89
-1.37529e-88
 4.19294e-88
-3.39978e-89
 4.69098e-88
 4.39351e-88
 2.86022e-88
-1.62248e-88
-1.50063e-89
-8.86616e-89
 4.58387e-88
-2.18048e-88
 1.37952e-88
 2.54284e-88
-3.51067e-88
 1.58375e-88
-8.71197e-89
-2.69771e-88
-3.10504e-88
-2.51226e-88
-2.26237e-88
 2.15951e-88
-4.99531e-88
 4.66148e-88
 2.22126e-88
-1.82872e-88
 5.01609e-88
-4.14378e-88
-1.57742e-88
-3.61017e-88
 2.58278e-88
 3.90497e-88
 7.10313e-90
 1.71824e-88
-1.49249e-88
-2.95467e-89
 1.05426e-88
-3.68974e-88
 3.13855e-88
-4.15328e-88
 4.80136e-89
 2.66493e-88
-1.27727e-88
-3.19783e-88
 1.50293e-89
 2.68559e-89
 3.44242e-88
 4.33559e-88
 2.62735e-88
 -4.7201e-88
-3.23414e-88
 -4.6925e-88
  2.4959e-88
-3.17295e-88
 5.02548e-88
-3.40321e-89
 5.48184e-90
 4.98409e-88
 5.72395e-89
  3.5339e-88
-3.68356e-88
-1.90231e-88
 2.38139e-88
 1.44397e-88
 4.87243e-88
-4.16858e-88
-3.90898e-88
  8.6921e-89
-2.80183e-88
 4.28606e-88
 1.77243e-88
  2.7348e-88
 1.89352e-88
-4.56232e-88
 4.59347e-88
-3.01367e-88
 7.62736e-89
 2.97841e-88
-3.73556e-88
 -1.6674e-88
 3.31481e-88
 -1.9132e-88
 -1.3034e-88
 7.53231e-89
-2.96631e-90
-1.33541e-88
-4.64457e-88
-5.03232e-88
 -1.4088e-88
 9.84322e-89
 3.55807e-88
-3.58597e-90
 4.13851e-88
 8.81973e-89
-3.64937e-88
 3.95346e-88
 1.76989e-88
-2.50185e-88
-2.34813e-89
 4.02456e-88
-3.27327e-88
-3.51987e-88
 1.70188e-88
 3.67675e-88
-3.02569e-88
 1.23787e-88
 -4.3944e-88
 2.79354e-88
-8.41193e-89
-3.07346e-88
-3.93133e-88
-2.58386e-88
 6.98279e-90
-1.78241e-89
 3.22586e-88
-5.01732e-88
 3.54285e-88
 3.63779e-88
-4.99314e-88
-2.92343e-88
-4.35369e-89
 3.62142e-88
 2.09721e-88
-1.35434e-88
-5.54087e-89
 3.50433e-88
-2.45836e-88
-3.84168e-88
  -4.055e-88
 2.36332e-88
 -4.8746e-88
-2.27177e-88
 3.89995e-88
 1.88378e-88
-3.65251e-88
-4.18322e-88
-1.93583e-88
-2.99041e-88
 3.66682e-88
 2.27947e-88
-1.00738e-88
 4.79199e-88
 4.75211e-88
 4.11894e-88
-4.43735e-89
 2.92049e-88
 4.15812e-88
-1.95837e-88
  1.5008e-88
 4.22148e-88
 1.74699e-89
-3.99205e-88
 2.78542e-88
-2.78557e-88
-2.89892e-89
-2.82615e-88
-4.33872e-88
 2.30824e-88
-1.61133e-88
-3.33723e-88
-3.85916e-89
-1.42944e-88
-5.52502e-89
-1.54344e-88
-4.60314e-88
 8.51488e-89
-6.70165e-89
-1.48248e-88
 2.91757e-88
-2.06082e-88
-4.26048e-88
-3.14729e-88
-2.32632e-88
-4.56586e-88
-4.08583e-88
 2.28645e-88
 3.41113e-88
-4.98518e-88
 -4.7294e-88
-1.45554e-89
 4.29279e-88
 5.01795e-89
 9.18892e-89
 2.02073e-88
 2.77272e-88
-4.42848e-88
 4.25108e-88
 3.49049e-88
 2.93626e-88
-2.41774e-88
-4.90421e-88
-2.50714e-88
 1.20932e-88
-4.00218e-89
 1.00591e-88
 1.66268e-88
-4.60621e-88
-4.72173e-88
-4.87728e-88
 3.36786e-88
-1.72606e-88
-4.08126e-88
-4.83691e-88
 1.00412e-88
-3.59062e-88
-3.86625e-88
-1.76691e-88
   4.877e-88
-3.79493e-88
-1.43981e-88
-3.26031e-89
-4.55962e-88
 4.11848e-88
-4.46462e-88
  2.5176e-88
 1.83372e-88
 -3.8366e-88
  1.7112e-88
  2.6673e-89
 4.15615e-88
 4.34996e-88
 4.19014e-89
-3.40847e-88
 5.01805e-89
-5.03868e-88
 2.65395e-88
  -2.893e-88
 -4.5884e-88
 2.98871e-88
-2.71377e-88
 3.83596e-88
-3.79483e-88
-1.73854e-88
 4.05554e-88
  2.2658e-88
-2.72663e-89
-4.86819e-88
-4.55859e-88
 -4.5314e-89
-3.60662e-88
-9.41909e-89
 4.27733e-88
-3.10975e-88
-1.88091e-88
  4.8692e-88
 4.46435e-88
  5.0093e-88
-4.02488e-88
 1.11807e-88
 2.18553e-89
-4.92621e-88
 4.10552e-89
-4.41991e-88
-3.27817e-88
-4.14512e-88
 -4.4021e-88
 4.43227e-88
-1.98162e-88
  -3.934e-88
  2.3635e-88
   3.611e-89
 4.95845e-88
 3.62517e-88
 3.67906e-88
 3.95651e-88
 8.33487e-89
-1.65109e-88
 4.14482e-88
 1.33139e-88
 2.95227e-88
-4.51928e-88
  -4.668e-88
 2.17212e-88
-2.57253e-88
-1.49241e-88
 1.98384e-88
-3.16566e-88
-1.54059e-88
 3.01546e-88
 3.00891e-88
 3.73446e-88
 3.14575e-88
-1.63802e-88
 4.37104e-88
 4.92407e-88
-7.26645e-89
 5.02544e-88
 4.29886e-88
 2.34823e-88
-3.96604e-88
 1.60488e-88
-2.34815e-88
-4.06507e-88
 1.72571e-89
-3.72657e-88
 4.94794e-88
-4.05142e-88
-3.21162e-89
 4.03528e-88
 2.33647e-88
-2.42637e-88
  4.5725e-88
 2.72496e-88
 4.80224e-88
-3.05752e-88
-3.82493e-88
 1.72861e-88
-1.16668e-88
-3.09021e-89
-3.13412e-89
-3.21525e-88
-1.63204e-88
-2.22514e-88
  2.0323e-89
-2.31848e-88
-2.35855e-88
 4.53308e-88
-2.35052e-88
-3.11716e-88
 1.82383e-88
-1.26006e-88
 3.54421e-88
 4.53218e-88
-2.68635e-89
-1.34069e-88
-4.25188e-88
-3.78177e-89
 -3.3562e-89
 4.83456e-89
-1.40038e-88
-3.05664e-88
 3.11358e-88
-1.88536e-88
 4.72483e-88
 2.85835e-88
  1.1362e-89
-4.15758e-88
-4.70527e-89
 4.00344e-88
 5.89893e-89
 4.27256e-88
-4.26929e-88
 4.01435e-88
-3.01006e-88
 9.90437e-89
-3.36161e-88
-3.12112e-89
 4.66038e-89
-6.55629e-89
 1.62722e-88
-2.76761e-88
 3.14081e-88
 1.13955e-89
-3.29292e-88
-2.18531e-88
 3.82976e-88
 -2.4883e-88
 2.49301e-88
-1.56334e-88
 3.05165e-88
-3.96485e-88
 4.36518e-89
 1.10776e-88
-7.93713e-89
 1.03863e-89
-1.09138e-88
  4.3764e-88
 1.00278e-88
 3.49459e-88
 3.32236e-88
-3.46481e-88
 2.70967e-88
 4.10957e-88
-4.50794e-88
  4.7561e-88
 4.25256e-90
-2.81305e-88
-6.13489e-89
-4.54892e-88
 1.58781e-88
-4.04375e-88
-2.26003e-88
 -3.2886e-89
  1.1267e-88
-4.96452e-89
 2.54233e-88
-1.01021e-89
 2.07175e-88
 -2.2145e-90
 3.39213e-88
 6.59197e-90
  1.0695e-88
-1.22883e-88
 -3.8838e-88
-4.78169e-88
 3.93153e-88
 8.13144e-90
 4.65121e-88
-1.23174e-89
-1.48157e-88
 2.91609e-88
 1.46851e-88
-3.82938e-88
 1.96818e-88
 2.01707e-88
-4.13076e-88
-3.04677e-88
 4.26051e-88
 3.12247e-89
-2.53919e-88
 7.90846e-89
 1.32499e-88
 2.57271e-89
-4.59549e-88
-2.60578e-88
 4.81732e-88
 3.00333e-88
 2.34969e-88
 1.83158e-88
 -2.0763e-88
 6.84346e-89
-3.15998e-88
  4.0497e-88
 4.51201e-88
-1.98729e-88
 4.32451e-88
 3.38606e-88
 3.15052e-88
 3.91824e-88
-1.79459e-88
-3.38853e-88
 1.77685e-88
 4.73042e-88
-2.16142e-88
-1.31245e-88
 1.69001e-88
-1.23568e-88
 6.97273e-89
 8.93036e-89
 4.13306e-88
 3.21457e-88
 -3.3736e-88
 4.00578e-89
-1.58563e-88
 -2.9126e-88
 2.85129e-88
 -1.8258e-88
-4.96675e-88
 1.43506e-89
 -5.0517e-88
-1.98655e-88
-4.22963e-88
-3.15518e-88
-2.99433e-88
 -4.7751e-88
 -8.5968e-90
 -3.7273e-88
 3.66746e-88
-1.99292e-88
-4.86654e-88
-3.18461e-88
-3.24956e-89
 1.96681e-88
-3.51167e-88
 2.57012e-88
-4.40312e-88
 3.23483e-88
-3.72304e-88
 1.35065e-88
-9.29612e-89
-4.64745e-88
-4.92254e-89
 7.53286e-89
 8.09621e-89
 2.97861e-88
 2.89719e-88
-1.39657e-88
-3.90467e-88
 2.98694e-88
 3.80344e-88
-3.89987e-88
-4.05709e-88
  4.6303e-88
-1.99855e-88
-1.99492e-88
  4.9117e-88
 2.97198e-88
-6.65721e-89
 3.52169e-88
-4.07843e-88
-4.75761e-89
 -4.7204e-88
 6.53114e-89
-3.56643e-88
-3.17557e-88
-1.83424e-88
-2.91305e-88
-4.99822e-88
-5.00781e-89
  3.4941e-88
-8.71335e-89
 -9.1738e-90
-2.05564e-88
 4.93845e-88
 -4.3396e-88
-4.13451e-88
 2.77815e-88
-6.79668e-89
-2.98268e-88
 7.07609e-89
-1.93371e-88
-1.82606e-88
 1.70701e-88
-2.36089e-88
 1.23189e-88
 4.76859e-88
-2.50666e-88
-8.53614e-89
-9.54614e-89
-4.04246e-88
 1.24456e-89
 3.62612e-88
-3.70636e-88
-4.27991e-88
-4.99779e-88
-1.82543e-88
-1.05765e-88
-2.85434e-88
-1.76716e-88
 3.49806e-88
-4.41773e-88
   2.418e-88
-1.65116e-88
-1.41687e-88
 2.29897e-88
-9.34258e-89
-4.94878e-89
 1.96455e-90
 3.44257e-88
 1.57894e-88
-4.33023e-88
-3.54862e-88
 4.80938e-88
 2.43328e-88
-8.53014e-89
 9.83786e-89
 2.14439e-88
 1.69682e-88
-4.92731e-88
 -3.8677e-88
 2.71086e-88
 2.53645e-89
 4.81492e-88
   4.061e-88
 1.03023e-88
 4.87362e-88
-2.82192e-88
 5.02907e-88
 -3.0382e-88
 4.67423e-89
 3.46966e-88
-2.39943e-88
-2.17205e-88
-3.23898e-88
 1.24021e-88
-4.93056e-88
 8.83258e-89
-4.31215e-88
 1.45581e-89
-7.31651e-89
 2.32328e-88
 8.71852e-89
 7.76225e-89
 2.07518e-88
-1.75234e-88
 4.97971e-88
-1.99852e-88
-4.66543e-88
 1.61905e-88
-1.86933e-88
-3.47664e-88
-7.27575e-89
 3.44081e-88
 -3.7192e-88
-1.72406e-88
-5.86436e-89
-3.90306e-88
 5.10522e-89
-6.14841e-89
-1.88476e-88
-4.07954e-88
-2.20267e-88
  7.7231e-89
-1.19509e-88
 -3.8515e-89
-3.04496e-88
-1.06916e-88
-4.55937e-88
-2.30062e-88
 4.13292e-88
-2.34527e-89
-5.03482e-88
-5.27073e-90
-4.51578e-88
 2.09685e-88
 3.25144e-88
-4.59355e-88
-4.95915e-88
 3.64251e-88
 2.08199e-88
-1.77198e-88
-4.89161e-88
-3.70307e-88
-3.38865e-88
-3.55432e-88
-3.70629e-89
 1.08141e-88
-2.40088e-88
-4.91759e-88
-4.59091e-88
 7.70852e-89
-3.94063e-88
-1.73708e-88
-3.51432e-88
-7.92203e-90
 2.93427e-88
-1.50279e-88
 3.90812e-88
 3.43139e-88
 1.25309e-88
 2.98356e-88
-1.86062e-88
 1.27476e-88
-2.12663e-88
 -1.3199e-88
-1.68587e-88
-3.93266e-88
-8.56961e-89
-1.58852e-88
 4.76634e-88
-3.83245e-88
 1.69599e-88
 4.93123e-88
-2.47902e-88
 3.36384e-88
-3.68057e-88
 2.20684e-88
 -6.1223e-89
-1.02496e-88
 2.34575e-88
-1.46645e-89
 4.80239e-88
 3.46162e-88
 3.17277e-88
-3.76941e-88
-1.67508e-88
 1.04956e-88
  -2.157e-89
-2.82444e-88
-5.76532e-89
-4.02009e-88
-4.89836e-88
 2.61935e-88
 2.31117e-88
-1.96849e-88
-3.75804e-88
-4.43218e-88
 -8.4465e-89
   4.415e-89
-9.64201e-89
-1.13579e-88
 1.66554e-88
-4.32569e-88
-1.26204e-88
 4.24302e-88
 4.09465e-88
  1.1388e-89
 1.39238e-88
-1.57506e-88
 4.14541e-88
-1.31935e-88
 3.33479e-88
 3.89032e-88
 -2.9152e-88
 1.45008e-88
-4.93657e-88
 4.66217e-89
-2.55784e-88
-9.57737e-90
 2.69828e-88
 1.92212e-88
 9.40632e-89
-8.09098e-08
-5.59473e-08
-1.80568e-88
-4.16955e-88
 1.31061e-07
-1.18136e-88
 4.22999e-90
-3.83353e-88
-1.60267e-07
-6.09878e-07
 2.88851e-88
-4.30373e-07
-1.16435e-07
 2.07405e-88
 2.67891e-88
  2.4567e-07
-2.29135e-07
-1.20602e-08
-1.60888e-08
  2.1461e-88
 2.44595e-08
 7.34639e-89
-2.77252e-08
 8.30261e-89
 5.36355e-07
-3.03873e-89
-2.76762e-07
   -2.69e-07
 2.00863e-07
 1.50873e-07
-1.19351e-10
-1.70504e-08
-1.08923e-08
 6.79776e-08
-7.36968e-08
-5.79437e-16
-1.28958e-88
-2.94924e-07
-5.72896e-09
 -2.2493e-08
  8.0589e-86
-2.89132e-07
 5.14321e-07
 6.32719e-08
-3.47041e-88
-2.93141e-09
-1.28787e-08
-4.96568e-91
 -1.4158e-07
-8.46057e-09
-2.91635e-88
-5.01199e-08
  -4.109e-09
-3.68644e-88
 2.08641e-07
-1.08396e-88
 -1.9503e-08
-2.58918e-88
-3.26149e-89
  3.4596e-88
 2.66087e-88
-3.68519e-88
 3.65196e-88
 1.16923e-07
-3.79341e-88
 4.73127e-88
  1.8683e-07
-3.67893e-08
-6.39689e-08
 4.47747e-88
  -7.335e-17
-4.23494e-88
-1.06699e-88
 2.82354e-07
 3.54868e-88
 5.19096e-89
-3.75423e-89
 -1.0253e-88
-4.54335e-88
  3.8659e-09
-3.35412e-16
 3.68961e-07
-3.13737e-88
-7.81428e-17
-2.79957e-21
 1.05851e-88
 3.39303e-88
 2.10726e-08
 3.98281e-08
-1.99059e-88
 3.49166e-88
-2.49789e-08
-6.19284e-89
 2.31174e-07
-1.59083e-88
-4.09811e-08
-1.15026e-07
-2.76771e-09
  8.4161e-09
-3.53003e-08
-3.05951e-08
  2.2102e-88
-1.28029e-07
 4.61414e-88
-1.04879e-88
-3.18939e-88
 1.40905e-09
 -3.2672e-16
 8.41815e-89
 2.27984e-07
-2.87167e-88
-1.12364e-07
 4.19108e-07
 3.05685e-08
 1.62035e-88
-3.36299e-07
-4.95151e-88
-4.40905e-90
 8.25617e-07
 5.65564e-09
 3.02181e-88
-3.17671e-44
 1.09731e-07
-1.35116e-07
-7.85777e-08
  3.1682e-88
 3.04535e-88
-2.08799e-07
 -6.8463e-89
-4.68301e-09
 2.01724e-88
-1.25253e-07
-5.02762e-08
-4.72082e-88
-3.46372e-07
 4.82211e-88
-2.85371e-88
-4.28562e-89
 8.30723e-08
  3.0446e-88
-4.89714e-88
 1.84717e-07
-4.50796e-85
 4.16972e-07
 2.11801e-07
 1.80732e-88
-4.75455e-08
-3.23285e-89
 2.26927e-07
-2.26424e-88
-4.75713e-09
 3.19992e-07
 6.53429e-08
 7.60407e-08
-2.92837e-88
-3.88699e-88
-1.14076e-08
 -4.9405e-88
-2.16466e-09
-4.62232e-88
 3.77767e-88
  1.1697e-07
 -4.6833e-88
-4.65422e-89
 4.16052e-08
 4.92636e-88
-7.00795e-89
-3.82946e-83
 3.69083e-07
 8.18791e-08
 3.04947e-08
 1.75706e-07
-1.83708e-88
  -5.103e-08
 -1.0328e-07
-9.86168e-09
-4.94546e-88
-1.50423e-88
-3.19093e-07
-3.18321e-88
-1.72441e-08
 7.16918e-89
 1.30193e-07
-8.03928e-10
-1.01835e-07
 1.82937e-07
-4.18977e-88
 3.86188e-07
 -2.3083e-07
-2.92078e-88
-2.88647e-09
-1.42316e-07
 2.70857e-08
-4.46181e-88
 7.13326e-10
-2.98189e-88
-2.64591e-08
-3.65951e-88
 2.20522e-88
-9.61124e-90
-9.64365e-89
-4.73454e-88
 4.56006e-88
 2.25505e-88
-1.37335e-88
-2.55367e-88
-1.12799e-90
-1.26231e-88
 9.98716e-89
  2.4556e-88
 6.10971e-89
-2.77062e-88
-1.88496e-88
 2.21084e-88
 -3.0734e-88
 1.84004e-88
-4.17515e-88
-2.20668e-88
 1.62735e-88
-3.31151e-89
 4.34893e-88
 1.84884e-88
 2.23303e-88
 3.43922e-88
 2.44353e-88
-7.25681e-89
-4.60015e-88
  2.9071e-88
 6.71305e-89
 2.66156e-88
 -2.2465e-88
 4.76344e-88
 2.98352e-88
-2.74392e-88
 1.96101e-88
 -3.4473e-88
-2.41089e-89
-3.10775e-88
 3.46883e-89
-4.29985e-88
 4.40434e-88
-4.09963e-88
-2.01398e-88
 -2.5381e-88
 3.16771e-88
-3.08803e-90
 4.35844e-88
 4.04906e-88
 2.81894e-88
  9.2831e-89
-1.33957e-88
 2.11039e-88
-2.28033e-88
-4.16402e-88
 4.92134e-89
-4.89428e-88
 1.66797e-89
 9.48482e-89
 3.06931e-88
-4.21938e-88
-1.44743e-88
-4.23467e-88
-4.51342e-88
-3.52139e-88
-1.92209e-88
 2.50408e-88
 -1.9122e-88
 2.89332e-88
 4.45283e-88
 3.49118e-88
 3.64996e-88
 3.79969e-88
 4.44805e-88
 -3.4215e-88
-3.79589e-88
 2.55828e-88
 1.60412e-88
-4.49493e-88
 1.54986e-88
 -6.3442e-89
 1.48988e-88
-4.84719e-88
-3.58151e-88
 4.26604e-88
-3.95471e-88
 1.96712e-88
 4.42826e-88
 1.26858e-88
-2.14187e-88
 2.44008e-88
  2.1057e-88
 1.46719e-88
 3.26191e-88
 2.64877e-88
  3.0023e-88
-3.71766e-88
 9.53759e-90
-3.96738e-88
 4.23216e-88
-5.09277e-89
  4.5803e-88
 2.82464e-88
-1.76707e-88
 3.97087e-88
 4.45964e-88
-5.06455e-89
 1.47168e-88
 1.00628e-88
 5.51137e-90
-2.03594e-88
-4.68562e-88
-3.51249e-88
-1.82664e-88
-3.21063e-88
-4.30392e-88
-7.24859e-89
 3.81299e-88
-4.93315e-88
-4.51376e-88
-3.38637e-88
 2.56343e-88
 2.64844e-88
 3.13732e-88
 7.67866e-89
 2.39729e-89
 1.08214e-88
 2.10671e-88
-4.72238e-88
 2.17125e-88
 1.28138e-88
-1.75156e-89
 1.69407e-88
-9.51459e-89
 3.11428e-88
 6.07464e-89
 -1.5493e-88
-2.44966e-88
-2.97834e-88
 4.51348e-88
 2.66195e-88
 4.22114e-90
 4.88436e-88
 4.20596e-88
 3.27207e-88
-3.38375e-88
 4.95853e-88
-2.51027e-88
-4.62825e-88
 -5.0321e-88
-1.96753e-88
-2.95811e-88
 2.58783e-88
-4.37658e-88
-4.87827e-88
-1.70178e-88
 9.19647e-89
 1.26036e-88
-4.65256e-88
 1.25377e-88
-1.62587e-88
 1.68532e-88
-3.97887e-88
-4.98928e-88
-4.32362e-88
  4.1919e-88
 6.74679e-89
-8.16418e-89
-3.31524e-88
 2.75283e-88
-1.36042e-88
 4.40321e-88
-2.26243e-88
-1.53354e-88
 3.55169e-88
-4.04785e-88
 1.39198e-89
 3.45274e-88
-1.50162e-88
  5.6745e-89
 3.47714e-88
 1.58734e-88
 2.66583e-88
  1.0075e-88
 2.26726e-88
 2.84406e-88
 4.36221e-88
-1.87058e-88
-9.53065e-89
 4.76615e-88
 4.43969e-88
 2.47756e-88
 1.39399e-88
-4.59666e-88
 2.54478e-88
 2.12688e-88
 4.65174e-88
-1.83803e-88
-3.74702e-88
-3.72097e-88
-4.14267e-88
-2.66466e-07
 -2.0726e-07
-1.34861e-88
-1.97436e-07
 3.75524e-07
-3.39958e-89
-1.44627e-88
 2.62821e-88
-1.02827e-07
-2.59698e-07
 1.04787e-88
-4.13312e-07
 -7.4363e-08
-3.00211e-88
-1.50276e-07
 7.82281e-07
-4.56969e-07
-4.05431e-08
 -7.5552e-08
-3.98871e-88
 3.95173e-08
-8.68453e-08
 3.87929e-07
-1.74778e-90
 5.46094e-07
-4.68827e-89
-1.71492e-07
-1.43585e-07
 1.08511e-07
 1.63742e-07
-5.28985e-07
-9.17967e-09
 -5.1189e-08
 5.69163e-07
 -3.3875e-07
-2.99442e-07
 1.02616e-88
-1.82851e-07
-1.57346e-08
-4.28764e-08
 2.80561e-87
  5.1465e-08
 7.05229e-07
-4.65574e-08
-3.61548e-88
-7.49648e-08
 5.59831e-10
-2.25636e-88
-5.27769e-08
 9.09601e-08
-1.18858e-88
-9.47171e-08
-8.86002e-08
-3.78428e-88
 5.71975e-08
-3.46811e-88
-6.51308e-08
-4.89756e-88
 3.39026e-88
-3.41344e-88
 1.07124e-88
 1.04849e-88
-2.62473e-88
  5.2347e-09
  2.4146e-88
-3.42148e-88
 4.68254e-08
 2.78184e-07
-1.59692e-07
-3.28488e-88
-4.56952e-09
 1.32564e-88
-3.89824e-88
 3.89888e-07
-1.21546e-90
-2.45722e-88
 2.48919e-88
 3.27914e-88
 3.42911e-89
-9.98475e-08
-2.10777e-08
 4.01255e-07
 -8.8876e-89
-4.86625e-09
-3.84358e-07
-1.86852e-07
 4.72586e-88
 3.37031e-08
 6.28998e-08
 3.05864e-88
 2.87201e-88
-3.12085e-07
 -9.5035e-89
 6.95892e-07
 3.58739e-88
-3.59294e-88
-3.17518e-88
-9.10981e-09
 1.60096e-08
-6.69621e-08
-7.68498e-08
-2.58757e-88
-4.24803e-07
 4.89262e-88
-9.54894e-08
 2.58581e-88
-5.21354e-08
-2.04681e-08
  8.0747e-89
 1.69733e-07
 5.01851e-88
-2.12359e-07
 3.85964e-07
 5.02449e-08
-9.81023e-89
-7.35415e-08
-1.23433e-88
-1.31264e-88
 8.37537e-07
 1.62348e-07
-3.31148e-88
 -1.3095e-07
 3.32123e-07
-8.87272e-08
-2.62632e-07
 3.12798e-88
 2.25793e-88
-7.85298e-08
 3.32535e-90
-3.83777e-07
 4.79965e-88
-4.15545e-07
 3.92944e-07
-2.71636e-88
-1.29833e-07
-1.52187e-88
 4.92594e-88
 9.79692e-89
 8.45688e-08
  6.7593e-89
-1.30047e-88
 2.55525e-07
-2.33102e-07
 4.51012e-07
 9.02902e-08
 6.32822e-89
-1.59464e-07
-4.57376e-07
 3.11255e-07
-3.54431e-88
-1.18248e-07
 4.24096e-07
  2.4327e-09
 1.44767e-07
 1.85895e-88
-5.00536e-89
 -1.3567e-08
-5.41566e-08
 2.77944e-53
-3.88658e-08
  1.1629e-88
 3.83093e-07
   2.812e-88
-4.37865e-88
 6.78698e-08
 -3.7002e-88
-8.44128e-89
-5.31394e-08
  5.0654e-07
 5.24726e-08
 1.54469e-07
 6.58357e-09
-1.02591e-88
-9.66823e-08
-6.65253e-08
-1.39599e-07
-2.21562e-88
-2.10102e-07
-1.18969e-07
-2.89634e-88
-1.22785e-07
 2.11998e-88
 1.06336e-07
-5.97272e-08
-3.83557e-08
 3.47833e-07
 3.51432e-88
 5.29311e-07
-8.61011e-08
-2.95141e-07
-7.29668e-08
-1.68219e-07
 1.38344e-08
 3.93007e-88
-2.95634e-08
-7.56201e-89
 2.97625e-07
-3.82538e-08
-8.37101e-89
 2.56488e-88
-1.06933e-05
-9.33441e-06
 3.59942e-88
 2.14022e-05
 4.33963e-05
 -4.8508e-88
-3.92703e-88
 4.80678e-88
-2.54586e-05
-7.62654e-06
-3.14703e-88
-6.65198e-05
-1.84796e-05
 7.74172e-90
 1.91206e-05
 8.44091e-05
-5.33091e-05
-1.69273e-06
 -8.4655e-06
 4.24595e-88
 2.97583e-05
 6.44798e-06
 5.82864e-05
-1.00862e-88
 3.63072e-05
-4.69646e-88
-4.20147e-05
-1.86652e-05
 3.44468e-05
 2.64077e-05
-6.77084e-05
 1.36031e-07
-5.75608e-06
 8.14029e-05
 -3.7764e-05
-3.90857e-05
 5.20505e-89
-4.46964e-05
 1.81135e-06
-2.97707e-06
 3.37614e-84
  2.8029e-06
 6.76532e-05
-3.43804e-05
 8.55648e-89
-1.62089e-05
 6.60949e-06
-4.09899e-88
-2.78068e-06
 1.28164e-05
 -4.9113e-88
-6.49651e-06
-2.72666e-05
 4.63762e-88
  3.1702e-05
 4.73705e-88
-2.59864e-06
  1.4749e-88
 3.94504e-88
 3.81252e-89
  3.9285e-88
 6.60435e-89
  5.0435e-88
 2.83555e-05
-4.08224e-88
 2.78693e-88
 2.04247e-05
 1.08172e-05
   1.876e-05
 4.12645e-88
 1.40067e-05
 -2.6743e-88
 4.90399e-88
 4.68052e-05
-3.04099e-88
 7.01658e-89
 4.10907e-88
-1.43548e-88
 1.65916e-88
-4.09201e-07
 6.45962e-05
 6.48243e-05
 2.69552e-88
 1.48947e-05
-2.58593e-05
-1.92954e-05
-4.61502e-89
 2.57566e-05
 4.75726e-05
-1.57394e-88
-3.35153e-88
-5.50425e-05
 4.14299e-88
 7.45555e-05
-2.75127e-88
 2.27852e-06
 6.92968e-06
-3.68298e-07
 2.08877e-06
-4.61711e-06
 8.70085e-06
 3.36626e-88
-1.71587e-05
-3.63546e-88
 7.25319e-06
-4.63708e-88
-8.81758e-06
 6.24604e-05
-1.01552e-88
 4.33839e-05
 3.89409e-88
-1.44647e-05
 6.00243e-05
 3.88272e-05
-1.99792e-88
-4.93438e-06
-2.64661e-88
 2.59707e-88
 5.47961e-05
 2.39967e-05
-4.03566e-88
-1.49662e-05
 3.55804e-05
-1.31981e-05
-1.00707e-05
  3.2351e-88
-4.88946e-88
-4.27067e-06
-4.37328e-88
-5.36394e-05
-2.98003e-88
-1.61442e-05
 5.45915e-05
-4.57458e-88
-6.91297e-06
-3.68692e-88
-4.15392e-88
 -4.3125e-88
 5.56942e-06
-1.11755e-89
-5.31627e-89
  3.0623e-05
 9.00496e-06
 4.81263e-05
-5.58233e-06
 1.07977e-88
-6.75047e-06
-4.48297e-05
 2.98544e-05
  8.6841e-90
-2.51333e-05
  4.8597e-05
   4.575e-06
 1.88391e-05
-2.40621e-89
 1.54561e-88
-3.08819e-06
 3.98882e-06
 1.17527e-07
 2.83888e-06
-3.40869e-88
 4.14849e-05
 1.23531e-88
 1.67481e-88
 5.16798e-05
 4.91409e-88
 3.04596e-88
 2.42222e-06
 4.86011e-05
 2.87386e-06
 1.17793e-05
 1.30068e-05
-4.70827e-88
-6.67766e-06
-1.65118e-05
-3.52267e-06
 5.00895e-88
-7.82524e-06
-2.39275e-05
-1.41928e-88
-3.36705e-05
 1.14624e-88
  1.8932e-05
-1.11178e-05
-2.10549e-06
   4.533e-05
-1.48346e-88
 6.32603e-05
-1.73329e-05
 -1.0988e-05
-1.56017e-05
-3.76866e-05
  4.6096e-06
-2.28595e-89
  2.7312e-06
 6.57421e-89
 4.18744e-05
  3.0865e-06
-3.45623e-88
 2.25615e-89
 5.72596e-05
 3.31737e-05
-4.76289e-88
 0.000223881
 5.06227e-05
-4.69877e-88
-3.24708e-88
 1.24531e-88
-2.41725e-06
 0.000117471
 4.88196e-88
-6.03165e-05
-1.71934e-06
 3.11461e-88
 0.000226048
 9.90811e-05
 -4.4324e-05
 7.94658e-06
-2.00967e-05
  4.0802e-88
  0.00013385
 7.98504e-05
 0.000144969
 1.54811e-88
-0.000143285
-1.70136e-89
-0.000203718
-1.40225e-05
 0.000144339
 5.25903e-05
-9.32004e-05
 3.74073e-06
 -1.3651e-05
  0.00016856
-8.89637e-05
-3.71919e-05
-5.27993e-89
-0.000216748
 1.95126e-05
-2.72374e-06
-9.26482e-85
 3.54217e-05
-7.64638e-05
-0.000233035
 1.59977e-88
-4.33562e-05
 2.09102e-07
 2.70624e-88
 2.03231e-05
 3.01468e-05
  1.7233e-88
-5.80582e-06
-0.000150671
 3.14725e-89
 0.000161404
-2.26287e-88
 1.40632e-05
 1.99663e-88
-3.66561e-88
 4.26257e-88
-4.31251e-88
  2.2224e-89
 2.31011e-88
 1.40376e-05
 4.39877e-88
-3.09551e-89
 1.06612e-05
 -1.8099e-05
 0.000200025
 3.05678e-88
 8.65453e-05
-3.21664e-88
 1.54191e-88
 3.85617e-05
-4.01646e-89
-1.91591e-88
 4.25732e-88
-1.52426e-88
-4.26723e-88
 2.68258e-05
 0.000399066
 0.000129526
 4.87086e-88
 9.20117e-05
-2.81972e-06
-1.98276e-05
-4.21042e-89
 0.000115867
 0.000213512
 9.81402e-89
-2.88053e-88
-0.000113888
-3.85385e-88
 8.38733e-05
 4.26854e-88
  1.0732e-05
 3.50788e-05
 1.91455e-06
 1.69317e-06
-4.15941e-06
 9.39537e-05
-1.17966e-90
 8.99137e-05
-1.90893e-88
 8.88898e-05
-5.68659e-89
-1.87594e-05
 0.000386064
 2.96514e-88
 0.000158528
 -2.5398e-88
-1.29811e-05
 0.000106793
 0.000175353
-2.21399e-88
  4.2814e-05
 1.93699e-88
 2.42808e-88
-0.000223927
 4.83841e-05
-1.64877e-88
-1.82549e-05
 4.00806e-05
-1.35092e-06
 6.28063e-05
-5.01564e-88
 9.84024e-90
 2.95723e-05
  3.6428e-88
-7.33587e-05
-1.05718e-88
 9.47508e-05
 0.000129278
-1.21771e-88
 4.95448e-05
 1.19843e-88
 3.27719e-88
-4.84758e-89
 9.71999e-06
 1.18346e-88
-3.52027e-88
 2.50308e-05
 0.000157013
-3.39222e-05
-6.21944e-05
 5.04178e-88
 3.08324e-05
-4.28315e-05
-3.37574e-05
-1.50896e-88
-6.67313e-05
 2.72609e-05
 9.86608e-06
 1.52795e-05
 2.97522e-89
 2.71657e-88
-1.65415e-05
  4.9538e-05
 5.39981e-07
 4.76236e-05
 4.91939e-88
  4.9354e-05
-3.05779e-88
 -6.9826e-89
 0.000232729
-4.77672e-88
-4.55445e-88
 3.84526e-05
-5.47818e-05
-2.48515e-05
 1.86761e-05
 2.92751e-05
 2.25857e-88
-5.99859e-06
 2.65975e-07
 2.33721e-05
-2.12766e-88
 2.28403e-06
-1.56618e-05
-4.79358e-88
-0.000168242
 3.19148e-89
 5.88376e-05
-2.97744e-05
 1.43442e-05
 3.66646e-05
-2.34549e-88
  5.1538e-05
-1.13993e-05
 3.22178e-06
-4.15271e-05
-0.000200197
 1.97386e-05
-4.64721e-88
 3.79562e-05
   2.521e-89
 9.81619e-05
  4.8409e-05
 -1.4327e-89
 4.83756e-89
 0.000174303
 0.000119261
-3.24248e-88
 0.000387076
 1.94002e-05
-8.95279e-89
 3.53096e-89
 1.48091e-88
-3.50515e-05
 8.82402e-05
 1.74345e-88
 -0.00016235
-2.52605e-05
 2.74956e-88
 0.000493957
 3.98599e-05
-0.000106303
 2.53084e-05
-2.46096e-05
-4.36177e-88
 0.000218867
 0.000138742
 0.000121317
 1.71117e-88
-0.000252562
 3.10657e-88
-0.000363913
-7.90808e-05
 0.000289624
 9.37638e-05
-0.000124103
 3.54062e-06
-1.67074e-05
 0.000150145
-0.000108965
 1.13506e-06
 -3.5629e-89
-0.000387074
 3.34768e-05
-4.06208e-06
-1.32595e-84
 -6.1934e-05
-0.000133288
-0.000344454
-3.12846e-88
-5.52187e-05
-6.11436e-06
 9.23961e-89
 3.10969e-06
 2.09668e-05
 1.61234e-88
-8.81864e-06
-0.000221405
 -1.1919e-88
 0.000336018
-2.48151e-88
 4.28297e-05
 8.73023e-91
 8.18925e-89
-3.73333e-88
-3.22904e-88
-4.41353e-89
  4.7437e-88
 2.06526e-05
 1.05802e-89
-7.39186e-89
 2.84386e-06
-0.000152313
 0.000342705
 2.74228e-88
 0.000144422
 2.48545e-88
-3.13848e-88
 4.42829e-05
   4.419e-88
 -1.2109e-88
-6.04777e-89
 -1.6339e-88
 4.76955e-88
 8.18155e-05
 0.000665989
 0.000230482
-6.67503e-89
 0.000153545
-3.37068e-05
-1.65529e-05
-1.36252e-88
 0.000189434
 0.000349197
 4.52806e-88
 -1.6833e-88
-0.000162045
-9.72583e-89
  3.2003e-05
-1.55452e-88
 1.33084e-05
 4.61873e-05
 5.88441e-06
 1.03566e-06
-6.27095e-06
 0.000160811
-1.98172e-88
 0.000275772
-1.70976e-88
 0.000154392
 3.34994e-88
-9.29877e-06
 0.000644282
-3.34221e-88
 0.000305359
-2.26778e-88
-1.98365e-05
 0.000219642
 0.000286623
-1.04311e-88
 -2.6834e-05
 -5.0202e-89
  2.6594e-88
-0.000393632
 4.59034e-05
 2.12981e-88
-1.95693e-05
 1.53457e-05
 -3.1711e-05
 0.000183354
-3.97199e-89
-4.76421e-88
 3.72598e-06
 3.33926e-88
 -8.8579e-05
-4.60895e-88
 0.000281779
 8.96503e-05
 4.44287e-88
 6.98667e-06
-2.40152e-88
  2.7396e-88
-4.91451e-88
 3.19539e-05
 4.45134e-88
 1.98999e-88
 2.85649e-05
 0.000280963
-8.29962e-05
-6.08505e-05
 1.28519e-88
 9.94507e-05
 -3.5666e-05
-5.88377e-05
 3.72782e-88
-8.50566e-05
 2.47682e-05
 1.60965e-05
 9.43716e-06
-2.93074e-88
 4.03096e-88
-2.82903e-05
 8.60836e-05
 6.52138e-07
  0.00011185
-3.44362e-88
 1.97968e-05
-2.56622e-88
-1.11202e-88
  0.00038041
 4.97323e-89
 1.45711e-88
 6.85904e-05
 -9.5545e-05
-3.79961e-05
-1.67855e-06
 4.31104e-05
-9.74064e-89
-9.03398e-06
-1.86866e-05
 8.77286e-05
 -1.6575e-88
 4.29301e-06
-0.000142327
 2.23391e-88
-0.000238156
-3.25483e-88
 8.96394e-05
-3.74327e-05
  1.6352e-06
 2.23955e-05
  -3.963e-88
 5.87179e-05
-0.000103129
 6.03577e-06
-5.28881e-05
-0.000343527
  3.9737e-05
-3.78792e-88
 8.82116e-05
 1.91834e-89
 6.82412e-05
 0.000112397
-4.37565e-88
-2.65272e-88
 0.000251986
 0.000174862
-2.45967e-90
 0.000485462
-3.53824e-05
 2.71266e-88
-1.30922e-88
 1.07033e-88
-7.67644e-05
  0.00013722
-1.75098e-88
-0.000212149
-5.58916e-05
-3.60318e-88
 0.000601046
 9.94555e-06
-0.000101929
 3.67654e-05
 -5.2323e-05
-6.37251e-89
 0.000215341
  0.00015065
 0.000127276
 3.19514e-88
 -0.00034095
 1.69097e-88
  -0.0003902
 -7.2704e-05
 0.000320849
 0.000111599
-6.62158e-05
 5.53476e-06
-3.54249e-05
 0.000144578
-0.000231915
 6.68308e-05
  3.0823e-88
-0.000414175
 4.27904e-05
-1.27206e-05
-1.36514e-84
-7.71054e-05
-0.000250483
-0.000382238
-1.98493e-88
-4.87766e-05
 -5.4978e-06
-2.58198e-89
  1.2771e-05
 1.30004e-05
 4.15357e-88
-2.79151e-05
-0.000252867
  2.7564e-88
 0.000374008
 3.78208e-88
 6.18756e-05
 3.22329e-91
-3.27369e-88
 5.73848e-89
 4.07045e-88
 2.20119e-88
 9.82853e-90
 1.44477e-05
 2.58786e-88
  2.0405e-88
 5.68322e-06
-0.000270224
 0.000440708
 4.26337e-88
 0.000184548
 7.57626e-90
-4.23794e-88
 5.65282e-05
 1.09472e-88
-1.16723e-88
 3.90227e-88
 2.28136e-88
 3.63105e-88
 0.000121645
 0.000851062
 0.000274232
 1.03131e-89
 0.000196193
-1.13024e-05
-1.30547e-05
 8.72893e-89
 0.000186374
 0.000343651
 2.67117e-88
