 2.06497e-23
-1.19476e-22
 1.27646e-22
 1.20956e-22
 -1.4058e-22
-1.02108e-22
 6.36056e-23
 1.37821e-22
-9.17351e-23
 1.52253e-22
 1.75557e-22
 6.52391e-23
-1.16192e-22
 1.04377e-22
 1.30569e-22
 1.31263e-22
 -1.4027e-22
-1.69547e-22
 4.87612e-23
 1.09507e-22
-9.48509e-23
-3.39319e-23
-7.49415e-24
  1.0111e-22
-1.27463e-22
-7.70705e-23
-1.19536e-22
-7.27236e-23
-9.92999e-24
 1.04897e-22
 1.21632e-22
-1.70472e-22
 1.66569e-22
 6.80858e-23
 1.31632e-22
-1.55204e-22
 1.47127e-22
 1.40455e-23
 1.63766e-22
-1.25801e-22
-1.48933e-23
 1.58131e-22
 1.20587e-22
 5.00634e-23
 8.13158e-23
 6.99641e-23
 1.33752e-25
 1.22195e-22
 8.15654e-23
-1.32297e-22
 5.05097e-23
 1.67863e-22
 1.49194e-23
-1.38177e-22
 8.77809e-23
 6.86047e-23
-3.40985e-23
 1.49393e-22
  1.7703e-22
  1.3712e-22
 7.30977e-23
  1.1747e-22
 1.47796e-22
 5.84745e-23
  4.3634e-24
 9.82361e-23
 8.44194e-23
-2.97021e-23
-6.89106e-23
 6.69936e-23
 2.56459e-23
 9.73447e-23
 4.39326e-23
-3.49591e-23
-3.37841e-23
-5.59437e-23
-1.46187e-22
 1.47498e-22
-1.14941e-22
 1.16527e-22
-1.65991e-22
 1.16717e-22
 1.03198e-22
 3.00768e-23
 1.59689e-22
 9.78636e-24
-8.25106e-23
-5.56014e-23
-2.20126e-23
-8.66731e-23
-9.96734e-23
-1.30107e-22
-1.50395e-22
-1.33069e-22
 1.09516e-22
 3.51165e-23
 1.46315e-22
 1.27433e-23
-1.75778e-22
-1.03787e-22
-1.01455e-22
 3.10168e-23
 1.74706e-22
 1.23626e-22
 1.77206e-22
-4.02704e-23
 -1.1351e-22
-1.50173e-22
-7.39643e-23
-4.73024e-23
 1.47502e-22
-5.88069e-23
-1.11777e-22
 6.95079e-23
 1.52419e-22
 -1.3328e-22
-1.01898e-22
-1.11284e-22
-7.73295e-24
  5.7238e-23
-1.68088e-23
 7.37422e-23
  1.0828e-22
 1.39443e-23
 1.21821e-22
 3.66033e-23
-1.32131e-22
 8.69445e-23
-1.31846e-22
-1.26761e-22
 1.64306e-22
-5.21524e-23
 8.54049e-23
 1.57819e-22
-1.09719e-22
  8.1419e-23
-6.36433e-23
-4.20801e-23
 1.12395e-22
  4.3541e-23
 9.17661e-23
 7.87048e-23
 1.65883e-22
 1.61137e-22
-3.29794e-23
 1.37109e-22
-1.53335e-22
 4.62712e-23
-1.55367e-22
 2.00807e-23
-7.76829e-23
 8.97243e-24
-8.73693e-23
-1.50596e-22
-1.58275e-22
 -1.4674e-22
 6.71564e-23
-1.09258e-22
 1.21353e-22
 1.16459e-22
-5.48701e-23
 1.04467e-22
-1.16885e-22
-1.50657e-22
 8.10937e-23
-4.54552e-23
  1.1191e-22
-1.63742e-22
 9.36133e-23
 4.31126e-23
 6.09479e-23
 4.18719e-24
-5.93748e-23
 4.56384e-23
-1.58676e-23
 8.87944e-23
 1.55528e-24
  1.1946e-23
-4.61266e-23
 2.73365e-23
-1.49165e-22
 5.73391e-23
-1.44883e-22
-5.53862e-23
 8.78922e-23
 -1.2201e-22
-2.09777e-23
-2.61436e-23
-5.01197e-23
-8.08168e-23
-9.08764e-23
 7.61588e-23
-1.57542e-22
 -2.6613e-23
  1.0665e-22
   1.047e-22
  1.0908e-22
 3.73679e-23
 1.22107e-22
 2.15015e-23
-1.00712e-22
 1.86237e-24
-1.55503e-22
 2.10621e-23
-1.33691e-22
 9.77751e-24
-7.13357e-23
 4.90124e-23
-1.59469e-22
 6.36863e-23
-1.04843e-22
-1.27485e-22
-6.01667e-23
-6.85779e-23
-1.72307e-24
-1.53467e-22
-9.43938e-24
 1.58448e-22
 1.53828e-24
  1.2159e-22
-1.03561e-22
 9.18104e-23
 1.65561e-23
 -7.9955e-23
-1.15995e-22
-5.79861e-23
-1.56447e-22
 1.74234e-22
  1.6053e-22
 1.46808e-22
 1.45436e-23
-1.21373e-22
-3.25218e-23
 4.01887e-23
 8.08372e-23
 1.49354e-23
-1.31226e-22
-1.71691e-22
-1.17244e-22
-1.09546e-22
 7.31443e-23
 -4.0939e-23
-5.58829e-23
-1.68215e-22
 7.16317e-23
 1.23543e-22
-1.40533e-22
   -1.19e-22
 1.00798e-22
 4.21542e-23
-1.78603e-22
 1.78386e-22
-4.72275e-23
 1.91022e-23
-8.27614e-23
 1.79264e-23
 1.42265e-22
-5.80601e-23
 1.09685e-23
 1.21603e-22
-9.24443e-23
 -1.5568e-22
-1.80963e-22
 5.61825e-23
 6.56572e-23
  8.1023e-23
-1.10074e-22
  1.1558e-22
  9.0481e-23
-4.61701e-23
-1.75158e-22
-1.75668e-23
 9.40395e-23
-4.98926e-23
-4.63279e-24
 -1.5521e-23
-1.07542e-22
 3.59831e-23
 4.66277e-23
 1.74405e-22
-1.03055e-22
 4.91738e-23
 1.71598e-22
 3.08663e-23
-1.12916e-22
-9.23553e-23
  -1.324e-22
-1.51844e-22
 3.07332e-23
 5.97176e-23
 1.50908e-22
 1.19438e-22
 8.51861e-23
 1.51093e-22
-5.57214e-24
-3.03489e-23
 5.09244e-23
 6.55021e-23
-9.59612e-23
-3.97868e-23
 -1.6186e-22
-8.99709e-23
 1.23795e-22
 1.13328e-22
  4.1285e-23
  -6.203e-23
-8.33853e-23
 1.14891e-22
 1.55102e-22
 1.44391e-22
 1.08104e-22
-1.29145e-22
 1.23726e-23
   9.851e-23
 8.28696e-23
  8.0605e-23
-1.75037e-22
 1.31619e-22
  1.0991e-22
 3.68444e-23
 1.01441e-23
 7.96253e-23
-2.49102e-23
 -8.5862e-23
 4.95266e-23
 1.50666e-22
 6.49377e-23
-8.07412e-23
 3.49761e-23
 1.50125e-22
 6.06206e-23
 5.42645e-23
-1.21038e-22
 3.22342e-24
-1.35998e-23
 1.01396e-22
 1.22342e-22
 8.41635e-23
 3.50948e-23
 9.62516e-23
 4.73623e-23
-3.79934e-23
 1.48255e-22
-1.21457e-22
-1.20676e-22
 4.99324e-23
 1.40296e-22
-1.14564e-22
  3.5894e-25
 6.90139e-23
 1.03429e-22
-1.70689e-22
-3.25529e-23
-1.02674e-22
-7.54025e-23
-1.64218e-22
  -1.332e-22
 1.70684e-22
-6.38111e-23
 8.29249e-23
 1.39617e-22
 1.77958e-22
-4.40027e-23
-1.62613e-22
-1.06068e-26
 1.23546e-22
 1.19931e-22
-5.88608e-23
 2.65175e-23
-2.61666e-23
-1.43801e-22
-1.07312e-22
 1.16989e-22
-1.76739e-22
 -4.7621e-23
 1.77462e-22
 5.43424e-23
-8.85169e-23
-1.18295e-22
-1.26491e-22
 1.61646e-22
 1.66282e-22
-1.16031e-22
-5.20995e-23
-1.17584e-22
-1.02853e-23
-3.51694e-23
 -6.9635e-23
-2.07937e-23
 8.21682e-23
-1.67902e-22
-6.23692e-23
 7.89341e-23
-3.07564e-23
 -4.3834e-23
-1.02269e-22
-8.84024e-23
-1.05095e-22
 2.00192e-23
 1.19264e-22
 4.98865e-23
 5.73664e-23
-1.69241e-22
-1.43171e-23
 6.17764e-23
-3.57133e-23
-1.80476e-23
-6.50733e-23
 5.69184e-23
  4.4806e-23
-1.04155e-23
 3.73718e-23
  2.9896e-23
 5.47017e-23
 1.66421e-22
 9.34608e-23
-1.36776e-22
-4.99406e-23
-1.57366e-22
 2.35792e-23
-1.48965e-22
 -1.4412e-22
 1.42359e-22
 1.11118e-22
 6.27216e-24
-8.26676e-23
-1.72343e-22
 9.90184e-23
-6.61448e-24
  2.8825e-23
 3.70899e-23
 -1.3792e-22
-9.50007e-23
 4.89976e-23
 2.89114e-23
 1.47924e-22
-1.67908e-22
-1.70328e-22
-9.83412e-23
 7.01591e-23
 5.56262e-23
 7.23919e-23
-7.36613e-23
  -9.567e-23
-5.40985e-23
-8.84325e-23
 1.78939e-22
-9.72568e-24
 4.27754e-23
-1.59619e-22
-1.67339e-22
 7.49593e-23
-1.22591e-22
 1.56168e-22
 4.88524e-24
 6.48301e-23
-1.07691e-22
 1.36911e-23
-1.73437e-23
 6.68428e-23
-1.38676e-22
-1.61446e-22
 1.10071e-22
-5.25283e-23
 6.87001e-23
-4.22095e-23
-8.57962e-23
 8.19408e-23
-3.13893e-23
-2.98877e-24
-2.90922e-23
-1.56955e-22
-1.11789e-22
 7.83951e-23
-7.14767e-23
  1.5261e-23
 1.71111e-22
-7.37295e-23
-1.75657e-22
 3.26944e-23
-5.22001e-23
-1.61847e-22
-7.35384e-23
 6.35777e-24
  1.7547e-22
 1.12495e-22
-1.10004e-22
-1.13413e-22
-5.50057e-23
 5.38005e-23
 1.34578e-22
-1.25332e-23
  7.3503e-23
 6.34572e-23
 1.16087e-22
 -3.8989e-23
-1.59944e-22
-1.50901e-22
 -1.3824e-22
-1.01851e-23
 2.72585e-23
  1.3816e-23
 1.40082e-23
 9.66181e-23
-8.89811e-23
  1.2368e-22
-6.93131e-23
-9.90621e-23
-1.31242e-22
-6.38213e-23
 1.14781e-22
-2.29317e-24
-4.45197e-23
 -1.3995e-22
-1.77128e-22
-5.02417e-23
 1.53694e-22
-1.05983e-22
 1.74935e-23
-8.25037e-23
 1.28966e-22
-2.91205e-23
 8.61116e-23
 2.12766e-23
-1.46855e-22
 2.10065e-23
 1.63436e-22
-1.25651e-22
 5.12538e-23
-1.55996e-22
 4.53122e-23
 -1.0268e-22
 3.89683e-23
-1.21872e-22
 1.75087e-22
 1.31136e-22
-1.79384e-22
-7.54184e-23
-1.49118e-22
-1.29477e-22
 4.19089e-23
 1.46811e-22
 4.93785e-23
 1.78538e-22
-1.74331e-22
 5.33995e-23
-5.28961e-23
 1.60512e-22
 1.28565e-22
 1.45746e-22
-1.03184e-22
 7.63383e-23
-6.45667e-23
 1.64076e-22
-8.35772e-23
-3.02736e-23
 3.89046e-24
-1.01333e-22
 2.52237e-23
-1.26048e-22
-7.61809e-23
-1.10656e-22
-4.75791e-23
 1.43936e-22
-5.13795e-23
-5.36844e-23
 9.38796e-23
-4.96149e-23
 5.20458e-23
  1.2591e-22
 2.05677e-24
-8.72375e-23
 9.15284e-23
-1.29757e-22
-8.98919e-23
  9.8346e-23
 1.04791e-22
 3.83605e-23
 7.76656e-23
 5.21637e-23
 2.91436e-24
  1.5563e-22
-5.26902e-23
 1.19496e-22
 1.38514e-22
 4.48812e-23
-9.19695e-23
-3.87877e-23
 1.24697e-22
 1.14403e-22
  1.6313e-23
-1.32677e-22
-1.77446e-22
 1.49882e-22
-1.69933e-22
-4.76766e-23
-8.49941e-23
 1.05095e-22
 8.38571e-23
   1.482e-22
  4.9813e-23
-9.52783e-23
-1.20229e-22
-3.98508e-23
-4.38867e-23
-2.89728e-23
-1.22697e-22
-1.20288e-22
-1.71804e-22
 1.36117e-22
 1.13025e-22
 1.22585e-23
 1.10555e-22
-1.20858e-22
-4.94374e-23
 6.78769e-23
 1.05172e-22
 3.97417e-23
-1.52103e-22
 4.86763e-23
-2.70477e-23
 4.53586e-23
 9.71483e-23
-2.33448e-23
 1.40489e-23
 1.08364e-22
 1.10127e-22
 1.10203e-22
 3.22675e-23
  1.2792e-23
 7.72114e-23
-9.91118e-23
 9.86623e-23
 1.38131e-22
  4.2186e-23
-1.26417e-22
-7.20344e-23
 1.00638e-22
-6.55557e-23
-6.26902e-23
 5.55627e-23
-1.33723e-22
 1.30717e-22
-1.50744e-23
-7.34326e-23
-9.99127e-23
 -1.2839e-22
-1.49453e-22
 1.20978e-22
-9.93441e-23
 8.03719e-23
-8.72623e-23
 1.27163e-22
-3.67192e-24
 7.05415e-23
-3.99803e-23
-7.64999e-23
-5.23568e-25
-1.10969e-22
 1.36916e-22
-1.68924e-22
 1.47391e-22
-1.43388e-22
 1.10887e-22
 1.04329e-22
 7.99468e-23
 1.65619e-22
-1.48897e-22
-6.07734e-25
-8.11287e-23
 -3.0439e-23
-1.26237e-22
-3.37034e-23
-8.09143e-23
 3.98369e-23
 7.40125e-23
 3.21653e-25
 9.25958e-23
 1.05708e-22
-5.98929e-23
   1.744e-22
 4.88791e-24
 3.39934e-23
 1.20371e-22
-1.79976e-22
-7.66573e-23
-1.00801e-22
-7.53275e-23
 1.03968e-22
-3.06219e-23
-1.19604e-22
 1.16193e-22
-6.44232e-23
-8.18428e-23
 4.58876e-23
-1.41286e-22
 1.79253e-22
 3.03147e-23
-1.09035e-22
-2.54732e-24
-3.12631e-07
  1.2247e-07
 6.27957e-09
 3.86358e-07
-1.33606e-08
 -1.6167e-06
   -5.51e-07
-1.30451e-06
 3.66185e-07
 8.92192e-07
 3.00431e-07
 2.04238e-07
-2.53357e-06
 2.20991e-07
-2.53612e-06
-3.66462e-07
 -1.2709e-06
 1.65741e-06
-3.95138e-07
  6.9582e-08
 8.76336e-07
 8.40644e-07
-1.74476e-06
-4.20168e-07
 1.37999e-06
-4.79897e-07
 1.97537e-06
 2.57627e-07
-1.93654e-06
 5.94219e-08
 1.22283e-08
 1.15854e-08
-1.73459e-07
 1.21521e-06
-3.97432e-07
-1.26553e-07
 -1.6642e-06
-1.09155e-06
 5.32784e-07
  2.9845e-08
-4.30559e-07
 9.53335e-08
 1.68098e-07
 6.38335e-07
 2.09824e-07
 2.30332e-07
-9.86003e-07
-2.76771e-07
-1.56428e-07
-2.53636e-06
 -2.1011e-06
-3.30791e-07
-7.05605e-08
-1.74116e-06
-3.40434e-07
 1.50512e-06
 1.68493e-07
 7.49679e-07
 1.24387e-06
 -1.7768e-07
 3.81171e-07
 8.70814e-08
 7.52623e-08
 4.96161e-07
 1.23338e-06
-2.84087e-07
 1.30253e-06
   4.835e-07
 4.69814e-07
-3.46939e-08
-1.35377e-06
 1.82329e-06
-5.09968e-07
-3.63578e-08
 5.02576e-07
  2.2335e-07
 5.00129e-07
-4.23031e-07
 3.57569e-07
  1.8935e-07
 1.63929e-07
 1.51549e-06
-9.56192e-08
 7.68681e-07
-2.59469e-07
-3.28288e-07
  2.2994e-06
 4.71086e-07
 9.68928e-07
 3.87001e-07
 1.77408e-07
  1.8957e-06
  2.1135e-07
-1.94093e-06
 2.55949e-06
 9.97549e-09
-1.98908e-07
 1.96986e-07
 9.97267e-07
 9.08574e-09
 3.07828e-05
 3.19188e-05
-7.75928e-06
-3.16399e-05
-6.97934e-06
-2.63364e-05
-2.79189e-05
-1.14199e-05
-3.51861e-05
-1.04181e-05
-2.81206e-05
 9.74121e-06
 1.27446e-05
 1.01276e-05
 1.37165e-05
 3.09035e-05
 1.75979e-05
 2.65557e-05
 3.04841e-05
  -6.431e-06
-9.17861e-06
-9.76654e-06
-3.55267e-05
 2.72635e-05
-1.84463e-05
 2.79013e-05
  2.7439e-05
 -3.4776e-05
 -2.7848e-05
-5.06756e-05
-3.07444e-06
-1.56591e-06
-9.72306e-06
 2.03119e-05
 2.82199e-05
  3.2029e-05
-2.78345e-05
-1.86603e-05
 5.65084e-06
 3.13813e-05
 2.47029e-05
 8.74242e-06
-9.56306e-06
-2.76066e-05
 1.15061e-05
-9.85659e-06
 -1.3641e-05
 3.23049e-05
 8.60601e-06
 1.43502e-05
-2.12542e-05
   2.995e-05
-8.09796e-06
-2.55915e-05
-1.06666e-05
 2.92869e-05
-5.11943e-05
 1.21831e-05
 2.06272e-05
-5.65118e-06
-3.12602e-05
 2.82144e-05
 6.85566e-06
-2.67829e-05
 1.72251e-05
 3.30328e-05
 3.03397e-05
 2.74999e-05
 2.30729e-05
 5.39888e-06
-1.40334e-05
 -1.5031e-05
-2.95937e-05
 5.40916e-06
  9.6237e-06
 1.00896e-05
-2.36449e-05
 2.60765e-05
 -2.7394e-05
-3.25167e-05
-3.35501e-05
 2.10105e-05
-3.36242e-05
 2.97193e-05
 8.44549e-06
 3.48881e-05
-1.20307e-05
 5.46117e-06
 8.39585e-06
-3.20013e-05
-6.92945e-06
 2.78519e-05
-3.35429e-05
-2.78799e-05
-1.31601e-05
 -3.1788e-06
-3.16049e-05
 1.06411e-05
 8.38508e-06
-1.58353e-06
-1.11365e-05
 4.51753e-06
 -1.3405e-06
   1.107e-05
-2.27132e-05
-3.91164e-05
-1.29676e-05
 -4.5205e-05
 8.51317e-06
 2.07437e-05
 6.11192e-06
 2.89799e-05
-6.46249e-05
 3.11674e-05
-6.71258e-05
-1.85981e-05
  -3.857e-05
 4.89774e-05
-3.82815e-05
-1.03348e-06
 1.90196e-05
 1.81499e-05
 -3.9819e-05
-1.33126e-05
 4.55419e-05
-2.37241e-05
 5.29227e-05
 1.55218e-05
-5.23333e-05
 7.29659e-07
-2.63755e-06
-3.84059e-06
-2.80653e-05
 5.31117e-05
-3.05416e-05
-6.64285e-06
-4.78599e-05
-4.54829e-05
 1.53498e-05
-3.74972e-06
-1.18762e-05
 3.09481e-06
 5.12954e-06
 3.32233e-05
 2.44801e-05
 6.54611e-06
-3.24728e-05
-1.16336e-05
-3.60592e-06
-6.87453e-05
-5.65101e-05
-3.58071e-05
-2.26312e-05
-4.29368e-05
-3.12637e-05
 1.60149e-05
 3.84326e-06
 3.93977e-05
 5.39013e-05
-9.64689e-06
 1.92831e-05
 4.28953e-06
 2.46612e-05
  2.1887e-05
 4.03527e-05
-1.41045e-05
 1.12734e-05
-8.83401e-06
 1.60557e-05
 2.42925e-06
-4.74977e-05
 2.67148e-05
 6.10473e-06
 3.05255e-06
 1.98726e-05
 2.89079e-05
 1.22062e-05
-1.22682e-05
 9.87227e-06
 1.43457e-05
 7.43337e-06
  5.5449e-05
 2.76007e-06
-6.21948e-07
-5.93634e-06
-7.25244e-06
 6.06315e-05
 1.24371e-05
 3.57881e-05
 2.04375e-05
   1.265e-06
  5.3436e-05
 1.67361e-05
-5.12966e-05
 6.58152e-05
-3.79846e-06
 1.20603e-05
 2.93372e-05
 3.62143e-05
-3.86394e-06
-1.44908e-05
  5.3773e-06
-1.55826e-06
 1.42919e-05
-2.68249e-05
-4.82813e-05
-1.57399e-05
-5.58086e-05
 1.12054e-05
 2.60064e-05
 8.14907e-06
 3.45596e-05
-8.23903e-05
 3.72251e-05
-8.54624e-05
-2.34037e-05
-4.86381e-05
 6.02809e-05
-4.66108e-05
 -1.0468e-06
 2.39525e-05
 2.28341e-05
-4.92487e-05
-1.71232e-05
 5.74334e-05
  -2.987e-05
 6.60332e-05
 1.94376e-05
-6.53007e-05
 1.26593e-06
-3.05801e-06
-4.43721e-06
 -3.3423e-05
 6.53511e-05
-3.74125e-05
-8.27667e-06
-5.95057e-05
-5.59634e-05
 1.90222e-05
-4.96918e-06
-1.53975e-05
 3.82228e-06
 6.42465e-06
 4.13868e-05
 2.90916e-05
  8.2209e-06
-4.04236e-05
-1.50716e-05
-4.53362e-06
-8.74535e-05
-7.02777e-05
-4.35035e-05
-2.67973e-05
-5.30992e-05
 -3.7518e-05
 2.08097e-05
 5.25397e-06
 4.81225e-05
 6.63861e-05
 -1.1811e-05
 2.42533e-05
 5.05135e-06
 2.92356e-05
 2.76119e-05
 5.00609e-05
-1.77541e-05
 1.49439e-05
-1.00177e-05
 1.93505e-05
 2.78224e-06
-5.87323e-05
 3.53823e-05
 6.69697e-06
 3.50849e-06
 2.45387e-05
 3.45125e-05
 1.58673e-05
-1.58368e-05
  1.2995e-05
 1.78402e-05
 9.30255e-06
 6.84563e-05
 3.64569e-06
 1.83032e-07
-7.41791e-06
-9.60273e-06
 7.63772e-05
  1.5368e-05
 4.47322e-05
  2.5694e-05
  1.8064e-06
 6.65981e-05
 2.07387e-05
-6.40047e-05
  8.3906e-05
-4.44248e-06
 1.43122e-05
 3.49756e-05
 4.52064e-05
-4.46959e-06
-1.07623e-05
 2.06908e-06
-1.95884e-07
 1.00211e-05
-6.16149e-06
-2.77535e-05
-8.42933e-06
-3.28398e-05
 8.71078e-06
 1.73583e-05
 6.37078e-06
 1.09798e-05
-5.52595e-05
 1.18707e-05
-5.68516e-05
-1.48719e-05
-3.17843e-05
 3.36949e-05
-1.99054e-05
 4.99414e-07
 1.68604e-05
 1.60706e-05
-2.91509e-05
-1.20385e-05
 3.73248e-05
 -1.9308e-05
 3.95934e-05
 1.22435e-05
-3.93862e-05
 1.89744e-06
-7.42199e-07
-1.02104e-06
-1.03721e-05
 3.61775e-05
-1.62319e-05
 -5.0881e-06
-3.53708e-05
-3.17095e-05
 1.07457e-05
-4.33597e-06
-1.18637e-05
 1.86368e-06
 4.51729e-06
 2.37815e-05
 8.85959e-06
 5.72902e-06
-2.46897e-05
-1.11163e-05
-3.50722e-06
 -5.7877e-05
 -4.2743e-05
-1.75824e-05
-6.61829e-06
 -3.0738e-05
-1.40753e-05
 2.00717e-05
 4.61028e-06
 2.57318e-05
 3.69235e-05
-6.04663e-06
 1.52902e-05
 2.23742e-06
 7.44921e-06
 1.83717e-05
 2.89049e-05
-1.14824e-05
 1.65023e-05
 1.21026e-06
 7.89528e-06
 4.74263e-07
-3.44997e-05
 3.34884e-05
-2.37161e-06
  6.6779e-07
 1.36381e-05
 1.12129e-05
 1.24882e-05
-1.13401e-05
 1.06687e-05
 1.06941e-05
 5.84231e-06
  3.8765e-05
  3.2429e-06
 7.08267e-06
 -5.2728e-06
-7.70855e-06
 4.95054e-05
  8.4992e-06
 2.73314e-05
 1.61126e-05
 2.51589e-06
 3.98295e-05
  1.2705e-05
-3.85331e-05
 5.60908e-05
-1.27408e-06
 3.71928e-06
  1.0652e-05
 2.75643e-05
-1.05115e-06
-4.52919e-06
 1.68884e-06
 1.20861e-06
 6.53321e-06
 1.27754e-07
-2.11649e-05
-8.12978e-06
-1.96912e-05
 6.05691e-06
 1.28572e-05
 3.28725e-06
 2.45296e-06
-3.92832e-05
 1.71615e-06
-3.97707e-05
 -5.9853e-06
-2.26157e-05
 2.38221e-05
-5.35769e-06
 1.25143e-06
 1.18493e-05
 1.12991e-05
-2.17808e-05
-5.87532e-06
 2.59592e-05
 -8.5401e-06
 2.94628e-05
 6.08342e-06
-2.89509e-05
  1.5527e-06
 3.15761e-07
 1.09902e-07
-2.03129e-06
 2.25941e-05
-4.77784e-06
-2.54661e-06
-2.57791e-05
-1.93841e-05
 5.32578e-06
-1.10658e-07
-5.73513e-06
 -1.3111e-07
 4.08572e-06
 1.31345e-05
 2.49888e-06
 4.96524e-06
-1.38888e-05
 -4.3303e-06
-3.19194e-06
-4.01053e-05
-2.94569e-05
 -4.1125e-06
-5.49687e-07
-2.33101e-05
-4.96268e-06
 1.93232e-05
 3.35639e-06
  1.4947e-05
 2.31303e-05
 -1.2712e-06
  6.2802e-06
 2.44955e-06
 6.57213e-07
 8.29452e-06
 1.69362e-05
 -6.1333e-06
 1.68627e-05
 6.76767e-06
 4.77993e-06
 -7.3633e-07
-2.04327e-05
 2.67536e-05
-6.79971e-06
-7.04492e-07
 6.06661e-06
 2.72858e-06
 6.69223e-06
 -5.7305e-06
 4.46031e-06
   5.143e-06
 3.15936e-06
 2.60457e-05
-7.45521e-07
 1.04167e-05
-4.33348e-06
 -5.3647e-06
 3.35209e-05
  4.1618e-06
 1.50944e-05
 6.54863e-06
 2.38798e-06
 2.90219e-05
 5.92738e-06
-2.87493e-05
 3.98871e-05
 3.04381e-07
-1.68731e-06
 1.34698e-06
 1.52536e-05
 7.53095e-08
-4.82712e-07
-2.63663e-08
 5.39676e-07
 2.22189e-07
-1.38376e-07
-3.60012e-07
 6.88201e-07
 7.34826e-07
 2.83938e-07
 4.93489e-07
 5.36907e-07
 -9.1391e-07
-9.59179e-07
-4.73439e-07
-9.54355e-07
 5.92905e-07
-5.02516e-07
-6.12142e-07
 4.77137e-07
 9.55987e-07
 9.12125e-07
 9.00792e-07
 3.63901e-07
-6.13647e-07
 5.10995e-07
 7.31134e-07
 3.61539e-07
 2.86622e-08
-2.69725e-07
 1.02713e-08
 1.08556e-06
 1.69663e-06
 9.65594e-07
-7.59464e-07
  -6.272e-07
    7.53e-07
 8.29398e-07
 8.89969e-07
-1.01862e-06
-1.59337e-07
-5.17105e-07
-4.47682e-07
 5.42751e-07
 3.56139e-07
-5.95744e-07
 6.01868e-07
 5.06012e-07
-3.88937e-07
-5.69387e-07
-9.43712e-07
-2.72366e-07
-1.12641e-07
-2.59355e-08
 -3.8833e-07
 7.81422e-07
-2.83745e-07
  2.7363e-08
-8.54094e-07
-7.65439e-07
 5.25559e-07
-5.75239e-07
 4.89401e-07
 1.58941e-07
-6.97187e-07
-6.12504e-07
 -3.6086e-07
-2.92636e-07
-3.81642e-07
 2.62514e-08
-9.32719e-07
 7.29968e-07
  7.4363e-07
 3.26434e-07
-9.58695e-07
-4.98678e-07
 -9.1479e-07
 5.56292e-07
-6.58951e-07
 5.45901e-07
 1.11553e-07
-7.34939e-07
-7.67075e-08
 3.43899e-09
-3.15691e-07
-5.20793e-07
-2.75069e-07
 7.33633e-07
-1.02607e-06
-8.04367e-07
-6.05188e-07
 8.48764e-07
-2.01496e-07
-9.47393e-07
-3.49714e-07
 9.71191e-07
 1.08011e-06
 1.32129e-07
-4.04536e-07
-8.09722e-07
 1.70787e-06
 1.28075e-05
-7.30213e-06
-1.43042e-05
 1.09022e-05
 4.57271e-06
-2.05837e-05
  -1.966e-05
 1.83173e-05
 1.47931e-05
-9.97816e-06
 2.00943e-05
-5.16557e-06
-8.75068e-06
-1.06005e-05
-7.23892e-06
 1.33312e-05
 7.57866e-06
  1.8251e-05
 1.88787e-05
 1.26453e-06
 4.07674e-06
 3.17086e-06
-4.04587e-05
 7.17116e-06
-1.50532e-05
 1.91198e-05
 1.59436e-05
-3.10102e-05
-1.36628e-05
 1.25929e-05
-2.27761e-06
 3.79639e-06
 5.89814e-06
-2.84718e-05
 1.61686e-05
-3.64558e-06
-1.88439e-05
 3.56108e-05
 1.54896e-05
 3.03653e-05
 1.82477e-05
 1.41587e-05
-1.74175e-05
-3.35652e-05
 -1.7653e-06
-1.58472e-05
 1.92339e-05
 2.06362e-05
 1.74054e-05
-6.27907e-06
 8.41003e-06
 2.05481e-05
 4.51522e-06
-1.89153e-05
 1.53763e-05
 4.69806e-05
 1.34893e-05
-3.74386e-05
-2.78486e-05
 1.41303e-05
 -1.2754e-05
-1.87194e-05
-4.05517e-06
-2.06998e-05
-1.94719e-05
 2.75429e-05
 4.73298e-05
 3.10551e-05
 1.83092e-05
-7.76142e-07
 2.05605e-05
 3.71316e-06
-3.85036e-05
-2.47381e-06
-1.32298e-05
-4.88118e-06
-1.41409e-05
 3.74861e-06
-1.84905e-05
 -3.6035e-05
 6.95394e-06
-1.97955e-05
-3.42853e-05
 4.05385e-05
  1.6017e-05
-1.43958e-05
 5.40565e-06
 2.15087e-05
 -2.4889e-05
-1.42711e-05
 6.55587e-07
 1.60134e-05
  -3.694e-05
-1.56849e-05
 9.03111e-06
 9.32562e-07
-4.01009e-05
-7.04884e-06
-2.31307e-05
 3.52717e-06
 3.02886e-06
 -2.3222e-06
-4.65508e-06
 3.99839e-06
 6.53802e-07
 -7.7701e-06
-6.33801e-06
 3.34596e-06
 5.14269e-06
-2.33409e-06
 6.88083e-06
-7.26635e-07
-6.29381e-06
-2.06231e-06
-5.92446e-06
 2.71337e-06
 3.28335e-07
 7.31569e-06
 3.78563e-06
  4.2949e-07
 1.89852e-06
 1.56732e-06
 -1.3957e-05
 1.03121e-06
-2.28462e-06
 4.19257e-06
 6.97406e-06
-8.59868e-06
-6.23377e-06
 4.10264e-06
-7.74217e-07
 1.17449e-06
 9.73535e-07
-6.50253e-06
 3.17943e-06
-1.56686e-06
-7.62247e-06
  9.1126e-06
 5.54283e-06
 8.76566e-06
 4.63466e-06
 4.64545e-06
-5.35176e-06
-8.62985e-06
 2.03502e-07
-4.77882e-06
 4.31179e-06
  5.3848e-06
 5.37976e-06
-5.69286e-06
 -1.0771e-07
 4.39335e-06
 6.88516e-07
-7.43743e-06
 3.68542e-06
 1.53683e-05
 4.52654e-06
-9.78714e-06
-6.28513e-06
 3.93245e-06
-2.50413e-06
-5.86204e-06
-4.27273e-07
-4.84767e-06
-4.18177e-06
 7.57974e-06
 1.52717e-05
 9.19962e-06
 6.07104e-06
 -2.2188e-07
 4.02576e-06
 2.93705e-06
-1.16932e-05
-7.53472e-07
-3.12862e-06
-6.48035e-07
-3.35268e-06
 3.50935e-08
-4.91195e-06
-1.01036e-05
 2.63102e-06
-3.58726e-06
-1.00736e-05
 1.26177e-05
 4.85727e-06
-4.96744e-06
 4.50141e-06
  7.2995e-06
-5.85398e-06
-2.91474e-06
 3.12231e-07
 7.00503e-06
-1.03379e-05
-6.83416e-06
 6.43412e-06
 2.10356e-07
-1.18014e-05
-1.05474e-06
-5.29554e-06
 1.08923e-06
-6.65576e-06
 3.92949e-07
 1.63448e-07
 2.44945e-06
-4.81975e-06
-5.88737e-06
 5.67592e-07
-1.51528e-05
 1.70812e-06
   5.332e-06
 1.72154e-06
 5.51284e-06
-1.95917e-05
 8.04947e-06
-2.03097e-05
-9.43842e-06
-1.23039e-05
 7.65538e-06
-1.36908e-05
 8.82283e-08
 3.22092e-06
 3.02329e-06
 -4.0539e-06
-7.52497e-06
 1.51102e-05
-1.18165e-05
 1.00206e-05
 8.88634e-06
-1.00578e-05
-1.18242e-07
-1.62579e-07
-3.91881e-07
-5.47266e-06
 1.61148e-05
-1.20841e-05
-2.13241e-06
-8.29909e-06
-1.45575e-05
 2.69154e-06
-6.72546e-06
-7.65866e-06
 5.38439e-08
 2.00747e-06
 1.34887e-05
 4.46583e-06
 2.34344e-06
-1.13488e-05
-7.84106e-06
-1.82482e-06
-2.07822e-05
-1.63511e-05
-1.33416e-05
-4.51383e-06
-7.10804e-06
-7.71022e-06
-8.42132e-08
 6.26801e-07
 1.41229e-05
 1.61911e-05
-3.96736e-06
 9.55403e-06
 1.52753e-06
 5.14586e-06
 1.10294e-05
  1.2537e-05
-8.22134e-06
-1.28974e-06
-5.53644e-06
 4.34222e-07
 1.84318e-07
-1.54655e-05
 9.83564e-06
 5.22411e-06
 3.23067e-07
 6.87575e-06
 5.42987e-06
 7.30011e-06
-6.81329e-06
 6.52844e-06
 9.68854e-06
 2.02323e-06
 1.65397e-05
 6.58637e-06
-3.74837e-06
-2.21279e-06
-1.45004e-06
 1.56081e-05
 1.46766e-06
 1.31172e-05
 1.00463e-05
 5.57542e-07
 1.00668e-05
  1.0043e-05
-9.70506e-06
 1.98688e-05
-5.42836e-07
  7.5941e-06
 7.16165e-06
 1.30185e-05
-3.75351e-07
 2.41254e-23
 2.34487e-23
 1.08052e-22
-5.39918e-23
-1.32671e-22
 1.19614e-22
-1.60362e-22
 1.63934e-22
 1.78637e-22
 1.09827e-22
-1.17782e-23
 8.44323e-23
-1.68386e-22
-6.70714e-23
 1.79582e-22
   -1.09e-22
-1.62432e-22
 5.25603e-23
-7.05489e-23
 -5.5337e-24
 1.05426e-22
-1.65553e-22
 1.86361e-23
 1.51499e-22
 9.68449e-23
 -1.3559e-22
-5.98136e-23
  9.5536e-23
 1.20323e-22
 -1.4307e-22
-4.29437e-23
-3.67436e-23
 6.15276e-23
-1.16083e-22
 9.04132e-23
 1.10006e-22
-1.77662e-22
   1.112e-22
 9.27473e-23
-1.80217e-22
 3.98348e-23
-1.00223e-22
 8.53644e-23
 5.25974e-23
 1.38541e-23
 8.37547e-23
 1.24746e-22
 3.25703e-23
-4.48772e-23
-1.26995e-22
-1.54156e-22
-1.20644e-22
-1.11399e-22
 4.56291e-23
-1.50337e-22
 1.66595e-22
 9.11876e-23
-2.90017e-23
 8.09384e-23
 3.03187e-23
 9.07719e-24
-1.43197e-22
 1.74724e-22
-1.10587e-22
-7.81323e-23
 8.39447e-23
 1.80567e-22
-7.46454e-23
 1.39526e-23
  9.2122e-23
-7.37134e-23
-1.27405e-22
 1.73047e-22
-1.69541e-22
 1.06341e-22
 5.70941e-24
 9.53621e-23
 4.98954e-23
-1.42912e-22
-1.30707e-22
 1.04049e-22
-1.15919e-22
-7.02025e-23
 1.73799e-22
 1.10858e-22
-3.93905e-23
 1.59201e-22
 2.08536e-23
 1.12756e-22
 5.89475e-23
 -1.3002e-22
-5.93586e-23
 9.68986e-23
-1.36488e-22
 1.12026e-23
-1.62426e-22
 1.28605e-22
 1.05773e-23
-5.59227e-23
-3.86346e-23
-1.12729e-05
 1.21738e-06
-1.22994e-05
 2.91918e-06
-2.63427e-05
-3.79096e-06
 4.63068e-06
-1.96862e-05
  1.2626e-06
-6.05975e-06
 5.64002e-06
 2.62747e-05
-1.60903e-05
 4.12335e-05
-1.76161e-05
-2.16096e-05
-7.95284e-06
 6.46922e-06
-4.42846e-05
-3.33941e-06
 4.04074e-06
 3.83887e-06
-5.15139e-06
-1.56045e-05
 1.03929e-05
-2.33414e-05
-1.33371e-06
  1.1439e-05
 1.04568e-06
-1.67536e-06
-3.49074e-06
-3.13961e-06
-2.59426e-05
  1.6341e-05
-3.83699e-05
-4.89661e-06
 2.49603e-06
-1.65243e-05
 1.15355e-05
-7.98879e-06
 -1.7194e-05
 8.34038e-06
-5.42849e-06
 1.87551e-05
 2.57065e-05
-4.74808e-06
-1.81786e-05
-1.20677e-05
 9.61829e-06
 -1.8521e-05
-1.86294e-05
-4.48827e-05
-2.50746e-05
-4.22979e-06
-2.73665e-05
-1.48827e-05
-4.71635e-07
 1.51067e-05
 1.62928e-05
-1.93596e-05
 2.18423e-05
-2.25399e-06
 2.68019e-05
  2.3427e-05
  1.7707e-05
-9.97713e-06
-1.63051e-05
-2.70823e-05
  1.2948e-05
 4.13692e-06
-2.09217e-05
-2.84309e-06
 2.14678e-05
 4.37377e-06
 1.96488e-05
 2.54995e-05
 1.58667e-05
-1.43352e-05
 1.29458e-05
 1.07823e-05
 4.37981e-06
 1.35552e-05
 7.64789e-06
-2.02417e-05
 8.59517e-06
-7.47919e-07
 1.47181e-05
 1.08934e-05
 1.67326e-05
 2.25465e-05
-5.78524e-06
-1.14721e-06
 1.19708e-05
  1.8764e-06
 1.66199e-05
-4.50258e-06
  2.1048e-05
 4.03208e-05
 1.71333e-05
 -3.1168e-06
 -6.4229e-07
 1.05158e-07
 2.05103e-07
 5.80006e-07
-2.05936e-07
-8.72373e-07
 7.79421e-07
  9.5961e-07
 6.98697e-07
 1.56321e-07
 8.77094e-07
-7.95704e-07
-1.41336e-06
-1.44318e-07
-1.37107e-06
 2.54785e-07
-1.05833e-06
-2.58003e-07
 1.34872e-07
 7.32994e-07
 5.83981e-07
 5.47877e-07
 9.60429e-08
-1.15548e-06
  9.9965e-07
 4.78936e-07
 2.68843e-07
 4.94301e-07
-1.71679e-07
 4.35254e-08
 1.09883e-06
 1.95432e-06
 8.86097e-07
-8.85884e-07
-1.14098e-06
 2.72729e-07
 1.18319e-06
 1.09134e-06
 -1.3195e-06
 5.88138e-08
-1.06171e-06
-3.11871e-07
  3.3669e-07
 8.12455e-07
-1.05506e-07
 4.45265e-07
 4.63049e-07
-4.75297e-07
-1.45433e-07
 -1.3344e-06
-2.68476e-07
-5.01779e-07
-4.68117e-08
 -8.9627e-07
 3.69508e-07
-8.12258e-08
 1.29433e-07
-9.24956e-07
-9.01043e-07
 1.77627e-07
 -2.3206e-07
 2.81439e-07
 2.56364e-07
 -3.9892e-07
-1.08762e-06
 -9.1905e-07
-9.55652e-08
-1.93203e-07
 4.44075e-07
 -7.2758e-07
  1.0254e-06
 1.20961e-06
 1.42751e-07
-7.59989e-07
-2.93941e-07
-7.92257e-07
 1.13156e-06
-1.22914e-06
 7.30576e-07
 2.63799e-07
-2.68473e-07
-7.92849e-08
-2.30087e-07
-7.38746e-08
 -8.2508e-08
-6.85877e-07
 5.80295e-07
-1.23327e-06
-1.38947e-06
-2.78816e-07
 3.55276e-07
-3.49561e-07
-8.40257e-07
-2.50963e-07
  1.4339e-06
  1.0689e-06
 2.18931e-07
-5.10922e-08
-1.33688e-06
 1.95424e-06
 1.68608e-22
 1.87333e-23
 4.57669e-23
 1.01095e-22
-7.23123e-23
-1.80712e-22
-6.81681e-23
 1.45226e-22
-8.55038e-23
 1.77686e-22
 -1.2117e-22
-1.17768e-22
-1.09378e-22
-8.83471e-23
 -6.8196e-23
-5.16284e-23
-1.41329e-23
 9.62475e-23
-1.23378e-22
-1.67979e-23
 1.31422e-22
 4.18979e-23
-4.86713e-23
 6.79818e-23
-4.72783e-23
 5.32106e-23
-7.58869e-23
 1.24731e-22
-9.94648e-24
 5.09023e-23
-1.41899e-22
-2.25306e-23
-1.11557e-22
 8.50164e-23
-1.02627e-22
-2.72028e-24
 8.54534e-23
 1.03531e-23
-3.86862e-23
 1.81098e-22
 6.84673e-24
 2.12919e-23
-1.17862e-22
 7.86173e-23
 1.14093e-22
-4.90981e-24
-1.54203e-22
-8.12317e-23
-8.98545e-23
-9.64331e-23
 8.31189e-23
-1.39624e-22
 1.26613e-22
-1.46745e-22
 1.09506e-22
-1.01857e-22
 8.76146e-23
-1.47573e-22
-1.58318e-22
-1.03524e-22
 8.44778e-23
-1.19068e-22
  5.5094e-23
  1.5407e-22
 1.47097e-22
 1.33615e-22
-2.98426e-23
 5.13578e-23
-3.72239e-23
  1.1262e-22
 5.12638e-23
 1.50771e-22
-4.72806e-23
  1.1455e-22
 4.81966e-23
-1.14379e-22
-7.15519e-23
  7.5142e-23
-1.44625e-23
 1.97422e-23
 1.59857e-22
-1.12536e-22
 6.12664e-23
 1.05279e-22
-7.81318e-23
-1.04199e-23
 -1.7777e-22
-1.71709e-22
 2.31556e-23
 -1.5494e-22
-9.40849e-23
-7.35588e-23
-9.28593e-23
 1.42158e-22
-1.00681e-22
-1.26955e-22
 9.45807e-23
 5.06248e-23
 1.05552e-22
-1.23835e-22
 -5.6667e-07
 8.69695e-08
 3.86401e-07
 3.68303e-07
-1.65928e-07
-7.49423e-07
 8.44568e-07
 9.81531e-07
 4.82818e-07
 2.62922e-07
 7.75887e-07
-1.09901e-06
-1.34047e-06
-3.24116e-07
-1.29864e-06
 4.74453e-07
 -8.7052e-07
  -5.263e-07
 3.17934e-07
 1.16222e-06
 9.24358e-07
 8.85003e-07
 2.39132e-07
-1.07098e-06
 8.15296e-07
 6.87322e-07
 2.51225e-07
 2.90469e-07
-1.41729e-07
 2.97407e-08
 1.43714e-06
 2.19131e-06
 1.18573e-06
-1.03732e-06
-1.12715e-06
  5.9251e-07
 1.38149e-06
 1.20834e-06
-1.36843e-06
 1.15377e-08
-1.04176e-06
-5.11217e-07
 5.06874e-07
 6.30343e-07
-3.68209e-07
 6.24857e-07
 6.14641e-07
-4.08829e-07
-2.87838e-07
-1.26357e-06
-3.70003e-07
-4.01614e-07
 -5.0151e-08
-7.68143e-07
 6.70482e-07
-2.00002e-07
 8.95336e-08
-1.09576e-06
-1.05694e-06
 3.27635e-07
-4.50461e-07
 4.57493e-07
   2.055e-07
-5.84482e-07
-1.05822e-06
-7.29423e-07
-2.07752e-07
-3.16287e-07
 3.71464e-07
-1.14961e-06
 1.04256e-06
 1.17614e-06
 2.32023e-07
-1.20376e-06
-4.78816e-07
-1.10134e-06
 1.11346e-06
-1.14505e-06
 7.26193e-07
 2.26903e-07
-5.90695e-07
-1.04622e-07
-2.00536e-07
-1.66843e-07
-2.19127e-07
-4.74298e-07
 7.36698e-07
-1.28593e-06
-1.42508e-06
-5.08161e-07
 6.74997e-07
-4.35348e-07
-1.06044e-06
 -2.3763e-07
 1.35716e-06
 1.47734e-06
 2.53686e-07
-2.23858e-07
-1.36326e-06
 2.18989e-06
-5.48962e-07
 8.42517e-08
 3.74326e-07
 3.56794e-07
-1.60742e-07
-7.26003e-07
 8.18176e-07
 9.50858e-07
  4.6773e-07
 2.54706e-07
 7.51641e-07
-1.06467e-06
-1.29858e-06
-3.13988e-07
-1.25806e-06
 4.59627e-07
-8.43317e-07
-5.09853e-07
 3.07999e-07
  1.1259e-06
 8.95472e-07
 8.57347e-07
 2.31659e-07
-1.03751e-06
 7.89818e-07
 6.65844e-07
 2.43374e-07
 2.81392e-07
  -1.373e-07
 2.88113e-08
 1.39222e-06
 2.12283e-06
 1.14867e-06
-1.00491e-06
-1.09192e-06
 5.73994e-07
 1.33832e-06
 1.17058e-06
-1.32567e-06
 1.11771e-08
-1.00921e-06
-4.95241e-07
 4.91034e-07
 6.10645e-07
-3.56702e-07
  6.0533e-07
 5.95433e-07
-3.96053e-07
-2.78843e-07
-1.22408e-06
 -3.5844e-07
-3.89064e-07
-4.85838e-08
-7.44139e-07
  6.4953e-07
-1.93752e-07
 8.67357e-08
-1.06152e-06
-1.02391e-06
 3.17396e-07
-4.36384e-07
 4.43196e-07
 1.99078e-07
-5.66217e-07
-1.02515e-06
-7.06629e-07
 -2.0126e-07
-3.06403e-07
 3.59856e-07
-1.11368e-06
 1.00998e-06
 1.13938e-06
 2.24772e-07
-1.16615e-06
-4.63853e-07
-1.06693e-06
 1.07867e-06
-1.10927e-06
 7.03499e-07
 2.19812e-07
-5.72236e-07
-1.01353e-07
-1.94269e-07
-1.61629e-07
 -2.1228e-07
-4.59476e-07
 7.13676e-07
-1.24575e-06
-1.38054e-06
-4.92281e-07
 6.53903e-07
-4.21743e-07
 -1.0273e-06
-2.30204e-07
 1.31475e-06
 1.43117e-06
 2.45758e-07
-2.16862e-07
-1.32066e-06
 2.12145e-06
 3.93142e-23
-1.77352e-22
 1.23235e-22
  -2.206e-23
 1.01001e-22
-1.06127e-23
 1.57716e-22
  -5.767e-23
-1.26672e-22
 3.61509e-23
 1.63343e-22
 4.97888e-23
-1.04727e-23
 1.17384e-22
-1.12581e-22
 8.13119e-23
 2.63539e-23
 1.68892e-22
-1.38618e-22
 8.40879e-23
 6.23675e-23
 1.08892e-23
-1.51483e-22
-2.16424e-23
-1.27314e-22
-1.15514e-22
-2.76882e-23
-3.58799e-23
-1.13618e-23
 8.95023e-23
-3.03212e-23
 -1.5324e-22
 9.32987e-23
-8.82781e-23
 5.84878e-24
 1.31072e-23
 8.22578e-23
-1.76269e-23
 1.36586e-22
 1.36734e-22
-1.62668e-22
 1.18736e-22
 5.33109e-24
 8.00773e-24
 5.49285e-23
 7.38983e-23
-9.18725e-23
-9.99097e-23
 6.15981e-23
-4.93416e-23
 1.65327e-22
-5.72265e-23
 1.42696e-22
-1.67348e-22
  1.0228e-22
 -1.6581e-22
-1.01714e-22
-1.06601e-22
-2.05415e-23
 6.80725e-23
  1.6405e-22
 1.30286e-22
 9.59812e-23
 7.61567e-23
-1.39184e-22
-7.93622e-23
-9.19283e-23
 1.24222e-22
 8.41595e-23
-1.36535e-22
 7.97643e-23
  1.0264e-22
  1.6335e-22
-9.60968e-23
-7.05445e-23
 3.70865e-23
  1.5895e-22
 1.87316e-23
 1.18325e-22
 3.93561e-23
 1.50539e-22
  1.0246e-22
 1.63278e-22
 1.12042e-22
  1.1626e-22
 8.43656e-23
 1.27381e-22
-1.66646e-22
 1.58913e-22
-7.43528e-23
 8.25747e-23
 1.41771e-22
-1.25259e-22
-2.63619e-24
 3.67359e-23
-8.32949e-23
 9.91502e-23
 1.25956e-22
-1.40265e-22
 2.11757e-24
  1.7057e-22
 1.20648e-22
-7.64347e-23
 1.52728e-22
-1.56641e-22
 3.41694e-23
 8.62228e-24
-1.78883e-22
-1.28291e-22
-5.42445e-23
 4.16214e-23
-1.58945e-22
-1.32977e-22
 2.37074e-23
 1.34246e-22
 1.64432e-22
-7.31192e-23
 8.04349e-23
 1.78934e-22
 -9.5398e-23
 -1.7511e-22
 8.03169e-23
-1.34819e-22
-1.19221e-22
-1.03511e-22
 8.30657e-23
-2.13668e-23
 1.76787e-22
 2.78297e-23
 1.95167e-23
 -2.2872e-24
 1.72075e-23
-4.10277e-23
 1.02427e-22
-1.12568e-23
-1.65202e-23
 -4.4596e-23
 1.78514e-22
-1.42549e-23
 8.26137e-24
-5.69226e-23
-1.53826e-22
 3.04651e-23
-8.75067e-24
 5.10303e-23
-1.64808e-23
-2.55108e-23
  1.5906e-22
-1.17238e-22
-2.77686e-23
-1.17531e-22
  -1.112e-22
-1.28644e-22
-7.12007e-23
-4.92714e-23
-5.10066e-23
-1.69327e-22
  1.1051e-22
-5.54114e-23
 3.96511e-23
-5.11652e-23
  1.2345e-22
-1.24334e-22
 8.89557e-23
 4.46845e-23
 4.55582e-23
-1.08757e-22
-1.81104e-22
 4.28801e-23
  5.8137e-23
 8.30628e-24
 1.67106e-22
 8.54599e-23
-1.42421e-22
-2.28367e-23
-4.47019e-23
  2.2247e-23
 1.32801e-22
-6.68345e-23
 8.61575e-23
-7.61596e-23
-3.21641e-24
 1.56107e-22
-2.36549e-23
 1.06731e-22
 -7.4357e-23
 1.06487e-22
 1.18553e-22
-1.45039e-22
-1.30116e-22
-2.29882e-23
-1.50555e-23
 1.74482e-22
 3.38268e-23
-1.07292e-22
 3.79744e-23
-1.01807e-22
-3.49001e-23
 3.80193e-23
 1.22222e-22
-1.57955e-22
-1.34867e-22
 1.08136e-22
 1.08653e-22
-9.61388e-23
-9.58933e-23
-1.17241e-22
 1.07257e-22
-1.44284e-22
-2.92671e-24
 1.22221e-23
-3.92955e-23
 1.75005e-22
-1.28635e-23
 1.18198e-22
 1.00545e-22
 9.39281e-23
 4.34932e-23
 3.79055e-23
 1.30038e-22
 9.45253e-23
-1.66275e-22
-6.62099e-23
 8.78151e-23
 4.87005e-23
  7.6467e-24
-5.54026e-23
 1.28042e-22
 1.53895e-22
 1.63765e-22
 6.90713e-23
 1.77089e-22
-1.52293e-22
-3.98532e-24
  1.0455e-22
-6.72837e-23
 8.12699e-23
 1.68457e-22
-1.41219e-22
 1.18134e-22
-1.56615e-23
 5.21517e-23
-1.02354e-22
-2.18482e-23
-1.41904e-22
-1.65347e-22
-1.02496e-22
 1.33173e-22
 5.92943e-23
 1.16558e-22
 8.20183e-23
-2.73726e-23
 1.31432e-22
-1.65384e-22
 -1.2075e-22
-1.05959e-24
 2.34115e-23
 4.99635e-24
-5.42098e-23
-3.88545e-24
-1.24306e-23
-1.66331e-22
-7.98907e-24
 1.64245e-23
 1.08326e-23
-8.46316e-23
 1.30289e-22
-8.90897e-23
-9.73663e-23
 1.70219e-22
-1.52148e-22
 6.81208e-23
 4.11785e-23
-7.33527e-23
 -1.3492e-22
 8.04231e-23
-5.75516e-23
-5.62666e-23
 3.24037e-23
-1.79449e-22
  -1.209e-22
-6.67702e-23
-2.56734e-23
 -1.7066e-22
-5.10054e-23
 3.47255e-23
 9.42859e-24
 1.53555e-22
 -1.4147e-22
 1.36367e-22
-3.15229e-23
 2.72478e-23
 1.51185e-22
 1.41637e-22
 -1.3752e-22
-1.91744e-23
-1.24187e-22
 1.73918e-22
 7.28845e-23
-4.04049e-23
 1.62945e-22
 1.01885e-22
-1.53476e-22
 2.29313e-23
 -1.5266e-22
-1.07247e-22
-7.78377e-23
-2.90625e-23
 1.76347e-23
 1.35715e-22
-2.73633e-23
  7.7883e-23
-1.12248e-22
 1.28112e-22
 8.83711e-23
 1.78954e-23
-1.83548e-23
-8.33924e-23
-9.74202e-24
 2.13235e-23
-1.28217e-22
 1.39884e-22
-1.32621e-22
-1.58224e-22
 1.00328e-22
-8.89922e-23
 3.74996e-24
  1.5729e-22
-9.62662e-23
-1.04558e-22
-6.43074e-23
-1.14513e-22
 1.78476e-22
-3.66351e-23
 8.95665e-23
-1.55375e-22
 3.72662e-23
-1.69463e-22
 -3.2894e-24
-1.26291e-22
   1.474e-22
 1.50496e-22
  1.3274e-22
 -1.4604e-22
 9.74155e-23
 3.99193e-23
 5.30037e-23
-1.02131e-22
 1.37675e-22
-1.37931e-22
 1.00341e-22
-1.71734e-22
-1.79239e-22
 1.48868e-22
 -1.4881e-22
 1.02238e-22
-1.21316e-22
 3.60889e-23
 7.83352e-23
-3.64337e-23
  1.1268e-22
-1.67164e-22
 3.02015e-23
 1.09964e-22
-2.26508e-23
-6.14242e-23
 1.35737e-22
-1.66577e-22
 -4.9739e-23
-4.87446e-23
-1.11719e-22
-8.35315e-23
 -7.9441e-23
-1.60171e-22
-4.84232e-23
-1.63218e-22
 6.08967e-23
-1.76612e-22
-8.42005e-23
 1.73799e-23
-1.33394e-22
-1.65052e-22
 2.67945e-23
-1.31484e-22
 1.64965e-22
 5.91334e-23
 1.51902e-22
-1.37543e-22
-8.59699e-23
 4.90454e-23
 7.17156e-24
-1.54482e-22
 6.30296e-23
-1.43819e-22
  1.3663e-22
-1.40813e-22
-2.40947e-23
 9.11749e-23
-1.26242e-22
 1.07315e-22
-1.38762e-22
-5.68124e-23
-1.57409e-22
-3.70543e-23
 -3.5835e-23
-2.46834e-23
-1.91234e-23
 -1.5613e-22
-2.01465e-23
 7.78247e-23
 4.23981e-23
 2.76084e-23
 9.39213e-23
   -1.12e-22
  7.7273e-23
  7.7694e-23
 1.28282e-22
 4.79831e-23
 1.21299e-22
 -1.3888e-22
-8.41637e-23
-5.27214e-23
-1.12213e-22
 1.60014e-22
-1.53919e-23
-1.56775e-22
-1.61991e-22
 1.41662e-22
 1.15548e-22
-1.07084e-22
 6.77847e-23
 1.57935e-22
 1.72521e-23
 9.15245e-23
-6.03119e-23
 1.62566e-22
-1.14351e-22
 1.01713e-22
-1.74757e-22
  4.6651e-23
 -1.6541e-24
 4.87898e-23
-1.06933e-22
 -8.8925e-23
 1.17939e-22
 1.51489e-22
 1.69918e-22
  6.5029e-23
 1.82798e-23
 1.10025e-22
 1.07298e-22
 1.15265e-22
-1.23889e-22
 1.76233e-22
 9.40869e-23
 4.18676e-23
-1.61734e-22
 1.13244e-22
 2.33739e-24
 1.34962e-22
-1.75032e-22
 -1.1107e-22
 1.11705e-22
 2.33689e-23
 1.61603e-22
-1.29799e-22
 4.74249e-24
 -1.3394e-22
 1.53062e-22
 1.11342e-23
 9.38595e-23
-2.97838e-23
-1.21268e-22
 1.68075e-22
 6.24398e-23
 1.77819e-22
 1.38372e-22
 5.11651e-23
 6.16559e-23
-2.45403e-23
-2.00025e-23
-1.22384e-23
-9.04679e-23
  3.7257e-23
-1.71974e-23
-1.77573e-22
-1.02068e-22
 2.21672e-24
  1.1682e-22
 8.14184e-23
-4.40133e-23
 1.22937e-22
 1.51497e-22
-1.13501e-22
-3.48865e-23
 1.31908e-22
-6.21518e-23
 1.51005e-22
 1.79116e-22
-9.02816e-23
-1.90534e-23
 9.17837e-23
 6.10832e-23
 4.08269e-23
 7.86669e-23
-5.76692e-23
 3.74538e-23
 3.58468e-23
 1.74644e-22
-8.20825e-23
-1.69886e-22
-2.65502e-23
 8.68278e-23
 -7.9205e-23
-1.70485e-22
-1.11562e-22
-7.56295e-23
-9.14043e-23
 7.18035e-23
-1.40002e-22
 1.71163e-22
-1.53402e-22
 1.64084e-22
 1.41467e-22
-8.57544e-23
-5.19952e-23
 9.21832e-23
 3.32424e-23
-8.21828e-23
 9.01073e-23
 1.24109e-22
 7.99123e-23
 6.98792e-25
 4.00041e-24
-6.04529e-23
-1.01827e-22
  1.2748e-22
 1.58149e-22
 1.15169e-22
 1.20932e-22
-1.05125e-22
 1.26432e-22
-8.68102e-23
 1.62851e-22
-1.33966e-22
 -7.6147e-23
-1.29903e-22
-2.84465e-23
 1.35973e-23
 1.23049e-22
 1.27003e-23
 3.56784e-24
 1.50796e-22
-4.40834e-24
-3.61568e-23
-1.16151e-22
 1.24745e-22
-1.25166e-22
 9.82403e-23
 -1.3863e-22
  1.4609e-22
 4.11575e-23
 1.22431e-22
-3.44033e-23
-1.36034e-22
-1.19214e-22
 4.49187e-23
 1.72594e-22
-1.42257e-22
-2.11046e-23
 1.12334e-22
-6.62334e-23
-7.58651e-23
-1.55668e-22
-8.45743e-23
-2.86821e-23
-5.06667e-23
-3.33285e-23
  1.2402e-22
 1.44079e-22
-9.14713e-23
-4.44719e-23
-3.35452e-23
-1.21868e-22
 1.32268e-22
 1.11447e-22
-5.68696e-23
 7.58213e-23
 1.67429e-22
-1.39821e-22
  1.1834e-22
 1.32327e-22
 8.24847e-23
 5.95788e-23
-8.32683e-23
 1.27599e-22
 1.21513e-22
 1.42799e-22
 1.19001e-22
 1.60405e-22
-5.94978e-23
 5.01429e-23
-8.70204e-23
 4.57857e-23
 7.56232e-23
 9.55382e-24
-1.64089e-22
-1.56236e-22
 1.57374e-22
  1.4108e-22
 1.68992e-22
 -1.1529e-22
-8.45841e-23
-4.57454e-23
-5.60086e-23
-1.33508e-22
-1.15491e-22
 6.82704e-23
 1.23462e-22
-1.29254e-22
 1.09598e-22
 6.06097e-23
-1.78119e-22
 1.08901e-23
-6.10036e-23
-8.02386e-23
 -4.2703e-23
-1.20683e-22
-1.18632e-22
-1.04894e-22
 -1.4147e-22
 3.01895e-24
 1.26397e-22
-4.73414e-23
-1.32388e-22
 2.08283e-23
 1.43361e-22
-1.15328e-22
 4.57411e-23
 1.19543e-22
 -1.5544e-22
 3.35409e-23
-1.76939e-22
-5.88753e-23
 1.68944e-22
 -5.1799e-23
-1.12346e-23
-1.27739e-22
-1.64721e-22
-6.89648e-23
-7.58443e-23
 1.26025e-22
 1.72793e-22
-7.28146e-23
-4.42767e-23
-6.94023e-23
 2.80953e-23
 9.41688e-23
-8.93625e-24
 9.06121e-23
 1.70423e-22
 3.07428e-23
-8.75612e-23
 1.15628e-22
  1.6455e-22
-3.88001e-23
-4.47356e-23
 1.26719e-22
 2.70209e-23
-1.80187e-22
 6.50692e-23
 5.27297e-23
 3.45028e-23
 6.92788e-23
 1.75003e-22
 2.22548e-23
-1.63712e-22
-1.74238e-23
 7.56643e-23
-1.47285e-22
 9.47599e-23
 1.80969e-22
 1.59889e-22
 8.63612e-23
-7.30382e-23
-6.55796e-23
-1.64233e-22
 1.36206e-22
-1.52603e-22
 7.97907e-24
 4.56256e-23
-1.63372e-22
 -1.4247e-22
 1.39213e-22
 1.33405e-22
-1.59113e-22
-8.07793e-23
-9.25229e-23
 1.48755e-22
  1.2739e-22
 -9.1561e-23
 3.26318e-23
-1.07231e-24
  1.2409e-22
-7.92816e-23
-7.26151e-24
 -3.4847e-23
-6.18455e-23
 1.56463e-22
-1.40375e-22
-2.79816e-23
  7.0031e-23
-1.40598e-22
-4.92845e-23
-2.47999e-23
-3.24881e-23
 6.62845e-23
-7.88458e-24
-7.74746e-23
 9.48301e-23
-1.81098e-22
   1.493e-22
 1.12607e-22
-1.42419e-22
  1.0732e-22
 6.48194e-23
-1.20383e-22
-1.54651e-22
 1.53445e-22
-1.52821e-22
 1.53888e-22
-1.19308e-22
 6.09594e-23
-2.83767e-23
 -1.7641e-22
 1.62826e-22
  1.4551e-22
-3.01082e-23
-8.02113e-23
 1.20781e-22
 1.06655e-23
 7.29556e-23
 9.62028e-24
 5.12156e-23
-1.57521e-22
 1.65969e-22
-1.62465e-22
  8.9912e-23
-2.31078e-23
-5.87906e-23
 3.54994e-24
-2.30569e-23
-9.06832e-23
-6.50356e-23
 1.56723e-23
-1.64555e-22
 1.80932e-22
 7.64374e-23
-1.38057e-22
 1.53185e-22
 1.04765e-22
-1.65362e-22
-1.47315e-22
-1.54678e-23
-1.25899e-23
-1.42576e-22
-3.38336e-23
-4.82717e-23
 8.46425e-24
 6.71036e-23
-1.08682e-22
-1.62062e-22
-4.11329e-23
 8.20864e-23
 7.03018e-23
-1.75053e-23
 6.68632e-23
 8.89858e-23
-1.08785e-22
-1.37437e-22
-1.50997e-22
 7.59131e-23
 2.06549e-23
-6.05316e-23
-1.70315e-22
-1.44865e-22
-4.39379e-23
-1.70574e-22
 1.12721e-22
-8.46613e-25
  1.6376e-22
 3.62938e-23
 1.49402e-23
-1.64748e-22
-1.60366e-22
-1.78842e-22
-1.26175e-22
-1.30511e-23
 -4.5965e-23
 6.34378e-23
 -1.2714e-22
 2.65011e-23
  8.2524e-23
 1.28761e-23
-7.26046e-23
-2.83664e-23
 1.76519e-22
 1.75407e-22
-1.20573e-22
-1.13458e-22
-1.43222e-22
-9.04211e-23
 1.43603e-22
 5.85817e-23
 3.01959e-23
 1.54437e-22
 9.48653e-23
 1.67407e-22
 1.65012e-22
 2.63942e-23
-1.46321e-23
 1.47579e-22
-1.18504e-22
-1.80884e-22
  1.6398e-22
-9.77217e-23
-1.78577e-22
-1.43387e-22
 7.03758e-23
-4.33937e-23
 1.01199e-22
 1.24385e-22
 1.64256e-22
 2.53102e-24
-4.39314e-23
-8.95408e-23
 1.55313e-22
-4.86042e-23
-9.53259e-23
-1.46452e-22
 1.90862e-23
-5.73991e-23
-5.57242e-23
-1.85026e-23
-1.80009e-22
  1.5562e-22
-4.52573e-23
 9.60044e-23
 1.41835e-22
-6.14379e-23
-5.87936e-23
-5.39895e-23
-9.50511e-23
 3.85081e-24
 -5.3725e-23
-1.12263e-22
 8.72777e-23
-5.11538e-23
-7.45018e-23
-2.35387e-23
 8.66011e-23
-1.54495e-22
-8.03462e-23
 6.96649e-23
 2.91848e-23
  5.6871e-23
 1.61273e-22
 3.30592e-24
-1.72925e-22
-1.15245e-22
 3.80028e-23
 2.73094e-23
 8.50413e-24
 1.63427e-22
-1.72385e-22
 9.64322e-24
 1.37855e-22
-3.64941e-23
-7.55445e-23
  9.8498e-23
 8.32166e-23
 4.68105e-23
-1.36684e-22
 1.69314e-22
-1.30531e-22
-9.26008e-24
-1.24141e-22
 1.37895e-22
 1.20735e-22
-1.74946e-23
-6.68355e-23
 2.61436e-23
 9.15926e-24
 3.39669e-23
-8.53837e-23
-1.42848e-22
-9.03542e-23
-1.05303e-22
 4.16064e-23
 -8.2131e-23
 8.47068e-07
 8.81143e-07
 1.23255e-06
 2.67375e-06
-1.00522e-06
-2.47788e-06
-1.21357e-06
  2.8615e-06
 2.26958e-06
 9.40009e-07
-1.46229e-06
 2.60074e-06
 1.07493e-06
-6.05899e-08
 1.05176e-06
 4.27598e-07
-3.86423e-06
 3.17586e-06
 4.12814e-08
-2.86597e-06
-3.79053e-06
-3.72821e-06
 2.00483e-07
 7.07775e-07
 4.08176e-06
 8.69921e-07
 7.81601e-07
 4.18467e-06
-9.28412e-07
 3.16259e-07
-1.08693e-06
-7.05133e-07
-2.58974e-06
  2.3309e-06
 3.52238e-07
 -3.2594e-06
-8.66697e-07
-2.01351e-06
-4.20389e-06
 7.14389e-07
 8.42979e-07
-1.53613e-06
 1.82588e-06
 4.93174e-06
 3.95214e-06
  1.7176e-06
 1.25656e-06
 6.03303e-07
-1.42133e-06
 1.04462e-06
 2.09537e-06
 1.14809e-07
-7.27224e-07
-2.46811e-06
-4.65886e-06
-1.67964e-06
 5.41126e-07
 2.39583e-06
 2.33546e-06
 5.13707e-07
 -4.3033e-07
 1.48775e-06
 1.11573e-06
-8.22402e-07
-2.62253e-06
-4.11544e-06
-1.62382e-06
 8.92778e-07
-4.84775e-08
  2.6054e-06
  2.4956e-06
-1.40296e-06
 8.81124e-07
 2.96671e-06
 -8.2837e-07
 2.69277e-06
-9.65514e-07
 7.96785e-07
-1.32057e-06
 2.38994e-06
 3.11822e-06
 1.82134e-06
-1.37328e-08
-7.84768e-07
-1.12985e-06
-2.24593e-06
-3.13133e-06
-4.29144e-06
-3.10346e-06
-3.87176e-07
-3.48574e-06
 7.90902e-07
 2.42799e-06
-7.62048e-07
-1.06373e-06
-1.66229e-06
 2.81071e-06
-1.05953e-07
-3.24514e-06
-6.98348e-07
-1.71915e-22
-9.19095e-24
 3.79107e-23
-8.98464e-23
 5.84528e-23
 1.02087e-22
 4.09984e-24
 4.59124e-23
 3.63527e-23
-1.00294e-22
 -1.1062e-24
-2.08954e-23
 5.09786e-23
 1.26757e-22
 -1.7929e-22
 3.21944e-23
 1.04489e-22
 2.89933e-23
-1.24264e-22
 7.71688e-24
 7.55504e-23
 5.21705e-23
 1.34824e-22
-1.06664e-22
 8.67938e-23
 1.39076e-22
 8.51208e-23
-1.63698e-22
 9.78824e-23
 1.20552e-22
 4.19235e-23
 1.07116e-22
-6.98315e-23
-1.01358e-22
-1.63923e-22
  1.6977e-22
-1.80464e-22
 2.13254e-23
 3.44901e-23
 3.70377e-23
  1.0218e-22
-1.47808e-22
 -1.6505e-22
-2.80336e-23
 1.60098e-22
-1.63191e-22
-1.77031e-22
 8.33944e-23
 4.69506e-23
-1.20147e-22
-9.00809e-23
-5.86912e-23
 1.13172e-22
 -1.3645e-22
 1.57933e-23
 1.87734e-23
-1.78566e-22
 -8.0278e-23
 3.62235e-23
 1.00465e-22
-1.40919e-22
-1.03045e-22
 2.63885e-23
-2.96014e-23
-2.32546e-23
 4.36141e-23
-4.10237e-23
-2.25696e-23
-1.16253e-22
 1.74615e-22
-1.66724e-22
 1.67076e-22
-1.54385e-22
-1.50625e-22
-4.21501e-23
 -1.7548e-22
-1.32668e-22
-3.80329e-23
 8.90628e-23
 9.54311e-23
 2.29684e-23
  1.8013e-22
-1.44452e-22
 -4.5052e-23
-1.37511e-22
 5.24897e-23
  1.5487e-22
-1.34928e-22
  1.5336e-22
 9.90134e-24
 1.46685e-22
 -1.6875e-22
 8.80048e-23
-8.11828e-24
-1.72033e-23
-1.16442e-22
-1.45696e-22
 1.22922e-22
 4.21369e-23
-8.08006e-23
 1.35312e-06
 2.60318e-07
  1.5146e-06
 4.05182e-07
 7.21508e-08
-7.96661e-07
-1.51856e-06
  8.7701e-07
 2.20756e-07
 1.19801e-06
-1.71261e-06
  3.2162e-07
 1.02768e-06
 -1.0257e-06
 9.88215e-07
 1.01019e-06
-1.43559e-06
 1.42693e-06
 1.01767e-06
-4.23084e-07
-8.29321e-07
-7.67343e-07
 1.85932e-07
 1.34962e-06
 1.62069e-06
 9.77063e-07
 6.99649e-07
 1.35739e-06
-7.69626e-07
 1.59801e-07
-2.13375e-07
-6.64173e-07
-3.63082e-07
 1.82326e-06
 1.39764e-06
-1.02565e-06
-1.11135e-06
-1.59788e-06
-2.36367e-06
 3.41721e-07
 1.33835e-06
 -1.8832e-06
 2.15655e-06
 1.59067e-06
 7.22172e-07
 1.99918e-06
 8.84025e-07
 1.14343e-06
-1.51157e-06
 9.59375e-07
 5.22722e-07
 1.16052e-06
-1.75032e-08
-8.28148e-07
-1.13989e-06
 -5.9211e-07
 1.46234e-07
 1.73093e-06
 1.83459e-06
 1.06569e-06
-1.03681e-06
 1.56001e-06
-8.76001e-08
-1.03158e-06
 -1.0178e-06
  -1.222e-06
-5.45806e-07
 5.98414e-07
-5.36957e-07
 2.86196e-07
 6.81931e-07
 -8.7294e-07
  2.3239e-07
 4.56181e-07
-1.16239e-06
  3.5665e-07
-1.42163e-06
 1.41212e-06
-1.73037e-06
 1.29193e-06
 8.98198e-07
 1.43941e-06
-2.23104e-08
-2.17794e-07
 -1.3413e-06
-2.23725e-07
-1.02191e-06
-2.52644e-06
-1.22808e-06
-9.93828e-07
-9.49433e-07
 8.48259e-07
 1.58445e-06
-7.17623e-07
-1.05141e-06
-3.11119e-07
 1.15002e-06
-1.06201e-06
-1.32409e-06
-6.55423e-07
 7.50095e-05
 1.96827e-05
 9.50694e-05
 4.70113e-05
-3.26251e-06
 -9.5685e-05
-0.000107518
 3.32948e-05
 3.44821e-05
 9.25015e-05
 -0.00010318
 3.69846e-05
-3.66893e-06
-4.39925e-05
 -6.6716e-06
 3.70605e-05
 -0.00014591
 0.000136742
 3.15185e-05
-3.01983e-05
-3.70126e-05
-3.42611e-05
-2.44842e-05
 6.19635e-05
 0.000161161
 3.42076e-05
 7.96716e-05
 0.000121565
-8.29553e-05
 1.95031e-05
 -1.5943e-05
-4.05232e-05
-3.84851e-05
 0.000153341
 6.05709e-05
-9.20606e-05
-0.000100436
-0.000134438
-0.000158939
 2.06564e-05
 5.94346e-05
-0.000125996
  0.00015192
 0.000147315
 7.49839e-05
  0.00014416
 3.40783e-05
   6.249e-05
-9.54078e-05
-8.77224e-06
-1.19123e-05
 4.26246e-05
-9.94406e-06
-0.000100526
-0.000102553
-1.59921e-05
  2.2739e-05
 0.000139437
 0.000154565
 5.35012e-05
-3.80447e-05
 0.000103051
 4.07652e-06
-3.67547e-05
-5.01458e-05
-0.000113363
-1.81032e-05
 4.47007e-05
-1.65649e-05
 2.27283e-05
 1.89001e-05
-1.09791e-05
 1.44128e-05
 3.34285e-05
-5.82654e-05
  3.9373e-05
-6.39325e-05
  6.6925e-05
-9.81641e-05
 0.000111447
 8.38122e-05
 0.000136044
-8.01255e-07
-5.59914e-06
-8.51738e-05
-3.34441e-05
-9.92724e-06
-0.000170662
-7.21137e-05
-3.49814e-05
-7.13712e-05
 8.77554e-05
 0.000129665
-7.96885e-05
 3.34053e-06
-2.27212e-05
 9.52514e-05
-4.74307e-05
-7.77545e-05
-4.01748e-05
-3.71686e-05
  2.3356e-05
 4.04149e-05
 4.06408e-05
-8.77462e-05
-0.000295101
-0.000149254
-0.000319017
 2.79535e-05
  0.00019062
-4.39064e-06
 0.000101744
-0.000500012
 0.000122303
-0.000505926
-0.000109101
-0.000307921
  0.00034092
-0.000197676
 4.59493e-05
 0.000153768
 0.000150622
-0.000278583
-8.35236e-05
 0.000358417
-0.000161426
 0.000382018
  0.00010179
 -0.00037375
 1.84931e-05
 5.75047e-06
-2.01487e-05
 -9.9661e-05
 0.000397501
-0.000165023
-4.01624e-05
-0.000346758
-0.000346756
 7.23264e-05
-3.01332e-05
-8.65287e-05
-5.05295e-05
 0.000125122
 0.000217754
 0.000101002
 0.000135118
-0.000219392
-3.99773e-05
-7.33148e-05
-0.000509927
-0.000411925
-0.000182767
-0.000107023
-0.000328181
-0.000144358
 0.000149371
 3.48308e-05
 0.000290868
 0.000402671
-2.72046e-05
 0.000112827
 9.27369e-05
 9.69162e-05
 0.000151466
 0.000251166
-9.65256e-05
  0.00011299
-1.02326e-05
  7.8727e-05
-4.01245e-05
-0.000326438
 0.000292886
 1.65584e-05
-3.81909e-05
 9.96955e-05
 0.000101518
 9.30696e-05
-7.69457e-05
 3.16328e-05
 0.000139026
 3.97774e-05
 0.000426042
 2.33437e-05
 2.80651e-05
-8.85936e-05
-1.96976e-05
 0.000386972
 5.03143e-05
 0.000231692
 0.000118664
 2.09871e-05
 0.000378638
 0.000149013
-0.000372854
 0.000506733
 1.03806e-05
  0.00010212
 0.000111096
 0.000236968
-2.03848e-05
-0.000138197
 4.87148e-05
 4.51587e-06
 0.000149157
-0.000176473
-0.000501222
-0.000151047
-0.000482256
 0.000130578
  0.00024299
 8.05112e-05
 0.000221893
-0.000841192
 0.000265833
-0.000851553
-0.000229228
-0.000534429
 0.000549828
-0.000383807
-1.74182e-06
 0.000161952
  0.00015383
 -0.00046096
-0.000204842
 0.000610543
-0.000288187
  0.00060287
 0.000216988
-0.000591124
 2.98768e-05
-4.52746e-06
-4.51342e-06
-0.000211968
 0.000577153
-0.000340959
-0.000109151
-0.000510187
-0.000494172
 0.000112778
-4.40566e-05
-0.000201836
-6.50893e-06
 0.000107374
 0.000402509
 0.000217255
  0.00012422
 -0.00036654
-0.000138475
 -5.3179e-05
-0.000857987
-0.000632193
-0.000364925
-0.000184826
-0.000552753
-0.000278602
 0.000253981
 7.16374e-05
 0.000417447
 0.000585067
 -0.00010431
 0.000237159
 6.52567e-05
 0.000198532
 0.000277462
 0.000377287
-0.000213374
 0.000195517
 -1.6111e-05
 0.000172869
 1.16573e-05
 -0.00049114
 0.000499096
 1.20359e-05
 1.62589e-05
 0.000208845
 0.000222392
 0.000212813
-0.000194684
 0.000137326
 0.000204148
 0.000113303
 0.000636047
 2.94448e-05
 6.05693e-05
-7.36818e-05
-0.000115981
 0.000595752
 8.17345e-05
 0.000350527
 0.000245829
-1.42537e-05
 0.000585978
 0.000212214
-0.000585763
  0.00085334
 -1.3453e-05
 0.000142114
 0.000249299
 0.000359446
-4.97041e-06
-0.000233356
 3.60612e-05
 2.50018e-06
 0.000184038
 -0.00019406
-0.000515407
-0.000104911
-0.000568838
 0.000164106
 0.000284041
 0.000148331
 0.000222198
 -0.00103842
 0.000299386
 -0.00105325
-0.000301747
-0.000597206
 0.000561232
-0.000465735
 2.63033e-05
 0.000210031
 0.000198618
-0.000486163
-0.000293995
  0.00068965
-0.000374885
  0.00067668
  0.00024295
-0.000663805
 4.34091e-05
 2.17709e-05
 4.03777e-05
-0.000210728
 0.000629836
  -0.0004444
-9.07865e-05
   -0.000549
-0.000534398
 0.000159191
-0.000109523
-0.000282985
 1.76296e-05
 9.51082e-05
  0.00046004
 0.000196246
 0.000117172
-0.000437977
-0.000236197
-6.45461e-05
 -0.00106243
-0.000738087
 -0.00045296
 -0.00019579
-0.000574358
-0.000270559
  0.00026942
 9.26409e-05
  0.00044348
 0.000639783
-0.000122736
 0.000311721
 4.48389e-05
  0.00021904
 0.000357848
 0.000468904
-0.000242843
 0.000201373
-5.98888e-05
 0.000164409
-1.18379e-05
-0.000580186
 0.000617142
 4.04942e-05
 -9.3721e-06
 0.000253198
 0.000222225
 0.000295107
-0.000281481
  0.00023556
 0.000237577
 9.98474e-05
 0.000703214
 8.68455e-05
 4.15742e-05
-8.94776e-05
-0.000146293
  0.00074711
 0.000120704
 0.000453335
 0.000322588
  3.3086e-05
 0.000652062
 0.000225371
-0.000657013
  0.00105371
 1.22122e-05
 0.000157092
 0.000278591
 0.000462575
 4.00062e-05
-0.000223204
  7.1657e-05
-4.09742e-06
 0.000142922
-0.000300406
-0.000531275
 -0.00013673
-0.000671086
 0.000106508
 0.000285201
 9.34552e-05
 0.000343534
 -0.00108509
 0.000419015
 -0.00110115
-0.000321952
 -0.00061305
 0.000627259
-0.000550731
 5.26374e-06
  0.00019788
 0.000185193
-0.000500989
-0.000271082
  0.00073357
 -0.00041576
 0.000743864
 0.000253584
-0.000727514
-2.50765e-05
-8.38843e-06
-1.28038e-06
-0.000330937
 0.000750323
-0.000501487
-6.25657e-05
-0.000606246
-0.000657922
 0.000186823
-0.000128786
  -0.0002517
 2.70988e-05
 0.000103647
 0.000524585
 0.000287638
 0.000125001
-0.000511215
-0.000238827
-7.24669e-05
 -0.00111087
-0.000852589
-0.000539711
-0.000293343
-0.000597906
-0.000395146
 0.000208846
  2.2863e-05
  0.00058184
 0.000756811
-0.000153313
 0.000332537
 0.000100545
 0.000326605
  0.00038977
 0.000538804
  -0.0002368
  0.00013921
-0.000116725
 0.000175649
 1.14508e-05
-0.000675726
 0.000542953
 9.97928e-05
 1.72479e-05
 0.000311803
 0.000341801
 0.000257143
-0.000252134
 0.000212939
 0.000269738
 6.80618e-05
  0.00081995
 0.000109183
-1.40767e-05
-9.71037e-05
-8.79656e-05
  0.00072376
 0.000138096
 0.000533878
 0.000347936
 2.15606e-05
 0.000715567
 0.000274339
-0.000721205
  0.00110335
-2.30613e-05
 0.000212698
 0.000394787
 0.000547617
-1.41629e-06
-0.000179812
 4.24449e-05
-6.85965e-06
 0.000116244
-0.000253904
-0.000389476
 -9.6617e-05
-0.000515958
 8.97738e-05
  0.00021072
  8.0821e-05
 0.000288478
-0.000841289
 0.000335608
-0.000850106
-0.000247075
 -0.00046122
 0.000469723
-0.000441916
-4.96259e-06
 0.000131497
 0.000122636
-0.000366985
-0.000203582
 0.000557202
-0.000316059
 0.000576839
 0.000192409
-0.000560152
-2.93808e-06
-1.68504e-05
-1.03369e-05
-0.000278457
 0.000569184
-0.000401432
-5.13114e-05
-0.000464647
-0.000496761
 0.000151285
-0.000107125
-0.000180746
 3.03463e-05
 7.22512e-05
 0.000404662
 0.000221947
 8.86092e-05
-0.000380237
-0.000192789
-5.55736e-05
-0.000855424
-0.000661156
-0.000435577
-0.000246529
-0.000443078
-0.000307678
 0.000130288
 3.32923e-05
 0.000443298
 0.000573369
-0.000112593
 0.000255631
 6.37491e-05
 0.000275589
 0.000294014
 0.000403644
-0.000178129
 7.84615e-05
-0.000104356
 0.000122377
 1.80658e-05
-0.000514969
 0.000387863
 9.48306e-05
 2.24142e-05
 0.000236091
 0.000286197
 0.000183914
-0.000188656
 0.000162838
 0.000208819
 5.69547e-05
 0.000626384
  9.4838e-05
-3.14955e-05
-7.36533e-05
-7.57638e-05
 0.000506102
 0.000114238
 0.000408641
 0.000268311
 1.74894e-05
 0.000550202
 0.000210976
-0.000557603
 0.000856757
 -2.8919e-05
 0.000173451
 0.000317948
 0.000420961
 -1.0424e-05
-8.40816e-05
 2.59475e-05
-2.93445e-05
 4.53531e-05
-0.000121546
-0.000186931
-4.96288e-05
-0.000243781
 3.54051e-05
 7.50447e-05
 4.34912e-05
 0.000141851
-0.000369966
 0.000166617
-0.000369967
 -0.00010541
-0.000192072
 0.000224655
-0.000187971
-2.42055e-05
 3.94503e-05
 3.52655e-05
 -0.00018765
-9.12258e-05
 0.000234061
-0.000130774
 0.000273472
 6.73885e-05
 -0.00026479
-3.76386e-05
-2.47515e-05
-1.14151e-06
-0.000136378
  0.00026684
-0.000171335
-1.31803e-05
-0.000219269
-0.000221205
 7.95811e-05
-3.85306e-05
-7.01363e-05
  4.5962e-05
  1.4765e-05
  0.00015895
 9.66519e-05
 2.28471e-05
-0.000192766
-8.76487e-05
-9.63217e-06
-0.000369698
-0.000294478
-0.000184353
-0.000105176
-0.000211658
-0.000135865
 9.17964e-05
-2.03528e-05
 0.000204981
 0.000268674
-5.74985e-05
 0.000109699
 3.86509e-05
 0.000133309
 0.000119005
 0.000176238
-6.31128e-05
 6.77345e-05
-2.11513e-05
 5.79023e-05
 2.97969e-05
-0.000239873
 0.000170826
 1.77108e-05
  3.0003e-05
 0.000128898
 0.000140805
 7.28818e-05
 -8.5887e-05
 6.48209e-05
 7.14206e-05
 1.64737e-05
  0.00029008
 3.28856e-05
 9.77191e-06
-1.81266e-05
-2.95686e-05
 0.000182129
 6.38223e-05
 0.000194188
 0.000115383
-7.33423e-06
 0.000258506
 6.58895e-05
-0.000264306
 0.000376518
-3.02534e-05
 4.14995e-05
 0.000157925
 0.000200532
-1.29631e-06
-2.59185e-05
 1.58395e-05
 1.45155e-05
 5.66286e-05
-5.63439e-05
-0.000101904
-2.98542e-05
-6.26182e-05
 4.85509e-05
 4.29091e-05
 3.31026e-06
 7.84908e-05
-0.000143377
 6.35911e-05
-0.000142574
-4.19829e-05
-0.000135597
 0.000126518
  -8.477e-05
-2.92405e-05
-2.55907e-05
-2.64406e-05
-7.07986e-05
-3.39156e-05
 0.000155771
-4.88683e-05
 0.000115573
 8.55268e-05
-0.000112714
 7.16898e-06
-1.02076e-05
-5.63115e-06
-7.56461e-05
 0.000131873
-7.26724e-05
  -5.406e-05
-9.06485e-05
-0.000110978
-3.02138e-05
-9.30465e-06
-2.86507e-05
-1.75234e-05
 4.05262e-05
 0.000130524
 7.53856e-05
 4.15329e-05
-5.47497e-05
-3.00517e-05
-2.37536e-05
 -0.00014181
-9.78644e-05
-8.25752e-05
-5.45565e-05
-0.000112674
-9.84461e-05
 1.42503e-05
 1.80169e-05
 0.000108224
 0.000132483
 -1.3762e-05
 4.37878e-05
 2.48575e-05
 6.27462e-05
 4.58412e-05
  2.5456e-05
-8.30072e-05
 5.52109e-06
 1.60888e-06
 2.61762e-05
 2.81155e-05
-6.38838e-05
 6.64438e-05
 1.76881e-05
 3.28611e-05
 3.19486e-05
 7.87871e-05
 2.82742e-05
-3.03644e-05
  1.6194e-05
 6.88709e-05
 5.25151e-05
 0.000136071
 1.29526e-05
-4.44616e-06
-2.14246e-05
-4.58277e-05
  2.9824e-05
-3.72125e-05
  3.0854e-05
 4.67944e-05
-3.94261e-05
 0.000107089
 6.94557e-05
-0.000111379
 0.000145925
-1.80862e-05
 6.12683e-05
 5.93294e-05
 3.20005e-05
-5.60193e-06
 2.43072e-05
 1.12913e-05
 3.16046e-05
 5.09363e-05
 -8.3266e-06
-4.63228e-05
-2.82714e-05
 6.25199e-05
 4.46333e-05
 1.63124e-05
-3.17024e-05
 3.19347e-05
 2.53418e-05
-1.01633e-05
 2.49955e-05
 1.23923e-05
-8.05155e-05
 6.02335e-05
 6.80847e-06
-4.06378e-05
-6.62464e-05
-6.49116e-05
 2.89678e-07
 1.53679e-05
 8.25741e-05
 2.18917e-05
 9.27627e-06
 8.47791e-05
-1.14426e-05
 1.38739e-05
-1.08167e-05
-9.78122e-06
-3.13898e-05
 3.84942e-05
 1.45839e-05
-7.09592e-05
-1.05297e-05
-3.19262e-05
-9.77532e-05
 1.75255e-05
  1.4952e-05
-4.77671e-05
 5.18391e-05
 9.06498e-05
 6.29548e-05
 4.77684e-05
 3.67935e-05
 2.00969e-05
-2.77193e-05
 2.49519e-05
 3.97992e-05
 8.75479e-06
-6.39803e-06
-4.57405e-05
-7.24328e-05
 -2.1927e-05
 1.95129e-05
 4.07968e-05
 3.86409e-05
 1.45117e-05
 -1.2667e-05
 2.75455e-05
 1.00265e-05
-1.94227e-05
-6.88951e-05
-8.35564e-05
-2.03761e-05
 2.51536e-05
 3.31525e-06
 3.49963e-05
 5.66497e-05
 -1.8724e-05
 6.32575e-06
 4.20863e-05
 -2.8162e-05
 3.34421e-05
-1.71447e-05
  1.7008e-05
-3.43595e-05
 5.44726e-05
 6.56757e-05
 2.90672e-05
-8.54421e-06
 -3.8055e-06
-1.93871e-05
-4.43504e-05
-6.32509e-05
-9.76792e-05
-7.77176e-05
  -1.207e-05
-6.75295e-05
 8.78485e-06
 5.96609e-05
-9.27983e-06
-2.56926e-05
-1.89953e-05
  5.4588e-05
-1.07169e-05
-8.07906e-05
-9.62522e-06
 3.95182e-05
 1.10207e-05
 4.66447e-05
 3.94574e-05
-3.29948e-06
-3.91673e-05
-3.98597e-05
 7.00023e-05
 3.31778e-05
 2.72272e-05
-4.41241e-05
 1.68965e-05
 4.16754e-05
 -2.8452e-05
 4.14443e-05
 3.71213e-05
-6.47447e-05
 5.19996e-05
 3.21553e-05
-2.80129e-05
 -5.4431e-05
-5.28599e-05
  5.3879e-06
 3.63815e-05
 6.63503e-05
 4.51482e-05
 1.46962e-05
 6.39145e-05
-1.67792e-05
 1.25313e-05
-5.44292e-06
 -6.9569e-06
-1.69003e-05
 3.26969e-05
 3.52703e-05
-5.47834e-05
-1.74508e-05
  -2.557e-05
-0.000104632
 2.11789e-05
 3.75381e-05
  -5.984e-05
 6.33367e-05
 6.94396e-05
 4.17985e-05
  5.8768e-05
 5.10609e-05
  3.5147e-05
-4.16987e-05
 4.13887e-05
  4.0294e-05
 3.10034e-05
-3.25615e-06
-3.82594e-05
-4.92772e-05
-1.98255e-05
 1.54896e-05
  3.2795e-05
   3.296e-05
 3.48964e-05
-3.76614e-05
  3.9124e-05
 3.96585e-06
-4.41153e-05
-7.02849e-05
 -6.3706e-05
-1.75673e-05
 2.35136e-05
-5.59083e-06
  2.2034e-05
 6.21755e-05
-2.99923e-05
 4.32136e-06
 2.88678e-05
-4.64279e-05
  1.8355e-05
-3.95054e-05
 3.73792e-05
-5.29468e-05
 4.32283e-05
 4.98499e-05
  2.5534e-05
-1.17553e-05
-2.95772e-06
-3.32173e-05
-3.31227e-05
 -6.2927e-05
-0.000105564
-8.38352e-05
-3.71214e-05
-5.25848e-05
 1.44251e-05
 4.47504e-05
-1.51023e-05
-4.24696e-05
-1.15163e-05
 4.02853e-05
-2.86708e-05
-8.75189e-05
-6.77236e-06
 6.15596e-06
 9.37553e-06
 2.18635e-05
 3.51839e-05
-7.12702e-06
-4.48318e-05
-1.29782e-05
 4.01872e-05
 3.35259e-05
 1.86251e-05
-7.96265e-06
 4.68545e-06
-1.80442e-05
-9.76611e-06
-1.74506e-05
 9.38905e-06
-6.76891e-05
 3.76126e-05
   6.435e-06
-9.99545e-06
-1.91993e-05
-1.92591e-05
-1.99084e-06
-9.81748e-06
 6.89296e-05
 1.60407e-05
 1.70496e-05
 5.93297e-05
-1.66148e-05
 8.01228e-06
 8.92257e-06
 2.18596e-05
-3.17718e-06
 2.17998e-05
-9.17097e-06
-3.90224e-05
 3.38416e-06
 -1.2327e-05
-7.45585e-05
 1.12966e-05
-6.61181e-06
-3.46008e-05
 4.21778e-05
 6.86093e-05
 3.50143e-05
 4.22925e-05
 2.25812e-05
  6.8575e-06
-2.21454e-05
-1.68846e-05
 9.51809e-06
-8.12794e-07
-3.14307e-06
-4.55203e-05
-3.69166e-05
 -9.2739e-06
 1.22761e-05
 2.10573e-05
 2.16564e-05
 1.36297e-05
-9.24885e-06
 2.79557e-05
 8.64145e-06
-1.52167e-05
-5.03278e-05
-6.50263e-05
-9.56797e-06
 1.19834e-05
 6.82943e-06
 6.74908e-06
 3.80183e-05
 1.32004e-05
 6.49819e-06
 1.01443e-05
-1.89614e-05
 5.57043e-06
 6.92523e-06
-1.02529e-05
-1.28588e-05
 4.23377e-05
 3.58077e-05
 2.89754e-05
-7.81744e-06
-2.89573e-06
-1.71467e-05
-3.31716e-05
-1.25802e-05
-7.43792e-05
-5.94736e-05
-9.59333e-06
-3.34425e-05
 8.17292e-06
 2.79361e-05
 -1.6818e-05
 1.82717e-05
 4.72349e-06
 3.39421e-05
 -8.9094e-06
-6.00986e-05
 2.18872e-05
 4.10911e-06
 5.29312e-06
 9.19335e-06
  1.6967e-05
-4.16792e-06
-1.76134e-05
 -7.9714e-06
 1.51812e-05
 1.51072e-05
 8.60912e-06
-7.91959e-06
 1.05039e-05
-1.22674e-06
-2.48555e-06
-1.29218e-06
 2.02597e-06
-2.82989e-05
 1.98872e-05
  9.5271e-07
-1.31876e-05
-1.70852e-05
-1.68257e-05
 1.87684e-07
 5.64298e-07
 2.97372e-05
 4.05597e-06
 7.36055e-06
 2.94737e-05
-7.82114e-06
 2.76168e-06
-3.48543e-06
-3.51772e-07
-1.02058e-05
 1.62228e-05
 4.34916e-07
 -2.1847e-05
-4.79828e-06
 -1.3241e-05
-2.75028e-05
 3.60574e-06
 1.54927e-06
-1.30849e-05
 1.62546e-05
 3.23479e-05
 2.06205e-05
 1.57357e-05
 6.57215e-06
 3.00753e-06
-1.04911e-05
-1.28521e-06
 7.82239e-06
 3.71704e-07
-2.27141e-06
-1.78714e-05
-2.41513e-05
-6.96538e-06
 4.43887e-06
 1.65889e-05
 1.62378e-05
  4.1519e-06
-2.05124e-06
 1.13802e-05
 4.85243e-06
-4.02856e-06
-1.75215e-05
-2.93732e-05
-7.12682e-06
 6.22999e-06
-9.09926e-08
 1.14387e-05
 1.37937e-05
-5.61244e-07
 4.76575e-06
 1.35929e-05
-5.67807e-06
  1.0981e-05
 -1.9716e-06
 9.54021e-07
-7.13605e-06
   1.982e-05
 2.03417e-05
 1.49192e-05
 4.17515e-08
-3.61465e-06
-8.64109e-06
-1.49795e-05
-1.12919e-05
-2.82031e-05
-1.94337e-05
-1.93509e-06
-2.00521e-05
 6.10687e-06
 1.94286e-05
-7.28073e-06
  1.2725e-06
 -6.4708e-06
 1.71633e-05
-2.72705e-06
-2.00587e-05
-3.08901e-07
 1.38589e-05
 2.47098e-05
 4.74764e-06
  1.3383e-05
-2.54803e-05
-7.04488e-05
 -3.3637e-05
-1.93847e-05
 9.23325e-06
  1.8377e-05
-2.06932e-05
 3.51183e-05
-4.95318e-05
 2.17398e-05
-4.96187e-05
 7.78655e-06
-6.18777e-05
 7.68245e-05
-5.65762e-06
-2.29027e-05
-1.74615e-05
-1.76031e-05
-4.25031e-05
 5.28533e-06
 6.80254e-05
 9.75687e-06
 6.40129e-05
 3.32472e-05
-6.32883e-05
-2.51213e-05
-1.03292e-05
 8.35248e-07
-3.38742e-05
 6.77161e-05
-4.26865e-06
-1.72138e-05
-5.24379e-05
-5.69513e-05
-2.64345e-05
 1.76134e-05
 1.02171e-05
-9.89127e-06
 1.95031e-05
 5.19703e-05
  4.9209e-05
 1.98333e-05
-2.44209e-05
 1.25376e-05
 -1.0536e-05
  -4.963e-05
-4.22918e-05
-5.64488e-06
-1.78922e-05
-7.40564e-05
-5.73214e-05
 1.73147e-05
-2.12261e-05
 5.71258e-05
 6.82566e-05
-3.56982e-06
-7.31363e-06
  3.4554e-05
  2.7811e-05
-1.16963e-05
 1.01239e-05
-3.42105e-05
 1.38155e-05
 1.63403e-05
 2.05566e-05
 2.12773e-05
-2.16562e-05
 1.49682e-05
-3.95081e-06
 2.36851e-05
 1.37603e-05
 3.58671e-05
-9.51448e-06
 5.81112e-06
-2.09874e-05
 2.08247e-05
 1.53478e-05
 7.03239e-05
-1.43774e-05
 9.13366e-06
-9.93516e-06
-8.50296e-06
 1.21137e-05
-2.90452e-05
 1.13123e-06
-6.83367e-06
-3.04184e-05
  6.0016e-05
 1.82469e-05
-6.27465e-05
   5.052e-05
  -1.424e-05
 1.46084e-05
  2.0907e-05
 1.24748e-06
 8.46574e-07
 5.15111e-05
 4.31959e-05
-8.94429e-07
-6.61144e-06
 -2.7149e-05
-6.47971e-05
-6.27158e-05
 5.56834e-06
-1.40412e-05
 2.45391e-06
-6.34977e-05
 4.75171e-05
 3.07247e-05
 1.89644e-05
 3.08748e-05
  3.7785e-05
-3.34141e-05
 7.84278e-05
 3.14038e-05
-5.17508e-05
-5.25026e-05
-5.16757e-05
-3.06953e-05
 4.57847e-05
 3.54342e-05
  4.6741e-05
 4.71039e-05
  2.5576e-05
 -4.9233e-05
-6.56858e-05
-3.49013e-05
-1.82107e-05
-4.74291e-05
 7.69992e-05
  4.4831e-05
-1.68924e-05
-5.23022e-05
-6.61587e-05
-4.95866e-05
  3.8363e-05
 5.54512e-05
-1.25104e-05
 2.66977e-05
 3.20549e-05
 6.70689e-05
 2.43429e-05
-1.68608e-05
 4.70907e-05
-9.44597e-06
 3.10055e-05
-4.32684e-06
 3.69508e-05
-9.43437e-06
-6.46232e-05
-7.51361e-05
 1.03326e-05
-6.38055e-05
 7.02213e-05
 7.74088e-05
-1.96009e-06
-3.83005e-05
 6.79682e-05
   2.799e-05
-5.05217e-05
  -1.095e-05
 -2.3727e-05
 1.12856e-05
 3.87529e-05
 1.70809e-05
 4.74464e-05
-9.06839e-07
-4.26319e-05
-1.51117e-05
 5.10512e-05
 1.32037e-05
 4.85773e-05
-5.64774e-05
 4.64596e-05
 -6.8107e-05
 1.02156e-05
 1.18518e-05
 6.70182e-05
-2.94501e-05
 1.63563e-05
-6.74486e-06
  1.3756e-05
-5.21924e-05
-5.25259e-05
-2.12995e-05
-3.75702e-05
-6.51657e-05
 4.92433e-05
 1.41192e-05
-4.74617e-05
-3.12708e-05
-3.95484e-05
 4.60931e-06
 1.84607e-05
-2.32011e-05
-1.81212e-05
 2.70938e-05
-5.13249e-06
 3.77761e-05
 1.54399e-05
-9.54607e-07
-1.15071e-05
-3.38491e-05
 2.73458e-05
 1.09171e-05
 3.50679e-05
-4.10352e-05
 7.64498e-06
 2.63607e-05
-2.56076e-05
 2.53414e-05
 1.49457e-05
 -3.5494e-05
 2.53342e-05
 1.52935e-05
-8.93331e-06
-1.07575e-05
-9.22903e-06
 1.83527e-05
 2.45971e-05
 3.93015e-05
 1.28446e-05
  9.0697e-06
 4.23306e-05
-1.01665e-05
 1.08056e-05
-8.93908e-06
-1.45818e-05
-9.29563e-06
 4.18639e-05
 2.56364e-05
-3.19844e-05
 -1.9047e-05
-3.83754e-05
-5.67034e-05
 -8.3768e-06
 2.74664e-05
-4.84924e-05
 5.90484e-05
   4.369e-05
 1.86904e-05
 5.56045e-05
 2.24571e-05
 2.13394e-05
-4.31908e-05
 2.46128e-05
 1.96625e-05
 1.85299e-05
-2.76587e-07
-1.23495e-05
-2.86193e-05
-2.86298e-05
 8.04361e-06
 4.22743e-05
 4.20839e-05
 2.94456e-05
-1.56118e-05
 3.99253e-05
-1.52245e-07
-1.66845e-05
-3.12612e-05
-3.86883e-05
-2.83827e-05
 3.74509e-07
-2.52979e-05
 6.00548e-06
 2.28695e-05
-2.52426e-05
 2.32305e-05
 9.71091e-06
-2.84171e-05
 8.05562e-06
-2.97378e-05
 2.63847e-05
-3.90307e-05
 4.59741e-05
 2.86049e-05
 3.33966e-05
 1.73885e-05
-2.31501e-05
-3.97576e-05
-1.09487e-05
 -1.8275e-05
-6.06437e-05
-3.47276e-05
-1.46149e-05
-2.36623e-05
 1.27037e-05
 5.04483e-05
-9.59726e-06
-2.68714e-05
-9.68313e-06
 4.05937e-05
-2.71959e-05
 -3.7044e-05
-1.43936e-05
 1.81169e-06
 4.93551e-07
 2.44164e-06
 9.14727e-07
 -8.1261e-08
-1.04535e-06
-1.64554e-06
 1.90431e-06
 5.95802e-07
 1.61735e-06
 -2.8326e-06
 5.57603e-07
 1.94238e-06
-1.34088e-06
 1.87486e-06
 1.11854e-06
-2.22173e-06
 1.64573e-06
 9.92458e-07
-6.75789e-07
-1.62836e-06
-1.52103e-06
 1.09433e-06
 1.52097e-06
  2.4191e-06
  1.1378e-06
 4.13035e-07
 2.73365e-06
-4.80879e-07
 3.08983e-07
-1.15223e-07
-7.05485e-07
-6.11113e-07
 2.26248e-06
 1.48901e-06
-1.98573e-06
 -5.3897e-07
-2.40696e-06
-3.70349e-06
 9.41638e-08
 1.24624e-06
-3.26526e-06
 3.14645e-06
 2.85144e-06
 1.53197e-06
 2.90869e-06
 1.51135e-06
  1.3978e-06
-2.28948e-06
 1.83088e-06
 1.29574e-06
 1.07215e-06
-1.66428e-07
-1.06634e-06
-2.10592e-06
-2.00655e-06
 2.85808e-07
 2.36114e-06
 2.27499e-06
 1.28679e-06
 -1.1575e-06
 2.25883e-06
  6.9881e-08
-1.14546e-06
-2.10647e-06
-2.50943e-06
-1.90404e-06
 4.70144e-07
-9.45328e-07
 4.80707e-07
 1.58126e-06
 -1.3752e-06
 1.10977e-06
 7.34868e-07
-1.71759e-06
  5.9698e-07
-1.41953e-06
 1.65733e-06
-2.05311e-06
  2.4661e-06
 1.74349e-06
 1.74292e-06
 4.99399e-07
-1.14463e-06
-2.01307e-06
-6.06606e-07
-2.13509e-06
 -3.9234e-06
-2.39889e-06
 -1.0979e-06
-1.73005e-06
 3.96591e-07
 3.03562e-06
-4.33961e-07
-1.98667e-06
-3.49739e-07
 2.82972e-06
-1.43365e-06
-2.55044e-06
-6.89437e-07
  8.6384e-23
-1.59994e-22
-5.26708e-23
  1.0108e-22
 5.31206e-23
 9.17513e-23
 8.58356e-23
 -2.2296e-23
 1.51338e-23
 6.43208e-23
-1.61523e-22
 1.74963e-22
-1.35093e-22
 4.74246e-24
-1.78655e-22
 1.08738e-22
 7.23246e-23
 1.97292e-23
 1.04641e-22
-7.75313e-23
  1.1707e-22
 1.67866e-22
-1.34826e-22
 1.68607e-22
-4.08962e-23
 -9.6858e-23
-1.29181e-22
 1.12327e-22
-4.82238e-24
 3.70831e-23
 5.56197e-23
-9.96305e-23
 5.82381e-23
-1.78243e-22
-1.79743e-22
-6.98335e-23
 9.46567e-23
 8.72415e-23
 8.90191e-23
-7.14017e-23
-2.96299e-23
 1.08645e-22
-7.76305e-23
 1.64255e-23
-6.78047e-23
-7.51364e-23
-5.60291e-23
-1.76672e-22
 1.25741e-22
 -1.3258e-22
 -7.3055e-23
  6.1619e-23
-1.45906e-22
-2.67326e-23
 4.90339e-23
-5.65362e-24
  5.7558e-23
 1.01002e-22
-7.45188e-23
-1.28457e-22
-4.31073e-23
  1.6225e-22
-4.69385e-23
-1.66061e-22
 1.65155e-22
-4.55326e-23
-5.47464e-23
 7.86194e-23
-1.39483e-22
-1.46919e-22
-1.73974e-22
 1.20353e-23
 1.42874e-22
-7.04563e-23
-1.52731e-22
-1.06123e-22
 3.55558e-23
-2.76119e-23
-1.01647e-22
-1.98949e-23
 2.09565e-23
 6.44709e-24
-1.39468e-22
 5.61991e-23
 1.60863e-22
 9.07144e-23
-1.30647e-22
 3.72289e-23
  1.0524e-23
 -2.4017e-23
  8.9921e-23
 1.48565e-22
-4.29596e-23
 -1.3821e-22
 1.63652e-22
-5.89969e-23
-2.59373e-24
-7.22862e-23
 -1.6157e-22
 3.90715e-23
 -3.8057e-23
-1.54396e-22
-1.30085e-22
-7.63751e-23
-4.37033e-23
-1.01668e-22
-1.34927e-24
 1.73001e-22
 5.18686e-23
 7.81528e-23
 -2.8086e-23
-1.08367e-22
-9.65923e-23
 1.35945e-23
 1.28981e-22
-1.16921e-22
-7.68833e-23
 1.79482e-22
 1.01456e-22
 1.14789e-22
-2.57267e-23
  1.0185e-23
 8.21624e-23
 1.12462e-22
 5.31239e-23
 6.46226e-23
-1.27727e-22
-1.30662e-22
 1.73485e-22
-1.08148e-22
 8.95581e-23
-4.57641e-23
-8.13949e-23
 1.40621e-22
 5.90094e-23
 5.60504e-23
-1.42239e-22
-1.23532e-22
 4.78593e-23
 9.07783e-23
 1.35769e-22
-1.61419e-22
  1.6356e-22
-1.42015e-22
 3.33242e-23
 1.11348e-22
-7.77879e-23
  1.3759e-22
 1.09638e-22
-1.57524e-22
 7.11867e-23
-9.72806e-23
 3.38097e-23
-2.78431e-23
-1.66011e-22
-9.42586e-23
-1.44413e-22
-1.12589e-22
-4.37721e-23
 -1.5212e-22
-3.95882e-23
-1.35406e-22
-1.67353e-23
 6.01655e-23
-1.75977e-22
-1.38918e-22
-6.49763e-23
-1.37067e-22
-8.13016e-23
 1.64032e-22
  1.3486e-22
-1.26724e-22
-1.78579e-22
 1.17227e-22
-8.75909e-23
 3.58933e-23
 4.73831e-23
 1.57698e-23
-7.70928e-24
-2.41707e-23
 3.93945e-23
-1.17715e-22
 5.96973e-23
-1.07988e-22
 3.55908e-23
 7.48354e-23
 -2.1098e-23
 7.23267e-23
 1.43395e-22
 1.16279e-22
 1.01356e-22
-7.73852e-23
 1.62021e-22
-9.65718e-23
 1.63929e-22
 1.67193e-22
-5.43413e-23
-8.22397e-23
-1.51067e-22
 4.55057e-23
-9.94003e-23
 1.64941e-22
 9.99299e-23
-9.68312e-23
 1.00976e-22
-1.68853e-22
 1.20211e-22
-3.28328e-23
 2.80651e-23
-6.86907e-23
 1.24145e-22
-1.13733e-22
-5.25688e-24
 2.65013e-24
-4.05719e-23
-1.50858e-22
-1.03707e-22
 1.19479e-22
 1.02617e-22
-1.41504e-22
 5.45651e-23
 2.27805e-23
-3.77404e-23
  3.5394e-23
 1.07357e-22
-5.50037e-23
 2.13944e-23
-1.28176e-22
 4.39052e-23
 5.14761e-23
 9.84779e-23
 1.25653e-22
 3.52253e-23
 1.72156e-23
 -1.5237e-22
-4.49907e-23
  2.9511e-23
 1.48989e-22
 1.03325e-22
-1.23616e-22
-1.00893e-22
 4.62779e-23
   -5.62e-23
 7.49982e-23
-1.32264e-22
 8.43767e-23
 1.05289e-22
-5.48222e-23
 2.26633e-23
 2.67134e-23
-1.51774e-23
-1.03964e-22
-1.31698e-22
 1.28231e-22
 1.12579e-22
 1.56807e-22
-1.07965e-22
-4.72189e-23
-1.52561e-22
 1.17089e-22
-1.76935e-22
 1.27066e-22
   6.155e-23
 3.94389e-23
 -3.6911e-23
 9.03286e-23
 1.75597e-22
 1.73749e-22
 5.81259e-23
 9.77297e-23
 -1.3106e-22
 1.38381e-22
-3.71845e-23
-6.11111e-24
  3.2187e-23
    1.17e-23
-1.02927e-22
-4.37166e-23
 1.38026e-22
 1.00885e-22
 1.64145e-22
-5.83432e-23
  1.7807e-22
-1.48745e-22
-1.11305e-22
 1.09457e-22
 -1.7313e-22
 -3.8121e-23
-1.18954e-22
-1.44542e-22
-1.02224e-22
-1.14741e-22
 1.63672e-22
 1.40474e-22
 1.05847e-22
-5.44313e-23
 4.96105e-23
 1.00252e-22
-6.18749e-23
-7.34558e-23
 1.67891e-23
-1.17861e-23
-1.16267e-22
 1.60753e-22
 1.63251e-22
 9.70687e-23
-8.73902e-24
-1.20867e-22
 -1.2784e-22
-5.19049e-23
 1.61167e-22
-1.44887e-22
 7.09005e-23
 1.58045e-22
-1.12483e-22
 1.40745e-22
 8.63093e-23
-1.04465e-22
-7.85685e-23
 1.48504e-22
-6.78581e-23
 3.55627e-25
-1.47429e-22
-8.53784e-23
-4.03624e-23
 1.39566e-22
 4.13389e-23
-1.71944e-22
 5.86258e-23
 1.60612e-22
-6.42512e-23
-1.05777e-22
-3.23658e-23
 6.30382e-25
-1.26216e-22
-5.03065e-23
-8.34931e-23
 4.61933e-23
 9.97472e-24
-3.01846e-23
 1.75437e-22
-1.00509e-23
 6.07712e-24
 6.51454e-23
-3.31984e-23
 7.47424e-23
 2.46978e-23
-1.28081e-22
 1.51426e-22
 1.27278e-22
 -1.6077e-22
-9.76239e-23
-5.35586e-23
 -1.2705e-22
-1.85374e-24
 8.72275e-23
-1.68676e-22
-1.41707e-22
  9.6432e-23
 7.10982e-23
-1.62287e-22
-1.49011e-22
  1.4647e-22
-1.35039e-23
 3.27676e-23
-1.60939e-22
 1.17338e-22
 1.30423e-22
  6.6403e-23
-5.38793e-23
-8.09537e-23
 6.06479e-23
 1.17218e-22
 1.06272e-22
-5.53988e-23
-9.71722e-23
 -1.7783e-25
 1.50448e-22
-4.41049e-23
-2.99436e-23
 9.65333e-23
-2.37262e-23
 5.35811e-23
-1.38217e-22
  3.0372e-23
-1.29465e-22
 1.30159e-22
 4.28445e-23
-9.00233e-23
 4.53985e-23
-6.72495e-23
-7.11614e-23
 7.75357e-23
-1.01972e-22
 9.64832e-23
-7.08888e-23
-8.17624e-23
 3.26292e-23
-1.21658e-22
 1.65789e-22
 1.59898e-22
-2.14631e-23
  4.5245e-23
 9.59246e-23
-9.63833e-23
 1.70995e-22
 1.79901e-22
 8.45875e-23
  1.4025e-22
-4.53961e-23
-1.26548e-22
 5.55913e-23
 1.12026e-22
 1.08181e-22
 9.85225e-23
-3.87939e-23
 1.59865e-22
 4.74889e-23
-1.77142e-22
 -1.1135e-22
-8.83047e-23
-6.32425e-23
-1.36312e-24
  1.7038e-22
 1.59339e-23
-8.60721e-23
-8.17014e-23
  1.1532e-22
 1.27706e-22
-2.22108e-23
 9.99171e-23
 1.06412e-22
 1.37475e-22
-3.60301e-23
 2.11444e-23
-1.40101e-22
-4.62275e-23
 1.98533e-23
 1.25635e-22
-8.71695e-23
 1.55606e-22
 1.80236e-22
  1.4957e-22
 8.64399e-23
 1.07225e-22
 6.69007e-23
-1.33546e-22
 8.58979e-23
-6.68025e-23
-1.29539e-22
 1.55696e-22
 2.60413e-23
-1.16331e-23
 -2.6859e-23
 1.52288e-23
-1.76891e-22
 6.82175e-23
 1.14676e-22
 1.19577e-22
  1.4731e-23
 -8.8727e-23
 3.83023e-23
-6.00492e-23
-1.32444e-22
 -1.7892e-22
 1.42244e-22
-9.13965e-23
-4.39989e-23
-1.90951e-23
-1.46953e-22
 4.99801e-23
-4.46815e-23
 -1.4791e-22
 1.83583e-23
-1.39434e-22
 1.40464e-22
-9.59332e-23
-9.18313e-23
 4.51693e-23
 1.84129e-23
-4.02219e-23
 1.96734e-23
-1.36738e-22
 1.29294e-22
 1.73963e-22
 5.96394e-23
 1.33551e-22
 6.09882e-23
-6.87676e-24
  7.1936e-23
-1.05473e-22
 8.55449e-23
-7.09539e-23
 1.56265e-23
 1.34249e-22
-6.87253e-23
-2.33219e-23
 -1.3834e-22
 6.84243e-23
 1.38732e-22
-1.04144e-22
-6.27878e-23
 -8.7142e-23
-7.09057e-23
 1.36719e-22
-4.54272e-23
-1.11634e-22
-1.40406e-22
   4.389e-23
 1.14684e-22
 5.91552e-23
-1.77524e-22
-4.68351e-23
 1.03566e-22
 1.32918e-22
-5.40644e-23
-1.79869e-23
 8.52767e-23
-1.74268e-22
 1.56285e-22
-2.39795e-23
-9.85926e-23
 6.06376e-23
 8.62152e-23
 9.81824e-23
 1.36945e-23
-1.63702e-22
-1.06332e-22
 5.65034e-23
 8.58705e-23
-1.48792e-22
 1.33508e-22
-1.58109e-22
-5.47856e-23
 -1.1859e-22
 1.59758e-22
 8.09358e-23
 -4.9076e-23
 -1.6184e-22
-5.63664e-23
-1.15585e-22
 7.84636e-23
-5.27418e-23
 1.87289e-23
 8.37261e-25
-1.01016e-22
 1.45813e-22
 1.63999e-22
 1.65409e-22
 1.52693e-22
 1.39092e-22
-3.97623e-23
-1.27091e-22
 1.85372e-23
-1.34739e-22
  1.5224e-22
 -1.4896e-22
-1.17293e-22
-1.35284e-22
 8.86915e-23
 1.49726e-22
-1.02928e-22
 4.10069e-23
 1.72765e-22
 2.34351e-23
 1.03565e-22
 1.51331e-22
-7.68213e-23
-1.26703e-22
  1.7064e-22
  4.7961e-23
-6.11391e-23
 6.79109e-23
 1.76368e-22
 1.38738e-22
-1.12444e-22
 -1.0584e-22
 1.03359e-22
-1.29637e-22
-1.21623e-22
 7.48605e-23
-1.71738e-22
 1.97632e-23
 1.28918e-22
 2.79482e-23
 6.61725e-23
 9.99652e-23
 6.01363e-23
 1.30028e-22
  1.4583e-22
-3.23644e-23
 9.85619e-23
 -1.3829e-22
 -1.7255e-22
 9.01349e-23
 6.62933e-23
 1.12164e-22
 6.02739e-23
 1.70621e-22
  1.6661e-22
 4.97212e-23
 3.73894e-23
-7.57216e-23
  -6.356e-23
 3.25649e-23
-1.18175e-22
 5.14465e-24
 1.07873e-22
 1.66333e-22
 5.66561e-23
 1.67399e-22
 6.00009e-23
  6.6067e-23
 5.96966e-24
 7.72642e-24
 -8.7177e-23
 -1.0905e-22
-7.35006e-23
 1.54108e-22
-1.60214e-22
-1.08863e-22
-5.94487e-23
 1.19496e-22
-6.60051e-23
-5.08498e-23
 2.84391e-23
-1.80904e-22
-1.19878e-22
-9.24792e-23
 1.70865e-22
 -1.3446e-22
 1.38391e-22
 2.70624e-23
-2.90334e-23
-1.06362e-22
-1.21565e-22
 3.39398e-23
 7.99317e-23
 1.67457e-22
 1.90802e-23
-4.46044e-23
 1.53663e-22
-1.02111e-22
 -1.5973e-22
-2.15592e-23
 8.67639e-23
-6.57579e-23
 5.05394e-23
-1.67929e-22
-9.28422e-23
 7.14739e-23
-9.56435e-23
 2.88577e-23
 9.77809e-24
    1.95e-23
 1.59157e-22
-1.42975e-22
 1.97446e-23
-1.41913e-22
-5.43056e-23
 9.41762e-24
-9.52252e-23
-9.71072e-23
-1.44712e-22
   5.689e-23
-2.23201e-23
-8.51284e-23
-9.03624e-23
-1.23581e-22
-9.88637e-23
 1.09866e-22
 1.29636e-23
-1.26393e-22
-1.73437e-22
 3.43827e-23
 3.31968e-23
 9.44755e-23
 1.49773e-22
 -9.7456e-23
 1.07695e-22
-1.24261e-22
 1.55166e-22
 -1.6914e-22
 8.57453e-23
-1.62476e-23
 3.15081e-23
 6.37097e-23
  2.1926e-23
-1.29939e-22
 1.02945e-22
 1.48769e-22
 6.06268e-23
-1.73473e-22
 -1.2953e-22
 9.70632e-23
  6.4566e-23
 2.92981e-23
-1.69257e-22
 1.55352e-22
 8.68661e-23
 6.59937e-07
 1.06317e-06
 8.21083e-07
-4.95548e-07
 4.97102e-07
 6.49205e-08
 4.10494e-07
-2.24569e-07
 -5.5442e-07
-3.11728e-07
-6.84323e-07
 -4.4867e-07
 1.91284e-08
-1.65609e-07
  1.6742e-08
 5.36016e-07
 6.20268e-08
-9.80797e-08
 9.25961e-08
 1.09404e-06
-1.93117e-07
 -1.9547e-07
 4.26159e-08
 4.70175e-07
-4.51943e-08
 2.17784e-07
-2.53691e-07
-3.52153e-07
 2.59625e-07
 7.16591e-08
  1.2484e-06
-2.22063e-08
 4.58695e-07
-2.28422e-07
 1.12901e-07
 5.49662e-07
 3.94141e-07
-4.20041e-07
 4.65483e-08
 9.06366e-07
-7.17898e-07
-1.00006e-06
-2.73209e-07
-8.64099e-08
-1.84554e-07
-2.65718e-07
 2.70639e-07
 6.59158e-07
 2.96925e-07
 1.49804e-08
-9.23485e-07
 5.45213e-08
-7.18439e-07
 7.09906e-08
 1.67338e-07
-4.55016e-07
 1.68842e-07
-3.34772e-07
-2.26283e-07
-4.93001e-07
-5.35763e-07
-3.62454e-07
-4.76622e-07
 2.65999e-07
 4.37622e-07
 3.02683e-07
-3.56186e-07
 4.25247e-07
 9.77381e-07
-1.09911e-06
-3.27954e-07
 7.59944e-07
-4.88268e-07
-1.06941e-06
-5.40532e-07
-4.49267e-07
 7.03699e-07
 4.74859e-07
  4.9889e-07
-4.63095e-07
-5.72573e-07
-1.81241e-07
-9.33977e-07
 4.86307e-07
 3.56615e-07
 5.68236e-07
-8.59769e-08
 4.90067e-08
 5.84853e-08
-5.31311e-07
 7.55782e-07
-3.08497e-07
-1.70324e-07
 2.58968e-07
-2.00557e-08
 1.21896e-06
 6.72881e-07
-1.69625e-07
 6.79493e-08
-2.11024e-08
-2.22913e-06
   4.056e-07
 1.99811e-06
  2.1608e-06
-1.75122e-06
-3.96263e-06
 1.86785e-06
 2.78208e-06
 2.69195e-06
 1.45173e-06
 3.21558e-06
-2.55827e-06
-6.87642e-06
-3.09549e-07
-6.62638e-06
  1.3567e-06
-5.63351e-06
-4.48965e-07
 7.11363e-08
 3.72969e-06
 3.65427e-06
 3.46526e-06
 3.35889e-07
-4.38422e-06
 5.47044e-06
 1.77911e-06
 2.43689e-06
 2.26407e-06
-1.87224e-06
 2.64401e-07
 3.95685e-06
 8.21167e-06
 2.87625e-06
-1.53206e-06
 -5.5425e-06
 1.34678e-06
 3.14842e-06
 2.70284e-06
-5.97941e-06
 4.24775e-07
-4.09719e-06
-2.62695e-06
 2.82243e-06
 4.46391e-06
-1.77348e-08
 3.37559e-06
 1.64817e-06
-1.40739e-06
-1.02466e-06
-6.42887e-06
-2.79902e-06
-2.66123e-06
-1.38562e-06
-4.22381e-06
 8.11618e-07
-1.21929e-06
 5.37234e-07
-1.99582e-06
-1.57923e-06
 8.75217e-07
-1.28004e-06
 2.36619e-06
 1.98062e-06
-1.38801e-06
-3.81075e-06
-4.37251e-06
-1.24306e-06
-1.44982e-06
 2.39771e-06
-3.68506e-06
 3.07628e-06
 4.81315e-06
 1.25145e-06
-3.80943e-06
-1.67775e-06
-2.57084e-06
 4.41084e-06
-4.78017e-06
 2.21096e-06
 2.12642e-06
-1.37352e-06
  1.4097e-06
-1.25503e-06
-7.27574e-07
-8.48424e-07
-2.57919e-06
 3.71915e-06
-5.62994e-06
-5.58498e-06
-1.41047e-06
  2.0792e-06
-1.55012e-07
 -2.4006e-06
-2.31433e-06
 7.00584e-06
 4.21601e-06
 2.43229e-06
-1.63173e-08
-5.29854e-06
 8.17897e-06
-1.89362e-05
-7.85531e-06
  9.4643e-06
 2.22726e-05
 -1.7067e-05
-1.23322e-05
 8.64371e-06
 1.92084e-05
 2.17319e-05
 1.71834e-05
 1.54768e-05
 5.64106e-06
-1.94882e-05
-1.30585e-06
-1.90599e-05
 2.89057e-06
-2.72796e-05
 6.88516e-07
-3.32834e-07
-6.06255e-06
 2.14683e-06
 2.15841e-06
 8.89741e-06
-1.46883e-05
 2.88145e-05
 7.01166e-06
 1.64469e-05
 2.06269e-05
-1.54652e-05
  1.3763e-06
-9.55912e-07
 2.45091e-05
-4.70958e-06
 2.52415e-06
-1.85909e-05
 -2.6184e-06
 2.10422e-06
 7.43081e-06
-3.04852e-05
-1.40318e-05
-3.72513e-06
-3.66913e-06
 1.63641e-05
 2.96342e-05
 5.69786e-06
 1.62416e-05
 6.59384e-06
-1.89584e-05
-1.81342e-05
 -1.8646e-05
 5.31817e-06
-9.35081e-06
 -3.3753e-06
 -1.3776e-05
 -7.1379e-06
-1.39197e-05
 1.33925e-06
 1.45932e-06
 2.51229e-06
 1.15286e-05
-2.60599e-06
 1.13233e-05
 1.80994e-05
-9.76137e-06
-1.61618e-05
-2.62924e-05
-1.49143e-05
-1.58252e-05
-8.24622e-06
   6.027e-06
 1.88659e-05
 3.77574e-06
 1.98831e-05
 6.73801e-06
-5.19264e-06
  5.7894e-06
 4.31963e-06
-1.54548e-05
 7.95747e-06
 1.65084e-05
 2.56471e-06
 8.88803e-06
 1.43371e-05
-1.94328e-05
-1.75691e-05
-2.11131e-05
 6.43882e-06
-3.16586e-05
-1.81151e-05
-2.72952e-06
-6.42697e-07
 8.62751e-06
-4.93719e-07
-1.58003e-05
 1.99968e-05
-2.62122e-06
 1.04337e-05
-9.97747e-07
-1.90273e-05
 2.45036e-05
   1.383e-05
 1.32253e-05
 7.07944e-05
-8.87334e-07
 2.56836e-06
 6.50125e-06
  9.0257e-06
 1.36344e-05
-6.51942e-06
 4.43883e-05
-4.80321e-05
-1.27388e-05
 1.21366e-05
 -2.2783e-05
 9.60495e-06
 1.95662e-05
-4.22447e-05
-1.13561e-05
 4.83504e-06
 3.32671e-05
 4.91021e-06
 7.34685e-06
 5.43683e-05
 1.23912e-05
 5.36464e-05
 8.83607e-06
-6.81031e-06
 5.66817e-05
 6.63723e-06
 6.61932e-06
 4.00038e-05
 1.16756e-05
 1.16198e-05
 4.26646e-05
-6.99636e-06
-1.61245e-06
 2.57591e-05
-4.94361e-05
-7.50451e-05
-2.72538e-05
-1.63345e-05
-8.05163e-05
 7.71427e-05
  7.3792e-05
 3.03204e-06
 7.26275e-05
 1.96762e-05
 2.82858e-06
-6.14175e-05
 7.96504e-06
-9.86113e-06
-4.65774e-06
-2.00464e-05
 3.74964e-06
-2.29668e-05
-6.62003e-05
 4.25341e-06
 4.67783e-05
 4.22129e-05
 1.55882e-05
-2.01675e-05
 4.77841e-05
-3.28619e-06
-1.69256e-06
-1.05521e-05
-5.50397e-05
-6.52101e-05
-2.72067e-05
-3.03447e-05
-3.50817e-05
   7.812e-06
 8.95536e-07
 5.17255e-05
-3.08527e-05
-3.48518e-05
 -1.2773e-05
 1.17597e-05
 1.65687e-05
 3.52354e-06
 6.84663e-05
-4.20498e-06
 3.78381e-05
 3.70901e-05
-5.03608e-05
-5.63254e-05
 6.71408e-06
-5.57585e-06
 -8.4863e-05
-1.93519e-05
-1.87211e-05
 1.33936e-05
-1.46815e-05
 6.03498e-05
 6.75799e-06
-1.26934e-05
  3.6893e-05
 8.35591e-05
-2.57366e-05
-2.21876e-05
 1.23093e-05
 5.28837e-05
  2.9006e-06
 3.72283e-05
 2.79583e-05
-3.83932e-05
-0.000101252
-0.000136607
-8.81474e-05
 9.90865e-06
 7.46443e-05
-7.18289e-05
 0.000102211
-8.22046e-05
 3.67668e-05
-8.62528e-05
 -4.3824e-05
-0.000127661
 0.000175756
-7.21009e-05
-4.73843e-05
 -1.0295e-05
-8.86053e-06
 -7.6709e-05
 2.08142e-05
 0.000146684
-6.30886e-05
 0.000101047
 0.000100799
-0.000106299
  2.9896e-05
 -5.4956e-05
-0.000117618
 -0.00010667
 0.000218996
-7.33612e-06
-0.000103616
-0.000162106
-0.000197982
-3.61291e-05
 5.05628e-06
 2.65024e-05
-8.17115e-05
 0.000107591
 0.000135923
 0.000118312
 0.000102004
 -5.2797e-05
 4.62811e-05
-4.30473e-05
-8.93771e-05
-9.09217e-05
-4.14083e-05
-4.62604e-05
-0.000109629
-0.000159375
 1.70448e-05
 3.32774e-05
 0.000192697
 0.000221068
 3.89756e-06
 4.32115e-05
 6.68113e-05
 3.88806e-05
 5.26269e-05
 4.37524e-05
-7.64067e-05
 8.54897e-06
 1.64243e-05
  1.7569e-05
 4.15397e-05
-9.97467e-05
 3.44382e-06
 1.68142e-05
 5.38668e-05
 1.50982e-05
 0.000102998
-3.00749e-05
 2.66653e-05
-7.99361e-05
 0.000104265
 9.53919e-05
   0.0001818
 2.53537e-06
 -3.0831e-08
-4.30479e-05
-8.22074e-06
 7.39817e-05
-4.78474e-05
 3.61932e-05
 4.80606e-05
-8.63454e-05
 0.000129984
 0.000159747
-0.000100052
 8.35228e-05
-6.30841e-05
 9.67426e-05
 2.96655e-05
 3.44935e-05
-0.000116987
-6.63954e-05
-9.40373e-05
 0.000166805
 9.86099e-07
-0.000106766
-0.000261212
-0.000275476
-0.000582397
-3.39159e-05
 0.000438635
 -0.00012726
 0.000168366
-0.000673936
 0.000130988
-0.000698932
-0.000307452
-0.000435023
 0.000430229
 -0.00038212
 9.40078e-05
 0.000374811
 0.000379491
-0.000190612
-0.000153757
 0.000535757
-0.000412992
 0.000444103
 0.000331765
 -0.00044578
 9.25917e-05
-5.12179e-05
-0.000177533
-0.000180561
 0.000790152
-0.000257899
-0.000142864
-0.000506539
 -0.00072153
   4.998e-05
-0.000274463
-0.000136146
-0.000239016
 0.000422514
 0.000460428
 0.000155944
  0.00042402
-0.000379051
-0.000109174
 -0.00026843
-0.000716449
-0.000604925
-0.000326511
-0.000117189
-0.000316411
-0.000310093
 3.46901e-06
 8.93234e-05
 0.000687419
 0.000796591
-3.43076e-06
 0.000308125
 0.000266756
 0.000107802
 0.000364313
 0.000456663
-0.000275267
-5.80621e-05
-0.000191445
 -8.1415e-05
-8.89404e-05
-0.000612465
 0.000317299
 0.000252343
-7.00439e-05
 0.000155384
 0.000166872
 0.000124023
 -0.00012556
-1.38451e-06
 0.000486797
 0.000125203
 0.000738935
 0.000287892
-0.000188136
-0.000294802
 4.30114e-05
 0.000734453
-1.89254e-05
   0.0004687
  0.00032648
  1.7043e-05
 0.000492078
  0.00055871
-0.000436193
 0.000682426
-3.95153e-05
 0.000391759
 9.65455e-05
 0.000464669
-0.000175683
-0.000583898
-1.77779e-05
 6.70151e-05
 0.000443054
-0.000420963
 -0.00127322
-0.000436636
  -0.0016572
 0.000373002
 0.000952444
 0.000219366
 0.000650294
 -0.00274772
 0.000727593
 -0.00280628
 -0.00100614
 -0.00159836
  0.00156671
  -0.0013037
 2.62464e-06
  0.00067726
 0.000658725
 -0.00116702
-0.000795847
  0.00185375
 -0.00122282
  0.00172233
 0.000899137
 -0.00170334
 0.000154372
-0.000107491
-0.000161504
-0.000637237
  0.00198046
 -0.00109971
-0.000426258
 -0.00157812
 -0.00171724
 0.000372619
-0.000501704
-0.000713464
-8.41554e-05
 0.000498658
  0.00139626
 0.000611861
  0.00053809
 -0.00129642
-0.000638005
-0.000330181
 -0.00284498
 -0.00203301
 -0.00120221
-0.000399537
 -0.00143306
-0.000930167
 0.000657245
 0.000259842
  0.00155438
  0.00200611
-0.000331781
  0.00102612
 0.000274174
 0.000476666
  0.00113678
  0.00136359
-0.000829561
  0.00045512
-0.000208667
 0.000227851
 3.23957e-05
 -0.00170774
  0.00150929
  0.00023631
  6.1654e-05
 0.000757322
 0.000653731
 0.000721628
-0.000742394
 0.000486861
 0.000948087
 0.000428634
  0.00206063
 0.000475617
 -2.0818e-06
-0.000412477
-0.000329284
  0.00224841
 0.000233859
  0.00132648
  0.00106532
-2.36238e-05
  0.00174226
  0.00103259
 -0.00167736
  0.00279012
-0.000137967
 0.000618158
 0.000651408
   0.0013356
-0.000160714
-0.000810773
 2.14582e-05
 3.82225e-05
 0.000721382
-0.000660476
 -0.00202622
-0.000693545
 -0.00227955
 0.000639904
  0.00128961
  0.00043373
 0.000938903
 -0.00405052
  0.00106463
 -0.00412216
 -0.00132936
 -0.00242705
  0.00240179
 -0.00180578
-6.00443e-06
 0.000923868
 0.000885075
 -0.00189744
 -0.00109586
  0.00276129
 -0.00160544
  0.00261368
  0.00117321
  -0.0025697
 0.000242713
  -0.0001216
-0.000118408
-0.000907509
  0.00274021
 -0.00153622
-0.000611432
 -0.00233307
 -0.00233657
 0.000534491
-0.000546414
-0.000971931
-3.68989e-05
 0.000609612
  0.00193632
 0.000939577
 0.000682409
 -0.00173534
  -0.0008521
-0.000354561
 -0.00416915
 -0.00293159
 -0.00166562
-0.000619425
 -0.00225137
  -0.0012937
  0.00115742
 0.000428228
  0.00207283
  0.00277726
-0.000444275
  0.00136298
 0.000307519
 0.000749657
  0.00149694
  0.00183175
 -0.00112092
  0.00086984
-0.000190236
 0.000511802
 6.46953e-05
 -0.00233405
  0.00226921
 0.000155845
 8.86676e-05
  0.00100486
 0.000943326
  0.00100668
 -0.00103712
 0.000625768
  0.00116463
 0.000629963
  0.00294583
 0.000480633
 0.000184347
-0.000468235
-0.000572859
  0.00324556
 0.000370177
  0.00172102
  0.00140891
-4.07745e-05
    0.002605
  0.00124036
 -0.00254659
  0.00411201
-0.000159845
 0.000700504
 0.000973731
  0.00174413
-0.000119797
 -0.00095158
 7.84551e-05
-3.21078e-05
 0.000801667
-0.000938633
 -0.00247082
-0.000767371
 -0.00270616
   0.0007048
  0.00144292
 0.000539681
  0.00121502
 -0.00479572
  0.00138457
 -0.00486817
 -0.00144796
 -0.00283701
  0.00287128
  -0.0021028
-6.64082e-05
 0.000984332
 0.000935752
 -0.00229787
 -0.00123853
  0.00324675
 -0.00175411
  0.00320403
  0.00124937
 -0.00313708
 0.000172101
-0.000173518
-7.87129e-05
 -0.00117158
  0.00320414
  -0.0018449
-0.000585009
 -0.00277844
 -0.00271471
 0.000686115
-0.000565416
 -0.00108444
 9.91614e-05
  0.00058164
  0.00220961
  0.00115531
 0.000673178
 -0.00204848
-0.000990566
-0.000371055
 -0.00491583
 -0.00350476
 -0.00197102
-0.000837836
 -0.00274166
 -0.00153932
   0.0013477
 0.000401861
  0.00243579
  0.00324304
-0.000502468
  0.00149084
 0.000322971
  0.00104809
  0.00163388
  0.00220601
 -0.00120609
   0.0010106
-0.000239335
 0.000665965
 0.000135407
 -0.00275874
  0.00258925
 0.000191183
 0.000152794
  0.00121052
  0.00121743
   0.0011322
 -0.00117612
 0.000742511
  0.00127144
 0.000616121
  0.00348719
 0.000487121
 0.000198519
-0.000500033
  -0.0006264
  0.00363751
 0.000499074
  0.00206339
   0.0015426
 -2.5555e-05
  0.00314853
  0.00129356
 -0.00311889
  0.00487045
-0.000215589
 0.000725645
  0.00128528
   0.0020924
-8.09421e-05
 -0.00102805
 0.000146262
 0.000138812
 0.000892158
  -0.0012571
 -0.00259226
-0.000701049
 -0.00292002
 0.000762832
  0.00149274
 0.000523892
  0.00148172
 -0.00511726
  0.00165942
 -0.00517573
 -0.00150987
 -0.00315086
  0.00302745
 -0.00251711
-8.14711e-06
 0.000775985
 0.000729204
 -0.00230859
 -0.00127596
  0.00366116
 -0.00191706
  0.00346471
  0.00137511
 -0.00337463
 0.000279995
-5.49209e-05
-6.06964e-05
 -0.00143381
   0.0035038
 -0.00225133
-0.000591922
 -0.00290526
 -0.00301924
 0.000656299
-0.000629265
 -0.00119329
-4.73296e-05
 0.000625952
  0.00257116
  0.00131971
 0.000715482
 -0.00207394
 -0.00109546
-0.000456855
 -0.00521329
 -0.00377575
  -0.0024278
 -0.00127248
 -0.00290095
 -0.00175371
  0.00102159
 0.000518256
  0.00268368
  0.00353706
-0.000506105
  0.00155893
 0.000340055
  0.00138087
   0.0018006
  0.00229096
 -0.00132434
  0.00068746
 -0.00047265
 0.000780272
 7.01391e-05
  -0.0029368
  0.00269311
  0.00045298
 9.92723e-05
  0.00115637
  0.00147358
    0.001231
 -0.00119358
 0.000887338
  0.00146403
  0.00062513
  0.00381697
 0.000554365
-4.47458e-05
-0.000565379
-0.000677954
  0.00328258
 0.000444768
  0.00219567
  0.00162481
 3.46104e-05
  0.00335322
  0.00148293
  -0.0033634
  0.00519881
-0.000118537
  0.00110626
  0.00154896
  0.00224103
-6.22902e-05
 -0.00083112
 0.000115082
-3.82214e-05
 0.000587084
 -0.00100805
 -0.00172819
-0.000377569
  -0.0022847
 0.000486446
 0.000911117
 0.000443775
  0.00115707
 -0.00369988
  0.00139588
 -0.00373698
  -0.0012053
 -0.00214926
   0.0020429
 -0.00200232
-3.06424e-05
 0.000492128
 0.000458243
 -0.00161285
 -0.00100211
  0.00254321
 -0.00152245
  0.00243498
 0.000929684
 -0.00236301
 0.000138616
-6.66767e-05
-5.60656e-05
 -0.00112031
  0.00252972
 -0.00179635
-0.000355116
 -0.00200567
  -0.0021845
 0.000665295
-0.000502596
-0.000937791
 0.000113138
 0.000285617
  0.00181351
 0.000936507
 0.000353884
 -0.00163031
-0.000878115
-0.000209443
 -0.00376009
 -0.00280654
 -0.00194369
 -0.00100897
 -0.00195617
 -0.00125954
 0.000639809
 0.000312694
  0.00193058
  0.00255176
-0.000481056
  0.00124292
 0.000177721
  0.00109895
  0.00143062
  0.00177216
-0.000876798
 0.000405585
-0.000431582
 0.000569582
 7.97823e-05
  -0.0022835
   0.0018981
 0.000390254
 9.61154e-05
 0.000974166
   0.0011464
 0.000958722
-0.000937858
 0.000777779
  0.00101868
 0.000382353
  0.00274668
 0.000442586
-0.000108909
-0.000289505
-0.000424353
  0.00215875
 0.000511986
  0.00177024
  0.00129482
 3.90319e-05
  0.00234257
  0.00103971
 -0.00235787
  0.00376049
-0.000115574
 0.000797437
   0.0013135
  0.00181605
-5.70369e-05
 -0.00042114
 9.40458e-05
-1.63543e-05
 0.000306684
-0.000581826
-0.000995522
-0.000242299
 -0.00128706
 0.000247708
 0.000498358
  0.00022758
 0.000643518
 -0.00210713
 0.000770003
 -0.00212844
  -0.0005934
 -0.00118943
  0.00117096
 -0.00106032
-7.52127e-06
 0.000281118
 0.000261314
-0.000948569
-0.000500715
  0.00141052
-0.000774568
  0.00143868
 0.000450244
 -0.00139483
 3.74431e-05
-2.63985e-05
-2.26524e-05
-0.000622299
  0.00142683
  -0.0009634
-0.000143119
 -0.00118133
 -0.00122056
 0.000385944
-0.000224163
-0.000469863
 7.14895e-05
 0.000139041
 0.000970054
 0.000513834
 0.000177452
-0.000894475
-0.000440844
-0.000113859
 -0.00214171
  -0.0016056
 -0.00103564
-0.000595735
 -0.00112385
 -0.00068333
 0.000381327
 0.000136896
  0.00105895
  0.00144197
-0.000240101
 0.000614585
  0.00012025
 0.000632665
 0.000724232
  0.00103507
-0.000428251
 0.000254123
-0.000214525
 0.000345701
 3.41326e-05
 -0.00130034
  0.00104568
 0.000186371
 4.19267e-05
 0.000516092
 0.000638025
 0.000485563
-0.000468337
 0.000399326
 0.000501277
 0.000161124
  0.00154594
 0.000188655
-3.36523e-05
-0.000158559
-0.000212105
  0.00119601
 0.000302239
  0.00100626
 0.000642825
 4.40308e-05
  0.00138083
 0.000505311
 -0.00139359
  0.00214374
-5.07218e-05
 0.000388912
 0.000727225
  0.00103163
 -2.3422e-05
-0.000222915
 2.83862e-05
 5.05075e-06
 0.000180551
-0.000236369
-0.000443154
 -8.1238e-05
-0.000553502
 0.000156568
 0.000228072
 0.000125699
 0.000272006
-0.000979159
 0.000316334
-0.000988865
-0.000295281
-0.000580704
   0.0005179
-0.000490497
-1.43337e-05
 9.80691e-05
 8.91008e-05
-0.000405132
-0.000257893
 0.000683507
-0.000377682
 0.000635347
 0.000252475
-0.000617013
 5.13285e-05
-7.00537e-06
-1.56752e-06
-0.000262185
 0.000626401
-0.000451614
-0.000104291
-0.000511412
-0.000535175
 0.000138273
-0.000123148
-0.000251514
 1.75059e-05
 7.57572e-05
 0.000483286
 0.000218244
 9.25484e-05
-0.000390454
-0.000234432
-5.95751e-05
-0.000994807
-0.000694398
-0.000479243
-0.000244298
-0.000501431
-0.000298871
 0.000169106
 0.000100306
 0.000468686
 0.000633528
-0.000105619
 0.000305122
 3.56598e-05
 0.000261127
  0.00035646
 0.000430847
-0.000243897
 0.000111712
 -8.7311e-05
 0.000138254
  2.3797e-05
-0.000558298
 0.000513964
 8.60912e-05
 2.85714e-05
  0.00022003
 0.000270098
 0.000258642
-0.000241938
 0.000214469
  0.00026291
 0.000112468
 0.000676638
 0.000109517
-1.51092e-05
-7.58662e-05
-0.000140465
 0.000513008
 9.91285e-05
 0.000434225
 0.000318916
 8.43336e-07
 0.000607459
  0.00026325
-0.000613956
 0.000996532
-2.10093e-05
 0.000196797
 0.000295248
  0.00044385
 -1.8468e-06
-6.21471e-06
 1.63755e-05
 0.000141763
 0.000201884
 3.57622e-06
-0.000240221
-0.000134968
 2.79808e-05
 0.000180258
 0.000183709
-8.09126e-05
 8.29233e-05
-0.000223545
-6.92298e-05
-0.000230266
-5.43053e-05
 -0.00042076
 0.000311119
-2.51797e-05
-0.000108967
  -0.0001222
-0.000120372
-8.39655e-05
-2.95332e-05
 0.000464857
-5.75942e-05
 0.000237244
 0.000354311
-0.000239553
 7.57422e-05
  -4.682e-05
-3.06246e-05
-8.08956e-05
 0.000320429
 3.80449e-07
-0.000247282
-0.000215774
-0.000261069
-0.000300131
-2.46808e-05
-3.76361e-06
-0.000177491
   0.0002484
 0.000414984
 0.000163644
 0.000239885
 1.31429e-06
-3.21717e-05
-0.000165189
-0.000234478
-0.000102724
-7.95454e-06
  2.0753e-05
-0.000257815
-0.000230039
 4.07393e-05
 0.000100028
 0.000273849
 0.000324517
 7.43222e-05
  5.5206e-05
 0.000139621
 6.65405e-06
 4.34825e-05
 -9.8876e-05
-0.000341204
 2.57033e-05
 0.000116814
-3.52721e-05
 9.23573e-05
 9.73462e-06
 0.000126579
 5.71348e-06
 0.000115187
-4.94925e-05
 8.99337e-05
-1.89672e-06
 -1.7728e-05
-6.33201e-05
 0.000280903
 0.000232359
 0.000313953
 5.80773e-05
 2.53859e-05
-0.000145435
-0.000175576
 2.31885e-05
-0.000321366
-0.000112882
  6.2728e-05
-0.000183623
 0.000233791
 0.000294754
-0.000231974
 0.000227156
-7.07004e-05
  0.00018123
-7.81778e-05
-0.000122231
-2.99327e-05
 0.000362415
 4.14188e-05
 0.000556792
 0.000406628
-0.000116164
-0.000430389
-0.000536584
 0.000602463
 0.000319434
 0.000473266
 -0.00052221
 0.000287385
 0.000291985
-0.000285818
  0.00028191
 0.000255772
-0.000816741
 0.000622834
 0.000210027
 -0.00027768
-0.000413459
-0.000396252
 7.78003e-05
 0.000328411
 0.000865046
 0.000308217
 0.000268129
 0.000848021
-0.000286702
 0.000198906
-0.000141991
-0.000157279
-0.000294883
 0.000627197
 0.000308224
 -0.00064694
-0.000347028
 -0.00050518
 -0.00113804
 9.27243e-05
 0.000403809
-0.000702141
 0.000871312
 0.000940186
 0.000536166
 0.000822658
 0.000466712
 0.000292463
-0.000581403
 0.000275571
 0.000249668
 0.000231613
-7.32171e-05
-0.000437107
-0.000667004
-0.000321631
 0.000214564
 0.000577917
 0.000632068
 0.000437282
-0.000261359
 0.000556688
 0.000117967
-0.000338925
-0.000649786
 -0.00080967
 -0.00031704
 0.000149036
-0.000143052
 0.000214577
 0.000507142
-0.000354969
 0.000220312
 0.000292608
-0.000463052
 0.000302192
-0.000433659
 0.000352379
-0.000587068
 0.000680351
 0.000580834
 0.000532374
 3.45998e-05
-0.000191704
-0.000502544
-0.000314962
-0.000440096
 -0.00117126
-0.000810543
-0.000249859
-0.000557193
 0.000290672
 0.000710876
-0.000271237
-0.000296315
-0.000195743
 0.000617163
-0.000298751
-0.000852706
-0.000154656
 0.000541014
-5.03975e-05
 0.000846976
 0.000458758
 -9.6748e-05
-0.000460703
 -0.00082172
 0.000736195
 0.000331805
 0.000794981
-0.000816827
 0.000304393
 0.000479261
-0.000500123
 0.000460464
 0.000346609
  -0.0010685
 0.000767177
 0.000344064
 -0.00030017
-0.000398414
-0.000370776
 0.000243956
 0.000501348
  0.00115016
 0.000384194
 0.000345721
  0.00116754
-0.000370259
 0.000279693
-0.000226734
-0.000275367
-0.000324792
 0.000994013
 0.000514013
-0.000864758
-0.000524647
-0.000811371
 -0.00154899
-2.47759e-05
 0.000647176
  -0.0010654
  0.00139799
  0.00126774
 0.000613526
  0.00132089
 0.000622882
 0.000428466
-0.000952994
 0.000447778
  0.00035552
 0.000392242
-1.16947e-05
-0.000479576
-0.000834013
 -0.00053964
 0.000266398
  0.00094664
 0.000999109
 0.000702931
-0.000357417
 0.000910492
 8.56493e-05
-0.000462276
-0.000820562
 -0.00109683
-0.000539609
 0.000118467
-0.000403357
 0.000215922
 0.000594986
-0.000563364
 0.000423553
 0.000322477
-0.000669225
 0.000323304
-0.000694385
 0.000538451
-0.000906343
  0.00107111
 0.000765924
 0.000826595
 0.000215137
-0.000386677
-0.000854675
-0.000328862
-0.000516658
 -0.00161499
-0.000998121
-0.000339031
-0.000703511
 0.000404871
  0.00111658
-0.000353922
-0.000487163
-0.000275434
 0.000924544
-0.000526293
 -0.00106206
-0.000271238
 0.000682146
 5.26898e-05
 0.000950065
 0.000793223
 -0.00018443
-0.000759228
-0.000961714
  0.00106214
 0.000637936
 0.000833384
-0.000943536
 0.000542349
 0.000566186
-0.000480079
 0.000546336
 0.000403424
 -0.00152206
  0.00114517
 0.000326287
-0.000597359
-0.000827114
-0.000796159
 0.000199303
 0.000575205
  0.00162181
 0.000495527
 0.000434675
  0.00161165
-0.000469782
  0.00035369
-0.000309714
-0.000351907
-0.000553325
  0.00119501
 0.000558105
 -0.00128608
-0.000608007
-0.000990446
 -0.00203188
 0.000107438
 0.000703246
 -0.00126167
  0.00156757
  0.00177545
  0.00100195
  0.00147569
  0.00078839
 0.000562504
 -0.00103754
 0.000533744
   0.0006079
 0.000392109
-9.16446e-05
-0.000778329
 -0.00125854
-0.000629111
 0.000386327
  0.00117871
  0.00119891
 0.000720966
-0.000413796
 0.000980409
  0.00019009
-0.000551045
 -0.00115883
 -0.00153494
-0.000622539
 0.000250901
-0.000338709
 0.000487562
 0.000892422
-0.000624696
 0.000449021
 0.000627152
-0.000777482
 0.000568281
-0.000755763
 0.000615394
 -0.00106149
  0.00132525
   0.0011711
 0.000980636
 0.000141896
  -0.0004014
-0.000904233
-0.000633178
-0.000855564
 -0.00210622
 -0.00137635
-0.000395131
 -0.00108799
 0.000484103
  0.00140633
-0.000439061
-0.000574215
-0.000415972
  0.00117483
    -0.00051
 -0.00145651
-0.000347462
  0.00101743
 5.23781e-05
  0.00130078
  0.00106574
-0.000207466
 -0.00106486
 -0.00138169
  0.00145265
 0.000891165
  0.00109788
 -0.00132062
 0.000700853
 0.000786037
-0.000718035
 0.000765629
 0.000587899
 -0.00199872
  0.00158628
 0.000493593
 -0.00077482
 -0.00106567
 -0.00102597
 0.000184218
 0.000832401
  0.00211946
 0.000714977
 0.000588768
   0.0020934
-0.000635409
 0.000564868
-0.000411643
-0.000510323
-0.000718113
   0.0016342
 0.000826529
 -0.00178953
-0.000864868
 -0.00136203
 -0.00270418
 0.000233424
  0.00099688
 -0.00177396
  0.00212605
  0.00228948
  0.00134412
  0.00200962
  0.00114235
 0.000864015
 -0.00135189
 0.000752353
 0.000824506
 0.000599339
-0.000120066
 -0.00108209
 -0.00165077
-0.000742839
 0.000607794
  0.00158183
  0.00163966
  0.00101405
-0.000601764
  0.00131306
 0.000214059
-0.000783844
 -0.00166453
 -0.00199284
-0.000725151
 0.000454285
-0.000406782
 0.000631005
  0.00125388
-0.000825518
  0.00048607
 0.000808254
 -0.00112756
 0.000735831
 -0.00106049
 0.000883511
  -0.0015144
  0.00173846
  0.00165418
  0.00133655
 9.60819e-05
-0.000407686
 -0.00116548
 -0.00088581
 -0.00113462
 -0.00279552
 -0.00195903
-0.000577377
 -0.00144926
 0.000669087
  0.00187108
-0.000595643
-0.000796793
-0.000538657
   0.0015817
-0.000747656
 -0.00204928
-0.000505198
   0.0011255
 9.83201e-06
  0.00133133
 0.000696251
-0.000144893
-0.000828616
 -0.00145132
   0.0011584
 0.000527504
  0.00112516
 -0.00152928
 0.000545431
 0.000974747
-0.000737797
 0.000949974
 0.000563856
 -0.00172897
  0.00134528
 0.000502953
-0.000545273
-0.000756403
-0.000711606
  0.00037525
 0.000899831
  0.00186437
 0.000611409
 0.000404316
  0.00193939
-0.000448449
 0.000424697
-0.000390056
-0.000597992
-0.000583449
  0.00174127
 0.000888319
 -0.00158237
 -0.00077989
 -0.00151739
 -0.00251972
 7.25669e-05
  0.00101662
 -0.00187405
   0.0022595
  0.00208172
  0.00117801
  0.00214612
 0.000984577
 0.000945359
 -0.00140911
 0.000932127
 0.000709134
 0.000622488
-8.57534e-05
-0.000849683
 -0.00150511
-0.000914611
 0.000398503
  0.00174083
  0.00174321
 0.000980091
-0.000583885
  0.00149775
 0.000127502
-0.000697538
 -0.00145401
 -0.00181741
-0.000890126
 0.000309444
-0.000566743
 0.000410984
 0.000978805
-0.000942765
 0.000621541
 0.000570884
  -0.0010683
 0.000571306
 -0.00109682
 0.000962576
 -0.00160567
  0.00181953
  0.00143367
  0.00139045
 0.000257952
-0.000559789
 -0.00124052
-0.000529663
-0.000996013
 -0.00263224
 -0.00169372
-0.000556454
 -0.00129608
 0.000520884
