 8.45336e-90
 1.89418e-89
-6.53778e-89
-1.73536e-88
-5.42773e-89
-2.85512e-89
-4.91211e-90
-9.91508e-89
 2.81694e-89
-1.74364e-88
-2.05482e-90
 2.08597e-89
 1.42311e-90
 5.44965e-89
-8.06457e-89
-4.40726e-91
 5.02742e-89
 8.32617e-89
 1.65064e-88
-1.81826e-88
 1.11959e-89
-1.50074e-88
-8.67641e-89
 2.21831e-89
-4.29598e-89
 -1.0296e-88
-4.50269e-89
 9.59619e-89
 1.05095e-89
 9.60138e-90
-1.55915e-88
-1.63334e-88
-1.53754e-88
-3.90142e-89
-1.54592e-88
 -2.5753e-89
 1.14713e-88
 2.27737e-89
 5.73742e-89
-3.94148e-89
 3.06875e-89
-1.26977e-88
 1.63723e-88
-1.50186e-88
 1.09797e-88
-9.92197e-89
 3.16511e-89
-2.22256e-89
  1.6632e-88
 1.44182e-89
-2.17737e-89
-4.78092e-90
 4.66222e-89
 7.37403e-89
-1.64895e-88
-1.78634e-88
 1.53059e-88
-2.76435e-89
 9.96056e-89
-1.87287e-89
 1.64236e-88
 1.25969e-88
  2.1535e-91
-1.71815e-88
 -9.5342e-89
 2.79012e-89
-1.52897e-89
-1.62926e-88
-1.31622e-88
-1.40212e-88
-2.00629e-89
 8.13436e-89
-8.49117e-89
-3.86368e-89
 1.13435e-88
-1.57412e-88
 4.44216e-89
-3.72104e-89
 2.64096e-90
 2.84448e-89
 1.59486e-88
 1.63145e-88
-1.58633e-88
 2.38112e-89
 5.45888e-89
 -1.4125e-88
 2.74549e-89
 2.53506e-89
 1.33849e-89
-5.52364e-89
-1.75675e-88
-4.67608e-90
-1.11564e-88
 6.81846e-90
 5.78726e-90
 -2.4628e-89
-1.47577e-88
 1.72776e-88
 -5.2761e-90
-9.69213e-89
-1.49734e-88
 1.56939e-88
   1.667e-88
-5.23672e-89
-6.39946e-89
 9.78389e-89
-2.75007e-89
 1.62705e-88
-1.21668e-88
 1.57418e-88
 8.85301e-90
-1.44479e-88
 1.38267e-88
 3.24981e-89
   6.161e-89
 1.05587e-89
 7.35266e-89
-9.32321e-89
-1.46388e-88
-9.53855e-89
 3.38096e-89
-1.39785e-88
 8.22166e-89
 1.04524e-88
 4.93121e-89
-9.42931e-89
-1.02401e-88
 8.40129e-89
-1.03814e-88
 7.46006e-89
  1.6937e-88
-7.12698e-89
 4.92428e-89
 1.53773e-88
 5.86411e-89
 1.67526e-88
 6.93152e-89
-1.51156e-88
 1.47934e-88
 1.29925e-88
-1.76035e-88
-2.55094e-89
 1.67724e-88
  1.4451e-88
-1.75308e-88
 4.70366e-89
-2.72283e-89
 8.04964e-89
 1.36083e-88
 8.66223e-90
 1.67389e-88
-1.24046e-89
 5.11558e-89
 6.73087e-89
 -9.0178e-89
 -8.1829e-89
 1.55294e-88
-1.03012e-89
-1.80113e-88
-1.30818e-88
-1.17998e-88
 1.71535e-88
-1.98092e-89
 1.13523e-88
 1.43011e-88
-1.43465e-88
 9.87528e-89
 3.00292e-89
-1.12343e-88
 6.43904e-89
-2.23429e-89
  -1.061e-88
-1.43416e-88
-3.69162e-89
-1.43887e-88
-1.36446e-88
-1.72177e-88
 1.11626e-89
 1.26328e-88
 1.46184e-88
-1.62472e-88
 1.11421e-88
-4.85173e-89
 7.09618e-89
-3.56765e-90
 4.35828e-89
 1.71411e-88
-3.05709e-89
-1.49015e-88
 1.73576e-88
 2.08897e-89
-8.47347e-89
 1.62814e-88
-1.81216e-88
-1.53508e-88
 1.23528e-88
-1.42403e-88
 1.27523e-88
-2.87401e-89
-7.24687e-89
  9.6161e-90
 1.31195e-88
 3.70909e-90
 4.84782e-89
-8.80179e-89
 4.20999e-89
 9.43102e-89
-7.79163e-89
-1.29034e-88
 3.83417e-89
-1.14029e-88
-1.09228e-88
-3.25346e-89
 1.97318e-89
 1.44012e-88
 1.46176e-88
-1.18982e-88
 1.33126e-88
-6.66919e-89
-8.57195e-89
 1.24405e-88
 1.36476e-88
 1.18239e-89
 1.04921e-88
 1.37538e-88
 4.05938e-89
  4.6152e-89
 1.77412e-88
-1.41805e-89
-1.64885e-88
-7.73533e-89
 1.77714e-88
 1.48588e-88
 1.08634e-88
 4.38951e-89
-1.21727e-88
-3.15631e-89
-4.40916e-89
-1.73648e-89
 2.16806e-89
 1.76528e-88
 5.08844e-89
 9.47304e-89
-3.83033e-89
-1.11681e-88
  5.6445e-89
-7.44244e-89
-4.83849e-89
 7.27364e-90
 4.11618e-89
 4.81738e-89
-5.06188e-89
-4.65924e-90
-1.22299e-88
-1.27994e-88
-4.94186e-89
 1.00573e-88
 1.00436e-88
-5.43032e-89
-9.59047e-89
 1.17829e-88
 5.06216e-89
-1.00488e-88
 8.41201e-89
-2.30415e-89
 1.25685e-88
 1.44672e-88
 1.27674e-88
-1.00703e-88
  -5.499e-89
-3.29428e-89
-1.06472e-88
 1.78172e-88
-1.20509e-88
 3.75028e-89
-1.15805e-88
 1.18214e-88
 1.45356e-88
  1.8088e-89
-5.68095e-89
 4.22136e-90
-1.16035e-88
 7.48499e-89
  1.8184e-88
-5.60563e-89
 1.29134e-88
-4.98753e-89
-1.37781e-88
 4.72723e-89
 7.80996e-89
-5.14071e-89
-1.71959e-89
-5.35757e-89
 3.03831e-89
-1.15373e-88
 1.05661e-88
-2.62286e-89
-1.52998e-88
 5.10376e-89
 5.53462e-89
-2.57098e-89
-1.64202e-88
 1.31152e-88
-2.98342e-89
-1.02433e-88
-1.36418e-89
 3.66387e-89
-1.66516e-88
-5.05822e-89
 -1.2757e-88
-4.10478e-89
 1.35917e-88
-6.13272e-89
-1.48495e-88
 1.35461e-88
 6.48946e-89
 1.62917e-88
-9.67117e-89
 1.09392e-88
 2.78921e-89
 1.63666e-88
-1.24312e-88
-1.71601e-88
-7.22066e-89
 8.83493e-89
-1.04695e-88
-1.48843e-88
-1.20176e-88
-7.54151e-89
 8.44731e-89
 1.17448e-88
 8.11532e-89
 1.02549e-88
 6.63036e-89
-1.30978e-88
-1.82181e-88
-1.29635e-88
 8.79388e-89
-1.66419e-88
 2.06079e-90
 1.42647e-88
-2.51892e-89
-4.43189e-89
-1.00977e-88
 8.59407e-90
-9.11553e-89
 1.46195e-88
-1.07861e-89
 -5.5888e-90
 7.32906e-89
-1.65191e-88
-2.42197e-89
 1.31257e-88
-1.54514e-88
 8.58519e-89
 3.73093e-89
-7.69307e-89
 1.19287e-88
 9.94112e-89
 2.99323e-89
 2.14636e-89
 3.45625e-89
-7.12114e-89
-5.82843e-89
-8.14309e-89
-1.99112e-89
-5.81873e-89
-2.87879e-89
-1.14269e-88
-4.23287e-89
 1.55551e-88
-1.53919e-88
  1.1476e-88
-7.10648e-89
-7.26188e-89
-5.89426e-89
 2.00581e-89
 -1.0872e-88
 1.12549e-88
-1.67828e-88
 1.46848e-88
 1.29637e-88
-9.76918e-90
 9.58082e-89
 1.57401e-88
-1.06214e-88
-4.91795e-89
-1.01826e-88
-1.69224e-88
-1.32065e-88
 1.10384e-88
  3.4518e-89
 8.47753e-89
-1.43124e-88
 1.58512e-88
-1.78952e-88
 1.92426e-89
-8.19724e-89
-2.54622e-89
 8.72514e-89
  5.7977e-89
-5.22081e-89
  1.1561e-88
-9.55967e-90
 5.90052e-89
-1.39306e-88
 1.13776e-88
-1.03234e-88
 -6.5748e-89
 4.40283e-89
-8.87831e-89
-1.01197e-88
-8.63197e-90
 8.37258e-89
  1.7689e-88
-3.35277e-89
  1.5979e-88
-5.45869e-89
 4.69241e-89
 1.72844e-88
-4.37398e-90
-2.49888e-89
 2.50651e-89
-1.01896e-88
  1.4165e-89
 1.28004e-90
-9.85699e-89
-1.48889e-88
 1.01586e-88
  5.8246e-89
  1.2064e-88
-2.27342e-89
-1.76259e-88
 5.39534e-89
 1.49984e-88
 6.50243e-89
 9.69258e-89
 8.14632e-89
 1.44069e-88
-1.51119e-88
-5.68054e-89
-1.27011e-88
-7.00378e-89
 1.16841e-88
 1.38993e-88
-7.54451e-89
-9.89839e-89
 1.16485e-88
 5.22462e-89
 1.30218e-88
 1.07033e-88
-1.34425e-88
-7.70674e-89
-5.01991e-89
-5.40422e-89
 1.19376e-88
 1.33359e-88
  2.9666e-89
 1.52765e-88
 5.26478e-89
-9.43849e-89
 9.11079e-89
-1.52383e-88
-8.83658e-89
-3.72357e-89
 1.79879e-88
 1.58937e-88
-1.22607e-88
 7.90454e-89
 1.20709e-88
-9.14479e-89
-1.60057e-88
 1.75975e-88
 2.07925e-89
 1.39062e-88
 1.32671e-88
 1.27625e-88
-1.42219e-88
 6.68599e-89
-2.42527e-90
 1.70277e-88
-8.40442e-90
 4.54281e-89
-8.90869e-89
 1.23675e-88
 1.73664e-88
-1.52008e-88
 7.47366e-89
 2.10331e-89
 -1.8154e-88
-5.49125e-89
 1.08926e-88
 9.18456e-89
-2.50177e-89
-1.61736e-88
-1.27687e-88
-2.74355e-89
 1.79478e-88
-6.80157e-89
-1.30687e-88
  1.1789e-88
 2.28145e-89
-1.08466e-88
 1.11568e-88
 -1.3869e-88
-1.51701e-88
 6.19429e-89
 1.71214e-88
-1.11642e-88
-5.34942e-89
-1.35085e-89
-1.23661e-88
 1.20379e-88
-1.50377e-88
  -3.047e-89
 6.17571e-89
 -1.5901e-88
 -1.9994e-91
-4.58032e-89
  4.4301e-89
 5.37765e-91
 8.15624e-89
-2.90697e-89
-8.99136e-89
-1.25752e-88
-8.52801e-90
-3.53225e-89
 2.90905e-89
-1.13466e-89
   7.894e-89
 8.06816e-89
-7.57536e-89
-8.05424e-89
 1.54494e-88
-1.46482e-88
-3.69542e-89
-1.79504e-88
 9.77389e-89
-4.80374e-89
-1.08868e-88
-1.38052e-88
 1.20732e-88
-5.02509e-89
 1.64605e-88
 1.52633e-88
 1.01557e-88
 4.40655e-89
 1.75901e-88
-8.09397e-89
  1.8054e-88
  3.7905e-89
 1.01876e-88
 7.98058e-89
-1.73462e-88
-1.70334e-88
 1.36332e-88
 2.88482e-91
-2.33786e-89
-1.68747e-89
  1.7122e-88
-1.26736e-88
 -1.1849e-88
-8.68306e-89
-2.49999e-89
-1.46293e-88
-5.10346e-89
 1.20324e-88
-1.43519e-88
-1.35593e-88
 -1.1001e-88
-7.01088e-89
-9.13668e-89
-1.71575e-88
 6.19184e-89
-1.09058e-88
 1.63336e-88
-1.88214e-89
 1.17285e-88
  1.5694e-88
  8.2517e-89
 1.15529e-88
  1.2548e-89
 2.09632e-90
 1.30376e-89
 2.13645e-89
 1.40401e-89
-3.29276e-89
-1.60644e-88
  1.7294e-88
 1.32476e-88
-1.71721e-88
-1.36093e-88
-1.68311e-88
-7.62734e-89
 2.11853e-89
-1.32326e-88
 5.49701e-89
-4.07877e-89
-9.35672e-89
 1.01656e-88
   3.148e-89
  1.8602e-89
-1.72008e-88
  4.2183e-89
-1.01777e-88
-9.87883e-89
 2.32221e-89
 6.16802e-89
  -1.638e-88
-2.13478e-90
-3.80997e-89
 1.34007e-88
-1.71884e-88
 1.46275e-88
-3.52525e-89
  3.1759e-89
 -2.1982e-89
 1.14098e-88
 5.33932e-89
-3.13394e-89
  6.4277e-89
 6.39504e-89
 1.48458e-89
  7.8244e-89
 1.69955e-88
-1.46266e-88
 1.28196e-88
 4.26284e-89
-4.77543e-90
-1.47668e-88
-3.80129e-89
-1.55592e-88
 5.32119e-89
-2.77429e-89
 6.88688e-89
 1.33713e-88
 5.57469e-89
 -9.0206e-89
 1.30968e-89
 7.42251e-89
 8.99374e-89
 1.57275e-88
  2.5935e-89
 1.00332e-88
 1.21253e-88
 1.72961e-88
-5.02061e-89
-8.30259e-89
 1.04762e-88
 -1.7911e-88
 6.79128e-89
-1.32581e-89
 6.71187e-89
-9.95383e-89
-1.17311e-88
  5.4777e-89
 -6.3526e-89
-1.71412e-88
-8.48916e-89
 1.13977e-88
-1.36802e-88
 5.93736e-89
 1.40662e-88
 9.86878e-89
-1.50666e-88
 2.72344e-89
 5.01043e-89
 8.73588e-89
 1.19306e-88
-1.19096e-88
-2.07131e-89
 2.69469e-89
-1.44118e-88
-1.77075e-88
-5.50182e-89
 1.59414e-88
 1.78164e-88
 7.70538e-89
-1.05909e-88
 1.00629e-88
 8.02221e-89
 1.44282e-88
-9.49265e-89
-3.49561e-89
-1.37554e-88
-2.99595e-89
-1.62476e-88
-1.88014e-89
-1.90935e-89
-6.50896e-89
-8.71217e-89
 2.63824e-89
 1.76562e-88
-1.28756e-88
-5.72268e-89
-1.56401e-88
 8.07563e-89
 1.75156e-88
 1.13236e-88
 1.77659e-89
-1.26237e-88
-8.97742e-89
-1.37584e-88
-8.80766e-89
-8.45711e-89
-1.03242e-89
 -1.1096e-88
-8.87043e-89
-1.15567e-88
-3.45912e-89
-1.70373e-88
 1.46933e-88
-7.26065e-89
-8.30212e-89
-7.03202e-89
-2.78819e-89
 6.92974e-89
-5.05182e-89
 1.35595e-88
-1.32093e-88
 6.66703e-89
-1.33824e-88
 7.65675e-89
 6.09355e-89
-8.03019e-89
-1.62956e-88
 8.68125e-89
-1.81842e-88
-1.70098e-88
 1.77514e-89
 1.82015e-89
-1.14057e-88
 1.10255e-88
 6.28955e-89
-1.98551e-89
-1.56613e-88
-1.29726e-88
  5.1463e-89
-6.30389e-89
-6.30148e-89
-1.65425e-88
-5.11335e-89
-9.83789e-89
-5.57534e-89
 4.81234e-89
  1.3579e-89
 9.86428e-89
-6.48761e-89
 1.45339e-88
 5.19406e-89
 -1.4691e-89
 2.97124e-89
 1.00395e-88
 -1.2042e-88
 -9.1649e-89
-1.62204e-88
-1.01099e-88
 1.77442e-88
-1.61768e-88
 -8.8918e-89
 1.28961e-89
 3.87114e-89
-2.06965e-89
-5.91454e-89
  -8.069e-89
 1.41726e-88
  -3.348e-89
-2.81374e-89
 1.08925e-89
 8.57592e-89
 9.11258e-89
 2.77456e-89
-1.47671e-88
 1.75025e-88
  1.5427e-88
 8.27303e-89
 6.30718e-90
 7.06161e-89
-1.64443e-88
-3.06508e-89
-5.97402e-89
 3.14441e-90
  1.8134e-88
-1.41642e-88
 6.50021e-89
-9.26062e-89
-1.21568e-88
 1.46182e-88
-9.74615e-89
-1.01058e-88
-1.25033e-88
 9.77127e-89
 1.19932e-88
 3.65483e-89
 -1.4373e-88
-1.43055e-88
-4.02219e-90
 5.06842e-90
 1.10854e-89
-1.75427e-88
-9.14693e-89
-8.00857e-89
 3.45971e-89
-5.68624e-89
-8.73576e-89
 6.57044e-90
-1.56429e-88
 1.01228e-88
 -1.0511e-88
-1.38594e-88
 -1.1172e-88
 1.74276e-89
 4.68289e-89
-1.12677e-88
 5.80635e-89
-7.04659e-89
-2.30053e-89
 1.18774e-88
-1.06581e-88
 6.18113e-89
-1.64581e-88
-4.93365e-89
 -2.2773e-89
 1.37628e-88
  1.6949e-88
 1.57755e-89
 1.76851e-88
-1.68292e-89
-1.61453e-88
  5.6397e-90
-9.97767e-90
-7.06442e-89
 1.07832e-88
-1.57677e-88
 5.47715e-89
-1.61822e-88
 3.11711e-89
 8.06206e-89
 1.21683e-88
 1.08339e-88
 1.24305e-88
-1.72334e-88
-5.65306e-89
-1.11629e-89
-1.02733e-88
-1.80764e-88
 1.00649e-88
 5.65402e-89
 1.20288e-88
 1.76346e-88
-6.39454e-89
 1.37985e-88
-5.52873e-89
 9.55597e-89
 9.33163e-89
-6.80943e-89
-7.09617e-89
 8.78707e-89
 9.73546e-89
-5.01366e-89
-8.87865e-89
  -9.492e-89
 6.14973e-89
-1.63251e-88
-7.03193e-89
-6.60281e-89
-1.42796e-88
  1.4313e-88
-1.67704e-88
 1.61166e-88
 6.91717e-89
 1.38879e-88
  1.7111e-88
-1.69656e-88
-5.45811e-89
-1.13919e-88
-1.68142e-88
-1.36229e-88
 1.24899e-88
 1.34424e-88
 -1.4218e-88
-1.21343e-88
 9.01122e-89
-1.51887e-89
 1.56495e-88
 1.13165e-90
 9.89951e-89
-9.67639e-89
-9.32946e-89
 1.40528e-89
 3.53776e-89
 1.97005e-91
 1.01411e-88
 -8.5422e-89
 1.92238e-89
-1.51205e-88
 3.08279e-89
 5.87062e-89
 1.74203e-88
 4.54016e-89
 3.75751e-89
 6.10774e-89
 1.98347e-90
 2.63886e-89
 7.36997e-89
  1.2968e-88
 9.47476e-89
 8.78362e-89
  1.7573e-88
 3.73499e-89
 3.99637e-89
-1.48747e-88
 9.82849e-89
 -5.2221e-89
 1.83427e-89
 7.24827e-89
 1.31189e-88
-6.49591e-89
 1.57997e-88
-1.44403e-88
 1.31372e-88
 1.10776e-89
 3.80724e-89
 5.04857e-89
 1.07934e-88
-1.25001e-88
 8.15585e-89
-4.35353e-89
 1.15983e-88
 7.34642e-89
-1.80431e-88
-2.87384e-89
-4.77554e-89
 3.83095e-90
 1.79928e-88
-1.56353e-88
-4.87855e-89
 9.23789e-89
 1.13762e-88
-5.53526e-89
-5.25681e-89
-2.85715e-89
-2.18211e-89
 -1.3658e-88
 1.01486e-88
   1.788e-88
 1.18181e-88
 5.03774e-89
-6.84563e-89
 9.38806e-89
 8.82527e-89
-1.19381e-88
-7.73387e-89
-5.59718e-89
 1.13382e-88
-1.51702e-88
 1.30544e-90
 1.26439e-89
-1.29592e-89
 -6.5008e-89
-9.61888e-89
-1.11117e-89
 8.85317e-89
 3.83339e-89
 1.74997e-88
 8.61631e-89
 6.42594e-89
-5.60851e-89
-3.75491e-90
 -4.2758e-90
 7.08405e-89
 1.25955e-88
 1.49431e-88
-1.33278e-88
 1.71653e-88
 6.86194e-89
-1.36775e-88
 1.07537e-88
-6.33001e-89
 -2.2953e-89
 1.91204e-89
-1.57344e-88
 3.99436e-89
  1.2406e-88
-3.10381e-89
-2.89709e-89
 1.54636e-88
 1.52545e-88
 1.65951e-88
-4.06203e-89
-9.47595e-89
-1.12535e-88
 1.30546e-88
  1.7605e-88
 1.08077e-88
 1.23246e-88
 7.99165e-89
-9.96021e-90
-1.15136e-88
-1.06135e-88
 1.68042e-88
 1.37983e-88
-1.62477e-88
 1.35176e-88
-1.77591e-88
-1.73121e-88
 2.14985e-89
-1.32088e-88
 1.16694e-88
 1.40476e-88
 2.72371e-89
-4.64828e-89
  1.6541e-88
-1.15116e-88
 -1.0472e-88
-4.79248e-89
  3.8191e-89
-1.32381e-88
-7.76762e-89
 2.18452e-89
 9.27679e-90
 9.84246e-90
 9.15886e-89
 -4.2474e-89
 3.59591e-90
  1.7369e-89
-1.01524e-88
-9.87845e-89
-1.74888e-88
-3.43819e-89
-2.26417e-89
 1.75432e-88
-7.86958e-89
-2.84069e-90
 1.28311e-88
-7.40091e-89
 6.31636e-90
-3.24873e-89
 -2.3819e-89
-5.92868e-89
-7.43078e-89
-1.78879e-88
 7.65085e-89
-9.11945e-89
-1.11717e-88
 1.54067e-88
 4.31588e-89
 1.08752e-88
-1.60611e-88
 1.47761e-88
-5.16996e-89
 3.09435e-89
-2.46937e-89
-1.42408e-88
 1.70748e-88
  1.6118e-88
 5.72392e-89
-1.13074e-88
-1.19901e-88
 6.46292e-89
 3.48224e-89
 3.97354e-89
 5.77644e-89
 1.38405e-88
-1.45402e-88
 3.77862e-90
-1.17901e-88
 4.31922e-89
 1.53569e-88
 4.05579e-89
 1.66183e-88
-1.03035e-88
 4.39571e-89
  6.0395e-89
-1.19517e-89
 1.14518e-88
 3.21647e-89
 -1.5109e-88
 4.09735e-89
 5.38315e-89
 1.78949e-88
 1.71552e-88
-9.75219e-89
-2.80416e-89
-1.53153e-88
-1.09071e-88
-4.91582e-89
 8.63644e-89
-3.98669e-89
 1.32188e-89
-3.13033e-89
 1.77234e-88
-1.29343e-88
-1.55836e-88
 1.33342e-88
-9.24669e-89
 3.02209e-89
-1.66857e-88
 1.33003e-88
 1.49339e-90
 5.59794e-89
  1.1689e-88
 8.07362e-89
-8.23603e-89
-5.01189e-90
-1.13512e-88
-1.50139e-88
-1.55144e-88
-8.23242e-89
 7.31126e-89
 8.09655e-89
 -8.5672e-89
 6.23677e-89
 1.65722e-88
 6.85645e-89
 9.14929e-89
-1.25646e-88
-1.62891e-88
-4.43965e-90
 1.67648e-89
 3.26063e-89
 1.46535e-88
 1.17016e-89
 8.55416e-89
 1.72977e-88
-3.72538e-89
 1.75353e-88
 2.09014e-89
-2.18323e-89
 1.26059e-88
-1.59902e-88
 -1.4815e-88
 6.06524e-89
 1.03112e-88
 -4.8232e-89
-1.26656e-88
 1.71878e-88
-1.60929e-89
-9.95224e-89
-9.27432e-89
-1.25277e-88
 1.63721e-88
 3.86285e-90
 1.19369e-88
 1.47146e-88
 -1.0987e-88
 2.85645e-89
-1.60797e-88
-9.04821e-89
-1.58172e-88
 3.82456e-89
 1.24402e-88
 1.70641e-88
 -1.3235e-88
  2.7647e-89
 1.61322e-88
 1.26745e-89
  2.0703e-89
 -7.3778e-92
  1.7312e-88
-3.55346e-89
 2.23022e-89
-1.57326e-88
-1.57179e-88
-5.68825e-89
-2.32803e-89
-1.01557e-88
-6.73016e-89
 1.42905e-88
-1.88017e-89
 2.22333e-89
-1.64669e-88
-3.73774e-89
-1.56201e-88
 1.36977e-88
-7.25283e-89
-8.37922e-89
 -1.6755e-89
-5.10475e-89
 8.00378e-90
   7.351e-90
 1.69476e-88
-4.98908e-89
-4.30472e-90
 -1.4517e-88
 1.60034e-88
-2.52799e-89
 4.97821e-89
-1.55965e-90
 1.56924e-88
 4.06055e-89
 1.45184e-88
-3.07029e-90
 6.55572e-89
 1.70283e-88
 1.22325e-88
 -1.4002e-88
-1.13572e-88
-1.27273e-88
-1.79412e-88
 4.99049e-89
 7.72382e-89
-1.61803e-88
-1.69769e-88
 1.03315e-88
 1.57452e-88
-6.00197e-89
-1.62774e-88
-4.15998e-89
 7.12109e-89
 2.75082e-89
 1.48029e-88
 5.83902e-89
 1.59896e-88
-3.85723e-89
 9.54978e-89
 1.37633e-88
 1.18426e-88
 -3.7017e-89
-4.62237e-89
 9.30534e-89
-1.78708e-88
-8.33367e-89
-9.23139e-89
 6.91269e-89
-9.53509e-89
-1.52285e-88
 1.11385e-88
-2.66443e-89
-9.72806e-89
 1.14251e-88
-1.59036e-88
 1.62236e-88
 1.34726e-88
-1.46528e-88
 8.32543e-89
 1.09881e-88
-2.42692e-89
 1.02759e-88
-1.14016e-88
-1.35355e-88
  -5.203e-89
-1.48283e-88
 1.05313e-88
-7.44314e-89
-4.57739e-90
 1.85139e-89
-1.19095e-88
-6.84484e-89
 1.63775e-88
  1.6959e-89
-1.57692e-88
 1.67345e-88
   1.159e-88
-6.77277e-89
 5.41747e-89
-1.61747e-88
-3.77351e-89
-1.67372e-89
-6.11357e-90
 4.72625e-89
-8.47832e-89
 1.71282e-89
 2.72012e-89
-1.32354e-88
 5.28786e-89
-7.18414e-89
 1.59805e-88
-1.53688e-88
 -1.5138e-88
-1.36508e-88
-1.06765e-88
-2.11315e-89
-1.02513e-88
 1.80826e-88
 8.67152e-89
 7.51878e-89
 1.70435e-89
 1.49898e-88
-1.75558e-88
 -1.4784e-90
  -1.544e-89
-1.50971e-88
-1.64306e-89
-8.18365e-89
 -3.6421e-89
-1.44553e-88
-6.13058e-89
 1.08122e-88
 2.09881e-89
 1.14859e-88
-2.69125e-89
 1.18483e-88
-5.03099e-89
-1.82008e-88
 1.68407e-88
-1.79728e-88
-7.15714e-89
 1.45915e-88
-1.51138e-88
-4.06729e-89
 -1.7289e-88
-7.56243e-89
 1.20474e-88
-9.31248e-89
-7.70948e-89
 2.48921e-89
 1.64341e-88
 1.22227e-88
-7.50691e-90
 1.71062e-88
-6.15485e-89
 1.59331e-88
-1.62207e-88
 1.04299e-88
-1.04802e-88
-1.63495e-89
 1.42024e-88
 1.61702e-89
-9.05244e-89
-1.92844e-89
-5.12679e-89
 6.48413e-89
-8.30983e-89
 8.07003e-89
 6.51112e-89
-9.69885e-89
 8.32501e-89
 1.75818e-88
-1.33371e-88
 1.14391e-88
-4.71519e-89
-1.23983e-88
-1.43531e-88
-1.08975e-88
-3.48294e-89
-3.83474e-89
 9.81952e-89
-5.27852e-89
-9.84175e-89
-9.16087e-89
-6.40204e-89
 2.23121e-89
-1.14574e-88
-4.39489e-89
-5.56858e-89
-3.70984e-89
  1.2198e-88
-9.59583e-89
  1.6135e-88
-1.50842e-88
 6.70354e-89
-7.22149e-89
 9.62778e-89
 1.66215e-88
-1.73812e-88
-2.09079e-89
 -1.1307e-88
 9.17166e-89
-2.73869e-89
-6.41629e-89
 2.38102e-89
 1.07739e-88
-5.86753e-90
 6.25576e-89
 1.81042e-88
 1.41581e-88
-1.58087e-88
 9.69407e-89
 -9.3501e-89
 -7.4226e-89
-1.76965e-88
 2.47567e-89
 1.30364e-88
-1.09261e-88
 1.63086e-88
-1.07618e-88
 3.59186e-89
 1.02769e-88
-2.12987e-89
 1.49716e-89
 1.34205e-88
 -1.3656e-88
 1.25035e-88
 4.81862e-89
-1.52642e-88
 1.33501e-88
-1.55019e-88
-8.34342e-89
  4.2921e-89
-1.27334e-91
  3.4681e-89
-1.15566e-88
-7.46849e-89
-1.53483e-88
  1.2927e-88
-7.59393e-89
 1.70376e-88
 1.53462e-88
-1.61296e-88
-1.05422e-88
-1.03061e-88
-1.55982e-88
 1.01613e-88
-1.54994e-88
-8.29654e-89
 8.24018e-89
-8.03344e-89
 1.35231e-88
 2.87363e-90
  8.0645e-89
 -3.2094e-89
 -4.5218e-89
 1.26363e-88
-8.93562e-89
-1.79329e-88
 1.55999e-88
-1.38152e-88
-1.52069e-88
-1.09732e-88
 8.70474e-89
 3.00816e-89
 1.07227e-88
  1.5376e-88
 1.37675e-88
 1.36022e-88
 1.00733e-88
-1.20561e-88
   1.241e-88
 7.18977e-89
-9.95788e-89
-1.63619e-88
 1.51114e-88
-7.32831e-89
 1.20272e-88
 1.78398e-88
 2.60296e-89
 2.03771e-89
-8.42329e-89
 -2.1036e-89
-1.59046e-88
  1.7869e-88
 1.29148e-88
 -2.1986e-89
 1.22756e-88
-1.42505e-88
-1.90365e-89
 9.64584e-89
-9.83787e-89
 1.11724e-89
 1.69004e-88
 1.70947e-88
-1.41043e-88
 9.39344e-89
  1.4241e-88
  1.7891e-88
 4.76591e-89
 6.08459e-89
-1.23948e-88
-1.05373e-89
-4.95533e-89
-4.12489e-89
 8.12226e-90
-8.07358e-89
 6.77461e-89
-5.39024e-89
-8.46343e-89
-8.85212e-89
 1.48753e-88
  1.3411e-89
 7.27208e-89
 1.71985e-88
 9.80432e-90
  1.9572e-89
-3.22981e-89
-4.97363e-89
  5.9345e-89
 1.30943e-88
-1.35575e-88
 1.43244e-88
 -4.0181e-89
-1.48867e-88
 1.31894e-88
 1.05424e-90
 1.27345e-88
 9.20072e-89
-2.33256e-90
-7.29276e-90
-2.94438e-89
 5.59974e-89
 1.64448e-88
 1.03281e-88
-1.67548e-88
-9.72662e-90
-1.59752e-88
 8.24757e-89
 1.18649e-88
-6.21079e-89
 1.76233e-88
 8.51051e-89
 1.33581e-88
 6.66565e-89
  7.4793e-89
-3.89114e-89
-9.60685e-89
-1.39802e-88
 9.36303e-89
 1.45555e-88
  1.7342e-88
 1.40334e-88
 1.06502e-88
-4.90583e-89
 1.73744e-88
 5.60997e-89
 1.34274e-88
 1.18792e-88
  -3.419e-89
-5.03554e-89
-7.07973e-89
 1.18644e-88
-1.76655e-88
-8.86462e-89
 3.96284e-89
-1.61925e-88
 8.39053e-89
 6.21548e-89
 1.02828e-88
 2.02575e-89
 -1.8225e-88
 9.67641e-89
-7.69344e-89
 1.33609e-88
-1.88763e-89
 1.80137e-88
-8.75991e-89
 6.73333e-89
-1.41962e-88
-1.76266e-88
  3.0591e-89
-1.50839e-88
 1.46346e-88
-4.52037e-89
-1.76196e-89
 1.37793e-88
-1.71401e-88
-6.56425e-89
 7.42887e-89
-2.33128e-89
 6.62802e-89
-1.78806e-88
-8.69655e-89
 7.19033e-89
-8.51737e-89
 1.34941e-88
 9.22561e-89
  1.8101e-88
 1.47989e-89
 1.27876e-89
 1.89702e-89
  1.4827e-89
-7.27452e-89
 1.24314e-88
-3.38607e-89
 9.06565e-89
 1.22154e-88
 6.08183e-89
-2.43071e-89
  1.6247e-88
 6.68307e-89
-1.76013e-88
-1.70667e-88
 3.08798e-89
-3.89386e-89
  -6.008e-90
-1.36239e-89
-2.80614e-89
 1.10628e-88
-1.21632e-88
 1.30904e-88
-5.38903e-90
 -1.1816e-88
-1.38358e-88
-1.15783e-88
-2.10553e-89
 1.78861e-88
 1.58752e-88
-2.23425e-89
 1.13627e-89
-1.07577e-89
 1.78906e-88
-1.56107e-88
 9.87752e-89
 1.20923e-88
-7.68984e-90
 7.13478e-90
 6.07797e-89
-1.29168e-88
 1.65106e-88
 4.09526e-89
  1.1994e-88
 1.71371e-88
 5.25642e-89
-3.14768e-89
-4.98646e-89
-1.35741e-88
 1.37177e-88
 1.04352e-88
 1.57165e-88
-1.66752e-88
 5.29591e-89
-3.05209e-89
-1.02633e-88
 9.68787e-89
 3.59746e-89
 5.85896e-89
 9.34425e-89
 1.24293e-89
 -1.4605e-88
-7.74918e-89
-1.80625e-88
-1.49441e-88
-5.13209e-89
 1.00428e-88
  1.5376e-88
 1.23267e-88
-7.47342e-89
 3.22427e-89
 1.76377e-88
-9.19254e-89
-1.09102e-88
  1.1402e-88
-1.02851e-88
 1.25741e-88
-9.97533e-89
 2.95622e-89
 1.72278e-88
-1.44873e-88
-4.83826e-89
 1.47146e-88
-1.29346e-88
 -1.7772e-88
-6.56716e-89
-4.97016e-89
 1.01436e-88
 1.52581e-88
-1.73409e-88
  1.2582e-89
-1.72865e-89
-1.37181e-88
 1.17368e-88
-1.56338e-89
-1.04344e-88
-1.16249e-88
-9.75028e-89
-1.32881e-88
-1.75279e-88
 1.00411e-89
 8.16403e-89
-1.81199e-88
 1.00394e-88
 1.54817e-88
   1.151e-88
 1.79821e-88
 9.82607e-89
-1.66951e-88
 2.70858e-89
 8.82419e-89
-1.29545e-88
 1.60981e-88
 5.30912e-89
-7.66137e-89
 1.65539e-88
 1.69698e-88
 5.59628e-89
 8.46786e-89
 1.39982e-88
 6.48319e-89
-8.50362e-89
-5.96015e-89
 1.09929e-88
-1.49965e-88
 1.07043e-88
-1.76711e-88
-8.39361e-89
-1.72757e-88
-1.27314e-88
 -7.6937e-89
 1.95623e-89
 1.36605e-88
-7.58578e-89
-6.23408e-89
 1.09125e-88
-1.43055e-88
-6.48171e-89
 2.50886e-89
-1.27728e-88
 1.44547e-88
-6.89665e-89
-7.49948e-89
 1.23231e-88
 1.66403e-88
 3.06695e-89
 1.06473e-88
 1.53804e-88
-9.56646e-89
  8.8551e-90
 1.11489e-88
 1.51445e-88
 1.06097e-88
 -1.3041e-88
 7.90779e-89
  1.3841e-88
 1.58911e-88
 8.46449e-89
-1.27823e-88
 1.68432e-88
 1.39609e-88
-2.24815e-89
 5.69767e-90
 9.39174e-89
 8.39388e-89
 1.25635e-88
 2.07453e-89
 1.23162e-88
-1.21479e-88
-1.36463e-88
 1.77712e-88
-1.59229e-88
-2.31514e-89
-7.95794e-89
  1.4628e-88
-3.90455e-89
 1.33368e-88
 7.04566e-89
-6.75388e-89
-1.44593e-88
-1.02985e-88
-1.38347e-88
-1.75445e-88
-1.79185e-88
-8.64789e-89
 8.59113e-89
 1.41503e-88
-1.09865e-88
-1.17407e-89
-1.68616e-88
-1.23729e-88
-5.44281e-89
-8.81974e-90
 6.42464e-89
-1.42808e-88
-1.07178e-88
 7.58445e-90
 6.02158e-89
-1.66313e-88
 6.83835e-89
 1.06031e-88
-1.70897e-88
 9.14324e-89
-9.94174e-89
-6.81986e-89
 5.54156e-89
 4.38152e-89
-1.17127e-88
-5.64248e-89
 1.58554e-88
-7.94424e-89
 2.28681e-89
 -1.6209e-88
-7.26089e-89
  2.5961e-89
-6.62905e-89
-1.68994e-88
-1.48327e-89
 6.12287e-90
 1.54294e-90
 -1.1709e-90
 6.46716e-89
 1.29393e-88
 1.72287e-88
 -5.3379e-89
 1.68863e-88
-1.17187e-88
 1.36484e-88
 4.67823e-89
-1.01222e-88
 2.25702e-89
-2.94837e-89
-8.98413e-89
-6.82944e-89
  5.3377e-89
 2.42381e-89
 1.69399e-88
-8.51047e-89
  8.9389e-89
-6.93224e-89
-1.08847e-88
 -1.7235e-88
 1.35824e-88
-8.86588e-89
-6.26811e-89
-2.05121e-89
 2.73289e-89
-4.93975e-89
 1.46933e-88
-1.48845e-88
 1.34424e-88
-3.65345e-89
 9.81045e-89
 8.15196e-89
 -4.6544e-89
-1.37571e-88
  6.8086e-89
 1.85468e-89
  1.8119e-88
-6.74286e-89
 9.96029e-89
 2.14636e-89
 8.53659e-89
-1.72535e-88
 1.35447e-88
 -4.3554e-89
 3.39809e-89
  1.2255e-88
 5.36193e-89
-5.89271e-89
 -1.2907e-88
  1.2705e-88
-4.89992e-89
-1.75543e-88
-1.43905e-88
 7.05978e-89
-1.37768e-89
 6.57016e-89
-1.61097e-88
-4.91404e-89
 9.91345e-89
 1.55605e-88
 9.66032e-89
 1.49421e-89
 5.48276e-89
-1.32238e-88
 5.96489e-89
-5.93832e-89
 6.85873e-89
 5.85423e-89
 5.54663e-89
-1.41068e-89
-1.02291e-88
-4.14647e-89
-4.36401e-90
-1.49141e-88
 9.72593e-89
 -1.5268e-88
 1.55687e-88
-3.14182e-89
 -2.9329e-89
 -1.5568e-88
-8.66649e-89
  1.0395e-88
-1.48944e-88
-4.82922e-89
-7.74931e-90
 1.95572e-89
-1.64888e-88
 1.34321e-89
 1.52695e-88
 1.16525e-88
-1.32598e-89
 6.70011e-89
-5.08298e-89
-1.40729e-88
 1.17042e-88
-1.73478e-88
-1.78342e-89
 3.33188e-90
 6.73425e-89
-1.44665e-88
 1.71503e-88
  1.4733e-88
-3.85147e-90
-1.51577e-89
 1.80467e-88
-8.88891e-89
 1.44403e-89
 1.53857e-88
 6.19708e-89
 1.67389e-88
 1.80456e-88
 1.57584e-88
 8.90424e-89
-1.50785e-88
-7.30051e-89
-1.01004e-88
 5.10499e-89
-5.56146e-89
 9.47064e-89
 2.14478e-89
-1.21387e-88
 -1.0085e-88
 -9.3848e-89
 1.00618e-89
-5.93013e-89
-1.59103e-88
  1.8862e-89
 1.05143e-88
 2.65067e-89
-9.60924e-89
 1.42756e-88
  1.5713e-89
 -1.3106e-88
-4.33925e-89
-1.81742e-88
 -1.3289e-88
 4.99965e-89
 1.49768e-89
 -1.6133e-88
-7.03296e-89
 6.92998e-92
-1.63171e-88
-9.50425e-89
-9.31852e-89
-1.31678e-88
 1.42305e-89
 -1.1911e-89
  1.0165e-88
 1.40894e-88
-9.95015e-89
-5.91993e-89
 -1.6279e-88
-1.80737e-89
 2.92308e-89
 2.95504e-89
 1.04903e-88
 5.24056e-89
-1.33884e-88
 2.77488e-89
-1.03385e-88
-4.76987e-89
-1.17922e-89
 9.46064e-89
 3.51961e-90
 1.27093e-88
 9.51429e-89
  5.2908e-89
  -5.207e-90
-7.21773e-89
 7.38565e-89
 1.06742e-88
  1.1017e-88
 9.29637e-89
-1.70598e-88
-1.65312e-88
 1.43564e-88
 2.59107e-89
 5.05512e-90
 6.29165e-89
-1.54923e-89
 8.78317e-89
 -1.7858e-88
 3.99635e-90
-1.12539e-88
 3.29292e-89
 -1.4875e-88
 1.74642e-88
-9.69621e-89
-1.00357e-88
 2.00943e-89
-1.80686e-89
 3.42228e-89
-1.73995e-88
-1.05759e-88
-1.44555e-88
 1.35377e-88
 1.71662e-88
 9.06316e-89
-5.21273e-89
-8.28123e-89
-1.78089e-89
-1.27683e-88
-1.54939e-88
-1.07142e-88
-1.16002e-88
-1.37973e-88
-1.45875e-88
 9.21863e-89
 4.93602e-89
 9.93192e-89
-1.05603e-88
 -4.5105e-89
 1.03018e-88
 8.06716e-89
 2.46343e-89
-4.63502e-89
   1.142e-88
 1.69797e-89
 3.89658e-89
-1.68454e-88
-1.45223e-88
  -1.614e-88
  4.8047e-89
 -1.3694e-88
-8.48808e-89
 8.57706e-89
 1.80715e-88
-9.55158e-89
-5.89477e-90
-5.37092e-89
 3.94999e-90
 1.58574e-88
 8.86156e-91
  3.1289e-89
-1.30865e-88
 6.71618e-89
 7.55941e-89
-9.44619e-89
-2.29488e-89
-5.73426e-89
 -1.7744e-88
 5.37265e-89
 7.98306e-89
 1.07856e-88
-4.78988e-89
-7.78321e-89
-1.20791e-88
-1.15996e-88
 1.21426e-88
 1.00453e-88
-1.02172e-88
 1.58481e-88
 1.21331e-88
 1.28153e-88
-1.60756e-88
-1.45847e-88
 3.16267e-89
-1.62338e-88
-5.90843e-89
-1.56565e-88
-3.37689e-89
 1.27144e-88
-1.80287e-88
 1.49395e-88
-2.38642e-89
-1.28874e-88
 3.42603e-89
-1.30567e-88
-4.10577e-89
-1.70985e-88
-5.63145e-90
-3.62193e-89
 6.50192e-89
-1.08098e-88
 -1.1066e-88
-1.65177e-88
-3.65181e-90
-4.91733e-89
-9.88946e-89
 -6.4523e-89
-1.31018e-88
-1.87886e-89
-8.83391e-89
 1.72592e-88
-7.29324e-89
-6.68168e-89
-1.55552e-88
 1.40972e-88
-4.68764e-89
-3.23582e-89
 1.66686e-88
 1.01633e-88
-8.75113e-89
 1.68676e-88
 6.87314e-89
 7.09026e-89
-1.42495e-88
-7.93053e-89
 1.22614e-88
 -1.2742e-90
-6.80126e-89
-6.53146e-89
 1.44785e-88
 1.79285e-88
 8.86569e-90
-1.48172e-88
-1.68189e-88
-1.77083e-88
-1.50677e-89
-8.48053e-89
 -5.9328e-89
 3.61929e-89
 7.86842e-89
 3.46111e-89
 2.64876e-89
-1.76545e-88
 1.50072e-88
 5.32138e-89
 1.46705e-88
-7.91009e-89
-1.61441e-88
 1.31094e-88
-1.59765e-88
-6.66745e-89
 1.17473e-88
 9.12446e-89
-1.78069e-88
 1.73826e-55
-1.70358e-88
 3.16162e-77
 2.33602e-08
-5.60921e-89
-4.62189e-07
-4.95687e-20
-2.18361e-88
 7.03553e-89
-2.97209e-89
 -4.5015e-89
 7.55504e-89
-2.14549e-73
 4.46506e-63
 4.75847e-42
-2.47605e-07
 -5.1155e-89
-6.61953e-10
-1.64424e-88
 -4.5422e-89
 1.85902e-89
 7.10681e-89
-9.10206e-21
-1.23981e-43
  9.1905e-89
-1.32216e-88
-2.77589e-07
-2.65227e-88
 1.67535e-88
 5.32282e-89
 4.56451e-11
-1.82466e-77
 6.18125e-89
-3.85308e-07
-6.61158e-89
 7.86375e-77
 -4.3746e-82
-6.19231e-07
  -5.423e-89
 1.05792e-88
-1.59682e-88
 8.71964e-89
-9.54529e-91
 3.67191e-10
-4.26427e-89
 1.52491e-89
-1.75739e-26
-5.79223e-07
-1.16233e-88
-1.29714e-89
-1.39238e-88
 8.46351e-89
-6.92552e-25
-4.31319e-89
 8.14907e-08
 1.49983e-88
 1.20881e-89
-1.39108e-89
 6.28609e-44
-1.28613e-07
-3.49019e-87
-9.35265e-76
-4.24753e-89
 1.04447e-88
 1.78563e-88
  7.3687e-89
 1.13485e-88
-1.50576e-88
-5.62741e-89
-1.18879e-88
 1.37494e-88
 3.16157e-06
 1.50596e-88
-4.57571e-89
 3.37859e-07
-7.43437e-89
  1.5177e-88
 3.39258e-06
 -1.6816e-88
 1.10529e-50
-9.97051e-89
-1.25121e-88
 1.20153e-88
-4.16271e-89
 1.91837e-89
-2.34877e-07
-7.39411e-89
-1.51025e-88
 1.30329e-88
 4.67986e-06
 2.85793e-89
 1.69375e-88
 3.10426e-09
 1.68382e-88
  2.5363e-06
-2.21743e-08
 5.97723e-89
 2.29659e-89
  7.0488e-44
-3.13347e-25
 8.63653e-89
-7.55595e-89
 4.62961e-10
-3.95404e-07
 6.15058e-89
-1.56531e-77
 1.62599e-88
 3.04346e-89
-1.54794e-21
-5.13274e-25
 6.60667e-89
-9.53816e-88
-1.30701e-88
 1.63762e-07
-1.11654e-25
-4.75534e-82
 1.48049e-88
-2.35575e-89
 1.02014e-88
 9.60811e-89
-5.57623e-77
-5.17039e-89
 8.34118e-89
-1.63345e-88
-6.56186e-89
-7.10727e-90
-4.35259e-89
-1.76828e-35
-1.66438e-88
 1.07995e-88
 1.79911e-88
 1.02205e-88
-1.49861e-88
-3.25845e-89
-2.54275e-89
 9.33784e-89
-1.18691e-88
-4.51257e-89
-7.06242e-11
 7.30434e-89
  3.3497e-69
-1.74828e-88
 1.61405e-06
 8.70955e-91
  1.1259e-89
 5.16576e-06
-1.10665e-88
 -2.2989e-89
-1.72695e-88
 2.58342e-33
-2.13382e-06
 8.72604e-89
-1.92947e-07
 1.56485e-88
 1.05319e-88
 5.62853e-89
-1.35907e-07
-1.90289e-25
 5.03692e-89
-1.71016e-06
-2.37356e-20
-6.50679e-26
-9.71712e-89
-1.61514e-88
 -7.2026e-07
 5.96794e-89
-4.24067e-07
 -1.0326e-88
-1.39651e-06
 7.57348e-07
-3.51393e-07
-3.61713e-89
-1.19188e-88
-4.74475e-89
-1.45941e-24
 7.43493e-89
 1.67978e-88
-1.45984e-88
-1.29802e-88
 1.77561e-88
-1.54655e-88
-5.78633e-89
  8.2525e-89
-3.27507e-89
-8.36752e-89
 6.42189e-90
 5.78081e-08
 6.56837e-89
-7.63912e-77
-1.41664e-45
-1.33693e-88
 5.73432e-89
-6.03268e-89
-4.85857e-89
  7.8183e-89
-4.48958e-89
 3.46998e-62
 3.57504e-40
-6.14636e-22
-1.56668e-88
 7.76948e-22
-3.40223e-26
-1.52425e-89
-1.27031e-25
 1.38705e-88
-4.58807e-89
-1.04059e-87
 1.24386e-88
-9.58687e-90
 7.21534e-89
 1.19651e-88
 1.80366e-89
-1.71763e-88
-4.41586e-07
-2.96635e-33
-1.42851e-07
  2.0251e-07
-3.78866e-07
 1.78558e-88
 -6.6315e-78
 8.27188e-89
-1.37432e-88
-2.95255e-89
 1.33744e-06
-1.18704e-26
-5.62879e-07
-2.25226e-89
 7.33564e-90
 5.86678e-89
-1.50022e-07
 3.29454e-89
-5.79598e-89
 1.54671e-89
-1.59913e-88
 4.38436e-07
 1.43047e-15
-2.35156e-89
 9.15929e-89
-9.01416e-27
 1.49176e-88
-5.37847e-07
-1.15695e-06
-1.50847e-89
-4.27982e-90
 -1.8355e-07
-2.98175e-89
-9.74653e-88
 2.31346e-78
-2.10346e-89
-4.00184e-07
-1.17874e-76
-4.12135e-07
 1.49702e-88
-8.89613e-07
-1.24099e-25
-2.03738e-06
-1.70371e-88
 6.15161e-89
-2.21584e-25
-5.64294e-25
-1.28231e-06
 3.92821e-90
 2.23709e-36
-9.37331e-89
  3.3356e-06
-7.69941e-26
-2.36585e-06
-1.79518e-88
  1.7497e-88
-4.26775e-08
 1.51934e-88
 3.14411e-06
-1.74316e-88
-4.54471e-89
 1.52122e-88
  6.1437e-89
 1.07014e-88
 7.84195e-89
-4.11029e-89
-7.84204e-89
 4.16472e-21
 1.33988e-88
 5.87037e-08
-4.74284e-26
-1.47684e-87
 4.93861e-89
-2.70017e-07
 1.09164e-88
-7.13946e-89
 8.53105e-89
-1.19048e-07
-7.51554e-88
-9.30583e-89
 1.00392e-89
-3.28596e-07
 1.15513e-88
 9.34167e-89
 1.50649e-88
 1.18272e-88
 8.60902e-89
-9.47554e-51
 8.79095e-89
  -3.169e-72
-1.03447e-05
-1.39834e-88
-4.81559e-05
-2.01439e-19
 4.13749e-88
 1.08438e-88
 1.53291e-88
-1.29158e-88
-7.28802e-89
 -8.7189e-73
-1.69643e-58
 3.27989e-41
-2.61462e-05
 1.18891e-36
 2.25556e-06
-5.31902e-89
-3.55953e-90
-8.71743e-89
 1.26531e-88
 1.47693e-05
 0.000180175
-2.81138e-46
 8.83522e-89
-2.84821e-05
-2.94567e-82
 5.67038e-89
-1.28763e-88
 -8.6979e-09
 -7.4151e-77
 3.67209e-88
-4.04597e-05
-4.98997e-89
-7.86437e-62
 4.10191e-48
-2.51645e-06
 -2.4301e-88
 1.68844e-65
 1.15489e-88
-1.60426e-88
-1.05062e-88
-1.10332e-06
 4.03195e-89
 1.54998e-88
-7.14174e-26
-2.35387e-06
-1.74868e-89
 4.90851e-90
-7.77019e-89
  7.7617e-89
-2.81441e-24
 8.17382e-89
 3.31164e-07
  8.5693e-89
 8.75533e-90
 1.49054e-89
 2.01353e-26
-5.22662e-07
-1.35341e-86
 2.74076e-72
 6.48614e-89
 2.75478e-89
 9.64861e-89
-1.67335e-88
 2.91189e-89
 1.38163e-88
 1.59438e-88
-2.14971e-90
 1.05982e-88
-3.49522e-05
  1.9702e-89
 3.06446e-06
 1.30411e-05
-1.22275e-88
   1.559e-88
-3.41487e-05
 1.68157e-88
-3.56416e-49
-1.70782e-88
-9.18416e-89
-1.48564e-88
-3.93615e-89
-1.71438e-88
-2.36568e-05
-1.35965e-88
  1.9595e-89
 1.28263e-88
-8.12464e-05
 8.50353e-89
 1.88347e-78
-7.42358e-07
-3.24002e-89
 0.000102542
-9.01127e-08
-2.15305e-89
 7.10346e-89
 2.96692e-05
-1.27339e-24
-1.13412e-88
-1.24052e-88
 1.88156e-09
-3.87495e-05
-1.10516e-87
-9.98277e-59
 1.48571e-88
 3.26514e-06
 5.34557e-07
-2.08586e-24
-1.06904e-89
-4.41353e-87
-1.39708e-88
-3.92409e-05
-4.53742e-25
-1.93158e-81
 1.35918e-88
  2.5838e-89
 7.30052e-89
 8.18845e-89
-1.22423e-45
-2.42564e-89
-8.60258e-89
 -7.6872e-89
 1.25622e-88
-4.41101e-89
 1.01803e-88
-7.18597e-35
-1.55373e-88
-1.28231e-88
 6.80034e-89
-8.65065e-89
-7.00053e-89
 1.20123e-88
-1.71571e-88
-1.08777e-89
 -6.1371e-89
 1.50613e-88
 3.61832e-08
-5.39806e-89
-6.01051e-65
-1.71598e-88
 2.86565e-05
 1.45318e-88
 3.32404e-89
-7.63581e-05
-1.65847e-88
-1.31384e-89
-2.97492e-89
  3.2055e-18
-2.66361e-05
 1.75746e-88
-1.87441e-05
-1.72984e-89
-8.69788e-89
-1.73792e-88
-5.52303e-07
-7.73302e-25
-6.58539e-89
-2.16225e-05
 2.54806e-05
-2.64425e-25
  4.0197e-77
 2.40291e-90
-2.92701e-06
-1.18985e-88
-1.72334e-06
-1.21382e-88
-5.67519e-06
 3.07773e-06
-3.38939e-05
 1.34357e-88
 2.40391e-89
 1.49599e-88
-5.93079e-24
-1.25017e-88
 9.85131e-89
 1.13809e-88
-5.76374e-69
-1.13533e-88
 2.09485e-89
  1.1285e-88
-1.20083e-88
 8.61097e-89
-8.67457e-89
-2.12278e-89
 2.34922e-07
-1.48173e-88
 8.01983e-51
-3.76279e-08
-5.43738e-88
-1.17194e-68
-1.51186e-88
-1.21445e-88
-1.10352e-88
 1.53379e-88
-3.95619e-58
-9.11094e-06
-3.37499e-06
-2.65432e-89
-2.71499e-16
-1.38261e-25
-9.35061e-89
-5.16233e-25
   1.062e-89
-1.59403e-88
 -3.7085e-87
 -7.3086e-89
 1.36684e-88
 -1.6238e-88
-4.34093e-90
-2.46642e-89
 -1.6375e-87
-4.69138e-05
-1.72065e-09
-2.20278e-05
-3.63844e-05
-3.79561e-05
 -1.0219e-88
-1.73941e-77
-1.79623e-88
-1.02607e-88
-7.90141e-89
 6.20528e-06
-4.82391e-26
 -5.2294e-06
-1.77449e-88
 8.23522e-89
 5.63444e-89
-1.06262e-05
-1.26488e-88
 -4.9161e-89
 7.57019e-89
-1.86933e-89
-9.08163e-05
 6.06124e-15
 4.18204e-90
-1.54852e-88
 -3.6632e-26
-4.14306e-89
-5.26676e-06
-1.06802e-05
 1.16183e-88
-1.86598e-88
-1.76976e-05
  1.7761e-88
 3.47176e-59
 4.84592e-06
 1.51335e-88
-3.86431e-06
-4.79019e-76
-4.03556e-05
 2.12396e-89
-9.81919e-06
-5.04315e-25
-1.88887e-05
-1.31281e-88
-1.72009e-88
-9.00482e-25
-2.29319e-24
-5.21107e-06
  1.1759e-88
-1.17884e-17
 1.22779e-88
 6.48532e-05
-3.12891e-25
-1.05224e-05
 1.03063e-88
 1.37239e-88
-5.37206e-06
-1.19169e-88
-4.20561e-06
 4.90927e-89
 1.77794e-88
 1.70374e-45
-6.64153e-89
 1.73107e-88
-1.38478e-88
-1.45316e-88
 6.19999e-45
-3.34462e-18
-4.64085e-88
 5.91738e-06
-1.92741e-25
-6.52925e-87
 1.19278e-88
 -1.0973e-06
-8.13938e-89
 1.29547e-88
 4.78355e-89
 -4.8379e-07
  5.9284e-86
-1.68717e-89
-9.81873e-89
-1.33536e-06
 8.20059e-89
-1.70672e-88
 1.43968e-88
 2.76871e-90
 1.48846e-88
  1.8699e-54
  6.4379e-89
 2.08533e-77
 1.24392e-06
 5.98756e-89
 3.05687e-06
-6.30597e-15
-5.43517e-89
-1.69622e-88
  2.1449e-89
 1.05334e-89
-1.97558e-90
 -1.8496e-73
 3.24615e-55
 4.41691e-42
 1.58358e-06
-9.91816e-38
-1.03014e-06
-1.82745e-89
-1.73695e-88
-1.43812e-88
  7.6545e-90
-7.82593e-08
-1.21308e-10
 3.86115e-49
 1.20015e-88
 1.78412e-06
-3.15773e-85
 8.16862e-89
  1.0635e-88
  1.1352e-09
-4.84338e-76
-1.54246e-88
 2.59535e-06
-4.78799e-89
 5.18674e-77
-5.57055e-53
-3.66944e-06
-6.30291e-89
-9.54183e-72
-4.19626e-89
-7.27894e-89
-1.64043e-88
  1.5381e-08
 5.15629e-89
 2.28481e-89
-1.00926e-20
 -3.1161e-06
  -1.688e-88
-1.66183e-88
 1.21479e-88
-1.30367e-88
-2.95172e-19
 1.48171e-89
 1.07461e-07
-6.68016e-89
 6.21076e-89
 1.77119e-88
 5.70876e-31
 -1.0143e-06
-1.47193e-85
-6.16877e-76
 4.49927e-89
-9.26928e-89
-3.71487e-89
 1.79391e-88
 -4.4404e-89
 1.52702e-88
 1.15979e-88
-1.27727e-88
-9.36522e-90
 2.44549e-06
-1.82381e-89
 9.61925e-09
 1.37707e-06
-1.48972e-88
-1.50579e-88
 1.62726e-05
 1.46202e-88
 1.06205e-48
-8.65452e-89
 8.53844e-89
-8.51566e-89
 1.19483e-88
 2.74767e-89
 1.48038e-06
-1.29616e-88
-9.27126e-89
 1.65482e-88
 2.50118e-05
 5.10624e-89
-1.26765e-80
  9.4453e-08
-8.62418e-89
 9.96124e-06
-1.35165e-07
-8.91477e-89
-5.27584e-89
 3.93937e-07
 -1.8148e-19
 1.19056e-90
 1.19499e-88
 3.05357e-10
 2.33421e-06
-9.85185e-86
-2.17988e-57
-1.65436e-88
 1.68296e-07
-3.08778e-07
-2.81273e-19
 3.18697e-89
-7.32914e-88
 6.61313e-89
 5.04409e-06
-6.74883e-20
 -3.1365e-82
 1.08433e-88
 -5.3278e-89
 8.76627e-91
 9.16175e-89
-1.52489e-46
-1.30358e-88
-6.32215e-90
 4.92453e-89
-3.43215e-89
-1.46765e-89
-1.56871e-88
-1.11545e-17
 1.14843e-88
-2.80068e-89
 7.70114e-89
-6.56609e-89
-9.08049e-89
-1.78143e-88
 -8.2125e-89
  3.7545e-89
 1.50214e-88
-6.52832e-89
-2.08372e-06
-1.70943e-88
 2.20968e-69
 3.82454e-89
 6.92675e-06
 1.63873e-88
-2.39817e-89
 2.76111e-05
-1.07113e-88
-9.78461e-89
 1.73547e-88
-9.45572e-25
 -2.1204e-06
  2.7166e-89
 1.12877e-06
-1.25695e-89
 -1.4263e-88
-8.86563e-89
-8.10048e-07
-1.08518e-19
 1.52397e-88
-1.73479e-06
-2.93579e-06
-3.69693e-20
 -1.6038e-88
 1.65266e-88
-4.15268e-06
-6.02265e-89
-2.62992e-06
 2.78074e-89
-8.68002e-06
 3.21141e-06
  2.0264e-06
  1.5451e-88
 -1.0824e-88
-1.52977e-88
-7.91692e-20
 5.00561e-89
 5.18798e-89
-1.53337e-88
-3.02026e-74
 4.31297e-89
 1.04986e-88
 1.28241e-88
-1.12001e-88
 5.06622e-89
-6.66257e-89
-3.56088e-89
 9.31667e-08
-1.06319e-88
-1.66791e-48
 -2.4984e-08
 1.75966e-88
-7.00974e-74
 -1.2124e-89
-1.66711e-88
-5.93441e-89
 -1.3453e-88
 5.89264e-55
 2.93649e-07
-8.84319e-07
-1.70188e-88
 5.15455e-22
-1.51825e-20
-1.16742e-85
-8.25092e-20
-6.02658e-89
  1.2039e-88
-7.61311e-88
 1.73892e-88
 1.49345e-88
-1.09049e-88
 3.47249e-89
 7.20449e-89
 4.80205e-90
   3.024e-06
-1.55435e-09
 1.64171e-06
 4.77794e-06
 2.39626e-06
 4.09346e-89
-4.37397e-78
-1.65482e-88
 3.46035e-89
-8.90452e-89
 7.28418e-07
-7.19294e-21
-2.61131e-06
 5.24199e-89
 -1.7683e-88
-4.95993e-90
 3.57396e-07
-1.64695e-88
 1.74281e-88
 6.03574e-89
-1.80391e-88
 1.17968e-05
 2.70573e-11
 1.22277e-88
-1.80553e-88
-4.84418e-21
 8.93254e-89
-2.52058e-06
-5.41346e-06
-2.09266e-89
-8.81727e-89
 1.07324e-06
 1.01762e-88
-3.39614e-60
 1.31997e-07
-1.78138e-88
-1.99795e-06
-8.46783e-77
 2.36636e-06
 1.22193e-88
-1.14375e-06
-6.02512e-20
-9.54893e-06
-8.34356e-89
-1.04269e-88
 -2.1053e-19
-1.72648e-19
-4.61593e-06
 1.31433e-89
 1.82122e-32
-9.82521e-89
 1.40335e-05
-5.30837e-20
-1.18983e-05
-4.49764e-89
-3.17214e-89
 3.59868e-07
-2.01869e-88
 2.07396e-06
  1.0216e-88
  2.3391e-89
 2.50133e-48
 -1.3104e-88
-5.71443e-89
 1.73582e-90
   6.971e-89
 7.84949e-48
 2.74694e-21
 -7.1826e-86
-9.08309e-08
 -8.5419e-20
-7.97113e-87
 1.75818e-88
-1.65295e-06
-1.59329e-88
-1.10747e-88
 1.48291e-89
-9.23625e-07
-2.81372e-88
-1.54325e-88
  2.0401e-89
-2.03344e-06
  4.2984e-89
 1.69233e-88
-1.01232e-88
 1.80273e-88
-4.47855e-89
 4.21715e-54
-1.39984e-88
 3.64517e-83
 2.78618e-06
 6.56846e-89
 7.73972e-06
-7.33415e-15
-1.73746e-88
-4.47738e-89
-1.66951e-88
-4.44826e-89
-1.37745e-88
-8.86948e-74
 3.77541e-55
 3.07136e-42
 4.01393e-06
-1.15353e-37
-1.19765e-06
-1.78465e-88
  1.7078e-88
-7.44447e-89
 1.20645e-88
-9.10387e-08
-1.85479e-08
 1.40336e-48
 8.06485e-89
 4.55202e-06
 -3.6735e-85
 1.61695e-88
 1.76747e-88
 2.50536e-09
-5.49344e-76
-4.83045e-88
 6.56237e-06
 3.06083e-89
 1.89986e-82
-1.33838e-52
-7.55189e-06
-2.71682e-88
-7.25724e-70
 1.73849e-88
 -1.1583e-88
-1.47442e-88
 1.76978e-08
 1.72176e-88
  1.0859e-88
-8.01663e-15
-6.26799e-06
 1.93161e-89
 -1.4929e-88
  7.7611e-89
 1.27071e-88
-2.48092e-13
-1.44465e-88
 6.36656e-08
-6.99155e-89
-1.22633e-88
-1.05165e-88
 6.63953e-31
-2.17083e-06
-2.74864e-85
-4.32608e-80
-7.02452e-90
-7.39709e-89
-1.41763e-88
-1.58713e-88
 -1.5384e-88
  7.5611e-89
 1.82087e-88
 1.39388e-88
 6.59144e-89
 4.19874e-07
-1.58738e-88
 1.11876e-08
 2.49191e-06
-1.68859e-88
 2.70436e-89
 3.13994e-05
 1.02547e-88
 1.22676e-48
-8.04633e-89
-2.13901e-90
  1.7349e-88
-1.09128e-88
 1.59154e-88
 3.77536e-06
 3.23491e-90
-1.45776e-88
-3.33318e-89
 4.90757e-05
-1.06733e-88
-1.47433e-80
 2.09498e-07
 6.85207e-89
 1.84099e-05
-2.79668e-07
 9.20857e-89
 1.74977e-88
 4.58168e-07
-1.36912e-13
 1.30622e-88
-1.62362e-88
 1.02332e-20
 5.99857e-06
-1.14398e-85
-2.53531e-57
 1.69027e-88
 1.95864e-07
  -7.256e-07
-2.16942e-13
  2.6858e-89
-7.10022e-89
-9.51585e-89
 1.11835e-05
-5.45354e-14
-1.18301e-88
 7.47805e-89
-1.76974e-88
-8.17985e-89
-1.40848e-88
-1.77351e-46
-6.25327e-90
 7.96615e-89
 8.67597e-89
-1.20029e-88
 4.39035e-89
-3.48307e-89
-8.49078e-11
  3.6584e-89
 1.01468e-88
 5.38994e-89
-1.36441e-89
 1.21384e-88
-3.51651e-89
-4.03323e-89
 5.97539e-89
-9.45908e-89
-5.36017e-89
-5.15039e-06
-8.51894e-89
 5.10929e-73
 3.69026e-89
 1.29059e-05
-5.95015e-89
-1.42447e-88
 5.48798e-05
 4.47559e-90
 1.14612e-88
-1.48877e-88
-1.08231e-24
-8.41682e-07
-8.23088e-89
 2.90227e-06
 5.34064e-89
 -2.1991e-88
-2.13464e-89
-1.66532e-06
-8.63823e-14
-4.93089e-89
-7.15805e-07
-6.69176e-06
-2.96194e-14
 -6.2066e-89
 -1.7214e-88
-8.51098e-06
 7.98798e-89
-5.44756e-06
 6.71079e-89
-1.79911e-05
 6.23418e-06
 5.22477e-06
-1.20362e-88
-5.03544e-89
 3.52763e-89
-6.69092e-14
 -1.0523e-89
 3.60231e-89
-1.75439e-88
-3.51288e-74
 6.94242e-89
 1.11802e-88
-1.04463e-88
 1.69394e-88
-1.54065e-88
 1.31221e-88
 1.73826e-88
 6.44509e-08
-1.65923e-88
-1.93986e-48
-2.88815e-08
  1.8009e-88
-8.15302e-74
 1.54421e-88
-6.42724e-89
 4.23183e-89
-4.84551e-89
 6.85339e-55
 3.62844e-07
-1.03872e-06
 -1.4043e-88
 3.49115e-24
-1.31047e-14
-1.36051e-85
-6.37449e-14
 8.46024e-90
 1.06179e-88
 1.46335e-88
-1.37814e-88
  1.1305e-88
 -1.1417e-88
 1.13889e-88
 4.25801e-89
 1.58624e-88
 7.63872e-06
-1.80773e-09
 3.92945e-06
 1.05361e-05
 6.11958e-06
-4.12155e-89
-1.71088e-79
-1.47099e-88
-4.34219e-89
  8.5806e-89
-1.64453e-07
-5.87611e-15
 -4.9277e-06
-4.11515e-89
 9.00639e-89
 5.80184e-89
 1.06039e-06
  1.3202e-88
 8.29524e-89
-2.19839e-89
-1.28791e-88
 2.60906e-05
-1.24892e-09
 1.59666e-88
-1.60727e-88
-3.75443e-15
 9.04198e-89
-4.79201e-06
-1.02471e-05
-4.92971e-89
 5.32534e-89
  2.7729e-06
-1.60801e-88
-3.95201e-60
 1.53518e-07
-8.31606e-89
-3.83814e-06
-1.66228e-77
 6.12711e-06
 6.34945e-89
-6.59001e-07
 -4.7746e-14
-1.80655e-05
 5.89566e-89
 1.00449e-88
-1.60687e-13
-1.44309e-13
-9.07276e-06
 1.77955e-88
 2.11799e-32
 5.59285e-89
 2.60108e-05
-4.09057e-14
-2.25241e-05
-1.55732e-88
-8.56023e-89
 8.97885e-07
 4.26068e-89
 4.33004e-10
 3.58221e-89
-1.14659e-88
 2.90916e-48
-8.29755e-89
 -9.3182e-89
-1.59083e-88
 7.30192e-89
 9.12929e-48
-2.45119e-29
-8.34548e-86
-1.69364e-07
-7.39413e-14
-8.16223e-87
-8.27426e-89
-3.42081e-06
-9.21469e-89
-1.64591e-88
 1.30251e-89
-1.95218e-06
-8.66784e-89
  8.6833e-90
  4.2421e-89
-4.20994e-06
  5.7829e-89
 1.17546e-88
 1.16174e-89
 8.43442e-89
-1.50353e-88
  2.3235e-54
 1.89823e-89
 2.83216e-71
 1.49709e-06
 8.66014e-89
 4.08447e-06
-2.19843e-15
 2.13593e-88
 1.16517e-88
 1.10754e-88
-6.64051e-91
-1.17946e-88
-4.77144e-74
 4.06102e-56
 4.24811e-39
 2.14366e-06
-1.23977e-38
-1.94419e-07
 1.50124e-88
 7.44941e-89
-1.26541e-88
-7.36377e-90
-9.81753e-09
-3.35182e-06
 1.22198e-46
 1.39325e-88
 2.39507e-06
-6.31871e-82
-3.13544e-89
   -1.58e-88
 1.34794e-09
-6.75111e-77
-3.68865e-88
 3.46044e-06
-8.01564e-90
 9.83227e-82
-3.98206e-53
-3.80034e-06
-7.07777e-88
-8.99651e-68
-4.18241e-89
 1.22579e-88
-5.22292e-89
 4.84796e-09
-1.02446e-88
 2.34115e-89
-1.63108e-09
-3.16914e-06
-1.16154e-88
-1.67502e-88
 2.88355e-89
-6.04406e-89
-5.21405e-08
 3.36116e-90
 2.57586e-07
 4.24506e-89
-2.63394e-89
 -5.6063e-89
 7.13594e-32
-1.11874e-06
-7.08397e-86
-4.48584e-71
-4.16028e-90
-1.70822e-88
-1.29154e-88
 1.70102e-88
-4.09787e-89
 2.34268e-90
 1.75243e-89
 8.22646e-89
 6.80598e-89
 2.40507e-06
  2.2547e-89
 1.20245e-09
 1.60458e-06
 1.02379e-88
 3.92233e-89
 1.83705e-05
 5.67202e-89
 1.36163e-49
 2.43816e-89
-9.67412e-89
-1.37367e-88
-1.50503e-88
 1.02169e-88
 1.98409e-06
 7.42255e-89
-1.06467e-88
-7.16769e-90
 2.84781e-05
 -1.6418e-88
-1.82021e-81
  1.1285e-07
 1.39382e-89
   1.117e-05
-1.41217e-07
 1.74345e-90
-6.84936e-89
 4.95036e-08
-2.76718e-08
-1.69343e-88
-1.39173e-88
 3.50084e-13
 3.14813e-06
-1.24311e-86
-2.73692e-58
 -4.3619e-89
 5.50601e-07
-2.12821e-07
-4.49608e-08
 -1.3267e-89
-9.87042e-90
-8.36588e-89
 5.99822e-06
-1.13115e-08
-4.24397e-82
 1.14997e-88
-8.47412e-89
-8.79753e-89
-7.44681e-89
-2.54518e-46
-6.98768e-89
 -1.1344e-88
-7.81993e-89
 1.26325e-88
-1.40954e-88
-1.05478e-88
 -1.0912e-06
-2.71699e-89
 5.18645e-89
-3.60413e-89
 -1.3395e-89
 9.49696e-89
-4.00348e-89
-1.59415e-88
 1.53887e-88
 9.98302e-89
-2.07562e-89
-1.68457e-06
 6.70039e-89
 7.82724e-66
-9.13765e-89
 7.62704e-06
 9.09455e-89
 1.57003e-88
 3.07625e-05
 1.09437e-88
 8.97025e-89
 1.79407e-88
-1.10912e-25
-2.49344e-06
-6.86247e-91
 1.52298e-06
-9.82239e-89
 9.24486e-89
-1.04391e-88
-8.31981e-07
-1.81885e-08
 2.36731e-89
-2.06922e-06
-2.67731e-06
-5.96535e-09
-9.75066e-89
-3.75668e-89
 -4.2341e-06
-7.46439e-89
-2.73823e-06
-1.33812e-88
-9.08846e-06
 3.29474e-06
 2.73947e-06
-1.03093e-88
-8.76425e-89
 2.02497e-88
  -1.338e-08
-1.12937e-88
 7.35836e-89
 9.72428e-89
-2.45946e-71
  7.0694e-89
 1.18707e-88
  1.7426e-88
-1.12289e-88
-1.12016e-88
-1.06261e-88
 1.73382e-88
 7.96574e-08
-5.43857e-88
-2.08489e-49
 1.94093e-08
-6.49722e-89
-5.08362e-71
 1.60511e-88
 1.97992e-89
-1.81123e-88
-7.31311e-89
 7.37067e-56
 2.76534e-06
-1.41876e-06
 3.20145e-89
  1.6031e-16
-2.74875e-09
-1.54951e-86
 -1.3812e-08
-9.97793e-89
 9.90338e-89
  1.0289e-88
 1.56082e-88
 1.40081e-89
 7.96366e-89
 4.44795e-89
-4.95744e-89
 4.52234e-89
  4.0219e-06
-1.88619e-10
 2.12028e-06
 5.67752e-06
 3.19464e-06
 -1.5564e-89
-1.84166e-76
 1.58362e-88
 1.01742e-88
-4.90223e-89
 1.80333e-06
-1.20977e-09
-2.72384e-06
-1.18852e-88
-1.15652e-88
 6.95895e-89
 5.68207e-07
 9.86734e-89
-1.73795e-88
 1.29547e-88
 2.75763e-89
 1.40436e-05
-2.06169e-07
-5.56868e-89
-3.73765e-89
-8.19108e-10
 1.40599e-88
-2.59907e-06
-5.63308e-06
-9.12718e-89
 1.13718e-88
 1.45115e-06
 1.11694e-88
-4.40738e-61
 1.65019e-08
 9.82335e-89
 -2.1292e-06
 -1.3115e-76
 3.23429e-06
 1.65319e-88
-2.18518e-06
-9.70917e-09
-9.99299e-06
 8.33447e-89
 9.20039e-89
-3.33165e-08
-2.92957e-08
-5.43878e-06
-9.46985e-89
  2.2764e-33
-1.04282e-88
 1.54608e-05
-8.32528e-09
-1.25571e-05
-1.22655e-88
-1.62441e-89
 4.84719e-07
-1.80832e-88
 2.03538e-06
 1.59292e-88
-7.35189e-89
 3.12667e-49
-4.28203e-89
-1.44122e-88
-1.45596e-88
 4.28989e-89
 9.81186e-49
-7.42265e-30
-8.91967e-87
 3.55304e-07
-1.54038e-08
-8.76697e-88
-1.25328e-88
-1.72801e-06
 7.31141e-89
 1.48954e-88
 1.76751e-88
-9.93581e-07
-8.48749e-89
-1.00245e-88
 2.28528e-89
-2.11965e-06
-1.67386e-88
 4.39852e-89
 1.00865e-88
-1.07935e-88
-1.54556e-88
 1.16247e-54
-9.01823e-89
 3.07761e-71
 2.22351e-06
 1.85769e-89
 5.60599e-06
 -4.5527e-15
 9.78812e-89
-1.34354e-88
-1.75377e-88
 1.08258e-89
-3.40952e-89
-3.03584e-76
 1.15413e-60
 4.61528e-39
 2.94616e-06
 3.72136e-46
-1.82165e-05
-7.16574e-89
-1.19473e-88
 -1.3311e-88
-2.79248e-89
 -5.5335e-56
-1.10286e-06
  1.8181e-60
 1.53329e-88
 3.26978e-06
 -1.6601e-81
 7.18976e-89
 3.81593e-89
 2.01911e-09
-4.35319e-80
 -1.1231e-85
 4.73595e-06
 1.08586e-88
 1.01008e-81
-1.88058e-51
-2.76075e-06
-1.22648e-85
-2.43787e-68
-1.02789e-88
 3.40753e-89
 1.45388e-88
 1.15432e-14
 7.32734e-89
 1.22768e-89
 -5.1897e-08
-3.26205e-07
 6.69916e-89
 9.30944e-89
-1.32348e-88
  1.1616e-88
-1.62312e-06
 2.78602e-89
  1.0831e-07
-1.22218e-88
 -1.1074e-90
 2.88817e-89
 3.38703e-44
-1.62232e-06
-4.74204e-86
-4.87461e-71
 1.72516e-88
-1.67298e-88
 1.03592e-88
 9.88045e-89
-1.84843e-89
-1.29424e-88
 1.71393e-88
 4.76513e-90
 5.00586e-89
 2.55239e-06
-1.43457e-88
 1.22739e-89
 3.54389e-06
 1.12095e-88
-1.56871e-88
 3.52306e-05
 9.92197e-89
 2.24725e-55
-9.31956e-89
  1.4915e-88
 2.62621e-89
-2.80449e-89
-5.28708e-90
 2.68975e-06
  3.2015e-89
 1.75884e-88
-6.20879e-89
 5.51021e-05
 -1.1792e-88
-7.47579e-82
 1.68179e-07
-1.27701e-88
 2.31756e-05
-1.01684e-07
 1.53381e-88
-1.80866e-88
 2.07974e-12
-8.93106e-07
 5.49427e-90
-4.38652e-89
 3.80424e-13
  4.2688e-06
 1.51723e-88
-1.59634e-67
-2.52035e-89
 5.73356e-07
 3.83798e-89
-1.41814e-06
-6.49838e-87
 1.25819e-88
-1.41428e-88
  8.8854e-06
-3.56446e-07
-4.61178e-82
-1.59933e-88
 1.31339e-88
 2.91497e-89
-3.97428e-89
-2.56218e-46
 9.35078e-89
  1.4747e-88
-1.70358e-88
 1.48069e-88
-1.49124e-89
 4.74399e-89
-1.86172e-05
-1.35007e-89
-4.64838e-89
 7.84234e-89
 1.74979e-88
 9.19291e-89
 1.08114e-88
 3.76557e-89
 6.11944e-89
 1.50412e-88
-1.69845e-88
-4.31732e-07
 6.42058e-90
  8.5056e-66
-3.93584e-89
 1.61436e-05
-5.49973e-89
 7.39563e-89
 6.18379e-05
 1.62844e-88
 9.63015e-89
-1.22544e-91
-5.66413e-19
-1.24918e-05
 7.98701e-89
 2.05712e-06
-1.60565e-88
 8.08649e-89
-1.13305e-88
-6.08878e-07
-5.62323e-07
-1.76433e-88
-9.50065e-06
 9.27278e-89
-1.88716e-07
 1.68235e-88
 2.35996e-90
-3.02781e-06
 2.35937e-89
-1.93958e-06
-2.08731e-89
-3.67222e-06
 3.29455e-06
  3.6876e-06
 1.22458e-88
-1.02253e-88
 -6.3003e-89
-4.21207e-07
 1.53982e-88
 1.70154e-88
 -1.3429e-88
-2.67218e-71
-1.22659e-89
  5.7685e-89
 1.24526e-88
-1.14693e-88
  1.6087e-88
 1.46239e-88
 1.59376e-88
 1.87987e-08
-7.35146e-86
  4.9577e-49
-2.93825e-34
-3.59771e-89
-5.52319e-71
 1.38587e-88
 -5.0039e-89
 2.90815e-89
-3.26989e-89
 5.29414e-59
 1.59494e-31
-4.54686e-14
   9.563e-90
 1.74204e-16
-8.43861e-08
 -2.5729e-88
-4.16594e-07
-1.31022e-88
 1.71656e-89
  8.1433e-89
-1.43165e-88
 6.51541e-89
-3.28776e-89
 2.68468e-89
-5.94578e-89
-5.79257e-88
 5.51725e-06
-7.19161e-27
  2.9272e-06
 8.50591e-06
 4.34907e-06
 2.63138e-89
-1.76506e-76
 2.00546e-89
 1.72615e-88
-1.50052e-88
 5.30943e-16
-3.80681e-08
-6.05657e-06
 1.25923e-88
-8.61852e-89
-2.83719e-89
  6.0222e-07
 1.05656e-88
-1.80946e-88
 4.27074e-90
-1.26917e-88
 2.10415e-05
 -3.4259e-06
 7.25266e-89
 1.02164e-89
-2.47212e-08
-4.46162e-89
-5.82256e-06
-1.24697e-05
 7.82042e-89
-1.13446e-88
 1.94907e-06
 1.79598e-88
 1.80901e-66
 9.31945e-75
-3.60363e-89
-3.53665e-06
-1.38147e-76
 4.33611e-06
 1.41153e-88
-9.40313e-06
-3.07539e-07
-2.22551e-05
 2.18567e-89
-9.60296e-89
-1.05114e-06
-9.27439e-07
 -1.5821e-05
-8.14129e-89
 5.46884e-38
-1.94449e-89
 3.28751e-05
-2.64459e-07
 -2.0985e-05
-1.35822e-88
-6.62022e-89
  6.8053e-07
-7.19938e-90
 2.21164e-06
-1.12405e-88
-1.02253e-88
 5.65427e-61
-7.88016e-89
-1.04952e-88
 1.04589e-88
-1.55984e-88
 1.96362e-59
 2.22015e-27
 1.36945e-88
-1.24556e-06
-4.82621e-07
-8.27857e-89
 1.67912e-88
-1.25021e-06
-6.29787e-89
-1.10415e-88
-7.36722e-89
-1.45816e-06
-1.34131e-88
  2.7193e-89
-7.47148e-89
-1.51962e-06
-1.81156e-88
-1.51133e-88
 6.47656e-89
  -1.347e-88
-3.50575e-89
-2.74989e-54
 4.94179e-89
 1.48379e-70
-3.67446e-09
 1.29443e-88
-1.33128e-08
-6.92093e-16
-3.23174e-85
 1.42976e-88
 -1.5176e-88
 6.57625e-89
 3.38059e-89
-6.76564e-75
 2.30522e-50
-5.16749e-38
-2.87677e-09
 -3.8969e-38
 3.01058e-08
 -1.6268e-88
-3.37672e-89
-7.68022e-89
-4.99146e-89
-1.47227e-09
-6.94544e-69
 1.59498e-47
-1.39214e-88
-8.58735e-09
 2.53087e-86
 1.07829e-88
 1.81369e-88
-3.49865e-12
-3.92986e-79
 4.84903e-89
-1.12728e-08
-1.60548e-88
  1.0454e-63
 1.50442e-88
 6.51846e-09
 2.01088e-89
 1.11121e-88
-1.25805e-88
-9.64257e-89
-3.73698e-89
  -8.831e-20
-5.39241e-90
 2.84005e-89
 1.08935e-21
 4.19721e-08
 2.52706e-89
 1.43801e-88
-1.44809e-88
 1.30747e-88
-9.66187e-21
 5.18497e-89
 9.01675e-09
 1.51517e-88
 9.49135e-89
 3.26128e-89
 1.58433e-28
-6.09853e-10
 2.29488e-89
  -7.183e-75
 1.41428e-88
-1.02122e-88
 4.14889e-89
 1.63158e-88
  7.5793e-89
 9.63445e-90
-1.75462e-88
-8.63952e-89
-6.15413e-89
   7.606e-08
-5.42717e-91
 4.60244e-08
 1.58828e-09
 1.76343e-88
-7.05293e-89
-1.27911e-08
 6.53015e-89
  6.0875e-46
-1.73971e-88
 1.02771e-88
  8.5469e-89
-8.01033e-89
-2.76763e-89
-6.65452e-09
-1.10884e-88
 -1.1506e-88
-1.65394e-88
 5.62947e-08
 8.76645e-89
 4.75447e-86
-2.92616e-10
 4.67957e-89
-1.77307e-09
 6.66261e-12
 2.76572e-89
 2.22224e-89
-2.11526e-09
 2.93255e-20
 1.18105e-88
-1.33892e-88
 3.11957e-09
-1.08296e-08
 1.31753e-88
 1.65957e-60
-7.06883e-89
-3.00277e-09
 2.68104e-09
-2.31974e-27
-1.66351e-88
-2.14996e-85
 9.73654e-89
-1.64587e-08
 3.74318e-21
-1.31882e-81
-9.66103e-89
 6.67633e-89
-4.53895e-89
-7.97257e-89
 2.35952e-47
-1.40022e-88
 1.51122e-88
-1.09582e-88
 8.90519e-89
 9.75516e-89
-9.27035e-90
-1.77742e-13
 -6.2523e-89
-8.16215e-89
 1.50565e-88
-1.26715e-88
-3.32359e-89
 6.66294e-89
-9.17083e-90
-8.37801e-89
 8.69917e-89
 1.02419e-88
-1.05245e-08
 1.54157e-88
-4.47661e-65
-6.64864e-90
-4.88055e-09
 1.20819e-89
-8.75496e-89
-7.13346e-09
 8.17521e-89
-1.88173e-90
-7.28328e-89
-1.77503e-21
 5.06574e-08
 1.23319e-88
-5.23147e-09
 6.94959e-89
-1.71442e-88
 1.67652e-88
 5.49779e-09
 7.87977e-21
-8.43378e-89
 5.80153e-08
 3.70811e-08
  4.1283e-21
 1.60069e-88
-1.10428e-88
 3.43673e-08
-3.13986e-89
 1.56481e-09
 4.22361e-89
-3.83347e-09
 6.65492e-08
-9.52514e-09
 1.68015e-88
-4.11727e-89
 5.86794e-89
-1.97831e-27
 5.35558e-89
-7.81683e-89
-1.02745e-88
-1.88219e-77
  3.1277e-89
 -6.6401e-89
 1.52326e-88
-2.77006e-89
  1.2199e-89
  3.9525e-89
-1.39816e-89
 8.81272e-09
-1.58021e-88
 8.93212e-47
 8.37593e-09
 1.35811e-88
-4.50368e-77
 1.70511e-88
 1.06535e-88
 1.67404e-88
 1.25755e-88
 2.24271e-50
 1.41154e-07
 1.04225e-07
-3.61591e-89
 2.78543e-16
  4.1628e-22
-4.70022e-89
-6.75122e-28
 6.11996e-89
 1.29637e-88
-2.61363e-85
 1.65309e-88
-1.55405e-88
 2.67277e-90
 1.42895e-89
-3.95274e-89
-3.73675e-89
-1.44018e-08
 6.87583e-08
-4.52417e-09
-1.45866e-08
-1.17696e-08
-1.45813e-88
-3.69633e-89
-1.12491e-88
 1.65227e-88
-1.23707e-88
 2.28061e-13
 8.41423e-22
-1.85784e-09
-1.80818e-88
 1.64582e-88
 1.68555e-89
-9.87922e-10
-5.38737e-89
 1.37787e-88
 -1.3074e-89
 7.79635e-89
-3.71155e-08
  3.3161e-13
 2.53037e-89
 1.68544e-88
 4.00773e-22
 5.21773e-89
-2.23689e-09
-3.76069e-09
-1.69647e-88
-3.08118e-86
-4.83065e-09
 1.67581e-88
-5.14809e-76
-1.90664e-09
-4.45092e-89
-8.04662e-10
-6.88888e-77
-1.09721e-08
 1.75503e-88
-1.00623e-13
 4.05959e-21
-8.13872e-09
 6.98347e-89
  8.4739e-89
 2.93583e-20
-2.02289e-20
-1.10404e-88
-1.71214e-88
 1.00792e-15
 5.88005e-89
-8.83331e-09
 7.09545e-21
-1.22762e-08
-6.79658e-89
 6.36568e-89
-9.44715e-10
 1.66484e-88
  -3.338e-08
 1.13843e-90
 1.79121e-88
 4.91615e-47
 -1.4918e-88
 1.64405e-88
 1.70269e-88
-1.44631e-88
 1.52766e-46
 -1.5948e-25
  5.2322e-90
-3.51041e-09
-4.92005e-28
-1.58521e-88
 4.61368e-89
-1.62042e-10
 1.01205e-88
-5.14211e-89
-4.32163e-89
-6.89653e-11
-1.42089e-85
-3.21524e-89
-1.34538e-88
 9.47052e-10
-1.25422e-88
  1.2515e-88
-1.78433e-88
-1.11097e-89
  6.5098e-90
-1.59934e-51
 -2.6917e-89
-5.85461e-76
-2.45068e-06
-3.00933e-89
-1.22795e-05
  1.3738e-15
-4.79856e-89
 6.12001e-89
  3.1459e-89
 7.18909e-89
 5.94474e-89
-1.12954e-71
 3.47484e-89
 -2.7048e-38
-5.52626e-06
 3.76734e-38
-8.09428e-06
 1.69247e-88
 2.94453e-89
 8.17898e-89
 1.74826e-88
 4.19315e-07
-8.38453e-22
-4.56528e-47
-5.31632e-89
-7.42911e-06
-5.81726e-81
-4.93178e-89
 9.53651e-89
 -1.9927e-09
-6.29205e-76
-1.13849e-88
-1.04682e-05
  5.3249e-89
-1.06093e-75
-4.95886e-68
 1.59048e-07
 4.98019e-89
  8.1243e-91
 7.85012e-89
 6.22223e-89
-1.22037e-88
 1.87326e-30
-8.53261e-89
 1.11142e-88
 2.29911e-07
-9.11827e-06
-1.28427e-88
 1.70166e-88
-1.57311e-88
 1.35641e-88
 7.03974e-06
-3.24755e-88
-2.68737e-06
-1.61611e-88
 2.16833e-89
-7.28412e-89
-5.41073e-32
 8.22761e-07
-7.49195e-85
 1.12573e-68
-1.17396e-88
-9.13439e-89
 4.21021e-89
 1.18131e-88
  1.2927e-88
-1.82855e-89
 1.65173e-88
 1.19602e-88
 1.64805e-88
 9.48026e-89
-4.73015e-91
 2.31049e-08
 4.92269e-06
  9.6479e-89
 1.53891e-88
-4.82702e-90
-9.02777e-89
-1.56834e-88
-1.69583e-89
-6.53109e-89
 1.61085e-88
-3.65606e-89
 9.53567e-90
-6.13839e-06
-1.58936e-89
-1.51078e-88
 -9.1091e-89
-5.76229e-07
-1.78731e-88
-1.10609e-80
-1.72848e-07
-1.13849e-88
 2.38962e-05
 3.82462e-08
-1.78015e-88
-3.06786e-89
 -6.8674e-06
 4.00075e-06
-8.35674e-89
 1.69901e-88
-8.31796e-18
-1.00788e-05
-1.51925e-88
-1.00919e-56
 2.61319e-90
  5.0332e-06
 5.43933e-09
 6.21803e-06
-1.08137e-88
-3.23965e-88
-1.52994e-88
-9.19749e-06
 1.56957e-06
 5.13812e-81
 1.70227e-88
 1.50772e-88
 7.00198e-89
-1.03161e-88
  1.3173e-47
 7.35667e-89
 1.05309e-89
-6.23311e-89
 1.41996e-88
-1.49418e-88
 1.43347e-88
 4.19177e-05
 2.18172e-90
 1.48443e-88
 1.17996e-88
 9.10859e-89
 1.36047e-88
-3.81131e-91
 9.39877e-89
   1.664e-88
 4.23714e-89
 1.82111e-88
 2.45156e-05
   -1.02e-88
-6.52736e-66
-1.68837e-88
  2.5428e-07
 1.23712e-88
-1.62658e-88
-6.90014e-07
-1.97653e-89
-1.74728e-88
 5.40897e-89
 1.47797e-17
-1.22482e-05
-1.71836e-88
-4.84726e-06
  9.7198e-89
-5.28175e-89
 8.35011e-89
-1.51556e-06
 2.48339e-06
-1.83426e-88
 -1.1008e-05
 2.09032e-06
 8.48964e-07
-1.41268e-88
-1.70943e-88
-9.09228e-06
 3.82302e-89
 5.84478e-07
 4.05362e-89
 3.69863e-06
-2.14612e-05
-8.75386e-06
-4.98241e-89
 1.77225e-88
 -1.4353e-88
 1.85811e-06
-1.67729e-88
 1.25358e-88
 5.41038e-89
 1.16016e-68
-2.84896e-90
 1.04339e-88
-7.35118e-89
 7.59292e-90
 4.58448e-89
-1.58611e-88
 1.37982e-88
-3.58447e-06
 4.15992e-88
 3.51678e-45
 1.77014e-88
-7.86281e-89
 2.20942e-68
-6.94207e-90
 -3.7618e-89
-6.62342e-89
-8.77725e-90
-1.81685e-88
-7.07964e-89
 3.51928e-05
 3.86382e-89
-7.98029e-89
 3.68347e-07
-4.17241e-89
 1.80621e-06
-1.72277e-88
-1.19614e-88
-7.98315e-89
  1.3536e-88
 1.16768e-88
-5.77323e-89
-4.97863e-89
 3.88105e-89
 4.95032e-89
-1.23961e-05
 6.03598e-09
-5.24859e-06
-8.29225e-06
-1.01916e-05
 4.61302e-89
 9.06694e-76
 2.61785e-89
  1.4978e-88
-1.16972e-88
-1.96307e-30
 1.68557e-07
 3.37911e-07
 1.04404e-89
-6.95413e-89
 1.10553e-88
-1.89599e-06
 1.51375e-88
-1.61053e-88
 1.24381e-89
  1.4017e-88
-2.09834e-05
 3.40652e-05
-1.61741e-88
 2.92917e-89
 1.08696e-07
 1.37306e-88
 1.28695e-06
 9.56922e-07
-6.18072e-90
 2.25747e-89
 -4.5224e-06
 7.84558e-89
 3.39518e-53
-4.88207e-07
-7.21558e-89
 1.76166e-07
-4.28509e-76
-1.01865e-05
 1.10871e-88
-1.62345e-06
 1.39058e-06
 1.17635e-06
-1.78069e-88
 -1.6338e-89
 4.60301e-06
 4.06844e-06
 4.55089e-06
-5.97459e-89
 1.39888e-88
 3.82617e-89
 1.43701e-06
 1.17828e-06
-7.19986e-06
 -8.1335e-89
 9.21062e-89
 -1.1595e-06
-1.35847e-88
-2.46389e-07
-3.81185e-89
 4.97711e-89
-2.42717e-46
-1.54634e-88
-5.40701e-89
 1.18194e-90
 6.89886e-90
-6.76234e-46
-8.32989e-31
 1.23835e-84
 8.44193e-61
 2.10403e-06
  -1.051e-84
-1.67223e-89
 5.39509e-07
-4.39025e-89
 1.49218e-88
 8.50178e-89
 7.60558e-07
 1.75041e-88
-1.57025e-88
-1.57745e-88
 4.45394e-07
-7.66196e-89
-9.49309e-89
 9.16887e-89
 2.43235e-89
 1.79453e-88
-5.23677e-52
 8.02753e-89
-2.96882e-72
-7.59651e-07
-5.22505e-89
-4.00579e-06
 4.48905e-16
 7.59575e-89
 -3.4109e-89
-5.80178e-89
-5.02872e-89
 1.10442e-88
 -3.6985e-72
 1.47262e-54
-8.85642e-39
-1.80767e-06
 7.91188e-39
-2.66446e-06
 1.61255e-88
-9.00512e-89
-1.64446e-88
-1.32479e-88
 1.34573e-07
-6.33575e-16
-1.49482e-47
 1.15978e-88
-2.42649e-06
-1.95592e-81
 2.53695e-89
 1.73067e-88
-6.11876e-10
-2.06023e-76
 7.10456e-89
-3.41247e-06
 6.06628e-89
-3.47385e-76
-6.19274e-51
 -4.6655e-08
 5.45163e-89
 2.56101e-70
 1.20006e-88
 -1.3785e-88
-1.03913e-88
 1.56258e-07
  -1.781e-88
-1.02644e-88
 7.52125e-08
-2.99246e-06
 1.24675e-89
 1.05384e-89
 3.94328e-89
 3.02995e-89
 2.30296e-06
  5.1483e-89
-8.79934e-07
  1.3467e-88
 5.80852e-89
-1.42447e-88
-3.13825e-31
 2.67468e-07
-2.46591e-85
 3.67708e-69
-1.27915e-88
 1.01647e-88
 1.27952e-88
 1.15026e-88
 1.20424e-88
 1.30004e-88
-7.15252e-89
 3.28604e-89
-8.43512e-89
 7.28016e-63
 7.72882e-89
 7.56532e-09
 1.65203e-06
 8.14662e-89
 7.36483e-89
  4.8289e-07
-1.53625e-88
-9.61812e-89
-8.30151e-89
 6.80862e-89
 1.16396e-88
 1.59601e-88
 1.01935e-89
-2.00295e-06
 1.11974e-88
-1.14018e-88
 4.73157e-89
 3.82857e-07
-3.05823e-89
-3.62752e-81
-5.31919e-08
 2.37806e-89
 8.10727e-06
 8.95693e-09
-4.34907e-89
-6.46055e-89
-2.05742e-06
  1.3088e-06
 1.53377e-88
 1.25629e-88
-2.72358e-18
-3.29272e-06
-6.44566e-89
-3.30443e-57
-5.53064e-89
 1.72582e-06
 1.78102e-09
 2.03414e-06
-6.98011e-89
 1.25345e-88
-1.40864e-88
-2.82359e-06
 5.13467e-07
 1.68239e-81
 3.86557e-89
 8.55783e-89
 1.19868e-88
-9.63255e-89
 4.30479e-48
-9.30115e-89
  1.6387e-88
 8.13506e-89
 1.13047e-88
-2.11591e-89
-2.09512e-89
 1.36972e-05
 9.65135e-89
-1.75546e-88
  1.3156e-88
 6.47496e-89
  1.3236e-88
 7.02274e-89
 -4.0338e-89
-1.12591e-88
 6.08182e-89
 5.49487e-89
 8.08321e-06
-4.21444e-89
-2.13728e-66
-4.54423e-90
 2.90822e-07
-1.12587e-88
 2.66272e-89
 5.06512e-07
 1.21299e-88
-1.17014e-88
-1.68958e-88
-9.59911e-16
-4.01713e-06
 1.42628e-88
-1.58324e-06
-4.94883e-89
 4.04125e-89
 7.88866e-89
-4.97736e-07
 8.12411e-07
 7.28236e-89
-3.61013e-06
 6.84442e-07
 2.77729e-07
-9.16961e-89
 1.59803e-88
 -2.9845e-06
  1.8555e-89
 1.23147e-07
-1.30621e-88
 9.88261e-07
-7.02652e-06
-2.85996e-06
-8.05164e-89
 1.23311e-88
 1.47259e-88
 6.07859e-07
-3.23588e-89
 -1.0859e-88
-7.18234e-89
  2.2205e-69
  -9.527e-89
 1.69324e-88
-1.80453e-88
-1.34938e-88
 1.35164e-88
-4.76632e-89
 8.90203e-89
-1.17367e-06
-1.11359e-87
 1.15124e-45
-2.74136e-17
  8.9796e-89
 4.17554e-69
-8.14889e-89
 1.80374e-88
 1.14681e-88
 9.16469e-89
 1.07348e-54
 1.86005e-39
 1.14988e-05
 9.01171e-89
 2.71656e-25
   1.205e-07
-2.43542e-88
 5.90878e-07
-6.58305e-89
 -1.2435e-90
 1.60875e-89
 7.85771e-90
 1.09211e-88
-1.33304e-88
 9.48658e-89
 9.62388e-89
 -1.3048e-88
-4.04036e-06
 1.97586e-09
-1.69711e-06
-2.54493e-06
 -3.3256e-06
 6.70848e-89
 2.62466e-76
 7.87213e-89
-2.54161e-89
-6.87594e-89
 1.59594e-18
 5.51418e-08
 1.05203e-07
 8.88605e-89
 1.71571e-88
-1.56798e-88
-6.30073e-07
 7.93915e-89
-4.93657e-89
 -1.6191e-88
 8.89733e-89
 -6.4418e-06
 1.11647e-05
-9.45671e-89
-1.67129e-88
 3.55586e-08
-1.67653e-88
 4.16391e-07
 3.02111e-07
 1.10864e-88
-6.73554e-89
-1.47969e-06
-2.23271e-89
-3.34041e-53
-1.08853e-07
 5.85133e-89
 5.38768e-08
-1.66338e-76
-3.33561e-06
 1.59709e-88
-5.39424e-07
 4.54915e-07
 3.65523e-07
-1.62731e-88
-1.41285e-88
 1.50582e-06
 1.33094e-06
 1.31923e-06
-1.63558e-88
 7.60229e-19
 1.11229e-88
 9.02892e-07
 3.85463e-07
 -2.3841e-06
-1.69164e-88
-1.72405e-88
-3.79314e-07
-1.59145e-88
-8.06759e-08
  8.5368e-89
 1.38597e-88
-7.94736e-47
-7.97785e-89
-6.60271e-89
-5.75975e-89
-1.37187e-89
-2.21422e-46
 2.90773e-20
-4.38481e-83
 3.79777e-08
 6.88305e-07
-3.44298e-85
 8.18343e-89
 1.33551e-07
-1.60401e-88
 1.22827e-88
-5.65953e-90
 2.47375e-07
  3.1391e-89
 1.30605e-89
 6.25654e-89
 9.29527e-08
-6.15431e-89
 5.72887e-89
 2.60716e-89
-4.84356e-89
 6.71614e-89
 5.41968e-89
-2.07028e-89
-1.69636e-71
 2.44483e-07
-6.44027e-89
 8.53234e-08
-5.27659e-18
 5.18483e-89
 9.01818e-89
-1.36248e-88
 4.43156e-89
 3.54122e-89
-9.61967e-77
 8.41494e-54
-4.19457e-89
 1.03903e-08
 -2.5278e-38
-8.07017e-08
-8.33569e-89
 1.40666e-89
-1.74909e-88
-1.64531e-89
-1.55701e-08
-3.62042e-15
 1.41023e-53
   5.762e-90
 3.45517e-08
-2.92293e-82
-1.50463e-88
-8.95679e-89
 2.31998e-10
 8.60116e-89
 7.20074e-89
 8.66095e-08
-1.39017e-88
-1.74692e-88
-3.53871e-50
-5.64186e-07
 5.94342e-89
 1.46344e-69
 1.49058e-88
-7.85471e-89
-1.44113e-88
 8.92905e-07
-8.68453e-89
-3.78104e-90
 -3.8956e-10
-3.90378e-08
 -1.7303e-88
  3.5164e-89
 7.38622e-91
-1.65661e-88
-1.19219e-08
 3.61077e-89
 2.76353e-18
-1.17493e-88
-1.30358e-88
-4.08595e-90
-1.69205e-30
-1.10403e-08
-6.65617e-87
-5.10937e-71
 1.69747e-88
-2.16652e-89
 1.03503e-88
-1.51567e-88
-1.40793e-89
 1.60923e-89
 1.33739e-88
-1.36942e-88
-1.63433e-88
 4.16009e-62
-3.32111e-89
-2.77376e-15
 2.29564e-07
 6.22217e-89
 5.32284e-89
 2.75937e-06
 4.88938e-89
 6.24761e-89
 1.13365e-88
-1.32665e-88
 7.90928e-89
 1.32057e-88
  9.5791e-89
 3.97714e-08
-1.67733e-88
 1.47712e-88
 1.12034e-88
 3.26591e-06
-1.33128e-88
 -3.3162e-83
 1.94526e-08
-1.45678e-88
 1.61629e-06
-2.03781e-08
-1.14967e-88
-1.74017e-89
 1.09259e-06
-6.71345e-09
 2.58349e-89
 1.12955e-88
 1.19253e-88
 4.23249e-08
 1.59667e-88
 1.66772e-63
 5.69262e-89
 4.44447e-07
  1.5723e-88
-1.05467e-08
-7.83663e-89
 8.82012e-89
-2.68634e-89
 1.07415e-06
 -2.6368e-09
-1.13369e-88
-6.60086e-89
 5.25065e-89
-1.47955e-88
-1.36271e-88
-4.85624e-50
-9.88048e-89
 6.43686e-89
 -1.5484e-88
-6.22048e-89
 6.10463e-89
-7.68224e-89
-1.60474e-07
-1.38652e-88
-1.65009e-88
 2.27377e-89
 7.15602e-89
 1.30224e-88
-3.91851e-89
 6.62646e-89
 1.17892e-88
-1.42549e-88
-5.91061e-89
 3.19863e-07
-1.67713e-88
 3.39963e-79
  7.9844e-89
 1.18607e-06
-1.62465e-88
 7.99931e-89
  4.1854e-06
-9.35567e-89
-1.68312e-88
 -1.7136e-88
-5.51286e-15
-3.80136e-08
 6.38413e-89
 2.23625e-08
 1.24341e-88
 8.57653e-89
 1.44313e-88
-8.52383e-09
-4.20351e-09
-3.28778e-89
-3.27389e-08
-5.41904e-15
   -1.43e-09
-6.39976e-89
 1.61931e-88
-4.21644e-08
-1.80053e-88
-3.89891e-07
-8.49411e-90
-1.27312e-06
  3.3844e-09
 3.63022e-08
 1.72093e-88
 1.53841e-88
-6.40946e-89
-3.14443e-09
 5.15375e-89
 6.72503e-89
-8.39484e-89
 -9.0186e-69
 7.81689e-89
 3.90964e-89
 1.25476e-88
-4.02784e-89
-1.18961e-88
 6.75202e-89
-1.31305e-88
  4.3024e-18
-6.28961e-87
-1.54642e-48
-1.56649e-16
 1.17308e-88
-1.74791e-68
 -1.6582e-89
-1.29009e-88
-1.05526e-88
 1.17473e-88
 6.13417e-54
 1.06289e-38
-1.40299e-07
-1.38558e-90
 1.55232e-24
-6.23958e-10
-1.82331e-89
-3.06957e-09
-1.40724e-88
-1.98163e-90
 8.90599e-89
 1.08804e-88
 9.63481e-89
-2.77339e-89
 4.67635e-90
-4.68525e-89
 -7.5981e-89
 1.06003e-07
-2.96848e-12
 1.22626e-07
  9.7274e-07
 6.54588e-08
 -1.2874e-88
-1.96665e-76
-1.48042e-88
 1.70847e-88
-4.40392e-90
 9.11963e-18
-2.82396e-10
-3.10877e-08
  -4.717e-89
-8.49639e-89
 6.43289e-89
-5.29267e-08
 9.59286e-89
 1.30307e-88
-5.47521e-90
-9.79582e-89
 2.45067e-06
 6.07895e-08
 8.23382e-89
 7.45922e-89
-1.83221e-10
-3.61058e-90
-2.85667e-08
-6.40979e-08
 1.31815e-88
-3.77155e-89
 6.22954e-09
-3.40169e-89
-2.54406e-52
 2.91442e-07
-1.74515e-88
-2.17474e-08
-1.48744e-76
 -1.2922e-09
-1.26809e-89
-4.48656e-08
-2.32804e-09
-1.12314e-07
-8.66376e-89
-1.69814e-88
-7.78986e-09
-6.87596e-09
-9.76486e-07
 4.00843e-89
 4.34417e-18
-1.13518e-88
 2.47067e-06
-1.98098e-09
 -1.5212e-07
 2.44838e-89
-1.41931e-89
 1.97447e-09
-1.69933e-88
 3.26464e-89
-1.47628e-88
 1.52631e-88
 8.83429e-54
 1.48562e-88
-6.36826e-89
 -5.9857e-89
 9.55209e-89
 1.85558e-53
 1.66156e-19
-2.52876e-82
 2.17015e-07
-3.56898e-09
-3.57308e-89
-1.36565e-88
  -2.463e-07
 5.98906e-89
-1.24101e-88
 8.17847e-89
 -9.4693e-09
 1.32431e-88
 -6.0428e-89
-3.67544e-89
-3.02196e-07
-1.18321e-88
 -1.2554e-88
 1.23733e-88
 8.84029e-89
 4.25454e-89
-1.73436e-88
 1.09219e-88
-1.07105e-88
-1.38786e-88
 7.95531e-89
-1.12193e-88
-1.72521e-88
-1.66426e-88
 1.02282e-89
 1.05278e-88
-4.00679e-89
-5.08784e-89
 4.62171e-89
 1.28289e-88
 5.76123e-89
 -1.7183e-88
 1.74003e-88
 1.29444e-89
  7.0339e-89
-1.32396e-88
-8.75679e-89
-7.43947e-89
-1.82262e-88
 3.42823e-89
  7.1129e-89
-1.63368e-88
 9.82397e-89
 1.27867e-88
 1.42643e-88
 4.34562e-90
 -1.1884e-89
 1.51485e-88
-6.87324e-89
  6.3289e-89
-1.69597e-88
-1.71476e-88
 1.33374e-88
 -1.5984e-88
-1.55624e-88
-3.86945e-89
 1.27716e-88
-1.34143e-89
 9.27052e-89
-8.36387e-90
-6.74218e-89
-3.19794e-89
 2.08452e-90
-7.57162e-89
 1.63243e-88
-1.09873e-88
-2.58336e-89
-1.06622e-88
   -1.99e-90
-2.58171e-89
 1.09939e-88
-1.13158e-88
-6.90671e-90
 2.58815e-89
-1.67587e-88
-4.65605e-89
 -1.5207e-88
 2.80666e-90
-7.73721e-89
-3.85241e-89
-1.16201e-88
-6.46914e-89
-2.77222e-89
-1.65124e-88
-4.22535e-89
-1.06852e-90
-2.15404e-89
-9.68345e-89
 1.67795e-88
-1.11132e-88
 7.70797e-89
-8.19234e-89
 3.91665e-89
-1.03133e-88
 2.46385e-89
 2.01127e-89
-3.07279e-89
 1.81083e-88
  9.5769e-89
  1.4956e-88
-2.70311e-89
 2.34108e-89
-1.45895e-88
  1.4834e-88
-1.33005e-88
-1.31204e-88
-8.05171e-89
-1.02796e-88
 5.38808e-89
 2.43889e-89
 4.09576e-89
 1.19958e-88
 1.41976e-88
-1.69061e-88
 1.37112e-88
-8.25748e-89
 1.21482e-89
-6.67256e-89
 2.86876e-90
-2.35346e-90
 4.42034e-90
-1.02348e-88
 9.80013e-89
 -1.3871e-88
 -2.3203e-89
-5.96571e-89
 6.36807e-89
 1.28347e-88
-6.08711e-89
-2.28472e-89
 9.56104e-89
  9.4376e-89
-1.81733e-88
 1.31994e-88
 6.04194e-89
 -1.3246e-88
-1.81507e-88
  1.6218e-88
-5.29781e-89
 5.46518e-89
 4.27245e-90
 1.70258e-88
-7.68752e-90
-3.60488e-89
-1.81101e-88
-5.28727e-89
 6.36545e-89
 1.33256e-89
 6.26798e-89
-1.15774e-88
-1.71325e-88
-1.15197e-88
 -3.5844e-89
 1.08955e-88
-7.16287e-89
 1.23231e-88
-1.32999e-88
  1.7433e-88
 6.92813e-89
-1.15924e-89
 -3.0814e-89
-1.74052e-89
-9.95134e-89
-3.02692e-89
-6.77083e-89
 1.43184e-88
 1.95491e-89
-6.69373e-89
 1.23068e-88
 1.48849e-88
 1.69993e-88
-5.49569e-89
  1.3681e-88
-1.99919e-89
 9.12724e-89
 1.37987e-88
 1.09414e-88
-2.73701e-89
 -3.0984e-89
-1.02036e-89
 3.91343e-89
-2.00307e-89
 5.68778e-89
-1.79007e-88
 -9.3373e-89
 1.67527e-88
 1.26503e-88
-4.40944e-89
  1.5956e-88
 1.34869e-89
 1.26591e-88
-5.35507e-89
  1.7836e-88
-1.55219e-88
 9.84582e-89
-7.16454e-89
 1.70243e-88
-6.42896e-89
 4.36954e-89
 1.11014e-88
-9.77373e-89
 3.13911e-89
 -1.2624e-88
-1.43224e-88
-1.70898e-88
 1.47311e-88
 1.77041e-88
 1.20794e-88
-6.23565e-89
-3.62398e-89
-7.17065e-89
 1.59056e-88
 1.26008e-88
 1.67449e-88
 1.62327e-88
-1.49662e-88
  1.5268e-88
 1.06533e-88
-1.14786e-89
 1.29943e-88
 -6.2277e-89
-6.71842e-89
-1.05905e-88
-6.62141e-89
-4.01252e-89
 1.74832e-88
 4.44186e-89
 -5.2179e-89
-7.17548e-89
-9.41829e-89
-1.23462e-88
 1.27859e-89
 1.19486e-88
 -6.7424e-89
 5.18397e-89
 1.30867e-88
 -1.0241e-88
 4.65839e-89
 6.93637e-89
 1.75113e-89
-1.71953e-88
 1.79935e-88
-5.72968e-90
 1.36333e-88
 1.65088e-88
-2.56992e-89
 1.68949e-88
  1.3547e-88
-1.01463e-88
-2.48267e-89
 8.31163e-89
 1.85381e-89
 9.02672e-89
  1.5949e-88
 1.34602e-88
-1.32155e-88
 1.52024e-88
-3.27612e-90
-2.05577e-90
-1.02027e-88
 8.48191e-89
 5.67603e-89
 9.30367e-89
 2.20085e-89
 1.71614e-88
-3.74205e-89
-2.94217e-89
-1.13093e-88
-1.73134e-88
-1.42355e-88
 8.66965e-89
-1.62808e-88
-1.44717e-88
 -1.0133e-88
 1.55803e-88
-1.61926e-88
 5.52489e-89
 1.42455e-88
 1.55823e-88
 1.36064e-88
-6.46688e-89
  5.6642e-89
-2.76948e-89
-1.56698e-88
 3.38347e-89
-7.53896e-89
-1.06575e-88
  3.5622e-90
 1.03612e-88
  7.3647e-89
 8.38129e-89
 6.13458e-90
-5.18896e-89
-5.44728e-90
-1.54154e-88
-6.25721e-89
  1.3941e-88
 -1.2975e-90
 6.61314e-90
 1.48555e-88
 3.86257e-89
-8.89873e-89
 1.68025e-88
 7.61872e-89
-8.03922e-90
 1.41531e-88
 9.65396e-89
-1.35087e-88
 1.01689e-88
 7.00653e-89
 -1.8132e-88
-1.45277e-88
-5.55897e-89
-2.67369e-89
-1.19697e-88
 1.60523e-88
 3.65144e-50
-4.39945e-89
-9.26505e-69
 7.78166e-06
-1.52644e-88
 3.00146e-05
-6.72348e-14
 3.53856e-84
  6.0175e-89
-1.46571e-88
 9.74502e-89
 1.72487e-89
-9.33085e-73
 1.73958e-52
-8.42325e-38
 1.59698e-05
-8.03718e-38
 4.48579e-05
 1.49204e-88
-1.75279e-88
-7.15314e-89
 6.34463e-89
-7.73777e-08
 3.75207e-30
 3.58824e-47
 -1.2713e-88
 1.75477e-05
 4.01726e-82
  2.8411e-89
-5.25574e-89
 6.47538e-09
-1.41255e-76
 1.15205e-88
  2.5086e-05
 1.10011e-88
-3.57527e-61
-2.41742e-66
  9.5148e-08
-1.30807e-88
 1.63617e-88
 1.53301e-88
 -1.7404e-88
-1.43131e-90
-8.85262e-05
 -6.9995e-89
 1.64354e-88
 7.82149e-89
-3.98195e-06
-4.87088e-89
 4.53367e-89
  1.3434e-88
  6.2038e-89
 3.85016e-48
-3.31239e-88
-3.53661e-06
 5.99789e-89
-1.20897e-88
 1.59316e-88
-4.49406e-28
 3.22236e-07
-9.37244e-87
-6.61745e-69
 -1.6624e-88
-1.72109e-88
-1.32683e-88
 1.26049e-88
 1.25529e-88
-2.92018e-89
 6.13463e-89
 -1.4596e-88
-4.78818e-89
  2.8209e-07
-1.37722e-88
 1.41964e-07
-1.22463e-09
-2.54386e-89
 1.15022e-88
-2.50109e-07
-8.03951e-89
-3.14404e-47
-2.07855e-89
-1.28353e-88
 1.28332e-88
 8.79787e-89
 -1.2212e-88
 1.47234e-05
-3.43393e-89
-6.07392e-89
 1.52311e-89
  6.8441e-07
-1.53244e-88
 3.08595e-79
  5.5822e-07
-1.37206e-88
 4.92791e-10
-1.77675e-08
 1.70684e-88
 7.53731e-89
-2.35026e-05
 7.72775e-67
 1.11691e-88
 8.77119e-89
-1.67864e-08
 2.41601e-05
-1.02714e-86
-5.71674e-58
-5.14881e-89
-2.93796e-05
-2.79909e-08
-1.51239e-55
 3.04763e-89
 8.36231e-85
  1.0432e-88
 2.95064e-05
-6.09787e-89
-7.41564e-81
-1.60652e-88
 8.69601e-89
-7.85573e-89
 3.68577e-89
 5.75044e-47
-4.95236e-89
 -2.3468e-89
-5.88903e-89
-4.45135e-90
-7.36243e-89
-7.63729e-89
-2.56351e-12
-1.80548e-88
 5.92208e-89
-1.42302e-88
 1.13421e-88
-3.53643e-89
-6.52501e-89
 1.01262e-88
-1.79281e-88
 5.49971e-89
-1.46414e-88
-1.70165e-07
 1.09122e-88
-4.17173e-61
-1.70797e-88
-1.65691e-08
 8.28297e-90
 -5.0849e-90
-2.03957e-07
-9.53519e-90
 1.65417e-89
-1.38728e-89
-6.03876e-17
 3.48945e-05
   1.768e-88
 1.16424e-05
 2.99125e-89
-2.42343e-89
 4.01918e-89
-6.95619e-07
 2.79817e-67
-1.89869e-88
 2.71838e-05
-8.38074e-08
-1.23206e-88
 3.36343e-79
  6.5148e-89
-2.59618e-06
 -2.3505e-89
-1.51206e-07
-1.33478e-88
-2.49279e-06
 5.66925e-07
  2.1148e-05
-8.36779e-89
-1.28569e-88
 1.45707e-89
 4.44601e-29
 4.86241e-89
-1.65043e-88
 -8.4949e-89
-3.63716e-69
 3.36275e-90
 -1.7306e-88
-6.37507e-89
-2.25691e-90
-1.28417e-88
  1.4844e-88
 1.15342e-88
-4.90895e-06
 -8.6198e-89
 -1.2336e-47
 1.13318e-06
 4.79241e-89
 -6.8326e-69
 1.77671e-88
-4.81678e-89
-4.22816e-89
-1.08035e-89
-2.12971e-51
 1.30786e-06
 1.04015e-05
-5.93321e-89
-8.51211e-15
 1.36224e-89
-1.92612e-87
 -6.0497e-89
 1.31691e-88
-3.61457e-89
 -1.8498e-86
 1.48926e-88
 6.11834e-89
-1.29023e-88
 -3.0008e-89
 7.04012e-89
 1.06454e-88
 2.90803e-05
 -5.6146e-05
 1.37248e-05
 2.68899e-05
 2.33828e-05
 -1.2194e-88
-2.79189e-78
-2.76796e-89
 1.23047e-88
 1.32176e-88
 5.68164e-07
-1.07268e-88
 6.79703e-06
 1.39169e-88
 -1.7911e-88
-6.65576e-89
 6.58006e-06
-5.61636e-89
 1.51449e-90
-1.73805e-88
 1.65383e-88
 6.74584e-05
 1.71568e-14
-5.30601e-89
 1.11404e-88
 1.75123e-58
-1.74174e-88
 6.71399e-06
 1.37692e-05
 7.85058e-89
-9.25195e-83
 1.08885e-05
  2.0471e-89
-1.49922e-51
-1.41732e-05
-1.25808e-88
 4.33681e-06
-6.18258e-76
  2.4756e-05
  1.1088e-88
 1.13595e-05
-8.55047e-62
 2.45834e-05
 -1.4014e-88
 1.35636e-88
-4.82616e-31
 2.19296e-48
-5.17914e-89
 -4.9552e-89
 -2.5147e-14
-4.34829e-89
-4.58753e-08
 1.00372e-88
 1.63827e-07
 6.27516e-89
  2.9479e-89
 3.09567e-06
 1.19362e-88
-8.17893e-07
-8.41895e-89
 -3.2935e-89
 9.25806e-47
-3.97919e-89
 1.69814e-88
  9.3481e-89
-9.47181e-89
 2.75934e-46
-5.95714e-18
-7.67854e-83
-3.63207e-07
-2.36123e-32
-4.50931e-87
 6.92448e-89
-3.18874e-07
-9.79342e-89
  2.2584e-89
 1.99521e-89
 9.05781e-07
 2.88362e-85
 1.52678e-88
 3.70013e-89
-4.80731e-07
-9.60852e-89
-4.49235e-89
 2.42817e-89
 1.48945e-88
 1.66834e-88
-3.45736e-53
 3.75037e-89
-4.23957e-70
-7.42506e-08
-1.77728e-88
-2.81246e-09
-8.10873e-16
-1.19143e-85
-1.08749e-88
 9.16384e-90
-1.46224e-88
 1.54843e-88
-7.85837e-74
 7.08428e-51
-8.91709e-38
-2.02293e-08
-5.55036e-39
 1.14951e-06
-1.38919e-88
-1.63932e-88
 1.57172e-89
 1.03284e-88
-3.59105e-07
 -7.0396e-51
 1.52591e-46
 -8.3425e-89
-1.75306e-09
-1.23873e-84
 1.23135e-88
 3.89389e-89
 -8.0895e-11
-1.93356e-77
-1.05854e-88
-2.38504e-09
-5.21624e-89
 2.22415e-62
-6.05012e-69
 2.20813e-07
-5.05189e-88
 1.29834e-88
-1.21414e-88
-7.31827e-89
  1.0238e-88
-5.55639e-87
-1.46647e-88
-9.74735e-89
 1.18987e-88
 3.05283e-06
-1.01708e-88
 1.62346e-88
 4.97578e-89
 9.62869e-89
-1.25156e-57
-3.35184e-88
 6.82093e-07
-1.40976e-88
 1.37731e-88
 1.54658e-88
 1.82734e-28
-5.68548e-10
 -1.1975e-86
-1.20736e-69
-1.17287e-88
 8.77235e-89
 1.10466e-88
 1.28292e-89
 1.68697e-88
-1.55258e-89
-1.17748e-88
-1.22837e-88
-6.79889e-89
 1.39858e-06
-1.37415e-89
  7.8084e-07
-2.79998e-19
 2.18897e-89
-6.31011e-89
-9.96243e-07
-1.28995e-88
 2.42731e-48
-1.62471e-88
 1.03041e-88
-6.85414e-89
  1.0314e-88
-4.03787e-89
-1.44482e-09
 1.44442e-88
 -8.4945e-89
-1.38141e-89
 3.49551e-06
 1.75902e-88
 -7.8116e-82
-6.70804e-09
-1.23682e-88
 -1.3291e-18
 1.52591e-09
 7.14254e-89
 7.15907e-89
-6.59777e-08
 1.35934e-88
 1.31032e-88
 1.59931e-88
-6.13074e-11
-2.37616e-09
-1.70272e-88
 1.27666e-58
 1.39161e-88
-1.18087e-07
-1.39764e-07
 1.15852e-83
 1.48652e-88
-7.86034e-86
 1.13188e-88
-3.83978e-07
-1.97479e-89
-4.71596e-81
 9.39168e-89
 -5.7603e-89
-1.21548e-89
-1.02194e-88
 3.29352e-46
-1.85501e-89
-1.04727e-88
-8.11167e-90
 4.00461e-89
 1.62741e-88
 5.30559e-89
-6.82012e-57
 5.20348e-89
-8.35992e-89
-1.17164e-88
 7.69717e-91
-1.05965e-88
-3.81143e-89
 1.17984e-88
-9.39587e-89
 1.44007e-88
 7.49056e-89
-8.02582e-07
 1.31232e-90
-1.05006e-62
 3.57982e-90
-1.92945e-23
 1.59436e-89
 8.36716e-89
 -9.5517e-07
 8.87338e-89
-4.70852e-90
  1.6563e-88
-2.98631e-16
  3.2082e-06
-1.57777e-88
-1.13614e-09
 1.52926e-88
 1.63798e-89
-8.42407e-89
   3.428e-07
-6.10328e-88
 2.71303e-89
 3.26298e-06
-3.20366e-07
 9.23231e-89
-1.78419e-88
 6.21401e-89
 2.26041e-06
   1.219e-88
 5.53814e-08
-1.66378e-88
-3.79305e-08
 2.90156e-06
-2.09605e-09
-8.27354e-89
 -1.7333e-88
 7.79023e-89
 3.33602e-33
   9.262e-89
-6.34269e-89
 2.19232e-89
-1.58158e-72
 -8.0094e-89
 9.84835e-89
 1.63268e-88
-5.55932e-89
-2.58033e-89
 1.33897e-88
 1.43074e-88
 7.51242e-07
-8.69628e-88
 6.71195e-49
 4.68079e-07
-1.04366e-88
-3.07966e-72
-1.72825e-88
-9.03599e-89
-1.04126e-88
-1.18635e-88
 4.71565e-51
 6.56032e-06
 5.92583e-06
 4.60302e-89
 1.93756e-16
 9.67564e-89
 3.53055e-88
 6.06501e-89
-7.62526e-90
 7.87623e-89
-9.33706e-86
 1.11226e-88
-8.16114e-89
 5.88658e-89
-1.51165e-88
-1.65425e-88
 4.83827e-90
-2.88946e-09
 1.75718e-06
 -2.4004e-08
-3.35077e-07
-2.40441e-09
 -1.0589e-88
-1.20405e-77
-1.95854e-89
-1.78302e-89
 1.64809e-88
 2.87276e-06
  7.4088e-89
 -8.2439e-32
 5.35116e-89
 1.05609e-88
-7.52997e-89
-6.38603e-09
-3.06573e-89
  1.5868e-88
 4.75148e-89
-6.73813e-89
-8.65278e-07
-5.98693e-19
-1.70916e-88
 -1.7429e-88
 1.51097e-88
-7.02493e-89
-1.73908e-15
-7.17494e-32
-5.33961e-89
 -2.2066e-83
-1.06873e-09
 1.19932e-88
-1.51805e-53
-2.01079e-07
-1.81378e-88
-9.58047e-23
-4.11286e-78
-2.44453e-09
  -2.563e-89
-5.08105e-13
 1.58015e-88
-1.33839e-88
-7.86121e-89
 2.46757e-89
-4.61926e-51
-9.71335e-58
-2.45659e-89
-5.89056e-89
  7.5552e-16
-1.59348e-88
-3.37996e-13
-1.40514e-88
-7.05231e-13
 6.73533e-89
-1.32526e-88
-2.52912e-10
  1.7906e-88
-4.01044e-06
-1.50765e-88
 -5.6311e-89
 3.16596e-46
 6.94623e-90
-1.18676e-88
 1.39089e-88
-8.13427e-89
 9.38032e-46
 -2.4186e-17
 -1.0737e-86
-2.66372e-07
-5.42518e-51
-9.58901e-87
 1.69815e-89
 1.02952e-08
 1.25815e-88
 -1.4064e-88
-5.64471e-89
-2.26212e-10
-5.59387e-86
 6.69253e-89
 1.58912e-88
 3.45496e-08
-5.93804e-89
-1.63899e-88
 1.02803e-88
-1.74324e-88
-1.14147e-88
 1.34404e-88
-1.77239e-88
-1.79838e-88
 1.65917e-88
-5.12718e-89
-1.38858e-88
-9.43326e-90
 1.23303e-89
-1.82066e-88
 9.15022e-89
 7.68328e-89
 1.31501e-88
-1.11648e-88
-5.96468e-89
-1.27434e-88
 9.27796e-89
 1.39613e-88
 2.66453e-89
 3.62977e-89
 1.81251e-88
 1.52476e-88
-1.74115e-88
 1.60269e-89
 3.71047e-89
 1.67075e-88
-1.26267e-88
 1.60002e-88
 -1.7912e-88
 1.58814e-88
 1.67956e-88
-1.10989e-88
 1.10921e-88
 1.72996e-88
-1.08549e-88
 9.45418e-89
-6.05732e-89
-6.51293e-89
-9.71883e-89
 1.34035e-88
-6.49174e-89
 1.76592e-88
 2.85711e-89
-1.15713e-88
-1.17353e-88
 1.51202e-88
-6.08694e-89
 1.57705e-88
 1.08518e-88
 1.48054e-88
 1.17059e-89
 1.07473e-88
 1.18233e-88
 1.98692e-89
-5.87974e-89
-2.69589e-89
 4.64777e-90
 -2.7867e-90
-4.92535e-89
 7.80564e-90
-2.62694e-89
 -6.3594e-89
 7.90948e-89
 -9.7645e-89
-7.28954e-89
 1.52824e-88
 1.79175e-88
 4.88095e-89
-9.46025e-89
 -1.0031e-88
 5.47868e-91
 2.27581e-89
-1.06015e-88
-1.53178e-88
 8.93228e-89
-4.10898e-89
 1.80303e-88
-1.53844e-88
-6.56816e-89
 1.06524e-88
 1.76489e-88
 1.28302e-88
 3.16998e-89
 1.12425e-88
-3.41254e-89
  1.5518e-88
-9.68309e-89
 1.52801e-88
-2.99032e-89
 3.61937e-89
-2.16908e-89
 1.26106e-88
 1.54878e-88
-1.24893e-88
-1.53836e-88
-1.00315e-88
-1.54366e-88
-1.56958e-88
 1.30773e-88
-6.66906e-89
-7.49906e-89
 -5.0976e-89
 1.38346e-88
 1.27222e-90
-2.18758e-89
 4.53714e-89
 1.42461e-88
-2.38701e-89
  7.3806e-89
-1.05518e-88
-9.96429e-89
 6.79976e-89
-1.59513e-88
 1.14335e-88
-1.87438e-90
-1.13598e-89
 8.72185e-89
 8.35728e-89
-4.08562e-89
-1.24982e-88
-6.25304e-89
 1.19731e-88
-1.81173e-88
-8.99496e-89
 1.77116e-88
-1.52731e-88
-7.98604e-90
-1.59547e-88
-1.27411e-88
-5.95099e-89
-4.39593e-89
-2.01239e-89
 7.17922e-89
-8.79107e-89
 1.63426e-88
-1.32381e-88
 1.39739e-88
  1.2359e-88
 2.60275e-89
  3.1248e-89
-1.64225e-88
 1.08663e-88
-8.30514e-89
-1.41459e-88
 4.07008e-89
 9.73524e-89
 2.94589e-89
-5.43776e-89
-1.37175e-90
 1.70881e-88
 2.91898e-90
 1.18376e-88
 1.08315e-88
 4.02416e-90
-1.53871e-88
 1.03134e-88
 3.35711e-89
 2.04215e-89
 1.25866e-88
 8.84377e-89
  1.4319e-88
-1.00391e-88
-1.13983e-88
  3.2685e-89
-6.02318e-90
-1.32854e-88
 8.25826e-89
-4.85812e-89
 1.73014e-88
-7.36868e-89
 1.64945e-88
-1.73507e-88
-1.47321e-88
-1.00403e-88
-1.32689e-88
 7.56579e-89
 1.79227e-88
 7.90482e-89
-1.61017e-88
-4.44164e-90
  6.7632e-89
 2.41805e-89
-6.83626e-89
-6.34997e-90
-1.54092e-88
-3.99551e-89
-8.55126e-89
 6.17569e-89
 1.62745e-88
-1.41944e-88
-3.21023e-89
 1.23637e-88
-6.00564e-89
 3.61927e-89
-2.59746e-89
 1.16199e-88
 8.56171e-89
-1.25689e-88
 -1.1468e-88
 7.63346e-89
-1.70976e-89
-1.32032e-88
 8.51052e-89
 1.78595e-89
 -5.0157e-89
 1.34695e-88
-8.87795e-89
-5.32269e-89
 3.14459e-89
 -6.7518e-89
  1.2461e-88
 -8.3219e-89
 1.38941e-88
 -1.2605e-88
 9.27091e-89
 1.67127e-88
 1.62731e-89
  -1.751e-88
 4.65865e-89
-3.27926e-90
-1.34766e-88
-1.67813e-88
-6.19388e-89
-1.25444e-89
 5.06581e-89
 9.43647e-89
-7.86428e-89
-4.60217e-89
 1.50954e-88
-1.10443e-89
-1.51984e-88
-4.84407e-89
 3.92022e-89
 1.15399e-88
 1.51697e-88
 1.71323e-88
  6.7797e-89
 -1.1938e-88
-6.42005e-89
 -8.3054e-89
 -4.6194e-90
-1.21888e-88
  1.6005e-89
-4.79757e-89
-6.56597e-89
-7.35828e-89
-6.31461e-89
 1.32892e-88
-6.64051e-89
 1.65719e-88
-5.26846e-89
-1.88931e-89
 1.80184e-88
 6.76547e-89
 1.50841e-88
 4.85452e-89
-2.02776e-89
-1.10099e-88
-1.79773e-88
-5.16206e-89
 6.11347e-89
-1.49479e-88
 8.22168e-89
  -8.196e-89
 1.48198e-88
 5.16168e-89
-9.29336e-89
 3.36982e-89
 1.14515e-88
  2.5144e-89
 1.32922e-88
 -7.2401e-89
 8.55343e-89
-3.33696e-89
 6.19014e-89
-1.62422e-88
 7.53257e-89
 1.81033e-88
 1.52747e-88
-1.73376e-88
 1.64455e-88
-8.22342e-89
 -9.9913e-90
 1.62342e-88
 1.67699e-88
-4.14476e-89
 2.85903e-89
-3.48759e-89
 3.07314e-89
  3.1095e-89
 9.57815e-89
-9.04308e-89
 6.38937e-89
-4.29859e-90
 9.88728e-90
 2.97949e-89
-1.34979e-88
 9.92317e-89
-1.18804e-88
 1.61815e-88
-5.79212e-89
-3.09892e-51
-9.28832e-89
 1.80816e-70
-2.39824e-07
 1.51296e-88
-1.18582e-06
-2.34599e-16
-3.30604e-86
-1.64378e-88
-1.17339e-88
 1.32191e-88
-6.43338e-89
-1.19799e-73
 1.03522e-50
-2.60292e-40
-5.41282e-07
-6.89044e-39
 4.08239e-07
 4.42123e-89
 1.71903e-88
-1.80453e-89
  1.3606e-88
-4.17127e-17
-1.36499e-50
 9.72699e-46
-9.90026e-89
-7.09163e-07
-2.51364e-84
-3.55284e-89
-1.77824e-88
-9.79978e-11
-5.22174e-77
-8.84287e-89
-1.00644e-06
 1.41579e-88
 1.53061e-62
 7.99859e-89
 4.09968e-07
 -1.8573e-88
 9.78864e-89
 -1.0202e-88
 1.62776e-88
-1.48744e-88
-1.90925e-27
 9.27152e-89
-4.53983e-89
 1.48686e-88
 3.37053e-06
-1.59225e-88
 1.06015e-89
-1.41447e-88
 5.00759e-90
 1.62542e-58
-3.88392e-88
 6.96857e-07
 1.10292e-88
 1.77606e-88
 7.58148e-90
 -4.6397e-28
-2.39007e-08
-3.28046e-88
-3.21888e-70
 1.20631e-88
 1.05885e-88
-1.53961e-88
 7.99129e-89
 1.68734e-88
 1.08303e-88
 9.52322e-89
-1.65256e-88
 2.38924e-89
 1.54057e-06
 1.79798e-88
 1.58291e-06
 1.82818e-61
 9.02163e-89
-1.70269e-88
-6.28208e-09
 1.41442e-88
 3.80518e-46
-7.69077e-89
 1.82274e-88
 4.00697e-89
 6.97346e-89
 9.43079e-89
-5.92751e-07
-2.27006e-90
 8.96174e-89
 3.02772e-89
 2.96134e-06
-1.32898e-88
-3.39761e-79
-8.33945e-09
  1.7001e-88
 9.08098e-61
 3.05252e-09
 6.76263e-89
 1.34617e-88
-1.10148e-07
-1.99404e-89
 1.51639e-88
-3.74154e-89
-4.33035e-12
-9.72225e-07
-1.62286e-88
   2.101e-59
 5.70594e-89
 -3.0584e-08
-1.27329e-07
-1.95825e-69
-1.15215e-88
-2.13213e-86
 1.61815e-89
-1.03933e-06
-1.74845e-88
  -1.942e-78
 1.29829e-88
 5.16297e-90
-1.64487e-88
-2.21911e-89
 2.04555e-46
-1.15107e-88
 2.01031e-89
 1.60398e-88
-1.27394e-88
-1.40142e-89
 1.73085e-88
-9.52249e-39
-6.16942e-89
 1.11777e-88
-7.96337e-89
-9.23522e-89
-1.07935e-88
 7.68078e-89
  -1.262e-88
-8.79434e-89
 1.78942e-88
 1.13828e-88
-5.25619e-11
-1.71008e-88
-6.36031e-63
 1.11211e-89
-2.45815e-07
 1.46196e-88
-6.40429e-89
-2.08486e-06
-1.07909e-88
-1.16511e-88
 1.43861e-88
-2.61715e-16
 3.20439e-06
 1.37594e-88
-4.69821e-07
-1.18618e-88
 1.15246e-88
 3.19377e-89
 3.77985e-07
 1.06341e-88
-3.33022e-89
 3.52414e-06
 5.92987e-07
 7.52045e-89
-1.04419e-88
 1.10306e-88
 2.42988e-06
-4.76503e-89
 1.04239e-07
-3.36394e-89
-1.81198e-07
 2.94243e-06
-8.50783e-07
 1.38956e-89
   1.598e-88
 1.06283e-88
 1.14763e-31
-8.65394e-89
 -1.1698e-88
 5.21641e-89
-1.44755e-73
-1.55416e-88
 1.44325e-88
-1.59494e-88
 1.64456e-88
-6.09186e-89
-9.58337e-89
 9.78544e-89
 7.58499e-07
-5.53597e-88
 4.64917e-48
 5.57437e-07
 5.36241e-89
-2.89878e-73
-1.63941e-88
-1.62693e-88
  1.6829e-88
-1.19473e-89
 5.68474e-52
 7.64188e-06
 7.46385e-06
  3.8094e-89
 6.31244e-17
-6.79749e-89
 4.26322e-89
-4.77585e-89
-1.41376e-88
 2.97653e-89
-2.45646e-86
-7.60779e-89
-1.00367e-88
-1.55089e-88
-4.92156e-89
 -1.3834e-88
-4.28837e-88
 -1.1825e-06
 3.46506e-06
-4.91445e-07
-4.10011e-07
-9.68002e-07
-9.20671e-89
-1.81383e-79
 7.94498e-89
-1.50341e-88
 1.10804e-88
  2.9663e-06
-1.30756e-88
-3.30691e-08
-9.64572e-89
 2.34567e-89
 1.05134e-88
 -1.9026e-07
-1.20746e-88
-1.02425e-88
-2.77595e-89
-6.87755e-89
-2.36009e-06
 1.31423e-89
 1.43268e-88
-1.02222e-88
 1.19343e-88
-1.39396e-88
-3.45139e-08
 -6.6056e-08
-9.54579e-89
-4.54844e-85
-4.37395e-07
 6.98402e-89
-2.09688e-51
-6.93518e-08
-1.58437e-88
-1.74361e-08
-1.23605e-76
-9.87994e-07
-1.31069e-88
-5.10556e-08
 -1.1813e-70
-1.15292e-07
 1.11937e-88
 1.04602e-88
 6.27432e-62
 9.90707e-59
 1.44818e-88
-1.76855e-88
 3.22533e-16
-6.52386e-89
-4.33047e-11
-3.55739e-89
-1.21342e-16
-1.02381e-88
 4.44825e-89
-1.16917e-07
-6.05627e-89
-4.44841e-06
 1.37338e-88
 2.73205e-89
 3.38029e-45
-4.19067e-89
-8.51362e-89
-1.26568e-88
 1.74203e-88
 1.04813e-44
-1.14428e-17
-5.15634e-88
-7.62445e-12
 3.10881e-62
-3.46241e-88
 6.07593e-89
 2.21647e-08
 -1.5896e-88
-1.69352e-89
-9.46368e-90
-9.28883e-13
 -1.4451e-86
-4.04063e-90
-9.57611e-90
 6.83076e-08
 1.14885e-88
 1.37128e-88
 1.05109e-89
-1.69793e-88
-6.86283e-91
-3.00208e-51
-4.70148e-89
 1.75165e-70
 -2.3233e-07
 1.62584e-88
-1.14876e-06
-2.27268e-16
-3.22775e-86
 1.51104e-88
-1.72389e-89
 1.61341e-89
-1.38488e-88
-1.16055e-73
 1.00287e-50
-2.52158e-40
-5.24367e-07
-6.67511e-39
 3.95481e-07
 1.78296e-88
 1.01917e-88
 2.48664e-89
 5.40914e-89
-4.04092e-17
-1.32233e-50
 9.42302e-46
 1.10109e-88
-6.87001e-07
-2.43479e-84
-6.16768e-89
 1.48177e-88
-9.49354e-11
-5.05856e-77
-8.11349e-89
 -9.7499e-07
 4.88061e-89
 1.48278e-62
 6.27611e-89
 3.97157e-07
-5.63925e-89
 3.15686e-89
 2.24036e-89
 1.74993e-88
 7.53587e-89
-1.84959e-27
 5.08079e-89
-1.19234e-88
-1.25913e-88
  3.2652e-06
-8.49043e-89
-1.29915e-88
 8.92804e-89
  1.2224e-88
 1.57462e-58
-3.30874e-88
 6.75081e-07
 1.50951e-88
 6.45767e-89
 9.64423e-89
-4.49471e-28
-2.31538e-08
-2.67132e-88
-3.11829e-70
 1.89253e-89
 1.63466e-88
-6.60094e-89
-1.14565e-88
-1.19679e-88
  1.7903e-88
-7.49231e-89
 3.91796e-89
 2.83015e-89
 1.49243e-06
 3.18756e-89
 1.53344e-06
 1.77105e-61
-9.96134e-89
 -1.5593e-89
-6.08577e-09
 -1.1225e-88
 3.68627e-46
-4.24044e-89
 1.59308e-88
 2.17241e-89
-1.18247e-88
 1.13776e-88
-5.74227e-07
-1.49592e-88
-3.94429e-90
 -1.0338e-88
 2.86879e-06
-1.06317e-90
-3.29143e-79
-8.07885e-09
-1.64435e-88
  8.7972e-61
 2.95713e-09
-9.67221e-89
-1.79587e-88
-1.06706e-07
 1.01466e-89
 4.18704e-89
-7.37027e-89
-4.19503e-12
-9.41843e-07
 2.99387e-89
 2.03534e-59
-2.58863e-89
-2.96283e-08
 -1.2335e-07
-1.89705e-69
 9.61078e-89
-2.07426e-86
 2.11532e-89
-1.00686e-06
 -8.3919e-89
-1.88132e-78
 1.00287e-88
-5.12332e-89
 1.30966e-88
 1.79185e-88
 1.98162e-46
-5.23941e-89
 1.38109e-88
 9.90037e-89
-3.45508e-89
 7.82008e-89
 2.66601e-91
-9.22491e-39
 8.08916e-89
-1.01738e-88
-1.21055e-88
-5.95349e-89
 6.83775e-90
 1.97138e-89
 1.35229e-89
 -1.4552e-88
-1.73343e-88
 1.70584e-88
-5.09193e-11
 8.56863e-89
-6.16155e-63
 1.47192e-88
-2.38134e-07
-1.28715e-88
-9.95696e-89
-2.01971e-06
 6.19531e-90
-1.81579e-88
-1.51571e-89
-2.53537e-16
 3.10425e-06
 1.16556e-88
-4.55139e-07
 1.35696e-88
 3.28268e-89
-1.32099e-88
 3.66172e-07
-1.48906e-88
 9.59009e-89
 3.41401e-06
 5.74457e-07
 1.62803e-88
 5.29382e-89
 1.20888e-88
 2.35394e-06
-1.15167e-88
 1.00982e-07
 9.15559e-90
-1.75536e-07
 2.85048e-06
-8.24196e-07
 8.78275e-89
 1.73626e-88
-1.52269e-88
 1.11177e-31
 -1.0824e-88
-1.13662e-88
 -3.4711e-89
-1.40231e-73
 5.34592e-89
 1.02431e-88
-1.09954e-88
-1.22822e-89
 4.88292e-90
-1.56554e-88
-1.61317e-88
 7.34796e-07
-6.10811e-88
 4.50388e-48
 5.40017e-07
 1.01598e-88
-2.80819e-73
 -4.5545e-89
 4.04386e-89
-7.51643e-89
 1.36953e-88
 5.50709e-52
 7.40307e-06
  7.2306e-06
 1.62949e-88
 6.11518e-17
  5.8635e-89
 2.36015e-88
-8.20523e-89
 9.11751e-89
 2.75731e-89
-2.38515e-86
 1.59791e-88
  1.7514e-88
 6.67221e-89
 3.09536e-89
 9.52748e-89
-1.48219e-88
-1.14555e-06
 3.35677e-06
-4.76087e-07
-3.97198e-07
-9.37752e-07
 3.97976e-89
-1.75715e-79
-5.31476e-89
 2.72979e-89
 8.03299e-89
  2.8736e-06
 -1.1456e-88
-3.20357e-08
  3.8242e-89
 1.75268e-88
-9.46684e-89
-1.84314e-07
  1.5592e-88
 1.42283e-89
 6.06702e-89
 4.21023e-89
-2.28634e-06
-3.04523e-89
-1.12621e-88
-7.58574e-89
-5.29572e-89
-1.19778e-88
-3.34353e-08
-6.39918e-08
 1.57775e-88
-4.40476e-85
-4.23726e-07
-1.06661e-88
-2.03135e-51
-6.71846e-08
-1.33758e-88
-1.68912e-08
-1.19742e-76
-9.57119e-07
 1.79442e-88
-4.94601e-08
-1.14439e-70
-1.11689e-07
-1.48768e-88
 1.17182e-88
 6.07825e-62
 9.59747e-59
 1.19217e-88
-1.50821e-88
 3.12454e-16
 -2.4098e-90
-4.19514e-11
 6.75049e-89
 -1.1755e-16
 1.43216e-88
 1.73926e-88
-1.13264e-07
-1.59889e-88
 -4.3094e-06
 -1.0786e-88
 1.81194e-88
 3.27466e-45
 -1.1123e-88
-1.07764e-88
 4.24358e-89
-7.49856e-89
 1.01538e-44
-1.10852e-17
-3.43678e-88
-7.38618e-12
 3.01166e-62
-1.65882e-88
-1.67228e-88
 2.14721e-08
 1.17217e-88
 1.32232e-88
-5.01519e-89
-8.99855e-13
-1.38775e-86
-1.86949e-89
-1.73188e-88
  6.6173e-08
-1.27432e-88
 7.65952e-89
-1.48435e-88
-1.66513e-88
 6.82239e-89
-5.19943e-89
-1.43094e-88
 5.06985e-89
 2.24238e-89
-1.44198e-88
-1.92315e-89
 9.34722e-89
-6.96838e-89
-1.59093e-88
 -1.6381e-88
 5.33505e-89
-1.46809e-88
 7.38122e-89
-1.05391e-89
 -1.3738e-88
-2.47774e-89
 4.51109e-90
-6.30882e-89
-8.98574e-89
-4.55539e-89
  6.9038e-89
-3.38179e-89
-1.58699e-88
-1.31954e-88
-2.47276e-89
-9.19754e-89
-7.71081e-89
-1.30429e-88
-5.81323e-89
-6.13435e-89
 1.20073e-88
 7.21515e-89
-2.21598e-89
-1.15258e-89
-8.77216e-89
 1.59208e-89
 1.51521e-88
-1.76546e-88
 1.28515e-88
 1.74706e-88
-1.58079e-88
-4.31285e-91
  -1.544e-88
 9.80118e-89
 1.71308e-88
-1.09502e-88
-1.09063e-88
-6.47811e-90
 9.68796e-90
-1.66418e-89
 1.30246e-88
-1.03571e-88
 1.31818e-88
 1.53825e-88
-5.32466e-89
-7.52062e-89
-1.20447e-88
 5.19233e-89
-2.33574e-89
 3.69892e-90
 1.72858e-88
-8.55817e-89
-1.06447e-88
-3.15987e-89
 8.51706e-89
  -1.189e-89
   1.666e-88
 5.43945e-89
-6.15822e-90
 1.12818e-88
 4.68039e-89
 1.80414e-89
-6.99099e-89
 7.46823e-89
-6.62437e-89
 -8.0899e-89
 1.47459e-88
 6.97181e-90
 9.49009e-89
-2.51505e-89
 1.72608e-88
 4.28502e-89
 5.35567e-89
  1.2213e-88
 1.43787e-89
-1.81987e-88
-1.35374e-88
 7.62099e-89
 5.22146e-89
 2.35471e-89
-1.02388e-88
 4.27756e-89
 1.20243e-88
-2.65565e-89
 -1.7112e-88
 2.31171e-89
 1.43832e-88
 1.77758e-88
-1.04785e-88
-4.46236e-89
  1.0828e-88
 1.24297e-88
 1.55696e-88
-1.43927e-88
 1.66822e-89
-9.28447e-89
-4.25481e-89
-1.81563e-89
 9.64052e-89
-1.29944e-88
 1.38971e-88
 8.67164e-89
 9.51842e-89
 1.02311e-89
  2.6549e-89
 -7.2734e-89
 1.05224e-89
 7.34535e-89
-1.78821e-88
 -1.1956e-88
-8.52963e-89
-9.89311e-89
 1.05494e-88
 -1.4735e-88
 5.67905e-89
 1.16652e-88
 5.80455e-89
 1.83252e-89
 1.12113e-88
 1.35538e-88
  1.5598e-88
 3.80958e-89
 7.75381e-89
 1.29379e-88
 7.64468e-89
-8.80767e-89
-1.45763e-88
-1.48398e-88
 7.60452e-89
  1.3292e-88
-9.60642e-89
 3.27196e-89
 3.73398e-89
 1.81398e-88
-1.39346e-88
-1.18408e-88
-7.36328e-89
 5.34544e-89
 1.37323e-88
-7.01758e-89
 1.16172e-88
 -1.3027e-88
 1.31713e-89
 3.93693e-89
-9.53414e-89
-1.12335e-88
-2.62758e-89
 1.44982e-88
 8.82682e-89
-9.64597e-89
 9.82235e-89
  6.1951e-89
 1.23914e-88
 -6.5353e-90
  9.0328e-90
 1.80641e-89
 8.76661e-89
  4.5548e-89
 5.19439e-89
-1.85856e-89
-3.82857e-90
 1.38158e-88
-1.68163e-88
-1.48786e-88
 1.37259e-88
-1.25231e-88
-8.49158e-89
-1.18671e-88
 1.10502e-88
-1.29889e-88
-6.56833e-90
 4.43771e-89
-7.78809e-89
-1.75694e-88
-9.85505e-89
 9.05577e-90
-1.05751e-88
 5.74518e-89
 -2.8259e-89
 1.64795e-88
  1.4327e-88
-1.12332e-88
 4.44494e-89
 8.48875e-89
 6.34104e-89
-1.28815e-88
-7.93453e-89
-3.12204e-89
 9.90114e-89
 1.54877e-88
 1.32472e-88
-8.71141e-89
 1.10738e-88
 1.46587e-88
-5.36217e-89
 6.56998e-89
 -1.6094e-88
 4.37407e-89
 1.29307e-88
 1.31839e-88
 9.61296e-89
 -5.9558e-89
-6.08065e-90
-1.64048e-88
-5.29739e-89
  7.7647e-89
 2.72856e-89
 2.35533e-89
-4.71982e-89
 1.81305e-88
 6.05173e-90
-8.62249e-89
-1.13325e-88
-1.31796e-88
 1.80941e-88
 1.32364e-88
-7.83323e-89
-8.07015e-89
-8.11534e-89
-1.61618e-88
-1.08122e-88
-1.30978e-88
-6.64538e-89
-1.79681e-88
-1.66688e-88
 6.22027e-89
 6.82969e-89
 -1.4535e-88
-7.63536e-89
 1.53072e-89
 1.68767e-88
-1.62521e-88
 1.38027e-88
-1.96105e-89
-1.44291e-88
-9.72436e-89
 -1.2426e-88
 6.52727e-89
 1.08588e-88
 1.08194e-89
 6.42805e-89
-6.76574e-89
 1.06873e-88
 1.33234e-88
 -1.7175e-89
 1.05517e-88
 8.33009e-89
 8.67708e-89
-1.57482e-88
-1.80149e-88
 1.07431e-88
-8.33254e-89
 -1.2885e-88
 -1.4132e-88
-8.07283e-89
-1.13259e-88
 1.03161e-88
 1.69847e-88
-7.63313e-89
-1.55489e-88
   2.857e-90
-8.98612e-89
-1.35732e-88
-4.14127e-89
 7.28064e-89
-9.77451e-89
 4.36219e-89
 1.30824e-88
 1.49806e-88
-3.00872e-89
-4.06534e-89
 3.17892e-89
 8.45336e-89
-1.16078e-88
-1.72738e-89
-1.14938e-88
 1.71717e-88
 -1.1627e-88
 1.54111e-88
-1.68062e-88
-1.14141e-88
 7.92448e-89
-6.91091e-89
-6.07125e-89
 1.20203e-88
 3.24407e-89
 8.30636e-90
 4.10675e-89
 1.99905e-89
 1.14253e-88
 6.78563e-89
-1.59449e-88
-1.57905e-88
 1.14402e-88
 -1.8584e-89
 9.71795e-89
 -1.6564e-88
-1.57259e-88
 4.57066e-89
 1.66444e-88
-5.06813e-90
-1.77244e-88
 1.59361e-89
-1.02832e-88
-1.11043e-88
  1.8094e-88
-3.54917e-89
-1.21623e-88
-1.17626e-88
-6.36781e-89
-1.07407e-88
-4.94892e-89
 -1.6673e-88
   5.762e-90
 7.20764e-89
 1.35751e-88
-1.44094e-88
-1.01914e-88
-5.47832e-90
 5.81744e-89
-1.69958e-88
-1.19919e-88
  8.1003e-89
-1.45585e-88
 1.76761e-88
-1.19878e-88
 1.33873e-88
-1.71175e-88
-9.48588e-89
 -2.7175e-90
 1.77547e-88
 8.23512e-89
 2.31689e-90
 1.11857e-89
 1.61798e-88
 7.35517e-89
  9.8292e-90
-5.59909e-89
 1.34207e-88
  7.4481e-89
 6.26091e-89
-1.55497e-88
-1.57305e-88
 7.81569e-89
 3.25428e-89
 9.70494e-89
 3.16111e-89
 7.07266e-89
 1.77413e-88
-1.56164e-88
-5.33959e-89
-1.74842e-88
 -9.3805e-89
 -1.5469e-88
-1.38148e-88
-9.93406e-89
-9.22896e-89
 1.78003e-88
-8.82379e-89
-4.87031e-90
 -7.0119e-90
-9.29884e-89
-1.04816e-88
 1.77583e-88
 1.00475e-88
-1.25315e-88
 6.88379e-89
-7.19923e-89
 9.72016e-91
 2.07475e-89
-1.79808e-88
-1.18716e-88
 4.75283e-89
-1.54835e-88
 1.41719e-88
-1.02226e-88
 1.24492e-88
-8.96653e-90
 1.50779e-88
 1.19609e-88
 1.71475e-89
 -8.4914e-89
 1.27045e-88
 1.05621e-88
-5.73258e-89
 1.71175e-88
-1.76017e-88
 3.26627e-89
  1.6688e-88
-8.19768e-89
-1.54505e-88
-2.24284e-89
 7.31298e-90
-7.70425e-89
-2.71422e-89
-7.45085e-89
-2.00795e-89
-1.40601e-88
 3.57773e-89
 1.63171e-88
 6.24243e-89
 3.82473e-89
-1.37842e-88
-7.23443e-89
 6.56902e-89
 -1.7842e-88
 7.70788e-90
 7.88559e-90
-5.10822e-90
-2.38102e-89
-5.48027e-89
-1.70258e-88
 7.35538e-89
-1.10054e-88
 1.17641e-88
-1.66069e-88
-1.21177e-88
 1.23902e-88
  4.8872e-89
-1.36593e-88
-1.40372e-88
 7.66456e-89
 2.32568e-89
 4.92196e-89
 1.81881e-88
 1.78393e-88
 1.56989e-88
-2.04952e-89
-1.44505e-88
 1.04696e-89
-3.96216e-89
 1.00197e-88
 -1.3358e-88
 4.81442e-90
-1.54444e-88
 1.14388e-88
 8.67273e-90
 3.55417e-89
-6.00231e-89
-1.78732e-88
-1.70565e-88
 6.74524e-89
-1.66712e-88
 8.52665e-89
 1.39676e-88
 1.33207e-88
 1.01476e-88
-1.63797e-88
 7.48124e-89
-3.19492e-89
-1.18112e-88
 1.16719e-88
  -1.376e-88
 8.74226e-89
-1.63584e-89
-1.38016e-88
 8.35183e-89
-4.16661e-89
 2.37667e-89
 1.21291e-88
 1.51082e-88
 1.66423e-88
  3.9191e-89
-1.64795e-88
-1.10592e-89
 6.70248e-89
 1.31871e-88
 1.79892e-88
-7.97304e-89
-1.10449e-88
-1.81138e-88
-6.80178e-89
 1.39282e-88
-1.65572e-88
-1.65048e-88
 9.66607e-89
 1.49914e-88
 1.18706e-88
 1.15141e-88
 4.24291e-89
-9.55404e-89
 1.79307e-88
-2.31488e-89
-5.08628e-89
 8.44328e-89
 1.42771e-88
-6.60084e-90
-1.43458e-89
-8.11921e-89
-1.65131e-88
-7.53517e-89
-1.12407e-88
-1.81005e-88
 1.46117e-88
-9.49247e-89
-9.78578e-90
 3.08452e-89
-1.45351e-88
-1.21911e-89
 1.33393e-88
-7.35214e-89
-1.10507e-89
-1.16922e-88
-1.16537e-88
 5.65584e-90
-9.96918e-89
 1.62402e-88
-2.67274e-89
-1.63283e-88
 9.52464e-89
-1.66595e-88
-7.65453e-89
 9.22567e-89
-7.46596e-90
   5.487e-89
-5.60742e-90
 -4.6992e-89
-1.34028e-88
 1.62325e-88
  5.4094e-89
-1.16881e-88
-9.53237e-89
 1.23965e-88
-1.15607e-88
-1.31503e-88
-1.53257e-88
 5.68851e-89
 8.16201e-89
-1.16329e-88
-1.37603e-88
 3.27161e-89
-7.57252e-90
 3.36245e-89
 9.80724e-89
 5.81689e-89
-1.43017e-88
 1.80659e-88
  3.8274e-89
 1.25341e-89
-1.64921e-88
-4.87765e-89
 2.82169e-89
-5.91885e-89
-1.38817e-88
-1.61546e-88
  1.7796e-88
 3.78539e-89
-2.62598e-89
-1.38365e-88
  1.7882e-89
-1.54463e-88
-7.29677e-89
 1.04836e-88
  1.5178e-88
-6.29683e-90
 1.55611e-88
 1.80801e-88
-1.31709e-88
 5.49343e-89
-1.17825e-88
-8.70335e-89
-9.46465e-89
 5.68808e-89
 1.28869e-88
-1.78871e-88
-6.72473e-89
 1.68131e-88
-1.80509e-88
 1.53305e-88
-1.63226e-90
-1.63152e-88
-7.77686e-89
-1.55712e-88
-4.00628e-89
-3.43073e-89
 -1.3498e-88
-4.44001e-89
 -1.7875e-88
 2.10382e-89
-4.87096e-91
 2.14098e-89
 4.88536e-89
 1.08823e-88
-5.60508e-89
 1.83369e-89
-7.97704e-89
-8.27365e-89
 1.68413e-89
 -2.9201e-89
 1.54476e-88
 8.12947e-89
 6.60436e-89
-1.22468e-88
-4.41215e-89
 1.26158e-89
 -1.1906e-88
 7.09094e-89
-1.55057e-90
-1.17292e-88
 4.19172e-89
 1.79095e-88
-9.81658e-89
 1.46427e-88
-1.58914e-88
 4.40495e-89
-7.01775e-89
-1.11616e-88
 1.81928e-88
-6.66496e-89
 9.17005e-89
-8.56494e-91
 1.37038e-88
-4.17428e-89
-7.43301e-89
-1.01309e-88
 1.58872e-88
 2.81776e-89
-1.76781e-90
 -6.5834e-90
 1.81255e-88
-2.95888e-89
-1.07586e-88
 6.50014e-89
 3.02217e-89
  3.0571e-89
 -1.0468e-88
 9.34394e-89
-8.08166e-89
 7.60478e-89
 1.58426e-88
 1.43379e-88
 7.28461e-89
-1.22037e-88
 1.07509e-88
 9.62104e-89
 1.04291e-88
-1.44966e-88
 1.66873e-88
 1.03921e-88
-2.93374e-89
 7.62762e-89
 -7.9232e-89
 -7.4596e-89
-1.47763e-88
  2.8716e-89
 6.37272e-90
-1.71188e-88
-1.25403e-88
-1.77692e-88
 4.50649e-90
-1.26446e-88
-2.50027e-89
 7.91989e-89
 1.20834e-88
-1.77078e-88
 -7.2527e-89
-1.66143e-88
 9.86396e-89
 2.89345e-89
 9.21832e-89
 7.47686e-89
-9.98365e-90
-1.72676e-89
  1.3501e-88
 -8.4772e-89
-1.03354e-88
 5.70039e-89
-4.74597e-89
-1.18778e-88
-2.13716e-89
 1.05481e-88
 1.39776e-88
 8.16745e-89
-1.51412e-88
  1.7429e-88
-7.19063e-89
 3.72389e-89
-1.79195e-88
-1.50315e-89
  4.1825e-89
 7.58989e-90
 4.08011e-89
-1.65475e-88
-9.55081e-89
-2.06618e-89
-1.60274e-88
  1.4243e-89
-4.52644e-90
 1.20643e-88
-1.39119e-88
-9.46402e-89
  1.3115e-89
  3.3175e-89
 7.03703e-89
-3.41719e-89
 1.30681e-88
 1.49294e-88
-1.59465e-88
-9.90755e-89
-1.51781e-88
 1.44156e-90
-1.75891e-88
 1.70273e-88
-9.91808e-89
-1.45025e-88
 1.62266e-88
 1.11909e-89
 7.44918e-89
  1.6535e-88
 1.78438e-88
-6.59801e-89
-9.35741e-90
 3.69417e-89
-4.91766e-89
 7.74126e-89
-1.66017e-88
-2.71729e-89
-9.06413e-89
 1.17346e-89
-8.88265e-89
-4.74827e-89
 9.93725e-89
 1.06567e-88
  1.6797e-88
-1.25541e-89
-1.09902e-88
 1.16355e-88
-4.55569e-89
 -8.7089e-89
-1.65018e-88
  -1.506e-89
 9.66306e-89
-1.58631e-88
-2.70842e-89
 1.79728e-88
-1.21378e-88
-4.71149e-89
 8.62193e-90
 1.35392e-88
-6.40622e-89
 4.76255e-90
-1.12885e-88
 1.08859e-88
-1.40593e-88
 2.02162e-89
 3.97421e-90
-1.24332e-88
 1.75321e-88
  9.5611e-89
 6.96811e-89
-9.58019e-89
-1.34169e-88
-1.32433e-89
-1.71532e-88
-1.48495e-88
 1.56481e-88
-9.91563e-89
 1.50138e-88
-7.13731e-89
 -3.9672e-90
 1.67398e-88
  9.5845e-89
-8.96335e-89
 -1.7353e-88
-1.13536e-88
-9.22025e-89
 -1.1263e-88
 2.16272e-89
 9.86975e-89
-1.59535e-88
 1.39843e-88
-7.88368e-89
-9.01427e-89
 6.64047e-89
-3.71514e-89
 1.12352e-88
-1.11918e-88
